svm_type c_svc
kernel_type polynomial
degree 5
gamma 0.0166667
coef0 0
nr_class 2
total_sv 2115
rho -0.0930896
label 1 -1
nr_sv 1088 1027
SV
25 1:-1 2:-0.333333 3:-0.333333 4:-1 5:-0.333333 6:0.333333 7:-1 8:-1 9:-1 10:1 11:-0.333333 12:-1 13:-1 14:-1 15:0.333333 16:-1 17:-0.333333 18:0.333333 19:0.333333 20:-1 21:-1 22:0.333333 23:1 24:0.333333 25:0.333333 26:-1 27:0.333333 28:1 29:-0.333333 30:0.333333 31:0.333333 32:1 33:0.333333 34:0.333333 35:0.333333 36:0.333333 37:0.333333 38:-1 39:1 40:-0.333333 41:0.333333 42:0.333333 43:-1 44:-0.333333 45:-1 46:-1 47:-0.333333 48:-0.333333 49:1 50:-0.333333 51:0.333333 52:0.333333 53:1 54:-0.333333 55:1 56:0.333333 57:-0.333333 58:-1 59:-0.333333 60:0.333333 
25 1:0.333333 2:0.333333 3:1 4:-0.333333 5:-1 6:0.333333 7:-1 8:-0.333333 9:0.333333 10:-1 11:1 12:0.333333 13:-1 14:0.333333 15:-1 16:1 17:-0.333333 18:-0.333333 19:-1 20:-1 21:-0.333333 22:0.333333 23:0.333333 24:-1 25:1 26:-1 27:1 28:-0.333333 29:-1 30:1 31:-0.333333 32:0.333333 33:-1 34:-0.333333 35:0.333333 36:0.333333 37:-0.333333 38:-1 39:0.333333 40:0.333333 41:1 42:-0.333333 43:-0.333333 44:-1 45:0.333333 46:0.333333 47:0.333333 48:0.333333 49:-1 50:0.333333 51:0.333333 52:-0.333333 53:-1 54:-0.333333 55:-1 56:-1 57:0.333333 58:0.333333 59:0.333333 60:0.333333 
25 1:0.333333 2:0.333333 3:0.333333 4:-1 5:-0.333333 6:-0.333333 7:1 8:1 9:-1 10:0.333333 11:0.333333 12:0.333333 13:-0.333333 14:0.333333 15:-0.333333 16:-0.333333 17:-1 18:-1 19:-1 20:1 21:1 22:1 23:-1 24:1 25:-0.333333 26:0.333333 27:1 28:-0.333333 29:1 30:0.333333 31:0.333333 32:-0.333333 33:-0.333333 34:1 35:0.333333 36:-1 37:0.333333 38:0.333333 39:-0.333333 40:1 41:-0.333333 42:-1 43:0.333333 44:-1 45:-1 46:1 47:-0.333333 48:0.333333 49:-1 50:-0.333333 51:0.333333 52:1 53:-0.333333 54:-1 55:-0.333333 56:-0.333333 57:-1 58:-1 59:0.333333 60:0.333333 
11.63458021301535 1:1 2:1 3:-0.333333 4:1 5:-1 6:-1 7:1 8:0.333333 9:1 10:-0.333333 11:-1 12:-0.333333 13:-1 14:-1 15:-0.333333 16:-1 17:-0.333333 18:-0.333333 19:-1 20:-0.333333 21:-1 22:-1 23:-0.333333 24:1 25:-1 26:1 27:-1 28:-0.333333 29:-0.333333 30:-0.333333 31:-1 32:0.333333 33:0.333333 34:1 35:1 36:1 37:0.333333 38:0.333333 39:1 40:-0.333333 41:-1 42:0.333333 43:-1 44:1 45:-0.333333 46:-1 47:-0.333333 48:-0.333333 49:-0.333333 50:-0.333333 51:-1 52:-0.333333 53:1 54:0.333333 55:0.333333 56:-1 57:-1 58:1 59:0.333333 60:1 
17.62056788991478 1:1 2:-0.333333 3:-1 4:1 5:-0.333333 6:-1 7:-0.333333 8:0.333333 9:1 10:0.333333 11:1 12:-0.333333 13:0.333333 14:-1 15:1 16:0.333333 17:0.333333 18:0.333333 19:-1 20:1 21:1 22:1 23:-0.333333 24:1 25:-0.333333 26:-0.333333 27:1 28:0.333333 29:-1 30:1 31:1 32:0.333333 33:0.333333 34:1 35:-0.333333 36:0.333333 37:1 38:-1 39:0.333333 40:-1 41:-0.333333 42:1 43:0.333333 44:1 45:0.333333 46:0.333333 47:-1 48:-1 49:0.333333 50:-1 51:-1 52:1 53:-0.333333 54:1 55:0.333333 56:0.333333 57:0.333333 58:1 59:-0.333333 60:-0.333333 
17.17865395559168 1:1 2:-1 3:-1 4:1 5:-0.333333 6:0.333333 7:0.333333 8:-1 9:0.333333 10:0.333333 11:1 12:1 13:1 14:-0.333333 15:0.333333 16:-1 17:0.333333 18:1 19:-1 20:0.333333 21:0.333333 22:1 23:0.333333 24:0.333333 25:0.333333 26:1 27:0.333333 28:1 29:-1 30:-0.333333 31:-0.333333 32:-1 33:-0.333333 34:-1 35:-1 36:-0.333333 37:-1 38:0.333333 39:1 40:0.333333 41:1 42:1 43:0.333333 44:0.333333 45:-1 46:0.333333 47:0.333333 48:1 49:0.333333 50:1 51:1 52:1 53:1 54:1 55:-0.333333 56:0.333333 57:0.333333 58:1 59:-0.333333 60:-1 
8.45046154634611 1:-1 2:-0.333333 3:0.333333 4:1 5:0.333333 6:0.333333 7:-1 8:-0.333333 9:-0.333333 10:0.333333 11:1 12:-1 13:1 14:1 15:1 16:1 17:1 18:-0.333333 19:1 20:-0.333333 21:0.333333 22:1 23:1 24:-1 25:-0.333333 26:1 27:1 28:-1 29:0.333333 30:1 31:-0.333333 32:-0.333333 33:1 34:1 35:1 36:1 37:0.333333 38:1 39:0.333333 40:0.333333 41:-1 42:1 43:1 44:-0.333333 45:0.333333 46:-1 47:1 48:1 49:-0.333333 50:1 51:1 52:-1 53:-0.333333 54:-0.333333 55:0.333333 56:-1 57:1 58:-0.333333 59:-0.333333 60:1 
10.90368193268632 1:1 2:-0.333333 3:-0.333333 4:-0.333333 5:1 6:1 7:-0.333333 8:-1 9:1 10:-1 11:1 12:1 13:-0.333333 14:0.333333 15:1 16:0.333333 17:1 18:1 19:-0.333333 20:-1 21:-1 22:1 23:-0.333333 24:1 25:-0.333333 26:-1 27:-0.333333 28:0.333333 29:-0.333333 30:-1 31:1 32:-1 33:1 34:1 35:1 36:-1 37:-0.333333 38:0.333333 39:1 40:0.333333 41:0.333333 42:-0.333333 43:-1 44:-1 45:-0.333333 46:-0.333333 47:-0.333333 48:-1 49:1 50:1 51:1 52:-0.333333 53:-0.333333 54:-1 55:-0.333333 56:-0.333333 57:-0.333333 58:-0.333333 59:1 60:1 
25 1:1 2:0.333333 3:-0.333333 4:-0.333333 5:-0.333333 6:0.333333 7:1 8:1 9:0.333333 10:0.333333 11:-0.333333 12:-0.333333 13:-1 14:-0.333333 15:0.333333 16:1 17:1 18:1 19:-0.333333 20:-0.333333 21:0.333333 22:-0.333333 23:-0.333333 24:0.333333 25:-1 26:-0.333333 27:0.333333 28:1 29:-1 30:-0.333333 31:-0.333333 32:-0.333333 33:-0.333333 34:-1 35:-0.333333 36:-0.333333 37:-1 38:1 39:-0.333333 40:-0.333333 41:0.333333 42:-0.333333 43:-0.333333 44:-1 45:-0.333333 46:1 47:0.333333 48:1 49:1 50:0.333333 51:-0.333333 52:-0.333333 53:-1 54:1 55:-1 56:-1 57:-0.333333 58:0.333333 59:1 60:0.333333 
4.1203313112723 1:-0.333333 2:-0.333333 3:-1 4:-0.333333 5:0.333333 6:1 7:-0.333333 8:-0.333333 9:-1 10:-0.333333 11:-0.333333 12:-1 13:0.333333 14:-1 15:0.333333 16:-1 17:-0.333333 18:0.333333 19:-1 20:0.333333 21:-1 22:1 23:1 24:-0.333333 25:-0.333333 26:-1 27:-1 28:-1 29:1 30:0.333333 31:-1 32:-1 33:-0.333333 34:-1 35:-1 36:-0.333333 37:-1 38:-1 39:-1 40:-1 41:1 42:-1 43:-1 44:-1 45:-1 46:-0.333333 47:1 48:-1 49:-1 50:-1 51:-1 52:-1 53:0.333333 54:-1 55:-0.333333 56:-0.333333 57:-1 58:-1 59:1 60:1 
25 1:0.333333 2:0.333333 3:-1 4:1 5:0.333333 6:-0.333333 7:-1 8:-0.333333 9:-1 10:-1 11:-0.333333 12:0.333333 13:1 14:0.333333 15:-0.333333 16:0.333333 17:-0.333333 18:-0.333333 19:1 20:-0.333333 21:-0.333333 22:-1 23:-1 24:-0.333333 25:0.333333 26:0.333333 27:0.333333 28:1 29:-0.333333 30:1 31:0.333333 32:0.333333 33:-1 34:-0.333333 35:0.333333 36:0.333333 37:1 38:-0.333333 39:-0.333333 40:-1 41:0.333333 42:-0.333333 43:-0.333333 44:0.333333 45:-0.333333 46:-1 47:0.333333 48:0.333333 49:1 50:-0.333333 51:-0.333333 52:0.333333 53:-0.333333 54:-0.333333 55:-0.333333 56:0.333333 57:0.333333 58:-0.333333 59:-1 60:1 
25 1:-1 2:-0.333333 3:0.333333 4:0.333333 5:0.333333 6:0.333333 7:-1 8:0.333333 9:-0.333333 10:-0.333333 11:-0.333333 12:0.333333 13:-0.333333 14:0.333333 15:0.333333 16:-1 17:0.333333 18:-0.333333 19:-0.333333 20:-1 21:-1 22:0.333333 23:0.333333 24:0.333333 25:-0.333333 26:0.333333 27:1 28:0.333333 29:-0.333333 30:-1 31:1 32:0.333333 33:1 34:0.333333 35:-0.333333 36:0.333333 37:0.333333 38:-0.333333 39:0.333333 40:0.333333 41:-1 42:-1 43:0.333333 44:1 45:-0.333333 46:-0.333333 47:1 48:-1 49:-0.333333 50:-1 51:0.333333 52:-1 53:1 54:-0.333333 55:-0.333333 56:-1 57:-0.333333 58:-1 59:0.333333 60:0.333333 
24.51049005905676 1:0.333333 2:-1 3:0.333333 4:1 5:-1 6:-0.333333 7:-1 8:-1 9:-1 10:-0.333333 11:-1 12:1 13:-1 14:-0.333333 15:-0.333333 16:-1 17:0.333333 18:-1 19:0.333333 20:1 21:-0.333333 22:-0.333333 23:-1 24:-0.333333 25:-0.333333 26:-0.333333 27:1 28:-0.333333 29:-0.333333 30:-0.333333 31:-1 32:-1 33:-0.333333 34:0.333333 35:0.333333 36:0.333333 37:1 38:-1 39:-0.333333 40:0.333333 41:-1 42:-0.333333 43:1 44:1 45:1 46:0.333333 47:1 48:1 49:0.333333 50:0.333333 51:-1 52:-0.333333 53:-0.333333 54:-0.333333 55:1 56:-0.333333 57:-0.333333 58:-0.333333 59:0.333333 60:1 
25 1:-1 2:1 3:-1 4:-0.333333 5:-1 6:-0.333333 7:0.333333 8:-1 9:-0.333333 10:-0.333333 11:-1 12:-0.333333 13:-0.333333 14:-0.333333 15:1 16:0.333333 17:0.333333 18:-0.333333 19:-0.333333 20:-1 21:-0.333333 22:1 23:-1 24:1 25:1 26:-0.333333 27:-0.333333 28:-0.333333 29:-1 30:0.333333 31:-0.333333 32:-0.333333 33:-0.333333 34:-0.333333 35:-1 36:-0.333333 37:-1 38:0.333333 39:-1 40:0.333333 41:-0.333333 42:-0.333333 43:-1 44:-1 45:-1 46:-0.333333 47:1 48:-0.333333 49:-1 50:-1 51:-0.333333 52:-0.333333 53:0.333333 54:0.333333 55:0.333333 56:-1 57:0.333333 58:1 59:0.333333 60:-1 
25 1:-0.333333 2:0.333333 3:-1 4:-0.333333 5:-0.333333 6:1 7:-1 8:-0.333333 9:-0.333333 10:1 11:0.333333 12:0.333333 13:-1 14:-1 15:-0.333333 16:0.333333 17:1 18:-0.333333 19:0.333333 20:0.333333 21:0.333333 22:0.333333 23:-0.333333 24:1 25:0.333333 26:0.333333 27:-1 28:-1 29:-1 30:0.333333 31:-1 32:1 33:0.333333 34:0.333333 35:1 36:0.333333 37:1 38:1 39:0.333333 40:0.333333 41:1 42:1 43:-0.333333 44:1 45:0.333333 46:1 47:-0.333333 48:-0.333333 49:-1 50:-0.333333 51:0.333333 52:0.333333 53:1 54:-0.333333 55:-0.333333 56:-1 57:-0.333333 58:-0.333333 59:-1 60:-0.333333 
22.15240066350551 1:-0.333333 2:-1 3:1 4:-0.333333 5:-0.333333 6:1 7:-0.333333 8:-0.333333 9:-0.333333 10:-1 11:0.333333 12:-1 13:1 14:0.333333 15:-1 16:-1 17:-1 18:0.333333 19:1 20:-0.333333 21:0.333333 22:-0.333333 23:0.333333 24:1 25:-0.333333 26:0.333333 27:0.333333 28:1 29:0.333333 30:0.333333 31:-0.333333 32:1 33:-0.333333 34:-1 35:-1 36:-1 37:-0.333333 38:-0.333333 39:0.333333 40:-1 41:-0.333333 42:-1 43:1 44:1 45:0.333333 46:-1 47:0.333333 48:0.333333 49:-1 50:1 51:0.333333 52:1 53:0.333333 54:-1 55:-1 56:-0.333333 57:-1 58:-0.333333 59:-1 60:1 
16.33634910480895 1:-0.333333 2:-1 3:-1 4:-0.333333 5:-0.333333 6:0.333333 7:1 8:1 9:-1 10:1 11:-0.333333 12:1 13:-0.333333 14:-0.333333 15:-1 16:1 17:-0.333333 18:-1 19:1 20:-1 21:0.333333 22:1 23:0.333333 24:0.333333 25:1 26:-0.333333 27:0.333333 28:1 29:-0.333333 30:-1 31:-1 32:0.333333 33:-1 34:-0.333333 35:-1 36:1 37:-0.333333 38:-1 39:-1 40:-1 41:-0.333333 42:0.333333 43:-1 44:-0.333333 45:-1 46:-1 47:0.333333 48:-0.333333 49:1 50:-0.333333 51:-1 52:-0.333333 53:0.333333 54:-1 55:-0.333333 56:-1 57:-0.333333 58:-0.333333 59:-1 60:1 
5.244979256418659 1:0.333333 2:1 3:-1 4:0.333333 5:-1 6:1 7:1 8:0.333333 9:0.333333 10:1 11:1 12:1 13:1 14:0.333333 15:0.333333 16:1 17:-0.333333 18:1 19:-0.333333 20:-1 21:-1 22:-1 23:1 24:-1 25:1 26:-0.333333 27:1 28:-0.333333 29:-1 30:-0.333333 31:1 32:-0.333333 33:-1 34:1 35:-1 36:-1 37:1 38:1 39:-1 40:-1 41:-1 42:0.333333 43:-1 44:0.333333 45:1 46:1 47:1 48:-1 49:-0.333333 50:-1 51:0.333333 52:0.333333 53:1 54:-0.333333 55:-1 56:1 57:1 58:0.333333 59:1 60:-0.333333 
25 1:1 2:1 3:1 4:-1 5:0.333333 6:0.333333 7:-1 8:-0.333333 9:-1 10:-0.333333 11:-0.333333 12:-0.333333 13:-1 14:-0.333333 15:0.333333 16:0.333333 17:-1 18:-0.333333 19:-0.333333 20:-0.333333 21:0.333333 22:1 23:-0.333333 24:0.333333 25:-1 26:-0.333333 27:0.333333 28:1 29:0.333333 30:-1 31:1 32:0.333333 33:1 34:-0.333333 35:1 36:1 37:1 38:-0.333333 39:0.333333 40:-0.333333 41:-0.333333 42:-1 43:1 44:0.333333 45:-1 46:-1 47:-0.333333 48:-1 49:-1 50:0.333333 51:0.333333 52:0.333333 53:-0.333333 54:-1 55:-0.333333 56:0.333333 57:1 58:-0.333333 59:1 60:-0.333333 
25 1:-0.333333 2:0.333333 3:0.333333 4:-0.333333 5:1 6:-0.333333 7:-0.333333 8:1 9:1 10:1 11:1 12:1 13:1 14:1 15:-0.333333 16:0.333333 17:1 18:1 19:0.333333 20:-1 21:0.333333 22:0.333333 23:-1 24:0.333333 25:0.333333 26:0.333333 27:1 28:-0.333333 29:-1 30:-0.333333 31:-0.333333 32:1 33:-0.333333 34:0.333333 35:-0.333333 36:1 37:0.333333 38:0.333333 39:1 40:-0.333333 41:-0.333333 42:-0.333333 43:-0.333333 44:-1 45:0.333333 46:-1 47:-1 48:-0.333333 49:0.333333 50:-1 51:-1 52:-1 53:-1 54:-0.333333 55:-0.333333 56:0.333333 57:1 58:0.333333 59:0.333333 60:1 
2.257599354535523 1:-1 2:1 3:-1 4:1 5:1 6:1 7:1 8:-1 9:1 10:-1 11:-1 12:-0.333333 13:1 14:-1 15:1 16:0.333333 17:1 18:-1 19:1 20:1 21:1 22:-1 23:-1 24:1 25:0.333333 26:1 27:1 28:1 29:1 30:-0.333333 31:1 32:-1 33:-0.333333 34:1 35:1 36:-1 37:-1 38:0.333333 39:1 40:-0.333333 41:1 42:-1 43:0.333333 44:1 45:1 46:1 47:1 48:1 49:-1 50:-1 51:-0.333333 52:-1 53:-0.333333 54:0.333333 55:1 56:0.333333 57:-1 58:-1 59:1 60:1 
25 1:-0.333333 2:0.333333 3:1 4:-0.333333 5:-0.333333 6:0.333333 7:0.333333 8:1 9:-0.333333 10:-0.333333 11:1 12:1 13:0.333333 14:1 15:-1 16:0.333333 17:1 18:1 19:-0.333333 20:1 21:-1 22:-0.333333 23:0.333333 24:1 25:-0.333333 26:1 27:-0.333333 28:-0.333333 29:1 30:0.333333 31:-1 32:0.333333 33:1 34:-0.333333 35:-0.333333 36:-1 37:-0.333333 38:0.333333 39:1 40:-0.333333 41:1 42:-0.333333 43:-0.333333 44:1 45:0.333333 46:-0.333333 47:0.333333 48:1 49:-0.333333 50:0.333333 51:1 52:-0.333333 53:1 54:-1 55:-1 56:1 57:-0.333333 58:1 59:-0.333333 60:-0.333333 
13.19739960196429 1:-0.333333 2:-1 3:-1 4:1 5:-0.333333 6:0.333333 7:0.333333 8:-0.333333 9:0.333333 10:0.333333 11:0.333333 12:1 13:-0.333333 14:-0.333333 15:1 16:1 17:-1 18:1 19:1 20:0.333333 21:0.333333 22:-0.333333 23:-0.333333 24:-1 25:-1 26:-0.333333 27:-1 28:0.333333 29:0.333333 30:-0.333333 31:1 32:1 33:1 34:1 35:0.333333 36:1 37:-1 38:1 39:0.333333 40:-1 41:1 42:0.333333 43:1 44:-0.333333 45:0.333333 46:0.333333 47:1 48:-1 49:-1 50:-1 51:-1 52:-1 53:-1 54:0.333333 55:1 56:0.333333 57:-1 58:-0.333333 59:1 60:0.333333 
25 1:-1 2:-0.333333 3:-1 4:-0.333333 5:1 6:-0.333333 7:-1 8:-1 9:-1 10:0.333333 11:0.333333 12:1 13:0.333333 14:0.333333 15:1 16:1 17:0.333333 18:0.333333 19:-1 20:0.333333 21:0.333333 22:1 23:-0.333333 24:-1 25:0.333333 26:-0.333333 27:-0.333333 28:-1 29:-1 30:0.333333 31:0.333333 32:0.333333 33:1 34:0.333333 35:-1 36:-0.333333 37:0.333333 38:0.333333 39:0.333333 40:-1 41:1 42:-1 43:1 44:-0.333333 45:-1 46:-0.333333 47:0.333333 48:-0.333333 49:-1 50:0.333333 51:-0.333333 52:0.333333 53:-0.333333 54:-0.333333 55:0.333333 56:1 57:-0.333333 58:-1 59:-0.333333 60:1 
5.081084763939966 1:-0.333333 2:0.333333 3:1 4:-1 5:-0.333333 6:1 7:-1 8:1 9:1 10:1 11:1 12:1 13:1 14:1 15:1 16:1 17:1 18:1 19:1 20:1 21:1 22:1 23:-0.333333 24:1 25:-1 26:1 27:1 28:1 29:1 30:1 31:1 32:-1 33:1 34:-1 35:-0.333333 36:-1 37:-0.333333 38:-1 39:0.333333 40:-1 41:-0.333333 42:-0.333333 43:-0.333333 44:1 45:0.333333 46:1 47:1 48:-0.333333 49:0.333333 50:0.333333 51:-1 52:1 53:-0.333333 54:1 55:1 56:-0.333333 57:0.333333 58:0.333333 59:0.333333 60:-1 
9.633992684346223 1:-0.333333 2:-0.333333 3:1 4:1 5:0.333333 6:1 7:0.333333 8:1 9:1 10:-0.333333 11:-0.333333 12:-0.333333 13:0.333333 14:1 15:0.333333 16:1 17:-1 18:-0.333333 19:-0.333333 20:1 21:0.333333 22:0.333333 23:1 24:-0.333333 25:-0.333333 26:-1 27:-0.333333 28:-1 29:-1 30:1 31:-0.333333 32:1 33:1 34:-0.333333 35:1 36:-0.333333 37:-1 38:-0.333333 39:-0.333333 40:-0.333333 41:-0.333333 42:1 43:1 44:1 45:-1 46:1 47:1 48:1 49:1 50:1 51:1 52:1 53:1 54:1 55:-1 56:-1 57:1 58:-1 59:-0.333333 60:1 
4.11002164256138 1:-1 2:0.333333 3:-1 4:0.333333 5:-1 6:1 7:1 8:0.333333 9:1 10:-1 11:-1 12:-1 13:1 14:-1 15:1 16:-0.333333 17:1 18:-0.333333 19:-0.333333 20:0.333333 21:0.333333 22:1 23:-1 24:-0.333333 25:-1 26:-1 27:-0.333333 28:-1 29:1 30:1 31:1 32:1 33:-0.333333 34:-0.333333 35:1 36:0.333333 37:1 38:-1 39:0.333333 40:1 41:1 42:1 43:1 44:0.333333 45:1 46:-0.333333 47:1 48:-0.333333 49:-1 50:-1 51:0.333333 52:-1 53:-1 54:-1 55:-1 56:1 57:1 58:1 59:-1 60:-1 
14.30198877539195 1:-0.333333 2:0.333333 3:-1 4:0.333333 5:0.333333 6:1 7:1 8:1 9:-1 10:-1 11:-0.333333 12:-1 13:-1 14:-1 15:-0.333333 16:-1 17:-1 18:1 19:-0.333333 20:1 21:-0.333333 22:1 23:-0.333333 24:-0.333333 25:-1 26:-0.333333 27:1 28:-0.333333 29:1 30:-1 31:-1 32:-0.333333 33:-1 34:-1 35:-0.333333 36:1 37:1 38:1 39:-0.333333 40:-1 41:0.333333 42:0.333333 43:-0.333333 44:-0.333333 45:-0.333333 46:-1 47:-0.333333 48:0.333333 49:0.333333 50:0.333333 51:1 52:-1 53:0.333333 54:-1 55:1 56:-0.333333 57:-1 58:0.333333 59:0.333333 60:-0.333333 
7.796983405302815 1:1 2:-1 3:0.333333 4:0.333333 5:1 6:-1 7:0.333333 8:-1 9:-0.333333 10:0.333333 11:-1 12:-1 13:0.333333 14:-1 15:-1 16:0.333333 17:-1 18:-1 19:0.333333 20:1 21:-1 22:-0.333333 23:0.333333 24:-1 25:-1 26:0.333333 27:-1 28:-1 29:-0.333333 30:1 31:-1 32:-1 33:0.333333 34:-1 35:-1 36:0.333333 37:1 38:-0.333333 39:-0.333333 40:0.333333 41:1 42:-1 43:0.333333 44:-0.333333 45:-1 46:1 47:0.333333 48:0.333333 49:1 50:-1 51:-1 52:0.333333 53:-1 54:-1 55:0.333333 56:1 57:-1 58:-1 59:1 60:-0.333333 
25 1:0.333333 2:-1 3:1 4:0.333333 5:-0.333333 6:-1 7:0.333333 8:0.333333 9:-1 10:1 11:0.333333 12:1 13:0.333333 14:0.333333 15:-1 16:-0.333333 17:0.333333 18:0.333333 19:-1 20:1 21:0.333333 22:1 23:-0.333333 24:-0.333333 25:0.333333 26:1 27:-1 28:0.333333 29:0.333333 30:-1 31:-1 32:-0.333333 33:0.333333 34:-1 35:1 36:0.333333 37:1 38:0.333333 39:-1 40:-1 41:-0.333333 42:-0.333333 43:-1 44:-1 45:-0.333333 46:-0.333333 47:-1 48:-0.333333 49:-0.333333 50:0.333333 51:0.333333 52:1 53:0.333333 54:0.333333 55:1 56:-0.333333 57:-1 58:0.333333 59:0.333333 60:1 
22.51355549072849 1:0.333333 2:-1 3:1 4:-0.333333 5:-0.333333 6:0.333333 7:1 8:-0.333333 9:-1 10:-1 11:-0.333333 12:-0.333333 13:-0.333333 14:-0.333333 15:-1 16:-1 17:-1 18:1 19:0.333333 20:-1 21:0.333333 22:0.333333 23:-1 24:0.333333 25:0.333333 26:1 27:1 28:0.333333 29:-1 30:0.333333 31:-1 32:-0.333333 33:0.333333 34:0.333333 35:0.333333 36:1 37:-0.333333 38:-1 39:0.333333 40:0.333333 41:-0.333333 42:-1 43:-0.333333 44:-1 45:-1 46:-0.333333 47:1 48:1 49:1 50:-1 51:-1 52:1 53:0.333333 54:1 55:-0.333333 56:0.333333 57:0.333333 58:1 59:0.333333 60:0.333333 
16.89600345024555 1:-0.333333 2:-0.333333 3:0.333333 4:-1 5:0.333333 6:-1 7:0.333333 8:-1 9:0.333333 10:-1 11:1 12:-0.333333 13:-0.333333 14:-1 15:1 16:-1 17:1 18:-0.333333 19:1 20:-0.333333 21:0.333333 22:-1 23:0.333333 24:-1 25:0.333333 26:-1 27:1 28:-0.333333 29:-0.333333 30:-1 31:0.333333 32:-1 33:0.333333 34:-1 35:1 36:-1 37:0.333333 38:-1 39:1 40:-0.333333 41:1 42:-0.333333 43:0.333333 44:-1 45:-0.333333 46:-0.333333 47:-1 48:0.333333 49:-1 50:1 51:-0.333333 52:0.333333 53:-1 54:0.333333 55:-1 56:0.333333 57:-1 58:0.333333 59:-1 60:0.333333 
11.89831946025816 1:1 2:1 3:0.333333 4:0.333333 5:1 6:0.333333 7:0.333333 8:-0.333333 9:-1 10:-0.333333 11:-0.333333 12:0.333333 13:0.333333 14:-1 15:-0.333333 16:1 17:-1 18:0.333333 19:0.333333 20:1 21:1 22:1 23:0.333333 24:0.333333 25:-1 26:1 27:1 28:1 29:-1 30:1 31:1 32:0.333333 33:1 34:1 35:1 36:-0.333333 37:-1 38:1 39:0.333333 40:1 41:1 42:0.333333 43:-1 44:-0.333333 45:-0.333333 46:-0.333333 47:-1 48:-1 49:0.333333 50:1 51:-0.333333 52:0.333333 53:-1 54:1 55:-1 56:-0.333333 57:-1 58:1 59:1 60:-0.333333 
25 1:0.333333 2:1 3:1 4:0.333333 5:-0.333333 6:0.333333 7:-0.333333 8:-0.333333 9:-1 10:-0.333333 11:-0.333333 12:0.333333 13:-0.333333 14:1 15:-0.333333 16:-0.333333 17:-1 18:-1 19:-0.333333 20:-0.333333 21:0.333333 22:-0.333333 23:0.333333 24:-1 25:-0.333333 26:1 27:1 28:0.333333 29:0.333333 30:0.333333 31:-0.333333 32:-0.333333 33:-1 34:0.333333 35:1 36:0.333333 37:-1 38:-0.333333 39:-1 40:-0.333333 41:0.333333 42:0.333333 43:0.333333 44:0.333333 45:0.333333 46:-0.333333 47:0.333333 48:-0.333333 49:0.333333 50:-1 51:1 52:-0.333333 53:-0.333333 54:-1 55:-0.333333 56:0.333333 57:1 58:-0.333333 59:0.333333 60:-0.333333 
14.57889390657127 1:-0.333333 2:-0.333333 3:0.333333 4:1 5:0.333333 6:-1 7:0.333333 8:-0.333333 9:1 10:1 11:-0.333333 12:0.333333 13:-1 14:1 15:1 16:0.333333 17:0.333333 18:1 19:-0.333333 20:1 21:1 22:-0.333333 23:-0.333333 24:-1 25:0.333333 26:-1 27:-0.333333 28:1 29:-0.333333 30:0.333333 31:1 32:-0.333333 33:1 34:0.333333 35:0.333333 36:1 37:-0.333333 38:-0.333333 39:-1 40:-0.333333 41:-1 42:-0.333333 43:1 44:1 45:-0.333333 46:1 47:1 48:0.333333 49:1 50:1 51:-1 52:1 53:-1 54:0.333333 55:-1 56:1 57:0.333333 58:-1 59:0.333333 60:-1 
25 1:-1 2:1 3:-0.333333 4:0.333333 5:0.333333 6:0.333333 7:0.333333 8:0.333333 9:-1 10:1 11:-0.333333 12:-0.333333 13:-1 14:-0.333333 15:-0.333333 16:-1 17:0.333333 18:1 19:-0.333333 20:1 21:-0.333333 22:1 23:-0.333333 24:-1 25:1 26:0.333333 27:1 28:0.333333 29:0.333333 30:-1 31:1 32:0.333333 33:0.333333 34:1 35:-0.333333 36:-0.333333 37:-0.333333 38:-1 39:-1 40:-0.333333 41:-0.333333 42:-0.333333 43:-0.333333 44:-0.333333 45:0.333333 46:1 47:0.333333 48:-1 49:1 50:1 51:0.333333 52:-1 53:0.333333 54:-1 55:-0.333333 56:-1 57:-0.333333 58:-1 59:-0.333333 60:-1 
15.79262751998102 1:-0.333333 2:-1 3:0.333333 4:-1 5:-0.333333 6:-1 7:-0.333333 8:0.333333 9:0.333333 10:-0.333333 11:-1 12:-0.333333 13:-1 14:0.333333 15:1 16:0.333333 17:0.333333 18:-1 19:1 20:0.333333 21:1 22:0.333333 23:-1 24:-1 25:-1 26:-1 27:-1 28:-1 29:1 30:-1 31:0.333333 32:-0.333333 33:-1 34:-1 35:-1 36:-1 37:0.333333 38:-1 39:-1 40:-1 41:-1 42:-1 43:1 44:0.333333 45:-1 46:-0.333333 47:0.333333 48:0.333333 49:-0.333333 50:-0.333333 51:-0.333333 52:1 53:-0.333333 54:-0.333333 55:1 56:-0.333333 57:-0.333333 58:0.333333 59:-0.333333 60:-0.333333 
25 1:0.333333 2:1 3:-1 4:-0.333333 5:-0.333333 6:-1 7:-0.333333 8:-0.333333 9:-0.333333 10:0.333333 11:1 12:0.333333 13:-0.333333 14:0.333333 15:0.333333 16:-0.333333 17:-0.333333 18:-0.333333 19:1 20:-0.333333 21:0.333333 22:-0.333333 23:-0.333333 24:0.333333 25:-0.333333 26:-0.333333 27:-0.333333 28:-0.333333 29:-1 30:-1 31:-0.333333 32:1 33:-0.333333 34:-1 35:0.333333 36:0.333333 37:-0.333333 38:1 39:-0.333333 40:0.333333 41:-0.333333 42:1 43:-0.333333 44:1 45:-1 46:-1 47:-1 48:-0.333333 49:-0.333333 50:-0.333333 51:1 52:-0.333333 53:-1 54:-0.333333 55:-0.333333 56:0.333333 57:-0.333333 58:1 59:-1 60:0.333333 
14.33106813991462 1:-1 2:-1 3:-1 4:1 5:0.333333 6:0.333333 7:-1 8:-1 9:0.333333 10:-1 11:0.333333 12:0.333333 13:1 14:0.333333 15:-1 16:-0.333333 17:0.333333 18:-0.333333 19:-1 20:1 21:-0.333333 22:1 23:-0.333333 24:-0.333333 25:-0.333333 26:0.333333 27:-1 28:0.333333 29:0.333333 30:-1 31:0.333333 32:-1 33:1 34:1 35:0.333333 36:-1 37:-1 38:0.333333 39:0.333333 40:1 41:0.333333 42:-1 43:1 44:1 45:0.333333 46:1 47:-0.333333 48:-1 49:1 50:-0.333333 51:0.333333 52:0.333333 53:1 54:-0.333333 55:-1 56:-1 57:-1 58:-1 59:-0.333333 60:0.333333 
14.66335182080888 1:-0.333333 2:0.333333 3:-1 4:-1 5:0.333333 6:1 7:0.333333 8:-1 9:1 10:-0.333333 11:-1 12:-1 13:0.333333 14:1 15:1 16:-0.333333 17:-0.333333 18:0.333333 19:0.333333 20:-1 21:1 22:1 23:0.333333 24:1 25:1 26:1 27:-0.333333 28:-0.333333 29:-0.333333 30:1 31:-1 32:1 33:-0.333333 34:-0.333333 35:-0.333333 36:-1 37:0.333333 38:-1 39:1 40:1 41:0.333333 42:0.333333 43:1 44:0.333333 45:1 46:-0.333333 47:-1 48:1 49:0.333333 50:0.333333 51:1 52:-1 53:-1 54:1 55:-0.333333 56:0.333333 57:-1 58:-0.333333 59:1 60:-0.333333 
6.474630288707535 1:-1 2:-1 3:-1 4:-0.333333 5:1 6:-0.333333 7:1 8:-1 9:-1 10:1 11:1 12:1 13:-1 14:-1 15:-1 16:0.333333 17:1 18:-1 19:-0.333333 20:-0.333333 21:-0.333333 22:1 23:0.333333 24:1 25:-1 26:-1 27:-1 28:1 29:-0.333333 30:-1 31:1 32:-1 33:-1 34:-0.333333 35:1 36:0.333333 37:0.333333 38:-0.333333 39:-0.333333 40:-1 41:-0.333333 42:1 43:0.333333 44:0.333333 45:1 46:1 47:0.333333 48:0.333333 49:-1 50:-0.333333 51:1 52:-0.333333 53:-1 54:-1 55:-1 56:1 57:-1 58:-1 59:-0.333333 60:-0.333333 
25 1:-0.333333 2:0.333333 3:1 4:-0.333333 5:0.333333 6:-1 7:0.333333 8:1 9:-0.333333 10:-0.333333 11:-1 12:1 13:-0.333333 14:-0.333333 15:-0.333333 16:-1 17:0.333333 18:0.333333 19:1 20:1 21:0.333333 22:0.333333 23:-1 24:-0.333333 25:-1 26:-0.333333 27:-0.333333 28:-1 29:-1 30:-0.333333 31:-0.333333 32:1 33:-1 34:-1 35:-0.333333 36:-0.333333 37:0.333333 38:-0.333333 39:1 40:0.333333 41:1 42:-0.333333 43:-1 44:1 45:0.333333 46:0.333333 47:-1 48:-0.333333 49:-0.333333 50:1 51:0.333333 52:1 53:-0.333333 54:-0.333333 55:-1 56:-0.333333 57:0.333333 58:1 59:-0.333333 60:-0.333333 
7.86791732636373 1:-0.333333 2:-0.333333 3:0.333333 4:1 5:-0.333333 6:-0.333333 7:-1 8:0.333333 9:-1 10:-0.333333 11:1 12:-0.333333 13:-1 14:-1 15:-1 16:1 17:-1 18:1 19:1 20:-1 21:1 22:-0.333333 23:-1 24:-1 25:0.333333 26:1 27:1 28:-0.333333 29:-1 30:-1 31:-0.333333 32:-1 33:-1 34:-1 35:-1 36:-0.333333 37:-1 38:1 39:-1 40:-0.333333 41:1 42:0.333333 43:-1 44:-0.333333 45:1 46:0.333333 47:1 48:-0.333333 49:-1 50:1 51:0.333333 52:-1 53:-1 54:-0.333333 55:-1 56:-1 57:0.333333 58:0.333333 59:1 60:-0.333333 
5.142111111951753 1:1 2:-1 3:-0.333333 4:0.333333 5:1 6:0.333333 7:-1 8:-1 9:1 10:-0.333333 11:0.333333 12:0.333333 13:-1 14:-1 15:0.333333 16:-1 17:0.333333 18:1 19:1 20:1 21:1 22:1 23:1 24:1 25:1 26:1 27:0.333333 28:1 29:1 30:1 31:1 32:1 33:0.333333 34:1 35:1 36:1 37:-0.333333 38:0.333333 39:-1 40:1 41:1 42:1 43:-1 44:-1 45:0.333333 46:-1 47:1 48:1 49:-0.333333 50:1 51:0.333333 52:1 53:1 54:-0.333333 55:-0.333333 56:-1 57:-0.333333 58:0.333333 59:1 60:-0.333333 
16.42439297652762 1:0.333333 2:-1 3:-1 4:0.333333 5:0.333333 6:0.333333 7:-1 8:-0.333333 9:0.333333 10:1 11:-1 12:1 13:-0.333333 14:-0.333333 15:1 16:1 17:0.333333 18:1 19:0.333333 20:1 21:0.333333 22:-0.333333 23:0.333333 24:-1 25:-1 26:-0.333333 27:-0.333333 28:-0.333333 29:-1 30:-1 31:-0.333333 32:1 33:0.333333 34:0.333333 35:1 36:1 37:-0.333333 38:0.333333 39:-1 40:-1 41:-0.333333 42:0.333333 43:1 44:-1 45:-1 46:1 47:1 48:0.333333 49:1 50:1 51:1 52:-0.333333 53:-1 54:0.333333 55:0.333333 56:1 57:-0.333333 58:1 59:1 60:-0.333333 
25 1:1 2:-0.333333 3:-1 4:0.333333 5:0.333333 6:1 7:-0.333333 8:-1 9:1 10:0.333333 11:1 12:1 13:1 14:-0.333333 15:0.333333 16:1 17:0.333333 18:1 19:0.333333 20:0.333333 21:0.333333 22:0.333333 23:0.333333 24:1 25:-0.333333 26:-0.333333 27:0.333333 28:0.333333 29:-1 30:-0.333333 31:1 32:1 33:-0.333333 34:-1 35:-0.333333 36:-0.333333 37:-1 38:-0.333333 39:-0.333333 40:-1 41:-0.333333 42:-1 43:-1 44:0.333333 45:0.333333 46:0.333333 47:-0.333333 48:-0.333333 49:-1 50:0.333333 51:1 52:1 53:0.333333 54:1 55:-0.333333 56:-0.333333 57:-1 58:-1 59:0.333333 60:0.333333 
16.85759541136117 1:0.333333 2:1 3:1 4:0.333333 5:1 6:-1 7:1 8:-1 9:-1 10:1 11:-1 12:1 13:1 14:-1 15:1 16:-0.333333 17:-0.333333 18:-0.333333 19:-0.333333 20:1 21:-0.333333 22:-0.333333 23:-1 24:-1 25:-0.333333 26:-0.333333 27:1 28:-0.333333 29:-0.333333 30:1 31:-0.333333 32:-0.333333 33:1 34:-1 35:1 36:-0.333333 37:-0.333333 38:-1 39:-0.333333 40:0.333333 41:-1 42:-1 43:-0.333333 44:-0.333333 45:-0.333333 46:-0.333333 47:1 48:-1 49:-0.333333 50:-0.333333 51:1 52:-0.333333 53:-0.333333 54:-0.333333 55:-1 56:-1 57:-0.333333 58:-1 59:0.333333 60:-0.333333 
2.600111888509306 1:-1 2:-1 3:0.333333 4:-1 5:-1 6:-1 7:1 8:-1 9:0.333333 10:-1 11:-1 12:1 13:1 14:0.333333 15:1 16:-0.333333 17:0.333333 18:1 19:0.333333 20:1 21:0.333333 22:1 23:1 24:-0.333333 25:1 26:-0.333333 27:1 28:-1 29:1 30:1 31:1 32:-0.333333 33:-1 34:1 35:1 36:1 37:1 38:1 39:-0.333333 40:1 41:-1 42:1 43:-0.333333 44:-1 45:-1 46:-1 47:-1 48:-1 49:-1 50:-1 51:0.333333 52:1 53:-1 54:-1 55:-1 56:-1 57:-1 58:1 59:-0.333333 60:-0.333333 
25 1:-0.333333 2:-1 3:1 4:0.333333 5:0.333333 6:-0.333333 7:0.333333 8:0.333333 9:-0.333333 10:0.333333 11:0.333333 12:0.333333 13:-0.333333 14:1 15:0.333333 16:0.333333 17:-1 18:0.333333 19:-1 20:0.333333 21:0.333333 22:0.333333 23:-0.333333 24:0.333333 25:0.333333 26:-0.333333 27:0.333333 28:0.333333 29:-1 30:-0.333333 31:-0.333333 32:1 33:-1 34:-1 35:-0.333333 36:0.333333 37:0.333333 38:0.333333 39:-0.333333 40:-0.333333 41:0.333333 42:0.333333 43:-1 44:-0.333333 45:0.333333 46:0.333333 47:-0.333333 48:-1 49:0.333333 50:0.333333 51:-0.333333 52:-0.333333 53:-0.333333 54:-0.333333 55:0.333333 56:-1 57:1 58:-0.333333 59:0.333333 60:-0.333333 
25 1:-1 2:0.333333 3:-1 4:0.333333 5:-1 6:-0.333333 7:0.333333 8:-0.333333 9:-1 10:-0.333333 11:-0.333333 12:0.333333 13:0.333333 14:1 15:0.333333 16:-1 17:-1 18:-0.333333 19:-1 20:0.333333 21:-1 22:-0.333333 23:1 24:-0.333333 25:1 26:1 27:1 28:-0.333333 29:-1 30:0.333333 31:-0.333333 32:-1 33:-1 34:-0.333333 35:0.333333 36:-0.333333 37:-1 38:1 39:0.333333 40:0.333333 41:-0.333333 42:-1 43:-0.333333 44:0.333333 45:-1 46:-0.333333 47:1 48:0.333333 49:0.333333 50:1 51:0.333333 52:1 53:-0.333333 54:0.333333 55:0.333333 56:0.333333 57:-0.333333 58:0.333333 59:0.333333 60:1 
5.885743814801881 1:-1 2:0.333333 3:1 4:1 5:1 6:0.333333 7:-1 8:0.333333 9:-1 10:-0.333333 11:1 12:-0.333333 13:1 14:-1 15:0.333333 16:-0.333333 17:-1 18:-1 19:1 20:-1 21:0.333333 22:0.333333 23:-1 24:0.333333 25:-1 26:-0.333333 27:-1 28:0.333333 29:0.333333 30:-1 31:-0.333333 32:-1 33:1 34:-1 35:-1 36:-1 37:0.333333 38:-1 39:-0.333333 40:1 41:-0.333333 42:1 43:-1 44:0.333333 45:0.333333 46:-1 47:1 48:-0.333333 49:1 50:1 51:1 52:1 53:-1 54:1 55:-1 56:-0.333333 57:0.333333 58:-1 59:0.333333 60:1 
8.673888908911872 1:1 2:0.333333 3:1 4:-0.333333 5:-0.333333 6:-0.333333 7:-1 8:-1 9:-0.333333 10:-1 11:-1 12:-0.333333 13:0.333333 14:1 15:-0.333333 16:1 17:-1 18:-1 19:-1 20:-1 21:-1 22:1 23:-0.333333 24:-0.333333 25:-0.333333 26:0.333333 27:1 28:-1 29:1 30:1 31:-1 32:1 33:-1 34:1 35:-1 36:1 37:1 38:-0.333333 39:-0.333333 40:-0.333333 41:-0.333333 42:-0.333333 43:1 44:-0.333333 45:-0.333333 46:-0.333333 47:-0.333333 48:1 49:-1 50:-0.333333 51:-1 52:-0.333333 53:-0.333333 54:-0.333333 55:-1 56:1 57:-0.333333 58:1 59:-1 60:1 
18.48182115122978 1:1 2:0.333333 3:-1 4:-1 5:0.333333 6:0.333333 7:-1 8:-0.333333 9:-1 10:-0.333333 11:-0.333333 12:1 13:1 14:0.333333 15:0.333333 16:1 17:-0.333333 18:1 19:-0.333333 20:-0.333333 21:1 22:1 23:0.333333 24:0.333333 25:1 26:-0.333333 27:0.333333 28:-1 29:-0.333333 30:-1 31:-1 32:-1 33:-1 34:0.333333 35:-1 36:-0.333333 37:1 38:0.333333 39:0.333333 40:-1 41:-0.333333 42:-0.333333 43:-1 44:-0.333333 45:0.333333 46:-1 47:0.333333 48:1 49:-1 50:1 51:0.333333 52:-1 53:-0.333333 54:-0.333333 55:-1 56:0.333333 57:1 58:1 59:1 60:-0.333333 
9.510422799379693 1:-0.333333 2:-1 3:-1 4:1 5:1 6:0.333333 7:-1 8:1 9:-0.333333 10:1 11:0.333333 12:1 13:1 14:-1 15:0.333333 16:-0.333333 17:-0.333333 18:1 19:0.333333 20:-1 21:-1 22:-0.333333 23:-0.333333 24:-0.333333 25:0.333333 26:1 27:-1 28:-0.333333 29:-1 30:-0.333333 31:-1 32:-1 33:-1 34:-0.333333 35:-0.333333 36:-1 37:1 38:1 39:1 40:0.333333 41:1 42:-0.333333 43:0.333333 44:-1 45:1 46:0.333333 47:-1 48:0.333333 49:1 50:1 51:1 52:0.333333 53:1 54:1 55:0.333333 56:0.333333 57:1 58:-0.333333 59:1 60:-1 
25 1:0.333333 2:1 3:0.333333 4:1 5:-1 6:-1 7:1 8:0.333333 9:-1 10:-0.333333 11:0.333333 12:0.333333 13:0.333333 14:1 15:0.333333 16:1 17:-0.333333 18:-0.333333 19:0.333333 20:0.333333 21:0.333333 22:-1 23:-0.333333 24:-0.333333 25:0.333333 26:-1 27:-0.333333 28:1 29:0.333333 30:-1 31:-0.333333 32:1 33:-1 34:-1 35:-0.333333 36:1 37:-0.333333 38:1 39:0.333333 40:1 41:0.333333 42:0.333333 43:-1 44:-1 45:-1 46:0.333333 47:0.333333 48:1 49:0.333333 50:1 51:1 52:1 53:0.333333 54:0.333333 55:1 56:-1 57:-1 58:1 59:1 60:0.333333 
25 1:-1 2:0.333333 3:0.333333 4:0.333333 5:0.333333 6:0.333333 7:-0.333333 8:-0.333333 9:1 10:0.333333 11:0.333333 12:-1 13:-1 14:-0.333333 15:0.333333 16:0.333333 17:1 18:0.333333 19:0.333333 20:0.333333 21:0.333333 22:1 23:0.333333 24:0.333333 25:-1 26:0.333333 27:0.333333 28:-1 29:0.333333 30:1 31:-0.333333 32:0.333333 33:-0.333333 34:0.333333 35:0.333333 36:0.333333 37:1 38:1 39:0.333333 40:1 41:0.333333 42:0.333333 43:0.333333 44:1 45:-0.333333 46:-1 47:-0.333333 48:-0.333333 49:-1 50:0.333333 51:0.333333 52:1 53:0.333333 54:-1 55:-0.333333 56:0.333333 57:1 58:1 59:1 60:0.333333 
25 1:1 2:0.333333 3:0.333333 4:0.333333 5:0.333333 6:1 7:0.333333 8:0.333333 9:0.333333 10:-1 11:0.333333 12:0.333333 13:0.333333 14:1 15:0.333333 16:-1 17:-0.333333 18:-0.333333 19:-0.333333 20:-1 21:-0.333333 22:0.333333 23:0.333333 24:-1 25:-0.333333 26:-0.333333 27:0.333333 28:1 29:0.333333 30:-0.333333 31:-0.333333 32:0.333333 33:-1 34:1 35:1 36:1 37:0.333333 38:1 39:-0.333333 40:-0.333333 41:0.333333 42:-1 43:-0.333333 44:0.333333 45:-1 46:-1 47:-0.333333 48:-1 49:1 50:-0.333333 51:-1 52:-1 53:0.333333 54:0.333333 55:0.333333 56:0.333333 57:0.333333 58:0.333333 59:0.333333 60:-1 
2.843457408002892 1:1 2:1 3:-1 4:-0.333333 5:-1 6:-1 7:-0.333333 8:-1 9:1 10:-1 11:-1 12:-1 13:-0.333333 14:-0.333333 15:1 16:0.333333 17:-1 18:-1 19:-0.333333 20:1 21:-1 22:0.333333 23:1 24:-1 25:-1 26:-1 27:1 28:-1 29:1 30:1 31:0.333333 32:-1 33:-0.333333 34:-1 35:1 36:-0.333333 37:-1 38:-0.333333 39:-1 40:-1 41:-0.333333 42:-1 43:-1 44:0.333333 45:-1 46:1 47:1 48:-0.333333 49:0.333333 50:-1 51:1 52:-1 53:-1 54:-1 55:-0.333333 56:0.333333 57:-1 58:1 59:1 60:1 
22.66614969053441 1:-0.333333 2:1 3:-0.333333 4:-0.333333 5:0.333333 6:0.333333 7:-1 8:0.333333 9:-1 10:0.333333 11:-1 12:-0.333333 13:0.333333 14:0.333333 15:1 16:-0.333333 17:-1 18:-0.333333 19:1 20:1 21:-0.333333 22:0.333333 23:-1 24:-1 25:-0.333333 26:1 27:1 28:0.333333 29:0.333333 30:-1 31:-0.333333 32:-0.333333 33:-0.333333 34:0.333333 35:0.333333 36:-1 37:-0.333333 38:1 39:-1 40:-0.333333 41:-1 42:-1 43:-1 44:-1 45:0.333333 46:0.333333 47:1 48:-0.333333 49:0.333333 50:-1 51:-1 52:-0.333333 53:0.333333 54:1 55:-0.333333 56:1 57:-1 58:1 59:0.333333 60:1 
13.75943091410162 1:-0.333333 2:-0.333333 3:0.333333 4:1 5:-0.333333 6:1 7:1 8:1 9:0.333333 10:0.333333 11:1 12:1 13:1 14:-0.333333 15:-0.333333 16:-0.333333 17:0.333333 18:1 19:-1 20:1 21:0.333333 22:0.333333 23:-1 24:1 25:-0.333333 26:1 27:0.333333 28:0.333333 29:-1 30:0.333333 31:0.333333 32:1 33:-1 34:0.333333 35:-1 36:0.333333 37:1 38:-0.333333 39:0.333333 40:0.333333 41:0.333333 42:1 43:1 44:1 45:1 46:1 47:-1 48:-1 49:1 50:0.333333 51:0.333333 52:1 53:1 54:-1 55:0.333333 56:-1 57:-1 58:1 59:1 60:1 
14.16178686744169 1:1 2:-0.333333 3:0.333333 4:1 5:-0.333333 6:1 7:0.333333 8:-1 9:-1 10:1 11:0.333333 12:-1 13:-1 14:0.333333 15:0.333333 16:-1 17:-1 18:-1 19:0.333333 20:1 21:1 22:-1 23:0.333333 24:1 25:-0.333333 26:-1 27:-0.333333 28:-1 29:-1 30:-0.333333 31:-0.333333 32:-0.333333 33:-1 34:-0.333333 35:-0.333333 36:0.333333 37:0.333333 38:0.333333 39:0.333333 40:-0.333333 41:-1 42:1 43:0.333333 44:1 45:-0.333333 46:0.333333 47:1 48:-0.333333 49:1 50:0.333333 51:-1 52:-1 53:1 54:0.333333 55:-1 56:1 57:0.333333 58:-1 59:-1 60:-1 
25 1:-0.333333 2:0.333333 3:1 4:-0.333333 5:-0.333333 6:-0.333333 7:0.333333 8:1 9:0.333333 10:-0.333333 11:-0.333333 12:-0.333333 13:0.333333 14:-1 15:1 16:-0.333333 17:-0.333333 18:0.333333 19:-0.333333 20:-0.333333 21:1 22:0.333333 23:-0.333333 24:-1 25:0.333333 26:1 27:-0.333333 28:0.333333 29:1 30:0.333333 31:0.333333 32:-1 33:0.333333 34:-0.333333 35:0.333333 36:1 37:-0.333333 38:-1 39:0.333333 40:0.333333 41:1 42:0.333333 43:0.333333 44:-1 45:-1 46:-0.333333 47:1 48:-0.333333 49:1 50:0.333333 51:1 52:-0.333333 53:0.333333 54:1 55:-0.333333 56:0.333333 57:1 58:0.333333 59:-1 60:-1 
17.17337596294462 1:1 2:-1 3:0.333333 4:0.333333 5:-1 6:-1 7:0.333333 8:1 9:-0.333333 10:0.333333 11:-1 12:-0.333333 13:-1 14:-0.333333 15:0.333333 16:0.333333 17:-1 18:-0.333333 19:-0.333333 20:-1 21:-1 22:-1 23:-1 24:0.333333 25:1 26:1 27:1 28:-0.333333 29:-1 30:-1 31:-0.333333 32:0.333333 33:0.333333 34:1 35:1 36:0.333333 37:-1 38:1 39:-0.333333 40:-1 41:-1 42:-0.333333 43:-0.333333 44:0.333333 45:-1 46:-1 47:1 48:0.333333 49:-0.333333 50:-0.333333 51:1 52:0.333333 53:1 54:-0.333333 55:0.333333 56:0.333333 57:-0.333333 58:-0.333333 59:-1 60:-1 
9.044378557149862 1:1 2:1 3:-0.333333 4:0.333333 5:0.333333 6:0.333333 7:1 8:1 9:-0.333333 10:-1 11:-0.333333 12:-1 13:1 14:0.333333 15:1 16:-1 17:1 18:1 19:1 20:1 21:0.333333 22:0.333333 23:1 24:1 25:0.333333 26:1 27:0.333333 28:-1 29:-1 30:1 31:-1 32:1 33:-0.333333 34:1 35:1 36:-0.333333 37:-1 38:1 39:0.333333 40:-1 41:-1 42:-0.333333 43:0.333333 44:-1 45:-0.333333 46:-1 47:-0.333333 48:1 49:1 50:-0.333333 51:-0.333333 52:-1 53:-1 54:-1 55:-1 56:-1 57:1 58:-1 59:1 60:-0.333333 
5.373981382951673 1:1 2:1 3:-1 4:-1 5:-0.333333 6:-0.333333 7:-1 8:-0.333333 9:-0.333333 10:-1 11:-1 12:-0.333333 13:-0.333333 14:-1 15:-1 16:1 17:-0.333333 18:-1 19:-1 20:-1 21:0.333333 22:0.333333 23:1 24:-0.333333 25:1 26:1 27:1 28:0.333333 29:-1 30:-1 31:0.333333 32:-1 33:1 34:-0.333333 35:-0.333333 36:-1 37:-1 38:-1 39:1 40:-0.333333 41:-1 42:1 43:0.333333 44:1 45:-0.333333 46:1 47:-1 48:1 49:1 50:-0.333333 51:-1 52:0.333333 53:1 54:-1 55:-1 56:1 57:-1 58:0.333333 59:-1 60:0.333333 
8.604998378225325 1:0.333333 2:-1 3:-1 4:-1 5:-0.333333 6:1 7:1 8:-0.333333 9:1 10:0.333333 11:0.333333 12:1 13:0.333333 14:1 15:1 16:0.333333 17:1 18:1 19:0.333333 20:-1 21:-0.333333 22:-1 23:1 24:1 25:0.333333 26:-1 27:-0.333333 28:0.333333 29:-1 30:1 31:1 32:1 33:-0.333333 34:1 35:1 36:0.333333 37:1 38:1 39:1 40:-0.333333 41:0.333333 42:0.333333 43:-1 44:-0.333333 45:1 46:0.333333 47:1 48:0.333333 49:-1 50:1 51:1 52:1 53:1 54:0.333333 55:-1 56:1 57:0.333333 58:1 59:1 60:0.333333 
8.430343263674949 1:1 2:-1 3:-1 4:-1 5:-1 6:-1 7:-1 8:-0.333333 9:-1 10:0.333333 11:1 12:0.333333 13:1 14:0.333333 15:1 16:-0.333333 17:0.333333 18:1 19:-0.333333 20:1 21:-0.333333 22:-0.333333 23:-0.333333 24:-1 25:-0.333333 26:-1 27:1 28:0.333333 29:0.333333 30:0.333333 31:1 32:1 33:0.333333 34:-1 35:-0.333333 36:-1 37:-0.333333 38:-1 39:-0.333333 40:-1 41:-0.333333 42:-1 43:-0.333333 44:-1 45:-0.333333 46:-1 47:0.333333 48:0.333333 49:-1 50:-0.333333 51:-1 52:-1 53:-1 54:1 55:-1 56:-1 57:1 58:0.333333 59:1 60:1 
4.097608240466367 1:1 2:0.333333 3:1 4:-1 5:-1 6:1 7:1 8:1 9:-1 10:-1 11:-0.333333 12:-1 13:-1 14:0.333333 15:-1 16:-1 17:0.333333 18:1 19:-1 20:-1 21:0.333333 22:0.333333 23:0.333333 24:1 25:1 26:1 27:1 28:1 29:-1 30:-1 31:1 32:-0.333333 33:-1 34:-1 35:1 36:-1 37:-1 38:-1 39:1 40:0.333333 41:-1 42:-1 43:0.333333 44:0.333333 45:1 46:1 47:-0.333333 48:1 49:-1 50:1 51:1 52:-0.333333 53:-1 54:-0.333333 55:1 56:1 57:-0.333333 58:0.333333 59:1 60:-1 
25 1:-0.333333 2:-0.333333 3:-0.333333 4:-1 5:-0.333333 6:-0.333333 7:-1 8:-0.333333 9:-0.333333 10:-1 11:-0.333333 12:-0.333333 13:1 14:1 15:-0.333333 16:0.333333 17:-1 18:-0.333333 19:1 20:-0.333333 21:-1 22:-0.333333 23:0.333333 24:0.333333 25:-0.333333 26:-1 27:-0.333333 28:-1 29:1 30:-0.333333 31:-0.333333 32:1 33:-0.333333 34:0.333333 35:0.333333 36:-1 37:0.333333 38:1 39:-0.333333 40:0.333333 41:-1 42:0.333333 43:1 44:0.333333 45:0.333333 46:-1 47:-0.333333 48:0.333333 49:0.333333 50:1 51:-0.333333 52:-0.333333 53:0.333333 54:-1 55:-1 56:0.333333 57:-1 58:-0.333333 59:-1 60:-0.333333 
25 1:-0.333333 2:-1 3:1 4:-0.333333 5:1 6:1 7:-1 8:-1 9:0.333333 10:0.333333 11:-1 12:1 13:1 14:0.333333 15:1 16:0.333333 17:0.333333 18:1 19:1 20:0.333333 21:1 22:0.333333 23:0.333333 24:0.333333 25:0.333333 26:-1 27:-1 28:0.333333 29:-1 30:-0.333333 31:1 32:1 33:0.333333 34:0.333333 35:0.333333 36:0.333333 37:-1 38:-0.333333 39:-0.333333 40:-0.333333 41:-1 42:0.333333 43:0.333333 44:1 45:0.333333 46:1 47:0.333333 48:1 49:0.333333 50:1 51:-1 52:-1 53:1 54:0.333333 55:-1 56:-0.333333 57:0.333333 58:0.333333 59:0.333333 60:1 
25 1:-1 2:-0.333333 3:-0.333333 4:-0.333333 5:-0.333333 6:0.333333 7:1 8:-0.333333 9:0.333333 10:0.333333 11:-0.333333 12:0.333333 13:-1 14:-0.333333 15:0.333333 16:0.333333 17:-0.333333 18:0.333333 19:0.333333 20:-0.333333 21:0.333333 22:-0.333333 23:-1 24:-0.333333 25:0.333333 26:0.333333 27:1 28:0.333333 29:0.333333 30:-0.333333 31:-0.333333 32:-1 33:0.333333 34:-1 35:-0.333333 36:-1 37:0.333333 38:-0.333333 39:0.333333 40:0.333333 41:-1 42:-0.333333 43:-1 44:-0.333333 45:0.333333 46:-0.333333 47:-1 48:-0.333333 49:-0.333333 50:-1 51:-0.333333 52:-0.333333 53:0.333333 54:-0.333333 55:0.333333 56:1 57:-1 58:0.333333 59:-0.333333 60:0.333333 
25 1:-0.333333 2:1 3:0.333333 4:-1 5:-1 6:-0.333333 7:-1 8:1 9:1 10:-0.333333 11:-1 12:0.333333 13:0.333333 14:-1 15:-0.333333 16:-1 17:0.333333 18:0.333333 19:-0.333333 20:1 21:-0.333333 22:-0.333333 23:-1 24:-0.333333 25:-0.333333 26:-1 27:-0.333333 28:0.333333 29:1 30:-0.333333 31:0.333333 32:-0.333333 33:0.333333 34:0.333333 35:-0.333333 36:0.333333 37:-1 38:-0.333333 39:0.333333 40:0.333333 41:1 42:-0.333333 43:-0.333333 44:0.333333 45:1 46:0.333333 47:0.333333 48:0.333333 49:1 50:-1 51:1 52:-0.333333 53:0.333333 54:1 55:0.333333 56:-1 57:-0.333333 58:-0.333333 59:-1 60:0.333333 
25 1:0.333333 2:-1 3:-0.333333 4:-0.333333 5:0.333333 6:1 7:-0.333333 8:-0.333333 9:-1 10:-0.333333 11:1 12:-0.333333 13:0.333333 14:-1 15:-0.333333 16:1 17:-0.333333 18:-0.333333 19:0.333333 20:-1 21:0.333333 22:-0.333333 23:-1 24:1 25:0.333333 26:1 27:0.333333 28:1 29:-0.333333 30:0.333333 31:1 32:0.333333 33:-1 34:1 35:1 36:-0.333333 37:0.333333 38:-1 39:-1 40:-0.333333 41:0.333333 42:1 43:0.333333 44:0.333333 45:-0.333333 46:0.333333 47:0.333333 48:1 49:0.333333 50:0.333333 51:1 52:-0.333333 53:-0.333333 54:-0.333333 55:1 56:1 57:0.333333 58:-1 59:0.333333 60:-0.333333 
8.535035028012855 1:-1 2:1 3:0.333333 4:-1 5:-1 6:-1 7:1 8:-1 9:-1 10:-1 11:-1 12:0.333333 13:-1 14:-0.333333 15:-0.333333 16:-0.333333 17:-1 18:1 19:1 20:0.333333 21:1 22:-1 23:-1 24:-1 25:-1 26:1 27:-0.333333 28:0.333333 29:1 30:-1 31:1 32:1 33:-1 34:-0.333333 35:-1 36:-1 37:1 38:1 39:-0.333333 40:1 41:-0.333333 42:-1 43:-0.333333 44:-0.333333 45:0.333333 46:1 47:0.333333 48:-1 49:-0.333333 50:-0.333333 51:-0.333333 52:1 53:-0.333333 54:-0.333333 55:-0.333333 56:0.333333 57:-1 58:0.333333 59:-0.333333 60:-0.333333 
25 1:-0.333333 2:0.333333 3:0.333333 4:0.333333 5:-1 6:-0.333333 7:0.333333 8:1 9:0.333333 10:-1 11:-0.333333 12:0.333333 13:1 14:0.333333 15:-1 16:-0.333333 17:1 18:1 19:0.333333 20:-1 21:-0.333333 22:1 23:1 24:0.333333 25:-1 26:-0.333333 27:0.333333 28:0.333333 29:0.333333 30:1 31:-0.333333 32:1 33:1 34:0.333333 35:-1 36:-0.333333 37:0.333333 38:-1 39:0.333333 40:-1 41:-0.333333 42:0.333333 43:-1 44:0.333333 45:-1 46:1 47:0.333333 48:-1 49:-0.333333 50:-1 51:-0.333333 52:0.333333 53:0.333333 54:0.333333 55:1 56:-0.333333 57:0.333333 58:-0.333333 59:-1 60:1 
13.05680818560121 1:1 2:-1 3:1 4:1 5:0.333333 6:1 7:1 8:-0.333333 9:-1 10:0.333333 11:-1 12:1 13:-0.333333 14:-1 15:-0.333333 16:-1 17:-1 18:-1 19:-1 20:1 21:0.333333 22:-1 23:-0.333333 24:1 25:-1 26:-1 27:1 28:1 29:-0.333333 30:-0.333333 31:-1 32:0.333333 33:0.333333 34:-1 35:-0.333333 36:-0.333333 37:0.333333 38:-0.333333 39:0.333333 40:-0.333333 41:-0.333333 42:1 43:-0.333333 44:-0.333333 45:0.333333 46:1 47:0.333333 48:1 49:1 50:-0.333333 51:0.333333 52:0.333333 53:1 54:-0.333333 55:1 56:-1 57:-1 58:1 59:0.333333 60:0.333333 
13.45046606062403 1:0.333333 2:1 3:-1 4:1 5:-0.333333 6:-1 7:0.333333 8:-1 9:-1 10:-0.333333 11:-1 12:-1 13:0.333333 14:-1 15:1 16:0.333333 17:-1 18:1 19:-0.333333 20:-1 21:0.333333 22:0.333333 23:-1 24:-1 25:-0.333333 26:-0.333333 27:1 28:0.333333 29:0.333333 30:-1 31:1 32:-0.333333 33:-0.333333 34:-0.333333 35:-1 36:-1 37:-0.333333 38:0.333333 39:-0.333333 40:0.333333 41:1 42:-1 43:0.333333 44:-0.333333 45:0.333333 46:0.333333 47:1 48:-1 49:0.333333 50:-1 51:-1 52:-0.333333 53:1 54:1 55:0.333333 56:-0.333333 57:-1 58:0.333333 59:1 60:1 
18.90139444904536 1:1 2:0.333333 3:-1 4:0.333333 5:1 6:1 7:1 8:1 9:1 10:0.333333 11:0.333333 12:0.333333 13:1 14:1 15:0.333333 16:1 17:1 18:1 19:1 20:1 21:0.333333 22:0.333333 23:1 24:1 25:-1 26:1 27:0.333333 28:0.333333 29:-1 30:-0.333333 31:-0.333333 32:-0.333333 33:-1 34:-1 35:0.333333 36:0.333333 37:-0.333333 38:-1 39:-1 40:-0.333333 41:-1 42:0.333333 43:-0.333333 44:1 45:-0.333333 46:1 47:1 48:1 49:-0.333333 50:0.333333 51:-1 52:-1 53:-1 54:1 55:-0.333333 56:1 57:0.333333 58:0.333333 59:0.333333 60:0.333333 
14.18129362212719 1:0.333333 2:1 3:-1 4:-0.333333 5:0.333333 6:0.333333 7:1 8:-1 9:-0.333333 10:-1 11:-1 12:0.333333 13:-1 14:1 15:0.333333 16:0.333333 17:0.333333 18:-1 19:0.333333 20:0.333333 21:-1 22:-1 23:1 24:-1 25:1 26:0.333333 27:1 28:0.333333 29:0.333333 30:-1 31:0.333333 32:0.333333 33:0.333333 34:-1 35:0.333333 36:1 37:1 38:-1 39:-1 40:-0.333333 41:-0.333333 42:-1 43:-0.333333 44:-1 45:-1 46:-1 47:-1 48:-0.333333 49:-0.333333 50:0.333333 51:1 52:-1 53:1 54:0.333333 55:-1 56:-1 57:-0.333333 58:-0.333333 59:-0.333333 60:1 
25 1:-0.333333 2:-0.333333 3:1 4:-0.333333 5:-0.333333 6:-1 7:-0.333333 8:-0.333333 9:-1 10:-0.333333 11:-0.333333 12:0.333333 13:1 14:1 15:1 16:0.333333 17:-1 18:1 19:-1 20:1 21:1 22:0.333333 23:-0.333333 24:1 25:-0.333333 26:0.333333 27:0.333333 28:-1 29:1 30:-0.333333 31:-1 32:0.333333 33:0.333333 34:0.333333 35:0.333333 36:1 37:0.333333 38:-1 39:-1 40:-0.333333 41:-0.333333 42:0.333333 43:-0.333333 44:-0.333333 45:-0.333333 46:0.333333 47:0.333333 48:-1 49:1 50:1 51:0.333333 52:-0.333333 53:1 54:-0.333333 55:1 56:-0.333333 57:0.333333 58:-1 59:0.333333 60:0.333333 
2.088628451083676 1:1 2:-1 3:1 4:1 5:1 6:1 7:-1 8:1 9:1 10:1 11:-1 12:-1 13:1 14:1 15:-0.333333 16:1 17:1 18:0.333333 19:1 20:-1 21:1 22:1 23:1 24:1 25:-1 26:1 27:0.333333 28:-1 29:1 30:1 31:-1 32:-0.333333 33:1 34:1 35:-1 36:1 37:1 38:-0.333333 39:1 40:1 41:1 42:-0.333333 43:1 44:1 45:-1 46:-1 47:1 48:0.333333 49:1 50:0.333333 51:1 52:1 53:-0.333333 54:0.333333 55:1 56:-0.333333 57:1 58:-1 59:0.333333 60:0.333333 
9.116575150920607 1:0.333333 2:1 3:-0.333333 4:0.333333 5:-1 6:-1 7:-1 8:-1 9:-0.333333 10:0.333333 11:1 12:-0.333333 13:-0.333333 14:-1 15:-1 16:-0.333333 17:-1 18:-1 19:-0.333333 20:0.333333 21:-1 22:-0.333333 23:-1 24:-1 25:-1 26:-1 27:-1 28:-0.333333 29:0.333333 30:1 31:-0.333333 32:0.333333 33:1 34:-0.333333 35:-0.333333 36:1 37:-0.333333 38:-1 39:-0.333333 40:-1 41:-0.333333 42:1 43:-0.333333 44:-1 45:-0.333333 46:-1 47:-0.333333 48:-1 49:-0.333333 50:-0.333333 51:1 52:-1 53:1 54:-0.333333 55:-1 56:-1 57:-0.333333 58:-0.333333 59:1 60:1 
25 1:1 2:0.333333 3:1 4:-0.333333 5:-0.333333 6:-0.333333 7:0.333333 8:-1 9:1 10:-1 11:-0.333333 12:-0.333333 13:-1 14:-0.333333 15:1 16:-0.333333 17:1 18:-1 19:1 20:0.333333 21:0.333333 22:1 23:-0.333333 24:-0.333333 25:1 26:-1 27:0.333333 28:0.333333 29:-1 30:-1 31:0.333333 32:-1 33:-0.333333 34:-1 35:0.333333 36:0.333333 37:0.333333 38:0.333333 39:-1 40:-0.333333 41:-0.333333 42:-1 43:0.333333 44:-1 45:-0.333333 46:-0.333333 47:-0.333333 48:0.333333 49:0.333333 50:1 51:1 52:0.333333 53:-1 54:-0.333333 55:1 56:1 57:0.333333 58:0.333333 59:1 60:0.333333 
25 1:0.333333 2:0.333333 3:-1 4:-0.333333 5:-1 6:0.333333 7:0.333333 8:-1 9:1 10:1 11:-0.333333 12:-0.333333 13:0.333333 14:1 15:1 16:-0.333333 17:-1 18:-0.333333 19:1 20:-0.333333 21:0.333333 22:-1 23:-0.333333 24:0.333333 25:0.333333 26:-0.333333 27:0.333333 28:0.333333 29:0.333333 30:-0.333333 31:0.333333 32:1 33:1 34:1 35:-1 36:-1 37:0.333333 38:0.333333 39:-1 40:-0.333333 41:1 42:-0.333333 43:0.333333 44:-1 45:-1 46:0.333333 47:-1 48:0.333333 49:-0.333333 50:-1 51:0.333333 52:-1 53:0.333333 54:-0.333333 55:0.333333 56:-0.333333 57:-0.333333 58:0.333333 59:-1 60:-1 
25 1:-0.333333 2:-0.333333 3:-0.333333 4:1 5:0.333333 6:0.333333 7:0.333333 8:-1 9:0.333333 10:0.333333 11:-1 12:-1 13:1 14:0.333333 15:1 16:1 17:-0.333333 18:1 19:1 20:1 21:-0.333333 22:0.333333 23:1 24:1 25:0.333333 26:1 27:-0.333333 28:0.333333 29:-1 30:-0.333333 31:-1 32:-0.333333 33:0.333333 34:0.333333 35:1 36:0.333333 37:-1 38:-0.333333 39:0.333333 40:0.333333 41:1 42:-0.333333 43:0.333333 44:0.333333 45:1 46:-0.333333 47:-0.333333 48:-1 49:-1 50:-0.333333 51:-1 52:1 53:-0.333333 54:0.333333 55:0.333333 56:-0.333333 57:-1 58:-0.333333 59:-1 60:1 
5.180311921100997 1:1 2:-0.333333 3:-0.333333 4:-0.333333 5:1 6:1 7:0.333333 8:0.333333 9:-1 10:-1 11:-1 12:1 13:1 14:-1 15:-1 16:1 17:-1 18:-0.333333 19:1 20:1 21:-0.333333 22:1 23:-1 24:-1 25:-0.333333 26:1 27:-1 28:1 29:-0.333333 30:-1 31:-0.333333 32:1 33:0.333333 34:1 35:-0.333333 36:0.333333 37:0.333333 38:-1 39:-0.333333 40:1 41:0.333333 42:-1 43:-1 44:1 45:-1 46:-1 47:-1 48:1 49:-1 50:0.333333 51:-1 52:1 53:-0.333333 54:-0.333333 55:-1 56:1 57:-1 58:1 59:-1 60:-1 
10.77533729982197 1:-0.333333 2:-1 3:-1 4:1 5:0.333333 6:0.333333 7:0.333333 8:-1 9:-0.333333 10:0.333333 11:-1 12:-0.333333 13:1 14:1 15:1 16:0.333333 17:1 18:1 19:1 20:0.333333 21:1 22:-0.333333 23:1 24:1 25:1 26:1 27:1 28:-0.333333 29:0.333333 30:-0.333333 31:-1 32:-0.333333 33:-0.333333 34:-1 35:0.333333 36:-1 37:0.333333 38:-1 39:-0.333333 40:-1 41:1 42:1 43:-1 44:1 45:0.333333 46:0.333333 47:1 48:1 49:-1 50:1 51:1 52:1 53:-0.333333 54:-0.333333 55:-0.333333 56:1 57:-1 58:0.333333 59:0.333333 60:-1 
4.237464161288163 1:1 2:1 3:1 4:0.333333 5:-1 6:-0.333333 7:-1 8:0.333333 9:-1 10:1 11:-0.333333 12:0.333333 13:-1 14:-0.333333 15:1 16:0.333333 17:-1 18:-0.333333 19:-1 20:-1 21:-1 22:-1 23:1 24:-1 25:-0.333333 26:-1 27:1 28:1 29:1 30:-1 31:0.333333 32:1 33:-1 34:0.333333 35:-1 36:1 37:0.333333 38:0.333333 39:1 40:1 41:-1 42:1 43:1 44:-1 45:-1 46:1 47:-0.333333 48:-1 49:1 50:-1 51:0.333333 52:0.333333 53:-1 54:1 55:1 56:-1 57:1 58:1 59:-0.333333 60:-0.333333 
25 1:1 2:-0.333333 3:-0.333333 4:-1 5:0.333333 6:0.333333 7:-1 8:1 9:0.333333 10:-0.333333 11:0.333333 12:-0.333333 13:-0.333333 14:-1 15:1 16:-1 17:-0.333333 18:-1 19:0.333333 20:-1 21:-1 22:-0.333333 23:-1 24:-1 25:0.333333 26:0.333333 27:-0.333333 28:-1 29:-0.333333 30:-0.333333 31:-0.333333 32:-0.333333 33:0.333333 34:0.333333 35:1 36:0.333333 37:1 38:-0.333333 39:0.333333 40:-0.333333 41:0.333333 42:0.333333 43:0.333333 44:1 45:-0.333333 46:-0.333333 47:-0.333333 48:0.333333 49:0.333333 50:0.333333 51:-1 52:-0.333333 53:0.333333 54:1 55:0.333333 56:1 57:-0.333333 58:1 59:0.333333 60:0.333333 
25 1:-1 2:0.333333 3:-0.333333 4:1 5:-0.333333 6:0.333333 7:1 8:-0.333333 9:0.333333 10:-1 11:-0.333333 12:-1 13:1 14:0.333333 15:0.333333 16:-0.333333 17:-1 18:-1 19:1 20:1 21:-0.333333 22:-0.333333 23:0.333333 24:1 25:0.333333 26:0.333333 27:-1 28:0.333333 29:-1 30:0.333333 31:0.333333 32:0.333333 33:-0.333333 34:1 35:-0.333333 36:-0.333333 37:1 38:-0.333333 39:-0.333333 40:1 41:-0.333333 42:0.333333 43:1 44:-0.333333 45:-1 46:-0.333333 47:0.333333 48:-0.333333 49:-0.333333 50:0.333333 51:0.333333 52:1 53:-0.333333 54:-0.333333 55:-1 56:0.333333 57:-1 58:0.333333 59:0.333333 60:-1 
25 1:-1 2:0.333333 3:0.333333 4:-1 5:-0.333333 6:0.333333 7:-0.333333 8:0.333333 9:0.333333 10:-1 11:-1 12:-1 13:1 14:-0.333333 15:1 16:1 17:0.333333 18:-1 19:1 20:0.333333 21:0.333333 22:1 23:0.333333 24:-1 25:1 26:1 27:-0.333333 28:0.333333 29:0.333333 30:1 31:0.333333 32:0.333333 33:1 34:-0.333333 35:1 36:1 37:0.333333 38:1 39:-0.333333 40:0.333333 41:0.333333 42:0.333333 43:-1 44:0.333333 45:-0.333333 46:-1 47:1 48:0.333333 49:0.333333 50:0.333333 51:0.333333 52:1 53:0.333333 54:0.333333 55:0.333333 56:0.333333 57:0.333333 58:-1 59:-1 60:-0.333333 
14.75132041671609 1:-1 2:1 3:0.333333 4:0.333333 5:0.333333 6:0.333333 7:-1 8:-0.333333 9:-1 10:1 11:0.333333 12:0.333333 13:1 14:-1 15:-1 16:-0.333333 17:-1 18:-0.333333 19:-0.333333 20:0.333333 21:0.333333 22:-0.333333 23:-1 24:-1 25:1 26:-0.333333 27:-0.333333 28:1 29:-1 30:1 31:0.333333 32:1 33:-0.333333 34:-0.333333 35:-0.333333 36:0.333333 37:-1 38:-0.333333 39:-1 40:-1 41:-1 42:-0.333333 43:-1 44:1 45:0.333333 46:-0.333333 47:-1 48:1 49:-1 50:1 51:-1 52:0.333333 53:0.333333 54:1 55:-1 56:1 57:-1 58:-1 59:0.333333 60:-0.333333 
25 1:1 2:-1 3:1 4:-0.333333 5:-1 6:-0.333333 7:-0.333333 8:0.333333 9:0.333333 10:-1 11:0.333333 12:0.333333 13:0.333333 14:1 15:-0.333333 16:-1 17:-0.333333 18:-0.333333 19:1 20:-0.333333 21:0.333333 22:1 23:-0.333333 24:-0.333333 25:-0.333333 26:0.333333 27:0.333333 28:0.333333 29:1 30:-0.333333 31:-0.333333 32:-0.333333 33:0.333333 34:1 35:1 36:0.333333 37:1 38:-1 39:0.333333 40:0.333333 41:0.333333 42:1 43:-0.333333 44:0.333333 45:-0.333333 46:-0.333333 47:-1 48:-0.333333 49:-1 50:1 51:0.333333 52:-1 53:1 54:-1 55:0.333333 56:1 57:-0.333333 58:-1 59:0.333333 60:0.333333 
24.89869604837892 1:1 2:1 3:1 4:-0.333333 5:0.333333 6:1 7:1 8:0.333333 9:-1 10:-0.333333 11:1 12:0.333333 13:0.333333 14:1 15:1 16:-0.333333 17:-1 18:-1 19:1 20:0.333333 21:-1 22:0.333333 23:0.333333 24:1 25:-0.333333 26:1 27:-0.333333 28:-0.333333 29:-0.333333 30:-1 31:0.333333 32:1 33:1 34:-0.333333 35:-1 36:-0.333333 37:-0.333333 38:-1 39:0.333333 40:1 41:0.333333 42:-0.333333 43:-0.333333 44:-0.333333 45:-1 46:1 47:0.333333 48:1 49:1 50:0.333333 51:-1 52:-0.333333 53:-0.333333 54:-1 55:0.333333 56:-0.333333 57:0.333333 58:0.333333 59:1 60:-0.333333 
23.29181677919578 1:-0.333333 2:1 3:1 4:0.333333 5:1 6:-1 7:-0.333333 8:-1 9:-1 10:-0.333333 11:0.333333 12:0.333333 13:1 14:-0.333333 15:-0.333333 16:-0.333333 17:0.333333 18:-0.333333 19:-1 20:-1 21:-0.333333 22:1 23:0.333333 24:0.333333 25:-0.333333 26:-0.333333 27:0.333333 28:1 29:-1 30:-1 31:1 32:1 33:-0.333333 34:1 35:-0.333333 36:-0.333333 37:-1 38:0.333333 39:1 40:1 41:-0.333333 42:-0.333333 43:-0.333333 44:-0.333333 45:-1 46:-1 47:-1 48:-1 49:1 50:-1 51:-1 52:-0.333333 53:-0.333333 54:0.333333 55:0.333333 56:0.333333 57:-1 58:-1 59:0.333333 60:0.333333 
5.622285413296139 1:-0.333333 2:-1 3:-1 4:-1 5:-1 6:-0.333333 7:-1 8:-1 9:-1 10:0.333333 11:1 12:1 13:-1 14:1 15:1 16:1 17:0.333333 18:1 19:-0.333333 20:1 21:1 22:-0.333333 23:-1 24:0.333333 25:-1 26:0.333333 27:-0.333333 28:-0.333333 29:-1 30:-1 31:0.333333 32:-1 33:1 34:1 35:0.333333 36:0.333333 37:-1 38:-1 39:1 40:-1 41:1 42:0.333333 43:1 44:-1 45:1 46:0.333333 47:1 48:1 49:0.333333 50:-1 51:-1 52:-1 53:-1 54:1 55:-0.333333 56:-0.333333 57:0.333333 58:0.333333 59:0.333333 60:-1 
25 1:0.333333 2:1 3:-1 4:0.333333 5:-1 6:-1 7:-0.333333 8:0.333333 9:-1 10:0.333333 11:1 12:-0.333333 13:-1 14:-1 15:-0.333333 16:0.333333 17:1 18:-0.333333 19:1 20:-0.333333 21:0.333333 22:0.333333 23:-0.333333 24:0.333333 25:0.333333 26:-1 27:-0.333333 28:0.333333 29:1 30:0.333333 31:1 32:0.333333 33:-1 34:-0.333333 35:1 36:0.333333 37:0.333333 38:0.333333 39:-1 40:0.333333 41:-1 42:-0.333333 43:0.333333 44:1 45:0.333333 46:1 47:0.333333 48:-1 49:-0.333333 50:-0.333333 51:0.333333 52:0.333333 53:0.333333 54:0.333333 55:1 56:0.333333 57:1 58:0.333333 59:1 60:-0.333333 
17.47210004440731 1:0.333333 2:1 3:-1 4:1 5:0.333333 6:0.333333 7:0.333333 8:-1 9:-1 10:-0.333333 11:1 12:0.333333 13:1 14:-1 15:1 16:-0.333333 17:1 18:0.333333 19:0.333333 20:-1 21:-1 22:-0.333333 23:-0.333333 24:-1 25:-1 26:-0.333333 27:0.333333 28:1 29:-0.333333 30:1 31:-0.333333 32:-0.333333 33:0.333333 34:0.333333 35:-1 36:1 37:0.333333 38:1 39:-0.333333 40:0.333333 41:-1 42:-1 43:-1 44:-0.333333 45:-0.333333 46:-0.333333 47:0.333333 48:1 49:-0.333333 50:-1 51:1 52:-0.333333 53:-1 54:0.333333 55:0.333333 56:-1 57:-1 58:-1 59:0.333333 60:-1 
25 1:0.333333 2:1 3:-0.333333 4:-0.333333 5:1 6:-0.333333 7:1 8:-0.333333 9:-1 10:-1 11:1 12:-0.333333 13:-0.333333 14:0.333333 15:-1 16:1 17:1 18:0.333333 19:1 20:0.333333 21:1 22:1 23:1 24:1 25:1 26:1 27:-0.333333 28:0.333333 29:-1 30:-0.333333 31:-1 32:0.333333 33:-1 34:-0.333333 35:-1 36:-0.333333 37:-0.333333 38:-1 39:-0.333333 40:0.333333 41:1 42:-0.333333 43:-1 44:-1 45:0.333333 46:0.333333 47:-0.333333 48:0.333333 49:-0.333333 50:-1 51:-0.333333 52:-0.333333 53:1 54:-0.333333 55:-0.333333 56:0.333333 57:0.333333 58:-1 59:0.333333 60:0.333333 
12.81436470742631 1:1 2:1 3:-0.333333 4:0.333333 5:-1 6:-0.333333 7:0.333333 8:-1 9:-1 10:-1 11:-0.333333 12:-1 13:1 14:0.333333 15:1 16:1 17:-0.333333 18:-0.333333 19:-1 20:-1 21:-1 22:1 23:-0.333333 24:0.333333 25:1 26:1 27:-0.333333 28:-1 29:-1 30:-0.333333 31:-1 32:0.333333 33:0.333333 34:-1 35:0.333333 36:-1 37:-1 38:-0.333333 39:-0.333333 40:0.333333 41:1 42:-0.333333 43:-1 44:-1 45:-1 46:-1 47:-0.333333 48:1 49:-0.333333 50:0.333333 51:1 52:1 53:1 54:-0.333333 55:0.333333 56:1 57:-0.333333 58:-0.333333 59:-1 60:-0.333333 
19.42425070438654 1:0.333333 2:-1 3:-0.333333 4:-1 5:0.333333 6:-1 7:1 8:-0.333333 9:-1 10:1 11:1 12:1 13:0.333333 14:-0.333333 15:-0.333333 16:-1 17:1 18:1 19:0.333333 20:0.333333 21:0.333333 22:0.333333 23:-0.333333 24:-1 25:-0.333333 26:-0.333333 27:-1 28:-0.333333 29:-0.333333 30:-1 31:-0.333333 32:1 33:1 34:1 35:-0.333333 36:-1 37:1 38:-0.333333 39:-0.333333 40:0.333333 41:0.333333 42:-1 43:0.333333 44:0.333333 45:-1 46:-0.333333 47:1 48:1 49:0.333333 50:0.333333 51:-1 52:-0.333333 53:-1 54:-1 55:-0.333333 56:-1 57:0.333333 58:1 59:0.333333 60:-1 
25 1:1 2:-1 3:0.333333 4:0.333333 5:-1 6:1 7:-0.333333 8:1 9:-1 10:0.333333 11:1 12:0.333333 13:1 14:-0.333333 15:0.333333 16:0.333333 17:1 18:1 19:-1 20:1 21:0.333333 22:1 23:0.333333 24:0.333333 25:0.333333 26:0.333333 27:0.333333 28:0.333333 29:-1 30:-0.333333 31:-1 32:-0.333333 33:1 34:1 35:1 36:-0.333333 37:-1 38:1 39:-0.333333 40:0.333333 41:1 42:0.333333 43:0.333333 44:-1 45:-1 46:-0.333333 47:0.333333 48:0.333333 49:0.333333 50:1 51:0.333333 52:1 53:0.333333 54:0.333333 55:0.333333 56:-1 57:-0.333333 58:-1 59:-0.333333 60:-1 
25 1:0.333333 2:0.333333 3:-1 4:-0.333333 5:1 6:0.333333 7:0.333333 8:-0.333333 9:0.333333 10:1 11:0.333333 12:-1 13:-0.333333 14:0.333333 15:0.333333 16:0.333333 17:-1 18:-0.333333 19:0.333333 20:0.333333 21:0.333333 22:-1 23:-1 24:-0.333333 25:0.333333 26:0.333333 27:0.333333 28:-1 29:-0.333333 30:0.333333 31:0.333333 32:0.333333 33:-1 34:-0.333333 35:0.333333 36:-0.333333 37:0.333333 38:0.333333 39:-1 40:-1 41:0.333333 42:0.333333 43:0.333333 44:-1 45:-0.333333 46:0.333333 47:1 48:0.333333 49:-0.333333 50:-0.333333 51:0.333333 52:1 53:1 54:-1 55:-1 56:0.333333 57:0.333333 58:0.333333 59:-1 60:-0.333333 
25 1:1 2:-1 3:0.333333 4:-1 5:0.333333 6:0.333333 7:1 8:-0.333333 9:0.333333 10:0.333333 11:-1 12:1 13:-0.333333 14:1 15:-0.333333 16:0.333333 17:-1 18:-0.333333 19:0.333333 20:-1 21:1 22:-0.333333 23:-1 24:-0.333333 25:-0.333333 26:-0.333333 27:1 28:0.333333 29:1 30:-0.333333 31:0.333333 32:0.333333 33:0.333333 34:-1 35:-1 36:-0.333333 37:0.333333 38:0.333333 39:0.333333 40:0.333333 41:1 42:0.333333 43:-1 44:0.333333 45:0.333333 46:0.333333 47:1 48:-0.333333 49:-1 50:-0.333333 51:-1 52:1 53:-0.333333 54:-0.333333 55:-0.333333 56:-1 57:-0.333333 58:0.333333 59:0.333333 60:-0.333333 
25 1:-0.333333 2:-1 3:-0.333333 4:0.333333 5:-1 6:-0.333333 7:1 8:1 9:0.333333 10:-1 11:0.333333 12:-0.333333 13:-0.333333 14:0.333333 15:0.333333 16:-1 17:1 18:-0.333333 19:1 20:1 21:0.333333 22:0.333333 23:-0.333333 24:-0.333333 25:0.333333 26:-0.333333 27:0.333333 28:-1 29:-1 30:-0.333333 31:-0.333333 32:0.333333 33:0.333333 34:1 35:1 36:0.333333 37:1 38:1 39:-0.333333 40:0.333333 41:-1 42:0.333333 43:1 44:-0.333333 45:-0.333333 46:1 47:-1 48:0.333333 49:-1 50:0.333333 51:-0.333333 52:-0.333333 53:-0.333333 54:0.333333 55:-0.333333 56:-1 57:-0.333333 58:-0.333333 59:-0.333333 60:0.333333 
16.44924294163052 1:1 2:1 3:-1 4:-1 5:0.333333 6:1 7:-0.333333 8:1 9:-0.333333 10:1 11:0.333333 12:1 13:0.333333 14:-0.333333 15:1 16:-0.333333 17:0.333333 18:-1 19:0.333333 20:-0.333333 21:-0.333333 22:-1 23:-1 24:-1 25:-1 26:1 27:0.333333 28:0.333333 29:-1 30:-0.333333 31:0.333333 32:-0.333333 33:1 34:1 35:1 36:0.333333 37:1 38:1 39:-0.333333 40:1 41:0.333333 42:1 43:0.333333 44:-1 45:-0.333333 46:0.333333 47:0.333333 48:-1 49:1 50:1 51:0.333333 52:0.333333 53:-1 54:-0.333333 55:-0.333333 56:1 57:-0.333333 58:-0.333333 59:0.333333 60:1 
15.90645075004816 1:0.333333 2:0.333333 3:-1 4:-0.333333 5:0.333333 6:1 7:-0.333333 8:-1 9:0.333333 10:1 11:-0.333333 12:1 13:0.333333 14:1 15:-1 16:0.333333 17:1 18:-0.333333 19:1 20:0.333333 21:-1 22:0.333333 23:0.333333 24:1 25:1 26:-1 27:1 28:1 29:1 30:0.333333 31:1 32:-1 33:0.333333 34:0.333333 35:1 36:0.333333 37:-1 38:-0.333333 39:-1 40:1 41:0.333333 42:-1 43:0.333333 44:0.333333 45:1 46:1 47:0.333333 48:1 49:-1 50:0.333333 51:-0.333333 52:-1 53:-0.333333 54:-0.333333 55:-1 56:0.333333 57:0.333333 58:-0.333333 59:-1 60:-0.333333 
25 1:-1 2:0.333333 3:0.333333 4:1 5:1 6:1 7:-0.333333 8:-0.333333 9:0.333333 10:1 11:0.333333 12:-0.333333 13:-0.333333 14:-0.333333 15:-1 16:-0.333333 17:-1 18:-0.333333 19:-0.333333 20:0.333333 21:-1 22:-0.333333 23:-1 24:0.333333 25:1 26:-0.333333 27:1 28:-0.333333 29:-0.333333 30:-0.333333 31:0.333333 32:1 33:-0.333333 34:0.333333 35:-0.333333 36:-1 37:0.333333 38:0.333333 39:1 40:0.333333 41:1 42:-0.333333 43:1 44:1 45:0.333333 46:-0.333333 47:-1 48:-0.333333 49:-1 50:-1 51:-0.333333 52:-1 53:-1 54:-0.333333 55:1 56:0.333333 57:-0.333333 58:0.333333 59:1 60:-0.333333 
12.40825020504296 1:0.333333 2:-1 3:1 4:-0.333333 5:-1 6:-0.333333 7:0.333333 8:1 9:1 10:1 11:0.333333 12:-1 13:0.333333 14:-0.333333 15:-1 16:-0.333333 17:-1 18:1 19:-1 20:-1 21:-0.333333 22:-1 23:-1 24:-0.333333 25:-1 26:-1 27:-1 28:-0.333333 29:-1 30:0.333333 31:-1 32:0.333333 33:-1 34:-0.333333 35:1 36:-0.333333 37:0.333333 38:0.333333 39:0.333333 40:1 41:-0.333333 42:-0.333333 43:1 44:1 45:0.333333 46:0.333333 47:0.333333 48:-1 49:-1 50:-0.333333 51:-1 52:-1 53:0.333333 54:0.333333 55:-1 56:1 57:1 58:0.333333 59:-1 60:-1 
7.181407612168782 1:1 2:-1 3:-1 4:1 5:-1 6:0.333333 7:-1 8:-1 9:-1 10:0.333333 11:-1 12:-0.333333 13:-1 14:-1 15:-1 16:1 17:0.333333 18:-1 19:-0.333333 20:-1 21:0.333333 22:0.333333 23:1 24:1 25:1 26:-1 27:-1 28:-0.333333 29:-1 30:-0.333333 31:1 32:1 33:-0.333333 34:-1 35:-0.333333 36:-1 37:-0.333333 38:1 39:-1 40:-1 41:-0.333333 42:1 43:-1 44:-0.333333 45:-0.333333 46:-1 47:-0.333333 48:-1 49:-0.333333 50:1 51:1 52:-1 53:-0.333333 54:-0.333333 55:-1 56:0.333333 57:1 58:1 59:-0.333333 60:1 
5.940574158465121 1:1 2:-0.333333 3:-0.333333 4:-0.333333 5:-1 6:0.333333 7:-1 8:0.333333 9:1 10:1 11:-1 12:-1 13:0.333333 14:-1 15:-0.333333 16:-1 17:1 18:-0.333333 19:0.333333 20:-1 21:-1 22:1 23:-0.333333 24:1 25:-0.333333 26:0.333333 27:1 28:-1 29:0.333333 30:1 31:-0.333333 32:-1 33:1 34:1 35:-0.333333 36:1 37:1 38:1 39:0.333333 40:-1 41:1 42:1 43:-0.333333 44:0.333333 45:-0.333333 46:-1 47:-1 48:1 49:0.333333 50:1 51:1 52:1 53:1 54:1 55:1 56:-1 57:-0.333333 58:0.333333 59:-1 60:1 
25 1:0.333333 2:-1 3:0.333333 4:0.333333 5:-0.333333 6:-0.333333 7:-0.333333 8:-0.333333 9:0.333333 10:1 11:1 12:-0.333333 13:0.333333 14:1 15:-0.333333 16:1 17:1 18:-0.333333 19:-0.333333 20:-1 21:1 22:-1 23:0.333333 24:-1 25:1 26:0.333333 27:1 28:0.333333 29:-0.333333 30:0.333333 31:0.333333 32:-1 33:1 34:1 35:-1 36:0.333333 37:0.333333 38:1 39:-0.333333 40:0.333333 41:0.333333 42:-1 43:0.333333 44:1 45:0.333333 46:1 47:0.333333 48:1 49:-1 50:-0.333333 51:0.333333 52:-1 53:1 54:0.333333 55:0.333333 56:1 57:-0.333333 58:-0.333333 59:-1 60:0.333333 
14.81496362508432 1:1 2:-0.333333 3:-1 4:0.333333 5:-1 6:1 7:0.333333 8:0.333333 9:-1 10:0.333333 11:0.333333 12:0.333333 13:-1 14:-0.333333 15:-1 16:-0.333333 17:0.333333 18:1 19:-1 20:-1 21:1 22:0.333333 23:-1 24:0.333333 25:0.333333 26:-1 27:0.333333 28:0.333333 29:-1 30:1 31:-0.333333 32:0.333333 33:1 34:-0.333333 35:-0.333333 36:-1 37:-1 38:-1 39:-1 40:-1 41:-0.333333 42:-1 43:0.333333 44:-1 45:0.333333 46:-1 47:-0.333333 48:-0.333333 49:1 50:-0.333333 51:-1 52:-1 53:-0.333333 54:0.333333 55:1 56:-0.333333 57:-1 58:-0.333333 59:-1 60:-1 
24.47131774341728 1:0.333333 2:0.333333 3:-0.333333 4:-1 5:0.333333 6:1 7:-0.333333 8:-1 9:-0.333333 10:0.333333 11:-1 12:-1 13:-1 14:-0.333333 15:-0.333333 16:0.333333 17:0.333333 18:1 19:-0.333333 20:-0.333333 21:-0.333333 22:-0.333333 23:1 24:-0.333333 25:0.333333 26:-1 27:-0.333333 28:-0.333333 29:-1 30:-0.333333 31:1 32:-0.333333 33:0.333333 34:1 35:-1 36:0.333333 37:0.333333 38:-1 39:1 40:-0.333333 41:-0.333333 42:1 43:-1 44:-1 45:1 46:-0.333333 47:-0.333333 48:-1 49:0.333333 50:-1 51:-0.333333 52:-1 53:-0.333333 54:1 55:1 56:-1 57:1 58:0.333333 59:-0.333333 60:-1 
25 1:0.333333 2:-1 3:-0.333333 4:-1 5:-0.333333 6:-0.333333 7:-0.333333 8:-0.333333 9:0.333333 10:0.333333 11:1 12:0.333333 13:0.333333 14:0.333333 15:-0.333333 16:-0.333333 17:-1 18:0.333333 19:0.333333 20:1 21:0.333333 22:0.333333 23:-0.333333 24:-0.333333 25:-0.333333 26:-0.333333 27:0.333333 28:1 29:0.333333 30:0.333333 31:-1 32:-1 33:-0.333333 34:-0.333333 35:1 36:-0.333333 37:1 38:1 39:0.333333 40:0.333333 41:1 42:-0.333333 43:-0.333333 44:-1 45:0.333333 46:0.333333 47:-1 48:-1 49:-1 50:-0.333333 51:-0.333333 52:-0.333333 53:-0.333333 54:-0.333333 55:-1 56:-1 57:-0.333333 58:0.333333 59:-1 60:-0.333333 
25 1:-1 2:-1 3:-0.333333 4:-0.333333 5:-0.333333 6:0.333333 7:0.333333 8:1 9:-0.333333 10:-1 11:-0.333333 12:-0.333333 13:-0.333333 14:-0.333333 15:-0.333333 16:-0.333333 17:0.333333 18:1 19:1 20:0.333333 21:1 22:1 23:0.333333 24:0.333333 25:1 26:1 27:0.333333 28:0.333333 29:-1 30:-0.333333 31:-0.333333 32:0.333333 33:-0.333333 34:-1 35:-0.333333 36:0.333333 37:-1 38:0.333333 39:-0.333333 40:-1 41:0.333333 42:0.333333 43:1 44:0.333333 45:-1 46:-0.333333 47:0.333333 48:-0.333333 49:-1 50:-0.333333 51:0.333333 52:-1 53:0.333333 54:-0.333333 55:-1 56:0.333333 57:-0.333333 58:-0.333333 59:-0.333333 60:-0.333333 
25 1:0.333333 2:0.333333 3:0.333333 4:0.333333 5:0.333333 6:0.333333 7:-1 8:1 9:0.333333 10:0.333333 11:0.333333 12:0.333333 13:-1 14:-0.333333 15:0.333333 16:1 17:-1 18:0.333333 19:0.333333 20:1 21:-0.333333 22:-1 23:-1 24:0.333333 25:-0.333333 26:-1 27:0.333333 28:0.333333 29:1 30:-0.333333 31:-0.333333 32:-1 33:-0.333333 34:0.333333 35:-0.333333 36:1 37:-1 38:1 39:1 40:-0.333333 41:0.333333 42:-1 43:0.333333 44:-1 45:-0.333333 46:-1 47:-0.333333 48:1 49:-0.333333 50:-1 51:0.333333 52:1 53:-1 54:0.333333 55:-1 56:1 57:0.333333 58:0.333333 59:0.333333 60:0.333333 
25 1:-1 2:0.333333 3:-1 4:0.333333 5:-1 6:0.333333 7:-1 8:0.333333 9:-1 10:0.333333 11:0.333333 12:0.333333 13:1 14:-0.333333 15:1 16:0.333333 17:0.333333 18:-1 19:0.333333 20:-1 21:-1 22:-1 23:-0.333333 24:-0.333333 25:-0.333333 26:0.333333 27:0.333333 28:1 29:-1 30:-0.333333 31:-0.333333 32:-1 33:-1 34:-1 35:0.333333 36:1 37:-1 38:0.333333 39:-0.333333 40:1 41:-0.333333 42:0.333333 43:0.333333 44:0.333333 45:1 46:1 47:0.333333 48:-1 49:-0.333333 50:0.333333 51:0.333333 52:-1 53:1 54:-0.333333 55:0.333333 56:-1 57:0.333333 58:0.333333 59:0.333333 60:-0.333333 
23.25189963420446 1:-1 2:-0.333333 3:-0.333333 4:-1 5:-1 6:-1 7:-1 8:-1 9:-0.333333 10:-1 11:-0.333333 12:-0.333333 13:-1 14:-1 15:-0.333333 16:-0.333333 17:-0.333333 18:-1 19:-0.333333 20:-0.333333 21:-0.333333 22:-1 23:-0.333333 24:-0.333333 25:-0.333333 26:-1 27:-0.333333 28:-0.333333 29:-1 30:-1 31:-0.333333 32:-0.333333 33:-1 34:-1 35:-0.333333 36:-0.333333 37:-1 38:-1 39:-1 40:-0.333333 41:-1 42:-1 43:-0.333333 44:-0.333333 45:-1 46:-1 47:-0.333333 48:-0.333333 49:-1 50:-1 51:-0.333333 52:-0.333333 53:-0.333333 54:-1 55:-0.333333 56:-1 57:-0.333333 58:-1 59:-0.333333 60:-1 
16.40407707986442 1:-1 2:-1 3:0.333333 4:1 5:1 6:-0.333333 7:-0.333333 8:0.333333 9:1 10:1 11:-0.333333 12:-0.333333 13:-0.333333 14:-1 15:-0.333333 16:1 17:0.333333 18:1 19:-0.333333 20:0.333333 21:-1 22:1 23:0.333333 24:0.333333 25:-1 26:-1 27:0.333333 28:-1 29:0.333333 30:1 31:1 32:1 33:0.333333 34:1 35:-0.333333 36:-0.333333 37:0.333333 38:1 39:-0.333333 40:1 41:-0.333333 42:1 43:-0.333333 44:-1 45:0.333333 46:0.333333 47:1 48:1 49:-0.333333 50:-0.333333 51:-0.333333 52:0.333333 53:-1 54:-1 55:-0.333333 56:1 57:1 58:-1 59:0.333333 60:1 
25 1:-0.333333 2:0.333333 3:-0.333333 4:-0.333333 5:-0.333333 6:-1 7:-0.333333 8:-0.333333 9:0.333333 10:0.333333 11:1 12:0.333333 13:1 14:0.333333 15:1 16:-1 17:-0.333333 18:-0.333333 19:-1 20:-1 21:-1 22:1 23:0.333333 24:1 25:-0.333333 26:1 27:-0.333333 28:-0.333333 29:-1 30:0.333333 31:1 32:0.333333 33:-1 34:0.333333 35:-1 36:0.333333 37:-0.333333 38:1 39:1 40:1 41:-1 42:0.333333 43:1 44:-1 45:-1 46:1 47:-0.333333 48:1 49:1 50:-0.333333 51:0.333333 52:1 53:-0.333333 54:0.333333 55:-1 56:-0.333333 57:0.333333 58:0.333333 59:0.333333 60:0.333333 
25 1:0.333333 2:1 3:-0.333333 4:-0.333333 5:0.333333 6:0.333333 7:1 8:-0.333333 9:-1 10:-0.333333 11:-0.333333 12:-1 13:0.333333 14:0.333333 15:0.333333 16:-0.333333 17:-0.333333 18:0.333333 19:-0.333333 20:0.333333 21:1 22:-0.333333 23:-1 24:-0.333333 25:1 26:-0.333333 27:-0.333333 28:0.333333 29:-0.333333 30:-0.333333 31:-0.333333 32:-0.333333 33:0.333333 34:0.333333 35:0.333333 36:0.333333 37:1 38:-0.333333 39:0.333333 40:1 41:0.333333 42:0.333333 43:-0.333333 44:-1 45:-0.333333 46:-0.333333 47:-0.333333 48:-0.333333 49:0.333333 50:1 51:0.333333 52:-1 53:1 54:-0.333333 55:1 56:1 57:0.333333 58:-1 59:-0.333333 60:-0.333333 
25 1:-1 2:0.333333 3:-1 4:-0.333333 5:-1 6:-1 7:-0.333333 8:-1 9:-1 10:-0.333333 11:0.333333 12:-0.333333 13:-1 14:-0.333333 15:0.333333 16:0.333333 17:-1 18:0.333333 19:-0.333333 20:0.333333 21:0.333333 22:0.333333 23:0.333333 24:0.333333 25:-1 26:-0.333333 27:0.333333 28:-0.333333 29:0.333333 30:-1 31:0.333333 32:-0.333333 33:0.333333 34:0.333333 35:0.333333 36:1 37:-0.333333 38:0.333333 39:-0.333333 40:-1 41:-0.333333 42:-0.333333 43:-0.333333 44:-0.333333 45:-1 46:-1 47:0.333333 48:-1 49:-1 50:-0.333333 51:-0.333333 52:-0.333333 53:-1 54:-1 55:0.333333 56:0.333333 57:1 58:1 59:1 60:0.333333 
25 1:-0.333333 2:-1 3:-0.333333 4:0.333333 5:0.333333 6:0.333333 7:1 8:-0.333333 9:-0.333333 10:0.333333 11:0.333333 12:0.333333 13:1 14:-0.333333 15:-1 16:0.333333 17:0.333333 18:-0.333333 19:-1 20:-0.333333 21:-1 22:0.333333 23:0.333333 24:1 25:-0.333333 26:-0.333333 27:-0.333333 28:0.333333 29:0.333333 30:1 31:-0.333333 32:1 33:-0.333333 34:-1 35:-0.333333 36:1 37:-0.333333 38:0.333333 39:-0.333333 40:-0.333333 41:-0.333333 42:-0.333333 43:1 44:1 45:-0.333333 46:-0.333333 47:-0.333333 48:-1 49:-0.333333 50:-0.333333 51:-0.333333 52:-1 53:-1 54:-1 55:0.333333 56:-0.333333 57:-0.333333 58:0.333333 59:0.333333 60:1 
25 1:-0.333333 2:-0.333333 3:0.333333 4:-0.333333 5:0.333333 6:1 7:1 8:1 9:-0.333333 10:1 11:0.333333 12:1 13:-0.333333 14:-0.333333 15:-0.333333 16:-1 17:-0.333333 18:-0.333333 19:0.333333 20:-0.333333 21:-0.333333 22:1 23:1 24:-1 25:0.333333 26:1 27:-0.333333 28:-1 29:-1 30:-0.333333 31:0.333333 32:-1 33:-0.333333 34:-0.333333 35:0.333333 36:-1 37:1 38:-0.333333 39:-1 40:-1 41:-0.333333 42:-0.333333 43:-1 44:-0.333333 45:-0.333333 46:-0.333333 47:-1 48:-0.333333 49:0.333333 50:-1 51:-0.333333 52:-0.333333 53:-0.333333 54:-1 55:-0.333333 56:-1 57:-0.333333 58:1 59:-0.333333 60:-0.333333 
5.817996251465393 1:-0.333333 2:0.333333 3:1 4:-1 5:-1 6:1 7:-1 8:-1 9:-1 10:-1 11:-1 12:0.333333 13:-1 14:-1 15:-0.333333 16:0.333333 17:-1 18:0.333333 19:1 20:-1 21:1 22:1 23:-0.333333 24:1 25:1 26:0.333333 27:-1 28:-1 29:0.333333 30:1 31:1 32:1 33:1 34:-1 35:-0.333333 36:-0.333333 37:1 38:-0.333333 39:1 40:-0.333333 41:1 42:-0.333333 43:1 44:-1 45:0.333333 46:1 47:1 48:1 49:-0.333333 50:-0.333333 51:-1 52:-0.333333 53:0.333333 54:0.333333 55:-1 56:0.333333 57:0.333333 58:-1 59:1 60:1 
25 1:0.333333 2:0.333333 3:1 4:-0.333333 5:-0.333333 6:-1 7:0.333333 8:1 9:1 10:1 11:0.333333 12:1 13:1 14:-0.333333 15:0.333333 16:0.333333 17:1 18:0.333333 19:1 20:1 21:0.333333 22:0.333333 23:0.333333 24:0.333333 25:0.333333 26:-1 27:0.333333 28:0.333333 29:-1 30:-0.333333 31:0.333333 32:1 33:-0.333333 34:-0.333333 35:-1 36:-0.333333 37:-1 38:-0.333333 39:-1 40:-1 41:-1 42:-0.333333 43:-0.333333 44:0.333333 45:0.333333 46:-1 47:-1 48:-0.333333 49:0.333333 50:-0.333333 51:-0.333333 52:-1 53:0.333333 54:0.333333 55:-1 56:-0.333333 57:-1 58:-0.333333 59:0.333333 60:1 
14.63285861328339 1:-0.333333 2:-0.333333 3:1 4:-1 5:1 6:-0.333333 7:-1 8:-0.333333 9:-1 10:-1 11:1 12:0.333333 13:1 14:-1 15:-0.333333 16:-0.333333 17:0.333333 18:-1 19:-0.333333 20:-0.333333 21:-0.333333 22:-0.333333 23:0.333333 24:-1 25:-0.333333 26:-0.333333 27:-0.333333 28:-0.333333 29:-1 30:-0.333333 31:1 32:1 33:-1 34:0.333333 35:-1 36:-0.333333 37:1 38:0.333333 39:0.333333 40:0.333333 41:1 42:1 43:1 44:1 45:-1 46:0.333333 47:-1 48:-0.333333 49:-1 50:1 51:-1 52:-0.333333 53:-1 54:-1 55:-1 56:-1 57:-1 58:0.333333 59:-1 60:-0.333333 
6.05929711920517 1:-1 2:-0.333333 3:-0.333333 4:-0.333333 5:0.333333 6:-1 7:1 8:-0.333333 9:-0.333333 10:1 11:-0.333333 12:-1 13:-1 14:-1 15:-1 16:-1 17:-0.333333 18:-0.333333 19:-1 20:-1 21:-1 22:1 23:-1 24:1 25:0.333333 26:1 27:1 28:0.333333 29:0.333333 30:-0.333333 31:1 32:1 33:0.333333 34:-1 35:-1 36:-1 37:-1 38:0.333333 39:1 40:-0.333333 41:-0.333333 42:-1 43:-1 44:-1 45:1 46:-1 47:-1 48:-0.333333 49:0.333333 50:1 51:1 52:1 53:0.333333 54:1 55:-0.333333 56:-1 57:-0.333333 58:-1 59:-1 60:-1 
7.273793952564164 1:0.333333 2:1 3:1 4:-1 5:0.333333 6:1 7:0.333333 8:1 9:1 10:1 11:1 12:1 13:1 14:1 15:0.333333 16:0.333333 17:0.333333 18:0.333333 19:0.333333 20:0.333333 21:1 22:1 23:0.333333 24:1 25:1 26:-1 27:-1 28:-1 29:0.333333 30:0.333333 31:-1 32:0.333333 33:0.333333 34:-1 35:-0.333333 36:1 37:-0.333333 38:-0.333333 39:1 40:1 41:0.333333 42:-1 43:1 44:1 45:1 46:1 47:1 48:-1 49:-1 50:-0.333333 51:-0.333333 52:1 53:1 54:1 55:1 56:1 57:1 58:0.333333 59:-1 60:1 
25 1:0.333333 2:1 3:-0.333333 4:-0.333333 5:-0.333333 6:-1 7:-1 8:-0.333333 9:1 10:-0.333333 11:-1 12:-0.333333 13:0.333333 14:1 15:0.333333 16:-0.333333 17:0.333333 18:-1 19:-0.333333 20:1 21:-0.333333 22:1 23:-0.333333 24:0.333333 25:1 26:-0.333333 27:-1 28:0.333333 29:-1 30:0.333333 31:0.333333 32:-1 33:-0.333333 34:-1 35:-1 36:-1 37:-1 38:-0.333333 39:1 40:-0.333333 41:0.333333 42:0.333333 43:1 44:0.333333 45:1 46:-0.333333 47:-0.333333 48:-1 49:0.333333 50:1 51:0.333333 52:-1 53:1 54:0.333333 55:0.333333 56:0.333333 57:0.333333 58:1 59:-0.333333 60:0.333333 
8.646719016529694 1:-1 2:-1 3:-0.333333 4:0.333333 5:0.333333 6:1 7:1 8:0.333333 9:-0.333333 10:1 11:1 12:-0.333333 13:-0.333333 14:-1 15:-1 16:-1 17:0.333333 18:-0.333333 19:-0.333333 20:-0.333333 21:-1 22:-1 23:1 24:-1 25:1 26:0.333333 27:1 28:1 29:0.333333 30:0.333333 31:0.333333 32:0.333333 33:1 34:1 35:-0.333333 36:-1 37:-1 38:-1 39:0.333333 40:1 41:-1 42:-0.333333 43:-1 44:0.333333 45:-1 46:-0.333333 47:-1 48:-1 49:-0.333333 50:0.333333 51:-1 52:1 53:1 54:0.333333 55:1 56:0.333333 57:-1 58:-0.333333 59:-1 60:-1 
25 1:-0.333333 2:0.333333 3:0.333333 4:1 5:-0.333333 6:0.333333 7:-0.333333 8:-0.333333 9:-0.333333 10:-0.333333 11:-1 12:-0.333333 13:0.333333 14:-1 15:0.333333 16:0.333333 17:1 18:-0.333333 19:-0.333333 20:-1 21:-0.333333 22:-0.333333 23:0.333333 24:0.333333 25:1 26:1 27:1 28:-0.333333 29:0.333333 30:1 31:1 32:1 33:-0.333333 34:0.333333 35:1 36:-0.333333 37:-0.333333 38:-1 39:-0.333333 40:0.333333 41:-0.333333 42:0.333333 43:1 44:1 45:0.333333 46:-1 47:-0.333333 48:0.333333 49:-0.333333 50:-0.333333 51:0.333333 52:1 53:-1 54:0.333333 55:0.333333 56:-0.333333 57:-0.333333 58:-0.333333 59:-1 60:-1 
6.591906673717658 1:-1 2:-0.333333 3:1 4:-1 5:-0.333333 6:0.333333 7:0.333333 8:-1 9:-1 10:-1 11:-0.333333 12:-1 13:0.333333 14:0.333333 15:-1 16:1 17:0.333333 18:-1 19:-0.333333 20:0.333333 21:-0.333333 22:1 23:1 24:1 25:0.333333 26:0.333333 27:1 28:1 29:1 30:-1 31:1 32:-0.333333 33:1 34:-0.333333 35:1 36:-0.333333 37:-1 38:-0.333333 39:-1 40:-1 41:1 42:1 43:-0.333333 44:-1 45:-1 46:-1 47:1 48:-0.333333 49:-1 50:0.333333 51:1 52:-1 53:-0.333333 54:0.333333 55:-1 56:1 57:1 58:-1 59:1 60:1 
21.28070846589294 1:-1 2:1 3:-0.333333 4:0.333333 5:-1 6:-0.333333 7:0.333333 8:-1 9:0.333333 10:0.333333 11:1 12:1 13:0.333333 14:-1 15:-0.333333 16:-0.333333 17:1 18:0.333333 19:1 20:1 21:-0.333333 22:-1 23:-0.333333 24:0.333333 25:1 26:0.333333 27:1 28:-1 29:1 30:-0.333333 31:0.333333 32:-1 33:-0.333333 34:-0.333333 35:-0.333333 36:-1 37:-0.333333 38:-0.333333 39:1 40:-1 41:-1 42:-0.333333 43:0.333333 44:0.333333 45:-1 46:0.333333 47:-0.333333 48:-0.333333 49:-1 50:-1 51:-0.333333 52:1 53:0.333333 54:-1 55:0.333333 56:-1 57:-1 58:-0.333333 59:0.333333 60:-1 
14.06757086421474 1:1 2:0.333333 3:1 4:0.333333 5:-1 6:-1 7:1 8:0.333333 9:0.333333 10:1 11:1 12:1 13:0.333333 14:0.333333 15:0.333333 16:1 17:-0.333333 18:1 19:-1 20:-1 21:0.333333 22:1 23:0.333333 24:0.333333 25:1 26:-0.333333 27:0.333333 28:0.333333 29:-1 30:-0.333333 31:-1 32:-0.333333 33:1 34:1 35:0.333333 36:0.333333 37:1 38:-0.333333 39:-0.333333 40:-1 41:1 42:-0.333333 43:-1 44:1 45:-0.333333 46:-1 47:0.333333 48:-1 49:1 50:1 51:-1 52:0.333333 53:1 54:-0.333333 55:-1 56:1 57:-0.333333 58:-1 59:0.333333 60:-1 
13.48825555091019 1:-1 2:0.333333 3:-1 4:-1 5:-0.333333 6:-1 7:-1 8:-0.333333 9:-0.333333 10:-1 11:1 12:-0.333333 13:-0.333333 14:-1 15:-0.333333 16:0.333333 17:1 18:-0.333333 19:-1 20:0.333333 21:1 22:1 23:0.333333 24:-1 25:0.333333 26:0.333333 27:-1 28:-1 29:-0.333333 30:1 31:-0.333333 32:-0.333333 33:0.333333 34:-1 35:1 36:1 37:-0.333333 38:1 39:-0.333333 40:1 41:1 42:0.333333 43:1 44:-0.333333 45:-1 46:-1 47:-0.333333 48:-1 49:1 50:1 51:-0.333333 52:-0.333333 53:-0.333333 54:-0.333333 55:-1 56:-1 57:0.333333 58:-1 59:0.333333 60:-1 
3.521219280816371 1:-1 2:1 3:1 4:0.333333 5:1 6:-1 7:0.333333 8:1 9:1 10:-1 11:-0.333333 12:1 13:-1 14:-1 15:-1 16:0.333333 17:-1 18:1 19:-1 20:-1 21:1 22:1 23:1 24:0.333333 25:1 26:1 27:-0.333333 28:1 29:-0.333333 30:0.333333 31:1 32:-1 33:-0.333333 34:-1 35:1 36:-1 37:-1 38:0.333333 39:0.333333 40:-1 41:-1 42:-1 43:1 44:1 45:-1 46:-1 47:-0.333333 48:-1 49:-1 50:-1 51:-1 52:0.333333 53:0.333333 54:-1 55:-1 56:-1 57:-1 58:0.333333 59:-1 60:-1 
22.85086411804789 1:1 2:0.333333 3:-1 4:-1 5:0.333333 6:0.333333 7:-1 8:1 9:1 10:-1 11:-1 12:1 13:-0.333333 14:1 15:0.333333 16:1 17:0.333333 18:1 19:1 20:0.333333 21:0.333333 22:1 23:1 24:0.333333 25:0.333333 26:1 27:-0.333333 28:0.333333 29:-1 30:-0.333333 31:0.333333 32:-0.333333 33:1 34:1 35:1 36:-0.333333 37:1 38:-0.333333 39:-1 40:-0.333333 41:-0.333333 42:0.333333 43:-1 44:1 45:-1 46:1 47:0.333333 48:0.333333 49:1 50:-0.333333 51:1 52:0.333333 53:-0.333333 54:-0.333333 55:-0.333333 56:-0.333333 57:1 58:-0.333333 59:-1 60:0.333333 
25 1:0.333333 2:1 3:0.333333 4:-0.333333 5:-0.333333 6:-0.333333 7:0.333333 8:-1 9:-0.333333 10:0.333333 11:-1 12:-0.333333 13:1 14:0.333333 15:-1 16:1 17:1 18:-0.333333 19:0.333333 20:1 21:-0.333333 22:1 23:0.333333 24:-1 25:0.333333 26:0.333333 27:0.333333 28:-0.333333 29:0.333333 30:1 31:0.333333 32:1 33:-0.333333 34:0.333333 35:0.333333 36:0.333333 37:-1 38:-0.333333 39:-0.333333 40:0.333333 41:1 42:-0.333333 43:0.333333 44:0.333333 45:0.333333 46:-0.333333 47:0.333333 48:0.333333 49:-1 50:-0.333333 51:-0.333333 52:1 53:0.333333 54:0.333333 55:-1 56:0.333333 57:1 58:1 59:-1 60:1 
25 1:-1 2:-0.333333 3:-0.333333 4:-0.333333 5:-0.333333 6:1 7:-0.333333 8:0.333333 9:1 10:0.333333 11:0.333333 12:1 13:-0.333333 14:-0.333333 15:0.333333 16:-1 17:-1 18:1 19:0.333333 20:-0.333333 21:1 22:-0.333333 23:-0.333333 24:1 25:1 26:1 27:1 28:0.333333 29:0.333333 30:-1 31:-0.333333 32:-0.333333 33:0.333333 34:1 35:0.333333 36:1 37:-0.333333 38:-1 39:1 40:-0.333333 41:-0.333333 42:1 43:1 44:1 45:-1 46:0.333333 47:0.333333 48:1 49:-0.333333 50:-0.333333 51:-0.333333 52:0.333333 53:0.333333 54:-1 55:-1 56:-1 57:-0.333333 58:-0.333333 59:-0.333333 60:1 
25 1:-1 2:0.333333 3:0.333333 4:1 5:0.333333 6:-0.333333 7:-0.333333 8:-0.333333 9:0.333333 10:0.333333 11:1 12:-0.333333 13:0.333333 14:-0.333333 15:-0.333333 16:0.333333 17:-1 18:1 19:-0.333333 20:1 21:-0.333333 22:0.333333 23:-1 24:-0.333333 25:0.333333 26:1 27:-0.333333 28:-0.333333 29:0.333333 30:0.333333 31:1 32:1 33:0.333333 34:1 35:1 36:0.333333 37:0.333333 38:0.333333 39:1 40:0.333333 41:0.333333 42:0.333333 43:-0.333333 44:-0.333333 45:0.333333 46:-1 47:0.333333 48:0.333333 49:-0.333333 50:1 51:-0.333333 52:0.333333 53:-1 54:1 55:0.333333 56:0.333333 57:-0.333333 58:0.333333 59:1 60:-0.333333 
6.8971478985922 1:-1 2:0.333333 3:0.333333 4:1 5:0.333333 6:-1 7:-1 8:-1 9:1 10:1 11:-0.333333 12:-1 13:-1 14:0.333333 15:-0.333333 16:-1 17:1 18:1 19:-1 20:-1 21:-1 22:-1 23:-1 24:1 25:1 26:0.333333 27:-1 28:-1 29:-1 30:-0.333333 31:0.333333 32:-1 33:1 34:-1 35:-0.333333 36:0.333333 37:0.333333 38:0.333333 39:1 40:-0.333333 41:-1 42:-1 43:-1 44:-0.333333 45:-1 46:-0.333333 47:-1 48:-1 49:-1 50:-0.333333 51:-0.333333 52:-1 53:0.333333 54:-1 55:-1 56:-0.333333 57:-0.333333 58:-1 59:0.333333 60:0.333333 
10.5153713365135 1:-1 2:-0.333333 3:-0.333333 4:-1 5:-0.333333 6:-1 7:-0.333333 8:-0.333333 9:-1 10:-1 11:1 12:-1 13:-0.333333 14:-0.333333 15:1 16:1 17:1 18:-0.333333 19:-0.333333 20:-0.333333 21:-1 22:-1 23:-1 24:1 25:-1 26:-1 27:-1 28:1 29:0.333333 30:0.333333 31:1 32:-0.333333 33:0.333333 34:1 35:-0.333333 36:-1 37:0.333333 38:-1 39:1 40:1 41:-0.333333 42:-0.333333 43:-1 44:-1 45:-1 46:0.333333 47:0.333333 48:0.333333 49:0.333333 50:-1 51:-1 52:-0.333333 53:-0.333333 54:-1 55:-1 56:-0.333333 57:0.333333 58:0.333333 59:1 60:0.333333 
14.01601011419734 1:-1 2:-0.333333 3:1 4:0.333333 5:1 6:1 7:-0.333333 8:0.333333 9:1 10:-0.333333 11:1 12:0.333333 13:0.333333 14:1 15:-0.333333 16:-0.333333 17:0.333333 18:-1 19:0.333333 20:1 21:-0.333333 22:0.333333 23:1 24:0.333333 25:1 26:-1 27:-1 28:-0.333333 29:-0.333333 30:-0.333333 31:0.333333 32:1 33:1 34:1 35:-1 36:1 37:-1 38:0.333333 39:1 40:1 41:-1 42:1 43:1 44:1 45:-0.333333 46:0.333333 47:1 48:0.333333 49:-1 50:0.333333 51:1 52:1 53:-1 54:-0.333333 55:1 56:0.333333 57:0.333333 58:1 59:0.333333 60:-1 
25 1:0.333333 2:-1 3:-0.333333 4:-0.333333 5:1 6:-0.333333 7:1 8:1 9:-0.333333 10:-1 11:0.333333 12:-1 13:-1 14:-0.333333 15:-1 16:-1 17:0.333333 18:0.333333 19:0.333333 20:1 21:-0.333333 22:-0.333333 23:-1 24:-0.333333 25:-0.333333 26:-0.333333 27:-1 28:-0.333333 29:-0.333333 30:-1 31:-0.333333 32:-1 33:-0.333333 34:0.333333 35:-1 36:-0.333333 37:-0.333333 38:-0.333333 39:-1 40:-1 41:-1 42:-0.333333 43:-0.333333 44:1 45:0.333333 46:-1 47:-0.333333 48:-1 49:-1 50:-1 51:-0.333333 52:-0.333333 53:-0.333333 54:-1 55:-1 56:-0.333333 57:-1 58:0.333333 59:0.333333 60:0.333333 
25 1:1 2:-0.333333 3:1 4:1 5:0.333333 6:0.333333 7:-1 8:1 9:-0.333333 10:-1 11:0.333333 12:0.333333 13:0.333333 14:0.333333 15:0.333333 16:0.333333 17:0.333333 18:-1 19:0.333333 20:0.333333 21:-0.333333 22:0.333333 23:0.333333 24:1 25:1 26:1 27:-1 28:0.333333 29:-1 30:-0.333333 31:1 32:-0.333333 33:1 34:1 35:0.333333 36:0.333333 37:1 38:-0.333333 39:-0.333333 40:0.333333 41:1 42:0.333333 43:0.333333 44:1 45:0.333333 46:-1 47:-0.333333 48:0.333333 49:-1 50:-1 51:-0.333333 52:0.333333 53:-1 54:0.333333 55:-0.333333 56:-0.333333 57:1 58:0.333333 59:-0.333333 60:0.333333 
11.20344815702111 1:-1 2:-1 3:1 4:-1 5:-1 6:0.333333 7:0.333333 8:1 9:1 10:0.333333 11:1 12:-0.333333 13:0.333333 14:1 15:-0.333333 16:-0.333333 17:0.333333 18:0.333333 19:0.333333 20:0.333333 21:1 22:0.333333 23:1 24:-0.333333 25:0.333333 26:0.333333 27:1 28:1 29:-1 30:-0.333333 31:-0.333333 32:-1 33:-1 34:1 35:0.333333 36:-1 37:1 38:1 39:1 40:1 41:1 42:-1 43:-1 44:1 45:-1 46:-1 47:1 48:-0.333333 49:-0.333333 50:-1 51:0.333333 52:0.333333 53:1 54:-1 55:0.333333 56:0.333333 57:1 58:-0.333333 59:-0.333333 60:-1 
13.97766569504624 1:-0.333333 2:-0.333333 3:-1 4:0.333333 5:-1 6:-0.333333 7:-0.333333 8:-1 9:1 10:-0.333333 11:1 12:-1 13:-0.333333 14:0.333333 15:1 16:0.333333 17:1 18:0.333333 19:-1 20:-0.333333 21:-0.333333 22:1 23:-0.333333 24:1 25:-0.333333 26:-1 27:1 28:0.333333 29:0.333333 30:-1 31:-1 32:1 33:1 34:1 35:0.333333 36:-0.333333 37:-0.333333 38:-0.333333 39:1 40:0.333333 41:-1 42:1 43:-0.333333 44:1 45:-1 46:1 47:0.333333 48:0.333333 49:0.333333 50:1 51:1 52:1 53:-1 54:1 55:1 56:-0.333333 57:-0.333333 58:1 59:-1 60:0.333333 
25 1:0.333333 2:-1 3:1 4:0.333333 5:1 6:-0.333333 7:1 8:-0.333333 9:0.333333 10:0.333333 11:-0.333333 12:-0.333333 13:0.333333 14:1 15:-1 16:0.333333 17:1 18:-0.333333 19:0.333333 20:0.333333 21:0.333333 22:0.333333 23:-1 24:0.333333 25:0.333333 26:-1 27:1 28:-0.333333 29:-1 30:0.333333 31:0.333333 32:0.333333 33:-0.333333 34:0.333333 35:-0.333333 36:1 37:-0.333333 38:0.333333 39:1 40:-0.333333 41:0.333333 42:-1 43:-0.333333 44:-0.333333 45:-0.333333 46:-0.333333 47:-0.333333 48:1 49:0.333333 50:0.333333 51:1 52:-0.333333 53:0.333333 54:0.333333 55:-0.333333 56:-0.333333 57:0.333333 58:0.333333 59:0.333333 60:1 
25 1:0.333333 2:-1 3:0.333333 4:-1 5:-0.333333 6:-0.333333 7:-1 8:0.333333 9:-1 10:0.333333 11:0.333333 12:1 13:0.333333 14:-1 15:0.333333 16:-1 17:-0.333333 18:-1 19:-0.333333 20:-0.333333 21:1 22:0.333333 23:-1 24:0.333333 25:0.333333 26:1 27:0.333333 28:-1 29:0.333333 30:-1 31:0.333333 32:-0.333333 33:-0.333333 34:-0.333333 35:-0.333333 36:0.333333 37:-1 38:0.333333 39:-1 40:0.333333 41:1 42:1 43:0.333333 44:-1 45:0.333333 46:-1 47:0.333333 48:1 49:0.333333 50:-1 51:-0.333333 52:-0.333333 53:1 54:0.333333 55:-1 56:0.333333 57:0.333333 58:1 59:0.333333 60:-1 
9.41884511499387 1:1 2:-1 3:1 4:1 5:0.333333 6:1 7:-0.333333 8:0.333333 9:0.333333 10:-1 11:-1 12:1 13:0.333333 14:-1 15:0.333333 16:-1 17:1 18:1 19:1 20:0.333333 21:1 22:0.333333 23:1 24:1 25:0.333333 26:-1 27:-1 28:0.333333 29:1 30:-1 31:1 32:-0.333333 33:0.333333 34:0.333333 35:1 36:1 37:-0.333333 38:1 39:-0.333333 40:-1 41:1 42:-1 43:1 44:-1 45:-0.333333 46:1 47:1 48:1 49:-0.333333 50:-0.333333 51:0.333333 52:1 53:0.333333 54:1 55:-0.333333 56:1 57:0.333333 58:0.333333 59:0.333333 60:0.333333 
25 1:-1 2:1 3:0.333333 4:1 5:0.333333 6:-0.333333 7:-0.333333 8:0.333333 9:1 10:0.333333 11:-1 12:0.333333 13:-1 14:-0.333333 15:0.333333 16:-1 17:-1 18:0.333333 19:0.333333 20:1 21:0.333333 22:0.333333 23:-0.333333 24:0.333333 25:0.333333 26:1 27:0.333333 28:0.333333 29:0.333333 30:-1 31:-0.333333 32:-0.333333 33:1 34:1 35:0.333333 36:-1 37:-1 38:-0.333333 39:0.333333 40:0.333333 41:-1 42:1 43:1 44:0.333333 45:1 46:0.333333 47:0.333333 48:1 49:-0.333333 50:0.333333 51:0.333333 52:1 53:0.333333 54:-1 55:-0.333333 56:-0.333333 57:0.333333 58:1 59:0.333333 60:0.333333 
25 1:-0.333333 2:-0.333333 3:-0.333333 4:0.333333 5:1 6:-0.333333 7:0.333333 8:-0.333333 9:1 10:1 11:-0.333333 12:0.333333 13:1 14:-0.333333 15:-0.333333 16:1 17:0.333333 18:-1 19:0.333333 20:-1 21:1 22:1 23:0.333333 24:0.333333 25:1 26:-0.333333 27:-0.333333 28:0.333333 29:-1 30:-0.333333 31:-0.333333 32:1 33:-1 34:1 35:-0.333333 36:-0.333333 37:-0.333333 38:-0.333333 39:0.333333 40:-0.333333 41:-0.333333 42:-0.333333 43:-0.333333 44:0.333333 45:1 46:1 47:-0.333333 48:0.333333 49:1 50:0.333333 51:-0.333333 52:-0.333333 53:1 54:1 55:1 56:1 57:0.333333 58:0.333333 59:0.333333 60:0.333333 
3.882118175734283 1:1 2:-1 3:-1 4:-1 5:-1 6:-1 7:1 8:1 9:-1 10:-1 11:-1 12:-1 13:1 14:-0.333333 15:1 16:-0.333333 17:-1 18:-1 19:1 20:-0.333333 21:1 22:0.333333 23:-1 24:-1 25:0.333333 26:-1 27:-1 28:1 29:-1 30:-1 31:-1 32:-1 33:-1 34:-0.333333 35:0.333333 36:-1 37:-1 38:-0.333333 39:-1 40:0.333333 41:1 42:-1 43:1 44:-0.333333 45:-1 46:-1 47:-1 48:-0.333333 49:-0.333333 50:0.333333 51:1 52:0.333333 53:-1 54:-0.333333 55:-1 56:1 57:1 58:1 59:0.333333 60:1 
9.038119263957405 1:1 2:1 3:-0.333333 4:1 5:-0.333333 6:1 7:-1 8:1 9:-0.333333 10:-0.333333 11:1 12:-0.333333 13:1 14:-0.333333 15:-1 16:-0.333333 17:-0.333333 18:1 19:-1 20:-0.333333 21:-0.333333 22:-0.333333 23:0.333333 24:1 25:1 26:-0.333333 27:-1 28:-0.333333 29:-0.333333 30:1 31:1 32:1 33:-1 34:1 35:-0.333333 36:1 37:1 38:1 39:1 40:-0.333333 41:1 42:1 43:1 44:-1 45:1 46:-0.333333 47:-0.333333 48:-0.333333 49:1 50:-0.333333 51:1 52:-1 53:0.333333 54:-1 55:-0.333333 56:1 57:1 58:-0.333333 59:1 60:1 
18.04559591115682 1:-1 2:-0.333333 3:-0.333333 4:1 5:1 6:0.333333 7:-1 8:-1 9:0.333333 10:-1 11:1 12:0.333333 13:-0.333333 14:-0.333333 15:1 16:-0.333333 17:-0.333333 18:0.333333 19:0.333333 20:0.333333 21:0.333333 22:-1 23:0.333333 24:-1 25:1 26:0.333333 27:0.333333 28:1 29:0.333333 30:0.333333 31:-1 32:1 33:1 34:0.333333 35:0.333333 36:0.333333 37:-1 38:1 39:0.333333 40:1 41:1 42:-0.333333 43:1 44:-0.333333 45:0.333333 46:1 47:0.333333 48:0.333333 49:1 50:-1 51:0.333333 52:1 53:1 54:0.333333 55:1 56:1 57:1 58:-0.333333 59:-1 60:1 
12.90393457262788 1:-0.333333 2:-0.333333 3:0.333333 4:-1 5:0.333333 6:-1 7:0.333333 8:0.333333 9:0.333333 10:1 11:-1 12:1 13:-1 14:-1 15:0.333333 16:-1 17:-1 18:1 19:-0.333333 20:-1 21:-1 22:-1 23:-0.333333 24:-1 25:0.333333 26:-1 27:0.333333 28:-1 29:0.333333 30:-1 31:0.333333 32:0.333333 33:-0.333333 34:-1 35:-0.333333 36:-1 37:-0.333333 38:0.333333 39:1 40:-1 41:0.333333 42:-0.333333 43:0.333333 44:1 45:0.333333 46:-1 47:1 48:0.333333 49:-1 50:0.333333 51:0.333333 52:1 53:1 54:1 55:0.333333 56:1 57:0.333333 58:1 59:-0.333333 60:1 
25 1:-0.333333 2:-0.333333 3:-1 4:0.333333 5:1 6:0.333333 7:-1 8:0.333333 9:-1 10:-0.333333 11:0.333333 12:1 13:-0.333333 14:0.333333 15:0.333333 16:0.333333 17:0.333333 18:0.333333 19:-1 20:-0.333333 21:-1 22:-0.333333 23:0.333333 24:0.333333 25:0.333333 26:-1 27:-0.333333 28:-0.333333 29:0.333333 30:-1 31:-1 32:1 33:-0.333333 34:-0.333333 35:0.333333 36:-1 37:0.333333 38:1 39:-0.333333 40:-1 41:0.333333 42:-0.333333 43:0.333333 44:1 45:1 46:0.333333 47:0.333333 48:0.333333 49:-1 50:1 51:1 52:-1 53:-1 54:-1 55:-0.333333 56:0.333333 57:1 58:0.333333 59:0.333333 60:-1 
13.04052181182004 1:0.333333 2:1 3:-1 4:0.333333 5:-1 6:1 7:-0.333333 8:0.333333 9:1 10:0.333333 11:1 12:1 13:-1 14:-1 15:-1 16:0.333333 17:1 18:0.333333 19:-1 20:-0.333333 21:-0.333333 22:-0.333333 23:1 24:-0.333333 25:-0.333333 26:-0.333333 27:-1 28:-0.333333 29:-1 30:-1 31:-0.333333 32:-1 33:1 34:1 35:1 36:0.333333 37:-1 38:0.333333 39:0.333333 40:-1 41:0.333333 42:1 43:-1 44:0.333333 45:-1 46:-0.333333 47:-1 48:-0.333333 49:-0.333333 50:-0.333333 51:1 52:-0.333333 53:1 54:1 55:0.333333 56:1 57:1 58:1 59:0.333333 60:0.333333 
19.56990258207264 1:-1 2:1 3:-0.333333 4:0.333333 5:1 6:1 7:0.333333 8:-1 9:-1 10:-1 11:-0.333333 12:-0.333333 13:0.333333 14:1 15:1 16:0.333333 17:1 18:-1 19:-0.333333 20:-0.333333 21:0.333333 22:0.333333 23:0.333333 24:-1 25:1 26:0.333333 27:0.333333 28:0.333333 29:-0.333333 30:-0.333333 31:-0.333333 32:-1 33:-1 34:-0.333333 35:1 36:-0.333333 37:1 38:1 39:-1 40:-1 41:1 42:-0.333333 43:-1 44:-0.333333 45:0.333333 46:1 47:-0.333333 48:1 49:-0.333333 50:-0.333333 51:-1 52:0.333333 53:1 54:-0.333333 55:-0.333333 56:1 57:1 58:0.333333 59:-1 60:0.333333 
25 1:0.333333 2:1 3:1 4:0.333333 5:0.333333 6:-0.333333 7:0.333333 8:-1 9:0.333333 10:0.333333 11:0.333333 12:-1 13:-0.333333 14:0.333333 15:-0.333333 16:0.333333 17:-0.333333 18:1 19:0.333333 20:-0.333333 21:-1 22:0.333333 23:0.333333 24:1 25:1 26:1 27:-1 28:0.333333 29:0.333333 30:-1 31:-0.333333 32:0.333333 33:-1 34:-0.333333 35:-0.333333 36:0.333333 37:0.333333 38:1 39:0.333333 40:0.333333 41:0.333333 42:0.333333 43:-1 44:0.333333 45:0.333333 46:-1 47:-0.333333 48:-1 49:1 50:-0.333333 51:0.333333 52:0.333333 53:0.333333 54:1 55:-0.333333 56:0.333333 57:-0.333333 58:0.333333 59:1 60:-0.333333 
25 1:-0.333333 2:-0.333333 3:-1 4:0.333333 5:0.333333 6:-1 7:0.333333 8:0.333333 9:0.333333 10:0.333333 11:0.333333 12:-1 13:0.333333 14:-1 15:-1 16:-0.333333 17:-0.333333 18:-1 19:-0.333333 20:-0.333333 21:0.333333 22:-1 23:-1 24:0.333333 25:0.333333 26:-1 27:-0.333333 28:0.333333 29:0.333333 30:1 31:0.333333 32:-1 33:-1 34:-0.333333 35:-0.333333 36:1 37:0.333333 38:0.333333 39:0.333333 40:0.333333 41:0.333333 42:-1 43:0.333333 44:0.333333 45:1 46:0.333333 47:0.333333 48:1 49:0.333333 50:0.333333 51:-1 52:-0.333333 53:-0.333333 54:-1 55:-1 56:-1 57:-0.333333 58:0.333333 59:0.333333 60:-1 
25 1:-0.333333 2:0.333333 3:-0.333333 4:-1 5:-0.333333 6:0.333333 7:0.333333 8:0.333333 9:-0.333333 10:1 11:-0.333333 12:-0.333333 13:1 14:-0.333333 15:-1 16:0.333333 17:0.333333 18:1 19:-0.333333 20:-0.333333 21:-0.333333 22:1 23:-0.333333 24:1 25:0.333333 26:1 27:0.333333 28:-1 29:-0.333333 30:0.333333 31:1 32:-0.333333 33:1 34:1 35:0.333333 36:0.333333 37:1 38:-0.333333 39:-0.333333 40:-1 41:0.333333 42:-1 43:1 44:-0.333333 45:-1 46:0.333333 47:1 48:-0.333333 49:-1 50:-1 51:-0.333333 52:1 53:0.333333 54:0.333333 55:1 56:-0.333333 57:0.333333 58:0.333333 59:0.333333 60:1 
3.942341204402626 1:-0.333333 2:0.333333 3:1 4:1 5:-0.333333 6:-1 7:1 8:-0.333333 9:1 10:0.333333 11:1 12:-1 13:-1 14:-1 15:-1 16:-1 17:1 18:-1 19:1 20:-1 21:1 22:1 23:1 24:0.333333 25:-1 26:1 27:-0.333333 28:1 29:0.333333 30:1 31:1 32:-1 33:0.333333 34:1 35:-0.333333 36:-1 37:-1 38:-1 39:0.333333 40:-1 41:1 42:1 43:1 44:1 45:-0.333333 46:0.333333 47:0.333333 48:-1 49:-0.333333 50:-1 51:0.333333 52:1 53:1 54:1 55:0.333333 56:1 57:0.333333 58:0.333333 59:-1 60:-1 
15.27658466433858 1:1 2:0.333333 3:0.333333 4:0.333333 5:-1 6:0.333333 7:-1 8:0.333333 9:-0.333333 10:-0.333333 11:1 12:1 13:0.333333 14:-1 15:-0.333333 16:-1 17:1 18:-1 19:-1 20:1 21:0.333333 22:0.333333 23:0.333333 24:1 25:-0.333333 26:0.333333 27:1 28:-0.333333 29:0.333333 30:-1 31:1 32:1 33:1 34:1 35:-1 36:0.333333 37:0.333333 38:0.333333 39:1 40:0.333333 41:-1 42:1 43:0.333333 44:-1 45:1 46:-0.333333 47:0.333333 48:-1 49:0.333333 50:0.333333 51:-1 52:0.333333 53:1 54:1 55:1 56:-1 57:-0.333333 58:0.333333 59:0.333333 60:-1 
12.47207676682694 1:-1 2:-1 3:1 4:1 5:1 6:-0.333333 7:0.333333 8:1 9:0.333333 10:0.333333 11:1 12:-1 13:-1 14:1 15:1 16:0.333333 17:-1 18:-0.333333 19:1 20:-0.333333 21:1 22:0.333333 23:0.333333 24:-1 25:1 26:-0.333333 27:1 28:1 29:1 30:0.333333 31:1 32:-0.333333 33:-1 34:-0.333333 35:0.333333 36:0.333333 37:1 38:0.333333 39:0.333333 40:-1 41:-0.333333 42:-1 43:0.333333 44:0.333333 45:-1 46:1 47:0.333333 48:-0.333333 49:0.333333 50:1 51:-1 52:1 53:-0.333333 54:-1 55:-0.333333 56:0.333333 57:1 58:1 59:0.333333 60:0.333333 
25 1:-1 2:1 3:1 4:-0.333333 5:-1 6:-1 7:-1 8:0.333333 9:-1 10:0.333333 11:-1 12:-0.333333 13:-1 14:-0.333333 15:0.333333 16:-1 17:0.333333 18:0.333333 19:-1 20:-0.333333 21:0.333333 22:1 23:0.333333 24:1 25:-0.333333 26:-1 27:-0.333333 28:-0.333333 29:-1 30:-1 31:0.333333 32:1 33:0.333333 34:-0.333333 35:1 36:0.333333 37:0.333333 38:0.333333 39:-1 40:-1 41:-0.333333 42:0.333333 43:0.333333 44:0.333333 45:0.333333 46:0.333333 47:0.333333 48:-1 49:1 50:0.333333 51:1 52:0.333333 53:0.333333 54:-1 55:0.333333 56:1 57:1 58:0.333333 59:0.333333 60:1 
25 1:-1 2:-0.333333 3:-0.333333 4:-0.333333 5:0.333333 6:0.333333 7:0.333333 8:0.333333 9:1 10:1 11:-1 12:0.333333 13:-0.333333 14:1 15:1 16:0.333333 17:0.333333 18:0.333333 19:0.333333 20:1 21:0.333333 22:1 23:1 24:1 25:1 26:0.333333 27:0.333333 28:0.333333 29:-1 30:-0.333333 31:-1 32:-0.333333 33:0.333333 34:0.333333 35:-0.333333 36:-0.333333 37:0.333333 38:1 39:1 40:0.333333 41:0.333333 42:0.333333 43:-1 44:-0.333333 45:0.333333 46:0.333333 47:0.333333 48:-1 49:0.333333 50:0.333333 51:-1 52:1 53:0.333333 54:0.333333 55:0.333333 56:0.333333 57:-1 58:1 59:0.333333 60:-0.333333 
22.75123038272556 1:-1 2:0.333333 3:1 4:-0.333333 5:-0.333333 6:0.333333 7:0.333333 8:-0.333333 9:1 10:-0.333333 11:1 12:-0.333333 13:-0.333333 14:1 15:1 16:1 17:1 18:-1 19:-0.333333 20:-0.333333 21:1 22:-0.333333 23:-0.333333 24:-1 25:0.333333 26:0.333333 27:-1 28:-0.333333 29:-0.333333 30:-1 31:-1 32:-0.333333 33:0.333333 34:1 35:-1 36:1 37:1 38:1 39:0.333333 40:1 41:-0.333333 42:-0.333333 43:0.333333 44:-1 45:-1 46:-0.333333 47:-0.333333 48:0.333333 49:0.333333 50:-1 51:-0.333333 52:-1 53:1 54:0.333333 55:0.333333 56:1 57:-0.333333 58:1 59:0.333333 60:1 
15.02699006549018 1:-1 2:-1 3:0.333333 4:1 5:0.333333 6:1 7:0.333333 8:1 9:1 10:1 11:0.333333 12:1 13:0.333333 14:0.333333 15:-1 16:1 17:1 18:1 19:0.333333 20:1 21:1 22:-0.333333 23:0.333333 24:0.333333 25:1 26:1 27:1 28:0.333333 29:-1 30:-0.333333 31:-1 32:-1 33:-0.333333 34:-1 35:-1 36:0.333333 37:-1 38:1 39:-0.333333 40:1 41:-0.333333 42:-1 43:1 44:0.333333 45:-1 46:1 47:0.333333 48:0.333333 49:-1 50:-0.333333 51:-0.333333 52:0.333333 53:0.333333 54:-0.333333 55:-1 56:-0.333333 57:1 58:1 59:0.333333 60:1 
12.65849410211541 1:-1 2:-1 3:-1 4:-0.333333 5:-1 6:-0.333333 7:1 8:0.333333 9:0.333333 10:-1 11:-0.333333 12:-0.333333 13:-1 14:0.333333 15:0.333333 16:-1 17:-0.333333 18:-1 19:1 20:-0.333333 21:-0.333333 22:-1 23:1 24:1 25:0.333333 26:-1 27:0.333333 28:-1 29:-0.333333 30:0.333333 31:0.333333 32:-1 33:-1 34:-1 35:1 36:1 37:0.333333 38:1 39:-1 40:0.333333 41:0.333333 42:-1 43:-0.333333 44:-1 45:-0.333333 46:-0.333333 47:1 48:-1 49:0.333333 50:-1 51:-1 52:-0.333333 53:-0.333333 54:1 55:-0.333333 56:-0.333333 57:-1 58:-1 59:0.333333 60:1 
3.445866074532164 1:-1 2:-1 3:-1 4:-0.333333 5:-1 6:1 7:-0.333333 8:0.333333 9:-1 10:1 11:-1 12:-0.333333 13:-1 14:-1 15:-1 16:-0.333333 17:-1 18:-0.333333 19:1 20:-1 21:1 22:-1 23:-1 24:1 25:-0.333333 26:1 27:1 28:1 29:1 30:-1 31:-1 32:-1 33:-1 34:0.333333 35:-1 36:1 37:-1 38:-1 39:-0.333333 40:-0.333333 41:0.333333 42:-1 43:1 44:1 45:0.333333 46:-1 47:1 48:0.333333 49:1 50:-0.333333 51:0.333333 52:0.333333 53:-1 54:1 55:1 56:1 57:1 58:1 59:0.333333 60:-1 
20.80006490630752 1:-1 2:-1 3:0.333333 4:-1 5:-0.333333 6:-1 7:-0.333333 8:-1 9:-0.333333 10:-1 11:-0.333333 12:-1 13:-1 14:0.333333 15:-1 16:-0.333333 17:0.333333 18:-0.333333 19:-0.333333 20:0.333333 21:-1 22:-1 23:-0.333333 24:0.333333 25:0.333333 26:0.333333 27:-1 28:-1 29:-0.333333 30:-1 31:-1 32:-0.333333 33:0.333333 34:0.333333 35:0.333333 36:-0.333333 37:-0.333333 38:-0.333333 39:-1 40:0.333333 41:1 42:0.333333 43:0.333333 44:1 45:-0.333333 46:-1 47:-0.333333 48:-1 49:-1 50:0.333333 51:-1 52:-1 53:1 54:-1 55:-1 56:-0.333333 57:-0.333333 58:-1 59:-0.333333 60:1 
25 1:-0.333333 2:0.333333 3:0.333333 4:-1 5:0.333333 6:1 7:1 8:0.333333 9:-1 10:-0.333333 11:0.333333 12:-1 13:-1 14:-0.333333 15:1 16:1 17:0.333333 18:-1 19:1 20:1 21:0.333333 22:0.333333 23:1 24:-0.333333 25:-1 26:-0.333333 27:-0.333333 28:-0.333333 29:0.333333 30:1 31:0.333333 32:0.333333 33:0.333333 34:-1 35:-0.333333 36:-1 37:-0.333333 38:-1 39:-0.333333 40:1 41:-0.333333 42:-0.333333 43:-0.333333 44:-0.333333 45:0.333333 46:1 47:-0.333333 48:-0.333333 49:1 50:1 51:-0.333333 52:0.333333 53:0.333333 54:-1 55:-0.333333 56:1 57:0.333333 58:-1 59:-0.333333 60:-1 
6.722097194174518 1:-1 2:-1 3:-1 4:0.333333 5:1 6:-1 7:0.333333 8:0.333333 9:0.333333 10:0.333333 11:1 12:-1 13:-1 14:-1 15:-1 16:-0.333333 17:0.333333 18:0.333333 19:-1 20:-1 21:-1 22:-1 23:1 24:-0.333333 25:-0.333333 26:-0.333333 27:-1 28:-1 29:-1 30:-0.333333 31:-0.333333 32:-1 33:-1 34:-1 35:-1 36:-0.333333 37:-1 38:0.333333 39:1 40:0.333333 41:-1 42:1 43:-1 44:1 45:0.333333 46:-1 47:-1 48:0.333333 49:-1 50:1 51:1 52:-0.333333 53:1 54:0.333333 55:-0.333333 56:1 57:0.333333 58:-1 59:1 60:1 
16.9808823391954 1:-0.333333 2:0.333333 3:0.333333 4:-1 5:1 6:-0.333333 7:-0.333333 8:-1 9:-1 10:-1 11:-1 12:-0.333333 13:0.333333 14:-1 15:0.333333 16:0.333333 17:-1 18:-0.333333 19:-1 20:-1 21:-0.333333 22:0.333333 23:-0.333333 24:-0.333333 25:-0.333333 26:0.333333 27:0.333333 28:-1 29:-1 30:-1 31:-0.333333 32:-1 33:1 34:-0.333333 35:-1 36:-1 37:-1 38:-1 39:1 40:-0.333333 41:-0.333333 42:-1 43:-0.333333 44:0.333333 45:1 46:-0.333333 47:1 48:1 49:1 50:-0.333333 51:1 52:-0.333333 53:0.333333 54:-1 55:-1 56:0.333333 57:-1 58:-0.333333 59:-1 60:0.333333 
25 1:1 2:-0.333333 3:0.333333 4:1 5:0.333333 6:0.333333 7:-1 8:-0.333333 9:-0.333333 10:-0.333333 11:-1 12:-0.333333 13:0.333333 14:1 15:-0.333333 16:-1 17:-0.333333 18:-0.333333 19:0.333333 20:0.333333 21:0.333333 22:1 23:1 24:0.333333 25:-1 26:-1 27:-1 28:-0.333333 29:0.333333 30:0.333333 31:0.333333 32:-1 33:-0.333333 34:1 35:-1 36:0.333333 37:-1 38:1 39:-0.333333 40:0.333333 41:1 42:-0.333333 43:-0.333333 44:1 45:-0.333333 46:-0.333333 47:1 48:1 49:0.333333 50:-1 51:0.333333 52:-1 53:1 54:-0.333333 55:0.333333 56:-0.333333 57:0.333333 58:-1 59:-0.333333 60:-1 
5.730847344125986 1:-0.333333 2:-1 3:-0.333333 4:-1 5:-1 6:-0.333333 7:-1 8:-1 9:1 10:1 11:-1 12:-1 13:0.333333 14:0.333333 15:1 16:1 17:1 18:1 19:-0.333333 20:0.333333 21:1 22:1 23:0.333333 24:1 25:0.333333 26:0.333333 27:-1 28:-0.333333 29:1 30:1 31:-0.333333 32:-1 33:-1 34:0.333333 35:-1 36:1 37:1 38:1 39:-0.333333 40:1 41:-1 42:-0.333333 43:0.333333 44:-1 45:-1 46:1 47:-1 48:-1 49:-0.333333 50:1 51:0.333333 52:-1 53:1 54:-0.333333 55:0.333333 56:-1 57:-1 58:-1 59:1 60:-1 
22.11229728455946 1:-0.333333 2:-0.333333 3:-1 4:-0.333333 5:-1 6:1 7:-1 8:-1 9:-0.333333 10:-0.333333 11:-0.333333 12:-0.333333 13:-1 14:0.333333 15:1 16:0.333333 17:-1 18:-0.333333 19:0.333333 20:1 21:0.333333 22:1 23:0.333333 24:-1 25:-0.333333 26:-0.333333 27:-1 28:-0.333333 29:-0.333333 30:1 31:0.333333 32:-1 33:-1 34:-1 35:-1 36:-1 37:0.333333 38:-1 39:-0.333333 40:-1 41:-0.333333 42:-0.333333 43:-1 44:1 45:1 46:-0.333333 47:0.333333 48:1 49:-1 50:1 51:1 52:-0.333333 53:0.333333 54:0.333333 55:0.333333 56:-0.333333 57:-1 58:-0.333333 59:0.333333 60:0.333333 
15.92948164246623 1:1 2:1 3:0.333333 4:0.333333 5:0.333333 6:0.333333 7:-1 8:-1 9:-0.333333 10:-0.333333 11:0.333333 12:-1 13:-1 14:-1 15:-0.333333 16:0.333333 17:0.333333 18:1 19:1 20:-1 21:1 22:-0.333333 23:-1 24:-1 25:-0.333333 26:-0.333333 27:-1 28:-1 29:-0.333333 30:0.333333 31:-1 32:1 33:0.333333 34:1 35:1 36:-0.333333 37:-0.333333 38:-1 39:-0.333333 40:-0.333333 41:0.333333 42:0.333333 43:-0.333333 44:-1 45:0.333333 46:1 47:-0.333333 48:1 49:-0.333333 50:-1 51:0.333333 52:-1 53:1 54:-1 55:0.333333 56:1 57:-0.333333 58:-1 59:1 60:0.333333 
25 1:1 2:-0.333333 3:1 4:1 5:1 6:1 7:0.333333 8:1 9:0.333333 10:1 11:1 12:0.333333 13:1 14:-1 15:1 16:1 17:0.333333 18:0.333333 19:0.333333 20:1 21:1 22:-0.333333 23:-0.333333 24:0.333333 25:1 26:0.333333 27:-1 28:0.333333 29:-1 30:-0.333333 31:-0.333333 32:-0.333333 33:-1 34:0.333333 35:0.333333 36:0.333333 37:-0.333333 38:-1 39:-0.333333 40:1 41:-0.333333 42:1 43:-1 44:1 45:-1 46:-0.333333 47:0.333333 48:0.333333 49:0.333333 50:1 51:0.333333 52:0.333333 53:-1 54:-0.333333 55:-1 56:-0.333333 57:1 58:-0.333333 59:-0.333333 60:-1 
