svm_type c_svc
kernel_type polynomial
degree 5
gamma 0.0166667
coef0 0
nr_class 2
total_sv 2082
rho -0.0780249
label 1 -1
nr_sv 1089 993
SV
29.06031270732351 1:-0.333333 2:0.333333 3:-0.333333 4:-0.333333 5:-0.333333 6:-1 7:-0.333333 8:-0.333333 9:0.333333 10:0.333333 11:1 12:0.333333 13:1 14:0.333333 15:1 16:-1 17:-0.333333 18:-0.333333 19:-1 20:-1 21:-1 22:1 23:0.333333 24:1 25:-0.333333 26:1 27:-0.333333 28:-0.333333 29:-1 30:0.333333 31:1 32:0.333333 33:-1 34:0.333333 35:-1 36:0.333333 37:-0.333333 38:1 39:1 40:1 41:-1 42:0.333333 43:1 44:-1 45:-1 46:1 47:-0.333333 48:1 49:1 50:-0.333333 51:0.333333 52:1 53:-0.333333 54:0.333333 55:-1 56:-0.333333 57:0.333333 58:0.333333 59:0.333333 60:0.333333 
55.9016994375 1:0.333333 2:1 3:-0.333333 4:-0.333333 5:0.333333 6:0.333333 7:1 8:-0.333333 9:-1 10:-0.333333 11:-0.333333 12:-1 13:0.333333 14:0.333333 15:0.333333 16:-0.333333 17:-0.333333 18:0.333333 19:-0.333333 20:0.333333 21:1 22:-0.333333 23:-1 24:-0.333333 25:1 26:-0.333333 27:-0.333333 28:0.333333 29:-0.333333 30:-0.333333 31:-0.333333 32:-0.333333 33:0.333333 34:0.333333 35:0.333333 36:0.333333 37:1 38:-0.333333 39:0.333333 40:1 41:0.333333 42:0.333333 43:-0.333333 44:-1 45:-0.333333 46:-0.333333 47:-0.333333 48:-0.333333 49:0.333333 50:1 51:0.333333 52:-1 53:1 54:-0.333333 55:1 56:1 57:0.333333 58:-1 59:-0.333333 60:-0.333333 
55.9016994375 1:-1 2:0.333333 3:-1 4:-0.333333 5:-1 6:-1 7:-0.333333 8:-1 9:-1 10:-0.333333 11:0.333333 12:-0.333333 13:-1 14:-0.333333 15:0.333333 16:0.333333 17:-1 18:0.333333 19:-0.333333 20:0.333333 21:0.333333 22:0.333333 23:0.333333 24:0.333333 25:-1 26:-0.333333 27:0.333333 28:-0.333333 29:0.333333 30:-1 31:0.333333 32:-0.333333 33:0.333333 34:0.333333 35:0.333333 36:1 37:-0.333333 38:0.333333 39:-0.333333 40:-1 41:-0.333333 42:-0.333333 43:-0.333333 44:-0.333333 45:-1 46:-1 47:0.333333 48:-1 49:-1 50:-0.333333 51:-0.333333 52:-0.333333 53:-1 54:-1 55:0.333333 56:0.333333 57:1 58:1 59:1 60:0.333333 
55.9016994375 1:-0.333333 2:-1 3:-0.333333 4:0.333333 5:0.333333 6:0.333333 7:1 8:-0.333333 9:-0.333333 10:0.333333 11:0.333333 12:0.333333 13:1 14:-0.333333 15:-1 16:0.333333 17:0.333333 18:-0.333333 19:-1 20:-0.333333 21:-1 22:0.333333 23:0.333333 24:1 25:-0.333333 26:-0.333333 27:-0.333333 28:0.333333 29:0.333333 30:1 31:-0.333333 32:1 33:-0.333333 34:-1 35:-0.333333 36:1 37:-0.333333 38:0.333333 39:-0.333333 40:-0.333333 41:-0.333333 42:-0.333333 43:1 44:1 45:-0.333333 46:-0.333333 47:-0.333333 48:-1 49:-0.333333 50:-0.333333 51:-0.333333 52:-1 53:-1 54:-1 55:0.333333 56:-0.333333 57:-0.333333 58:0.333333 59:0.333333 60:1 
48.60168654147542 1:-0.333333 2:-0.333333 3:0.333333 4:-0.333333 5:0.333333 6:1 7:1 8:1 9:-0.333333 10:1 11:0.333333 12:1 13:-0.333333 14:-0.333333 15:-0.333333 16:-1 17:-0.333333 18:-0.333333 19:0.333333 20:-0.333333 21:-0.333333 22:1 23:1 24:-1 25:0.333333 26:1 27:-0.333333 28:-1 29:-1 30:-0.333333 31:0.333333 32:-1 33:-0.333333 34:-0.333333 35:0.333333 36:-1 37:1 38:-0.333333 39:-1 40:-1 41:-0.333333 42:-0.333333 43:-1 44:-0.333333 45:-0.333333 46:-0.333333 47:-1 48:-0.333333 49:0.333333 50:-1 51:-0.333333 52:-0.333333 53:-0.333333 54:-1 55:-0.333333 56:-1 57:-0.333333 58:1 59:-0.333333 60:-0.333333 
6.199641643548907 1:-0.333333 2:0.333333 3:1 4:-1 5:-1 6:1 7:-1 8:-1 9:-1 10:-1 11:-1 12:0.333333 13:-1 14:-1 15:-0.333333 16:0.333333 17:-1 18:0.333333 19:1 20:-1 21:1 22:1 23:-0.333333 24:1 25:1 26:0.333333 27:-1 28:-1 29:0.333333 30:1 31:1 32:1 33:1 34:-1 35:-0.333333 36:-0.333333 37:1 38:-0.333333 39:1 40:-0.333333 41:1 42:-0.333333 43:1 44:-1 45:0.333333 46:1 47:1 48:1 49:-0.333333 50:-0.333333 51:-1 52:-0.333333 53:0.333333 54:0.333333 55:-1 56:0.333333 57:0.333333 58:-1 59:1 60:1 
52.80617166578052 1:0.333333 2:0.333333 3:1 4:-0.333333 5:-0.333333 6:-1 7:0.333333 8:1 9:1 10:1 11:0.333333 12:1 13:1 14:-0.333333 15:0.333333 16:0.333333 17:1 18:0.333333 19:1 20:1 21:0.333333 22:0.333333 23:0.333333 24:0.333333 25:0.333333 26:-1 27:0.333333 28:0.333333 29:-1 30:-0.333333 31:0.333333 32:1 33:-0.333333 34:-0.333333 35:-1 36:-0.333333 37:-1 38:-0.333333 39:-1 40:-1 41:-1 42:-0.333333 43:-0.333333 44:0.333333 45:0.333333 46:-1 47:-1 48:-0.333333 49:0.333333 50:-0.333333 51:-0.333333 52:-1 53:0.333333 54:0.333333 55:-1 56:-0.333333 57:-1 58:-0.333333 59:0.333333 60:1 
15.58450633067535 1:-0.333333 2:-0.333333 3:1 4:-1 5:1 6:-0.333333 7:-1 8:-0.333333 9:-1 10:-1 11:1 12:0.333333 13:1 14:-1 15:-0.333333 16:-0.333333 17:0.333333 18:-1 19:-0.333333 20:-0.333333 21:-0.333333 22:-0.333333 23:0.333333 24:-1 25:-0.333333 26:-0.333333 27:-0.333333 28:-0.333333 29:-1 30:-0.333333 31:1 32:1 33:-1 34:0.333333 35:-1 36:-0.333333 37:1 38:0.333333 39:0.333333 40:0.333333 41:1 42:1 43:1 44:1 45:-1 46:0.333333 47:-1 48:-0.333333 49:-1 50:1 51:-1 52:-0.333333 53:-1 54:-1 55:-1 56:-1 57:-1 58:0.333333 59:-1 60:-0.333333 
6.440301380559349 1:-1 2:-0.333333 3:-0.333333 4:-0.333333 5:0.333333 6:-1 7:1 8:-0.333333 9:-0.333333 10:1 11:-0.333333 12:-1 13:-1 14:-1 15:-1 16:-1 17:-0.333333 18:-0.333333 19:-1 20:-1 21:-1 22:1 23:-1 24:1 25:0.333333 26:1 27:1 28:0.333333 29:0.333333 30:-0.333333 31:1 32:1 33:0.333333 34:-1 35:-1 36:-1 37:-1 38:0.333333 39:1 40:-0.333333 41:-0.333333 42:-1 43:-1 44:-1 45:1 46:-1 47:-1 48:-0.333333 49:0.333333 50:1 51:1 52:1 53:0.333333 54:1 55:-0.333333 56:-1 57:-0.333333 58:-1 59:-1 60:-1 
7.283783800349493 1:0.333333 2:1 3:1 4:-1 5:0.333333 6:1 7:0.333333 8:1 9:1 10:1 11:1 12:1 13:1 14:1 15:0.333333 16:0.333333 17:0.333333 18:0.333333 19:0.333333 20:0.333333 21:1 22:1 23:0.333333 24:1 25:1 26:-1 27:-1 28:-1 29:0.333333 30:0.333333 31:-1 32:0.333333 33:0.333333 34:-1 35:-0.333333 36:1 37:-0.333333 38:-0.333333 39:1 40:1 41:0.333333 42:-1 43:1 44:1 45:1 46:1 47:1 48:-1 49:-1 50:-0.333333 51:-0.333333 52:1 53:1 54:1 55:1 56:1 57:1 58:0.333333 59:-1 60:1 
36.04999619494897 1:0.333333 2:1 3:-0.333333 4:-0.333333 5:-0.333333 6:-1 7:-1 8:-0.333333 9:1 10:-0.333333 11:-1 12:-0.333333 13:0.333333 14:1 15:0.333333 16:-0.333333 17:0.333333 18:-1 19:-0.333333 20:1 21:-0.333333 22:1 23:-0.333333 24:0.333333 25:1 26:-0.333333 27:-1 28:0.333333 29:-1 30:0.333333 31:0.333333 32:-1 33:-0.333333 34:-1 35:-1 36:-1 37:-1 38:-0.333333 39:1 40:-0.333333 41:0.333333 42:0.333333 43:1 44:0.333333 45:1 46:-0.333333 47:-0.333333 48:-1 49:0.333333 50:1 51:0.333333 52:-1 53:1 54:0.333333 55:0.333333 56:0.333333 57:0.333333 58:1 59:-0.333333 60:0.333333 
8.229615951634269 1:-1 2:-1 3:-0.333333 4:0.333333 5:0.333333 6:1 7:1 8:0.333333 9:-0.333333 10:1 11:1 12:-0.333333 13:-0.333333 14:-1 15:-1 16:-1 17:0.333333 18:-0.333333 19:-0.333333 20:-0.333333 21:-1 22:-1 23:1 24:-1 25:1 26:0.333333 27:1 28:1 29:0.333333 30:0.333333 31:0.333333 32:0.333333 33:1 34:1 35:-0.333333 36:-1 37:-1 38:-1 39:0.333333 40:1 41:-1 42:-0.333333 43:-1 44:0.333333 45:-1 46:-0.333333 47:-1 48:-1 49:-0.333333 50:0.333333 51:-1 52:1 53:1 54:0.333333 55:1 56:0.333333 57:-1 58:-0.333333 59:-1 60:-1 
55.9016994375 1:-0.333333 2:0.333333 3:0.333333 4:1 5:-0.333333 6:0.333333 7:-0.333333 8:-0.333333 9:-0.333333 10:-0.333333 11:-1 12:-0.333333 13:0.333333 14:-1 15:0.333333 16:0.333333 17:1 18:-0.333333 19:-0.333333 20:-1 21:-0.333333 22:-0.333333 23:0.333333 24:0.333333 25:1 26:1 27:1 28:-0.333333 29:0.333333 30:1 31:1 32:1 33:-0.333333 34:0.333333 35:1 36:-0.333333 37:-0.333333 38:-1 39:-0.333333 40:0.333333 41:-0.333333 42:0.333333 43:1 44:1 45:0.333333 46:-1 47:-0.333333 48:0.333333 49:-0.333333 50:-0.333333 51:0.333333 52:1 53:-1 54:0.333333 55:0.333333 56:-0.333333 57:-0.333333 58:-0.333333 59:-1 60:-1 
6.915046834669138 1:-1 2:-0.333333 3:1 4:-1 5:-0.333333 6:0.333333 7:0.333333 8:-1 9:-1 10:-1 11:-0.333333 12:-1 13:0.333333 14:0.333333 15:-1 16:1 17:0.333333 18:-1 19:-0.333333 20:0.333333 21:-0.333333 22:1 23:1 24:1 25:0.333333 26:0.333333 27:1 28:1 29:1 30:-1 31:1 32:-0.333333 33:1 34:-0.333333 35:1 36:-0.333333 37:-1 38:-0.333333 39:-1 40:-1 41:1 42:1 43:-0.333333 44:-1 45:-1 46:-1 47:1 48:-0.333333 49:-1 50:0.333333 51:1 52:-1 53:-0.333333 54:0.333333 55:-1 56:1 57:1 58:-1 59:1 60:1 
21.51459641742796 1:-1 2:1 3:-0.333333 4:0.333333 5:-1 6:-0.333333 7:0.333333 8:-1 9:0.333333 10:0.333333 11:1 12:1 13:0.333333 14:-1 15:-0.333333 16:-0.333333 17:1 18:0.333333 19:1 20:1 21:-0.333333 22:-1 23:-0.333333 24:0.333333 25:1 26:0.333333 27:1 28:-1 29:1 30:-0.333333 31:0.333333 32:-1 33:-0.333333 34:-0.333333 35:-0.333333 36:-1 37:-0.333333 38:-0.333333 39:1 40:-1 41:-1 42:-0.333333 43:0.333333 44:0.333333 45:-1 46:0.333333 47:-0.333333 48:-0.333333 49:-1 50:-1 51:-0.333333 52:1 53:0.333333 54:-1 55:0.333333 56:-1 57:-1 58:-0.333333 59:0.333333 60:-1 
14.18750376157599 1:1 2:0.333333 3:1 4:0.333333 5:-1 6:-1 7:1 8:0.333333 9:0.333333 10:1 11:1 12:1 13:0.333333 14:0.333333 15:0.333333 16:1 17:-0.333333 18:1 19:-1 20:-1 21:0.333333 22:1 23:0.333333 24:0.333333 25:1 26:-0.333333 27:0.333333 28:0.333333 29:-1 30:-0.333333 31:-1 32:-0.333333 33:1 34:1 35:0.333333 36:0.333333 37:1 38:-0.333333 39:-0.333333 40:-1 41:1 42:-0.333333 43:-1 44:1 45:-0.333333 46:-1 47:0.333333 48:-1 49:1 50:1 51:-1 52:0.333333 53:1 54:-0.333333 55:-1 56:1 57:-0.333333 58:-1 59:0.333333 60:-1 
13.79007729787339 1:-1 2:0.333333 3:-1 4:-1 5:-0.333333 6:-1 7:-1 8:-0.333333 9:-0.333333 10:-1 11:1 12:-0.333333 13:-0.333333 14:-1 15:-0.333333 16:0.333333 17:1 18:-0.333333 19:-1 20:0.333333 21:1 22:1 23:0.333333 24:-1 25:0.333333 26:0.333333 27:-1 28:-1 29:-0.333333 30:1 31:-0.333333 32:-0.333333 33:0.333333 34:-1 35:1 36:1 37:-0.333333 38:1 39:-0.333333 40:1 41:1 42:0.333333 43:1 44:-0.333333 45:-1 46:-1 47:-0.333333 48:-1 49:1 50:1 51:-0.333333 52:-0.333333 53:-0.333333 54:-0.333333 55:-1 56:-1 57:0.333333 58:-1 59:0.333333 60:-1 
3.36800012210491 1:-1 2:1 3:1 4:0.333333 5:1 6:-1 7:0.333333 8:1 9:1 10:-1 11:-0.333333 12:1 13:-1 14:-1 15:-1 16:0.333333 17:-1 18:1 19:-1 20:-1 21:1 22:1 23:1 24:0.333333 25:1 26:1 27:-0.333333 28:1 29:-0.333333 30:0.333333 31:1 32:-1 33:-0.333333 34:-1 35:1 36:-1 37:-1 38:0.333333 39:0.333333 40:-1 41:-1 42:-1 43:1 44:1 45:-1 46:-1 47:-0.333333 48:-1 49:-1 50:-1 51:-1 52:0.333333 53:0.333333 54:-1 55:-1 56:-1 57:-1 58:0.333333 59:-1 60:-1 
23.06049913270918 1:1 2:0.333333 3:-1 4:-1 5:0.333333 6:0.333333 7:-1 8:1 9:1 10:-1 11:-1 12:1 13:-0.333333 14:1 15:0.333333 16:1 17:0.333333 18:1 19:1 20:0.333333 21:0.333333 22:1 23:1 24:0.333333 25:0.333333 26:1 27:-0.333333 28:0.333333 29:-1 30:-0.333333 31:0.333333 32:-0.333333 33:1 34:1 35:1 36:-0.333333 37:1 38:-0.333333 39:-1 40:-0.333333 41:-0.333333 42:0.333333 43:-1 44:1 45:-1 46:1 47:0.333333 48:0.333333 49:1 50:-0.333333 51:1 52:0.333333 53:-0.333333 54:-0.333333 55:-0.333333 56:-0.333333 57:1 58:-0.333333 59:-1 60:0.333333 
55.9016994375 1:0.333333 2:1 3:0.333333 4:-0.333333 5:-0.333333 6:-0.333333 7:0.333333 8:-1 9:-0.333333 10:0.333333 11:-1 12:-0.333333 13:1 14:0.333333 15:-1 16:1 17:1 18:-0.333333 19:0.333333 20:1 21:-0.333333 22:1 23:0.333333 24:-1 25:0.333333 26:0.333333 27:0.333333 28:-0.333333 29:0.333333 30:1 31:0.333333 32:1 33:-0.333333 34:0.333333 35:0.333333 36:0.333333 37:-1 38:-0.333333 39:-0.333333 40:0.333333 41:1 42:-0.333333 43:0.333333 44:0.333333 45:0.333333 46:-0.333333 47:0.333333 48:0.333333 49:-1 50:-0.333333 51:-0.333333 52:1 53:0.333333 54:0.333333 55:-1 56:0.333333 57:1 58:1 59:-1 60:1 
31.98885988743087 1:-1 2:-0.333333 3:-0.333333 4:-0.333333 5:-0.333333 6:1 7:-0.333333 8:0.333333 9:1 10:0.333333 11:0.333333 12:1 13:-0.333333 14:-0.333333 15:0.333333 16:-1 17:-1 18:1 19:0.333333 20:-0.333333 21:1 22:-0.333333 23:-0.333333 24:1 25:1 26:1 27:1 28:0.333333 29:0.333333 30:-1 31:-0.333333 32:-0.333333 33:0.333333 34:1 35:0.333333 36:1 37:-0.333333 38:-1 39:1 40:-0.333333 41:-0.333333 42:1 43:1 44:1 45:-1 46:0.333333 47:0.333333 48:1 49:-0.333333 50:-0.333333 51:-0.333333 52:0.333333 53:0.333333 54:-1 55:-1 56:-1 57:-0.333333 58:-0.333333 59:-0.333333 60:1 
55.9016994375 1:-1 2:0.333333 3:0.333333 4:1 5:0.333333 6:-0.333333 7:-0.333333 8:-0.333333 9:0.333333 10:0.333333 11:1 12:-0.333333 13:0.333333 14:-0.333333 15:-0.333333 16:0.333333 17:-1 18:1 19:-0.333333 20:1 21:-0.333333 22:0.333333 23:-1 24:-0.333333 25:0.333333 26:1 27:-0.333333 28:-0.333333 29:0.333333 30:0.333333 31:1 32:1 33:0.333333 34:1 35:1 36:0.333333 37:0.333333 38:0.333333 39:1 40:0.333333 41:0.333333 42:0.333333 43:-0.333333 44:-0.333333 45:0.333333 46:-1 47:0.333333 48:0.333333 49:-0.333333 50:1 51:-0.333333 52:0.333333 53:-1 54:1 55:0.333333 56:0.333333 57:-0.333333 58:0.333333 59:1 60:-0.333333 
7.195674085698251 1:-1 2:0.333333 3:0.333333 4:1 5:0.333333 6:-1 7:-1 8:-1 9:1 10:1 11:-0.333333 12:-1 13:-1 14:0.333333 15:-0.333333 16:-1 17:1 18:1 19:-1 20:-1 21:-1 22:-1 23:-1 24:1 25:1 26:0.333333 27:-1 28:-1 29:-1 30:-0.333333 31:0.333333 32:-1 33:1 34:-1 35:-0.333333 36:0.333333 37:0.333333 38:0.333333 39:1 40:-0.333333 41:-1 42:-1 43:-1 44:-0.333333 45:-1 46:-0.333333 47:-1 48:-1 49:-1 50:-0.333333 51:-0.333333 52:-1 53:0.333333 54:-1 55:-1 56:-0.333333 57:-0.333333 58:-1 59:0.333333 60:0.333333 
9.837788977293775 1:-1 2:-0.333333 3:-0.333333 4:-1 5:-0.333333 6:-1 7:-0.333333 8:-0.333333 9:-1 10:-1 11:1 12:-1 13:-0.333333 14:-0.333333 15:1 16:1 17:1 18:-0.333333 19:-0.333333 20:-0.333333 21:-1 22:-1 23:-1 24:1 25:-1 26:-1 27:-1 28:1 29:0.333333 30:0.333333 31:1 32:-0.333333 33:0.333333 34:1 35:-0.333333 36:-1 37:0.333333 38:-1 39:1 40:1 41:-0.333333 42:-0.333333 43:-1 44:-1 45:-1 46:0.333333 47:0.333333 48:0.333333 49:0.333333 50:-1 51:-1 52:-0.333333 53:-0.333333 54:-1 55:-1 56:-0.333333 57:0.333333 58:0.333333 59:1 60:0.333333 
13.88916589881446 1:-1 2:-0.333333 3:1 4:0.333333 5:1 6:1 7:-0.333333 8:0.333333 9:1 10:-0.333333 11:1 12:0.333333 13:0.333333 14:1 15:-0.333333 16:-0.333333 17:0.333333 18:-1 19:0.333333 20:1 21:-0.333333 22:0.333333 23:1 24:0.333333 25:1 26:-1 27:-1 28:-0.333333 29:-0.333333 30:-0.333333 31:0.333333 32:1 33:1 34:1 35:-1 36:1 37:-1 38:0.333333 39:1 40:1 41:-1 42:1 43:1 44:1 45:-0.333333 46:0.333333 47:1 48:0.333333 49:-1 50:0.333333 51:1 52:1 53:-1 54:-0.333333 55:1 56:0.333333 57:0.333333 58:1 59:0.333333 60:-1 
30.73290991795017 1:0.333333 2:-1 3:-0.333333 4:-0.333333 5:1 6:-0.333333 7:1 8:1 9:-0.333333 10:-1 11:0.333333 12:-1 13:-1 14:-0.333333 15:-1 16:-1 17:0.333333 18:0.333333 19:0.333333 20:1 21:-0.333333 22:-0.333333 23:-1 24:-0.333333 25:-0.333333 26:-0.333333 27:-1 28:-0.333333 29:-0.333333 30:-1 31:-0.333333 32:-1 33:-0.333333 34:0.333333 35:-1 36:-0.333333 37:-0.333333 38:-0.333333 39:-1 40:-1 41:-1 42:-0.333333 43:-0.333333 44:1 45:0.333333 46:-1 47:-0.333333 48:-1 49:-1 50:-1 51:-0.333333 52:-0.333333 53:-0.333333 54:-1 55:-1 56:-0.333333 57:-1 58:0.333333 59:0.333333 60:0.333333 
51.22653166489745 1:1 2:-0.333333 3:1 4:1 5:0.333333 6:0.333333 7:-1 8:1 9:-0.333333 10:-1 11:0.333333 12:0.333333 13:0.333333 14:0.333333 15:0.333333 16:0.333333 17:0.333333 18:-1 19:0.333333 20:0.333333 21:-0.333333 22:0.333333 23:0.333333 24:1 25:1 26:1 27:-1 28:0.333333 29:-1 30:-0.333333 31:1 32:-0.333333 33:1 34:1 35:0.333333 36:0.333333 37:1 38:-0.333333 39:-0.333333 40:0.333333 41:1 42:0.333333 43:0.333333 44:1 45:0.333333 46:-1 47:-0.333333 48:0.333333 49:-1 50:-1 51:-0.333333 52:0.333333 53:-1 54:0.333333 55:-0.333333 56:-0.333333 57:1 58:0.333333 59:-0.333333 60:0.333333 
10.76846412802248 1:-1 2:-1 3:1 4:-1 5:-1 6:0.333333 7:0.333333 8:1 9:1 10:0.333333 11:1 12:-0.333333 13:0.333333 14:1 15:-0.333333 16:-0.333333 17:0.333333 18:0.333333 19:0.333333 20:0.333333 21:1 22:0.333333 23:1 24:-0.333333 25:0.333333 26:0.333333 27:1 28:1 29:-1 30:-0.333333 31:-0.333333 32:-1 33:-1 34:1 35:0.333333 36:-1 37:1 38:1 39:1 40:1 41:1 42:-1 43:-1 44:1 45:-1 46:-1 47:1 48:-0.333333 49:-0.333333 50:-1 51:0.333333 52:0.333333 53:1 54:-1 55:0.333333 56:0.333333 57:1 58:-0.333333 59:-0.333333 60:-1 
14.56235489667615 1:-0.333333 2:-0.333333 3:-1 4:0.333333 5:-1 6:-0.333333 7:-0.333333 8:-1 9:1 10:-0.333333 11:1 12:-1 13:-0.333333 14:0.333333 15:1 16:0.333333 17:1 18:0.333333 19:-1 20:-0.333333 21:-0.333333 22:1 23:-0.333333 24:1 25:-0.333333 26:-1 27:1 28:0.333333 29:0.333333 30:-1 31:-1 32:1 33:1 34:1 35:0.333333 36:-0.333333 37:-0.333333 38:-0.333333 39:1 40:0.333333 41:-1 42:1 43:-0.333333 44:1 45:-1 46:1 47:0.333333 48:0.333333 49:0.333333 50:1 51:1 52:1 53:-1 54:1 55:1 56:-0.333333 57:-0.333333 58:1 59:-1 60:0.333333 
55.9016994375 1:0.333333 2:-1 3:1 4:0.333333 5:1 6:-0.333333 7:1 8:-0.333333 9:0.333333 10:0.333333 11:-0.333333 12:-0.333333 13:0.333333 14:1 15:-1 16:0.333333 17:1 18:-0.333333 19:0.333333 20:0.333333 21:0.333333 22:0.333333 23:-1 24:0.333333 25:0.333333 26:-1 27:1 28:-0.333333 29:-1 30:0.333333 31:0.333333 32:0.333333 33:-0.333333 34:0.333333 35:-0.333333 36:1 37:-0.333333 38:0.333333 39:1 40:-0.333333 41:0.333333 42:-1 43:-0.333333 44:-0.333333 45:-0.333333 46:-0.333333 47:-0.333333 48:1 49:0.333333 50:0.333333 51:1 52:-0.333333 53:0.333333 54:0.333333 55:-0.333333 56:-0.333333 57:0.333333 58:0.333333 59:0.333333 60:1 
34.61765490375296 1:0.333333 2:-1 3:0.333333 4:-1 5:-0.333333 6:-0.333333 7:-1 8:0.333333 9:-1 10:0.333333 11:0.333333 12:1 13:0.333333 14:-1 15:0.333333 16:-1 17:-0.333333 18:-1 19:-0.333333 20:-0.333333 21:1 22:0.333333 23:-1 24:0.333333 25:0.333333 26:1 27:0.333333 28:-1 29:0.333333 30:-1 31:0.333333 32:-0.333333 33:-0.333333 34:-0.333333 35:-0.333333 36:0.333333 37:-1 38:0.333333 39:-1 40:0.333333 41:1 42:1 43:0.333333 44:-1 45:0.333333 46:-1 47:0.333333 48:1 49:0.333333 50:-1 51:-0.333333 52:-0.333333 53:1 54:0.333333 55:-1 56:0.333333 57:0.333333 58:1 59:0.333333 60:-1 
9.617157836651771 1:1 2:-1 3:1 4:1 5:0.333333 6:1 7:-0.333333 8:0.333333 9:0.333333 10:-1 11:-1 12:1 13:0.333333 14:-1 15:0.333333 16:-1 17:1 18:1 19:1 20:0.333333 21:1 22:0.333333 23:1 24:1 25:0.333333 26:-1 27:-1 28:0.333333 29:1 30:-1 31:1 32:-0.333333 33:0.333333 34:0.333333 35:1 36:1 37:-0.333333 38:1 39:-0.333333 40:-1 41:1 42:-1 43:1 44:-1 45:-0.333333 46:1 47:1 48:1 49:-0.333333 50:-0.333333 51:0.333333 52:1 53:0.333333 54:1 55:-0.333333 56:1 57:0.333333 58:0.333333 59:0.333333 60:0.333333 
43.56181188622235 1:-1 2:1 3:0.333333 4:1 5:0.333333 6:-0.333333 7:-0.333333 8:0.333333 9:1 10:0.333333 11:-1 12:0.333333 13:-1 14:-0.333333 15:0.333333 16:-1 17:-1 18:0.333333 19:0.333333 20:1 21:0.333333 22:0.333333 23:-0.333333 24:0.333333 25:0.333333 26:1 27:0.333333 28:0.333333 29:0.333333 30:-1 31:-0.333333 32:-0.333333 33:1 34:1 35:0.333333 36:-1 37:-1 38:-0.333333 39:0.333333 40:0.333333 41:-1 42:1 43:1 44:0.333333 45:1 46:0.333333 47:0.333333 48:1 49:-0.333333 50:0.333333 51:0.333333 52:1 53:0.333333 54:-1 55:-0.333333 56:-0.333333 57:0.333333 58:1 59:0.333333 60:0.333333 
55.9016994375 1:-0.333333 2:-0.333333 3:-0.333333 4:0.333333 5:1 6:-0.333333 7:0.333333 8:-0.333333 9:1 10:1 11:-0.333333 12:0.333333 13:1 14:-0.333333 15:-0.333333 16:1 17:0.333333 18:-1 19:0.333333 20:-1 21:1 22:1 23:0.333333 24:0.333333 25:1 26:-0.333333 27:-0.333333 28:0.333333 29:-1 30:-0.333333 31:-0.333333 32:1 33:-1 34:1 35:-0.333333 36:-0.333333 37:-0.333333 38:-0.333333 39:0.333333 40:-0.333333 41:-0.333333 42:-0.333333 43:-0.333333 44:0.333333 45:1 46:1 47:-0.333333 48:0.333333 49:1 50:0.333333 51:-0.333333 52:-0.333333 53:1 54:1 55:1 56:1 57:0.333333 58:0.333333 59:0.333333 60:0.333333 
4.138386452070283 1:1 2:-1 3:-1 4:-1 5:-1 6:-1 7:1 8:1 9:-1 10:-1 11:-1 12:-1 13:1 14:-0.333333 15:1 16:-0.333333 17:-1 18:-1 19:1 20:-0.333333 21:1 22:0.333333 23:-1 24:-1 25:0.333333 26:-1 27:-1 28:1 29:-1 30:-1 31:-1 32:-1 33:-1 34:-0.333333 35:0.333333 36:-1 37:-1 38:-0.333333 39:-1 40:0.333333 41:1 42:-1 43:1 44:-0.333333 45:-1 46:-1 47:-1 48:-0.333333 49:-0.333333 50:0.333333 51:1 52:0.333333 53:-1 54:-0.333333 55:-1 56:1 57:1 58:1 59:0.333333 60:1 
9.28018032559806 1:1 2:1 3:-0.333333 4:1 5:-0.333333 6:1 7:-1 8:1 9:-0.333333 10:-0.333333 11:1 12:-0.333333 13:1 14:-0.333333 15:-1 16:-0.333333 17:-0.333333 18:1 19:-1 20:-0.333333 21:-0.333333 22:-0.333333 23:0.333333 24:1 25:1 26:-0.333333 27:-1 28:-0.333333 29:-0.333333 30:1 31:1 32:1 33:-1 34:1 35:-0.333333 36:1 37:1 38:1 39:1 40:-0.333333 41:1 42:1 43:1 44:-1 45:1 46:-0.333333 47:-0.333333 48:-0.333333 49:1 50:-0.333333 51:1 52:-1 53:0.333333 54:-1 55:-0.333333 56:1 57:1 58:-0.333333 59:1 60:1 
18.70241433787837 1:-1 2:-0.333333 3:-0.333333 4:1 5:1 6:0.333333 7:-1 8:-1 9:0.333333 10:-1 11:1 12:0.333333 13:-0.333333 14:-0.333333 15:1 16:-0.333333 17:-0.333333 18:0.333333 19:0.333333 20:0.333333 21:0.333333 22:-1 23:0.333333 24:-1 25:1 26:0.333333 27:0.333333 28:1 29:0.333333 30:0.333333 31:-1 32:1 33:1 34:0.333333 35:0.333333 36:0.333333 37:-1 38:1 39:0.333333 40:1 41:1 42:-0.333333 43:1 44:-0.333333 45:0.333333 46:1 47:0.333333 48:0.333333 49:1 50:-1 51:0.333333 52:1 53:1 54:0.333333 55:1 56:1 57:1 58:-0.333333 59:-1 60:1 
12.49381431051107 1:-0.333333 2:-0.333333 3:0.333333 4:-1 5:0.333333 6:-1 7:0.333333 8:0.333333 9:0.333333 10:1 11:-1 12:1 13:-1 14:-1 15:0.333333 16:-1 17:-1 18:1 19:-0.333333 20:-1 21:-1 22:-1 23:-0.333333 24:-1 25:0.333333 26:-1 27:0.333333 28:-1 29:0.333333 30:-1 31:0.333333 32:0.333333 33:-0.333333 34:-1 35:-0.333333 36:-1 37:-0.333333 38:0.333333 39:1 40:-1 41:0.333333 42:-0.333333 43:0.333333 44:1 45:0.333333 46:-1 47:1 48:0.333333 49:-1 50:0.333333 51:0.333333 52:1 53:1 54:1 55:0.333333 56:1 57:0.333333 58:1 59:-0.333333 60:1 
45.1054974482909 1:-0.333333 2:-0.333333 3:-1 4:0.333333 5:1 6:0.333333 7:-1 8:0.333333 9:-1 10:-0.333333 11:0.333333 12:1 13:-0.333333 14:0.333333 15:0.333333 16:0.333333 17:0.333333 18:0.333333 19:-1 20:-0.333333 21:-1 22:-0.333333 23:0.333333 24:0.333333 25:0.333333 26:-1 27:-0.333333 28:-0.333333 29:0.333333 30:-1 31:-1 32:1 33:-0.333333 34:-0.333333 35:0.333333 36:-1 37:0.333333 38:1 39:-0.333333 40:-1 41:0.333333 42:-0.333333 43:0.333333 44:1 45:1 46:0.333333 47:0.333333 48:0.333333 49:-1 50:1 51:1 52:-1 53:-1 54:-1 55:-0.333333 56:0.333333 57:1 58:0.333333 59:0.333333 60:-1 
11.99983838635942 1:0.333333 2:1 3:-1 4:0.333333 5:-1 6:1 7:-0.333333 8:0.333333 9:1 10:0.333333 11:1 12:1 13:-1 14:-1 15:-1 16:0.333333 17:1 18:0.333333 19:-1 20:-0.333333 21:-0.333333 22:-0.333333 23:1 24:-0.333333 25:-0.333333 26:-0.333333 27:-1 28:-0.333333 29:-1 30:-1 31:-0.333333 32:-1 33:1 34:1 35:1 36:0.333333 37:-1 38:0.333333 39:0.333333 40:-1 41:0.333333 42:1 43:-1 44:0.333333 45:-1 46:-0.333333 47:-1 48:-0.333333 49:-0.333333 50:-0.333333 51:1 52:-0.333333 53:1 54:1 55:0.333333 56:1 57:1 58:1 59:0.333333 60:0.333333 
20.1877510593651 1:-1 2:1 3:-0.333333 4:0.333333 5:1 6:1 7:0.333333 8:-1 9:-1 10:-1 11:-0.333333 12:-0.333333 13:0.333333 14:1 15:1 16:0.333333 17:1 18:-1 19:-0.333333 20:-0.333333 21:0.333333 22:0.333333 23:0.333333 24:-1 25:1 26:0.333333 27:0.333333 28:0.333333 29:-0.333333 30:-0.333333 31:-0.333333 32:-1 33:-1 34:-0.333333 35:1 36:-0.333333 37:1 38:1 39:-1 40:-1 41:1 42:-0.333333 43:-1 44:-0.333333 45:0.333333 46:1 47:-0.333333 48:1 49:-0.333333 50:-0.333333 51:-1 52:0.333333 53:1 54:-0.333333 55:-0.333333 56:1 57:1 58:0.333333 59:-1 60:0.333333 
55.9016994375 1:0.333333 2:1 3:1 4:0.333333 5:0.333333 6:-0.333333 7:0.333333 8:-1 9:0.333333 10:0.333333 11:0.333333 12:-1 13:-0.333333 14:0.333333 15:-0.333333 16:0.333333 17:-0.333333 18:1 19:0.333333 20:-0.333333 21:-1 22:0.333333 23:0.333333 24:1 25:1 26:1 27:-1 28:0.333333 29:0.333333 30:-1 31:-0.333333 32:0.333333 33:-1 34:-0.333333 35:-0.333333 36:0.333333 37:0.333333 38:1 39:0.333333 40:0.333333 41:0.333333 42:0.333333 43:-1 44:0.333333 45:0.333333 46:-1 47:-0.333333 48:-1 49:1 50:-0.333333 51:0.333333 52:0.333333 53:0.333333 54:1 55:-0.333333 56:0.333333 57:-0.333333 58:0.333333 59:1 60:-0.333333 
55.9016994375 1:-0.333333 2:-0.333333 3:-1 4:0.333333 5:0.333333 6:-1 7:0.333333 8:0.333333 9:0.333333 10:0.333333 11:0.333333 12:-1 13:0.333333 14:-1 15:-1 16:-0.333333 17:-0.333333 18:-1 19:-0.333333 20:-0.333333 21:0.333333 22:-1 23:-1 24:0.333333 25:0.333333 26:-1 27:-0.333333 28:0.333333 29:0.333333 30:1 31:0.333333 32:-1 33:-1 34:-0.333333 35:-0.333333 36:1 37:0.333333 38:0.333333 39:0.333333 40:0.333333 41:0.333333 42:-1 43:0.333333 44:0.333333 45:1 46:0.333333 47:0.333333 48:1 49:0.333333 50:0.333333 51:-1 52:-0.333333 53:-0.333333 54:-1 55:-1 56:-1 57:-0.333333 58:0.333333 59:0.333333 60:-1 
46.82312621708024 1:-0.333333 2:0.333333 3:-0.333333 4:-1 5:-0.333333 6:0.333333 7:0.333333 8:0.333333 9:-0.333333 10:1 11:-0.333333 12:-0.333333 13:1 14:-0.333333 15:-1 16:0.333333 17:0.333333 18:1 19:-0.333333 20:-0.333333 21:-0.333333 22:1 23:-0.333333 24:1 25:0.333333 26:1 27:0.333333 28:-1 29:-0.333333 30:0.333333 31:1 32:-0.333333 33:1 34:1 35:0.333333 36:0.333333 37:1 38:-0.333333 39:-0.333333 40:-1 41:0.333333 42:-1 43:1 44:-0.333333 45:-1 46:0.333333 47:1 48:-0.333333 49:-1 50:-1 51:-0.333333 52:1 53:0.333333 54:0.333333 55:1 56:-0.333333 57:0.333333 58:0.333333 59:0.333333 60:1 
3.691657683328788 1:-0.333333 2:0.333333 3:1 4:1 5:-0.333333 6:-1 7:1 8:-0.333333 9:1 10:0.333333 11:1 12:-1 13:-1 14:-1 15:-1 16:-1 17:1 18:-1 19:1 20:-1 21:1 22:1 23:1 24:0.333333 25:-1 26:1 27:-0.333333 28:1 29:0.333333 30:1 31:1 32:-1 33:0.333333 34:1 35:-0.333333 36:-1 37:-1 38:-1 39:0.333333 40:-1 41:1 42:1 43:1 44:1 45:-0.333333 46:0.333333 47:0.333333 48:-1 49:-0.333333 50:-1 51:0.333333 52:1 53:1 54:1 55:0.333333 56:1 57:0.333333 58:0.333333 59:-1 60:-1 
16.12243191648825 1:1 2:0.333333 3:0.333333 4:0.333333 5:-1 6:0.333333 7:-1 8:0.333333 9:-0.333333 10:-0.333333 11:1 12:1 13:0.333333 14:-1 15:-0.333333 16:-1 17:1 18:-1 19:-1 20:1 21:0.333333 22:0.333333 23:0.333333 24:1 25:-0.333333 26:0.333333 27:1 28:-0.333333 29:0.333333 30:-1 31:1 32:1 33:1 34:1 35:-1 36:0.333333 37:0.333333 38:0.333333 39:1 40:0.333333 41:-1 42:1 43:0.333333 44:-1 45:1 46:-0.333333 47:0.333333 48:-1 49:0.333333 50:0.333333 51:-1 52:0.333333 53:1 54:1 55:1 56:-1 57:-0.333333 58:0.333333 59:0.333333 60:-1 
11.47343764562963 1:-1 2:-1 3:1 4:1 5:1 6:-0.333333 7:0.333333 8:1 9:0.333333 10:0.333333 11:1 12:-1 13:-1 14:1 15:1 16:0.333333 17:-1 18:-0.333333 19:1 20:-0.333333 21:1 22:0.333333 23:0.333333 24:-1 25:1 26:-0.333333 27:1 28:1 29:1 30:0.333333 31:1 32:-0.333333 33:-1 34:-0.333333 35:0.333333 36:0.333333 37:1 38:0.333333 39:0.333333 40:-1 41:-0.333333 42:-1 43:0.333333 44:0.333333 45:-1 46:1 47:0.333333 48:-0.333333 49:0.333333 50:1 51:-1 52:1 53:-0.333333 54:-1 55:-0.333333 56:0.333333 57:1 58:1 59:0.333333 60:0.333333 
29.08912524934147 1:-1 2:1 3:1 4:-0.333333 5:-1 6:-1 7:-1 8:0.333333 9:-1 10:0.333333 11:-1 12:-0.333333 13:-1 14:-0.333333 15:0.333333 16:-1 17:0.333333 18:0.333333 19:-1 20:-0.333333 21:0.333333 22:1 23:0.333333 24:1 25:-0.333333 26:-1 27:-0.333333 28:-0.333333 29:-1 30:-1 31:0.333333 32:1 33:0.333333 34:-0.333333 35:1 36:0.333333 37:0.333333 38:0.333333 39:-1 40:-1 41:-0.333333 42:0.333333 43:0.333333 44:0.333333 45:0.333333 46:0.333333 47:0.333333 48:-1 49:1 50:0.333333 51:1 52:0.333333 53:0.333333 54:-1 55:0.333333 56:1 57:1 58:0.333333 59:0.333333 60:1 
55.9016994375 1:-1 2:-0.333333 3:-0.333333 4:-0.333333 5:0.333333 6:0.333333 7:0.333333 8:0.333333 9:1 10:1 11:-1 12:0.333333 13:-0.333333 14:1 15:1 16:0.333333 17:0.333333 18:0.333333 19:0.333333 20:1 21:0.333333 22:1 23:1 24:1 25:1 26:0.333333 27:0.333333 28:0.333333 29:-1 30:-0.333333 31:-1 32:-0.333333 33:0.333333 34:0.333333 35:-0.333333 36:-0.333333 37:0.333333 38:1 39:1 40:0.333333 41:0.333333 42:0.333333 43:-1 44:-0.333333 45:0.333333 46:0.333333 47:0.333333 48:-1 49:0.333333 50:0.333333 51:-1 52:1 53:0.333333 54:0.333333 55:0.333333 56:0.333333 57:-1 58:1 59:0.333333 60:-0.333333 
23.01111434359901 1:-1 2:0.333333 3:1 4:-0.333333 5:-0.333333 6:0.333333 7:0.333333 8:-0.333333 9:1 10:-0.333333 11:1 12:-0.333333 13:-0.333333 14:1 15:1 16:1 17:1 18:-1 19:-0.333333 20:-0.333333 21:1 22:-0.333333 23:-0.333333 24:-1 25:0.333333 26:0.333333 27:-1 28:-0.333333 29:-0.333333 30:-1 31:-1 32:-0.333333 33:0.333333 34:1 35:-1 36:1 37:1 38:1 39:0.333333 40:1 41:-0.333333 42:-0.333333 43:0.333333 44:-1 45:-1 46:-0.333333 47:-0.333333 48:0.333333 49:0.333333 50:-1 51:-0.333333 52:-1 53:1 54:0.333333 55:0.333333 56:1 57:-0.333333 58:1 59:0.333333 60:1 
16.62468265531643 1:-1 2:-1 3:0.333333 4:1 5:0.333333 6:1 7:0.333333 8:1 9:1 10:1 11:0.333333 12:1 13:0.333333 14:0.333333 15:-1 16:1 17:1 18:1 19:0.333333 20:1 21:1 22:-0.333333 23:0.333333 24:0.333333 25:1 26:1 27:1 28:0.333333 29:-1 30:-0.333333 31:-1 32:-1 33:-0.333333 34:-1 35:-1 36:0.333333 37:-1 38:1 39:-0.333333 40:1 41:-0.333333 42:-1 43:1 44:0.333333 45:-1 46:1 47:0.333333 48:0.333333 49:-1 50:-0.333333 51:-0.333333 52:0.333333 53:0.333333 54:-0.333333 55:-1 56:-0.333333 57:1 58:1 59:0.333333 60:1 
13.07627528659039 1:-1 2:-1 3:-1 4:-0.333333 5:-1 6:-0.333333 7:1 8:0.333333 9:0.333333 10:-1 11:-0.333333 12:-0.333333 13:-1 14:0.333333 15:0.333333 16:-1 17:-0.333333 18:-1 19:1 20:-0.333333 21:-0.333333 22:-1 23:1 24:1 25:0.333333 26:-1 27:0.333333 28:-1 29:-0.333333 30:0.333333 31:0.333333 32:-1 33:-1 34:-1 35:1 36:1 37:0.333333 38:1 39:-1 40:0.333333 41:0.333333 42:-1 43:-0.333333 44:-1 45:-0.333333 46:-0.333333 47:1 48:-1 49:0.333333 50:-1 51:-1 52:-0.333333 53:-0.333333 54:1 55:-0.333333 56:-0.333333 57:-1 58:-1 59:0.333333 60:1 
3.53077934809847 1:-1 2:-1 3:-1 4:-0.333333 5:-1 6:1 7:-0.333333 8:0.333333 9:-1 10:1 11:-1 12:-0.333333 13:-1 14:-1 15:-1 16:-0.333333 17:-1 18:-0.333333 19:1 20:-1 21:1 22:-1 23:-1 24:1 25:-0.333333 26:1 27:1 28:1 29:1 30:-1 31:-1 32:-1 33:-1 34:0.333333 35:-1 36:1 37:-1 38:-1 39:-0.333333 40:-0.333333 41:0.333333 42:-1 43:1 44:1 45:0.333333 46:-1 47:1 48:0.333333 49:1 50:-0.333333 51:0.333333 52:0.333333 53:-1 54:1 55:1 56:1 57:1 58:1 59:0.333333 60:-1 
21.54453369670129 1:-1 2:-1 3:0.333333 4:-1 5:-0.333333 6:-1 7:-0.333333 8:-1 9:-0.333333 10:-1 11:-0.333333 12:-1 13:-1 14:0.333333 15:-1 16:-0.333333 17:0.333333 18:-0.333333 19:-0.333333 20:0.333333 21:-1 22:-1 23:-0.333333 24:0.333333 25:0.333333 26:0.333333 27:-1 28:-1 29:-0.333333 30:-1 31:-1 32:-0.333333 33:0.333333 34:0.333333 35:0.333333 36:-0.333333 37:-0.333333 38:-0.333333 39:-1 40:0.333333 41:1 42:0.333333 43:0.333333 44:1 45:-0.333333 46:-1 47:-0.333333 48:-1 49:-1 50:0.333333 51:-1 52:-1 53:1 54:-1 55:-1 56:-0.333333 57:-0.333333 58:-1 59:-0.333333 60:1 
34.2876160382712 1:-0.333333 2:0.333333 3:0.333333 4:-1 5:0.333333 6:1 7:1 8:0.333333 9:-1 10:-0.333333 11:0.333333 12:-1 13:-1 14:-0.333333 15:1 16:1 17:0.333333 18:-1 19:1 20:1 21:0.333333 22:0.333333 23:1 24:-0.333333 25:-1 26:-0.333333 27:-0.333333 28:-0.333333 29:0.333333 30:1 31:0.333333 32:0.333333 33:0.333333 34:-1 35:-0.333333 36:-1 37:-0.333333 38:-1 39:-0.333333 40:1 41:-0.333333 42:-0.333333 43:-0.333333 44:-0.333333 45:0.333333 46:1 47:-0.333333 48:-0.333333 49:1 50:1 51:-0.333333 52:0.333333 53:0.333333 54:-1 55:-0.333333 56:1 57:0.333333 58:-1 59:-0.333333 60:-1 
6.540239841678877 1:-1 2:-1 3:-1 4:0.333333 5:1 6:-1 7:0.333333 8:0.333333 9:0.333333 10:0.333333 11:1 12:-1 13:-1 14:-1 15:-1 16:-0.333333 17:0.333333 18:0.333333 19:-1 20:-1 21:-1 22:-1 23:1 24:-0.333333 25:-0.333333 26:-0.333333 27:-1 28:-1 29:-1 30:-0.333333 31:-0.333333 32:-1 33:-1 34:-1 35:-1 36:-0.333333 37:-1 38:0.333333 39:1 40:0.333333 41:-1 42:1 43:-1 44:1 45:0.333333 46:-1 47:-1 48:0.333333 49:-1 50:1 51:1 52:-0.333333 53:1 54:0.333333 55:-0.333333 56:1 57:0.333333 58:-1 59:1 60:1 
17.85639908033474 1:-0.333333 2:0.333333 3:0.333333 4:-1 5:1 6:-0.333333 7:-0.333333 8:-1 9:-1 10:-1 11:-1 12:-0.333333 13:0.333333 14:-1 15:0.333333 16:0.333333 17:-1 18:-0.333333 19:-1 20:-1 21:-0.333333 22:0.333333 23:-0.333333 24:-0.333333 25:-0.333333 26:0.333333 27:0.333333 28:-1 29:-1 30:-1 31:-0.333333 32:-1 33:1 34:-0.333333 35:-1 36:-1 37:-1 38:-1 39:1 40:-0.333333 41:-0.333333 42:-1 43:-0.333333 44:0.333333 45:1 46:-0.333333 47:1 48:1 49:1 50:-0.333333 51:1 52:-0.333333 53:0.333333 54:-1 55:-1 56:0.333333 57:-1 58:-0.333333 59:-1 60:0.333333 
34.70797145716278 1:1 2:-0.333333 3:0.333333 4:1 5:0.333333 6:0.333333 7:-1 8:-0.333333 9:-0.333333 10:-0.333333 11:-1 12:-0.333333 13:0.333333 14:1 15:-0.333333 16:-1 17:-0.333333 18:-0.333333 19:0.333333 20:0.333333 21:0.333333 22:1 23:1 24:0.333333 25:-1 26:-1 27:-1 28:-0.333333 29:0.333333 30:0.333333 31:0.333333 32:-1 33:-0.333333 34:1 35:-1 36:0.333333 37:-1 38:1 39:-0.333333 40:0.333333 41:1 42:-0.333333 43:-0.333333 44:1 45:-0.333333 46:-0.333333 47:1 48:1 49:0.333333 50:-1 51:0.333333 52:-1 53:1 54:-0.333333 55:0.333333 56:-0.333333 57:0.333333 58:-1 59:-0.333333 60:-1 
5.851809005521721 1:-0.333333 2:-1 3:-0.333333 4:-1 5:-1 6:-0.333333 7:-1 8:-1 9:1 10:1 11:-1 12:-1 13:0.333333 14:0.333333 15:1 16:1 17:1 18:1 19:-0.333333 20:0.333333 21:1 22:1 23:0.333333 24:1 25:0.333333 26:0.333333 27:-1 28:-0.333333 29:1 30:1 31:-0.333333 32:-1 33:-1 34:0.333333 35:-1 36:1 37:1 38:1 39:-0.333333 40:1 41:-1 42:-0.333333 43:0.333333 44:-1 45:-1 46:1 47:-1 48:-1 49:-0.333333 50:1 51:0.333333 52:-1 53:1 54:-0.333333 55:0.333333 56:-1 57:-1 58:-1 59:1 60:-1 
20.998506687264 1:-0.333333 2:-0.333333 3:-1 4:-0.333333 5:-1 6:1 7:-1 8:-1 9:-0.333333 10:-0.333333 11:-0.333333 12:-0.333333 13:-1 14:0.333333 15:1 16:0.333333 17:-1 18:-0.333333 19:0.333333 20:1 21:0.333333 22:1 23:0.333333 24:-1 25:-0.333333 26:-0.333333 27:-1 28:-0.333333 29:-0.333333 30:1 31:0.333333 32:-1 33:-1 34:-1 35:-1 36:-1 37:0.333333 38:-1 39:-0.333333 40:-1 41:-0.333333 42:-0.333333 43:-1 44:1 45:1 46:-0.333333 47:0.333333 48:1 49:-1 50:1 51:1 52:-0.333333 53:0.333333 54:0.333333 55:0.333333 56:-0.333333 57:-1 58:-0.333333 59:0.333333 60:0.333333 
15.96504006625855 1:1 2:1 3:0.333333 4:0.333333 5:0.333333 6:0.333333 7:-1 8:-1 9:-0.333333 10:-0.333333 11:0.333333 12:-1 13:-1 14:-1 15:-0.333333 16:0.333333 17:0.333333 18:1 19:1 20:-1 21:1 22:-0.333333 23:-1 24:-1 25:-0.333333 26:-0.333333 27:-1 28:-1 29:-0.333333 30:0.333333 31:-1 32:1 33:0.333333 34:1 35:1 36:-0.333333 37:-0.333333 38:-1 39:-0.333333 40:-0.333333 41:0.333333 42:0.333333 43:-0.333333 44:-1 45:0.333333 46:1 47:-0.333333 48:1 49:-0.333333 50:-1 51:0.333333 52:-1 53:1 54:-1 55:0.333333 56:1 57:-0.333333 58:-1 59:1 60:0.333333 
28.45112279093389 1:1 2:-0.333333 3:1 4:1 5:1 6:1 7:0.333333 8:1 9:0.333333 10:1 11:1 12:0.333333 13:1 14:-1 15:1 16:1 17:0.333333 18:0.333333 19:0.333333 20:1 21:1 22:-0.333333 23:-0.333333 24:0.333333 25:1 26:0.333333 27:-1 28:0.333333 29:-1 30:-0.333333 31:-0.333333 32:-0.333333 33:-1 34:0.333333 35:0.333333 36:0.333333 37:-0.333333 38:-1 39:-0.333333 40:1 41:-0.333333 42:1 43:-1 44:1 45:-1 46:-0.333333 47:0.333333 48:0.333333 49:0.333333 50:1 51:0.333333 52:0.333333 53:-1 54:-0.333333 55:-1 56:-0.333333 57:1 58:-0.333333 59:-0.333333 60:-1 
8.657212332749928 1:-1 2:1 3:0.333333 4:0.333333 5:-1 6:-0.333333 7:1 8:0.333333 9:1 10:-1 11:-1 12:1 13:-1 14:-1 15:-0.333333 16:-1 17:-1 18:-1 19:-1 20:-1 21:-0.333333 22:-1 23:1 24:0.333333 25:-1 26:-1 27:0.333333 28:1 29:0.333333 30:-0.333333 31:1 32:-1 33:-0.333333 34:-0.333333 35:-1 36:-0.333333 37:1 38:-0.333333 39:1 40:0.333333 41:0.333333 42:-0.333333 43:1 44:-0.333333 45:-0.333333 46:-1 47:1 48:0.333333 49:-1 50:0.333333 51:-1 52:-1 53:-0.333333 54:0.333333 55:0.333333 56:0.333333 57:-1 58:-1 59:-0.333333 60:-1 
7.791649679343019 1:-1 2:1 3:1 4:-0.333333 5:1 6:1 7:-0.333333 8:-1 9:-1 10:1 11:-1 12:1 13:-0.333333 14:-1 15:-1 16:-0.333333 17:0.333333 18:-1 19:1 20:1 21:0.333333 22:0.333333 23:0.333333 24:0.333333 25:-1 26:-1 27:-1 28:0.333333 29:0.333333 30:1 31:-0.333333 32:-1 33:-1 34:0.333333 35:-1 36:0.333333 37:0.333333 38:-1 39:-0.333333 40:0.333333 41:-1 42:-0.333333 43:1 44:-0.333333 45:-0.333333 46:-1 47:1 48:0.333333 49:1 50:-1 51:1 52:-1 53:1 54:-0.333333 55:-1 56:-1 57:0.333333 58:-1 59:-0.333333 60:-1 
26.67946914010721 1:0.333333 2:0.333333 3:1 4:-0.333333 5:-0.333333 6:1 7:-0.333333 8:0.333333 9:-0.333333 10:-1 11:-0.333333 12:-1 13:-1 14:-0.333333 15:-1 16:0.333333 17:1 18:1 19:1 20:-0.333333 21:1 22:-0.333333 23:0.333333 24:1 25:-0.333333 26:-1 27:0.333333 28:-1 29:-0.333333 30:0.333333 31:-1 32:-0.333333 33:0.333333 34:1 35:0.333333 36:-1 37:1 38:1 39:-0.333333 40:0.333333 41:1 42:-0.333333 43:-0.333333 44:-0.333333 45:-0.333333 46:-1 47:-1 48:-0.333333 49:-0.333333 50:1 51:-0.333333 52:-1 53:-0.333333 54:-0.333333 55:-1 56:-0.333333 57:0.333333 58:1 59:-1 60:-1 
38.10932498056335 1:1 2:1 3:0.333333 4:-1 5:-1 6:-0.333333 7:-1 8:1 9:0.333333 10:-1 11:1 12:0.333333 13:-0.333333 14:-1 15:-0.333333 16:-0.333333 17:-1 18:0.333333 19:0.333333 20:1 21:-0.333333 22:-1 23:-0.333333 24:-0.333333 25:-0.333333 26:0.333333 27:1 28:0.333333 29:-1 30:-0.333333 31:-0.333333 32:1 33:-1 34:-1 35:-0.333333 36:-0.333333 37:-0.333333 38:-0.333333 39:1 40:-1 41:-0.333333 42:-0.333333 43:-1 44:-0.333333 45:-0.333333 46:-0.333333 47:-1 48:0.333333 49:0.333333 50:1 51:0.333333 52:-1 53:-1 54:0.333333 55:1 56:0.333333 57:0.333333 58:0.333333 59:-1 60:-0.333333 
7.261248865217057 1:-0.333333 2:0.333333 3:-1 4:-1 5:-1 6:-1 7:1 8:1 9:1 10:0.333333 11:0.333333 12:-1 13:-1 14:1 15:0.333333 16:-1 17:-1 18:-1 19:1 20:-0.333333 21:-0.333333 22:-1 23:0.333333 24:-1 25:-0.333333 26:0.333333 27:1 28:0.333333 29:0.333333 30:1 31:-0.333333 32:-1 33:-1 34:-0.333333 35:0.333333 36:1 37:-0.333333 38:0.333333 39:-1 40:0.333333 41:1 42:-0.333333 43:1 44:-1 45:1 46:-0.333333 47:-0.333333 48:1 49:0.333333 50:-0.333333 51:-0.333333 52:1 53:1 54:1 55:-1 56:0.333333 57:-1 58:-1 59:1 60:-1 
40.82929447891272 1:0.333333 2:1 3:-0.333333 4:0.333333 5:1 6:-0.333333 7:1 8:-0.333333 9:-1 10:1 11:-1 12:1 13:-0.333333 14:-0.333333 15:-1 16:-0.333333 17:-0.333333 18:-1 19:-1 20:-0.333333 21:-1 22:-1 23:-0.333333 24:-1 25:-0.333333 26:0.333333 27:1 28:0.333333 29:-1 30:-0.333333 31:-0.333333 32:1 33:-0.333333 34:-0.333333 35:-0.333333 36:-0.333333 37:-1 38:-1 39:-0.333333 40:-0.333333 41:-0.333333 42:-1 43:-0.333333 44:-1 45:-1 46:-0.333333 47:-0.333333 48:-0.333333 49:1 50:-0.333333 51:-0.333333 52:-0.333333 53:-0.333333 54:1 55:0.333333 56:1 57:-0.333333 58:-1 59:-0.333333 60:1 
40.75254079656271 1:1 2:0.333333 3:0.333333 4:1 5:-0.333333 6:-0.333333 7:-0.333333 8:1 9:1 10:0.333333 11:-1 12:1 13:-0.333333 14:0.333333 15:0.333333 16:-1 17:1 18:1 19:0.333333 20:1 21:0.333333 22:0.333333 23:1 24:-0.333333 25:0.333333 26:0.333333 27:1 28:0.333333 29:-1 30:-0.333333 31:0.333333 32:0.333333 33:1 34:0.333333 35:0.333333 36:0.333333 37:-0.333333 38:-1 39:-0.333333 40:1 41:-1 42:-1 43:-0.333333 44:0.333333 45:1 46:-0.333333 47:-0.333333 48:-0.333333 49:-1 50:-1 51:1 52:-1 53:0.333333 54:-1 55:-0.333333 56:-0.333333 57:0.333333 58:-1 59:0.333333 60:0.333333 
8.628948175991502 1:1 2:0.333333 3:1 4:-1 5:-0.333333 6:-1 7:-1 8:1 9:0.333333 10:0.333333 11:1 12:-0.333333 13:0.333333 14:1 15:1 16:1 17:1 18:-1 19:1 20:0.333333 21:0.333333 22:0.333333 23:-1 24:-0.333333 25:0.333333 26:-1 27:1 28:0.333333 29:1 30:1 31:1 32:-0.333333 33:0.333333 34:1 35:1 36:1 37:0.333333 38:1 39:-1 40:1 41:-0.333333 42:1 43:1 44:-0.333333 45:0.333333 46:1 47:0.333333 48:-1 49:-0.333333 50:1 51:0.333333 52:-0.333333 53:0.333333 54:0.333333 55:0.333333 56:1 57:-1 58:1 59:-0.333333 60:1 
14.26731406901942 1:1 2:-0.333333 3:1 4:-0.333333 5:1 6:-0.333333 7:0.333333 8:0.333333 9:-1 10:-1 11:0.333333 12:0.333333 13:0.333333 14:-1 15:-0.333333 16:-1 17:-0.333333 18:-1 19:-1 20:-0.333333 21:-1 22:-1 23:-1 24:1 25:-0.333333 26:-0.333333 27:-0.333333 28:1 29:1 30:0.333333 31:-0.333333 32:-0.333333 33:-0.333333 34:-1 35:-0.333333 36:1 37:-1 38:0.333333 39:-1 40:1 41:0.333333 42:-1 43:-1 44:0.333333 45:1 46:0.333333 47:1 48:1 49:1 50:-0.333333 51:-0.333333 52:-1 53:-0.333333 54:-1 55:1 56:-0.333333 57:-1 58:-0.333333 59:0.333333 60:1 
7.72367137140549 1:-0.333333 2:0.333333 3:1 4:1 5:-0.333333 6:1 7:1 8:-1 9:0.333333 10:-1 11:-1 12:0.333333 13:-1 14:1 15:0.333333 16:-1 17:-1 18:-0.333333 19:-1 20:1 21:-1 22:-0.333333 23:-1 24:1 25:-0.333333 26:-0.333333 27:-1 28:-1 29:1 30:1 31:-0.333333 32:-0.333333 33:-1 34:-1 35:-0.333333 36:-0.333333 37:-1 38:1 39:-0.333333 40:0.333333 41:1 42:-1 43:0.333333 44:0.333333 45:-1 46:-0.333333 47:-0.333333 48:-1 49:-0.333333 50:-1 51:-0.333333 52:1 53:-1 54:0.333333 55:1 56:1 57:-1 58:0.333333 59:-1 60:1 
21.96652907004927 1:0.333333 2:0.333333 3:-1 4:1 5:-1 6:1 7:-1 8:1 9:-0.333333 10:-0.333333 11:-1 12:0.333333 13:-0.333333 14:1 15:1 16:0.333333 17:0.333333 18:0.333333 19:-1 20:-1 21:-1 22:-1 23:1 24:0.333333 25:0.333333 26:1 27:-0.333333 28:1 29:0.333333 30:0.333333 31:-1 32:-0.333333 33:0.333333 34:0.333333 35:0.333333 36:-1 37:1 38:0.333333 39:-0.333333 40:-0.333333 41:0.333333 42:0.333333 43:0.333333 44:-1 45:0.333333 46:-1 47:-1 48:-1 49:0.333333 50:0.333333 51:0.333333 52:0.333333 53:-1 54:-1 55:-1 56:-1 57:-0.333333 58:0.333333 59:-0.333333 60:1 
3.564356442224063 1:-1 2:1 3:-1 4:1 5:1 6:-1 7:0.333333 8:1 9:1 10:-0.333333 11:-0.333333 12:1 13:-1 14:-1 15:1 16:-1 17:0.333333 18:1 19:-1 20:-1 21:-1 22:-0.333333 23:0.333333 24:-1 25:-1 26:1 27:-0.333333 28:-1 29:1 30:-0.333333 31:-1 32:-1 33:1 34:1 35:-1 36:1 37:-0.333333 38:1 39:-0.333333 40:0.333333 41:-1 42:1 43:-0.333333 44:-0.333333 45:-1 46:-0.333333 47:1 48:0.333333 49:-1 50:1 51:1 52:-1 53:-1 54:1 55:0.333333 56:1 57:1 58:0.333333 59:1 60:-0.333333 
4.049464957658541 1:-1 2:1 3:0.333333 4:-1 5:-1 6:-1 7:-0.333333 8:-1 9:0.333333 10:0.333333 11:1 12:-1 13:1 14:-1 15:-1 16:-1 17:1 18:-0.333333 19:1 20:-1 21:1 22:1 23:1 24:-0.333333 25:0.333333 26:0.333333 27:0.333333 28:0.333333 29:1 30:0.333333 31:1 32:1 33:1 34:0.333333 35:-1 36:-1 37:-1 38:1 39:-1 40:1 41:-0.333333 42:-1 43:0.333333 44:-1 45:0.333333 46:-1 47:-1 48:-1 49:-1 50:-1 51:1 52:1 53:-1 54:0.333333 55:1 56:-0.333333 57:0.333333 58:1 59:1 60:-1 
55.9016994375 1:-1 2:-0.333333 3:-0.333333 4:-0.333333 5:0.333333 6:0.333333 7:0.333333 8:0.333333 9:1 10:0.333333 11:-1 12:0.333333 13:0.333333 14:1 15:1 16:0.333333 17:0.333333 18:0.333333 19:0.333333 20:1 21:0.333333 22:0.333333 23:1 24:1 25:1 26:0.333333 27:0.333333 28:0.333333 29:-1 30:-0.333333 31:-1 32:-0.333333 33:0.333333 34:0.333333 35:-1 36:1 37:0.333333 38:1 39:1 40:0.333333 41:0.333333 42:0.333333 43:-1 44:-0.333333 45:0.333333 46:0.333333 47:0.333333 48:-1 49:0.333333 50:0.333333 51:-1 52:1 53:0.333333 54:0.333333 55:0.333333 56:0.333333 57:-1 58:1 59:0.333333 60:-0.333333 
17.81339319789263 1:-1 2:1 3:-0.333333 4:1 5:0.333333 6:-1 7:-1 8:1 9:-0.333333 10:1 11:-0.333333 12:-1 13:-1 14:-1 15:-0.333333 16:-0.333333 17:1 18:-1 19:1 20:-0.333333 21:-0.333333 22:1 23:-1 24:-0.333333 25:-0.333333 26:0.333333 27:1 28:-0.333333 29:-0.333333 30:-0.333333 31:-0.333333 32:-1 33:-0.333333 34:-0.333333 35:-1 36:-0.333333 37:-1 38:1 39:-0.333333 40:0.333333 41:-1 42:-0.333333 43:0.333333 44:-1 45:-1 46:-0.333333 47:-0.333333 48:1 49:-0.333333 50:-0.333333 51:-0.333333 52:-0.333333 53:-1 54:-1 55:1 56:1 57:-1 58:-1 59:-0.333333 60:-0.333333 
2.829512719017025 1:-1 2:0.333333 3:0.333333 4:1 5:1 6:-0.333333 7:-0.333333 8:-1 9:1 10:1 11:1 12:1 13:1 14:1 15:1 16:-0.333333 17:-0.333333 18:1 19:1 20:1 21:-0.333333 22:1 23:1 24:1 25:1 26:1 27:-1 28:-1 29:-0.333333 30:1 31:-1 32:-1 33:-1 34:-1 35:-1 36:1 37:-1 38:-1 39:-0.333333 40:1 41:1 42:-0.333333 43:0.333333 44:1 45:1 46:1 47:-1 48:1 49:1 50:1 51:-1 52:-1 53:1 54:-1 55:1 56:1 57:1 58:-1 59:-1 60:1 
4.190120097144134 1:0.333333 2:1 3:-0.333333 4:0.333333 5:0.333333 6:-1 7:1 8:-1 9:-0.333333 10:1 11:0.333333 12:-1 13:-0.333333 14:-1 15:0.333333 16:1 17:1 18:0.333333 19:-1 20:-0.333333 21:-1 22:0.333333 23:1 24:1 25:1 26:0.333333 27:-1 28:-1 29:-0.333333 30:-1 31:1 32:1 33:-1 34:1 35:1 36:0.333333 37:1 38:-1 39:-1 40:-1 41:1 42:0.333333 43:-1 44:0.333333 45:0.333333 46:-1 47:-0.333333 48:-1 49:-1 50:-1 51:-1 52:1 53:1 54:-1 55:-1 56:1 57:1 58:1 59:0.333333 60:-1 
21.16653298949076 1:0.333333 2:1 3:-1 4:-1 5:-0.333333 6:-0.333333 7:-1 8:0.333333 9:1 10:1 11:-0.333333 12:-0.333333 13:-0.333333 14:0.333333 15:-1 16:-0.333333 17:1 18:-0.333333 19:-0.333333 20:1 21:-0.333333 22:-0.333333 23:0.333333 24:1 25:-0.333333 26:1 27:-0.333333 28:-0.333333 29:0.333333 30:0.333333 31:-1 32:1 33:1 34:1 35:1 36:1 37:1 38:0.333333 39:1 40:0.333333 41:1 42:0.333333 43:0.333333 44:0.333333 45:1 46:0.333333 47:-1 48:-0.333333 49:-1 50:-0.333333 51:-0.333333 52:1 53:-0.333333 54:-0.333333 55:1 56:1 57:1 58:1 59:-0.333333 60:-1 
41.88886652544691 1:0.333333 2:0.333333 3:0.333333 4:-1 5:-0.333333 6:-0.333333 7:-0.333333 8:-1 9:-0.333333 10:0.333333 11:-1 12:0.333333 13:1 14:-1 15:-1 16:-0.333333 17:0.333333 18:-0.333333 19:-1 20:-0.333333 21:0.333333 22:-1 23:0.333333 24:1 25:-0.333333 26:0.333333 27:0.333333 28:0.333333 29:-1 30:-1 31:0.333333 32:-1 33:-1 34:0.333333 35:-1 36:0.333333 37:0.333333 38:-1 39:-0.333333 40:0.333333 41:1 42:0.333333 43:0.333333 44:1 45:0.333333 46:1 47:0.333333 48:0.333333 49:0.333333 50:0.333333 51:-1 52:-0.333333 53:0.333333 54:0.333333 55:-1 56:-1 57:-1 58:-0.333333 59:-1 60:-1 
55.9016994375 1:0.333333 2:0.333333 3:1 4:0.333333 5:-1 6:0.333333 7:1 8:0.333333 9:0.333333 10:0.333333 11:-1 12:0.333333 13:1 14:0.333333 15:1 16:0.333333 17:0.333333 18:0.333333 19:-1 20:0.333333 21:0.333333 22:0.333333 23:0.333333 24:0.333333 25:-1 26:0.333333 27:0.333333 28:-1 29:0.333333 30:0.333333 31:1 32:1 33:-0.333333 34:-0.333333 35:0.333333 36:0.333333 37:0.333333 38:-1 39:1 40:0.333333 41:0.333333 42:-1 43:1 44:-0.333333 45:-0.333333 46:0.333333 47:-0.333333 48:-0.333333 49:0.333333 50:-1 51:1 52:0.333333 53:1 54:1 55:-0.333333 56:-0.333333 57:-0.333333 58:0.333333 59:0.333333 60:-1 
30.79540847943016 1:-0.333333 2:1 3:-0.333333 4:-0.333333 5:-1 6:-0.333333 7:-1 8:-1 9:-0.333333 10:-1 11:1 12:1 13:-0.333333 14:-0.333333 15:-0.333333 16:-0.333333 17:-0.333333 18:0.333333 19:1 20:-0.333333 21:-0.333333 22:0.333333 23:1 24:-0.333333 25:-1 26:-0.333333 27:-0.333333 28:-1 29:-1 30:-1 31:-1 32:-1 33:1 34:-0.333333 35:1 36:-0.333333 37:0.333333 38:1 39:-0.333333 40:-0.333333 41:1 42:-0.333333 43:-0.333333 44:1 45:-1 46:-0.333333 47:0.333333 48:1 49:-0.333333 50:0.333333 51:-1 52:-0.333333 53:0.333333 54:-1 55:-0.333333 56:0.333333 57:0.333333 58:0.333333 59:1 60:1 
27.02796550399855 1:-0.333333 2:-1 3:1 4:-1 5:0.333333 6:0.333333 7:0.333333 8:1 9:1 10:-1 11:1 12:1 13:0.333333 14:0.333333 15:0.333333 16:1 17:-0.333333 18:1 19:-0.333333 20:-0.333333 21:-1 22:1 23:-0.333333 24:1 25:0.333333 26:0.333333 27:1 28:0.333333 29:-1 30:-0.333333 31:-0.333333 32:0.333333 33:0.333333 34:1 35:-0.333333 36:0.333333 37:1 38:-1 39:0.333333 40:1 41:-0.333333 42:-1 43:0.333333 44:0.333333 45:0.333333 46:1 47:-0.333333 48:0.333333 49:-1 50:-0.333333 51:0.333333 52:0.333333 53:-1 54:-0.333333 55:-1 56:-1 57:0.333333 58:-1 59:-0.333333 60:-1 
55.9016994375 1:-0.333333 2:-0.333333 3:-0.333333 4:0.333333 5:0.333333 6:0.333333 7:0.333333 8:0.333333 9:1 10:-0.333333 11:-0.333333 12:-0.333333 13:-0.333333 14:-1 15:-1 16:-1 17:-0.333333 18:-0.333333 19:-0.333333 20:-0.333333 21:0.333333 22:0.333333 23:1 24:0.333333 25:0.333333 26:0.333333 27:1 28:-0.333333 29:-0.333333 30:-1 31:-0.333333 32:-1 33:-1 34:-0.333333 35:1 36:0.333333 37:0.333333 38:1 39:-0.333333 40:-0.333333 41:-0.333333 42:-1 43:-0.333333 44:0.333333 45:1 46:0.333333 47:-1 48:-0.333333 49:0.333333 50:0.333333 51:0.333333 52:-0.333333 53:-0.333333 54:-0.333333 55:0.333333 56:0.333333 57:-1 58:0.333333 59:-0.333333 60:-0.333333 
9.591189519343512 1:-0.333333 2:0.333333 3:0.333333 4:0.333333 5:1 6:-0.333333 7:-0.333333 8:1 9:1 10:1 11:0.333333 12:-1 13:-1 14:-1 15:-0.333333 16:-1 17:0.333333 18:-1 19:-1 20:1 21:1 22:1 23:0.333333 24:0.333333 25:-1 26:-1 27:-0.333333 28:-0.333333 29:1 30:-0.333333 31:-1 32:0.333333 33:-1 34:1 35:1 36:-0.333333 37:-1 38:1 39:-1 40:1 41:1 42:-0.333333 43:0.333333 44:-1 45:-1 46:-1 47:-0.333333 48:-1 49:-1 50:0.333333 51:0.333333 52:1 53:-0.333333 54:-0.333333 55:0.333333 56:1 57:-0.333333 58:1 59:-1 60:0.333333 
6.186524384474299 1:1 2:1 3:-0.333333 4:0.333333 5:0.333333 6:0.333333 7:-1 8:-1 9:-1 10:-1 11:0.333333 12:-1 13:1 14:0.333333 15:1 16:-0.333333 17:-0.333333 18:0.333333 19:-1 20:-1 21:-1 22:-0.333333 23:1 24:1 25:-0.333333 26:-1 27:-1 28:1 29:1 30:-0.333333 31:0.333333 32:1 33:1 34:0.333333 35:0.333333 36:-1 37:-1 38:-1 39:-1 40:-0.333333 41:1 42:1 43:0.333333 44:-1 45:0.333333 46:-1 47:1 48:1 49:1 50:-1 51:1 52:0.333333 53:-1 54:-0.333333 55:-1 56:-1 57:-0.333333 58:-0.333333 59:-1 60:0.333333 
5.823564416486181 1:-1 2:-1 3:-0.333333 4:0.333333 5:1 6:1 7:-1 8:1 9:-1 10:-0.333333 11:-0.333333 12:0.333333 13:1 14:-0.333333 15:-0.333333 16:1 17:-0.333333 18:-0.333333 19:-1 20:-0.333333 21:-1 22:-0.333333 23:-1 24:-0.333333 25:-1 26:-1 27:0.333333 28:1 29:0.333333 30:-1 31:-0.333333 32:-1 33:0.333333 34:-0.333333 35:-1 36:-1 37:-1 38:-1 39:-1 40:1 41:-1 42:1 43:-1 44:-1 45:1 46:-1 47:1 48:-0.333333 49:-1 50:1 51:1 52:1 53:0.333333 54:1 55:0.333333 56:1 57:-1 58:0.333333 59:0.333333 60:0.333333 
21.90457017050909 1:0.333333 2:-1 3:-0.333333 4:-1 5:-0.333333 6:1 7:0.333333 8:0.333333 9:-1 10:1 11:-0.333333 12:1 13:-0.333333 14:1 15:1 16:1 17:0.333333 18:1 19:1 20:-0.333333 21:1 22:-0.333333 23:0.333333 24:1 25:-0.333333 26:-1 27:1 28:1 29:1 30:-0.333333 31:1 32:1 33:-0.333333 34:0.333333 35:-1 36:-0.333333 37:-0.333333 38:-0.333333 39:-0.333333 40:-1 41:-0.333333 42:-0.333333 43:-1 44:-0.333333 45:-1 46:-1 47:1 48:-1 49:-0.333333 50:-0.333333 51:1 52:-0.333333 53:-0.333333 54:-0.333333 55:-0.333333 56:0.333333 57:1 58:-0.333333 59:1 60:-0.333333 
37.81962974229886 1:-0.333333 2:0.333333 3:0.333333 4:-0.333333 5:0.333333 6:1 7:1 8:0.333333 9:0.333333 10:1 11:0.333333 12:-1 13:1 14:0.333333 15:0.333333 16:1 17:-0.333333 18:-0.333333 19:0.333333 20:-1 21:0.333333 22:-1 23:0.333333 24:1 25:0.333333 26:1 27:0.333333 28:1 29:1 30:0.333333 31:-1 32:0.333333 33:-1 34:-0.333333 35:0.333333 36:0.333333 37:-0.333333 38:-1 39:-1 40:-0.333333 41:-1 42:-1 43:-0.333333 44:-0.333333 45:0.333333 46:0.333333 47:-1 48:-0.333333 49:1 50:1 51:-0.333333 52:1 53:-1 54:1 55:-0.333333 56:-0.333333 57:-1 58:0.333333 59:0.333333 60:-0.333333 
16.35033136563622 1:0.333333 2:1 3:-0.333333 4:1 5:0.333333 6:1 7:0.333333 8:1 9:-1 10:0.333333 11:1 12:-1 13:-1 14:-1 15:-1 16:-0.333333 17:1 18:-1 19:0.333333 20:-1 21:-1 22:-1 23:-1 24:-1 25:1 26:1 27:-1 28:-0.333333 29:0.333333 30:0.333333 31:-0.333333 32:-0.333333 33:-0.333333 34:0.333333 35:-1 36:1 37:-0.333333 38:-0.333333 39:1 40:-0.333333 41:-0.333333 42:1 43:-0.333333 44:-0.333333 45:-0.333333 46:0.333333 47:-0.333333 48:0.333333 49:0.333333 50:1 51:-0.333333 52:1 53:-1 54:-1 55:1 56:0.333333 57:0.333333 58:0.333333 59:-1 60:-0.333333 
37.34796752291531 1:1 2:-0.333333 3:-1 4:1 5:-0.333333 6:0.333333 7:0.333333 8:1 9:-0.333333 10:0.333333 11:1 12:1 13:-0.333333 14:1 15:0.333333 16:0.333333 17:0.333333 18:1 19:-0.333333 20:0.333333 21:0.333333 22:0.333333 23:-1 24:-0.333333 25:-1 26:-1 27:1 28:1 29:0.333333 30:0.333333 31:0.333333 32:-1 33:-0.333333 34:0.333333 35:1 36:-0.333333 37:0.333333 38:0.333333 39:1 40:-0.333333 41:1 42:-0.333333 43:1 44:0.333333 45:-1 46:-0.333333 47:0.333333 48:1 49:1 50:-0.333333 51:1 52:0.333333 53:0.333333 54:0.333333 55:0.333333 56:0.333333 57:1 58:-0.333333 59:-1 60:-0.333333 
5.915691431769466 1:1 2:-1 3:-1 4:-1 5:-1 6:-0.333333 7:-1 8:0.333333 9:-0.333333 10:-0.333333 11:-1 12:-1 13:-0.333333 14:-1 15:1 16:-1 17:0.333333 18:-1 19:-1 20:1 21:-1 22:-1 23:1 24:-1 25:0.333333 26:1 27:1 28:1 29:0.333333 30:0.333333 31:1 32:1 33:-1 34:0.333333 35:-1 36:-0.333333 37:-0.333333 38:-0.333333 39:1 40:1 41:0.333333 42:1 43:-0.333333 44:-1 45:-0.333333 46:-1 47:0.333333 48:1 49:-1 50:0.333333 51:1 52:-1 53:-1 54:-0.333333 55:-1 56:-0.333333 57:-1 58:-1 59:0.333333 60:1 
3.955898589710195 1:0.333333 2:-1 3:1 4:-1 5:1 6:-1 7:1 8:-1 9:-0.333333 10:-1 11:0.333333 12:1 13:-1 14:0.333333 15:-1 16:1 17:-0.333333 18:0.333333 19:1 20:-1 21:-0.333333 22:1 23:1 24:-1 25:-1 26:-0.333333 27:1 28:-1 29:0.333333 30:-1 31:1 32:-1 33:-0.333333 34:-1 35:-0.333333 36:-0.333333 37:-1 38:1 39:-0.333333 40:1 41:-0.333333 42:1 43:-0.333333 44:1 45:-0.333333 46:1 47:-1 48:1 49:-1 50:-0.333333 51:-1 52:1 53:-1 54:1 55:-1 56:1 57:-0.333333 58:1 59:1 60:-1 
24.00069496392804 1:1 2:-0.333333 3:0.333333 4:0.333333 5:1 6:-1 7:-1 8:1 9:-0.333333 10:-1 11:-1 12:0.333333 13:-1 14:0.333333 15:1 16:1 17:1 18:-0.333333 19:-0.333333 20:-0.333333 21:-0.333333 22:0.333333 23:-1 24:0.333333 25:0.333333 26:1 27:-1 28:0.333333 29:1 30:-0.333333 31:1 32:-0.333333 33:1 34:-0.333333 35:0.333333 36:-1 37:-1 38:-0.333333 39:-0.333333 40:0.333333 41:1 42:-0.333333 43:-0.333333 44:-0.333333 45:-0.333333 46:-0.333333 47:0.333333 48:1 49:-0.333333 50:1 51:0.333333 52:-1 53:-1 54:-0.333333 55:0.333333 56:1 57:0.333333 58:-1 59:-0.333333 60:1 
55.9016994375 1:-0.333333 2:-0.333333 3:0.333333 4:0.333333 5:-0.333333 6:0.333333 7:1 8:0.333333 9:-0.333333 10:0.333333 11:1 12:-1 13:-0.333333 14:-1 15:-0.333333 16:0.333333 17:-1 18:0.333333 19:-0.333333 20:0.333333 21:-0.333333 22:0.333333 23:-0.333333 24:0.333333 25:0.333333 26:-0.333333 27:0.333333 28:-1 29:-0.333333 30:-1 31:0.333333 32:0.333333 33:1 34:-1 35:-0.333333 36:-0.333333 37:-0.333333 38:1 39:-1 40:1 41:1 42:1 43:-0.333333 44:0.333333 45:-0.333333 46:-0.333333 47:-1 48:1 49:0.333333 50:-1 51:-0.333333 52:0.333333 53:-0.333333 54:1 55:0.333333 56:0.333333 57:1 58:0.333333 59:-0.333333 60:0.333333 
13.87673854509461 1:-0.333333 2:-0.333333 3:-0.333333 4:-0.333333 5:1 6:-1 7:-1 8:1 9:1 10:1 11:1 12:1 13:1 14:-1 15:1 16:-0.333333 17:-0.333333 18:-1 19:-0.333333 20:-1 21:-0.333333 22:-0.333333 23:1 24:0.333333 25:-1 26:-1 27:1 28:-0.333333 29:-1 30:0.333333 31:-1 32:1 33:0.333333 34:-1 35:-1 36:-0.333333 37:-1 38:0.333333 39:0.333333 40:-1 41:-0.333333 42:-1 43:-1 44:-0.333333 45:0.333333 46:1 47:-0.333333 48:-0.333333 49:-1 50:-0.333333 51:0.333333 52:1 53:-1 54:1 55:-0.333333 56:-0.333333 57:1 58:0.333333 59:-1 60:-0.333333 
55.9016994375 1:-1 2:-0.333333 3:-0.333333 4:-0.333333 5:0.333333 6:0.333333 7:-1 8:0.333333 9:-0.333333 10:1 11:-0.333333 12:0.333333 13:0.333333 14:-1 15:-0.333333 16:-0.333333 17:0.333333 18:0.333333 19:0.333333 20:-0.333333 21:-0.333333 22:-0.333333 23:-0.333333 24:0.333333 25:1 26:-0.333333 27:-0.333333 28:0.333333 29:-0.333333 30:-0.333333 31:0.333333 32:1 33:-1 34:0.333333 35:1 36:0.333333 37:-1 38:-0.333333 39:0.333333 40:-1 41:-0.333333 42:0.333333 43:0.333333 44:0.333333 45:1 46:0.333333 47:0.333333 48:1 49:0.333333 50:-1 51:0.333333 52:0.333333 53:0.333333 54:-0.333333 55:1 56:0.333333 57:1 58:-0.333333 59:-0.333333 60:-0.333333 
55.9016994375 1:-0.333333 2:-0.333333 3:0.333333 4:1 5:-0.333333 6:-0.333333 7:-1 8:0.333333 9:0.333333 10:-0.333333 11:-1 12:0.333333 13:0.333333 14:-1 15:0.333333 16:-1 17:-0.333333 18:0.333333 19:-0.333333 20:0.333333 21:-0.333333 22:1 23:-0.333333 24:0.333333 25:-1 26:-0.333333 27:1 28:-1 29:-1 30:-0.333333 31:1 32:0.333333 33:-0.333333 34:-0.333333 35:0.333333 36:0.333333 37:0.333333 38:0.333333 39:0.333333 40:1 41:-0.333333 42:0.333333 43:0.333333 44:0.333333 45:0.333333 46:-0.333333 47:1 48:0.333333 49:0.333333 50:1 51:-0.333333 52:0.333333 53:0.333333 54:0.333333 55:1 56:-0.333333 57:0.333333 58:0.333333 59:-0.333333 60:-0.333333 
52.63303133845751 1:-1 2:-1 3:-0.333333 4:0.333333 5:1 6:-0.333333 7:-1 8:1 9:-0.333333 10:-0.333333 11:0.333333 12:0.333333 13:0.333333 14:1 15:-0.333333 16:0.333333 17:-1 18:-0.333333 19:0.333333 20:1 21:-0.333333 22:0.333333 23:1 24:-0.333333 25:0.333333 26:1 27:-0.333333 28:1 29:-0.333333 30:-0.333333 31:0.333333 32:-1 33:0.333333 34:-1 35:-0.333333 36:1 37:-0.333333 38:0.333333 39:-1 40:0.333333 41:1 42:0.333333 43:1 44:-0.333333 45:-0.333333 46:-1 47:0.333333 48:-1 49:-0.333333 50:1 51:-0.333333 52:0.333333 53:-1 54:-0.333333 55:-0.333333 56:-1 57:-1 58:-0.333333 59:0.333333 60:0.333333 
12.41889182211888 1:0.333333 2:0.333333 3:-1 4:-1 5:1 6:1 7:0.333333 8:-1 9:-1 10:-1 11:-1 12:-1 13:1 14:-1 15:-0.333333 16:0.333333 17:-1 18:-0.333333 19:-1 20:-1 21:0.333333 22:-1 23:-0.333333 24:-1 25:-0.333333 26:1 27:1 28:-0.333333 29:1 30:1 31:-0.333333 32:-1 33:-0.333333 34:-1 35:-1 36:-0.333333 37:-0.333333 38:1 39:-0.333333 40:-1 41:1 42:-0.333333 43:-0.333333 44:-1 45:-0.333333 46:1 47:-1 48:-0.333333 49:-1 50:-1 51:-0.333333 52:-0.333333 53:-0.333333 54:-0.333333 55:-0.333333 56:-1 57:-0.333333 58:0.333333 59:-0.333333 60:0.333333 
46.91650194461045 1:0.333333 2:1 3:1 4:0.333333 5:0.333333 6:-1 7:-1 8:-0.333333 9:-0.333333 10:0.333333 11:-0.333333 12:0.333333 13:0.333333 14:0.333333 15:1 16:0.333333 17:0.333333 18:0.333333 19:1 20:1 21:1 22:0.333333 23:0.333333 24:1 25:-0.333333 26:0.333333 27:0.333333 28:-1 29:1 30:-1 31:-0.333333 32:-1 33:0.333333 34:0.333333 35:1 36:-0.333333 37:0.333333 38:-1 39:-1 40:0.333333 41:0.333333 42:0.333333 43:-1 44:0.333333 45:0.333333 46:1 47:-1 48:-1 49:-0.333333 50:0.333333 51:1 52:-0.333333 53:0.333333 54:-1 55:0.333333 56:-0.333333 57:1 58:0.333333 59:-0.333333 60:-0.333333 
38.34690296437346 1:1 2:1 3:1 4:1 5:-0.333333 6:0.333333 7:-0.333333 8:1 9:1 10:1 11:1 12:0.333333 13:1 14:0.333333 15:0.333333 16:0.333333 17:-1 18:1 19:1 20:0.333333 21:1 22:0.333333 23:-0.333333 24:0.333333 25:1 26:0.333333 27:0.333333 28:0.333333 29:1 30:0.333333 31:1 32:1 33:1 34:1 35:-0.333333 36:1 37:0.333333 38:-0.333333 39:0.333333 40:0.333333 41:-0.333333 42:1 43:1 44:1 45:0.333333 46:0.333333 47:0.333333 48:-0.333333 49:0.333333 50:0.333333 51:0.333333 52:-0.333333 53:0.333333 54:0.333333 55:-1 56:0.333333 57:1 58:0.333333 59:0.333333 60:0.333333 
55.9016994375 1:1 2:1 3:0.333333 4:-0.333333 5:1 6:0.333333 7:-1 8:0.333333 9:1 10:-1 11:1 12:0.333333 13:1 14:0.333333 15:0.333333 16:1 17:0.333333 18:1 19:0.333333 20:0.333333 21:-1 22:0.333333 23:1 24:-0.333333 25:-0.333333 26:0.333333 27:0.333333 28:-1 29:0.333333 30:-0.333333 31:0.333333 32:-1 33:-0.333333 34:-1 35:1 36:0.333333 37:0.333333 38:0.333333 39:1 40:0.333333 41:-1 42:-0.333333 43:-0.333333 44:0.333333 45:-0.333333 46:-0.333333 47:1 48:-0.333333 49:-0.333333 50:-0.333333 51:-0.333333 52:-0.333333 53:0.333333 54:-0.333333 55:-0.333333 56:0.333333 57:-0.333333 58:1 59:-1 60:0.333333 
55.9016994375 1:0.333333 2:0.333333 3:0.333333 4:-1 5:-0.333333 6:-0.333333 7:-1 8:-0.333333 9:-0.333333 10:-0.333333 11:-0.333333 12:1 13:-0.333333 14:-0.333333 15:-1 16:0.333333 17:0.333333 18:0.333333 19:-1 20:0.333333 21:-1 22:-0.333333 23:0.333333 24:0.333333 25:0.333333 26:-1 27:-0.333333 28:-0.333333 29:-0.333333 30:-1 31:-0.333333 32:-0.333333 33:0.333333 34:0.333333 35:-0.333333 36:-1 37:-1 38:-1 39:-0.333333 40:0.333333 41:-0.333333 42:0.333333 43:-0.333333 44:-0.333333 45:-0.333333 46:0.333333 47:-0.333333 48:-0.333333 49:-0.333333 50:0.333333 51:-1 52:-0.333333 53:-0.333333 54:0.333333 55:-1 56:-0.333333 57:-1 58:-0.333333 59:-0.333333 60:0.333333 
34.02304520699677 1:1 2:-0.333333 3:-0.333333 4:0.333333 5:0.333333 6:0.333333 7:0.333333 8:1 9:-0.333333 10:-1 11:-0.333333 12:1 13:-1 14:1 15:-0.333333 16:0.333333 17:0.333333 18:-1 19:-1 20:-1 21:-0.333333 22:0.333333 23:0.333333 24:-0.333333 25:0.333333 26:1 27:-0.333333 28:-0.333333 29:-0.333333 30:-1 31:-1 32:-0.333333 33:0.333333 34:1 35:-0.333333 36:-1 37:-1 38:-0.333333 39:-0.333333 40:0.333333 41:-1 42:-0.333333 43:-1 44:-1 45:-0.333333 46:-0.333333 47:1 48:1 49:0.333333 50:0.333333 51:-0.333333 52:-1 53:-0.333333 54:-1 55:1 56:0.333333 57:-1 58:-0.333333 59:-0.333333 60:1 
13.96798924769232 1:-1 2:-0.333333 3:-0.333333 4:0.333333 5:-1 6:-0.333333 7:0.333333 8:0.333333 9:1 10:1 11:0.333333 12:-0.333333 13:-1 14:0.333333 15:-0.333333 16:1 17:0.333333 18:-1 19:-1 20:1 21:-1 22:-1 23:0.333333 24:-1 25:-1 26:-0.333333 27:-0.333333 28:-1 29:1 30:-0.333333 31:1 32:-0.333333 33:1 34:0.333333 35:-0.333333 36:-0.333333 37:1 38:-0.333333 39:-1 40:1 41:-0.333333 42:-1 43:1 44:-0.333333 45:-1 46:-0.333333 47:0.333333 48:-0.333333 49:-1 50:-0.333333 51:-1 52:1 53:-0.333333 54:-0.333333 55:-1 56:0.333333 57:-0.333333 58:1 59:-0.333333 60:-1 
11.83011201788098 1:-1 2:-0.333333 3:0.333333 4:1 5:-0.333333 6:-1 7:-0.333333 8:0.333333 9:0.333333 10:0.333333 11:-0.333333 12:-0.333333 13:0.333333 14:-1 15:-0.333333 16:-1 17:1 18:-1 19:0.333333 20:1 21:-1 22:1 23:-0.333333 24:1 25:1 26:-0.333333 27:0.333333 28:-1 29:1 30:0.333333 31:-1 32:-0.333333 33:0.333333 34:1 35:1 36:1 37:0.333333 38:-1 39:0.333333 40:-0.333333 41:0.333333 42:1 43:1 44:-0.333333 45:0.333333 46:-1 47:-0.333333 48:1 49:1 50:-1 51:-1 52:1 53:-1 54:1 55:0.333333 56:-1 57:1 58:1 59:-0.333333 60:0.333333 
55.9016994375 1:-0.333333 2:-0.333333 3:-1 4:-0.333333 5:0.333333 6:1 7:0.333333 8:0.333333 9:-1 10:-0.333333 11:-1 12:-1 13:-1 14:0.333333 15:-1 16:-0.333333 17:0.333333 18:-1 19:-0.333333 20:1 21:0.333333 22:1 23:1 24:-1 25:-0.333333 26:-0.333333 27:0.333333 28:-0.333333 29:0.333333 30:1 31:-0.333333 32:-1 33:-0.333333 34:0.333333 35:1 36:0.333333 37:-1 38:-0.333333 39:0.333333 40:-0.333333 41:0.333333 42:-0.333333 43:-0.333333 44:1 45:-0.333333 46:-0.333333 47:-0.333333 48:1 49:-0.333333 50:-1 51:-0.333333 52:-1 53:-1 54:0.333333 55:-0.333333 56:-0.333333 57:0.333333 58:-0.333333 59:-0.333333 60:-0.333333 
20.6758541272447 1:0.333333 2:1 3:-0.333333 4:-1 5:1 6:1 7:-0.333333 8:-0.333333 9:0.333333 10:0.333333 11:0.333333 12:1 13:0.333333 14:1 15:0.333333 16:1 17:0.333333 18:1 19:1 20:0.333333 21:0.333333 22:0.333333 23:1 24:1 25:1 26:0.333333 27:-1 28:0.333333 29:-1 30:-0.333333 31:-1 32:-1 33:-1 34:0.333333 35:-1 36:-0.333333 37:1 38:1 39:-0.333333 40:1 41:-0.333333 42:0.333333 43:1 44:0.333333 45:1 46:1 47:1 48:0.333333 49:-0.333333 50:-1 51:-0.333333 52:-1 53:1 54:0.333333 55:1 56:-1 57:0.333333 58:-0.333333 59:-1 60:-1 
11.59917298749197 1:-0.333333 2:-1 3:1 4:0.333333 5:-0.333333 6:1 7:-1 8:1 9:0.333333 10:1 11:1 12:0.333333 13:0.333333 14:1 15:1 16:0.333333 17:1 18:0.333333 19:-1 20:0.333333 21:0.333333 22:-1 23:1 24:-0.333333 25:0.333333 26:-1 27:1 28:1 29:1 30:-0.333333 31:1 32:1 33:-0.333333 34:-1 35:0.333333 36:-1 37:-0.333333 38:1 39:-1 40:1 41:1 42:1 43:1 44:1 45:-0.333333 46:-1 47:-0.333333 48:-0.333333 49:0.333333 50:-1 51:-0.333333 52:1 53:-0.333333 54:-0.333333 55:0.333333 56:1 57:0.333333 58:0.333333 59:-1 60:-1 
45.25203080434105 1:-1 2:-0.333333 3:0.333333 4:-0.333333 5:-1 6:1 7:1 8:-0.333333 9:1 10:1 11:-1 12:0.333333 13:0.333333 14:0.333333 15:1 16:1 17:-0.333333 18:-0.333333 19:-0.333333 20:0.333333 21:0.333333 22:1 23:-0.333333 24:-0.333333 25:0.333333 26:-1 27:0.333333 28:1 29:-0.333333 30:-0.333333 31:0.333333 32:0.333333 33:-1 34:-0.333333 35:-0.333333 36:-0.333333 37:-0.333333 38:1 39:1 40:1 41:1 42:1 43:1 44:0.333333 45:-0.333333 46:-0.333333 47:-0.333333 48:-0.333333 49:-0.333333 50:0.333333 51:0.333333 52:-1 53:-0.333333 54:-1 55:-1 56:-0.333333 57:1 58:0.333333 59:0.333333 60:-1 
14.7441905714561 1:-1 2:0.333333 3:-1 4:-0.333333 5:-0.333333 6:-1 7:-1 8:0.333333 9:0.333333 10:-1 11:1 12:-0.333333 13:-1 14:1 15:-0.333333 16:0.333333 17:1 18:-0.333333 19:-0.333333 20:0.333333 21:-1 22:1 23:0.333333 24:1 25:-0.333333 26:0.333333 27:1 28:0.333333 29:-1 30:-0.333333 31:0.333333 32:1 33:1 34:0.333333 35:1 36:-0.333333 37:-1 38:-0.333333 39:-0.333333 40:-1 41:-1 42:-0.333333 43:0.333333 44:0.333333 45:1 46:0.333333 47:-1 48:-1 49:-0.333333 50:-1 51:-1 52:-1 53:0.333333 54:1 55:1 56:1 57:0.333333 58:-1 59:-1 60:1 
30.53609832796793 1:-1 2:-0.333333 3:0.333333 4:1 5:-0.333333 6:-0.333333 7:-0.333333 8:-1 9:0.333333 10:1 11:-1 12:0.333333 13:-1 14:-0.333333 15:-0.333333 16:0.333333 17:-1 18:0.333333 19:-1 20:0.333333 21:-0.333333 22:0.333333 23:0.333333 24:-1 25:0.333333 26:0.333333 27:1 28:0.333333 29:-0.333333 30:0.333333 31:0.333333 32:0.333333 33:-0.333333 34:-0.333333 35:0.333333 36:0.333333 37:0.333333 38:-0.333333 39:-1 40:1 41:0.333333 42:1 43:1 44:1 45:0.333333 46:1 47:-1 48:-1 49:-1 50:-1 51:1 52:-1 53:0.333333 54:-1 55:-0.333333 56:1 57:1 58:0.333333 59:1 60:-0.333333 
32.69411272035823 1:1 2:1 3:-0.333333 4:-1 5:-1 6:0.333333 7:1 8:-0.333333 9:-0.333333 10:-0.333333 11:-0.333333 12:-1 13:-1 14:-0.333333 15:0.333333 16:-0.333333 17:-1 18:-1 19:-0.333333 20:-0.333333 21:1 22:-0.333333 23:-0.333333 24:0.333333 25:-1 26:-0.333333 27:1 28:-0.333333 29:-1 30:-0.333333 31:0.333333 32:1 33:-0.333333 34:-1 35:-0.333333 36:-1 37:1 38:1 39:-0.333333 40:0.333333 41:-0.333333 42:0.333333 43:0.333333 44:-1 45:1 46:1 47:-1 48:0.333333 49:-1 50:0.333333 51:1 52:0.333333 53:0.333333 54:-1 55:-0.333333 56:0.333333 57:0.333333 58:1 59:-0.333333 60:-0.333333 
47.05014618940969 1:0.333333 2:1 3:-0.333333 4:-0.333333 5:0.333333 6:1 7:0.333333 8:0.333333 9:0.333333 10:0.333333 11:1 12:0.333333 13:0.333333 14:1 15:-0.333333 16:0.333333 17:0.333333 18:1 19:0.333333 20:-0.333333 21:-1 22:-0.333333 23:-1 24:-1 25:-0.333333 26:-0.333333 27:-0.333333 28:0.333333 29:-1 30:-0.333333 31:-0.333333 32:-0.333333 33:0.333333 34:1 35:1 36:0.333333 37:1 38:0.333333 39:-1 40:-0.333333 41:-1 42:-0.333333 43:-0.333333 44:0.333333 45:1 46:1 47:-0.333333 48:-0.333333 49:0.333333 50:-0.333333 51:-0.333333 52:-0.333333 53:-1 54:-1 55:-1 56:-1 57:-1 58:-0.333333 59:-1 60:-1 
15.29752465541754 1:-0.333333 2:-1 3:1 4:1 5:1 6:1 7:0.333333 8:-1 9:0.333333 10:0.333333 11:1 12:1 13:-0.333333 14:-1 15:0.333333 16:0.333333 17:0.333333 18:0.333333 19:1 20:-0.333333 21:1 22:0.333333 23:-1 24:0.333333 25:1 26:-0.333333 27:1 28:-0.333333 29:1 30:-0.333333 31:-1 32:-1 33:0.333333 34:-1 35:0.333333 36:1 37:-0.333333 38:-1 39:-1 40:-0.333333 41:0.333333 42:1 43:1 44:1 45:0.333333 46:1 47:1 48:1 49:-0.333333 50:-0.333333 51:-1 52:0.333333 53:-1 54:-1 55:-0.333333 56:-0.333333 57:0.333333 58:-1 59:0.333333 60:0.333333 
10.82808454762401 1:-1 2:-0.333333 3:0.333333 4:-0.333333 5:-1 6:-0.333333 7:-1 8:1 9:-0.333333 10:-1 11:-1 12:-0.333333 13:-1 14:1 15:-1 16:-1 17:-0.333333 18:-0.333333 19:-1 20:1 21:-1 22:-1 23:-1 24:-0.333333 25:1 26:1 27:-0.333333 28:-0.333333 29:-1 30:-1 31:-1 32:1 33:-0.333333 34:1 35:-0.333333 36:-0.333333 37:-1 38:-0.333333 39:1 40:-1 41:1 42:1 43:1 44:1 45:-0.333333 46:-0.333333 47:-1 48:0.333333 49:1 50:-0.333333 51:-0.333333 52:-0.333333 53:0.333333 54:-1 55:-1 56:0.333333 57:1 58:0.333333 59:0.333333 60:0.333333 
55.9016994375 1:-0.333333 2:-0.333333 3:-0.333333 4:-0.333333 5:1 6:1 7:-0.333333 8:-0.333333 9:-0.333333 10:-0.333333 11:1 12:0.333333 13:1 14:-0.333333 15:0.333333 16:1 17:-1 18:-0.333333 19:-0.333333 20:-0.333333 21:0.333333 22:1 23:0.333333 24:1 25:-0.333333 26:0.333333 27:0.333333 28:-1 29:-1 30:1 31:-0.333333 32:1 33:-0.333333 34:-0.333333 35:0.333333 36:0.333333 37:0.333333 38:0.333333 39:-1 40:-0.333333 41:-1 42:1 43:-0.333333 44:-0.333333 45:-1 46:0.333333 47:1 48:0.333333 49:0.333333 50:0.333333 51:-1 52:-0.333333 53:0.333333 54:0.333333 55:0.333333 56:0.333333 57:1 58:-0.333333 59:-0.333333 60:1 
11.39102801816015 1:-0.333333 2:-1 3:-1 4:-1 5:0.333333 6:1 7:1 8:0.333333 9:1 10:0.333333 11:0.333333 12:1 13:1 14:1 15:0.333333 16:0.333333 17:-1 18:-0.333333 19:1 20:-0.333333 21:-1 22:-1 23:0.333333 24:1 25:1 26:1 27:1 28:0.333333 29:0.333333 30:1 31:1 32:-0.333333 33:1 34:0.333333 35:-0.333333 36:0.333333 37:1 38:-0.333333 39:0.333333 40:1 41:-1 42:-1 43:-1 44:1 45:0.333333 46:0.333333 47:-1 48:-0.333333 49:-0.333333 50:0.333333 51:-1 52:-1 53:-1 54:-1 55:1 56:1 57:0.333333 58:1 59:-0.333333 60:-0.333333 
9.062490358876987 1:0.333333 2:-1 3:1 4:-1 5:0.333333 6:-1 7:0.333333 8:0.333333 9:-1 10:-0.333333 11:-1 12:-1 13:1 14:1 15:0.333333 16:-1 17:-0.333333 18:-1 19:1 20:0.333333 21:-1 22:1 23:-0.333333 24:-1 25:-1 26:1 27:-0.333333 28:-1 29:0.333333 30:1 31:-0.333333 32:-1 33:0.333333 34:-1 35:-0.333333 36:-1 37:-1 38:1 39:-1 40:1 41:1 42:0.333333 43:1 44:-0.333333 45:1 46:1 47:-0.333333 48:-0.333333 49:-0.333333 50:0.333333 51:-1 52:-0.333333 53:1 54:0.333333 55:0.333333 56:1 57:-0.333333 58:-1 59:0.333333 60:1 
31.52883651810332 1:-0.333333 2:-0.333333 3:0.333333 4:1 5:0.333333 6:-1 7:-1 8:0.333333 9:-1 10:0.333333 11:0.333333 12:-1 13:1 14:1 15:0.333333 16:0.333333 17:0.333333 18:0.333333 19:1 20:-0.333333 21:1 22:1 23:1 24:-0.333333 25:1 26:-0.333333 27:0.333333 28:-1 29:-0.333333 30:0.333333 31:1 32:0.333333 33:0.333333 34:1 35:-0.333333 36:1 37:-1 38:0.333333 39:1 40:0.333333 41:-0.333333 42:1 43:0.333333 44:-0.333333 45:-0.333333 46:1 47:-0.333333 48:-0.333333 49:-1 50:-0.333333 51:-1 52:-1 53:0.333333 54:-1 55:1 56:0.333333 57:0.333333 58:-1 59:-0.333333 60:0.333333 
14.93683529706059 1:-0.333333 2:-0.333333 3:0.333333 4:1 5:1 6:-0.333333 7:-1 8:1 9:0.333333 10:-1 11:-0.333333 12:-0.333333 13:-1 14:-1 15:0.333333 16:1 17:-1 18:0.333333 19:1 20:-0.333333 21:0.333333 22:-1 23:-0.333333 24:-0.333333 25:-1 26:-1 27:1 28:0.333333 29:0.333333 30:-1 31:-0.333333 32:-1 33:1 34:0.333333 35:0.333333 36:1 37:-0.333333 38:1 39:-0.333333 40:-0.333333 41:0.333333 42:-1 43:-0.333333 44:0.333333 45:0.333333 46:0.333333 47:0.333333 48:1 49:1 50:-1 51:1 52:1 53:-0.333333 54:1 55:1 56:-1 57:1 58:-1 59:0.333333 60:-0.333333 
19.14883161010982 1:-0.333333 2:-1 3:1 4:0.333333 5:-1 6:0.333333 7:-1 8:0.333333 9:1 10:-1 11:1 12:0.333333 13:1 14:0.333333 15:0.333333 16:-1 17:0.333333 18:1 19:1 20:-0.333333 21:0.333333 22:0.333333 23:0.333333 24:-1 25:-0.333333 26:0.333333 27:0.333333 28:0.333333 29:1 30:-0.333333 31:1 32:-0.333333 33:-0.333333 34:-1 35:-1 36:-0.333333 37:-1 38:1 39:1 40:-1 41:-0.333333 42:0.333333 43:-0.333333 44:-0.333333 45:0.333333 46:0.333333 47:-1 48:1 49:-0.333333 50:1 51:-1 52:1 53:1 54:0.333333 55:0.333333 56:-1 57:-1 58:1 59:-0.333333 60:1 
40.74403391265957 1:1 2:1 3:1 4:1 5:1 6:1 7:0.333333 8:0.333333 9:1 10:-0.333333 11:-1 12:-0.333333 13:0.333333 14:1 15:1 16:-0.333333 17:-0.333333 18:0.333333 19:0.333333 20:-1 21:-0.333333 22:-1 23:-1 24:-0.333333 25:-0.333333 26:-0.333333 27:-0.333333 28:-0.333333 29:0.333333 30:0.333333 31:-1 32:1 33:-0.333333 34:-1 35:-0.333333 36:-0.333333 37:0.333333 38:0.333333 39:1 40:0.333333 41:-1 42:-0.333333 43:1 44:-0.333333 45:-0.333333 46:-1 47:0.333333 48:1 49:1 50:1 51:0.333333 52:0.333333 53:-1 54:0.333333 55:0.333333 56:0.333333 57:0.333333 58:0.333333 59:1 60:0.333333 
47.02743708426151 1:0.333333 2:1 3:0.333333 4:-0.333333 5:-0.333333 6:-0.333333 7:-0.333333 8:-1 9:0.333333 10:-0.333333 11:0.333333 12:0.333333 13:0.333333 14:0.333333 15:0.333333 16:-1 17:0.333333 18:0.333333 19:-1 20:-0.333333 21:0.333333 22:1 23:0.333333 24:-1 25:-1 26:-1 27:1 28:1 29:0.333333 30:0.333333 31:-0.333333 32:-1 33:-0.333333 34:1 35:-0.333333 36:0.333333 37:-1 38:-0.333333 39:-1 40:-1 41:-1 42:-1 43:-0.333333 44:-1 45:-1 46:-1 47:0.333333 48:0.333333 49:-0.333333 50:-0.333333 51:-1 52:0.333333 53:0.333333 54:0.333333 55:0.333333 56:0.333333 57:0.333333 58:-1 59:-0.333333 60:1 
4.509349385670697 1:1 2:-1 3:0.333333 4:1 5:0.333333 6:1 7:0.333333 8:0.333333 9:1 10:1 11:1 12:0.333333 13:1 14:1 15:-0.333333 16:-0.333333 17:-0.333333 18:-0.333333 19:-0.333333 20:1 21:-1 22:1 23:0.333333 24:-1 25:1 26:1 27:1 28:0.333333 29:1 30:1 31:-0.333333 32:-0.333333 33:-0.333333 34:-0.333333 35:1 36:1 37:-0.333333 38:1 39:-1 40:1 41:-1 42:-1 43:-1 44:-1 45:-1 46:1 47:-1 48:1 49:-1 50:-1 51:1 52:1 53:1 54:1 55:-1 56:1 57:-1 58:-1 59:1 60:-0.333333 
5.70435326149919 1:-1 2:0.333333 3:-1 4:0.333333 5:0.333333 6:-1 7:-1 8:1 9:1 10:1 11:-1 12:1 13:1 14:-0.333333 15:1 16:-1 17:1 18:-1 19:1 20:1 21:1 22:1 23:0.333333 24:-1 25:1 26:-1 27:0.333333 28:-0.333333 29:-0.333333 30:0.333333 31:1 32:-1 33:-0.333333 34:-1 35:-1 36:-0.333333 37:-1 38:-0.333333 39:0.333333 40:-1 41:-1 42:-1 43:1 44:1 45:1 46:1 47:-0.333333 48:-1 49:1 50:1 51:-0.333333 52:1 53:1 54:0.333333 55:0.333333 56:0.333333 57:-1 58:-0.333333 59:0.333333 60:-1 
19.75792863265888 1:-0.333333 2:-0.333333 3:-0.333333 4:-0.333333 5:-0.333333 6:-1 7:-1 8:-0.333333 9:-1 10:-0.333333 11:-1 12:1 13:-1 14:-1 15:-1 16:-1 17:-0.333333 18:0.333333 19:-1 20:-1 21:-1 22:0.333333 23:-1 24:-0.333333 25:-0.333333 26:1 27:0.333333 28:1 29:-0.333333 30:-0.333333 31:-0.333333 32:-1 33:-0.333333 34:-0.333333 35:0.333333 36:-1 37:-0.333333 38:1 39:1 40:0.333333 41:1 42:-0.333333 43:1 44:1 45:-0.333333 46:0.333333 47:0.333333 48:-1 49:0.333333 50:1 51:0.333333 52:1 53:0.333333 54:1 55:0.333333 56:1 57:0.333333 58:0.333333 59:1 60:-0.333333 
55.9016994375 1:-0.333333 2:-0.333333 3:1 4:-1 5:-1 6:0.333333 7:-0.333333 8:1 9:0.333333 10:0.333333 11:1 12:0.333333 13:1 14:1 15:0.333333 16:0.333333 17:0.333333 18:-1 19:0.333333 20:0.333333 21:1 22:0.333333 23:1 24:1 25:0.333333 26:0.333333 27:0.333333 28:0.333333 29:-1 30:-0.333333 31:1 32:-0.333333 33:-1 34:0.333333 35:0.333333 36:1 37:0.333333 38:0.333333 39:1 40:0.333333 41:0.333333 42:-1 43:-0.333333 44:0.333333 45:0.333333 46:-0.333333 47:0.333333 48:0.333333 49:-1 50:-1 51:-1 52:1 53:0.333333 54:0.333333 55:-0.333333 56:0.333333 57:-1 58:0.333333 59:0.333333 60:-1 
55.9016994375 1:1 2:0.333333 3:1 4:-0.333333 5:0.333333 6:1 7:0.333333 8:-1 9:0.333333 10:-0.333333 11:0.333333 12:1 13:0.333333 14:0.333333 15:0.333333 16:0.333333 17:-0.333333 18:0.333333 19:0.333333 20:-0.333333 21:0.333333 22:-0.333333 23:-0.333333 24:1 25:0.333333 26:0.333333 27:0.333333 28:0.333333 29:-1 30:-0.333333 31:-0.333333 32:1 33:-1 34:1 35:-0.333333 36:-0.333333 37:-1 38:-0.333333 39:1 40:0.333333 41:-0.333333 42:-0.333333 43:0.333333 44:-0.333333 45:-0.333333 46:-0.333333 47:0.333333 48:-1 49:1 50:1 51:0.333333 52:-1 53:0.333333 54:-0.333333 55:-1 56:-0.333333 57:-1 58:0.333333 59:0.333333 60:-1 
34.24624624434099 1:-0.333333 2:1 3:1 4:-0.333333 5:-1 6:-0.333333 7:-0.333333 8:-0.333333 9:-0.333333 10:-0.333333 11:0.333333 12:1 13:-0.333333 14:1 15:-0.333333 16:-1 17:0.333333 18:0.333333 19:0.333333 20:-1 21:1 22:-0.333333 23:-1 24:1 25:0.333333 26:-1 27:1 28:-0.333333 29:0.333333 30:0.333333 31:-1 32:1 33:1 34:-0.333333 35:0.333333 36:-1 37:0.333333 38:1 39:0.333333 40:0.333333 41:-1 42:-0.333333 43:0.333333 44:0.333333 45:1 46:-1 47:-0.333333 48:-0.333333 49:1 50:-0.333333 51:-1 52:0.333333 53:-1 54:-0.333333 55:-1 56:-0.333333 57:-0.333333 58:-0.333333 59:-1 60:-0.333333 
5.90477272408816 1:-1 2:-0.333333 3:0.333333 4:0.333333 5:-0.333333 6:-0.333333 7:-0.333333 8:0.333333 9:-1 10:-0.333333 11:-1 12:-0.333333 13:-1 14:0.333333 15:-1 16:0.333333 17:-1 18:-1 19:0.333333 20:-1 21:-1 22:-1 23:-1 24:-1 25:-1 26:-1 27:-1 28:-0.333333 29:-1 30:-1 31:1 32:1 33:1 34:1 35:-1 36:-0.333333 37:-1 38:0.333333 39:0.333333 40:-1 41:-1 42:1 43:-1 44:1 45:0.333333 46:0.333333 47:1 48:1 49:-0.333333 50:-1 51:1 52:-0.333333 53:-1 54:-1 55:0.333333 56:-1 57:1 58:1 59:-0.333333 60:-1 
25.03230264920808 1:-0.333333 2:0.333333 3:-0.333333 4:0.333333 5:0.333333 6:-1 7:-1 8:-1 9:-0.333333 10:0.333333 11:-1 12:-1 13:-1 14:-0.333333 15:-0.333333 16:-0.333333 17:-0.333333 18:-1 19:0.333333 20:-1 21:1 22:-1 23:-1 24:-1 25:0.333333 26:-1 27:0.333333 28:0.333333 29:-1 30:-0.333333 31:-0.333333 32:-1 33:-1 34:0.333333 35:-1 36:-1 37:0.333333 38:-0.333333 39:-0.333333 40:-0.333333 41:-0.333333 42:-1 43:-0.333333 44:-1 45:-0.333333 46:-1 47:-0.333333 48:0.333333 49:0.333333 50:1 51:0.333333 52:0.333333 53:1 54:-0.333333 55:1 56:-0.333333 57:-1 58:-1 59:-1 60:-0.333333 
55.9016994375 1:0.333333 2:0.333333 3:-0.333333 4:1 5:-0.333333 6:-0.333333 7:1 8:0.333333 9:-1 10:-0.333333 11:0.333333 12:-1 13:-0.333333 14:0.333333 15:-1 16:-0.333333 17:0.333333 18:-1 19:0.333333 20:-0.333333 21:-1 22:0.333333 23:1 24:1 25:0.333333 26:0.333333 27:-0.333333 28:0.333333 29:0.333333 30:1 31:0.333333 32:0.333333 33:-0.333333 34:0.333333 35:-1 36:-0.333333 37:-0.333333 38:1 39:-0.333333 40:-0.333333 41:0.333333 42:1 43:-1 44:1 45:-0.333333 46:-0.333333 47:-1 48:-0.333333 49:-0.333333 50:-1 51:-0.333333 52:-0.333333 53:1 54:1 55:-1 56:0.333333 57:-0.333333 58:-0.333333 59:0.333333 60:-0.333333 
8.821859069959787 1:-0.333333 2:-0.333333 3:-1 4:-0.333333 5:-1 6:1 7:0.333333 8:-0.333333 9:-1 10:-0.333333 11:-1 12:0.333333 13:0.333333 14:-1 15:1 16:0.333333 17:0.333333 18:1 19:-0.333333 20:-0.333333 21:0.333333 22:1 23:-1 24:-1 25:0.333333 26:-1 27:0.333333 28:-0.333333 29:-0.333333 30:1 31:1 32:-1 33:-1 34:-1 35:1 36:0.333333 37:0.333333 38:0.333333 39:-0.333333 40:1 41:0.333333 42:1 43:0.333333 44:1 45:-1 46:0.333333 47:1 48:-1 49:-1 50:-1 51:-1 52:-1 53:1 54:-1 55:1 56:-1 57:-1 58:-1 59:-1 60:-1 
20.47876761959348 1:-1 2:-1 3:-0.333333 4:-1 5:-1 6:1 7:-0.333333 8:0.333333 9:1 10:1 11:-1 12:0.333333 13:-1 14:-1 15:1 16:-1 17:-1 18:-1 19:0.333333 20:1 21:0.333333 22:1 23:0.333333 24:0.333333 25:1 26:0.333333 27:0.333333 28:-1 29:-0.333333 30:-0.333333 31:-0.333333 32:1 33:0.333333 34:1 35:1 36:0.333333 37:0.333333 38:1 39:-0.333333 40:-0.333333 41:-1 42:1 43:0.333333 44:-1 45:0.333333 46:-1 47:-1 48:0.333333 49:-0.333333 50:0.333333 51:0.333333 52:0.333333 53:1 54:0.333333 55:0.333333 56:0.333333 57:0.333333 58:-0.333333 59:-1 60:0.333333 
5.709552426414535 1:0.333333 2:-1 3:1 4:1 5:-0.333333 6:1 7:-1 8:0.333333 9:1 10:0.333333 11:0.333333 12:-1 13:-0.333333 14:0.333333 15:0.333333 16:1 17:-0.333333 18:-0.333333 19:-0.333333 20:0.333333 21:-1 22:-1 23:0.333333 24:-1 25:-0.333333 26:-0.333333 27:-1 28:-0.333333 29:1 30:-0.333333 31:-1 32:-1 33:-1 34:0.333333 35:1 36:0.333333 37:1 38:-0.333333 39:1 40:0.333333 41:1 42:0.333333 43:-1 44:-1 45:-1 46:-1 47:-1 48:-1 49:-1 50:-1 51:0.333333 52:-1 53:-1 54:-1 55:-1 56:-1 57:-1 58:0.333333 59:-1 60:-1 
39.89236759763102 1:0.333333 2:1 3:0.333333 4:-0.333333 5:0.333333 6:1 7:-0.333333 8:-1 9:0.333333 10:1 11:0.333333 12:1 13:0.333333 14:0.333333 15:1 16:1 17:1 18:1 19:1 20:0.333333 21:1 22:1 23:1 24:0.333333 25:1 26:0.333333 27:0.333333 28:-1 29:-1 30:-0.333333 31:0.333333 32:0.333333 33:0.333333 34:-1 35:-1 36:-0.333333 37:-1 38:-0.333333 39:-0.333333 40:-1 41:-0.333333 42:-1 43:1 44:0.333333 45:-0.333333 46:-0.333333 47:0.333333 48:-0.333333 49:0.333333 50:-0.333333 51:-0.333333 52:1 53:1 54:-0.333333 55:1 56:0.333333 57:-1 58:-0.333333 59:0.333333 60:1 
55.9016994375 1:-0.333333 2:-0.333333 3:-1 4:0.333333 5:-0.333333 6:-1 7:0.333333 8:-0.333333 9:1 10:0.333333 11:0.333333 12:1 13:-0.333333 14:0.333333 15:-0.333333 16:-0.333333 17:-0.333333 18:-0.333333 19:0.333333 20:-0.333333 21:-1 22:-0.333333 23:0.333333 24:1 25:-0.333333 26:0.333333 27:-1 28:-0.333333 29:-1 30:-0.333333 31:-0.333333 32:0.333333 33:1 34:-0.333333 35:0.333333 36:-0.333333 37:-0.333333 38:-0.333333 39:-1 40:-0.333333 41:-0.333333 42:-1 43:-0.333333 44:0.333333 45:1 46:-0.333333 47:-0.333333 48:-0.333333 49:0.333333 50:0.333333 51:-0.333333 52:-0.333333 53:0.333333 54:1 55:0.333333 56:-0.333333 57:0.333333 58:-0.333333 59:-0.333333 60:-1 
55.9016994375 1:0.333333 2:-0.333333 3:0.333333 4:-1 5:-0.333333 6:0.333333 7:-0.333333 8:-0.333333 9:-1 10:-0.333333 11:-0.333333 12:1 13:-0.333333 14:-1 15:-1 16:-0.333333 17:-0.333333 18:-1 19:0.333333 20:-0.333333 21:1 22:0.333333 23:0.333333 24:1 25:1 26:0.333333 27:0.333333 28:0.333333 29:0.333333 30:-1 31:-0.333333 32:-0.333333 33:-1 34:-0.333333 35:0.333333 36:0.333333 37:-0.333333 38:-1 39:0.333333 40:1 41:-0.333333 42:-0.333333 43:0.333333 44:0.333333 45:-1 46:-1 47:1 48:0.333333 49:-1 50:0.333333 51:-1 52:-0.333333 53:-0.333333 54:0.333333 55:-1 56:-0.333333 57:-0.333333 58:-1 59:-1 60:-0.333333 
34.80155125047046 1:-0.333333 2:-1 3:-0.333333 4:0.333333 5:1 6:0.333333 7:1 8:-0.333333 9:1 10:-0.333333 11:-1 12:0.333333 13:-0.333333 14:-1 15:1 16:-0.333333 17:-1 18:0.333333 19:0.333333 20:0.333333 21:-0.333333 22:0.333333 23:0.333333 24:-1 25:-0.333333 26:-1 27:-0.333333 28:-1 29:1 30:0.333333 31:0.333333 32:0.333333 33:-1 34:0.333333 35:-1 36:0.333333 37:-0.333333 38:0.333333 39:0.333333 40:-1 41:0.333333 42:-1 43:1 44:1 45:0.333333 46:-1 47:-1 48:-1 49:-0.333333 50:0.333333 51:0.333333 52:-1 53:1 54:-0.333333 55:-0.333333 56:0.333333 57:0.333333 58:1 59:-1 60:0.333333 
11.2930321367039 1:0.333333 2:-1 3:0.333333 4:1 5:-0.333333 6:-1 7:-0.333333 8:1 9:1 10:-0.333333 11:-1 12:1 13:1 14:1 15:1 16:-1 17:-0.333333 18:0.333333 19:-1 20:-0.333333 21:-1 22:-0.333333 23:-1 24:-1 25:-1 26:0.333333 27:-0.333333 28:1 29:-0.333333 30:-0.333333 31:1 32:-0.333333 33:-1 34:0.333333 35:0.333333 36:1 37:-0.333333 38:-1 39:0.333333 40:-1 41:-1 42:-0.333333 43:-1 44:-0.333333 45:-1 46:-0.333333 47:-1 48:-1 49:1 50:-0.333333 51:1 52:-0.333333 53:-1 54:-1 55:0.333333 56:0.333333 57:-1 58:-0.333333 59:1 60:-0.333333 
5.33245374623772 1:-1 2:-0.333333 3:-1 4:-1 5:-1 6:-0.333333 7:0.333333 8:0.333333 9:-1 10:-1 11:-1 12:-1 13:1 14:-0.333333 15:1 16:1 17:1 18:-0.333333 19:1 20:1 21:1 22:1 23:1 24:1 25:1 26:-1 27:-1 28:-0.333333 29:-1 30:1 31:1 32:0.333333 33:1 34:-0.333333 35:-1 36:-1 37:-1 38:1 39:-0.333333 40:1 41:-0.333333 42:1 43:1 44:-0.333333 45:1 46:-0.333333 47:-1 48:0.333333 49:-1 50:-1 51:0.333333 52:-1 53:-1 54:1 55:-0.333333 56:-1 57:0.333333 58:0.333333 59:1 60:-1 
55.9016994375 1:-0.333333 2:1 3:-0.333333 4:-0.333333 5:-0.333333 6:-1 7:0.333333 8:0.333333 9:-1 10:0.333333 11:-1 12:-0.333333 13:0.333333 14:0.333333 15:-1 16:-0.333333 17:-0.333333 18:-1 19:0.333333 20:-0.333333 21:-0.333333 22:0.333333 23:0.333333 24:0.333333 25:1 26:1 27:0.333333 28:-1 29:-1 30:-0.333333 31:-1 32:1 33:-1 34:-0.333333 35:-0.333333 36:-0.333333 37:-0.333333 38:0.333333 39:1 40:-0.333333 41:-1 42:-0.333333 43:-0.333333 44:-0.333333 45:-1 46:-0.333333 47:-0.333333 48:0.333333 49:0.333333 50:-1 51:-1 52:-0.333333 53:-0.333333 54:-0.333333 55:-0.333333 56:-1 57:-1 58:0.333333 59:-1 60:1 
23.25530212643212 1:-0.333333 2:-1 3:1 4:-0.333333 5:-0.333333 6:-1 7:-0.333333 8:-0.333333 9:-0.333333 10:1 11:1 12:1 13:-0.333333 14:1 15:0.333333 16:1 17:-1 18:0.333333 19:-1 20:1 21:-1 22:-0.333333 23:0.333333 24:-0.333333 25:-0.333333 26:-0.333333 27:0.333333 28:-1 29:-1 30:-0.333333 31:1 32:-0.333333 33:1 34:-0.333333 35:-0.333333 36:1 37:0.333333 38:1 39:-0.333333 40:-0.333333 41:1 42:-0.333333 43:0.333333 44:0.333333 45:1 46:-0.333333 47:1 48:0.333333 49:1 50:1 51:-0.333333 52:-0.333333 53:0.333333 54:-1 55:-0.333333 56:-1 57:-1 58:-1 59:-1 60:0.333333 
9.446811170610749 1:1 2:-0.333333 3:-0.333333 4:-1 5:1 6:1 7:-1 8:0.333333 9:-1 10:-0.333333 11:-0.333333 12:0.333333 13:-1 14:1 15:-0.333333 16:-1 17:-0.333333 18:0.333333 19:0.333333 20:-1 21:0.333333 22:0.333333 23:-0.333333 24:1 25:-0.333333 26:0.333333 27:0.333333 28:0.333333 29:-0.333333 30:-0.333333 31:0.333333 32:0.333333 33:1 34:1 35:-1 36:1 37:0.333333 38:-1 39:0.333333 40:-1 41:1 42:1 43:1 44:-1 45:1 46:1 47:-1 48:1 49:1 50:1 51:-1 52:1 53:1 54:-0.333333 55:1 56:1 57:1 58:1 59:1 60:0.333333 
9.020547485799003 1:0.333333 2:1 3:0.333333 4:1 5:-1 6:0.333333 7:1 8:-1 9:-1 10:-1 11:-1 12:-1 13:1 14:-1 15:1 16:-1 17:-1 18:-1 19:-1 20:-1 21:1 22:1 23:-1 24:-0.333333 25:0.333333 26:1 27:-0.333333 28:-0.333333 29:-0.333333 30:0.333333 31:-0.333333 32:1 33:-0.333333 34:-0.333333 35:1 36:-1 37:-0.333333 38:1 39:-0.333333 40:0.333333 41:-1 42:1 43:-0.333333 44:-0.333333 45:0.333333 46:1 47:-0.333333 48:1 49:0.333333 50:-1 51:1 52:0.333333 53:0.333333 54:0.333333 55:-1 56:-0.333333 57:1 58:1 59:-1 60:0.333333 
20.78343924418748 1:-1 2:-0.333333 3:1 4:-1 5:-1 6:0.333333 7:-0.333333 8:0.333333 9:0.333333 10:1 11:0.333333 12:0.333333 13:0.333333 14:0.333333 15:0.333333 16:0.333333 17:-1 18:-0.333333 19:-0.333333 20:0.333333 21:1 22:-0.333333 23:-0.333333 24:1 25:-0.333333 26:-1 27:-1 28:-1 29:-1 30:-1 31:-0.333333 32:-1 33:-1 34:1 35:-0.333333 36:-1 37:-0.333333 38:-0.333333 39:-1 40:-1 41:-0.333333 42:0.333333 43:1 44:-0.333333 45:0.333333 46:1 47:-0.333333 48:-1 49:1 50:-0.333333 51:-1 52:-0.333333 53:-0.333333 54:1 55:0.333333 56:1 57:1 58:0.333333 59:-1 60:-1 
55.9016994375 1:-0.333333 2:0.333333 3:1 4:-0.333333 5:-1 6:-0.333333 7:0.333333 8:-0.333333 9:-1 10:0.333333 11:0.333333 12:1 13:-0.333333 14:0.333333 15:-1 16:0.333333 17:-0.333333 18:0.333333 19:-0.333333 20:0.333333 21:-1 22:0.333333 23:-1 24:-1 25:-0.333333 26:0.333333 27:1 28:1 29:0.333333 30:-0.333333 31:-0.333333 32:-0.333333 33:1 34:-0.333333 35:-0.333333 36:-1 37:0.333333 38:0.333333 39:0.333333 40:-0.333333 41:-0.333333 42:1 43:0.333333 44:-1 45:-1 46:0.333333 47:1 48:1 49:0.333333 50:-1 51:-1 52:-0.333333 53:-0.333333 54:1 55:-0.333333 56:-1 57:-0.333333 58:0.333333 59:-0.333333 60:-0.333333 
39.16863356307338 1:1 2:1 3:0.333333 4:0.333333 5:-1 6:-1 7:-0.333333 8:-0.333333 9:-1 10:-0.333333 11:-0.333333 12:-0.333333 13:-1 14:0.333333 15:0.333333 16:1 17:0.333333 18:1 19:0.333333 20:1 21:-0.333333 22:0.333333 23:0.333333 24:0.333333 25:0.333333 26:0.333333 27:0.333333 28:-1 29:0.333333 30:0.333333 31:-1 32:1 33:1 34:-1 35:0.333333 36:0.333333 37:-1 38:1 39:0.333333 40:-1 41:0.333333 42:1 43:-0.333333 44:1 45:-0.333333 46:-1 47:0.333333 48:1 49:1 50:1 51:0.333333 52:0.333333 53:0.333333 54:0.333333 55:-1 56:-1 57:-0.333333 58:0.333333 59:0.333333 60:0.333333 
39.87094837471054 1:1 2:-0.333333 3:-0.333333 4:-0.333333 5:1 6:-1 7:0.333333 8:0.333333 9:-1 10:0.333333 11:1 12:-0.333333 13:-0.333333 14:0.333333 15:1 16:-0.333333 17:-1 18:-0.333333 19:1 20:-1 21:-0.333333 22:-0.333333 23:-1 24:-1 25:-1 26:-0.333333 27:-0.333333 28:-0.333333 29:-0.333333 30:-1 31:-1 32:-0.333333 33:-1 34:0.333333 35:0.333333 36:-1 37:-0.333333 38:-0.333333 39:1 40:-0.333333 41:-0.333333 42:0.333333 43:1 44:0.333333 45:0.333333 46:-1 47:1 48:-0.333333 49:0.333333 50:0.333333 51:1 52:1 53:1 54:0.333333 55:0.333333 56:0.333333 57:0.333333 58:-1 59:-0.333333 60:-0.333333 
21.98703217106121 1:0.333333 2:-0.333333 3:0.333333 4:0.333333 5:0.333333 6:1 7:0.333333 8:0.333333 9:1 10:0.333333 11:0.333333 12:0.333333 13:1 14:1 15:-0.333333 16:1 17:1 18:1 19:-1 20:-0.333333 21:-1 22:-1 23:1 24:1 25:-0.333333 26:1 27:0.333333 28:1 29:1 30:0.333333 31:-0.333333 32:1 33:0.333333 34:-0.333333 35:1 36:0.333333 37:-1 38:1 39:-0.333333 40:-1 41:1 42:-1 43:-1 44:-1 45:0.333333 46:0.333333 47:0.333333 48:-0.333333 49:1 50:1 51:0.333333 52:1 53:-0.333333 54:1 55:-0.333333 56:1 57:0.333333 58:0.333333 59:0.333333 60:0.333333 
16.85636002732209 1:1 2:1 3:0.333333 4:-0.333333 5:0.333333 6:1 7:1 8:1 9:0.333333 10:0.333333 11:1 12:0.333333 13:1 14:-0.333333 15:-0.333333 16:1 17:1 18:1 19:-0.333333 20:-1 21:-1 22:-1 23:-0.333333 24:0.333333 25:0.333333 26:1 27:0.333333 28:1 29:-0.333333 30:-0.333333 31:-1 32:-1 33:-1 34:-1 35:0.333333 36:1 37:0.333333 38:-1 39:-0.333333 40:-0.333333 41:-1 42:1 43:1 44:0.333333 45:1 46:0.333333 47:-1 48:0.333333 49:-0.333333 50:-1 51:0.333333 52:1 53:0.333333 54:1 55:-1 56:0.333333 57:0.333333 58:-1 59:1 60:-0.333333 
34.94447460026181 1:0.333333 2:1 3:-0.333333 4:-1 5:0.333333 6:-1 7:-0.333333 8:-1 9:-1 10:1 11:-0.333333 12:-1 13:-1 14:0.333333 15:0.333333 16:1 17:-0.333333 18:0.333333 19:-1 20:-0.333333 21:-1 22:0.333333 23:0.333333 24:0.333333 25:1 26:-0.333333 27:0.333333 28:-0.333333 29:0.333333 30:-0.333333 31:-0.333333 32:0.333333 33:1 34:-1 35:0.333333 36:1 37:-1 38:0.333333 39:-1 40:-1 41:0.333333 42:0.333333 43:-1 44:-0.333333 45:-1 46:-0.333333 47:0.333333 48:-0.333333 49:-1 50:-0.333333 51:-0.333333 52:0.333333 53:0.333333 54:-1 55:-0.333333 56:1 57:-0.333333 58:-1 59:-0.333333 60:1 
11.27840166230663 1:-1 2:0.333333 3:0.333333 4:1 5:1 6:1 7:-0.333333 8:1 9:1 10:-0.333333 11:-0.333333 12:1 13:1 14:-0.333333 15:1 16:-1 17:-1 18:-1 19:1 20:0.333333 21:1 22:-0.333333 23:1 24:0.333333 25:1 26:1 27:-1 28:0.333333 29:0.333333 30:-1 31:-1 32:1 33:-0.333333 34:-0.333333 35:1 36:-0.333333 37:-0.333333 38:1 39:1 40:1 41:-0.333333 42:1 43:1 44:0.333333 45:0.333333 46:0.333333 47:1 48:0.333333 49:0.333333 50:1 51:-0.333333 52:-1 53:-1 54:0.333333 55:-1 56:-0.333333 57:1 58:1 59:1 60:1 
7.3575317889382 1:-1 2:-0.333333 3:1 4:-0.333333 5:-1 6:1 7:1 8:-0.333333 9:-1 10:0.333333 11:1 12:1 13:1 14:-1 15:-1 16:0.333333 17:1 18:-0.333333 19:0.333333 20:-1 21:0.333333 22:0.333333 23:-1 24:0.333333 25:-1 26:-1 27:-0.333333 28:1 29:1 30:0.333333 31:1 32:-0.333333 33:1 34:0.333333 35:1 36:0.333333 37:1 38:1 39:0.333333 40:-1 41:-0.333333 42:0.333333 43:-1 44:0.333333 45:1 46:-0.333333 47:-0.333333 48:0.333333 49:0.333333 50:-1 51:-1 52:1 53:-1 54:0.333333 55:0.333333 56:-1 57:-1 58:-1 59:-0.333333 60:-1 
24.67377289753546 1:0.333333 2:-0.333333 3:-0.333333 4:-0.333333 5:0.333333 6:-0.333333 7:-0.333333 8:-0.333333 9:1 10:0.333333 11:1 12:-0.333333 13:-0.333333 14:-1 15:-1 16:-1 17:-1 18:-1 19:-1 20:-1 21:1 22:1 23:-1 24:0.333333 25:1 26:-0.333333 27:0.333333 28:0.333333 29:-0.333333 30:1 31:-1 32:-1 33:0.333333 34:0.333333 35:0.333333 36:1 37:-0.333333 38:-1 39:1 40:-0.333333 41:-0.333333 42:1 43:-0.333333 44:-1 45:1 46:-0.333333 47:1 48:-1 49:-0.333333 50:-0.333333 51:1 52:-0.333333 53:-0.333333 54:1 55:0.333333 56:0.333333 57:0.333333 58:1 59:-0.333333 60:-0.333333 
5.082044258150704 1:-0.333333 2:-1 3:-0.333333 4:1 5:-0.333333 6:1 7:0.333333 8:-1 9:1 10:-0.333333 11:-1 12:1 13:1 14:1 15:1 16:0.333333 17:-1 18:1 19:-0.333333 20:-0.333333 21:-1 22:-0.333333 23:-0.333333 24:-1 25:-1 26:-0.333333 27:1 28:1 29:-1 30:-1 31:1 32:-1 33:1 34:1 35:0.333333 36:-1 37:1 38:0.333333 39:0.333333 40:1 41:0.333333 42:1 43:-1 44:-1 45:-0.333333 46:1 47:-1 48:1 49:-1 50:0.333333 51:1 52:0.333333 53:-1 54:-0.333333 55:-1 56:0.333333 57:1 58:-1 59:-0.333333 60:-0.333333 
55.9016994375 1:0.333333 2:1 3:-0.333333 4:1 5:0.333333 6:1 7:0.333333 8:-1 9:0.333333 10:0.333333 11:1 12:-0.333333 13:1 14:-0.333333 15:0.333333 16:0.333333 17:1 18:1 19:0.333333 20:1 21:0.333333 22:0.333333 23:0.333333 24:1 25:-1 26:0.333333 27:1 28:-0.333333 29:-1 30:-1 31:0.333333 32:-1 33:0.333333 34:-1 35:0.333333 36:-0.333333 37:0.333333 38:-1 39:0.333333 40:-0.333333 41:-0.333333 42:-0.333333 43:-1 44:1 45:-0.333333 46:-0.333333 47:-0.333333 48:0.333333 49:0.333333 50:1 51:-0.333333 52:-0.333333 53:-0.333333 54:-0.333333 55:-0.333333 56:-0.333333 57:-1 58:0.333333 59:0.333333 60:0.333333 
55.9016994375 1:-0.333333 2:1 3:-0.333333 4:0.333333 5:0.333333 6:1 7:-0.333333 8:-1 9:-1 10:1 11:1 12:1 13:1 14:0.333333 15:1 16:-0.333333 17:-1 18:0.333333 19:1 20:0.333333 21:1 22:1 23:0.333333 24:0.333333 25:0.333333 26:0.333333 27:1 28:0.333333 29:-1 30:-0.333333 31:-1 32:-0.333333 33:0.333333 34:0.333333 35:0.333333 36:0.333333 37:0.333333 38:-1 39:-1 40:-1 41:-0.333333 42:-1 43:0.333333 44:-1 45:0.333333 46:-1 47:0.333333 48:-0.333333 49:1 50:-0.333333 51:-1 52:0.333333 53:1 54:0.333333 55:-1 56:0.333333 57:0.333333 58:-1 59:0.333333 60:0.333333 
8.763113246131711 1:-0.333333 2:0.333333 3:1 4:-0.333333 5:-1 6:1 7:-1 8:-1 9:-1 10:-0.333333 11:-1 12:0.333333 13:-1 14:1 15:-1 16:0.333333 17:0.333333 18:1 19:-0.333333 20:-1 21:-0.333333 22:-1 23:0.333333 24:1 25:-0.333333 26:-0.333333 27:-0.333333 28:1 29:-1 30:-1 31:1 32:1 33:-1 34:0.333333 35:-1 36:-1 37:-1 38:-1 39:-0.333333 40:-1 41:-1 42:-1 43:-0.333333 44:-0.333333 45:1 46:1 47:1 48:-1 49:1 50:1 51:-0.333333 52:-0.333333 53:-1 54:0.333333 55:1 56:0.333333 57:-1 58:0.333333 59:-1 60:-0.333333 
37.64223780880312 1:-0.333333 2:-1 3:-0.333333 4:-1 5:-0.333333 6:-1 7:-0.333333 8:0.333333 9:0.333333 10:0.333333 11:0.333333 12:-1 13:-0.333333 14:-1 15:0.333333 16:1 17:-0.333333 18:-1 19:-0.333333 20:-0.333333 21:-0.333333 22:-1 23:-1 24:-0.333333 25:0.333333 26:-1 27:1 28:-0.333333 29:-0.333333 30:-1 31:1 32:-0.333333 33:-0.333333 34:-1 35:1 36:-0.333333 37:-0.333333 38:-1 39:-0.333333 40:-1 41:-1 42:-0.333333 43:-0.333333 44:-1 45:1 46:-0.333333 47:0.333333 48:0.333333 49:1 50:0.333333 51:-0.333333 52:0.333333 53:1 54:-0.333333 55:-0.333333 56:-0.333333 57:-0.333333 58:-1 59:0.333333 60:1 
17.70643607672709 1:1 2:0.333333 3:1 4:-0.333333 5:-1 6:-0.333333 7:0.333333 8:1 9:0.333333 10:1 11:-0.333333 12:0.333333 13:-1 14:1 15:1 16:1 17:-0.333333 18:1 19:0.333333 20:1 21:-1 22:1 23:1 24:0.333333 25:1 26:0.333333 27:0.333333 28:-1 29:-0.333333 30:0.333333 31:1 32:-0.333333 33:-1 34:0.333333 35:0.333333 36:0.333333 37:1 38:-0.333333 39:-0.333333 40:1 41:1 42:0.333333 43:1 44:0.333333 45:1 46:0.333333 47:1 48:0.333333 49:1 50:1 51:-1 52:-0.333333 53:0.333333 54:1 55:-1 56:0.333333 57:0.333333 58:1 59:-0.333333 60:0.333333 
55.9016994375 1:-0.333333 2:0.333333 3:0.333333 4:-0.333333 5:1 6:-0.333333 7:-0.333333 8:1 9:1 10:1 11:1 12:1 13:1 14:1 15:-0.333333 16:0.333333 17:1 18:1 19:0.333333 20:-1 21:0.333333 22:0.333333 23:-1 24:0.333333 25:0.333333 26:0.333333 27:1 28:-0.333333 29:-1 30:-0.333333 31:-0.333333 32:1 33:-0.333333 34:0.333333 35:-0.333333 36:1 37:0.333333 38:0.333333 39:1 40:-0.333333 41:-0.333333 42:-0.333333 43:-0.333333 44:-1 45:0.333333 46:-1 47:-1 48:-0.333333 49:0.333333 50:-1 51:-1 52:-1 53:-1 54:-0.333333 55:-0.333333 56:0.333333 57:1 58:0.333333 59:0.333333 60:1 
32.15653250897672 1:-1 2:1 3:-1 4:1 5:0.333333 6:-1 7:0.333333 8:-1 9:0.333333 10:-0.333333 11:-0.333333 12:-0.333333 13:0.333333 14:0.333333 15:1 16:1 17:1 18:-0.333333 19:-1 20:-1 21:-0.333333 22:-0.333333 23:-0.333333 24:0.333333 25:-1 26:-0.333333 27:-0.333333 28:0.333333 29:-1 30:0.333333 31:-1 32:0.333333 33:-0.333333 34:-0.333333 35:1 36:-0.333333 37:0.333333 38:-1 39:-0.333333 40:-1 41:1 42:-1 43:-0.333333 44:-1 45:1 46:0.333333 47:1 48:-0.333333 49:-0.333333 50:-1 51:-1 52:-1 53:-0.333333 54:-0.333333 55:-1 56:0.333333 57:-0.333333 58:-0.333333 59:0.333333 60:-0.333333 
46.47886921158731 1:-1 2:0.333333 3:0.333333 4:1 5:1 6:-0.333333 7:-0.333333 8:0.333333 9:0.333333 10:-0.333333 11:1 12:-0.333333 13:0.333333 14:1 15:0.333333 16:1 17:1 18:0.333333 19:0.333333 20:1 21:-0.333333 22:-1 23:0.333333 24:-0.333333 25:-0.333333 26:-0.333333 27:1 28:-1 29:-0.333333 30:-0.333333 31:1 32:-0.333333 33:1 34:0.333333 35:0.333333 36:0.333333 37:0.333333 38:1 39:-1 40:-1 41:0.333333 42:0.333333 43:1 44:-1 45:-0.333333 46:-0.333333 47:-1 48:-0.333333 49:0.333333 50:0.333333 51:-1 52:-1 53:0.333333 54:0.333333 55:-1 56:1 57:0.333333 58:-0.333333 59:-0.333333 60:-0.333333 
39.42078245472481 1:1 2:0.333333 3:-1 4:1 5:1 6:1 7:1 8:1 9:-0.333333 10:-0.333333 11:-0.333333 12:0.333333 13:0.333333 14:0.333333 15:0.333333 16:1 17:1 18:1 19:0.333333 20:1 21:0.333333 22:1 23:-0.333333 24:0.333333 25:0.333333 26:0.333333 27:1 28:1 29:-1 30:-0.333333 31:-0.333333 32:1 33:-0.333333 34:1 35:0.333333 36:-1 37:-0.333333 38:-1 39:0.333333 40:0.333333 41:1 42:-0.333333 43:-1 44:0.333333 45:0.333333 46:0.333333 47:-1 48:-0.333333 49:-0.333333 50:0.333333 51:-1 52:-0.333333 53:0.333333 54:0.333333 55:-1 56:-1 57:0.333333 58:-1 59:-1 60:-0.333333 
5.62675163155289 1:1 2:-1 3:-1 4:0.333333 5:1 6:0.333333 7:1 8:1 9:1 10:0.333333 11:0.333333 12:-1 13:0.333333 14:0.333333 15:-1 16:-1 17:1 18:1 19:1 20:0.333333 21:-1 22:-1 23:-1 24:1 25:-1 26:-0.333333 27:1 28:-0.333333 29:0.333333 30:-0.333333 31:-0.333333 32:0.333333 33:1 34:1 35:-1 36:-1 37:-1 38:-1 39:-0.333333 40:-1 41:1 42:-0.333333 43:-1 44:-1 45:-0.333333 46:-0.333333 47:-1 48:-0.333333 49:-1 50:-0.333333 51:0.333333 52:1 53:-1 54:-1 55:-1 56:0.333333 57:-1 58:-1 59:-1 60:0.333333 
26.73094663356328 1:-0.333333 2:0.333333 3:1 4:-0.333333 5:-0.333333 6:-1 7:-1 8:-0.333333 9:-1 10:-0.333333 11:-0.333333 12:-0.333333 13:0.333333 14:-1 15:-1 16:-1 17:-0.333333 18:1 19:-0.333333 20:-0.333333 21:-1 22:0.333333 23:-0.333333 24:-0.333333 25:-0.333333 26:-1 27:-0.333333 28:1 29:-0.333333 30:-0.333333 31:-1 32:0.333333 33:-1 34:-0.333333 35:-0.333333 36:-1 37:-0.333333 38:1 39:-0.333333 40:-0.333333 41:-1 42:1 43:-0.333333 44:0.333333 45:-0.333333 46:-1 47:1 48:-1 49:-1 50:-0.333333 51:-1 52:1 53:-0.333333 54:1 55:-0.333333 56:-0.333333 57:1 58:1 59:1 60:-0.333333 
55.9016994375 1:0.333333 2:0.333333 3:0.333333 4:1 5:-0.333333 6:-1 7:1 8:-0.333333 9:-1 10:-1 11:-0.333333 12:-0.333333 13:0.333333 14:-1 15:0.333333 16:0.333333 17:1 18:1 19:-0.333333 20:-0.333333 21:-0.333333 22:-0.333333 23:0.333333 24:1 25:1 26:0.333333 27:0.333333 28:0.333333 29:1 30:-0.333333 31:0.333333 32:0.333333 33:-0.333333 34:0.333333 35:-1 36:1 37:0.333333 38:0.333333 39:1 40:0.333333 41:1 42:0.333333 43:0.333333 44:0.333333 45:0.333333 46:1 47:0.333333 48:-1 49:-0.333333 50:-0.333333 51:-1 52:-1 53:-0.333333 54:-0.333333 55:-0.333333 56:-0.333333 57:-1 58:0.333333 59:1 60:-0.333333 
11.9974764289979 1:0.333333 2:1 3:1 4:-1 5:-1 6:0.333333 7:1 8:-0.333333 9:-1 10:1 11:-0.333333 12:-1 13:0.333333 14:-1 15:1 16:1 17:0.333333 18:0.333333 19:-1 20:0.333333 21:0.333333 22:-1 23:0.333333 24:-1 25:-1 26:-1 27:-1 28:-0.333333 29:-1 30:-1 31:-0.333333 32:1 33:-0.333333 34:-1 35:-1 36:-1 37:-1 38:1 39:-0.333333 40:-0.333333 41:0.333333 42:0.333333 43:-0.333333 44:-0.333333 45:1 46:0.333333 47:0.333333 48:1 49:1 50:-0.333333 51:0.333333 52:0.333333 53:1 54:1 55:-1 56:-1 57:-0.333333 58:1 59:-0.333333 60:-1 
15.20207336138732 1:0.333333 2:-0.333333 3:0.333333 4:1 5:-0.333333 6:-1 7:1 8:-1 9:0.333333 10:0.333333 11:1 12:-1 13:1 14:-0.333333 15:0.333333 16:0.333333 17:-1 18:-0.333333 19:0.333333 20:-1 21:0.333333 22:0.333333 23:-1 24:1 25:-1 26:-0.333333 27:-0.333333 28:-0.333333 29:0.333333 30:-1 31:0.333333 32:1 33:-1 34:1 35:-0.333333 36:-1 37:1 38:-1 39:1 40:1 41:-1 42:-1 43:1 44:-0.333333 45:0.333333 46:-1 47:0.333333 48:-1 49:0.333333 50:-0.333333 51:0.333333 52:0.333333 53:1 54:-0.333333 55:1 56:-0.333333 57:1 58:1 59:-1 60:0.333333 
7.202275044646316 1:1 2:1 3:-1 4:1 5:1 6:1 7:1 8:-1 9:1 10:-1 11:1 12:-1 13:1 14:1 15:1 16:-1 17:1 18:1 19:1 20:1 21:-1 22:1 23:1 24:1 25:1 26:1 27:1 28:1 29:-1 30:-0.333333 31:-1 32:-0.333333 33:-1 34:-0.333333 35:1 36:0.333333 37:1 38:0.333333 39:-1 40:0.333333 41:1 42:0.333333 43:1 44:-0.333333 45:1 46:0.333333 47:-0.333333 48:0.333333 49:0.333333 50:0.333333 51:-1 52:-1 53:-0.333333 54:0.333333 55:1 56:-0.333333 57:-0.333333 58:-1 59:-0.333333 60:1 
55.9016994375 1:-0.333333 2:-0.333333 3:-0.333333 4:-0.333333 5:-1 6:0.333333 7:0.333333 8:-1 9:1 10:-0.333333 11:-0.333333 12:-0.333333 13:-0.333333 14:-1 15:-0.333333 16:-0.333333 17:-0.333333 18:0.333333 19:-1 20:0.333333 21:-1 22:-0.333333 23:1 24:-0.333333 25:-0.333333 26:-0.333333 27:-0.333333 28:-1 29:-0.333333 30:-0.333333 31:-0.333333 32:-0.333333 33:-1 34:-0.333333 35:-1 36:-0.333333 37:1 38:-0.333333 39:-1 40:-0.333333 41:-0.333333 42:-1 43:-1 44:-0.333333 45:-0.333333 46:-0.333333 47:-1 48:0.333333 49:-1 50:-0.333333 51:1 52:-0.333333 53:-1 54:-0.333333 55:-0.333333 56:-1 57:-0.333333 58:-0.333333 59:-0.333333 60:-0.333333 
55.9016994375 1:-0.333333 2:-0.333333 3:0.333333 4:0.333333 5:1 6:0.333333 7:1 8:0.333333 9:0.333333 10:1 11:1 12:0.333333 13:1 14:0.333333 15:1 16:1 17:0.333333 18:0.333333 19:1 20:1 21:0.333333 22:-1 23:0.333333 24:1 25:1 26:1 27:-0.333333 28:0.333333 29:-1 30:-0.333333 31:-1 32:-0.333333 33:-0.333333 34:0.333333 35:1 36:-0.333333 37:-0.333333 38:-1 39:-1 40:-0.333333 41:-1 42:0.333333 43:-0.333333 44:-0.333333 45:0.333333 46:-1 47:-0.333333 48:0.333333 49:0.333333 50:-0.333333 51:0.333333 52:0.333333 53:-0.333333 54:-0.333333 55:-1 56:0.333333 57:1 58:-0.333333 59:-0.333333 60:-0.333333 
19.93256543094123 1:1 2:-0.333333 3:-1 4:1 5:-0.333333 6:-0.333333 7:-0.333333 8:-0.333333 9:-0.333333 10:0.333333 11:-1 12:-0.333333 13:-0.333333 14:-0.333333 15:-0.333333 16:-1 17:1 18:-0.333333 19:-0.333333 20:-1 21:-1 22:0.333333 23:-1 24:1 25:0.333333 26:-1 27:0.333333 28:-1 29:0.333333 30:-1 31:1 32:-0.333333 33:-0.333333 34:-0.333333 35:0.333333 36:-1 37:1 38:-1 39:-1 40:-1 41:-0.333333 42:-0.333333 43:-1 44:-1 45:1 46:0.333333 47:1 48:0.333333 49:-1 50:-0.333333 51:-1 52:-0.333333 53:0.333333 54:0.333333 55:-1 56:-0.333333 57:-1 58:-0.333333 59:0.333333 60:-1 
42.13815023225219 1:-1 2:-0.333333 3:0.333333 4:1 5:-0.333333 6:-0.333333 7:0.333333 8:-1 9:1 10:-1 11:1 12:0.333333 13:-0.333333 14:-0.333333 15:0.333333 16:0.333333 17:-0.333333 18:0.333333 19:0.333333 20:0.333333 21:-1 22:-1 23:-0.333333 24:1 25:-0.333333 26:-1 27:0.333333 28:0.333333 29:0.333333 30:1 31:-0.333333 32:1 33:0.333333 34:0.333333 35:-1 36:-0.333333 37:1 38:-0.333333 39:1 40:0.333333 41:1 42:-0.333333 43:0.333333 44:1 45:1 46:-0.333333 47:0.333333 48:0.333333 49:-1 50:1 51:0.333333 52:0.333333 53:1 54:-0.333333 55:0.333333 56:0.333333 57:-1 58:-0.333333 59:-1 60:-1 
26.87018830638153 1:-0.333333 2:-0.333333 3:1 4:-0.333333 5:1 6:1 7:-0.333333 8:0.333333 9:1 10:0.333333 11:1 12:1 13:-1 14:-0.333333 15:-0.333333 16:-1 17:1 18:-0.333333 19:1 20:-1 21:1 22:0.333333 23:0.333333 24:0.333333 25:0.333333 26:1 27:0.333333 28:-1 29:-1 30:-1 31:0.333333 32:0.333333 33:1 34:-1 35:0.333333 36:0.333333 37:1 38:-0.333333 39:-0.333333 40:1 41:-0.333333 42:-0.333333 43:1 44:1 45:0.333333 46:1 47:-0.333333 48:1 49:-0.333333 50:0.333333 51:0.333333 52:1 53:1 54:0.333333 55:0.333333 56:0.333333 57:0.333333 58:1 59:-1 60:0.333333 
