svm_type c_svc
kernel_type polynomial
degree 3
gamma 0.0166667
coef0 0
nr_class 2
total_sv 1891
rho -0.357661
label 1 -1
nr_sv 1011 880
SV
0.6837770920286264 1:1 2:0.333333 3:1 4:1 5:0.333333 6:-1 7:1 8:1 9:-1 10:1 11:-0.333333 12:-1 13:1 14:0.333333 15:1 16:0.333333 17:0.333333 18:-1 19:1 20:-1 21:1 22:1 23:-0.333333 24:-0.333333 25:-1 26:0.333333 27:-1 28:-1 29:-1 30:1 31:-0.333333 32:-1 33:-1 34:0.333333 35:1 36:-0.333333 37:-1 38:-1 39:0.333333 40:-1 41:-0.333333 42:-1 43:-0.333333 44:-1 45:1 46:-1 47:-1 48:-1 49:-1 50:-1 51:1 52:1 53:0.333333 54:0.333333 55:0.333333 56:0.333333 57:-1 58:1 59:0.333333 60:-1 
15.91424290618252 1:1 2:-0.333333 3:0.333333 4:-1 5:-0.333333 6:0.333333 7:-0.333333 8:-1 9:0.333333 10:0.333333 11:1 12:0.333333 13:0.333333 14:1 15:-0.333333 16:1 17:1 18:1 19:1 20:0.333333 21:1 22:0.333333 23:0.333333 24:1 25:1 26:-0.333333 27:-0.333333 28:0.333333 29:-1 30:-0.333333 31:-1 32:-1 33:-0.333333 34:-0.333333 35:-1 36:-1 37:-0.333333 38:0.333333 39:0.333333 40:-1 41:1 42:0.333333 43:1 44:0.333333 45:0.333333 46:0.333333 47:0.333333 48:1 49:0.333333 50:0.333333 51:-1 52:-0.333333 53:-1 54:1 55:-0.333333 56:0.333333 57:-0.333333 58:-0.333333 59:0.333333 60:0.333333 
2.765784713749389 1:0.333333 2:0.333333 3:-0.333333 4:-1 5:-1 6:-0.333333 7:-0.333333 8:-0.333333 9:-1 10:1 11:0.333333 12:-1 13:-0.333333 14:-0.333333 15:-0.333333 16:-1 17:-0.333333 18:0.333333 19:0.333333 20:-1 21:-1 22:-1 23:-0.333333 24:-0.333333 25:1 26:-0.333333 27:-1 28:0.333333 29:1 30:-0.333333 31:-0.333333 32:-0.333333 33:-1 34:-1 35:-0.333333 36:0.333333 37:1 38:-1 39:-1 40:-1 41:-0.333333 42:0.333333 43:-1 44:-1 45:0.333333 46:-0.333333 47:-1 48:1 49:0.333333 50:-1 51:0.333333 52:0.333333 53:1 54:-1 55:-1 56:-1 57:1 58:1 59:-1 60:0.333333 
8.136893866274276 1:-0.333333 2:-1 3:-1 4:-0.333333 5:-0.333333 6:0.333333 7:0.333333 8:-1 9:-0.333333 10:-0.333333 11:-1 12:0.333333 13:-0.333333 14:0.333333 15:0.333333 16:-1 17:1 18:0.333333 19:-1 20:0.333333 21:-1 22:-0.333333 23:-1 24:0.333333 25:0.333333 26:-1 27:-0.333333 28:-0.333333 29:0.333333 30:-1 31:-0.333333 32:-1 33:0.333333 34:-1 35:1 36:0.333333 37:-1 38:-0.333333 39:-0.333333 40:-0.333333 41:0.333333 42:-0.333333 43:-1 44:-0.333333 45:-1 46:1 47:-0.333333 48:-0.333333 49:-1 50:-0.333333 51:1 52:-0.333333 53:0.333333 54:1 55:0.333333 56:-1 57:0.333333 58:0.333333 59:1 60:0.333333 
55.9016994375 1:-0.333333 2:0.333333 3:-0.333333 4:0.333333 5:0.333333 6:0.333333 7:-0.333333 8:0.333333 9:0.333333 10:0.333333 11:0.333333 12:1 13:0.333333 14:0.333333 15:-0.333333 16:0.333333 17:-0.333333 18:0.333333 19:0.333333 20:-0.333333 21:0.333333 22:0.333333 23:1 24:-0.333333 25:0.333333 26:0.333333 27:0.333333 28:-0.333333 29:0.333333 30:0.333333 31:0.333333 32:-0.333333 33:0.333333 34:0.333333 35:0.333333 36:-0.333333 37:0.333333 38:0.333333 39:-0.333333 40:0.333333 41:-0.333333 42:0.333333 43:1 44:0.333333 45:0.333333 46:0.333333 47:-0.333333 48:0.333333 49:0.333333 50:0.333333 51:-0.333333 52:0.333333 53:0.333333 54:-0.333333 55:0.333333 56:1 57:0.333333 58:1 59:0.333333 60:0.333333 
4.26719367625207 1:1 2:-1 3:0.333333 4:1 5:-0.333333 6:1 7:-1 8:1 9:0.333333 10:-1 11:-1 12:-0.333333 13:1 14:0.333333 15:-1 16:1 17:-0.333333 18:-0.333333 19:0.333333 20:-1 21:-0.333333 22:-0.333333 23:1 24:-1 25:0.333333 26:-1 27:-0.333333 28:1 29:-1 30:-0.333333 31:-0.333333 32:-1 33:1 34:-1 35:-1 36:-0.333333 37:0.333333 38:0.333333 39:-1 40:0.333333 41:1 42:0.333333 43:1 44:-0.333333 45:1 46:0.333333 47:0.333333 48:0.333333 49:1 50:1 51:0.333333 52:0.333333 53:1 54:-0.333333 55:-0.333333 56:-0.333333 57:0.333333 58:-1 59:-1 60:-1 
2.614354575225347 1:-1 2:-1 3:-1 4:0.333333 5:1 6:-0.333333 7:-0.333333 8:-0.333333 9:-0.333333 10:0.333333 11:0.333333 12:1 13:-0.333333 14:-1 15:-0.333333 16:-1 17:0.333333 18:-0.333333 19:0.333333 20:0.333333 21:0.333333 22:0.333333 23:1 24:-0.333333 25:-0.333333 26:0.333333 27:0.333333 28:-1 29:1 30:-0.333333 31:-0.333333 32:-1 33:0.333333 34:0.333333 35:-0.333333 36:0.333333 37:1 38:1 39:0.333333 40:0.333333 41:0.333333 42:-1 43:1 44:-1 45:0.333333 46:0.333333 47:1 48:-0.333333 49:-0.333333 50:0.333333 51:1 52:0.333333 53:1 54:-0.333333 55:1 56:0.333333 57:0.333333 58:-1 59:-1 60:-0.333333 
10.03361983608142 1:-0.333333 2:-0.333333 3:0.333333 4:-1 5:0.333333 6:0.333333 7:-0.333333 8:-1 9:-0.333333 10:0.333333 11:-1 12:-0.333333 13:1 14:1 15:0.333333 16:-0.333333 17:0.333333 18:-0.333333 19:1 20:0.333333 21:0.333333 22:-1 23:1 24:-0.333333 25:0.333333 26:-0.333333 27:-0.333333 28:-0.333333 29:-1 30:0.333333 31:0.333333 32:1 33:-0.333333 34:1 35:-1 36:0.333333 37:-1 38:1 39:0.333333 40:-1 41:-1 42:-0.333333 43:-1 44:-1 45:0.333333 46:-0.333333 47:-0.333333 48:0.333333 49:0.333333 50:-1 51:-0.333333 52:-0.333333 53:-0.333333 54:0.333333 55:1 56:1 57:0.333333 58:-1 59:1 60:0.333333 
0.6090832436565186 1:-0.333333 2:1 3:-1 4:1 5:0.333333 6:0.333333 7:1 8:0.333333 9:0.333333 10:0.333333 11:0.333333 12:-1 13:1 14:1 15:0.333333 16:1 17:-1 18:-1 19:0.333333 20:0.333333 21:-1 22:0.333333 23:-1 24:1 25:-0.333333 26:-1 27:1 28:0.333333 29:0.333333 30:0.333333 31:0.333333 32:-1 33:-1 34:-0.333333 35:-0.333333 36:-1 37:1 38:0.333333 39:1 40:0.333333 41:0.333333 42:1 43:1 44:-1 45:1 46:0.333333 47:1 48:-1 49:1 50:0.333333 51:0.333333 52:0.333333 53:0.333333 54:-0.333333 55:-0.333333 56:-0.333333 57:-1 58:1 59:0.333333 60:0.333333 
3.630314257493343 1:-0.333333 2:1 3:0.333333 4:-1 5:-1 6:0.333333 7:-1 8:-1 9:-0.333333 10:1 11:-1 12:0.333333 13:0.333333 14:-0.333333 15:1 16:-1 17:-1 18:-0.333333 19:-0.333333 20:-0.333333 21:-1 22:-1 23:-1 24:-0.333333 25:1 26:1 27:-0.333333 28:-1 29:-1 30:-1 31:-1 32:-0.333333 33:-1 34:-1 35:0.333333 36:1 37:1 38:1 39:-0.333333 40:-1 41:-1 42:-0.333333 43:-1 44:-0.333333 45:-1 46:-0.333333 47:-1 48:-0.333333 49:1 50:1 51:0.333333 52:-1 53:-1 54:-0.333333 55:-1 56:-0.333333 57:-0.333333 58:-0.333333 59:0.333333 60:-0.333333 
6.360561872786846 1:-0.333333 2:-0.333333 3:-1 4:-1 5:0.333333 6:0.333333 7:0.333333 8:0.333333 9:-1 10:0.333333 11:-1 12:-0.333333 13:1 14:-0.333333 15:-0.333333 16:-1 17:-0.333333 18:-0.333333 19:1 20:-0.333333 21:-0.333333 22:-1 23:1 24:0.333333 25:1 26:0.333333 27:1 28:-1 29:1 30:-1 31:0.333333 32:1 33:-0.333333 34:0.333333 35:0.333333 36:-1 37:-1 38:-1 39:-0.333333 40:-0.333333 41:1 42:0.333333 43:1 44:1 45:1 46:1 47:0.333333 48:0.333333 49:-0.333333 50:-0.333333 51:-0.333333 52:0.333333 53:1 54:-0.333333 55:0.333333 56:-1 57:-0.333333 58:1 59:-0.333333 60:0.333333 
5.312936885804941 1:-1 2:-0.333333 3:1 4:-0.333333 5:-0.333333 6:-1 7:-0.333333 8:1 9:0.333333 10:-0.333333 11:-0.333333 12:-0.333333 13:-0.333333 14:-0.333333 15:0.333333 16:1 17:1 18:1 19:-0.333333 20:1 21:-0.333333 22:0.333333 23:1 24:-0.333333 25:-0.333333 26:-0.333333 27:0.333333 28:0.333333 29:1 30:-0.333333 31:0.333333 32:1 33:0.333333 34:1 35:1 36:0.333333 37:0.333333 38:1 39:1 40:-0.333333 41:-0.333333 42:-0.333333 43:-0.333333 44:0.333333 45:0.333333 46:-0.333333 47:-0.333333 48:-0.333333 49:1 50:1 51:-0.333333 52:1 53:1 54:0.333333 55:-1 56:1 57:0.333333 58:1 59:-1 60:0.333333 
5.764974879685942 1:0.333333 2:-1 3:-0.333333 4:-1 5:-0.333333 6:0.333333 7:1 8:-0.333333 9:0.333333 10:-0.333333 11:-1 12:-0.333333 13:-0.333333 14:-1 15:-0.333333 16:-1 17:-0.333333 18:-0.333333 19:-1 20:-1 21:1 22:0.333333 23:1 24:0.333333 25:0.333333 26:-0.333333 27:-0.333333 28:-0.333333 29:-1 30:-0.333333 31:-1 32:-1 33:0.333333 34:-0.333333 35:-0.333333 36:-0.333333 37:1 38:-1 39:1 40:-0.333333 41:-1 42:-0.333333 43:1 44:-0.333333 45:1 46:-0.333333 47:-1 48:-0.333333 49:1 50:-0.333333 51:-0.333333 52:0.333333 53:-0.333333 54:0.333333 55:1 56:-1 57:1 58:-1 59:-1 60:0.333333 
4.480177373458 1:-0.333333 2:0.333333 3:-0.333333 4:1 5:0.333333 6:0.333333 7:-0.333333 8:-1 9:0.333333 10:1 11:-0.333333 12:0.333333 13:-0.333333 14:-0.333333 15:-0.333333 16:-0.333333 17:0.333333 18:-1 19:-0.333333 20:1 21:-0.333333 22:-1 23:-1 24:-0.333333 25:0.333333 26:-1 27:0.333333 28:1 29:-0.333333 30:0.333333 31:0.333333 32:1 33:-0.333333 34:0.333333 35:-1 36:-0.333333 37:-1 38:0.333333 39:0.333333 40:-0.333333 41:1 42:1 43:1 44:-0.333333 45:-0.333333 46:-1 47:-1 48:0.333333 49:-1 50:-1 51:-0.333333 52:0.333333 53:0.333333 54:-1 55:-1 56:0.333333 57:-1 58:-0.333333 59:1 60:-0.333333 
12.49423257844696 1:0.333333 2:1 3:0.333333 4:1 5:0.333333 6:0.333333 7:0.333333 8:1 9:0.333333 10:0.333333 11:0.333333 12:1 13:-0.333333 14:-1 15:-0.333333 16:0.333333 17:1 18:-0.333333 19:-0.333333 20:-1 21:-0.333333 22:0.333333 23:-1 24:-1 25:0.333333 26:-1 27:-0.333333 28:0.333333 29:-1 30:-0.333333 31:-0.333333 32:-1 33:-1 34:0.333333 35:-1 36:-0.333333 37:0.333333 38:-1 39:1 40:0.333333 41:-1 42:-0.333333 43:-0.333333 44:-1 45:-0.333333 46:0.333333 47:-1 48:-0.333333 49:0.333333 50:-1 51:-0.333333 52:0.333333 53:-1 54:-0.333333 55:-0.333333 56:-1 57:-0.333333 58:0.333333 59:-1 60:-0.333333 
9.546864244594904 1:-0.333333 2:-0.333333 3:-1 4:-1 5:1 6:-0.333333 7:-0.333333 8:1 9:-0.333333 10:-1 11:0.333333 12:1 13:-0.333333 14:-0.333333 15:-1 16:0.333333 17:1 18:1 19:1 20:0.333333 21:0.333333 22:-1 23:-0.333333 24:-1 25:1 26:0.333333 27:0.333333 28:1 29:-0.333333 30:-0.333333 31:1 32:-0.333333 33:-1 34:1 35:-0.333333 36:0.333333 37:1 38:-0.333333 39:-0.333333 40:-1 41:-1 42:-1 43:1 44:-0.333333 45:-1 46:0.333333 47:1 48:0.333333 49:0.333333 50:0.333333 51:0.333333 52:-1 53:-0.333333 54:0.333333 55:-0.333333 56:1 57:-0.333333 58:-0.333333 59:-1 60:-0.333333 
46.51701906912736 1:-0.333333 2:-0.333333 3:0.333333 4:0.333333 5:1 6:0.333333 7:-0.333333 8:-0.333333 9:0.333333 10:-0.333333 11:0.333333 12:0.333333 13:1 14:0.333333 15:-0.333333 16:0.333333 17:-0.333333 18:-0.333333 19:0.333333 20:0.333333 21:-0.333333 22:0.333333 23:-0.333333 24:0.333333 25:-0.333333 26:1 27:-0.333333 28:-0.333333 29:0.333333 30:0.333333 31:-0.333333 32:1 33:-0.333333 34:0.333333 35:-0.333333 36:0.333333 37:1 38:0.333333 39:1 40:-0.333333 41:0.333333 42:0.333333 43:1 44:-1 45:1 46:-0.333333 47:-0.333333 48:-0.333333 49:-0.333333 50:-0.333333 51:0.333333 52:0.333333 53:0.333333 54:-0.333333 55:-0.333333 56:1 57:-0.333333 58:-0.333333 59:-0.333333 60:0.333333 
5.222379629461087 1:1 2:-0.333333 3:0.333333 4:-0.333333 5:0.333333 6:-0.333333 7:-0.333333 8:0.333333 9:1 10:-1 11:0.333333 12:1 13:-1 14:0.333333 15:-1 16:-1 17:0.333333 18:0.333333 19:-1 20:-0.333333 21:-1 22:-0.333333 23:0.333333 24:-0.333333 25:-1 26:-0.333333 27:-0.333333 28:0.333333 29:0.333333 30:-0.333333 31:-0.333333 32:-0.333333 33:1 34:0.333333 35:1 36:0.333333 37:-1 38:0.333333 39:-1 40:0.333333 41:0.333333 42:0.333333 43:1 44:0.333333 45:0.333333 46:-1 47:-0.333333 48:-1 49:-0.333333 50:-0.333333 51:-1 52:1 53:-0.333333 54:1 55:-1 56:1 57:-0.333333 58:-0.333333 59:0.333333 60:1 
1.062035177248611 1:-1 2:-1 3:-0.333333 4:-1 5:1 6:0.333333 7:-1 8:0.333333 9:1 10:-0.333333 11:1 12:-1 13:-0.333333 14:1 15:-0.333333 16:-0.333333 17:-0.333333 18:1 19:-0.333333 20:1 21:1 22:-0.333333 23:-0.333333 24:-1 25:0.333333 26:-1 27:-1 28:-0.333333 29:1 30:1 31:-0.333333 32:-0.333333 33:1 34:-1 35:1 36:-0.333333 37:-0.333333 38:0.333333 39:-0.333333 40:1 41:-0.333333 42:1 43:-0.333333 44:0.333333 45:1 46:-1 47:1 48:0.333333 49:-1 50:-0.333333 51:0.333333 52:-1 53:1 54:1 55:0.333333 56:1 57:-0.333333 58:-0.333333 59:-0.333333 60:-1 
11.8250186988236 1:-0.333333 2:-1 3:1 4:-0.333333 5:-0.333333 6:0.333333 7:0.333333 8:-0.333333 9:0.333333 10:-1 11:-0.333333 12:-0.333333 13:-0.333333 14:-0.333333 15:0.333333 16:-1 17:-0.333333 18:-0.333333 19:-0.333333 20:0.333333 21:1 22:0.333333 23:-1 24:-0.333333 25:-0.333333 26:0.333333 27:1 28:-0.333333 29:1 30:-0.333333 31:-0.333333 32:-0.333333 33:0.333333 34:-0.333333 35:0.333333 36:0.333333 37:1 38:-0.333333 39:-1 40:-0.333333 41:-0.333333 42:0.333333 43:1 44:1 45:0.333333 46:-1 47:-0.333333 48:0.333333 49:1 50:-0.333333 51:-0.333333 52:-0.333333 53:-0.333333 54:0.333333 55:-1 56:-0.333333 57:-0.333333 58:0.333333 59:1 60:1 
6.274780530555168 1:-1 2:-1 3:-0.333333 4:1 5:1 6:0.333333 7:0.333333 8:1 9:-0.333333 10:-0.333333 11:0.333333 12:1 13:1 14:0.333333 15:1 16:-0.333333 17:1 18:-0.333333 19:-1 20:-0.333333 21:0.333333 22:-1 23:0.333333 24:0.333333 25:-0.333333 26:1 27:-0.333333 28:0.333333 29:1 30:-0.333333 31:-1 32:0.333333 33:0.333333 34:1 35:0.333333 36:0.333333 37:-1 38:-1 39:-1 40:1 41:-1 42:0.333333 43:0.333333 44:-0.333333 45:1 46:1 47:-1 48:-1 49:-0.333333 50:0.333333 51:1 52:-0.333333 53:-0.333333 54:-1 55:-0.333333 56:0.333333 57:0.333333 58:1 59:0.333333 60:-0.333333 
7.224806550376281 1:1 2:-1 3:1 4:-1 5:-1 6:1 7:0.333333 8:0.333333 9:0.333333 10:-1 11:-0.333333 12:0.333333 13:1 14:-1 15:0.333333 16:1 17:1 18:-0.333333 19:-1 20:-0.333333 21:-1 22:-0.333333 23:-0.333333 24:0.333333 25:1 26:-0.333333 27:-1 28:-0.333333 29:-0.333333 30:0.333333 31:-1 32:-0.333333 33:-0.333333 34:-1 35:-0.333333 36:-1 37:-1 38:1 39:0.333333 40:-1 41:0.333333 42:1 43:1 44:-0.333333 45:-1 46:-1 47:0.333333 48:0.333333 49:-1 50:-0.333333 51:-0.333333 52:-0.333333 53:-1 54:-0.333333 55:-0.333333 56:1 57:-0.333333 58:-1 59:-1 60:-0.333333 
55.9016994375 1:-1 2:1 3:1 4:0.333333 5:0.333333 6:-1 7:-1 8:-1 9:-1 10:-1 11:1 12:-0.333333 13:0.333333 14:1 15:1 16:1 17:0.333333 18:1 19:1 20:1 21:0.333333 22:0.333333 23:0.333333 24:0.333333 25:0.333333 26:1 27:-0.333333 28:0.333333 29:-1 30:-0.333333 31:-0.333333 32:1 33:-0.333333 34:-1 35:-0.333333 36:-1 37:-1 38:-0.333333 39:-1 40:1 41:-0.333333 42:-1 43:0.333333 44:-1 45:-0.333333 46:-1 47:-0.333333 48:-0.333333 49:-1 50:-1 51:-0.333333 52:-1 53:-1 54:-0.333333 55:1 56:-1 57:-0.333333 58:-1 59:-0.333333 60:-1 
4.573428932005037 1:-0.333333 2:-0.333333 3:1 4:0.333333 5:-1 6:0.333333 7:-1 8:-1 9:0.333333 10:1 11:0.333333 12:1 13:0.333333 14:0.333333 15:0.333333 16:0.333333 17:-1 18:-0.333333 19:-1 20:-0.333333 21:-1 22:-1 23:-0.333333 24:-0.333333 25:1 26:-0.333333 27:-0.333333 28:1 29:-0.333333 30:1 31:-0.333333 32:-1 33:-0.333333 34:-0.333333 35:0.333333 36:0.333333 37:-1 38:1 39:0.333333 40:-1 41:0.333333 42:-0.333333 43:-0.333333 44:-1 45:-1 46:-0.333333 47:-1 48:1 49:-0.333333 50:0.333333 51:1 52:-0.333333 53:0.333333 54:1 55:-0.333333 56:0.333333 57:1 58:1 59:0.333333 60:1 
2.534819760024361 1:0.333333 2:1 3:-1 4:-1 5:1 6:1 7:1 8:-1 9:-1 10:-1 11:-1 12:-1 13:1 14:1 15:1 16:1 17:-1 18:-1 19:-1 20:-1 21:1 22:1 23:1 24:-1 25:-1 26:1 27:1 28:0.333333 29:0.333333 30:-1 31:1 32:1 33:-1 34:-0.333333 35:-1 36:-1 37:-1 38:-1 39:0.333333 40:-1 41:-1 42:-1 43:-1 44:0.333333 45:1 46:-0.333333 47:-1 48:0.333333 49:1 50:1 51:1 52:1 53:-1 54:-1 55:-0.333333 56:-1 57:-1 58:0.333333 59:-1 60:-1 
4.457761787677664 1:1 2:-1 3:1 4:0.333333 5:1 6:1 7:-0.333333 8:-0.333333 9:0.333333 10:1 11:1 12:-1 13:1 14:-1 15:-0.333333 16:-1 17:1 18:-0.333333 19:-0.333333 20:0.333333 21:0.333333 22:-0.333333 23:1 24:0.333333 25:1 26:1 27:0.333333 28:1 29:1 30:0.333333 31:0.333333 32:0.333333 33:-0.333333 34:1 35:-0.333333 36:1 37:0.333333 38:1 39:0.333333 40:1 41:-1 42:0.333333 43:-1 44:0.333333 45:-1 46:0.333333 47:0.333333 48:-0.333333 49:1 50:0.333333 51:1 52:1 53:0.333333 54:0.333333 55:1 56:1 57:0.333333 58:1 59:-0.333333 60:1 
3.977612768676201 1:-0.333333 2:-0.333333 3:0.333333 4:1 5:1 6:1 7:-0.333333 8:-1 9:-0.333333 10:-1 11:-1 12:-0.333333 13:-0.333333 14:-0.333333 15:1 16:-0.333333 17:-0.333333 18:-1 19:0.333333 20:-1 21:-0.333333 22:-1 23:-0.333333 24:-0.333333 25:0.333333 26:1 27:0.333333 28:0.333333 29:1 30:-1 31:-0.333333 32:0.333333 33:0.333333 34:0.333333 35:0.333333 36:-1 37:0.333333 38:0.333333 39:-1 40:-0.333333 41:-0.333333 42:-0.333333 43:-1 44:1 45:-0.333333 46:0.333333 47:1 48:1 49:-1 50:-0.333333 51:0.333333 52:0.333333 53:-1 54:-1 55:-0.333333 56:0.333333 57:-1 58:-0.333333 59:1 60:0.333333 
4.532592466404418 1:1 2:-1 3:-0.333333 4:1 5:-1 6:-1 7:-1 8:-1 9:-1 10:0.333333 11:-1 12:0.333333 13:0.333333 14:-1 15:0.333333 16:1 17:1 18:-1 19:0.333333 20:1 21:-1 22:-1 23:-1 24:1 25:-1 26:-0.333333 27:0.333333 28:1 29:-0.333333 30:-1 31:1 32:1 33:1 34:-0.333333 35:0.333333 36:1 37:-1 38:-1 39:-1 40:-0.333333 41:0.333333 42:-1 43:-0.333333 44:-1 45:0.333333 46:0.333333 47:1 48:0.333333 49:-1 50:1 51:1 52:0.333333 53:0.333333 54:-1 55:1 56:1 57:1 58:-1 59:-1 60:-0.333333 
6.213379149527719 1:-1 2:0.333333 3:1 4:1 5:0.333333 6:1 7:-0.333333 8:0.333333 9:1 10:0.333333 11:-1 12:-0.333333 13:-0.333333 14:1 15:-0.333333 16:-0.333333 17:-1 18:-1 19:1 20:1 21:-0.333333 22:-1 23:-1 24:0.333333 25:-1 26:-1 27:-0.333333 28:-1 29:-1 30:-0.333333 31:0.333333 32:-0.333333 33:-0.333333 34:-0.333333 35:-1 36:-0.333333 37:-0.333333 38:0.333333 39:1 40:-0.333333 41:-1 42:-0.333333 43:1 44:1 45:1 46:0.333333 47:-1 48:-0.333333 49:-1 50:-1 51:-1 52:0.333333 53:1 54:-0.333333 55:0.333333 56:-0.333333 57:0.333333 58:-1 59:-0.333333 60:-0.333333 
18.57419518286827 1:-0.333333 2:1 3:0.333333 4:-1 5:-0.333333 6:-0.333333 7:-0.333333 8:1 9:-0.333333 10:1 11:0.333333 12:0.333333 13:0.333333 14:0.333333 15:0.333333 16:-1 17:1 18:-0.333333 19:0.333333 20:0.333333 21:1 22:-0.333333 23:-0.333333 24:-1 25:-1 26:-0.333333 27:-1 28:-0.333333 29:-0.333333 30:-1 31:-0.333333 32:0.333333 33:1 34:-0.333333 35:-0.333333 36:1 37:-0.333333 38:0.333333 39:1 40:-0.333333 41:0.333333 42:0.333333 43:-1 44:-0.333333 45:0.333333 46:0.333333 47:0.333333 48:1 49:-0.333333 50:-0.333333 51:-0.333333 52:0.333333 53:0.333333 54:0.333333 55:-0.333333 56:-0.333333 57:0.333333 58:-1 59:0.333333 60:-1 
0.9144459216097495 1:0.333333 2:0.333333 3:-1 4:-1 5:-1 6:1 7:-0.333333 8:-0.333333 9:1 10:-0.333333 11:-1 12:0.333333 13:1 14:-1 15:0.333333 16:1 17:0.333333 18:-1 19:0.333333 20:0.333333 21:1 22:1 23:1 24:-1 25:-1 26:-0.333333 27:-0.333333 28:-1 29:1 30:1 31:-1 32:-1 33:-1 34:0.333333 35:-1 36:0.333333 37:-1 38:-0.333333 39:-1 40:-1 41:0.333333 42:1 43:-0.333333 44:-0.333333 45:-1 46:-0.333333 47:-1 48:1 49:-0.333333 50:-1 51:-1 52:-1 53:1 54:0.333333 55:-1 56:0.333333 57:-0.333333 58:1 59:-1 60:0.333333 
0.8382152831761376 1:1 2:-0.333333 3:-1 4:0.333333 5:1 6:1 7:1 8:-0.333333 9:0.333333 10:-1 11:0.333333 12:0.333333 13:1 14:-0.333333 15:0.333333 16:1 17:0.333333 18:1 19:-0.333333 20:1 21:-0.333333 22:-1 23:1 24:1 25:-1 26:1 27:-0.333333 28:-1 29:0.333333 30:1 31:-1 32:1 33:0.333333 34:0.333333 35:0.333333 36:-1 37:0.333333 38:-1 39:-0.333333 40:1 41:0.333333 42:1 43:0.333333 44:0.333333 45:1 46:-0.333333 47:-0.333333 48:1 49:1 50:-0.333333 51:1 52:0.333333 53:1 54:-1 55:0.333333 56:0.333333 57:0.333333 58:-1 59:1 60:-0.333333 
1.024554592979329 1:0.333333 2:-1 3:-1 4:-0.333333 5:-1 6:-1 7:-0.333333 8:0.333333 9:0.333333 10:-1 11:-1 12:-1 13:-0.333333 14:0.333333 15:-1 16:-0.333333 17:1 18:-0.333333 19:-1 20:-1 21:-0.333333 22:-0.333333 23:1 24:1 25:-0.333333 26:0.333333 27:-1 28:-0.333333 29:-1 30:-0.333333 31:-1 32:-1 33:1 34:1 35:1 36:1 37:0.333333 38:1 39:1 40:-1 41:0.333333 42:1 43:-1 44:-1 45:-1 46:-1 47:1 48:-0.333333 49:0.333333 50:0.333333 51:-1 52:-1 53:-0.333333 54:-0.333333 55:-1 56:1 57:1 58:0.333333 59:-1 60:1 
7.519270779520194 1:-0.333333 2:-0.333333 3:0.333333 4:1 5:0.333333 6:1 7:0.333333 8:-1 9:-0.333333 10:0.333333 11:0.333333 12:0.333333 13:1 14:1 15:0.333333 16:1 17:-0.333333 18:1 19:1 20:1 21:1 22:0.333333 23:-1 24:-1 25:-0.333333 26:-0.333333 27:0.333333 28:0.333333 29:-1 30:1 31:0.333333 32:-1 33:1 34:-0.333333 35:-0.333333 36:-1 37:-0.333333 38:-1 39:-1 40:-1 41:0.333333 42:1 43:-0.333333 44:-0.333333 45:-1 46:-0.333333 47:-1 48:1 49:-0.333333 50:1 51:0.333333 52:0.333333 53:-1 54:-1 55:-0.333333 56:1 57:1 58:0.333333 59:0.333333 60:-1 
5.499785731763261 1:1 2:-1 3:1 4:0.333333 5:1 6:-1 7:-0.333333 8:-0.333333 9:-1 10:-0.333333 11:-0.333333 12:-0.333333 13:1 14:0.333333 15:-1 16:0.333333 17:-1 18:-0.333333 19:-1 20:-0.333333 21:-1 22:0.333333 23:-1 24:1 25:-0.333333 26:-1 27:0.333333 28:0.333333 29:0.333333 30:-1 31:-0.333333 32:0.333333 33:-1 34:0.333333 35:0.333333 36:-0.333333 37:-0.333333 38:0.333333 39:0.333333 40:0.333333 41:-1 42:-0.333333 43:1 44:-0.333333 45:-1 46:0.333333 47:0.333333 48:1 49:-0.333333 50:-0.333333 51:1 52:-0.333333 53:0.333333 54:-1 55:-0.333333 56:-0.333333 57:-1 58:0.333333 59:1 60:0.333333 
4.994862266211297 1:-0.333333 2:1 3:-1 4:1 5:-1 6:1 7:-0.333333 8:0.333333 9:-1 10:1 11:1 12:1 13:-0.333333 14:-0.333333 15:-1 16:-1 17:1 18:1 19:-0.333333 20:1 21:1 22:0.333333 23:1 24:-0.333333 25:1 26:-1 27:1 28:-0.333333 29:-1 30:-1 31:1 32:1 33:-0.333333 34:-1 35:1 36:-0.333333 37:-1 38:0.333333 39:1 40:-0.333333 41:-0.333333 42:-1 43:0.333333 44:-1 45:-0.333333 46:1 47:1 48:-1 49:0.333333 50:0.333333 51:1 52:1 53:-1 54:1 55:1 56:0.333333 57:-1 58:-1 59:-1 60:0.333333 
5.186979230908926 1:0.333333 2:1 3:-0.333333 4:1 5:-1 6:0.333333 7:0.333333 8:-1 9:-1 10:0.333333 11:-1 12:-1 13:0.333333 14:-0.333333 15:-1 16:-0.333333 17:-0.333333 18:-1 19:-0.333333 20:0.333333 21:-1 22:0.333333 23:-0.333333 24:-0.333333 25:-0.333333 26:-0.333333 27:-0.333333 28:0.333333 29:0.333333 30:1 31:0.333333 32:1 33:-0.333333 34:-0.333333 35:-1 36:-1 37:-0.333333 38:1 39:0.333333 40:-1 41:1 42:-0.333333 43:-1 44:-0.333333 45:-1 46:-0.333333 47:1 48:-1 49:-0.333333 50:-1 51:-1 52:-1 53:-1 54:-1 55:0.333333 56:0.333333 57:-1 58:-0.333333 59:1 60:0.333333 
20.54369745000334 1:-0.333333 2:1 3:0.333333 4:1 5:-0.333333 6:-1 7:1 8:0.333333 9:0.333333 10:0.333333 11:0.333333 12:0.333333 13:1 14:-0.333333 15:-1 16:0.333333 17:0.333333 18:0.333333 19:-1 20:-0.333333 21:0.333333 22:-1 23:0.333333 24:0.333333 25:0.333333 26:0.333333 27:0.333333 28:1 29:0.333333 30:0.333333 31:-0.333333 32:0.333333 33:-1 34:-0.333333 35:-0.333333 36:1 37:-0.333333 38:0.333333 39:0.333333 40:-0.333333 41:1 42:-0.333333 43:0.333333 44:0.333333 45:0.333333 46:0.333333 47:1 48:0.333333 49:-1 50:1 51:0.333333 52:0.333333 53:-1 54:-0.333333 55:1 56:0.333333 57:1 58:0.333333 59:-0.333333 60:-0.333333 
1.533520801943503 1:0.333333 2:-1 3:1 4:1 5:-1 6:-1 7:1 8:1 9:1 10:1 11:-0.333333 12:1 13:-0.333333 14:0.333333 15:-1 16:1 17:1 18:0.333333 19:1 20:1 21:1 22:-0.333333 23:-0.333333 24:1 25:-1 26:-1 27:1 28:1 29:1 30:1 31:1 32:1 33:1 34:1 35:-0.333333 36:1 37:1 38:1 39:1 40:1 41:1 42:-0.333333 43:1 44:-1 45:-1 46:0.333333 47:1 48:-1 49:0.333333 50:-1 51:-1 52:-1 53:-0.333333 54:0.333333 55:1 56:1 57:1 58:-0.333333 59:0.333333 60:1 
6.521743601391167 1:-0.333333 2:0.333333 3:-1 4:0.333333 5:0.333333 6:-1 7:-0.333333 8:0.333333 9:1 10:-0.333333 11:1 12:1 13:-0.333333 14:1 15:-0.333333 16:-0.333333 17:-0.333333 18:0.333333 19:1 20:-0.333333 21:-0.333333 22:0.333333 23:0.333333 24:-1 25:1 26:-0.333333 27:1 28:0.333333 29:0.333333 30:0.333333 31:0.333333 32:1 33:1 34:0.333333 35:1 36:0.333333 37:-1 38:0.333333 39:0.333333 40:0.333333 41:1 42:-0.333333 43:1 44:-0.333333 45:1 46:-0.333333 47:-0.333333 48:-0.333333 49:1 50:0.333333 51:1 52:1 53:-0.333333 54:-1 55:0.333333 56:-1 57:0.333333 58:0.333333 59:1 60:1 
4.800526530742984 1:1 2:0.333333 3:-1 4:1 5:0.333333 6:1 7:0.333333 8:1 9:1 10:-1 11:1 12:-1 13:-0.333333 14:-1 15:1 16:1 17:-1 18:-1 19:0.333333 20:1 21:1 22:0.333333 23:0.333333 24:1 25:1 26:0.333333 27:0.333333 28:-1 29:-1 30:-1 31:-1 32:1 33:-0.333333 34:1 35:0.333333 36:-1 37:0.333333 38:0.333333 39:-1 40:1 41:1 42:0.333333 43:0.333333 44:1 45:-0.333333 46:1 47:-1 48:0.333333 49:0.333333 50:1 51:-0.333333 52:-0.333333 53:1 54:1 55:0.333333 56:1 57:0.333333 58:1 59:1 60:-0.333333 
0.0879743444226405 1:-0.333333 2:0.333333 3:1 4:-1 5:1 6:1 7:-0.333333 8:-0.333333 9:-1 10:-0.333333 11:-0.333333 12:-1 13:1 14:0.333333 15:1 16:1 17:-0.333333 18:-1 19:-1 20:-1 21:-0.333333 22:-0.333333 23:0.333333 24:1 25:-0.333333 26:1 27:1 28:-0.333333 29:1 30:1 31:-1 32:1 33:0.333333 34:0.333333 35:1 36:1 37:0.333333 38:1 39:-0.333333 40:1 41:-0.333333 42:-0.333333 43:-1 44:0.333333 45:-1 46:-1 47:0.333333 48:-1 49:-1 50:0.333333 51:-1 52:-0.333333 53:0.333333 54:-1 55:-1 56:-1 57:-1 58:1 59:-0.333333 60:1 
4.036304238397986 1:-1 2:0.333333 3:0.333333 4:-1 5:-0.333333 6:-0.333333 7:-0.333333 8:-1 9:-1 10:1 11:-0.333333 12:-0.333333 13:0.333333 14:-1 15:-0.333333 16:0.333333 17:-1 18:-0.333333 19:0.333333 20:-1 21:1 22:-0.333333 23:0.333333 24:-1 25:-0.333333 26:-1 27:-1 28:1 29:0.333333 30:1 31:1 32:-1 33:-0.333333 34:0.333333 35:-1 36:0.333333 37:1 38:0.333333 39:1 40:1 41:1 42:-1 43:-0.333333 44:0.333333 45:-1 46:0.333333 47:-1 48:-1 49:1 50:-1 51:1 52:1 53:1 54:1 55:-0.333333 56:1 57:-1 58:1 59:1 60:-1 
2.815967863484376 1:-0.333333 2:-1 3:0.333333 4:-1 5:-1 6:0.333333 7:1 8:1 9:0.333333 10:0.333333 11:0.333333 12:0.333333 13:-1 14:-0.333333 15:-1 16:1 17:-1 18:0.333333 19:0.333333 20:0.333333 21:0.333333 22:-0.333333 23:1 24:-0.333333 25:-0.333333 26:-0.333333 27:0.333333 28:-1 29:-1 30:-0.333333 31:1 32:1 33:0.333333 34:1 35:1 36:0.333333 37:0.333333 38:-1 39:-1 40:1 41:-1 42:1 43:-0.333333 44:-1 45:0.333333 46:-1 47:0.333333 48:0.333333 49:1 50:-0.333333 51:-0.333333 52:-1 53:-1 54:-0.333333 55:0.333333 56:-1 57:-0.333333 58:1 59:0.333333 60:0.333333 
5.106998266728585 1:0.333333 2:1 3:-0.333333 4:-0.333333 5:1 6:-0.333333 7:1 8:1 9:1 10:1 11:1 12:1 13:0.333333 14:0.333333 15:1 16:0.333333 17:-1 18:-1 19:-0.333333 20:0.333333 21:0.333333 22:1 23:1 24:0.333333 25:1 26:-0.333333 27:1 28:1 29:1 30:-1 31:0.333333 32:1 33:1 34:-1 35:1 36:-0.333333 37:-0.333333 38:-0.333333 39:-1 40:-1 41:-0.333333 42:0.333333 43:1 44:-1 45:0.333333 46:1 47:-1 48:1 49:-0.333333 50:-0.333333 51:1 52:-0.333333 53:-0.333333 54:0.333333 55:1 56:-0.333333 57:0.333333 58:1 59:1 60:-1 
3.150822253149599 1:-0.333333 2:1 3:1 4:-0.333333 5:-0.333333 6:-0.333333 7:-0.333333 8:-1 9:-1 10:-1 11:1 12:-0.333333 13:0.333333 14:-1 15:1 16:1 17:-0.333333 18:1 19:0.333333 20:-1 21:-0.333333 22:-1 23:-1 24:-1 25:-1 26:1 27:1 28:-0.333333 29:0.333333 30:0.333333 31:1 32:-0.333333 33:1 34:-0.333333 35:1 36:1 37:0.333333 38:1 39:-1 40:0.333333 41:0.333333 42:1 43:-0.333333 44:1 45:-1 46:0.333333 47:1 48:-0.333333 49:-1 50:1 51:-0.333333 52:-0.333333 53:-1 54:1 55:-0.333333 56:-0.333333 57:0.333333 58:-1 59:1 60:-1 
5.132102015432573 1:1 2:1 3:-0.333333 4:1 5:-0.333333 6:-1 7:-1 8:-1 9:-1 10:-0.333333 11:1 12:1 13:-0.333333 14:1 15:1 16:-1 17:-1 18:-1 19:-1 20:-1 21:0.333333 22:-1 23:-1 24:-0.333333 25:0.333333 26:1 27:-1 28:-1 29:-1 30:1 31:-0.333333 32:1 33:-0.333333 34:-1 35:-1 36:0.333333 37:1 38:1 39:-1 40:-1 41:0.333333 42:0.333333 43:0.333333 44:1 45:0.333333 46:-1 47:0.333333 48:1 49:0.333333 50:1 51:-1 52:-1 53:-0.333333 54:0.333333 55:1 56:1 57:1 58:0.333333 59:0.333333 60:0.333333 
8.820807300874534 1:1 2:0.333333 3:0.333333 4:0.333333 5:-0.333333 6:0.333333 7:0.333333 8:1 9:1 10:0.333333 11:1 12:-0.333333 13:-0.333333 14:-0.333333 15:0.333333 16:-1 17:1 18:0.333333 19:1 20:-0.333333 21:0.333333 22:0.333333 23:1 24:-0.333333 25:-1 26:0.333333 27:-1 28:1 29:0.333333 30:0.333333 31:-1 32:0.333333 33:-0.333333 34:-0.333333 35:1 36:-0.333333 37:0.333333 38:-1 39:-0.333333 40:0.333333 41:1 42:-0.333333 43:-0.333333 44:1 45:-0.333333 46:-1 47:0.333333 48:-1 49:0.333333 50:-1 51:-0.333333 52:0.333333 53:1 54:1 55:-1 56:1 57:-0.333333 58:0.333333 59:0.333333 60:0.333333 
5.824469217053788 1:0.333333 2:1 3:-0.333333 4:0.333333 5:1 6:-1 7:0.333333 8:1 9:1 10:0.333333 11:1 12:-1 13:-0.333333 14:1 15:1 16:1 17:0.333333 18:-1 19:-0.333333 20:0.333333 21:1 22:-0.333333 23:-0.333333 24:0.333333 25:-1 26:1 27:-0.333333 28:0.333333 29:-0.333333 30:-0.333333 31:-1 32:0.333333 33:1 34:-0.333333 35:-1 36:-1 37:-0.333333 38:-1 39:1 40:0.333333 41:1 42:0.333333 43:0.333333 44:0.333333 45:-1 46:-1 47:-1 48:-0.333333 49:-0.333333 50:0.333333 51:1 52:-0.333333 53:1 54:-0.333333 55:-0.333333 56:1 57:-0.333333 58:1 59:1 60:0.333333 
6.506250730596438 1:-1 2:-0.333333 3:-0.333333 4:-0.333333 5:0.333333 6:0.333333 7:-1 8:-1 9:0.333333 10:-0.333333 11:1 12:-0.333333 13:0.333333 14:1 15:-0.333333 16:0.333333 17:-0.333333 18:-0.333333 19:-0.333333 20:0.333333 21:1 22:0.333333 23:1 24:-0.333333 25:0.333333 26:1 27:-0.333333 28:1 29:1 30:-0.333333 31:-1 32:-1 33:-1 34:0.333333 35:-1 36:0.333333 37:-1 38:-0.333333 39:0.333333 40:0.333333 41:-1 42:0.333333 43:0.333333 44:0.333333 45:-1 46:-1 47:-0.333333 48:1 49:-0.333333 50:-1 51:1 52:-0.333333 53:-1 54:-0.333333 55:-1 56:-1 57:-0.333333 58:-0.333333 59:-1 60:0.333333 
5.129633703278073 1:-0.333333 2:-1 3:-0.333333 4:0.333333 5:1 6:0.333333 7:0.333333 8:0.333333 9:-1 10:-0.333333 11:-1 12:-0.333333 13:0.333333 14:-1 15:-0.333333 16:0.333333 17:-1 18:-1 19:-0.333333 20:-1 21:-0.333333 22:-0.333333 23:-0.333333 24:0.333333 25:0.333333 26:-1 27:-0.333333 28:0.333333 29:1 30:-0.333333 31:-1 32:-1 33:-0.333333 34:0.333333 35:-1 36:0.333333 37:0.333333 38:1 39:-0.333333 40:-0.333333 41:-1 42:-0.333333 43:-1 44:-1 45:-0.333333 46:0.333333 47:-1 48:-0.333333 49:-0.333333 50:-1 51:-0.333333 52:-0.333333 53:0.333333 54:-1 55:0.333333 56:-1 57:-0.333333 58:0.333333 59:1 60:-0.333333 
4.630180901396164 1:-1 2:1 3:1 4:0.333333 5:-1 6:-1 7:-1 8:0.333333 9:-1 10:-0.333333 11:0.333333 12:-0.333333 13:0.333333 14:0.333333 15:1 16:0.333333 17:-1 18:-0.333333 19:-1 20:0.333333 21:1 22:-1 23:0.333333 24:1 25:1 26:0.333333 27:-1 28:1 29:1 30:1 31:-0.333333 32:-0.333333 33:1 34:-1 35:0.333333 36:-1 37:-1 38:-1 39:0.333333 40:-1 41:-1 42:-0.333333 43:-1 44:-1 45:1 46:0.333333 47:1 48:-0.333333 49:-0.333333 50:-1 51:-1 52:-1 53:-1 54:-0.333333 55:-0.333333 56:1 57:0.333333 58:0.333333 59:1 60:0.333333 
5.138048288107663 1:-1 2:-1 3:1 4:-0.333333 5:-1 6:-0.333333 7:-1 8:1 9:1 10:0.333333 11:1 12:0.333333 13:-1 14:1 15:-1 16:1 17:1 18:1 19:1 20:-0.333333 21:-0.333333 22:1 23:0.333333 24:1 25:-1 26:-1 27:-0.333333 28:-0.333333 29:-1 30:1 31:-1 32:1 33:-1 34:-0.333333 35:-0.333333 36:-1 37:1 38:-1 39:0.333333 40:-1 41:-0.333333 42:1 43:1 44:1 45:1 46:-1 47:0.333333 48:-1 49:-0.333333 50:1 51:-0.333333 52:-0.333333 53:-0.333333 54:1 55:-0.333333 56:-0.333333 57:-0.333333 58:1 59:0.333333 60:1 
1.4992377551609 1:-1 2:1 3:1 4:-1 5:1 6:-1 7:-1 8:0.333333 9:1 10:0.333333 11:1 12:-0.333333 13:1 14:-1 15:1 16:-1 17:-1 18:1 19:-1 20:-0.333333 21:-1 22:-0.333333 23:-1 24:1 25:-1 26:-1 27:-0.333333 28:1 29:0.333333 30:0.333333 31:-1 32:1 33:1 34:1 35:1 36:1 37:1 38:-1 39:-1 40:-1 41:-1 42:-1 43:1 44:-0.333333 45:1 46:1 47:1 48:1 49:0.333333 50:0.333333 51:0.333333 52:0.333333 53:-1 54:-1 55:-1 56:0.333333 57:0.333333 58:-1 59:1 60:-1 
2.062446676988462 1:-0.333333 2:0.333333 3:1 4:-0.333333 5:-1 6:-0.333333 7:1 8:-0.333333 9:-0.333333 10:-1 11:0.333333 12:1 13:-0.333333 14:0.333333 15:-0.333333 16:1 17:1 18:-0.333333 19:1 20:0.333333 21:-1 22:-0.333333 23:-0.333333 24:-0.333333 25:-1 26:-0.333333 27:1 28:-0.333333 29:-1 30:-0.333333 31:1 32:-0.333333 33:0.333333 34:1 35:0.333333 36:0.333333 37:-1 38:1 39:0.333333 40:-1 41:1 42:0.333333 43:-0.333333 44:-0.333333 45:-0.333333 46:-1 47:-0.333333 48:-1 49:-1 50:1 51:0.333333 52:0.333333 53:-1 54:-1 55:-0.333333 56:0.333333 57:-1 58:-0.333333 59:-0.333333 60:-1 
1.090133540010728 1:-1 2:1 3:1 4:-0.333333 5:-0.333333 6:0.333333 7:-1 8:-1 9:-0.333333 10:-0.333333 11:-1 12:-0.333333 13:-1 14:1 15:0.333333 16:-1 17:1 18:1 19:-0.333333 20:-1 21:0.333333 22:0.333333 23:1 24:0.333333 25:-0.333333 26:1 27:-0.333333 28:1 29:1 30:-0.333333 31:-0.333333 32:-1 33:0.333333 34:0.333333 35:-0.333333 36:-1 37:-1 38:1 39:1 40:0.333333 41:-0.333333 42:0.333333 43:-1 44:-1 45:-0.333333 46:0.333333 47:1 48:-0.333333 49:-0.333333 50:0.333333 51:0.333333 52:-0.333333 53:-1 54:0.333333 55:0.333333 56:-1 57:-0.333333 58:1 59:-0.333333 60:0.333333 
14.07295270254459 1:0.333333 2:-0.333333 3:0.333333 4:0.333333 5:-0.333333 6:0.333333 7:-1 8:-1 9:-0.333333 10:1 11:-0.333333 12:-0.333333 13:-1 14:1 15:0.333333 16:0.333333 17:-1 18:-0.333333 19:1 20:-0.333333 21:0.333333 22:1 23:1 24:0.333333 25:-1 26:-1 27:0.333333 28:-0.333333 29:-1 30:1 31:-0.333333 32:1 33:-0.333333 34:-1 35:0.333333 36:1 37:-0.333333 38:0.333333 39:0.333333 40:-1 41:1 42:0.333333 43:-1 44:1 45:0.333333 46:1 47:1 48:0.333333 49:-0.333333 50:1 51:-0.333333 52:-0.333333 53:1 54:-0.333333 55:-0.333333 56:0.333333 57:0.333333 58:-1 59:-0.333333 60:0.333333 
2.158431743564286 1:-0.333333 2:0.333333 3:0.333333 4:0.333333 5:0.333333 6:-1 7:-0.333333 8:0.333333 9:1 10:0.333333 11:-1 12:0.333333 13:0.333333 14:0.333333 15:-1 16:-1 17:0.333333 18:-1 19:0.333333 20:0.333333 21:-1 22:-0.333333 23:0.333333 24:1 25:1 26:0.333333 27:1 28:0.333333 29:1 30:-1 31:-1 32:-0.333333 33:-1 34:-1 35:0.333333 36:0.333333 37:0.333333 38:-1 39:-0.333333 40:-0.333333 41:-1 42:1 43:1 44:1 45:0.333333 46:1 47:1 48:-0.333333 49:1 50:-0.333333 51:-1 52:-0.333333 53:-0.333333 54:1 55:0.333333 56:1 57:0.333333 58:1 59:-0.333333 60:1 
28.24768650582578 1:-1 2:-0.333333 3:0.333333 4:1 5:0.333333 6:0.333333 7:-0.333333 8:0.333333 9:0.333333 10:-0.333333 11:-1 12:-1 13:-0.333333 14:-0.333333 15:0.333333 16:-0.333333 17:0.333333 18:0.333333 19:-0.333333 20:0.333333 21:0.333333 22:-1 23:-1 24:-0.333333 25:-0.333333 26:-1 27:-1 28:-0.333333 29:-1 30:-0.333333 31:-0.333333 32:1 33:-0.333333 34:-1 35:-0.333333 36:1 37:-0.333333 38:0.333333 39:-0.333333 40:-0.333333 41:-0.333333 42:0.333333 43:0.333333 44:1 45:1 46:0.333333 47:1 48:-0.333333 49:0.333333 50:-0.333333 51:-0.333333 52:-0.333333 53:-0.333333 54:-0.333333 55:-0.333333 56:1 57:-0.333333 58:-0.333333 59:1 60:-0.333333 
3.381954796288164 1:-0.333333 2:1 3:-0.333333 4:-0.333333 5:-0.333333 6:-0.333333 7:-1 8:-0.333333 9:-1 10:-1 11:1 12:-1 13:1 14:-0.333333 15:1 16:-0.333333 17:-0.333333 18:-1 19:0.333333 20:-1 21:-1 22:0.333333 23:-1 24:0.333333 25:-1 26:-1 27:-1 28:0.333333 29:0.333333 30:1 31:-0.333333 32:-0.333333 33:1 34:0.333333 35:0.333333 36:0.333333 37:0.333333 38:-1 39:-0.333333 40:-0.333333 41:0.333333 42:1 43:0.333333 44:1 45:-0.333333 46:-0.333333 47:0.333333 48:0.333333 49:0.333333 50:-1 51:-0.333333 52:-1 53:-0.333333 54:0.333333 55:-1 56:-0.333333 57:-0.333333 58:-0.333333 59:-0.333333 60:0.333333 
7.571953048199681 1:0.333333 2:0.333333 3:-0.333333 4:1 5:0.333333 6:1 7:1 8:0.333333 9:0.333333 10:0.333333 11:-1 12:-0.333333 13:0.333333 14:0.333333 15:0.333333 16:-1 17:0.333333 18:0.333333 19:-1 20:1 21:0.333333 22:0.333333 23:0.333333 24:0.333333 25:-1 26:1 27:0.333333 28:-0.333333 29:1 30:-0.333333 31:-0.333333 32:-0.333333 33:0.333333 34:-1 35:1 36:0.333333 37:-1 38:-1 39:1 40:-0.333333 41:0.333333 42:1 43:-0.333333 44:-0.333333 45:0.333333 46:0.333333 47:1 48:-0.333333 49:-0.333333 50:1 51:1 52:0.333333 53:1 54:0.333333 55:1 56:1 57:1 58:-0.333333 59:0.333333 60:-1 
3.742217345428207 1:0.333333 2:-1 3:-0.333333 4:-1 5:1 6:-1 7:0.333333 8:-1 9:1 10:0.333333 11:1 12:-1 13:1 14:-1 15:-1 16:0.333333 17:0.333333 18:-0.333333 19:-1 20:-0.333333 21:-1 22:-0.333333 23:-0.333333 24:-1 25:-0.333333 26:1 27:-1 28:0.333333 29:-0.333333 30:0.333333 31:-1 32:0.333333 33:-0.333333 34:0.333333 35:1 36:1 37:0.333333 38:-0.333333 39:-1 40:0.333333 41:-1 42:-0.333333 43:0.333333 44:-0.333333 45:-1 46:0.333333 47:-0.333333 48:1 49:-0.333333 50:-0.333333 51:-0.333333 52:-0.333333 53:-0.333333 54:1 55:-0.333333 56:1 57:-1 58:1 59:0.333333 60:-0.333333 
3.410010324683534 1:1 2:-1 3:0.333333 4:0.333333 5:1 6:-0.333333 7:-0.333333 8:-0.333333 9:-1 10:0.333333 11:1 12:-1 13:0.333333 14:-1 15:-0.333333 16:1 17:0.333333 18:-1 19:1 20:-0.333333 21:0.333333 22:-1 23:0.333333 24:0.333333 25:-1 26:0.333333 27:0.333333 28:-1 29:0.333333 30:-1 31:1 32:0.333333 33:0.333333 34:-1 35:-0.333333 36:0.333333 37:1 38:-1 39:-1 40:1 41:1 42:1 43:1 44:1 45:1 46:-1 47:1 48:-1 49:0.333333 50:-1 51:-0.333333 52:-1 53:1 54:-0.333333 55:-0.333333 56:-0.333333 57:-0.333333 58:1 59:1 60:1 
3.482227912331299 1:-1 2:1 3:-0.333333 4:-0.333333 5:-1 6:1 7:1 8:-0.333333 9:1 10:-1 11:-1 12:0.333333 13:1 14:-0.333333 15:0.333333 16:1 17:-0.333333 18:0.333333 19:0.333333 20:0.333333 21:-1 22:0.333333 23:1 24:-0.333333 25:1 26:-0.333333 27:1 28:1 29:-0.333333 30:-1 31:-1 32:-1 33:0.333333 34:1 35:-0.333333 36:-0.333333 37:1 38:-0.333333 39:1 40:1 41:-1 42:-1 43:-1 44:-1 45:1 46:1 47:-1 48:0.333333 49:-1 50:-0.333333 51:1 52:1 53:-0.333333 54:1 55:0.333333 56:-0.333333 57:0.333333 58:-1 59:-0.333333 60:-0.333333 
1.524594271803031 1:0.333333 2:1 3:-0.333333 4:-1 5:-0.333333 6:-1 7:1 8:1 9:0.333333 10:0.333333 11:-1 12:-0.333333 13:0.333333 14:-1 15:1 16:0.333333 17:0.333333 18:1 19:-0.333333 20:0.333333 21:-1 22:-1 23:0.333333 24:0.333333 25:1 26:0.333333 27:0.333333 28:-1 29:-0.333333 30:1 31:1 32:0.333333 33:1 34:-0.333333 35:-1 36:-1 37:-1 38:1 39:-1 40:1 41:1 42:1 43:1 44:0.333333 45:-1 46:-0.333333 47:1 48:1 49:-0.333333 50:1 51:-1 52:-0.333333 53:0.333333 54:1 55:-1 56:-1 57:-0.333333 58:-0.333333 59:-0.333333 60:0.333333 
4.742227468076054 1:1 2:-0.333333 3:-1 4:-1 5:-0.333333 6:-0.333333 7:-1 8:-0.333333 9:-0.333333 10:-1 11:0.333333 12:-0.333333 13:-0.333333 14:1 15:1 16:-1 17:-1 18:0.333333 19:1 20:1 21:-0.333333 22:1 23:-1 24:1 25:-1 26:1 27:1 28:0.333333 29:0.333333 30:-1 31:0.333333 32:0.333333 33:-1 34:1 35:1 36:0.333333 37:-1 38:0.333333 39:-1 40:1 41:1 42:1 43:-0.333333 44:-1 45:1 46:-0.333333 47:1 48:-1 49:0.333333 50:-1 51:1 52:-0.333333 53:1 54:-0.333333 55:1 56:-1 57:-0.333333 58:-0.333333 59:-0.333333 60:-1 
3.620000111754844 1:-1 2:0.333333 3:-1 4:-0.333333 5:1 6:1 7:1 8:1 9:0.333333 10:1 11:-0.333333 12:0.333333 13:1 14:1 15:1 16:-1 17:-1 18:1 19:1 20:1 21:0.333333 22:-1 23:1 24:-0.333333 25:-1 26:-1 27:-1 28:-1 29:-0.333333 30:-1 31:1 32:1 33:-1 34:1 35:-0.333333 36:-1 37:1 38:0.333333 39:1 40:0.333333 41:-1 42:-0.333333 43:-1 44:-1 45:-1 46:1 47:1 48:-0.333333 49:1 50:-1 51:1 52:0.333333 53:1 54:1 55:-1 56:-0.333333 57:1 58:1 59:-0.333333 60:-0.333333 
3.270095862847976 1:-1 2:1 3:-0.333333 4:-1 5:0.333333 6:0.333333 7:1 8:1 9:1 10:-0.333333 11:-0.333333 12:-0.333333 13:0.333333 14:1 15:1 16:1 17:-0.333333 18:1 19:-0.333333 20:-0.333333 21:-1 22:0.333333 23:-1 24:-0.333333 25:0.333333 26:1 27:-1 28:0.333333 29:1 30:-0.333333 31:-1 32:-0.333333 33:-0.333333 34:1 35:-1 36:-1 37:-0.333333 38:-0.333333 39:-0.333333 40:1 41:0.333333 42:1 43:0.333333 44:1 45:0.333333 46:0.333333 47:0.333333 48:0.333333 49:0.333333 50:1 51:0.333333 52:-1 53:-1 54:-1 55:-1 56:-0.333333 57:1 58:-0.333333 59:-0.333333 60:1 
3.294091785777487 1:-0.333333 2:-0.333333 3:0.333333 4:1 5:1 6:-1 7:-1 8:-1 9:0.333333 10:1 11:0.333333 12:0.333333 13:-1 14:-1 15:0.333333 16:1 17:-0.333333 18:-0.333333 19:-0.333333 20:-1 21:-1 22:0.333333 23:0.333333 24:0.333333 25:-1 26:-1 27:-1 28:-1 29:0.333333 30:-1 31:1 32:1 33:0.333333 34:-1 35:1 36:1 37:1 38:-0.333333 39:0.333333 40:1 41:-1 42:-1 43:-0.333333 44:-1 45:-0.333333 46:1 47:0.333333 48:1 49:-0.333333 50:-0.333333 51:1 52:-0.333333 53:1 54:1 55:0.333333 56:1 57:-1 58:0.333333 59:0.333333 60:-1 
9.247890587435132 1:0.333333 2:-1 3:-0.333333 4:-1 5:-0.333333 6:0.333333 7:0.333333 8:-1 9:-0.333333 10:0.333333 11:-1 12:-1 13:-0.333333 14:-1 15:1 16:-0.333333 17:-0.333333 18:-0.333333 19:-0.333333 20:-0.333333 21:0.333333 22:1 23:0.333333 24:-1 25:-0.333333 26:1 27:-0.333333 28:-1 29:0.333333 30:-1 31:0.333333 32:0.333333 33:0.333333 34:-0.333333 35:0.333333 36:-1 37:-0.333333 38:-0.333333 39:-0.333333 40:-1 41:0.333333 42:-1 43:-0.333333 44:-0.333333 45:-1 46:-0.333333 47:-0.333333 48:-1 49:1 50:1 51:1 52:1 53:-0.333333 54:1 55:-0.333333 56:-0.333333 57:-0.333333 58:-0.333333 59:-0.333333 60:0.333333 
3.402121385003922 1:-1 2:-0.333333 3:-1 4:-1 5:-0.333333 6:-0.333333 7:0.333333 8:1 9:0.333333 10:1 11:-0.333333 12:0.333333 13:-0.333333 14:0.333333 15:-0.333333 16:-1 17:0.333333 18:-0.333333 19:0.333333 20:0.333333 21:-1 22:-1 23:-0.333333 24:0.333333 25:1 26:-0.333333 27:-0.333333 28:-1 29:0.333333 30:-1 31:-1 32:-0.333333 33:-0.333333 34:0.333333 35:0.333333 36:0.333333 37:-1 38:-0.333333 39:-1 40:1 41:1 42:0.333333 43:-1 44:0.333333 45:-0.333333 46:-1 47:0.333333 48:0.333333 49:1 50:-0.333333 51:-0.333333 52:1 53:0.333333 54:0.333333 55:1 56:-0.333333 57:-0.333333 58:1 59:0.333333 60:-0.333333 
7.459483402436332 1:-1 2:-0.333333 3:1 4:1 5:-0.333333 6:0.333333 7:0.333333 8:1 9:1 10:1 11:-0.333333 12:-1 13:1 14:0.333333 15:1 16:-0.333333 17:-0.333333 18:0.333333 19:-0.333333 20:-1 21:0.333333 22:-1 23:0.333333 24:-1 25:1 26:0.333333 27:-0.333333 28:1 29:-0.333333 30:-0.333333 31:0.333333 32:1 33:-1 34:1 35:-0.333333 36:-1 37:1 38:1 39:0.333333 40:-1 41:-0.333333 42:-1 43:0.333333 44:-1 45:-1 46:0.333333 47:0.333333 48:0.333333 49:1 50:0.333333 51:-0.333333 52:-1 53:0.333333 54:1 55:1 56:0.333333 57:-0.333333 58:1 59:-0.333333 60:-0.333333 
3.595377016719737 1:-1 2:-1 3:-1 4:-0.333333 5:0.333333 6:-1 7:-0.333333 8:-0.333333 9:-1 10:-1 11:-1 12:0.333333 13:0.333333 14:1 15:-0.333333 16:1 17:-0.333333 18:-0.333333 19:1 20:-1 21:1 22:-0.333333 23:-1 24:-1 25:-0.333333 26:0.333333 27:0.333333 28:-1 29:-0.333333 30:-1 31:0.333333 32:0.333333 33:0.333333 34:0.333333 35:0.333333 36:-0.333333 37:-1 38:-0.333333 39:1 40:-0.333333 41:-1 42:-1 43:-0.333333 44:-1 45:0.333333 46:1 47:-1 48:0.333333 49:1 50:-1 51:0.333333 52:1 53:-1 54:0.333333 55:1 56:-1 57:0.333333 58:1 59:-1 60:0.333333 
13.93844864113135 1:0.333333 2:0.333333 3:0.333333 4:1 5:-0.333333 6:-1 7:-1 8:1 9:0.333333 10:1 11:1 12:0.333333 13:0.333333 14:1 15:-0.333333 16:0.333333 17:0.333333 18:0.333333 19:1 20:1 21:0.333333 22:1 23:0.333333 24:1 25:0.333333 26:0.333333 27:0.333333 28:0.333333 29:-1 30:-0.333333 31:-0.333333 32:-1 33:1 34:1 35:-1 36:0.333333 37:-0.333333 38:-1 39:-0.333333 40:-1 41:-0.333333 42:-0.333333 43:1 44:0.333333 45:0.333333 46:0.333333 47:1 48:-0.333333 49:-1 50:-0.333333 51:1 52:0.333333 53:-0.333333 54:0.333333 55:0.333333 56:1 57:-0.333333 58:-1 59:0.333333 60:-0.333333 
7.697635036851133 1:1 2:-0.333333 3:0.333333 4:1 5:-0.333333 6:-0.333333 7:0.333333 8:0.333333 9:-1 10:-0.333333 11:1 12:1 13:0.333333 14:1 15:1 16:0.333333 17:0.333333 18:0.333333 19:-0.333333 20:-0.333333 21:-1 22:-0.333333 23:-0.333333 24:0.333333 25:-1 26:-0.333333 27:0.333333 28:-0.333333 29:0.333333 30:-1 31:-0.333333 32:-0.333333 33:1 34:-0.333333 35:-0.333333 36:0.333333 37:0.333333 38:1 39:-1 40:1 41:0.333333 42:-1 43:-0.333333 44:-1 45:1 46:-0.333333 47:1 48:-0.333333 49:-0.333333 50:-0.333333 51:-1 52:-1 53:0.333333 54:1 55:1 56:-1 57:-0.333333 58:1 59:-0.333333 60:0.333333 
6.058585793477948 1:1 2:0.333333 3:-0.333333 4:-1 5:1 6:-0.333333 7:-0.333333 8:0.333333 9:-0.333333 10:0.333333 11:0.333333 12:1 13:-1 14:-0.333333 15:-0.333333 16:-1 17:-0.333333 18:1 19:0.333333 20:0.333333 21:-1 22:1 23:-0.333333 24:-1 25:-1 26:-1 27:1 28:-1 29:0.333333 30:-0.333333 31:-0.333333 32:1 33:-1 34:0.333333 35:-1 36:-0.333333 37:-0.333333 38:0.333333 39:1 40:1 41:0.333333 42:0.333333 43:-0.333333 44:-0.333333 45:0.333333 46:-0.333333 47:-1 48:0.333333 49:-0.333333 50:-0.333333 51:-1 52:1 53:-0.333333 54:0.333333 55:0.333333 56:0.333333 57:0.333333 58:-0.333333 59:0.333333 60:0.333333 
0.7384500390254901 1:-1 2:1 3:-1 4:1 5:-0.333333 6:0.333333 7:-1 8:-1 9:-1 10:-1 11:1 12:-0.333333 13:1 14:-1 15:1 16:-1 17:1 18:1 19:1 20:1 21:0.333333 22:1 23:1 24:-0.333333 25:-1 26:1 27:1 28:0.333333 29:0.333333 30:1 31:-0.333333 32:-1 33:0.333333 34:0.333333 35:-1 36:1 37:1 38:-0.333333 39:-1 40:1 41:-1 42:0.333333 43:1 44:1 45:-1 46:-1 47:1 48:-0.333333 49:1 50:0.333333 51:0.333333 52:-1 53:1 54:-0.333333 55:1 56:-0.333333 57:-1 58:0.333333 59:1 60:0.333333 
2.547376025625937 1:0.333333 2:1 3:-0.333333 4:1 5:0.333333 6:0.333333 7:1 8:-0.333333 9:-1 10:-1 11:0.333333 12:1 13:0.333333 14:-0.333333 15:-1 16:1 17:-0.333333 18:-1 19:-1 20:1 21:0.333333 22:-1 23:-0.333333 24:0.333333 25:1 26:0.333333 27:-0.333333 28:-0.333333 29:1 30:0.333333 31:-1 32:-0.333333 33:-0.333333 34:0.333333 35:-0.333333 36:1 37:-0.333333 38:0.333333 39:1 40:1 41:-1 42:-1 43:0.333333 44:-0.333333 45:-0.333333 46:1 47:1 48:0.333333 49:1 50:0.333333 51:1 52:0.333333 53:0.333333 54:-0.333333 55:0.333333 56:1 57:1 58:1 59:1 60:-0.333333 
11.4394895347292 1:-0.333333 2:-0.333333 3:0.333333 4:0.333333 5:1 6:-0.333333 7:1 8:-1 9:-1 10:-0.333333 11:1 12:-0.333333 13:-0.333333 14:-1 15:-1 16:-0.333333 17:-0.333333 18:-1 19:-1 20:-0.333333 21:0.333333 22:0.333333 23:1 24:0.333333 25:-0.333333 26:-0.333333 27:0.333333 28:0.333333 29:0.333333 30:0.333333 31:-1 32:1 33:0.333333 34:0.333333 35:1 36:-0.333333 37:1 38:0.333333 39:1 40:-0.333333 41:0.333333 42:-0.333333 43:-0.333333 44:-0.333333 45:-1 46:0.333333 47:-1 48:-0.333333 49:0.333333 50:-1 51:-0.333333 52:-0.333333 53:-0.333333 54:-0.333333 55:-1 56:-0.333333 57:-0.333333 58:0.333333 59:1 60:-0.333333 
4.410039974787351 1:1 2:-1 3:1 4:-0.333333 5:-0.333333 6:-0.333333 7:-0.333333 8:-0.333333 9:0.333333 10:-1 11:0.333333 12:-1 13:-0.333333 14:-0.333333 15:-1 16:1 17:-0.333333 18:-1 19:-0.333333 20:-0.333333 21:-1 22:-0.333333 23:-0.333333 24:-1 25:-1 26:-0.333333 27:-0.333333 28:-1 29:-1 30:1 31:0.333333 32:0.333333 33:-1 34:-1 35:-0.333333 36:-1 37:0.333333 38:1 39:1 40:-0.333333 41:-0.333333 42:-1 43:1 44:-0.333333 45:-0.333333 46:-1 47:1 48:1 49:-1 50:1 51:1 52:-1 53:-0.333333 54:1 55:1 56:1 57:1 58:0.333333 59:-0.333333 60:-1 
1.276987030775157 1:1 2:1 3:1 4:1 5:-1 6:-0.333333 7:-1 8:-1 9:0.333333 10:-1 11:1 12:1 13:1 14:1 15:0.333333 16:-1 17:1 18:0.333333 19:-1 20:0.333333 21:0.333333 22:0.333333 23:0.333333 24:1 25:-1 26:-1 27:-1 28:-1 29:-0.333333 30:-1 31:-1 32:-1 33:0.333333 34:0.333333 35:0.333333 36:1 37:-0.333333 38:0.333333 39:-1 40:0.333333 41:0.333333 42:0.333333 43:-1 44:1 45:1 46:-1 47:-0.333333 48:0.333333 49:-1 50:-0.333333 51:1 52:0.333333 53:0.333333 54:0.333333 55:1 56:0.333333 57:0.333333 58:-1 59:0.333333 60:-1 
2.177122151861303 1:1 2:-0.333333 3:-1 4:0.333333 5:-1 6:-1 7:1 8:-1 9:-0.333333 10:0.333333 11:0.333333 12:0.333333 13:1 14:-0.333333 15:1 16:-0.333333 17:0.333333 18:1 19:-0.333333 20:0.333333 21:-1 22:-0.333333 23:-0.333333 24:-1 25:-1 26:1 27:-0.333333 28:-0.333333 29:-0.333333 30:1 31:-1 32:-1 33:0.333333 34:1 35:-0.333333 36:0.333333 37:0.333333 38:-1 39:0.333333 40:1 41:-0.333333 42:-1 43:0.333333 44:-1 45:1 46:0.333333 47:-1 48:-0.333333 49:-1 50:-0.333333 51:1 52:-1 53:-1 54:0.333333 55:1 56:0.333333 57:1 58:1 59:-1 60:-1 
7.653058793853853 1:-0.333333 2:-1 3:0.333333 4:-1 5:-1 6:-1 7:1 8:1 9:1 10:-0.333333 11:1 12:-0.333333 13:0.333333 14:1 15:-1 16:0.333333 17:0.333333 18:0.333333 19:1 20:-0.333333 21:-0.333333 22:1 23:0.333333 24:1 25:1 26:-1 27:0.333333 28:0.333333 29:1 30:-0.333333 31:-0.333333 32:-0.333333 33:-1 34:0.333333 35:-1 36:0.333333 37:0.333333 38:1 39:-0.333333 40:-0.333333 41:-0.333333 42:-0.333333 43:-1 44:0.333333 45:-1 46:0.333333 47:1 48:-0.333333 49:-1 50:-1 51:0.333333 52:1 53:-0.333333 54:-0.333333 55:1 56:-0.333333 57:0.333333 58:1 59:-0.333333 60:-1 
11.5763622945353 1:-0.333333 2:-1 3:-1 4:-0.333333 5:0.333333 6:0.333333 7:-1 8:1 9:1 10:0.333333 11:-1 12:-0.333333 13:0.333333 14:-1 15:-0.333333 16:0.333333 17:1 18:-0.333333 19:-0.333333 20:-1 21:0.333333 22:-0.333333 23:0.333333 24:1 25:-0.333333 26:-1 27:-0.333333 28:0.333333 29:1 30:-0.333333 31:-1 32:-0.333333 33:-0.333333 34:-1 35:-1 36:0.333333 37:-1 38:0.333333 39:0.333333 40:-1 41:-1 42:-0.333333 43:1 44:-0.333333 45:-0.333333 46:-0.333333 47:-1 48:-0.333333 49:-1 50:1 51:-0.333333 52:-0.333333 53:0.333333 54:0.333333 55:-0.333333 56:0.333333 57:0.333333 58:0.333333 59:-1 60:-0.333333 
0.6550793358131388 1:1 2:-1 3:1 4:1 5:-1 6:0.333333 7:1 8:-0.333333 9:1 10:-0.333333 11:0.333333 12:0.333333 13:-1 14:0.333333 15:0.333333 16:1 17:-0.333333 18:-0.333333 19:-1 20:-1 21:-0.333333 22:-0.333333 23:-1 24:1 25:1 26:-1 27:1 28:1 29:-1 30:1 31:-1 32:-1 33:-0.333333 34:-1 35:-1 36:-1 37:0.333333 38:1 39:0.333333 40:1 41:1 42:1 43:-0.333333 44:-0.333333 45:0.333333 46:-1 47:-0.333333 48:1 49:-0.333333 50:-0.333333 51:-1 52:-1 53:0.333333 54:-1 55:-1 56:0.333333 57:-1 58:0.333333 59:1 60:1 
7.373805656647644 1:0.333333 2:-1 3:-1 4:1 5:-1 6:0.333333 7:-1 8:0.333333 9:1 10:1 11:-1 12:-1 13:1 14:1 15:-1 16:1 17:0.333333 18:1 19:1 20:1 21:-1 22:1 23:0.333333 24:0.333333 25:1 26:1 27:1 28:1 29:-1 30:-0.333333 31:-0.333333 32:1 33:1 34:-1 35:0.333333 36:0.333333 37:0.333333 38:-1 39:1 40:-0.333333 41:0.333333 42:-1 43:-0.333333 44:1 45:1 46:-0.333333 47:1 48:1 49:-1 50:0.333333 51:1 52:-0.333333 53:1 54:-1 55:0.333333 56:0.333333 57:-1 58:-0.333333 59:0.333333 60:0.333333 
11.04509676058855 1:-1 2:-0.333333 3:0.333333 4:1 5:0.333333 6:-0.333333 7:-0.333333 8:0.333333 9:0.333333 10:0.333333 11:-1 12:-0.333333 13:0.333333 14:1 15:1 16:-0.333333 17:-0.333333 18:0.333333 19:1 20:0.333333 21:-1 22:-0.333333 23:0.333333 24:0.333333 25:0.333333 26:-0.333333 27:-1 28:0.333333 29:-1 30:0.333333 31:-1 32:-0.333333 33:0.333333 34:0.333333 35:1 36:-0.333333 37:0.333333 38:1 39:0.333333 40:-1 41:-0.333333 42:0.333333 43:0.333333 44:0.333333 45:-1 46:-0.333333 47:1 48:1 49:0.333333 50:-1 51:-0.333333 52:0.333333 53:1 54:0.333333 55:-0.333333 56:-0.333333 57:0.333333 58:1 59:0.333333 60:-1 
1.818268961387299 1:-0.333333 2:-1 3:0.333333 4:0.333333 5:1 6:0.333333 7:-0.333333 8:1 9:-0.333333 10:1 11:1 12:-0.333333 13:-0.333333 14:-1 15:0.333333 16:0.333333 17:-0.333333 18:-1 19:-1 20:1 21:1 22:0.333333 23:-0.333333 24:0.333333 25:-1 26:-1 27:-0.333333 28:0.333333 29:1 30:-0.333333 31:-0.333333 32:1 33:-1 34:1 35:-0.333333 36:1 37:1 38:1 39:0.333333 40:1 41:1 42:1 43:1 44:0.333333 45:-1 46:-1 47:-0.333333 48:-1 49:-1 50:1 51:-1 52:-1 53:-1 54:-0.333333 55:1 56:-1 57:-1 58:-1 59:1 60:1 
1.904616884019742 1:-1 2:-0.333333 3:0.333333 4:-1 5:-0.333333 6:-0.333333 7:0.333333 8:0.333333 9:-1 10:0.333333 11:-0.333333 12:0.333333 13:1 14:0.333333 15:-1 16:-0.333333 17:-0.333333 18:0.333333 19:0.333333 20:0.333333 21:-0.333333 22:-0.333333 23:0.333333 24:-1 25:1 26:-0.333333 27:0.333333 28:-0.333333 29:-0.333333 30:-0.333333 31:0.333333 32:0.333333 33:-1 34:0.333333 35:0.333333 36:-1 37:-1 38:-0.333333 39:1 40:1 41:0.333333 42:1 43:-0.333333 44:-0.333333 45:-1 46:-1 47:-1 48:0.333333 49:0.333333 50:-1 51:0.333333 52:-0.333333 53:1 54:-0.333333 55:-0.333333 56:1 57:-0.333333 58:1 59:0.333333 60:0.333333 
0.9643493619451505 1:0.333333 2:1 3:-0.333333 4:-0.333333 5:1 6:1 7:-0.333333 8:-1 9:-0.333333 10:-1 11:-1 12:-1 13:0.333333 14:-1 15:-0.333333 16:-1 17:-0.333333 18:-1 19:0.333333 20:1 21:-0.333333 22:1 23:-1 24:-0.333333 25:0.333333 26:-1 27:-1 28:0.333333 29:1 30:0.333333 31:1 32:-0.333333 33:-0.333333 34:0.333333 35:-1 36:-0.333333 37:-0.333333 38:-0.333333 39:-1 40:-0.333333 41:-1 42:-1 43:-0.333333 44:0.333333 45:1 46:-0.333333 47:1 48:0.333333 49:1 50:0.333333 51:1 52:-0.333333 53:-1 54:1 55:-0.333333 56:-0.333333 57:0.333333 58:0.333333 59:1 60:-0.333333 
8.741518047237371 1:-0.333333 2:0.333333 3:-1 4:0.333333 5:-1 6:1 7:-0.333333 8:0.333333 9:0.333333 10:0.333333 11:0.333333 12:-0.333333 13:-0.333333 14:-1 15:0.333333 16:-1 17:-0.333333 18:1 19:1 20:0.333333 21:1 22:-0.333333 23:-1 24:-0.333333 25:1 26:-0.333333 27:-1 28:-0.333333 29:0.333333 30:-1 31:-0.333333 32:1 33:-0.333333 34:-0.333333 35:0.333333 36:-1 37:1 38:-0.333333 39:-0.333333 40:0.333333 41:0.333333 42:-0.333333 43:1 44:1 45:1 46:-0.333333 47:1 48:0.333333 49:0.333333 50:0.333333 51:1 52:-0.333333 53:-1 54:-0.333333 55:-1 56:-0.333333 57:-1 58:-0.333333 59:0.333333 60:0.333333 
9.825207561819669 1:-1 2:-1 3:-0.333333 4:-1 5:-0.333333 6:1 7:-0.333333 8:0.333333 9:-1 10:-1 11:-1 12:1 13:-0.333333 14:0.333333 15:-1 16:0.333333 17:0.333333 18:1 19:0.333333 20:0.333333 21:1 22:-0.333333 23:0.333333 24:-1 25:-1 26:-0.333333 27:-1 28:-1 29:-0.333333 30:-1 31:-0.333333 32:1 33:-0.333333 34:-1 35:-0.333333 36:1 37:-0.333333 38:0.333333 39:-0.333333 40:-0.333333 41:-0.333333 42:-0.333333 43:0.333333 44:0.333333 45:-1 46:1 47:0.333333 48:1 49:0.333333 50:0.333333 51:-1 52:-0.333333 53:-0.333333 54:-1 55:-1 56:1 57:0.333333 58:1 59:-0.333333 60:-0.333333 
6.083909312359658 1:1 2:1 3:-0.333333 4:0.333333 5:0.333333 6:0.333333 7:1 8:0.333333 9:-1 10:-0.333333 11:0.333333 12:-1 13:1 14:0.333333 15:-1 16:0.333333 17:0.333333 18:-1 19:1 20:-0.333333 21:-1 22:-1 23:0.333333 24:-0.333333 25:-0.333333 26:-1 27:-0.333333 28:-1 29:-0.333333 30:-0.333333 31:0.333333 32:0.333333 33:-1 34:1 35:0.333333 36:-0.333333 37:0.333333 38:0.333333 39:1 40:-0.333333 41:0.333333 42:-0.333333 43:0.333333 44:1 45:-0.333333 46:-1 47:-0.333333 48:-0.333333 49:-0.333333 50:0.333333 51:1 52:-0.333333 53:0.333333 54:0.333333 55:-1 56:-0.333333 57:-0.333333 58:0.333333 59:0.333333 60:-1 
9.549044308790815 1:0.333333 2:1 3:0.333333 4:0.333333 5:-0.333333 6:-1 7:-0.333333 8:0.333333 9:-1 10:-0.333333 11:0.333333 12:-1 13:-1 14:1 15:1 16:0.333333 17:0.333333 18:0.333333 19:0.333333 20:-1 21:1 22:1 23:0.333333 24:0.333333 25:1 26:0.333333 27:1 28:0.333333 29:0.333333 30:0.333333 31:0.333333 32:1 33:-1 34:1 35:1 36:-0.333333 37:0.333333 38:1 39:-0.333333 40:-0.333333 41:0.333333 42:1 43:0.333333 44:1 45:-0.333333 46:0.333333 47:-1 48:-0.333333 49:-0.333333 50:-0.333333 51:0.333333 52:1 53:0.333333 54:1 55:-0.333333 56:-1 57:1 58:0.333333 59:-1 60:-1 
18.2326754316961 1:-0.333333 2:-0.333333 3:-1 4:-0.333333 5:-0.333333 6:-0.333333 7:-0.333333 8:-0.333333 9:1 10:0.333333 11:0.333333 12:1 13:-0.333333 14:0.333333 15:-1 16:-0.333333 17:-0.333333 18:-0.333333 19:0.333333 20:-0.333333 21:-0.333333 22:-0.333333 23:-0.333333 24:-0.333333 25:-0.333333 26:0.333333 27:1 28:-0.333333 29:-0.333333 30:-0.333333 31:-1 32:-1 33:-0.333333 34:-0.333333 35:1 36:-0.333333 37:-0.333333 38:-0.333333 39:-0.333333 40:-1 41:-0.333333 42:-1 43:-0.333333 44:-0.333333 45:0.333333 46:1 47:-0.333333 48:0.333333 49:0.333333 50:-0.333333 51:-1 52:-0.333333 53:-1 54:-0.333333 55:0.333333 56:0.333333 57:-1 58:0.333333 59:0.333333 60:0.333333 
3.957735228730454 1:0.333333 2:0.333333 3:0.333333 4:1 5:1 6:-0.333333 7:0.333333 8:0.333333 9:-1 10:0.333333 11:0.333333 12:0.333333 13:0.333333 14:0.333333 15:-0.333333 16:-1 17:-1 18:-0.333333 19:-1 20:0.333333 21:-1 22:-1 23:-0.333333 24:-0.333333 25:-1 26:-0.333333 27:0.333333 28:-1 29:-1 30:-0.333333 31:0.333333 32:0.333333 33:0.333333 34:-1 35:-1 36:0.333333 37:-1 38:-0.333333 39:-1 40:1 41:-0.333333 42:-1 43:-1 44:1 45:0.333333 46:-1 47:-1 48:-1 49:-1 50:-1 51:-0.333333 52:-1 53:0.333333 54:1 55:1 56:1 57:0.333333 58:1 59:-0.333333 60:-1 
8.887805030883552 1:1 2:-0.333333 3:-0.333333 4:-1 5:0.333333 6:-0.333333 7:-0.333333 8:1 9:-1 10:-1 11:0.333333 12:-1 13:-0.333333 14:-0.333333 15:-1 16:-1 17:1 18:-0.333333 19:1 20:-1 21:1 22:-0.333333 23:-1 24:-0.333333 25:-1 26:-0.333333 27:1 28:1 29:-0.333333 30:-0.333333 31:-0.333333 32:1 33:-0.333333 34:0.333333 35:0.333333 36:-1 37:-1 38:-1 39:-1 40:0.333333 41:1 42:1 43:-0.333333 44:1 45:-0.333333 46:-0.333333 47:0.333333 48:0.333333 49:-0.333333 50:0.333333 51:0.333333 52:0.333333 53:1 54:-0.333333 55:1 56:-1 57:0.333333 58:-1 59:-1 60:-0.333333 
2.178347802983677 1:1 2:-0.333333 3:-0.333333 4:-1 5:-0.333333 6:-1 7:-1 8:0.333333 9:-1 10:-0.333333 11:-0.333333 12:-0.333333 13:-0.333333 14:-0.333333 15:0.333333 16:0.333333 17:-1 18:-0.333333 19:-1 20:-1 21:0.333333 22:1 23:1 24:0.333333 25:-0.333333 26:-0.333333 27:0.333333 28:-1 29:-0.333333 30:1 31:-1 32:-1 33:-1 34:-0.333333 35:-1 36:-1 37:1 38:-1 39:-1 40:-1 41:-1 42:-0.333333 43:-0.333333 44:0.333333 45:0.333333 46:-1 47:-0.333333 48:-1 49:0.333333 50:-1 51:-0.333333 52:-1 53:-0.333333 54:-1 55:-0.333333 56:-0.333333 57:0.333333 58:-1 59:-0.333333 60:0.333333 
3.715104680074549 1:-1 2:-1 3:1 4:-0.333333 5:-0.333333 6:1 7:-0.333333 8:-1 9:0.333333 10:1 11:1 12:0.333333 13:0.333333 14:-0.333333 15:1 16:1 17:-1 18:0.333333 19:-1 20:0.333333 21:0.333333 22:-1 23:0.333333 24:0.333333 25:-1 26:0.333333 27:-1 28:-1 29:1 30:-0.333333 31:-0.333333 32:-0.333333 33:-1 34:-0.333333 35:1 36:-0.333333 37:-1 38:-1 39:0.333333 40:-1 41:0.333333 42:0.333333 43:1 44:-1 45:0.333333 46:-1 47:-1 48:-0.333333 49:-0.333333 50:0.333333 51:0.333333 52:0.333333 53:-0.333333 54:1 55:-1 56:1 57:0.333333 58:0.333333 59:-1 60:-0.333333 
16.93902760003408 1:-1 2:-0.333333 3:-0.333333 4:-1 5:1 6:-0.333333 7:1 8:-1 9:0.333333 10:-0.333333 11:-0.333333 12:0.333333 13:1 14:-0.333333 15:0.333333 16:-0.333333 17:-1 18:0.333333 19:-0.333333 20:1 21:-0.333333 22:-0.333333 23:-0.333333 24:-0.333333 25:0.333333 26:0.333333 27:-0.333333 28:-0.333333 29:-1 30:0.333333 31:-0.333333 32:-0.333333 33:-0.333333 34:0.333333 35:-0.333333 36:0.333333 37:0.333333 38:1 39:0.333333 40:0.333333 41:1 42:0.333333 43:0.333333 44:-0.333333 45:0.333333 46:-0.333333 47:-0.333333 48:-0.333333 49:1 50:-1 51:1 52:-0.333333 53:-1 54:0.333333 55:0.333333 56:-1 57:-0.333333 58:-0.333333 59:-1 60:0.333333 
13.43317693822557 1:-0.333333 2:-1 3:-1 4:0.333333 5:1 6:-0.333333 7:1 8:1 9:-0.333333 10:0.333333 11:1 12:0.333333 13:1 14:0.333333 15:1 16:0.333333 17:0.333333 18:1 19:1 20:1 21:0.333333 22:0.333333 23:-0.333333 24:1 25:0.333333 26:1 27:0.333333 28:-1 29:-0.333333 30:-1 31:-1 32:0.333333 33:0.333333 34:-1 35:-0.333333 36:-1 37:-0.333333 38:-0.333333 39:0.333333 40:-1 41:-1 42:-1 43:-0.333333 44:-0.333333 45:0.333333 46:0.333333 47:0.333333 48:-1 49:-0.333333 50:0.333333 51:0.333333 52:1 53:0.333333 54:1 55:1 56:0.333333 57:1 58:-0.333333 59:0.333333 60:1 
4.523789435050894 1:1 2:-1 3:-1 4:1 5:-1 6:-0.333333 7:-1 8:-1 9:-0.333333 10:-1 11:-1 12:0.333333 13:-1 14:1 15:0.333333 16:0.333333 17:-1 18:-1 19:-0.333333 20:-0.333333 21:-1 22:-0.333333 23:-1 24:-1 25:-1 26:0.333333 27:-1 28:-0.333333 29:-1 30:-0.333333 31:-1 32:0.333333 33:-1 34:-0.333333 35:-0.333333 36:0.333333 37:0.333333 38:0.333333 39:-1 40:-1 41:-0.333333 42:-1 43:-0.333333 44:-1 45:1 46:-0.333333 47:-1 48:-1 49:-0.333333 50:-1 51:-0.333333 52:1 53:-0.333333 54:-1 55:-0.333333 56:-1 57:-0.333333 58:-0.333333 59:-0.333333 60:0.333333 
2.699558671109192 1:-1 2:-1 3:-0.333333 4:-1 5:-1 6:-1 7:0.333333 8:1 9:1 10:-0.333333 11:-1 12:1 13:1 14:1 15:0.333333 16:-1 17:-1 18:-1 19:-0.333333 20:1 21:1 22:1 23:0.333333 24:1 25:-1 26:-0.333333 27:1 28:-1 29:0.333333 30:-1 31:1 32:0.333333 33:-1 34:-1 35:-1 36:1 37:-1 38:-1 39:1 40:0.333333 41:1 42:-0.333333 43:-1 44:1 45:1 46:1 47:0.333333 48:-1 49:-1 50:0.333333 51:-1 52:-1 53:1 54:1 55:0.333333 56:0.333333 57:-1 58:1 59:0.333333 60:-1 
11.15195440842585 1:0.333333 2:0.333333 3:1 4:-0.333333 5:0.333333 6:0.333333 7:1 8:-0.333333 9:-0.333333 10:-0.333333 11:-1 12:-1 13:-0.333333 14:0.333333 15:0.333333 16:-0.333333 17:0.333333 18:0.333333 19:0.333333 20:1 21:1 22:0.333333 23:0.333333 24:1 25:-0.333333 26:-1 27:0.333333 28:0.333333 29:0.333333 30:-1 31:-0.333333 32:0.333333 33:1 34:0.333333 35:0.333333 36:-1 37:0.333333 38:1 39:0.333333 40:0.333333 41:1 42:-0.333333 43:0.333333 44:1 45:1 46:0.333333 47:0.333333 48:-1 49:-0.333333 50:-1 51:0.333333 52:0.333333 53:-1 54:1 55:-0.333333 56:-0.333333 57:-1 58:0.333333 59:0.333333 60:-0.333333 
8.463586168549149 1:-1 2:-1 3:-1 4:-0.333333 5:0.333333 6:0.333333 7:-1 8:0.333333 9:-1 10:-1 11:-0.333333 12:-0.333333 13:-1 14:0.333333 15:0.333333 16:-1 17:0.333333 18:0.333333 19:0.333333 20:0.333333 21:0.333333 22:-1 23:0.333333 24:-1 25:-1 26:-0.333333 27:-0.333333 28:-1 29:-0.333333 30:-0.333333 31:0.333333 32:-1 33:-1 34:0.333333 35:0.333333 36:-1 37:-0.333333 38:0.333333 39:0.333333 40:1 41:0.333333 42:-1 43:-1 44:-0.333333 45:-0.333333 46:1 47:0.333333 48:0.333333 49:0.333333 50:0.333333 51:0.333333 52:-1 53:0.333333 54:0.333333 55:1 56:0.333333 57:0.333333 58:1 59:0.333333 60:0.333333 
1.245269282127179 1:1 2:-0.333333 3:1 4:0.333333 5:-1 6:-1 7:-0.333333 8:-0.333333 9:-1 10:-0.333333 11:-0.333333 12:-1 13:-1 14:-1 15:-1 16:0.333333 17:-1 18:1 19:1 20:-1 21:-0.333333 22:-0.333333 23:-0.333333 24:-1 25:-1 26:-1 27:-1 28:0.333333 29:-1 30:-1 31:-1 32:-1 33:-1 34:1 35:-0.333333 36:-1 37:1 38:-1 39:1 40:-1 41:-1 42:-1 43:-0.333333 44:0.333333 45:0.333333 46:-1 47:1 48:-1 49:1 50:-0.333333 51:-1 52:-0.333333 53:-0.333333 54:1 55:1 56:-1 57:1 58:-1 59:1 60:1 
1.885006480366659 1:-0.333333 2:0.333333 3:1 4:-0.333333 5:1 6:-0.333333 7:-0.333333 8:-1 9:1 10:1 11:0.333333 12:1 13:0.333333 14:-0.333333 15:-1 16:0.333333 17:1 18:-0.333333 19:-0.333333 20:1 21:1 22:-1 23:1 24:-0.333333 25:-0.333333 26:-0.333333 27:1 28:0.333333 29:1 30:-0.333333 31:0.333333 32:-1 33:-0.333333 34:1 35:1 36:-1 37:-1 38:0.333333 39:-0.333333 40:1 41:1 42:-0.333333 43:0.333333 44:0.333333 45:-1 46:-1 47:-0.333333 48:-0.333333 49:1 50:0.333333 51:-1 52:0.333333 53:0.333333 54:0.333333 55:0.333333 56:-1 57:-0.333333 58:-0.333333 59:0.333333 60:1 
3.995617197331598 1:-0.333333 2:-1 3:1 4:-0.333333 5:-0.333333 6:0.333333 7:1 8:0.333333 9:-1 10:-0.333333 11:-1 12:-1 13:0.333333 14:0.333333 15:1 16:-0.333333 17:-0.333333 18:1 19:-0.333333 20:-0.333333 21:-1 22:0.333333 23:1 24:1 25:-0.333333 26:0.333333 27:0.333333 28:-0.333333 29:-1 30:1 31:-0.333333 32:1 33:1 34:1 35:1 36:0.333333 37:1 38:-0.333333 39:1 40:0.333333 41:1 42:-1 43:0.333333 44:-1 45:1 46:-0.333333 47:-1 48:-0.333333 49:0.333333 50:-1 51:-0.333333 52:1 53:-1 54:-1 55:0.333333 56:0.333333 57:0.333333 58:-1 59:-0.333333 60:-1 
2.258000953774585 1:1 2:-0.333333 3:-1 4:0.333333 5:-1 6:-1 7:-1 8:-1 9:1 10:1 11:-0.333333 12:-0.333333 13:-1 14:-1 15:1 16:-0.333333 17:1 18:1 19:0.333333 20:1 21:1 22:1 23:0.333333 24:-1 25:-0.333333 26:1 27:0.333333 28:-1 29:-1 30:1 31:-0.333333 32:-0.333333 33:0.333333 34:-1 35:-1 36:0.333333 37:-1 38:1 39:1 40:1 41:1 42:1 43:0.333333 44:-1 45:0.333333 46:1 47:-0.333333 48:-0.333333 49:-0.333333 50:1 51:1 52:1 53:-1 54:1 55:-1 56:-0.333333 57:1 58:-1 59:-0.333333 60:-0.333333 
11.86323731524765 1:-0.333333 2:-1 3:0.333333 4:0.333333 5:1 6:-0.333333 7:0.333333 8:-1 9:-0.333333 10:0.333333 11:-1 12:0.333333 13:0.333333 14:-0.333333 15:-0.333333 16:0.333333 17:1 18:-0.333333 19:-0.333333 20:-1 21:0.333333 22:-0.333333 23:-1 24:-0.333333 25:-0.333333 26:0.333333 27:0.333333 28:-0.333333 29:-1 30:-0.333333 31:0.333333 32:-1 33:-0.333333 34:-1 35:1 36:0.333333 37:-0.333333 38:0.333333 39:0.333333 40:0.333333 41:1 42:0.333333 43:-1 44:-1 45:-0.333333 46:-0.333333 47:-0.333333 48:0.333333 49:-0.333333 50:-0.333333 51:0.333333 52:-1 53:-1 54:-0.333333 55:-1 56:-1 57:-0.333333 58:0.333333 59:-1 60:-0.333333 
7.029116058482945 1:1 2:-0.333333 3:1 4:0.333333 5:1 6:1 7:-0.333333 8:-0.333333 9:-0.333333 10:-0.333333 11:0.333333 12:-1 13:1 14:-0.333333 15:1 16:-0.333333 17:0.333333 18:-1 19:-0.333333 20:-1 21:-0.333333 22:-0.333333 23:-0.333333 24:-0.333333 25:1 26:-0.333333 27:-0.333333 28:-0.333333 29:-1 30:0.333333 31:-0.333333 32:0.333333 33:0.333333 34:-1 35:1 36:0.333333 37:-1 38:-0.333333 39:0.333333 40:0.333333 41:1 42:1 43:1 44:-0.333333 45:-1 46:0.333333 47:-1 48:-0.333333 49:-1 50:-1 51:1 52:1 53:0.333333 54:1 55:-0.333333 56:-0.333333 57:-0.333333 58:0.333333 59:-1 60:-0.333333 
0.1887564967963355 1:-1 2:1 3:1 4:0.333333 5:-1 6:0.333333 7:1 8:-0.333333 9:-1 10:-1 11:-1 12:-1 13:-0.333333 14:-1 15:-0.333333 16:-0.333333 17:1 18:-1 19:0.333333 20:-1 21:-1 22:-1 23:1 24:0.333333 25:1 26:-1 27:1 28:1 29:-0.333333 30:1 31:0.333333 32:-1 33:-1 34:-0.333333 35:1 36:-1 37:0.333333 38:-1 39:-1 40:-0.333333 41:-1 42:0.333333 43:-1 44:-0.333333 45:0.333333 46:1 47:1 48:1 49:0.333333 50:1 51:-1 52:0.333333 53:1 54:0.333333 55:0.333333 56:1 57:1 58:0.333333 59:1 60:-1 
5.709270097297367 1:-1 2:0.333333 3:-1 4:-0.333333 5:0.333333 6:1 7:-1 8:-1 9:-1 10:-1 11:1 12:0.333333 13:0.333333 14:1 15:1 16:-0.333333 17:0.333333 18:0.333333 19:1 20:-0.333333 21:1 22:-0.333333 23:-1 24:-1 25:1 26:-0.333333 27:-1 28:-1 29:-1 30:-1 31:-0.333333 32:-1 33:-1 34:-0.333333 35:-0.333333 36:-1 37:-1 38:-1 39:1 40:1 41:1 42:-1 43:1 44:1 45:-0.333333 46:-1 47:0.333333 48:-1 49:-0.333333 50:-1 51:-1 52:0.333333 53:-1 54:-0.333333 55:0.333333 56:-1 57:-1 58:-1 59:1 60:-0.333333 
4.527146865614674 1:-1 2:-1 3:0.333333 4:1 5:-1 6:-0.333333 7:-1 8:1 9:1 10:-0.333333 11:-0.333333 12:0.333333 13:0.333333 14:-1 15:1 16:-1 17:1 18:-0.333333 19:1 20:1 21:1 22:-1 23:1 24:-1 25:-1 26:1 27:1 28:1 29:1 30:1 31:1 32:1 33:-1 34:-0.333333 35:-1 36:1 37:1 38:-0.333333 39:-0.333333 40:-0.333333 41:1 42:-1 43:-1 44:1 45:-0.333333 46:-1 47:-1 48:1 49:-1 50:0.333333 51:-1 52:1 53:-0.333333 54:-0.333333 55:-1 56:-0.333333 57:1 58:1 59:1 60:0.333333 
7.944985176614636 1:-1 2:-1 3:-1 4:-0.333333 5:-0.333333 6:1 7:-1 8:-1 9:1 10:-0.333333 11:-1 12:-0.333333 13:0.333333 14:0.333333 15:1 16:-0.333333 17:1 18:-0.333333 19:-1 20:-0.333333 21:-0.333333 22:-1 23:-0.333333 24:1 25:-0.333333 26:0.333333 27:0.333333 28:0.333333 29:1 30:-0.333333 31:0.333333 32:0.333333 33:-1 34:0.333333 35:0.333333 36:1 37:-0.333333 38:1 39:0.333333 40:0.333333 41:0.333333 42:-1 43:-0.333333 44:-1 45:0.333333 46:0.333333 47:1 48:1 49:0.333333 50:0.333333 51:0.333333 52:0.333333 53:-1 54:0.333333 55:1 56:0.333333 57:0.333333 58:0.333333 59:-1 60:0.333333 
6.549825591846035 1:1 2:-0.333333 3:1 4:0.333333 5:1 6:-1 7:-1 8:1 9:-1 10:-0.333333 11:0.333333 12:-0.333333 13:-0.333333 14:-1 15:-0.333333 16:1 17:-1 18:-1 19:0.333333 20:-1 21:1 22:-0.333333 23:1 24:0.333333 25:0.333333 26:1 27:0.333333 28:-1 29:0.333333 30:1 31:-0.333333 32:0.333333 33:-0.333333 34:-0.333333 35:-1 36:-0.333333 37:1 38:-0.333333 39:0.333333 40:0.333333 41:-1 42:-0.333333 43:-0.333333 44:0.333333 45:0.333333 46:-1 47:-0.333333 48:0.333333 49:-1 50:1 51:0.333333 52:1 53:-0.333333 54:-1 55:-1 56:1 57:-0.333333 58:1 59:0.333333 60:-1 
4.813277932865347 1:-1 2:-1 3:0.333333 4:-1 5:-0.333333 6:-0.333333 7:0.333333 8:-1 9:1 10:1 11:0.333333 12:0.333333 13:-1 14:0.333333 15:-1 16:-0.333333 17:-0.333333 18:0.333333 19:1 20:1 21:1 22:1 23:1 24:0.333333 25:1 26:-0.333333 27:-0.333333 28:-0.333333 29:-1 30:-1 31:0.333333 32:0.333333 33:0.333333 34:1 35:1 36:-1 37:0.333333 38:1 39:1 40:-0.333333 41:-1 42:1 43:-1 44:-0.333333 45:1 46:-0.333333 47:0.333333 48:1 49:0.333333 50:1 51:-1 52:-0.333333 53:-0.333333 54:-1 55:-1 56:-1 57:0.333333 58:-1 59:0.333333 60:1 
7.670021539244952 1:0.333333 2:1 3:0.333333 4:-1 5:-0.333333 6:-0.333333 7:0.333333 8:0.333333 9:0.333333 10:0.333333 11:1 12:0.333333 13:-1 14:0.333333 15:0.333333 16:-1 17:-0.333333 18:-1 19:1 20:-0.333333 21:0.333333 22:1 23:0.333333 24:1 25:-0.333333 26:-0.333333 27:-0.333333 28:-0.333333 29:0.333333 30:0.333333 31:-0.333333 32:-0.333333 33:0.333333 34:1 35:0.333333 36:0.333333 37:1 38:-0.333333 39:-0.333333 40:-0.333333 41:0.333333 42:1 43:-0.333333 44:0.333333 45:0.333333 46:1 47:0.333333 48:1 49:0.333333 50:1 51:0.333333 52:0.333333 53:1 54:0.333333 55:1 56:-0.333333 57:1 58:0.333333 59:0.333333 60:0.333333 
13.3237492243779 1:0.333333 2:0.333333 3:-1 4:-0.333333 5:0.333333 6:1 7:0.333333 8:0.333333 9:-1 10:0.333333 11:1 12:0.333333 13:0.333333 14:-0.333333 15:0.333333 16:1 17:-0.333333 18:1 19:0.333333 20:-0.333333 21:0.333333 22:0.333333 23:0.333333 24:-1 25:0.333333 26:0.333333 27:0.333333 28:-0.333333 29:0.333333 30:-1 31:1 32:0.333333 33:-1 34:0.333333 35:0.333333 36:0.333333 37:-0.333333 38:-0.333333 39:0.333333 40:1 41:-0.333333 42:0.333333 43:-1 44:-0.333333 45:-0.333333 46:-1 47:-0.333333 48:-1 49:-1 50:-0.333333 51:-0.333333 52:-1 53:-0.333333 54:-0.333333 55:-1 56:0.333333 57:0.333333 58:1 59:-0.333333 60:0.333333 
3.548944576253262 1:1 2:1 3:-0.333333 4:1 5:-1 6:-1 7:0.333333 8:1 9:1 10:-0.333333 11:-1 12:0.333333 13:-1 14:-1 15:-0.333333 16:-1 17:-1 18:-0.333333 19:1 20:1 21:-1 22:1 23:0.333333 24:1 25:-0.333333 26:0.333333 27:1 28:1 29:0.333333 30:0.333333 31:-1 32:-1 33:-1 34:-0.333333 35:1 36:-1 37:0.333333 38:-1 39:-1 40:1 41:-0.333333 42:-1 43:1 44:-0.333333 45:-0.333333 46:-0.333333 47:-0.333333 48:0.333333 49:-1 50:-0.333333 51:-0.333333 52:0.333333 53:-1 54:1 55:-1 56:-0.333333 57:-0.333333 58:-1 59:1 60:-0.333333 
10.04602983210073 1:-0.333333 2:1 3:-0.333333 4:-1 5:-0.333333 6:-0.333333 7:1 8:1 9:1 10:-0.333333 11:1 12:1 13:1 14:0.333333 15:1 16:-1 17:0.333333 18:0.333333 19:-1 20:-0.333333 21:1 22:1 23:-1 24:1 25:1 26:0.333333 27:0.333333 28:-0.333333 29:-0.333333 30:-1 31:-0.333333 32:1 33:-1 34:-1 35:0.333333 36:0.333333 37:-1 38:-0.333333 39:-1 40:1 41:-1 42:-1 43:-1 44:-0.333333 45:-1 46:-0.333333 47:-1 48:1 49:-0.333333 50:0.333333 51:0.333333 52:0.333333 53:1 54:0.333333 55:1 56:-0.333333 57:1 58:1 59:1 60:0.333333 
1.353958495809566 1:-1 2:0.333333 3:-1 4:-0.333333 5:0.333333 6:1 7:1 8:-1 9:-1 10:-1 11:-1 12:-0.333333 13:0.333333 14:0.333333 15:-1 16:1 17:0.333333 18:0.333333 19:1 20:1 21:0.333333 22:0.333333 23:0.333333 24:-1 25:-1 26:-1 27:-0.333333 28:0.333333 29:0.333333 30:1 31:1 32:-0.333333 33:0.333333 34:0.333333 35:1 36:0.333333 37:1 38:-0.333333 39:1 40:0.333333 41:1 42:-0.333333 43:-0.333333 44:-1 45:0.333333 46:-1 47:0.333333 48:0.333333 49:0.333333 50:-1 51:-0.333333 52:-0.333333 53:1 54:0.333333 55:0.333333 56:-1 57:1 58:-1 59:1 60:0.333333 
2.750401735048166 1:-0.333333 2:0.333333 3:1 4:-0.333333 5:0.333333 6:1 7:-0.333333 8:0.333333 9:1 10:-0.333333 11:0.333333 12:1 13:-1 14:-1 15:1 16:0.333333 17:1 18:1 19:0.333333 20:-1 21:-0.333333 22:-0.333333 23:-0.333333 24:0.333333 25:-1 26:0.333333 27:1 28:-0.333333 29:0.333333 30:1 31:-0.333333 32:0.333333 33:1 34:-0.333333 35:0.333333 36:0.333333 37:1 38:1 39:1 40:-1 41:-0.333333 42:1 43:0.333333 44:-0.333333 45:0.333333 46:1 47:-0.333333 48:-1 49:-0.333333 50:-0.333333 51:-1 52:-1 53:-1 54:-1 55:-1 56:1 57:-1 58:-1 59:-1 60:-0.333333 
6.646735700978562 1:0.333333 2:-1 3:-0.333333 4:1 5:0.333333 6:1 7:-0.333333 8:-1 9:1 10:1 11:0.333333 12:1 13:-0.333333 14:0.333333 15:0.333333 16:0.333333 17:-0.333333 18:-0.333333 19:-1 20:-0.333333 21:1 22:-1 23:-1 24:-0.333333 25:-1 26:0.333333 27:-1 28:1 29:1 30:-0.333333 31:-1 32:0.333333 33:-0.333333 34:-0.333333 35:-0.333333 36:-1 37:-0.333333 38:0.333333 39:1 40:-0.333333 41:-0.333333 42:-0.333333 43:-0.333333 44:-0.333333 45:0.333333 46:1 47:1 48:0.333333 49:-0.333333 50:1 51:-0.333333 52:0.333333 53:1 54:-0.333333 55:-0.333333 56:-0.333333 57:-0.333333 58:0.333333 59:1 60:0.333333 
3.605723386315054 1:-1 2:0.333333 3:0.333333 4:-1 5:0.333333 6:1 7:0.333333 8:-0.333333 9:-0.333333 10:1 11:0.333333 12:0.333333 13:1 14:-1 15:-0.333333 16:0.333333 17:0.333333 18:1 19:0.333333 20:0.333333 21:-1 22:-0.333333 23:-1 24:0.333333 25:-1 26:0.333333 27:0.333333 28:0.333333 29:0.333333 30:-1 31:0.333333 32:-1 33:-1 34:1 35:-1 36:0.333333 37:1 38:0.333333 39:0.333333 40:1 41:0.333333 42:1 43:-0.333333 44:-1 45:-0.333333 46:0.333333 47:0.333333 48:1 49:-0.333333 50:-1 51:-0.333333 52:-0.333333 53:0.333333 54:0.333333 55:-1 56:-0.333333 57:-0.333333 58:0.333333 59:-1 60:-0.333333 
3.483283206343627 1:-0.333333 2:-0.333333 3:-0.333333 4:-0.333333 5:-1 6:-1 7:-1 8:-1 9:0.333333 10:-1 11:1 12:-1 13:-1 14:-0.333333 15:-1 16:0.333333 17:0.333333 18:-1 19:1 20:1 21:1 22:-1 23:1 24:1 25:-1 26:-0.333333 27:1 28:-1 29:-0.333333 30:-0.333333 31:1 32:-0.333333 33:-1 34:-0.333333 35:1 36:0.333333 37:-0.333333 38:-1 39:-0.333333 40:0.333333 41:-1 42:1 43:0.333333 44:1 45:-0.333333 46:1 47:-1 48:-0.333333 49:-0.333333 50:-1 51:-1 52:0.333333 53:-1 54:-1 55:-1 56:1 57:-0.333333 58:0.333333 59:-1 60:-1 
4.519950535515686 1:-1 2:-0.333333 3:-0.333333 4:-0.333333 5:1 6:1 7:0.333333 8:-1 9:-1 10:-0.333333 11:-0.333333 12:-0.333333 13:0.333333 14:-1 15:1 16:-0.333333 17:-0.333333 18:-0.333333 19:-0.333333 20:1 21:0.333333 22:0.333333 23:0.333333 24:-0.333333 25:0.333333 26:-1 27:-0.333333 28:0.333333 29:1 30:-0.333333 31:1 32:-0.333333 33:-0.333333 34:0.333333 35:1 36:-0.333333 37:-0.333333 38:-0.333333 39:-0.333333 40:0.333333 41:-1 42:-0.333333 43:-1 44:-0.333333 45:0.333333 46:1 47:-0.333333 48:-0.333333 49:-0.333333 50:-0.333333 51:0.333333 52:1 53:-0.333333 54:-0.333333 55:1 56:0.333333 57:0.333333 58:0.333333 59:1 60:0.333333 
4.0847727694253 1:1 2:0.333333 3:-1 4:-1 5:0.333333 6:1 7:-1 8:-1 9:1 10:1 11:1 12:0.333333 13:-1 14:-1 15:-0.333333 16:-1 17:0.333333 18:-1 19:-1 20:1 21:1 22:1 23:1 24:-0.333333 25:-0.333333 26:-1 27:-0.333333 28:1 29:-0.333333 30:-0.333333 31:-0.333333 32:-1 33:-1 34:0.333333 35:0.333333 36:0.333333 37:-1 38:-1 39:-1 40:0.333333 41:0.333333 42:0.333333 43:-0.333333 44:1 45:0.333333 46:-1 47:-1 48:1 49:0.333333 50:-1 51:-1 52:-0.333333 53:1 54:0.333333 55:1 56:-1 57:0.333333 58:-1 59:0.333333 60:1 
3.054337112419328 1:-0.333333 2:-0.333333 3:0.333333 4:-1 5:-0.333333 6:-0.333333 7:-1 8:-0.333333 9:0.333333 10:0.333333 11:0.333333 12:0.333333 13:-1 14:-0.333333 15:-0.333333 16:-0.333333 17:-0.333333 18:-1 19:-0.333333 20:-0.333333 21:-1 22:-0.333333 23:-0.333333 24:-1 25:0.333333 26:-1 27:1 28:0.333333 29:0.333333 30:-1 31:-1 32:-0.333333 33:-0.333333 34:0.333333 35:0.333333 36:0.333333 37:-1 38:-1 39:0.333333 40:-1 41:-1 42:-1 43:-0.333333 44:-0.333333 45:0.333333 46:-1 47:-0.333333 48:-1 49:0.333333 50:-1 51:0.333333 52:-1 53:-0.333333 54:-1 55:-0.333333 56:-1 57:-1 58:-1 59:1 60:-0.333333 
55.9016994375 1:-1 2:-1 3:-0.333333 4:-1 5:0.333333 6:1 7:1 8:-1 9:1 10:-1 11:1 12:1 13:1 14:-0.333333 15:1 16:0.333333 17:0.333333 18:1 19:1 20:1 21:1 22:-0.333333 23:1 24:1 25:1 26:1 27:1 28:0.333333 29:-1 30:-0.333333 31:0.333333 32:0.333333 33:1 34:-1 35:0.333333 36:0.333333 37:-1 38:1 39:-0.333333 40:-1 41:-0.333333 42:-1 43:-1 44:1 45:-1 46:-1 47:-0.333333 48:-1 49:-0.333333 50:-1 51:-1 52:-1 53:-0.333333 54:-1 55:-1 56:-1 57:-1 58:1 59:-0.333333 60:-1 
3.340930934043011 1:1 2:-0.333333 3:-1 4:1 5:-0.333333 6:0.333333 7:-0.333333 8:-0.333333 9:-0.333333 10:-0.333333 11:-1 12:0.333333 13:1 14:-0.333333 15:-0.333333 16:-1 17:-0.333333 18:1 19:1 20:-0.333333 21:0.333333 22:1 23:0.333333 24:-1 25:1 26:1 27:1 28:-1 29:0.333333 30:1 31:1 32:1 33:-1 34:-1 35:0.333333 36:-1 37:-1 38:0.333333 39:-1 40:-1 41:0.333333 42:-0.333333 43:1 44:1 45:0.333333 46:0.333333 47:-0.333333 48:-1 49:1 50:-1 51:-0.333333 52:-1 53:1 54:-0.333333 55:-1 56:1 57:1 58:0.333333 59:-1 60:-0.333333 
5.533692494173174 1:-0.333333 2:-0.333333 3:0.333333 4:0.333333 5:0.333333 6:1 7:-1 8:-0.333333 9:1 10:-1 11:-0.333333 12:0.333333 13:-1 14:-0.333333 15:0.333333 16:0.333333 17:-1 18:1 19:-1 20:0.333333 21:-1 22:-0.333333 23:-0.333333 24:-1 25:-0.333333 26:0.333333 27:1 28:-0.333333 29:-0.333333 30:-0.333333 31:-0.333333 32:-1 33:-1 34:-0.333333 35:-0.333333 36:-0.333333 37:-0.333333 38:-0.333333 39:0.333333 40:0.333333 41:1 42:0.333333 43:1 44:-0.333333 45:-0.333333 46:-0.333333 47:-0.333333 48:0.333333 49:1 50:-0.333333 51:-1 52:0.333333 53:0.333333 54:-1 55:-0.333333 56:-0.333333 57:0.333333 58:-0.333333 59:-1 60:0.333333 
0.1589023859206938 1:-1 2:1 3:1 4:0.333333 5:-1 6:0.333333 7:-0.333333 8:-1 9:1 10:-1 11:1 12:1 13:1 14:-1 15:-1 16:-0.333333 17:-1 18:0.333333 19:-1 20:1 21:-1 22:-1 23:1 24:-1 25:1 26:-0.333333 27:1 28:-0.333333 29:1 30:-0.333333 31:1 32:-0.333333 33:1 34:-0.333333 35:1 36:-1 37:1 38:1 39:1 40:-1 41:1 42:-0.333333 43:-1 44:1 45:-0.333333 46:0.333333 47:1 48:-0.333333 49:1 50:0.333333 51:-1 52:0.333333 53:1 54:-0.333333 55:1 56:0.333333 57:1 58:0.333333 59:1 60:-0.333333 
2.14716124161749 1:1 2:1 3:1 4:-1 5:1 6:1 7:-1 8:0.333333 9:1 10:1 11:-1 12:1 13:1 14:1 15:-0.333333 16:-0.333333 17:-0.333333 18:-0.333333 19:1 20:1 21:-0.333333 22:0.333333 23:-1 24:1 25:0.333333 26:-1 27:-0.333333 28:-1 29:-1 30:-1 31:1 32:-0.333333 33:1 34:0.333333 35:1 36:-0.333333 37:-0.333333 38:-1 39:-0.333333 40:-1 41:-1 42:1 43:-1 44:-1 45:1 46:1 47:0.333333 48:1 49:1 50:1 51:-0.333333 52:-1 53:1 54:1 55:-1 56:1 57:-0.333333 58:-1 59:0.333333 60:1 
8.248701746995948 1:1 2:-0.333333 3:1 4:-0.333333 5:-0.333333 6:0.333333 7:0.333333 8:-0.333333 9:1 10:0.333333 11:1 12:1 13:0.333333 14:0.333333 15:0.333333 16:1 17:0.333333 18:0.333333 19:-1 20:-0.333333 21:-0.333333 22:-0.333333 23:-1 24:-0.333333 25:0.333333 26:0.333333 27:-1 28:1 29:1 30:-0.333333 31:1 32:-0.333333 33:-0.333333 34:0.333333 35:0.333333 36:-0.333333 37:1 38:-0.333333 39:-1 40:0.333333 41:-0.333333 42:-0.333333 43:-0.333333 44:1 45:-0.333333 46:-1 47:0.333333 48:-0.333333 49:-0.333333 50:-0.333333 51:-0.333333 52:1 53:-0.333333 54:-1 55:-1 56:0.333333 57:-0.333333 58:-1 59:0.333333 60:1 
4.130785211899026 1:1 2:1 3:0.333333 4:-1 5:-0.333333 6:1 7:-0.333333 8:-0.333333 9:0.333333 10:-1 11:-0.333333 12:1 13:-0.333333 14:-0.333333 15:-0.333333 16:1 17:0.333333 18:1 19:-0.333333 20:-0.333333 21:-0.333333 22:-1 23:0.333333 24:-1 25:-0.333333 26:-1 27:0.333333 28:1 29:1 30:0.333333 31:-1 32:0.333333 33:1 34:0.333333 35:1 36:0.333333 37:-1 38:0.333333 39:0.333333 40:-1 41:1 42:0.333333 43:-1 44:-0.333333 45:0.333333 46:-1 47:-0.333333 48:-1 49:0.333333 50:1 51:-0.333333 52:-0.333333 53:-1 54:-0.333333 55:0.333333 56:0.333333 57:1 58:-0.333333 59:-1 60:-1 
2.601957363482482 1:-1 2:-1 3:-0.333333 4:0.333333 5:-1 6:-1 7:-1 8:-0.333333 9:1 10:-0.333333 11:-1 12:1 13:-1 14:1 15:-1 16:1 17:-1 18:1 19:1 20:1 21:-0.333333 22:1 23:1 24:1 25:-1 26:1 27:-0.333333 28:-1 29:-1 30:-1 31:1 32:-0.333333 33:1 34:1 35:-1 36:0.333333 37:-1 38:1 39:-0.333333 40:1 41:-1 42:-0.333333 43:-1 44:-1 45:-1 46:-1 47:-1 48:1 49:-1 50:0.333333 51:1 52:-0.333333 53:-1 54:1 55:1 56:1 57:1 58:-1 59:-1 60:-1 
3.962690370598683 1:0.333333 2:0.333333 3:1 4:-1 5:1 6:-0.333333 7:1 8:-1 9:0.333333 10:0.333333 11:1 12:1 13:1 14:0.333333 15:1 16:-1 17:1 18:0.333333 19:0.333333 20:0.333333 21:1 22:0.333333 23:1 24:0.333333 25:1 26:-0.333333 27:-1 28:-1 29:-0.333333 30:0.333333 31:1 32:1 33:0.333333 34:1 35:-0.333333 36:0.333333 37:-1 38:-0.333333 39:-1 40:-1 41:1 42:1 43:0.333333 44:0.333333 45:0.333333 46:-1 47:-0.333333 48:0.333333 49:-1 50:-1 51:-0.333333 52:-1 53:0.333333 54:-1 55:-0.333333 56:-1 57:-0.333333 58:0.333333 59:1 60:1 
8.674868073763262 1:1 2:1 3:0.333333 4:-1 5:0.333333 6:0.333333 7:0.333333 8:0.333333 9:-1 10:0.333333 11:-1 12:-0.333333 13:-0.333333 14:1 15:-0.333333 16:0.333333 17:-1 18:-0.333333 19:-0.333333 20:0.333333 21:1 22:-0.333333 23:0.333333 24:0.333333 25:1 26:-1 27:1 28:0.333333 29:-1 30:-0.333333 31:-1 32:-1 33:-0.333333 34:-0.333333 35:1 36:-0.333333 37:-0.333333 38:1 39:-0.333333 40:-0.333333 41:0.333333 42:1 43:-0.333333 44:-0.333333 45:1 46:-0.333333 47:1 48:-0.333333 49:-0.333333 50:0.333333 51:1 52:-1 53:-1 54:1 55:-0.333333 56:0.333333 57:0.333333 58:0.333333 59:1 60:-0.333333 
6.479031414925155 1:-0.333333 2:1 3:-0.333333 4:1 5:1 6:-0.333333 7:-0.333333 8:-0.333333 9:0.333333 10:-1 11:-1 12:0.333333 13:-1 14:-1 15:-1 16:1 17:-0.333333 18:-1 19:1 20:0.333333 21:1 22:1 23:1 24:-0.333333 25:-1 26:-0.333333 27:-0.333333 28:-1 29:-1 30:0.333333 31:-1 32:1 33:-0.333333 34:-0.333333 35:1 36:1 37:1 38:1 39:-1 40:-0.333333 41:-0.333333 42:0.333333 43:-0.333333 44:-0.333333 45:-1 46:0.333333 47:0.333333 48:-1 49:0.333333 50:-1 51:0.333333 52:0.333333 53:-0.333333 54:0.333333 55:0.333333 56:0.333333 57:-1 58:0.333333 59:-1 60:-1 
10.36030747984086 1:1 2:-0.333333 3:0.333333 4:1 5:0.333333 6:0.333333 7:0.333333 8:0.333333 9:0.333333 10:-1 11:-1 12:0.333333 13:1 14:1 15:-0.333333 16:-0.333333 17:-0.333333 18:-0.333333 19:0.333333 20:0.333333 21:0.333333 22:1 23:-0.333333 24:-0.333333 25:-1 26:1 27:0.333333 28:0.333333 29:-1 30:-0.333333 31:0.333333 32:-1 33:-0.333333 34:-0.333333 35:1 36:-0.333333 37:-0.333333 38:-1 39:1 40:0.333333 41:-1 42:-0.333333 43:-1 44:-0.333333 45:0.333333 46:1 47:-0.333333 48:-0.333333 49:0.333333 50:-0.333333 51:0.333333 52:-1 53:-1 54:-1 55:-0.333333 56:-1 57:-0.333333 58:0.333333 59:-0.333333 60:-0.333333 
27.80030121539313 1:0.333333 2:-0.333333 3:0.333333 4:0.333333 5:-0.333333 6:0.333333 7:0.333333 8:-0.333333 9:0.333333 10:0.333333 11:-0.333333 12:-0.333333 13:-0.333333 14:-0.333333 15:0.333333 16:-0.333333 17:-0.333333 18:0.333333 19:0.333333 20:0.333333 21:0.333333 22:0.333333 23:-0.333333 24:0.333333 25:-0.333333 26:0.333333 27:1 28:0.333333 29:1 30:-1 31:0.333333 32:0.333333 33:0.333333 34:1 35:-0.333333 36:0.333333 37:-1 38:0.333333 39:1 40:0.333333 41:-0.333333 42:-0.333333 43:0.333333 44:0.333333 45:1 46:0.333333 47:-1 48:-1 49:0.333333 50:-0.333333 51:-0.333333 52:-0.333333 53:0.333333 54:1 55:0.333333 56:0.333333 57:0.333333 58:-0.333333 59:0.333333 60:-1 
10.76254345368448 1:0.333333 2:1 3:0.333333 4:-0.333333 5:-1 6:0.333333 7:-0.333333 8:-0.333333 9:1 10:-0.333333 11:-1 12:1 13:-0.333333 14:-0.333333 15:-0.333333 16:-0.333333 17:-0.333333 18:-0.333333 19:0.333333 20:-1 21:-1 22:0.333333 23:1 24:0.333333 25:-0.333333 26:-0.333333 27:0.333333 28:-0.333333 29:-0.333333 30:-0.333333 31:-0.333333 32:-0.333333 33:-1 34:-0.333333 35:0.333333 36:1 37:-0.333333 38:1 39:-0.333333 40:0.333333 41:-0.333333 42:1 43:0.333333 44:1 45:1 46:0.333333 47:0.333333 48:0.333333 49:0.333333 50:1 51:1 52:0.333333 53:-1 54:0.333333 55:1 56:1 57:1 58:0.333333 59:0.333333 60:1 
6.148840082837821 1:-1 2:0.333333 3:-1 4:1 5:-0.333333 6:1 7:1 8:-0.333333 9:0.333333 10:0.333333 11:0.333333 12:1 13:0.333333 14:1 15:-0.333333 16:-0.333333 17:-1 18:1 19:-1 20:-1 21:-1 22:1 23:1 24:0.333333 25:1 26:0.333333 27:-1 28:-1 29:-0.333333 30:-0.333333 31:-1 32:-0.333333 33:-0.333333 34:0.333333 35:-1 36:-0.333333 37:-1 38:-1 39:-1 40:-0.333333 41:-0.333333 42:1 43:-0.333333 44:-1 45:-1 46:-1 47:-0.333333 48:0.333333 49:1 50:-0.333333 51:-0.333333 52:-1 53:-0.333333 54:-1 55:1 56:-1 57:0.333333 58:1 59:-0.333333 60:1 
8.359235730984304 1:0.333333 2:0.333333 3:-0.333333 4:0.333333 5:0.333333 6:1 7:0.333333 8:1 9:0.333333 10:-1 11:1 12:0.333333 13:0.333333 14:-1 15:-0.333333 16:-0.333333 17:-1 18:-1 19:-1 20:1 21:-0.333333 22:1 23:1 24:-0.333333 25:-0.333333 26:-1 27:-0.333333 28:-1 29:-1 30:0.333333 31:1 32:0.333333 33:-1 34:-0.333333 35:-1 36:-0.333333 37:-0.333333 38:-0.333333 39:0.333333 40:0.333333 41:1 42:-0.333333 43:-0.333333 44:-1 45:0.333333 46:-1 47:0.333333 48:1 49:0.333333 50:1 51:-0.333333 52:-1 53:-0.333333 54:0.333333 55:-0.333333 56:-0.333333 57:-1 58:0.333333 59:-1 60:-0.333333 
4.79974981031327 1:0.333333 2:1 3:1 4:1 5:1 6:-0.333333 7:1 8:-0.333333 9:-0.333333 10:-1 11:0.333333 12:1 13:1 14:-0.333333 15:1 16:0.333333 17:1 18:-0.333333 19:-1 20:0.333333 21:0.333333 22:-1 23:0.333333 24:0.333333 25:1 26:1 27:0.333333 28:1 29:-1 30:1 31:1 32:1 33:-0.333333 34:0.333333 35:0.333333 36:0.333333 37:-1 38:-0.333333 39:-1 40:-0.333333 41:1 42:1 43:1 44:-0.333333 45:0.333333 46:1 47:0.333333 48:-1 49:-1 50:1 51:1 52:0.333333 53:0.333333 54:-1 55:-1 56:-0.333333 57:-1 58:0.333333 59:-1 60:-0.333333 
5.766717707166172 1:-0.333333 2:-0.333333 3:-0.333333 4:1 5:-0.333333 6:1 7:-1 8:-0.333333 9:0.333333 10:-0.333333 11:0.333333 12:1 13:-0.333333 14:0.333333 15:-1 16:-1 17:-1 18:0.333333 19:-0.333333 20:-1 21:1 22:-0.333333 23:-1 24:-1 25:-0.333333 26:0.333333 27:-1 28:-1 29:-0.333333 30:-1 31:-0.333333 32:1 33:-1 34:-1 35:-0.333333 36:-1 37:-1 38:-1 39:0.333333 40:1 41:-0.333333 42:1 43:1 44:-1 45:0.333333 46:1 47:1 48:-0.333333 49:0.333333 50:1 51:-1 52:-0.333333 53:0.333333 54:-1 55:1 56:-0.333333 57:-0.333333 58:-1 59:-1 60:-1 
10.90293228683863 1:-1 2:0.333333 3:-1 4:-0.333333 5:-0.333333 6:0.333333 7:0.333333 8:0.333333 9:-0.333333 10:-0.333333 11:1 12:-0.333333 13:-0.333333 14:-0.333333 15:1 16:0.333333 17:0.333333 18:1 19:-0.333333 20:0.333333 21:-1 22:-0.333333 23:-0.333333 24:0.333333 25:0.333333 26:0.333333 27:-1 28:-0.333333 29:0.333333 30:-1 31:-0.333333 32:-0.333333 33:-0.333333 34:-1 35:-1 36:-1 37:0.333333 38:0.333333 39:1 40:-0.333333 41:-0.333333 42:0.333333 43:0.333333 44:0.333333 45:1 46:-0.333333 47:-1 48:1 49:-0.333333 50:-0.333333 51:1 52:0.333333 53:1 54:-0.333333 55:-1 56:-0.333333 57:-0.333333 58:-0.333333 59:-0.333333 60:-0.333333 
0.6123702519585456 1:1 2:-1 3:1 4:1 5:1 6:0.333333 7:-1 8:1 9:0.333333 10:-1 11:-0.333333 12:-0.333333 13:-1 14:-1 15:-0.333333 16:-1 17:-1 18:1 19:-0.333333 20:-0.333333 21:-1 22:-0.333333 23:-0.333333 24:1 25:0.333333 26:1 27:-0.333333 28:-1 29:0.333333 30:0.333333 31:1 32:-1 33:-1 34:-1 35:-0.333333 36:-0.333333 37:1 38:-1 39:-0.333333 40:-1 41:-1 42:-1 43:1 44:-1 45:1 46:-0.333333 47:1 48:0.333333 49:-1 50:-1 51:-1 52:1 53:-0.333333 54:1 55:-1 56:0.333333 57:-1 58:-0.333333 59:0.333333 60:-1 
1.590108381269894 1:-1 2:0.333333 3:1 4:0.333333 5:-0.333333 6:0.333333 7:1 8:-0.333333 9:1 10:-1 11:1 12:-1 13:0.333333 14:-1 15:-1 16:1 17:-1 18:0.333333 19:0.333333 20:-1 21:-1 22:-1 23:-0.333333 24:-0.333333 25:-0.333333 26:0.333333 27:1 28:1 29:1 30:1 31:1 32:1 33:-0.333333 34:-0.333333 35:-0.333333 36:1 37:0.333333 38:0.333333 39:0.333333 40:-1 41:0.333333 42:0.333333 43:1 44:0.333333 45:0.333333 46:1 47:-0.333333 48:0.333333 49:0.333333 50:1 51:1 52:1 53:1 54:-0.333333 55:0.333333 56:1 57:1 58:1 59:1 60:0.333333 
3.865971089002751 1:-0.333333 2:0.333333 3:1 4:1 5:1 6:-0.333333 7:1 8:-0.333333 9:-1 10:-0.333333 11:-1 12:1 13:-1 14:-1 15:-1 16:-1 17:0.333333 18:1 19:0.333333 20:1 21:0.333333 22:0.333333 23:1 24:1 25:1 26:1 27:0.333333 28:0.333333 29:1 30:1 31:-1 32:0.333333 33:0.333333 34:-1 35:1 36:-1 37:0.333333 38:0.333333 39:-1 40:0.333333 41:1 42:1 43:1 44:-0.333333 45:-1 46:0.333333 47:-1 48:0.333333 49:-0.333333 50:0.333333 51:1 52:1 53:0.333333 54:-1 55:-1 56:-0.333333 57:-0.333333 58:-1 59:1 60:-1 
13.9980855043531 1:-1 2:-0.333333 3:-1 4:0.333333 5:-0.333333 6:-1 7:1 8:-0.333333 9:-1 10:0.333333 11:-0.333333 12:-1 13:0.333333 14:-0.333333 15:-1 16:1 17:-0.333333 18:-0.333333 19:0.333333 20:1 21:0.333333 22:1 23:-0.333333 24:-1 25:-0.333333 26:-0.333333 27:-0.333333 28:-0.333333 29:-1 30:0.333333 31:0.333333 32:1 33:0.333333 34:-1 35:-0.333333 36:-0.333333 37:-0.333333 38:-0.333333 39:0.333333 40:1 41:-0.333333 42:0.333333 43:0.333333 44:-0.333333 45:-1 46:-0.333333 47:0.333333 48:1 49:-0.333333 50:-0.333333 51:-0.333333 52:-0.333333 53:-0.333333 54:-0.333333 55:-0.333333 56:0.333333 57:-0.333333 58:0.333333 59:1 60:0.333333 
3.436053660540154 1:-0.333333 2:-1 3:-0.333333 4:1 5:-1 6:-1 7:-1 8:0.333333 9:1 10:1 11:1 12:1 13:-0.333333 14:0.333333 15:1 16:-0.333333 17:-0.333333 18:-0.333333 19:0.333333 20:1 21:0.333333 22:0.333333 23:-1 24:-1 25:-0.333333 26:1 27:-0.333333 28:-1 29:0.333333 30:0.333333 31:-0.333333 32:0.333333 33:0.333333 34:0.333333 35:-1 36:1 37:-1 38:-0.333333 39:1 40:1 41:1 42:-1 43:1 44:1 45:-1 46:1 47:-1 48:-1 49:-1 50:-0.333333 51:-0.333333 52:1 53:-0.333333 54:-1 55:0.333333 56:1 57:-0.333333 58:0.333333 59:-1 60:0.333333 
3.470567659195791 1:1 2:-0.333333 3:-1 4:-1 5:-0.333333 6:0.333333 7:0.333333 8:1 9:1 10:0.333333 11:1 12:0.333333 13:-1 14:0.333333 15:0.333333 16:-1 17:-1 18:-0.333333 19:-0.333333 20:-0.333333 21:1 22:-1 23:0.333333 24:0.333333 25:0.333333 26:-1 27:0.333333 28:-1 29:0.333333 30:0.333333 31:-0.333333 32:-0.333333 33:-1 34:-1 35:1 36:1 37:1 38:0.333333 39:0.333333 40:-1 41:-0.333333 42:-0.333333 43:-1 44:-1 45:-0.333333 46:-1 47:-1 48:-1 49:1 50:-1 51:-0.333333 52:-1 53:-0.333333 54:1 55:1 56:1 57:0.333333 58:1 59:1 60:-1 
1.944984517491892 1:1 2:-1 3:1 4:-0.333333 5:0.333333 6:-1 7:1 8:0.333333 9:-1 10:-0.333333 11:-1 12:1 13:1 14:-0.333333 15:0.333333 16:-1 17:-1 18:1 19:-1 20:-1 21:-1 22:1 23:-0.333333 24:-0.333333 25:0.333333 26:1 27:-1 28:1 29:-1 30:1 31:1 32:-0.333333 33:-0.333333 34:-1 35:-1 36:-1 37:0.333333 38:1 39:1 40:-1 41:-1 42:-1 43:1 44:-0.333333 45:-1 46:-1 47:0.333333 48:1 49:-0.333333 50:-0.333333 51:-0.333333 52:0.333333 53:-1 54:-1 55:-0.333333 56:-1 57:1 58:-0.333333 59:-1 60:1 
3.625848235743893 1:0.333333 2:-1 3:0.333333 4:1 5:-0.333333 6:-1 7:-0.333333 8:-0.333333 9:-0.333333 10:-0.333333 11:0.333333 12:0.333333 13:1 14:1 15:0.333333 16:1 17:-0.333333 18:-1 19:0.333333 20:-1 21:1 22:-0.333333 23:-1 24:-0.333333 25:1 26:0.333333 27:1 28:-0.333333 29:0.333333 30:0.333333 31:1 32:-0.333333 33:-0.333333 34:0.333333 35:0.333333 36:0.333333 37:0.333333 38:-1 39:0.333333 40:0.333333 41:1 42:0.333333 43:0.333333 44:1 45:-1 46:-0.333333 47:1 48:1 49:0.333333 50:0.333333 51:1 52:0.333333 53:-1 54:1 55:-1 56:-1 57:1 58:-1 59:-1 60:-1 
4.918885280931192 1:-1 2:-0.333333 3:-0.333333 4:-0.333333 5:1 6:1 7:0.333333 8:0.333333 9:0.333333 10:0.333333 11:1 12:-0.333333 13:-1 14:-0.333333 15:0.333333 16:-0.333333 17:0.333333 18:0.333333 19:-0.333333 20:-0.333333 21:-1 22:-0.333333 23:0.333333 24:1 25:0.333333 26:-1 27:0.333333 28:-1 29:-0.333333 30:-0.333333 31:1 32:0.333333 33:1 34:0.333333 35:-0.333333 36:0.333333 37:0.333333 38:1 39:1 40:-0.333333 41:1 42:0.333333 43:0.333333 44:0.333333 45:-0.333333 46:-1 47:-1 48:-1 49:-0.333333 50:0.333333 51:0.333333 52:0.333333 53:0.333333 54:-0.333333 55:0.333333 56:-1 57:-1 58:1 59:0.333333 60:-0.333333 
1.294417012634866 1:-1 2:-1 3:1 4:-1 5:-0.333333 6:-1 7:1 8:-0.333333 9:-0.333333 10:-0.333333 11:-0.333333 12:0.333333 13:1 14:-0.333333 15:1 16:-0.333333 17:0.333333 18:0.333333 19:1 20:-1 21:-0.333333 22:1 23:-0.333333 24:-0.333333 25:-0.333333 26:1 27:-0.333333 28:0.333333 29:1 30:0.333333 31:-1 32:-0.333333 33:-0.333333 34:0.333333 35:0.333333 36:-1 37:-0.333333 38:1 39:-1 40:1 41:-0.333333 42:-0.333333 43:-1 44:0.333333 45:1 46:1 47:1 48:-1 49:1 50:-0.333333 51:1 52:-0.333333 53:-0.333333 54:1 55:0.333333 56:-1 57:0.333333 58:1 59:-0.333333 60:0.333333 
10.29516089421655 1:1 2:-0.333333 3:1 4:-0.333333 5:-0.333333 6:-1 7:0.333333 8:-1 9:-1 10:-0.333333 11:1 12:-1 13:0.333333 14:-1 15:-1 16:0.333333 17:-0.333333 18:1 19:-0.333333 20:-1 21:-0.333333 22:0.333333 23:-0.333333 24:-0.333333 25:0.333333 26:-1 27:0.333333 28:0.333333 29:-1 30:-1 31:0.333333 32:-0.333333 33:-0.333333 34:-0.333333 35:-1 36:0.333333 37:0.333333 38:1 39:-0.333333 40:0.333333 41:0.333333 42:1 43:-0.333333 44:0.333333 45:1 46:-0.333333 47:-0.333333 48:0.333333 49:0.333333 50:-1 51:-0.333333 52:0.333333 53:-1 54:1 55:-0.333333 56:-0.333333 57:-0.333333 58:-0.333333 59:0.333333 60:1 
0.8447194145417511 1:0.333333 2:0.333333 3:1 4:0.333333 5:-1 6:-0.333333 7:1 8:-1 9:0.333333 10:0.333333 11:-1 12:-1 13:-1 14:0.333333 15:1 16:0.333333 17:-1 18:1 19:-1 20:0.333333 21:-1 22:1 23:0.333333 24:-1 25:-1 26:-1 27:0.333333 28:1 29:-0.333333 30:1 31:-0.333333 32:1 33:-1 34:0.333333 35:1 36:-1 37:-0.333333 38:-0.333333 39:0.333333 40:1 41:1 42:-1 43:1 44:-1 45:1 46:-1 47:1 48:-1 49:1 50:-1 51:-0.333333 52:-1 53:1 54:-0.333333 55:1 56:0.333333 57:0.333333 58:1 59:-1 60:-1 
2.079833336301754 1:0.333333 2:-1 3:-0.333333 4:-0.333333 5:-0.333333 6:-1 7:-0.333333 8:-0.333333 9:0.333333 10:-1 11:0.333333 12:0.333333 13:0.333333 14:0.333333 15:0.333333 16:-1 17:0.333333 18:-0.333333 19:0.333333 20:0.333333 21:1 22:-0.333333 23:-0.333333 24:0.333333 25:1 26:1 27:-0.333333 28:-0.333333 29:0.333333 30:1 31:-0.333333 32:-1 33:1 34:-0.333333 35:1 36:1 37:1 38:-0.333333 39:1 40:-0.333333 41:1 42:1 43:1 44:1 45:1 46:-1 47:-0.333333 48:1 49:-1 50:-0.333333 51:-0.333333 52:0.333333 53:-1 54:0.333333 55:-0.333333 56:0.333333 57:0.333333 58:-0.333333 59:1 60:-0.333333 
2.709380227377883 1:1 2:-1 3:0.333333 4:0.333333 5:-0.333333 6:-1 7:1 8:-0.333333 9:0.333333 10:1 11:-1 12:-1 13:-1 14:-0.333333 15:-0.333333 16:-1 17:1 18:0.333333 19:0.333333 20:-1 21:1 22:-0.333333 23:1 24:1 25:-1 26:0.333333 27:-1 28:-1 29:1 30:-1 31:-1 32:1 33:-0.333333 34:-0.333333 35:0.333333 36:-1 37:1 38:1 39:-1 40:1 41:1 42:1 43:-0.333333 44:-0.333333 45:-1 46:-1 47:-1 48:1 49:0.333333 50:0.333333 51:0.333333 52:-1 53:-0.333333 54:1 55:-0.333333 56:-0.333333 57:1 58:-1 59:1 60:1 
4.89258291448152 1:-1 2:1 3:-0.333333 4:1 5:0.333333 6:0.333333 7:0.333333 8:-1 9:-0.333333 10:0.333333 11:-1 12:-1 13:0.333333 14:-1 15:0.333333 16:-1 17:0.333333 18:-1 19:0.333333 20:1 21:-0.333333 22:0.333333 23:0.333333 24:-1 25:-0.333333 26:1 27:-0.333333 28:-1 29:0.333333 30:0.333333 31:0.333333 32:1 33:0.333333 34:1 35:0.333333 36:0.333333 37:0.333333 38:0.333333 39:1 40:-0.333333 41:0.333333 42:0.333333 43:0.333333 44:1 45:0.333333 46:-1 47:-0.333333 48:1 49:0.333333 50:-1 51:-0.333333 52:-0.333333 53:-1 54:-0.333333 55:0.333333 56:1 57:0.333333 58:0.333333 59:1 60:0.333333 
55.9016994375 1:-1 2:-1 3:-0.333333 4:0.333333 5:1 6:-0.333333 7:0.333333 8:-1 9:1 10:-0.333333 11:1 12:-0.333333 13:-0.333333 14:-1 15:1 16:0.333333 17:0.333333 18:1 19:-0.333333 20:-1 21:-0.333333 22:-1 23:-1 24:0.333333 25:1 26:1 27:0.333333 28:-1 29:-1 30:-0.333333 31:-0.333333 32:1 33:-0.333333 34:-1 35:-0.333333 36:1 37:0.333333 38:0.333333 39:-1 40:-0.333333 41:-0.333333 42:-1 43:-0.333333 44:-1 45:1 46:-0.333333 47:1 48:1 49:1 50:0.333333 51:-1 52:-0.333333 53:0.333333 54:0.333333 55:0.333333 56:1 57:-0.333333 58:1 59:1 60:-0.333333 
2.404343952090321 1:1 2:-1 3:-1 4:-0.333333 5:-1 6:-0.333333 7:1 8:-1 9:-1 10:-1 11:-1 12:0.333333 13:1 14:0.333333 15:-1 16:-0.333333 17:0.333333 18:-1 19:-0.333333 20:-0.333333 21:-0.333333 22:-1 23:0.333333 24:0.333333 25:0.333333 26:1 27:1 28:-0.333333 29:0.333333 30:0.333333 31:0.333333 32:0.333333 33:-1 34:0.333333 35:-1 36:0.333333 37:1 38:0.333333 39:-1 40:-0.333333 41:-0.333333 42:-1 43:-1 44:1 45:-0.333333 46:-0.333333 47:-1 48:-1 49:-0.333333 50:-1 51:-0.333333 52:-0.333333 53:0.333333 54:-1 55:-1 56:1 57:-0.333333 58:0.333333 59:0.333333 60:1 
21.43208010187449 1:-0.333333 2:0.333333 3:-0.333333 4:-0.333333 5:1 6:-0.333333 7:-0.333333 8:0.333333 9:-0.333333 10:-1 11:0.333333 12:-1 13:1 14:-0.333333 15:-0.333333 16:0.333333 17:-0.333333 18:-0.333333 19:-1 20:-0.333333 21:0.333333 22:0.333333 23:0.333333 24:1 25:0.333333 26:0.333333 27:-0.333333 28:-1 29:-0.333333 30:-0.333333 31:0.333333 32:-0.333333 33:-0.333333 34:-0.333333 35:1 36:-0.333333 37:-1 38:0.333333 39:-0.333333 40:0.333333 41:-0.333333 42:0.333333 43:0.333333 44:0.333333 45:0.333333 46:0.333333 47:1 48:-0.333333 49:-1 50:1 51:-0.333333 52:-1 53:1 54:-0.333333 55:-0.333333 56:-0.333333 57:0.333333 58:0.333333 59:1 60:0.333333 
6.566497483358457 1:-1 2:-1 3:1 4:-1 5:1 6:1 7:-1 8:0.333333 9:0.333333 10:1 11:-0.333333 12:-1 13:-0.333333 14:-0.333333 15:1 16:-1 17:-1 18:-0.333333 19:-0.333333 20:1 21:-1 22:-1 23:-0.333333 24:-0.333333 25:0.333333 26:-1 27:-1 28:-1 29:-0.333333 30:-1 31:-0.333333 32:1 33:-0.333333 34:-0.333333 35:-0.333333 36:-1 37:-0.333333 38:-0.333333 39:0.333333 40:-1 41:-0.333333 42:-0.333333 43:-0.333333 44:-1 45:-0.333333 46:1 47:0.333333 48:0.333333 49:-1 50:-0.333333 51:1 52:1 53:0.333333 54:-1 55:-0.333333 56:-0.333333 57:-0.333333 58:-1 59:0.333333 60:-0.333333 
15.54415593977347 1:1 2:1 3:1 4:0.333333 5:0.333333 6:-1 7:0.333333 8:1 9:0.333333 10:0.333333 11:1 12:0.333333 13:0.333333 14:1 15:1 16:-0.333333 17:1 18:0.333333 19:1 20:1 21:0.333333 22:1 23:0.333333 24:1 25:0.333333 26:1 27:-0.333333 28:0.333333 29:-1 30:-0.333333 31:1 32:-0.333333 33:0.333333 34:0.333333 35:0.333333 36:1 37:-0.333333 38:-0.333333 39:-0.333333 40:-1 41:-0.333333 42:0.333333 43:1 44:-0.333333 45:1 46:0.333333 47:-1 48:1 49:1 50:-0.333333 51:0.333333 52:0.333333 53:0.333333 54:1 55:0.333333 56:0.333333 57:1 58:-0.333333 59:0.333333 60:1 
2.268367009588216 1:0.333333 2:1 3:1 4:0.333333 5:-1 6:-1 7:-1 8:-0.333333 9:0.333333 10:1 11:-0.333333 12:-1 13:-0.333333 14:-1 15:-1 16:-0.333333 17:-1 18:-1 19:-1 20:1 21:0.333333 22:1 23:-0.333333 24:0.333333 25:-1 26:-0.333333 27:-1 28:-1 29:0.333333 30:-1 31:-1 32:1 33:-0.333333 34:0.333333 35:1 36:-0.333333 37:-1 38:-0.333333 39:1 40:-0.333333 41:-0.333333 42:-0.333333 43:1 44:1 45:1 46:-1 47:1 48:0.333333 49:-1 50:-1 51:-0.333333 52:-0.333333 53:-0.333333 54:-0.333333 55:0.333333 56:0.333333 57:-1 58:1 59:1 60:-1 
8.54944814672942 1:0.333333 2:0.333333 3:1 4:-0.333333 5:-0.333333 6:0.333333 7:0.333333 8:-1 9:0.333333 10:0.333333 11:-1 12:-0.333333 13:0.333333 14:1 15:1 16:0.333333 17:0.333333 18:0.333333 19:1 20:0.333333 21:1 22:-0.333333 23:0.333333 24:0.333333 25:1 26:-0.333333 27:-1 28:0.333333 29:0.333333 30:0.333333 31:0.333333 32:-1 33:-0.333333 34:-0.333333 35:0.333333 36:0.333333 37:-1 38:0.333333 39:0.333333 40:1 41:-0.333333 42:1 43:0.333333 44:1 45:1 46:0.333333 47:1 48:0.333333 49:1 50:0.333333 51:0.333333 52:0.333333 53:-1 54:0.333333 55:-0.333333 56:1 57:-0.333333 58:0.333333 59:-1 60:0.333333 
2.495787461617607 1:-0.333333 2:-0.333333 3:-1 4:1 5:1 6:1 7:-1 8:-1 9:-1 10:-1 11:1 12:-1 13:1 14:1 15:-1 16:1 17:-0.333333 18:1 19:1 20:-0.333333 21:-1 22:-1 23:1 24:1 25:-0.333333 26:-0.333333 27:0.333333 28:1 29:1 30:0.333333 31:1 32:0.333333 33:-1 34:0.333333 35:1 36:0.333333 37:1 38:1 39:1 40:1 41:1 42:0.333333 43:0.333333 44:0.333333 45:0.333333 46:1 47:1 48:1 49:1 50:-1 51:0.333333 52:1 53:1 54:-1 55:-0.333333 56:-1 57:-1 58:0.333333 59:-1 60:1 
5.637811566087371 1:-1 2:-1 3:-1 4:-1 5:1 6:-0.333333 7:1 8:0.333333 9:1 10:-0.333333 11:0.333333 12:1 13:0.333333 14:-1 15:-0.333333 16:1 17:1 18:-1 19:-1 20:-1 21:-1 22:-1 23:-1 24:-1 25:-1 26:-1 27:-1 28:-1 29:-1 30:-1 31:-0.333333 32:1 33:-1 34:-0.333333 35:1 36:-1 37:-0.333333 38:1 39:-0.333333 40:0.333333 41:0.333333 42:-1 43:0.333333 44:0.333333 45:0.333333 46:-1 47:-0.333333 48:1 49:1 50:1 51:0.333333 52:-1 53:-0.333333 54:-0.333333 55:0.333333 56:-1 57:-0.333333 58:-1 59:-1 60:-1 
1.141070252874694 1:0.333333 2:1 3:0.333333 4:1 5:1 6:0.333333 7:-1 8:-1 9:1 10:-1 11:0.333333 12:0.333333 13:1 14:1 15:1 16:-0.333333 17:-0.333333 18:1 19:1 20:1 21:1 22:-0.333333 23:-0.333333 24:-0.333333 25:-1 26:-1 27:-0.333333 28:-1 29:1 30:0.333333 31:1 32:0.333333 33:-1 34:-0.333333 35:-0.333333 36:-1 37:-1 38:0.333333 39:-0.333333 40:-0.333333 41:0.333333 42:0.333333 43:1 44:-0.333333 45:0.333333 46:0.333333 47:1 48:0.333333 49:-1 50:0.333333 51:0.333333 52:-0.333333 53:1 54:0.333333 55:1 56:-1 57:1 58:-0.333333 59:-0.333333 60:1 
0.09647398125362384 1:-1 2:0.333333 3:1 4:1 5:-1 6:-1 7:-1 8:-0.333333 9:-0.333333 10:-1 11:0.333333 12:-1 13:-1 14:-1 15:0.333333 16:-1 17:-0.333333 18:-0.333333 19:0.333333 20:1 21:1 22:1 23:0.333333 24:0.333333 25:-1 26:-0.333333 27:-0.333333 28:-0.333333 29:0.333333 30:1 31:-0.333333 32:-1 33:0.333333 34:1 35:-0.333333 36:-0.333333 37:-0.333333 38:0.333333 39:0.333333 40:1 41:0.333333 42:0.333333 43:-1 44:-0.333333 45:-0.333333 46:-0.333333 47:1 48:0.333333 49:-0.333333 50:0.333333 51:-1 52:-0.333333 53:-0.333333 54:-0.333333 55:-1 56:-0.333333 57:-1 58:-0.333333 59:0.333333 60:1 
3.072212003302817 1:1 2:0.333333 3:0.333333 4:-1 5:1 6:-0.333333 7:1 8:1 9:1 10:-0.333333 11:1 12:-1 13:-1 14:-1 15:-1 16:0.333333 17:1 18:-1 19:0.333333 20:-1 21:0.333333 22:-1 23:1 24:0.333333 25:0.333333 26:0.333333 27:1 28:-1 29:-1 30:1 31:-0.333333 32:1 33:-0.333333 34:1 35:-0.333333 36:0.333333 37:0.333333 38:-1 39:1 40:-1 41:-0.333333 42:-1 43:-0.333333 44:1 45:1 46:1 47:-1 48:-1 49:0.333333 50:-1 51:0.333333 52:-1 53:-1 54:-0.333333 55:1 56:0.333333 57:0.333333 58:1 59:-0.333333 60:1 
3.005145733744549 1:0.333333 2:1 3:-0.333333 4:-1 5:1 6:0.333333 7:-1 8:-1 9:1 10:-1 11:0.333333 12:1 13:-0.333333 14:-0.333333 15:-0.333333 16:0.333333 17:-1 18:-1 19:-0.333333 20:0.333333 21:1 22:-0.333333 23:-1 24:1 25:-0.333333 26:-0.333333 27:0.333333 28:-1 29:0.333333 30:1 31:0.333333 32:0.333333 33:1 34:-0.333333 35:-0.333333 36:0.333333 37:0.333333 38:1 39:1 40:-0.333333 41:-1 42:1 43:1 44:1 45:-0.333333 46:-1 47:-1 48:1 49:-0.333333 50:1 51:-0.333333 52:-0.333333 53:0.333333 54:1 55:-0.333333 56:-1 57:-1 58:-0.333333 59:0.333333 60:0.333333 
2.821609360970246 1:-1 2:-0.333333 3:0.333333 4:1 5:1 6:0.333333 7:-1 8:1 9:1 10:0.333333 11:0.333333 12:1 13:-0.333333 14:0.333333 15:0.333333 16:1 17:0.333333 18:1 19:1 20:-0.333333 21:1 22:0.333333 23:1 24:-0.333333 25:-0.333333 26:0.333333 27:1 28:0.333333 29:-1 30:-0.333333 31:0.333333 32:-1 33:0.333333 34:-1 35:1 36:-1 37:1 38:1 39:-0.333333 40:-0.333333 41:1 42:0.333333 43:-1 44:1 45:-1 46:-1 47:-1 48:-1 49:0.333333 50:-1 51:1 52:-1 53:1 54:1 55:0.333333 56:1 57:-0.333333 58:-0.333333 59:1 60:1 
17.96527487990477 1:0.333333 2:-1 3:-0.333333 4:0.333333 5:1 6:-0.333333 7:1 8:0.333333 9:1 10:0.333333 11:1 12:-0.333333 13:1 14:0.333333 15:0.333333 16:0.333333 17:0.333333 18:-1 19:0.333333 20:0.333333 21:0.333333 22:-1 23:0.333333 24:0.333333 25:0.333333 26:1 27:0.333333 28:0.333333 29:-1 30:-0.333333 31:-1 32:-0.333333 33:-1 34:-1 35:-0.333333 36:0.333333 37:0.333333 38:-1 39:-1 40:-0.333333 41:-0.333333 42:0.333333 43:-1 44:1 45:-0.333333 46:0.333333 47:-0.333333 48:1 49:-0.333333 50:-0.333333 51:1 52:-0.333333 53:0.333333 54:-1 55:0.333333 56:-0.333333 57:-0.333333 58:0.333333 59:1 60:0.333333 
3.381153682215996 1:1 2:1 3:-0.333333 4:-0.333333 5:-0.333333 6:-0.333333 7:-1 8:0.333333 9:-1 10:1 11:0.333333 12:1 13:1 14:-1 15:1 16:-0.333333 17:-0.333333 18:-0.333333 19:-1 20:-1 21:0.333333 22:-1 23:1 24:0.333333 25:1 26:-1 27:-0.333333 28:-1 29:-0.333333 30:-1 31:1 32:0.333333 33:0.333333 34:1 35:-0.333333 36:0.333333 37:-1 38:-0.333333 39:-1 40:-1 41:-1 42:-0.333333 43:-1 44:-0.333333 45:-0.333333 46:-1 47:1 48:-0.333333 49:1 50:-0.333333 51:-1 52:-1 53:-1 54:0.333333 55:0.333333 56:-1 57:1 58:-1 59:1 60:0.333333 
