svm_type c_svc
kernel_type polynomial
degree 5
gamma 0.0166667
coef0 0
nr_class 2
total_sv 2053
rho -0.0954135
label 1 -1
nr_sv 1088 965
SV
19.78704028433047 1:1 2:-1 3:-0.333333 4:-0.333333 5:-1 6:1 7:1 8:1 9:-0.333333 10:-0.333333 11:-0.333333 12:-0.333333 13:-1 14:1 15:1 16:-0.333333 17:-1 18:-1 19:-0.333333 20:0.333333 21:0.333333 22:0.333333 23:-0.333333 24:-0.333333 25:0.333333 26:1 27:-0.333333 28:-1 29:1 30:-0.333333 31:-0.333333 32:1 33:-1 34:-0.333333 35:-0.333333 36:0.333333 37:-1 38:-0.333333 39:-1 40:-1 41:0.333333 42:1 43:1 44:-0.333333 45:-0.333333 46:-1 47:-0.333333 48:-1 49:0.333333 50:-1 51:-1 52:1 53:-0.333333 54:1 55:-0.333333 56:-1 57:-0.333333 58:-1 59:-1 60:-0.333333 
55.83317454473411 1:0.333333 2:1 3:0.333333 4:0.333333 5:0.333333 6:0.333333 7:1 8:-1 9:-1 10:-1 11:0.333333 12:0.333333 13:-1 14:-0.333333 15:-0.333333 16:0.333333 17:0.333333 18:0.333333 19:1 20:1 21:-0.333333 22:-0.333333 23:-1 24:-0.333333 25:-1 26:-0.333333 27:0.333333 28:-1 29:-0.333333 30:-0.333333 31:0.333333 32:0.333333 33:0.333333 34:0.333333 35:-1 36:-0.333333 37:-0.333333 38:-0.333333 39:-0.333333 40:-1 41:-0.333333 42:0.333333 43:-1 44:-0.333333 45:1 46:-0.333333 47:0.333333 48:-1 49:-1 50:0.333333 51:1 52:0.333333 53:-1 54:0.333333 55:0.333333 56:1 57:1 58:0.333333 59:-1 60:0.333333 
65.93348650055262 1:0.333333 2:0.333333 3:0.333333 4:1 5:0.333333 6:0.333333 7:1 8:-1 9:0.333333 10:0.333333 11:-0.333333 12:-0.333333 13:-1 14:-1 15:0.333333 16:1 17:-0.333333 18:-1 19:-1 20:0.333333 21:0.333333 22:0.333333 23:1 24:0.333333 25:0.333333 26:-1 27:-1 28:0.333333 29:-1 30:-0.333333 31:-0.333333 32:-0.333333 33:-1 34:-0.333333 35:0.333333 36:0.333333 37:0.333333 38:0.333333 39:-0.333333 40:-1 41:-0.333333 42:1 43:-1 44:1 45:0.333333 46:-0.333333 47:-0.333333 48:0.333333 49:-1 50:-0.333333 51:0.333333 52:-1 53:-0.333333 54:1 55:0.333333 56:-1 57:-0.333333 58:0.333333 59:-1 60:-0.333333 
84.63958335498936 1:-0.333333 2:-0.333333 3:-1 4:0.333333 5:-0.333333 6:-1 7:-1 8:-0.333333 9:1 10:1 11:-0.333333 12:-0.333333 13:1 14:-0.333333 15:-0.333333 16:1 17:-0.333333 18:-1 19:-0.333333 20:-0.333333 21:0.333333 22:0.333333 23:0.333333 24:1 25:-0.333333 26:-0.333333 27:-0.333333 28:0.333333 29:-1 30:-0.333333 31:-0.333333 32:1 33:1 34:-0.333333 35:-0.333333 36:1 37:-1 38:1 39:0.333333 40:-1 41:-1 42:-0.333333 43:-0.333333 44:1 45:1 46:-1 47:0.333333 48:-1 49:-1 50:-0.333333 51:-0.333333 52:0.333333 53:-1 54:-0.333333 55:-0.333333 56:1 57:1 58:1 59:-1 60:-1 
6.843831563460413 1:-1 2:1 3:-0.333333 4:-1 5:-0.333333 6:-1 7:-0.333333 8:-1 9:0.333333 10:-1 11:-0.333333 12:-0.333333 13:0.333333 14:-1 15:1 16:1 17:1 18:-0.333333 19:-0.333333 20:-1 21:0.333333 22:0.333333 23:-1 24:-1 25:-1 26:1 27:1 28:-1 29:1 30:-0.333333 31:-1 32:1 33:-0.333333 34:1 35:-0.333333 36:1 37:1 38:0.333333 39:0.333333 40:-1 41:1 42:-0.333333 43:1 44:-1 45:1 46:-0.333333 47:-0.333333 48:0.333333 49:-1 50:1 51:-1 52:1 53:-0.333333 54:0.333333 55:-1 56:-1 57:-1 58:-0.333333 59:1 60:-0.333333 
11.40186952732428 1:1 2:0.333333 3:0.333333 4:0.333333 5:1 6:-0.333333 7:-0.333333 8:-1 9:-1 10:0.333333 11:-1 12:1 13:-1 14:0.333333 15:0.333333 16:-1 17:-1 18:-1 19:0.333333 20:0.333333 21:0.333333 22:1 23:-1 24:-0.333333 25:-1 26:-1 27:-1 28:1 29:-0.333333 30:1 31:1 32:1 33:0.333333 34:0.333333 35:-1 36:-1 37:-0.333333 38:-1 39:-1 40:0.333333 41:-1 42:0.333333 43:0.333333 44:1 45:-0.333333 46:-0.333333 47:-1 48:-1 49:1 50:1 51:1 52:-0.333333 53:-0.333333 54:1 55:1 56:-1 57:0.333333 58:1 59:0.333333 60:0.333333 
12.33100109675847 1:-0.333333 2:1 3:0.333333 4:0.333333 5:1 6:-0.333333 7:1 8:-0.333333 9:0.333333 10:0.333333 11:1 12:-0.333333 13:1 14:-0.333333 15:1 16:1 17:-1 18:0.333333 19:1 20:1 21:-0.333333 22:0.333333 23:1 24:-1 25:0.333333 26:-1 27:-0.333333 28:1 29:1 30:-1 31:-0.333333 32:-1 33:-1 34:-1 35:0.333333 36:-1 37:-1 38:-1 39:0.333333 40:1 41:1 42:0.333333 43:-1 44:1 45:-0.333333 46:0.333333 47:0.333333 48:0.333333 49:-1 50:-1 51:-1 52:0.333333 53:0.333333 54:-1 55:-1 56:-0.333333 57:-0.333333 58:-1 59:-1 60:0.333333 
9.42320324353266 1:-0.333333 2:-0.333333 3:-1 4:-1 5:-0.333333 6:-0.333333 7:-1 8:-0.333333 9:-0.333333 10:-0.333333 11:-0.333333 12:1 13:-1 14:-1 15:1 16:-0.333333 17:-0.333333 18:-0.333333 19:-0.333333 20:1 21:-1 22:0.333333 23:-1 24:-1 25:-1 26:-1 27:-1 28:1 29:-0.333333 30:-1 31:1 32:-0.333333 33:-1 34:-1 35:1 36:1 37:1 38:0.333333 39:1 40:1 41:1 42:-0.333333 43:1 44:0.333333 45:0.333333 46:0.333333 47:-1 48:-1 49:1 50:0.333333 51:0.333333 52:-1 53:0.333333 54:1 55:1 56:1 57:1 58:-1 59:0.333333 60:0.333333 
5.807929630299566 1:0.333333 2:-1 3:1 4:-1 5:0.333333 6:1 7:1 8:-0.333333 9:1 10:-0.333333 11:0.333333 12:1 13:-1 14:1 15:0.333333 16:0.333333 17:0.333333 18:0.333333 19:1 20:-0.333333 21:0.333333 22:0.333333 23:0.333333 24:1 25:1 26:0.333333 27:1 28:-1 29:-1 30:-1 31:1 32:0.333333 33:1 34:0.333333 35:-1 36:1 37:1 38:-0.333333 39:1 40:-0.333333 41:1 42:-1 43:1 44:1 45:1 46:1 47:-1 48:-1 49:-1 50:1 51:1 52:-1 53:-1 54:-0.333333 55:-1 56:-0.333333 57:-1 58:-1 59:1 60:-1 
12.40322340921937 1:1 2:0.333333 3:-0.333333 4:-1 5:-0.333333 6:-1 7:0.333333 8:1 9:-0.333333 10:-0.333333 11:0.333333 12:0.333333 13:-1 14:-0.333333 15:-1 16:1 17:-0.333333 18:0.333333 19:1 20:0.333333 21:-0.333333 22:1 23:-0.333333 24:-0.333333 25:-1 26:-1 27:1 28:1 29:1 30:-0.333333 31:-0.333333 32:1 33:-1 34:1 35:-0.333333 36:-1 37:-1 38:-0.333333 39:0.333333 40:1 41:-0.333333 42:0.333333 43:1 44:0.333333 45:-1 46:1 47:1 48:-1 49:0.333333 50:0.333333 51:1 52:0.333333 53:1 54:1 55:1 56:1 57:-0.333333 58:1 59:0.333333 60:1 
9.361238169003864 1:-1 2:-1 3:1 4:1 5:-0.333333 6:-1 7:0.333333 8:1 9:-0.333333 10:-0.333333 11:-0.333333 12:-0.333333 13:-1 14:0.333333 15:-0.333333 16:0.333333 17:-1 18:-0.333333 19:1 20:0.333333 21:1 22:1 23:-0.333333 24:1 25:-1 26:0.333333 27:1 28:-1 29:1 30:-0.333333 31:0.333333 32:-1 33:0.333333 34:1 35:1 36:1 37:0.333333 38:1 39:1 40:1 41:-0.333333 42:0.333333 43:0.333333 44:-1 45:-1 46:-1 47:-0.333333 48:-0.333333 49:0.333333 50:-1 51:-1 52:-1 53:0.333333 54:-0.333333 55:0.333333 56:-1 57:-0.333333 58:-1 59:-1 60:0.333333 
2.936238533056834 1:1 2:1 3:1 4:1 5:-1 6:-0.333333 7:-1 8:0.333333 9:-1 10:1 11:1 12:-1 13:0.333333 14:-1 15:0.333333 16:0.333333 17:-1 18:-1 19:-1 20:-1 21:-0.333333 22:0.333333 23:-1 24:0.333333 25:-1 26:1 27:-0.333333 28:0.333333 29:0.333333 30:-0.333333 31:1 32:-1 33:-1 34:-1 35:-1 36:-0.333333 37:-1 38:-1 39:-1 40:-1 41:-1 42:-1 43:1 44:-1 45:-0.333333 46:-1 47:1 48:-1 49:-1 50:-1 51:1 52:1 53:-0.333333 54:-0.333333 55:1 56:-0.333333 57:-0.333333 58:-1 59:1 60:1 
17.52215864991949 1:0.333333 2:1 3:0.333333 4:-0.333333 5:-1 6:-0.333333 7:1 8:1 9:1 10:-0.333333 11:-1 12:0.333333 13:1 14:0.333333 15:-0.333333 16:0.333333 17:1 18:-1 19:0.333333 20:-1 21:-0.333333 22:0.333333 23:0.333333 24:0.333333 25:1 26:-0.333333 27:0.333333 28:1 29:1 30:0.333333 31:1 32:-1 33:0.333333 34:0.333333 35:0.333333 36:-0.333333 37:-0.333333 38:-1 39:0.333333 40:-0.333333 41:-1 42:-1 43:-0.333333 44:-1 45:1 46:-0.333333 47:-1 48:0.333333 49:1 50:1 51:0.333333 52:1 53:-1 54:0.333333 55:1 56:1 57:0.333333 58:-0.333333 59:-0.333333 60:0.333333 
81.67488728067092 1:-1 2:0.333333 3:-0.333333 4:0.333333 5:0.333333 6:0.333333 7:0.333333 8:-1 9:-0.333333 10:0.333333 11:0.333333 12:0.333333 13:1 14:0.333333 15:1 16:-0.333333 17:-1 18:-1 19:-0.333333 20:-0.333333 21:1 22:-0.333333 23:0.333333 24:1 25:-0.333333 26:0.333333 27:1 28:0.333333 29:0.333333 30:-1 31:-0.333333 32:0.333333 33:1 34:-0.333333 35:1 36:0.333333 37:0.333333 38:1 39:-0.333333 40:-0.333333 41:-0.333333 42:-0.333333 43:-0.333333 44:-1 45:-0.333333 46:-0.333333 47:1 48:-0.333333 49:-0.333333 50:-1 51:0.333333 52:-1 53:0.333333 54:0.333333 55:1 56:0.333333 57:-0.333333 58:1 59:1 60:-0.333333 
17.80007808719358 1:-0.333333 2:-1 3:1 4:0.333333 5:-0.333333 6:1 7:-0.333333 8:0.333333 9:0.333333 10:-1 11:0.333333 12:1 13:-0.333333 14:0.333333 15:-1 16:0.333333 17:1 18:0.333333 19:0.333333 20:-1 21:-0.333333 22:0.333333 23:0.333333 24:1 25:-0.333333 26:-0.333333 27:-0.333333 28:0.333333 29:-0.333333 30:-1 31:0.333333 32:-1 33:-0.333333 34:-1 35:-0.333333 36:1 37:-0.333333 38:-1 39:-0.333333 40:-1 41:0.333333 42:1 43:0.333333 44:1 45:-0.333333 46:1 47:0.333333 48:1 49:0.333333 50:-1 51:-1 52:-1 53:-1 54:-1 55:-1 56:-1 57:-1 58:-1 59:-1 60:-1 
4.426445872801256 1:1 2:-1 3:-0.333333 4:-1 5:0.333333 6:0.333333 7:-1 8:-1 9:0.333333 10:-1 11:-0.333333 12:-0.333333 13:-0.333333 14:-0.333333 15:-1 16:-0.333333 17:1 18:1 19:1 20:-1 21:1 22:-0.333333 23:1 24:1 25:1 26:-0.333333 27:-1 28:-1 29:1 30:1 31:1 32:-0.333333 33:-1 34:1 35:-0.333333 36:-1 37:-1 38:-0.333333 39:-1 40:1 41:-0.333333 42:-1 43:-0.333333 44:-1 45:1 46:-0.333333 47:1 48:1 49:0.333333 50:1 51:-1 52:1 53:-0.333333 54:1 55:-0.333333 56:-0.333333 57:-1 58:1 59:0.333333 60:1 
20.37894158487602 1:-0.333333 2:-0.333333 3:-1 4:-0.333333 5:1 6:1 7:-0.333333 8:-0.333333 9:0.333333 10:1 11:-0.333333 12:-0.333333 13:-1 14:-0.333333 15:1 16:0.333333 17:-1 18:1 19:0.333333 20:0.333333 21:1 22:0.333333 23:1 24:0.333333 25:0.333333 26:0.333333 27:-1 28:0.333333 29:-1 30:-1 31:1 32:-0.333333 33:1 34:-0.333333 35:-1 36:-1 37:-1 38:1 39:1 40:-0.333333 41:1 42:0.333333 43:-1 44:-1 45:-0.333333 46:1 47:-0.333333 48:1 49:-1 50:-1 51:-0.333333 52:0.333333 53:0.333333 54:1 55:0.333333 56:0.333333 57:1 58:0.333333 59:0.333333 60:-1 
51.55903274652253 1:-1 2:0.333333 3:-0.333333 4:-0.333333 5:0.333333 6:1 7:0.333333 8:0.333333 9:0.333333 10:-0.333333 11:-0.333333 12:-0.333333 13:-1 14:0.333333 15:0.333333 16:1 17:0.333333 18:-0.333333 19:-0.333333 20:0.333333 21:-1 22:-0.333333 23:-0.333333 24:-1 25:1 26:-0.333333 27:-0.333333 28:-1 29:-1 30:-0.333333 31:-0.333333 32:1 33:-1 34:1 35:-0.333333 36:-1 37:-0.333333 38:0.333333 39:0.333333 40:1 41:0.333333 42:0.333333 43:1 44:0.333333 45:1 46:0.333333 47:0.333333 48:1 49:1 50:1 51:1 52:-0.333333 53:0.333333 54:0.333333 55:0.333333 56:-1 57:1 58:1 59:-0.333333 60:0.333333 
124.1691289419873 1:1 2:-0.333333 3:-0.333333 4:-1 5:-0.333333 6:-0.333333 7:-1 8:-1 9:-1 10:1 11:1 12:0.333333 13:1 14:0.333333 15:-0.333333 16:-1 17:-0.333333 18:-0.333333 19:1 20:-0.333333 21:-1 22:0.333333 23:0.333333 24:1 25:-0.333333 26:-0.333333 27:-1 28:0.333333 29:-1 30:-0.333333 31:-0.333333 32:-0.333333 33:0.333333 34:-0.333333 35:-0.333333 36:-0.333333 37:0.333333 38:1 39:-0.333333 40:-0.333333 41:-0.333333 42:0.333333 43:-0.333333 44:-1 45:-0.333333 46:-0.333333 47:-1 48:0.333333 49:-0.333333 50:0.333333 51:1 52:0.333333 53:0.333333 54:0.333333 55:-0.333333 56:-0.333333 57:-0.333333 58:-0.333333 59:0.333333 60:0.333333 
6.586225170184989 1:-1 2:-1 3:-1 4:1 5:-1 6:1 7:-1 8:-1 9:-1 10:1 11:0.333333 12:-0.333333 13:-0.333333 14:-1 15:-0.333333 16:-0.333333 17:-0.333333 18:-0.333333 19:-1 20:-1 21:-0.333333 22:1 23:-0.333333 24:0.333333 25:1 26:1 27:0.333333 28:1 29:0.333333 30:1 31:-0.333333 32:1 33:1 34:1 35:1 36:-0.333333 37:-0.333333 38:-0.333333 39:-1 40:1 41:1 42:1 43:1 44:-0.333333 45:1 46:-1 47:-1 48:-1 49:1 50:0.333333 51:1 52:1 53:0.333333 54:1 55:0.333333 56:-1 57:-0.333333 58:-0.333333 59:1 60:1 
21.12725454458104 1:0.333333 2:-1 3:-0.333333 4:-1 5:-1 6:-0.333333 7:0.333333 8:-0.333333 9:-0.333333 10:0.333333 11:-1 12:-1 13:-1 14:-1 15:-0.333333 16:0.333333 17:-1 18:-0.333333 19:-0.333333 20:1 21:-1 22:0.333333 23:0.333333 24:0.333333 25:-0.333333 26:0.333333 27:1 28:0.333333 29:-1 30:0.333333 31:-0.333333 32:0.333333 33:0.333333 34:0.333333 35:-0.333333 36:-1 37:-0.333333 38:-1 39:0.333333 40:1 41:1 42:1 43:0.333333 44:-1 45:0.333333 46:-1 47:1 48:0.333333 49:-1 50:-1 51:0.333333 52:0.333333 53:1 54:0.333333 55:1 56:1 57:1 58:0.333333 59:-1 60:-1 
6.72261507647441 1:1 2:-0.333333 3:-1 4:-0.333333 5:-1 6:-1 7:-0.333333 8:-0.333333 9:-1 10:-0.333333 11:-1 12:-0.333333 13:-1 14:0.333333 15:-1 16:-1 17:-1 18:1 19:0.333333 20:-1 21:-1 22:-0.333333 23:-1 24:-1 25:-1 26:0.333333 27:-1 28:-1 29:-1 30:0.333333 31:-0.333333 32:1 33:-0.333333 34:-1 35:-0.333333 36:-0.333333 37:-1 38:-0.333333 39:1 40:-1 41:1 42:1 43:1 44:0.333333 45:-1 46:1 47:1 48:-1 49:0.333333 50:1 51:-0.333333 52:0.333333 53:-1 54:1 55:-0.333333 56:1 57:-0.333333 58:1 59:1 60:1 
40.09090129464075 1:-1 2:-1 3:-0.333333 4:-0.333333 5:-0.333333 6:-1 7:-0.333333 8:1 9:-0.333333 10:-0.333333 11:0.333333 12:1 13:1 14:0.333333 15:0.333333 16:1 17:0.333333 18:1 19:0.333333 20:1 21:-0.333333 22:0.333333 23:0.333333 24:1 25:0.333333 26:1 27:-0.333333 28:1 29:-0.333333 30:0.333333 31:0.333333 32:0.333333 33:-1 34:0.333333 35:1 36:-0.333333 37:-1 38:0.333333 39:-1 40:1 41:-0.333333 42:1 43:-1 44:-0.333333 45:-0.333333 46:-0.333333 47:-0.333333 48:-1 49:-0.333333 50:-1 51:-0.333333 52:-0.333333 53:-0.333333 54:-0.333333 55:-1 56:-1 57:-0.333333 58:-1 59:1 60:-0.333333 
29.91908853551603 1:-0.333333 2:-0.333333 3:-0.333333 4:-1 5:0.333333 6:-1 7:-0.333333 8:0.333333 9:0.333333 10:1 11:0.333333 12:-1 13:0.333333 14:0.333333 15:0.333333 16:1 17:1 18:-1 19:-1 20:-0.333333 21:0.333333 22:1 23:-1 24:-0.333333 25:1 26:0.333333 27:0.333333 28:0.333333 29:1 30:1 31:0.333333 32:1 33:0.333333 34:0.333333 35:0.333333 36:0.333333 37:1 38:1 39:1 40:-0.333333 41:0.333333 42:-1 43:-0.333333 44:-1 45:0.333333 46:-0.333333 47:-1 48:-0.333333 49:-1 50:1 51:-0.333333 52:0.333333 53:-1 54:-0.333333 55:0.333333 56:-0.333333 57:-1 58:0.333333 59:1 60:-1 
26.65204904006369 1:-1 2:-1 3:0.333333 4:1 5:-1 6:1 7:-1 8:1 9:1 10:-0.333333 11:0.333333 12:-0.333333 13:-0.333333 14:-1 15:0.333333 16:-1 17:1 18:1 19:-0.333333 20:-1 21:-0.333333 22:-0.333333 23:1 24:-0.333333 25:-0.333333 26:-1 27:0.333333 28:-0.333333 29:-0.333333 30:0.333333 31:-1 32:-1 33:-0.333333 34:0.333333 35:-1 36:-0.333333 37:-0.333333 38:1 39:-0.333333 40:-0.333333 41:-1 42:-0.333333 43:0.333333 44:1 45:-0.333333 46:-0.333333 47:0.333333 48:1 49:0.333333 50:1 51:-0.333333 52:1 53:-0.333333 54:-0.333333 55:-0.333333 56:-1 57:0.333333 58:-1 59:0.333333 60:-1 
12.43787499542732 1:0.333333 2:-1 3:-0.333333 4:-0.333333 5:-1 6:0.333333 7:-1 8:-1 9:-1 10:0.333333 11:0.333333 12:0.333333 13:1 14:-1 15:0.333333 16:-1 17:-1 18:-1 19:1 20:-0.333333 21:1 22:-1 23:0.333333 24:1 25:-0.333333 26:-1 27:0.333333 28:1 29:-0.333333 30:1 31:-0.333333 32:-0.333333 33:-0.333333 34:-1 35:-1 36:-0.333333 37:1 38:0.333333 39:-0.333333 40:1 41:1 42:1 43:-1 44:-1 45:0.333333 46:0.333333 47:-1 48:1 49:-1 50:-1 51:0.333333 52:-0.333333 53:0.333333 54:-1 55:0.333333 56:-1 57:0.333333 58:0.333333 59:1 60:0.333333 
43.32678561490484 1:1 2:-0.333333 3:1 4:1 5:1 6:1 7:0.333333 8:1 9:-1 10:-0.333333 11:-0.333333 12:-1 13:-1 14:-0.333333 15:-1 16:1 17:-0.333333 18:1 19:-0.333333 20:-0.333333 21:-1 22:0.333333 23:-1 24:-1 25:-0.333333 26:-0.333333 27:0.333333 28:-1 29:-0.333333 30:1 31:-0.333333 32:-1 33:-1 34:-0.333333 35:-0.333333 36:0.333333 37:0.333333 38:-0.333333 39:0.333333 40:0.333333 41:0.333333 42:-0.333333 43:-0.333333 44:-0.333333 45:0.333333 46:0.333333 47:-0.333333 48:0.333333 49:0.333333 50:1 51:1 52:0.333333 53:0.333333 54:-1 55:-0.333333 56:0.333333 57:1 58:-0.333333 59:-0.333333 60:-0.333333 
35.43939787827713 1:-1 2:-0.333333 3:0.333333 4:-1 5:-0.333333 6:0.333333 7:-1 8:-0.333333 9:-0.333333 10:-0.333333 11:0.333333 12:-1 13:0.333333 14:1 15:0.333333 16:-1 17:-0.333333 18:0.333333 19:-0.333333 20:-1 21:-0.333333 22:-0.333333 23:-0.333333 24:-0.333333 25:-1 26:0.333333 27:-1 28:1 29:0.333333 30:1 31:1 32:-0.333333 33:0.333333 34:0.333333 35:0.333333 36:-1 37:-0.333333 38:1 39:-0.333333 40:0.333333 41:1 42:-0.333333 43:-1 44:1 45:-0.333333 46:-0.333333 47:-0.333333 48:-1 49:0.333333 50:-1 51:1 52:-0.333333 53:-0.333333 54:1 55:-1 56:1 57:0.333333 58:1 59:0.333333 60:0.333333 
81.29295888975589 1:0.333333 2:0.333333 3:1 4:-1 5:-0.333333 6:-0.333333 7:-0.333333 8:-0.333333 9:0.333333 10:-1 11:1 12:-0.333333 13:-0.333333 14:0.333333 15:0.333333 16:0.333333 17:-1 18:-0.333333 19:1 20:-0.333333 21:1 22:0.333333 23:1 24:0.333333 25:1 26:-0.333333 27:0.333333 28:1 29:0.333333 30:0.333333 31:1 32:-0.333333 33:-1 34:-0.333333 35:1 36:-0.333333 37:0.333333 38:0.333333 39:0.333333 40:-1 41:0.333333 42:0.333333 43:-0.333333 44:1 45:-0.333333 46:0.333333 47:-1 48:-0.333333 49:0.333333 50:-1 51:0.333333 52:1 53:1 54:-0.333333 55:0.333333 56:-1 57:-0.333333 58:-0.333333 59:-0.333333 60:-0.333333 
18.0844059358292 1:-0.333333 2:0.333333 3:1 4:1 5:1 6:0.333333 7:0.333333 8:1 9:-0.333333 10:0.333333 11:1 12:1 13:-0.333333 14:-0.333333 15:0.333333 16:-1 17:-0.333333 18:1 19:1 20:-1 21:1 22:1 23:0.333333 24:1 25:1 26:0.333333 27:0.333333 28:-1 29:0.333333 30:-1 31:-1 32:-0.333333 33:-1 34:-0.333333 35:-1 36:-0.333333 37:-0.333333 38:-0.333333 39:0.333333 40:1 41:1 42:1 43:0.333333 44:1 45:0.333333 46:-1 47:-0.333333 48:-0.333333 49:-1 50:0.333333 51:0.333333 52:1 53:-0.333333 54:-0.333333 55:1 56:1 57:-0.333333 58:0.333333 59:1 60:-1 
26.59531568601703 1:0.333333 2:1 3:0.333333 4:-1 5:-1 6:1 7:-0.333333 8:-0.333333 9:-1 10:-0.333333 11:-1 12:0.333333 13:0.333333 14:0.333333 15:0.333333 16:1 17:-0.333333 18:-0.333333 19:0.333333 20:-1 21:0.333333 22:-1 23:-1 24:-0.333333 25:-1 26:1 27:0.333333 28:0.333333 29:0.333333 30:1 31:-0.333333 32:0.333333 33:0.333333 34:0.333333 35:1 36:-0.333333 37:-0.333333 38:-1 39:0.333333 40:0.333333 41:0.333333 42:-1 43:-0.333333 44:-1 45:-0.333333 46:-1 47:-1 48:-0.333333 49:0.333333 50:1 51:0.333333 52:-1 53:-1 54:1 55:-0.333333 56:1 57:0.333333 58:1 59:1 60:0.333333 
10.26539683705297 1:-0.333333 2:-1 3:1 4:-0.333333 5:-0.333333 6:-1 7:0.333333 8:0.333333 9:1 10:1 11:-0.333333 12:-0.333333 13:-1 14:-1 15:-1 16:-1 17:-1 18:-0.333333 19:-0.333333 20:0.333333 21:-1 22:0.333333 23:0.333333 24:-1 25:1 26:-0.333333 27:-0.333333 28:-1 29:1 30:-0.333333 31:-0.333333 32:-0.333333 33:0.333333 34:0.333333 35:1 36:1 37:-0.333333 38:-0.333333 39:1 40:1 41:0.333333 42:1 43:-0.333333 44:1 45:1 46:0.333333 47:1 48:-1 49:-1 50:-1 51:-0.333333 52:0.333333 53:1 54:1 55:0.333333 56:1 57:0.333333 58:1 59:1 60:0.333333 
4.642256471301144 1:-1 2:-0.333333 3:-0.333333 4:-1 5:-0.333333 6:1 7:1 8:1 9:-0.333333 10:-0.333333 11:1 12:-1 13:-1 14:-1 15:-0.333333 16:-1 17:1 18:1 19:-0.333333 20:-0.333333 21:1 22:-1 23:-1 24:-1 25:1 26:-0.333333 27:-1 28:-0.333333 29:-0.333333 30:-0.333333 31:0.333333 32:-1 33:1 34:1 35:1 36:-1 37:-1 38:-0.333333 39:-1 40:1 41:1 42:1 43:-0.333333 44:0.333333 45:0.333333 46:-1 47:1 48:-0.333333 49:-0.333333 50:-0.333333 51:1 52:1 53:-0.333333 54:0.333333 55:-1 56:-1 57:-1 58:-1 59:-0.333333 60:1 
6.859089380927152 1:0.333333 2:-1 3:1 4:1 5:0.333333 6:1 7:0.333333 8:-1 9:0.333333 10:-1 11:1 12:0.333333 13:1 14:-0.333333 15:1 16:1 17:0.333333 18:1 19:0.333333 20:1 21:-1 22:-1 23:0.333333 24:1 25:1 26:1 27:-1 28:-1 29:0.333333 30:1 31:-0.333333 32:-1 33:-1 34:-0.333333 35:1 36:1 37:1 38:1 39:0.333333 40:1 41:-1 42:-1 43:1 44:1 45:0.333333 46:1 47:0.333333 48:1 49:0.333333 50:0.333333 51:-1 52:-0.333333 53:0.333333 54:1 55:1 56:-0.333333 57:-1 58:-1 59:-1 60:-0.333333 
22.23234567420763 1:1 2:-0.333333 3:-1 4:1 5:1 6:0.333333 7:1 8:0.333333 9:-1 10:1 11:-0.333333 12:-1 13:-1 14:-1 15:1 16:-1 17:0.333333 18:0.333333 19:0.333333 20:1 21:-0.333333 22:-1 23:-0.333333 24:-1 25:1 26:0.333333 27:-0.333333 28:-1 29:-1 30:-0.333333 31:-0.333333 32:1 33:-1 34:-0.333333 35:-0.333333 36:0.333333 37:-1 38:-1 39:-0.333333 40:1 41:-0.333333 42:-1 43:0.333333 44:1 45:-0.333333 46:-1 47:-1 48:-0.333333 49:-0.333333 50:-0.333333 51:-1 52:0.333333 53:-1 54:0.333333 55:0.333333 56:-0.333333 57:1 58:-0.333333 59:0.333333 60:-0.333333 
21.0240719282629 1:0.333333 2:1 3:0.333333 4:0.333333 5:-1 6:0.333333 7:-0.333333 8:1 9:0.333333 10:1 11:-0.333333 12:1 13:0.333333 14:1 15:-0.333333 16:1 17:0.333333 18:1 19:-0.333333 20:1 21:-0.333333 22:-0.333333 23:-1 24:1 25:0.333333 26:-1 27:-0.333333 28:1 29:-0.333333 30:1 31:-0.333333 32:1 33:1 34:1 35:1 36:-0.333333 37:-1 38:-0.333333 39:1 40:0.333333 41:1 42:-0.333333 43:-1 44:0.333333 45:-1 46:-0.333333 47:1 48:0.333333 49:1 50:-1 51:0.333333 52:0.333333 53:1 54:-0.333333 55:-0.333333 56:0.333333 57:1 58:-0.333333 59:-0.333333 60:1 
14.88956147052954 1:1 2:-0.333333 3:1 4:-1 5:-1 6:-1 7:1 8:-0.333333 9:0.333333 10:-1 11:-1 12:-1 13:0.333333 14:0.333333 15:-1 16:1 17:0.333333 18:1 19:-1 20:-1 21:1 22:-1 23:-0.333333 24:1 25:0.333333 26:-1 27:-0.333333 28:0.333333 29:-0.333333 30:-1 31:-0.333333 32:-1 33:0.333333 34:0.333333 35:0.333333 36:1 37:-1 38:1 39:-1 40:-0.333333 41:0.333333 42:0.333333 43:0.333333 44:1 45:-0.333333 46:0.333333 47:1 48:-0.333333 49:0.333333 50:1 51:1 52:-1 53:-1 54:1 55:-0.333333 56:-0.333333 57:-0.333333 58:-0.333333 59:-0.333333 60:0.333333 
4.146729887915531 1:-0.333333 2:-1 3:-1 4:1 5:-1 6:-1 7:-1 8:-1 9:-0.333333 10:1 11:-0.333333 12:0.333333 13:-1 14:1 15:-0.333333 16:0.333333 17:0.333333 18:1 19:1 20:-1 21:1 22:-1 23:-1 24:-1 25:-1 26:-1 27:-1 28:-1 29:-1 30:0.333333 31:-1 32:0.333333 33:1 34:1 35:-1 36:1 37:-0.333333 38:1 39:1 40:1 41:0.333333 42:0.333333 43:-1 44:0.333333 45:1 46:-1 47:1 48:-1 49:0.333333 50:1 51:-0.333333 52:1 53:-1 54:-0.333333 55:1 56:0.333333 57:1 58:-1 59:1 60:1 
13.86630470403945 1:1 2:-0.333333 3:1 4:-0.333333 5:-0.333333 6:-1 7:-0.333333 8:-1 9:0.333333 10:-1 11:1 12:-0.333333 13:-0.333333 14:0.333333 15:1 16:-0.333333 17:-0.333333 18:-1 19:1 20:1 21:0.333333 22:0.333333 23:-0.333333 24:0.333333 25:0.333333 26:-1 27:-1 28:-1 29:-0.333333 30:-1 31:-1 32:-1 33:1 34:-1 35:-1 36:-1 37:-1 38:-1 39:-1 40:-0.333333 41:0.333333 42:-1 43:-0.333333 44:-0.333333 45:1 46:1 47:0.333333 48:-0.333333 49:1 50:-0.333333 51:-0.333333 52:1 53:-0.333333 54:1 55:0.333333 56:0.333333 57:0.333333 58:1 59:1 60:-0.333333 
54.66595443351165 1:-1 2:-0.333333 3:-1 4:-0.333333 5:0.333333 6:0.333333 7:0.333333 8:0.333333 9:0.333333 10:0.333333 11:1 12:0.333333 13:-1 14:-1 15:0.333333 16:1 17:0.333333 18:1 19:-0.333333 20:1 21:1 22:0.333333 23:1 24:0.333333 25:0.333333 26:0.333333 27:0.333333 28:1 29:-1 30:-0.333333 31:-0.333333 32:-0.333333 33:-0.333333 34:0.333333 35:1 36:0.333333 37:0.333333 38:0.333333 39:1 40:-0.333333 41:-0.333333 42:1 43:-0.333333 44:1 45:1 46:-0.333333 47:-0.333333 48:0.333333 49:0.333333 50:1 51:0.333333 52:-1 53:0.333333 54:-1 55:0.333333 56:0.333333 57:1 58:1 59:0.333333 60:-1 
48.78732613612453 1:0.333333 2:-1 3:0.333333 4:0.333333 5:-1 6:-0.333333 7:0.333333 8:-1 9:0.333333 10:-0.333333 11:-1 12:-0.333333 13:0.333333 14:-0.333333 15:1 16:-1 17:1 18:-0.333333 19:-0.333333 20:-0.333333 21:0.333333 22:1 23:-1 24:0.333333 25:0.333333 26:-1 27:-0.333333 28:0.333333 29:1 30:-0.333333 31:0.333333 32:-1 33:1 34:-0.333333 35:-0.333333 36:-1 37:-0.333333 38:0.333333 39:-1 40:-0.333333 41:-1 42:-0.333333 43:-0.333333 44:1 45:-0.333333 46:-1 47:-1 48:0.333333 49:-0.333333 50:-0.333333 51:1 52:-0.333333 53:-0.333333 54:-0.333333 55:0.333333 56:1 57:0.333333 58:0.333333 59:0.333333 60:-1 
41.42203479849798 1:-0.333333 2:-0.333333 3:0.333333 4:0.333333 5:1 6:-0.333333 7:1 8:1 9:-1 10:-0.333333 11:0.333333 12:0.333333 13:0.333333 14:-0.333333 15:-0.333333 16:0.333333 17:-0.333333 18:-0.333333 19:-0.333333 20:-1 21:1 22:-0.333333 23:0.333333 24:0.333333 25:0.333333 26:1 27:-1 28:0.333333 29:-0.333333 30:1 31:-0.333333 32:-1 33:-1 34:-1 35:-1 36:-0.333333 37:-0.333333 38:0.333333 39:1 40:-0.333333 41:0.333333 42:0.333333 43:-1 44:0.333333 45:1 46:-1 47:-0.333333 48:-1 49:0.333333 50:-0.333333 51:1 52:-1 53:-0.333333 54:-1 55:1 56:1 57:-0.333333 58:0.333333 59:1 60:-0.333333 
46.83623018743817 1:-1 2:-1 3:-1 4:-0.333333 5:1 6:0.333333 7:-1 8:-0.333333 9:0.333333 10:1 11:0.333333 12:0.333333 13:-1 14:0.333333 15:1 16:-0.333333 17:-1 18:-1 19:-0.333333 20:0.333333 21:1 22:-0.333333 23:1 24:-0.333333 25:-0.333333 26:0.333333 27:0.333333 28:0.333333 29:-0.333333 30:-0.333333 31:-0.333333 32:-1 33:1 34:-0.333333 35:0.333333 36:-0.333333 37:-0.333333 38:0.333333 39:1 40:0.333333 41:-0.333333 42:1 43:-1 44:-0.333333 45:0.333333 46:-1 47:1 48:0.333333 49:0.333333 50:-0.333333 51:0.333333 52:-1 53:-1 54:0.333333 55:-0.333333 56:-1 57:0.333333 58:1 59:-0.333333 60:-0.333333 
6.854223932292128 1:1 2:-0.333333 3:1 4:-1 5:-0.333333 6:-1 7:1 8:1 9:1 10:1 11:1 12:1 13:1 14:1 15:1 16:1 17:1 18:1 19:-0.333333 20:0.333333 21:-1 22:0.333333 23:0.333333 24:0.333333 25:0.333333 26:-1 27:1 28:-0.333333 29:0.333333 30:1 31:-0.333333 32:1 33:1 34:-0.333333 35:-1 36:1 37:1 38:-0.333333 39:0.333333 40:1 41:-1 42:-1 43:-1 44:1 45:-0.333333 46:1 47:-1 48:-1 49:0.333333 50:-1 51:-0.333333 52:1 53:0.333333 54:1 55:-0.333333 56:-1 57:1 58:0.333333 59:-0.333333 60:1 
25.11768252898261 1:-1 2:1 3:-0.333333 4:-0.333333 5:-1 6:0.333333 7:-1 8:-0.333333 9:-1 10:0.333333 11:0.333333 12:0.333333 13:1 14:1 15:0.333333 16:0.333333 17:1 18:0.333333 19:1 20:1 21:1 22:-0.333333 23:1 24:-0.333333 25:-0.333333 26:1 27:0.333333 28:0.333333 29:-0.333333 30:-0.333333 31:0.333333 32:-1 33:0.333333 34:-1 35:-1 36:0.333333 37:0.333333 38:0.333333 39:0.333333 40:-1 41:0.333333 42:-1 43:-0.333333 44:-0.333333 45:-1 46:-1 47:0.333333 48:-1 49:-0.333333 50:1 51:0.333333 52:0.333333 53:1 54:1 55:1 56:1 57:0.333333 58:-1 59:1 60:-0.333333 
10.14086320755757 1:-1 2:1 3:1 4:1 5:1 6:1 7:-0.333333 8:1 9:-1 10:1 11:1 12:1 13:-1 14:-0.333333 15:1 16:-0.333333 17:-0.333333 18:0.333333 19:-1 20:-0.333333 21:-0.333333 22:1 23:1 24:1 25:0.333333 26:-0.333333 27:0.333333 28:-1 29:1 30:-0.333333 31:1 32:1 33:-1 34:-0.333333 35:1 36:-1 37:-0.333333 38:-0.333333 39:-0.333333 40:1 41:-0.333333 42:-0.333333 43:1 44:0.333333 45:1 46:1 47:0.333333 48:1 49:1 50:-0.333333 51:-1 52:0.333333 53:0.333333 54:1 55:-0.333333 56:-1 57:0.333333 58:0.333333 59:1 60:1 
21.5598889878842 1:1 2:1 3:0.333333 4:-1 5:1 6:-0.333333 7:-0.333333 8:0.333333 9:-1 10:-0.333333 11:-0.333333 12:0.333333 13:1 14:0.333333 15:1 16:-1 17:-1 18:-0.333333 19:-1 20:-0.333333 21:-0.333333 22:-1 23:-0.333333 24:-1 25:-0.333333 26:0.333333 27:0.333333 28:1 29:0.333333 30:0.333333 31:1 32:0.333333 33:0.333333 34:-1 35:-0.333333 36:-0.333333 37:-0.333333 38:-1 39:-0.333333 40:-0.333333 41:-1 42:-1 43:-1 44:-0.333333 45:-0.333333 46:-1 47:0.333333 48:1 49:1 50:1 51:-0.333333 52:-0.333333 53:0.333333 54:1 55:1 56:1 57:0.333333 58:1 59:-1 60:-0.333333 
52.52330962731607 1:-1 2:-0.333333 3:0.333333 4:-1 5:1 6:-1 7:-1 8:1 9:-0.333333 10:1 11:-0.333333 12:-1 13:-0.333333 14:-0.333333 15:-1 16:-0.333333 17:-0.333333 18:1 19:-0.333333 20:-0.333333 21:-1 22:-0.333333 23:-1 24:-0.333333 25:-1 26:0.333333 27:0.333333 28:-1 29:-0.333333 30:0.333333 31:0.333333 32:0.333333 33:-1 34:0.333333 35:0.333333 36:0.333333 37:0.333333 38:0.333333 39:-0.333333 40:1 41:-0.333333 42:1 43:0.333333 44:0.333333 45:-1 46:0.333333 47:0.333333 48:-0.333333 49:1 50:-0.333333 51:-1 52:0.333333 53:0.333333 54:0.333333 55:0.333333 56:1 57:-0.333333 58:1 59:0.333333 60:0.333333 
7.859745755838946 1:1 2:-1 3:0.333333 4:0.333333 5:-1 6:0.333333 7:1 8:-0.333333 9:0.333333 10:1 11:-0.333333 12:-0.333333 13:1 14:-0.333333 15:-1 16:-0.333333 17:0.333333 18:1 19:-0.333333 20:-1 21:-1 22:-1 23:-0.333333 24:1 25:1 26:1 27:0.333333 28:-1 29:1 30:-1 31:1 32:1 33:0.333333 34:-1 35:1 36:-1 37:-1 38:-1 39:1 40:-0.333333 41:1 42:0.333333 43:-1 44:0.333333 45:-1 46:-0.333333 47:1 48:-0.333333 49:1 50:-1 51:-0.333333 52:1 53:-0.333333 54:-0.333333 55:1 56:1 57:-1 58:-1 59:-0.333333 60:-0.333333 
8.071692764999661 1:1 2:0.333333 3:1 4:0.333333 5:0.333333 6:0.333333 7:0.333333 8:-1 9:1 10:-1 11:1 12:-0.333333 13:0.333333 14:-1 15:-1 16:1 17:1 18:1 19:-0.333333 20:0.333333 21:1 22:1 23:-1 24:-1 25:1 26:-0.333333 27:1 28:-1 29:-1 30:0.333333 31:0.333333 32:1 33:0.333333 34:1 35:1 36:0.333333 37:1 38:1 39:1 40:1 41:-0.333333 42:0.333333 43:0.333333 44:-1 45:1 46:-0.333333 47:1 48:1 49:1 50:0.333333 51:0.333333 52:-1 53:1 54:1 55:0.333333 56:1 57:-0.333333 58:0.333333 59:0.333333 60:-1 
33.54228219016431 1:0.333333 2:0.333333 3:0.333333 4:0.333333 5:-1 6:-1 7:0.333333 8:1 9:1 10:-0.333333 11:-1 12:-0.333333 13:-1 14:1 15:-0.333333 16:1 17:-1 18:1 19:-0.333333 20:-1 21:-1 22:-0.333333 23:-0.333333 24:0.333333 25:1 26:1 27:1 28:1 29:-0.333333 30:-0.333333 31:1 32:0.333333 33:1 34:0.333333 35:0.333333 36:0.333333 37:1 38:-0.333333 39:-0.333333 40:-0.333333 41:-1 42:-0.333333 43:1 44:-0.333333 45:-0.333333 46:-0.333333 47:1 48:-0.333333 49:-0.333333 50:-1 51:-0.333333 52:-0.333333 53:0.333333 54:-1 55:-0.333333 56:0.333333 57:0.333333 58:-1 59:-0.333333 60:-0.333333 
13.26619036961092 1:-0.333333 2:-1 3:-1 4:-0.333333 5:1 6:0.333333 7:-1 8:1 9:0.333333 10:1 11:0.333333 12:-1 13:-0.333333 14:-1 15:-1 16:-1 17:1 18:-0.333333 19:1 20:1 21:1 22:-0.333333 23:-1 24:0.333333 25:0.333333 26:1 27:0.333333 28:0.333333 29:-1 30:-0.333333 31:-0.333333 32:1 33:-1 34:-1 35:-0.333333 36:-1 37:1 38:-0.333333 39:0.333333 40:1 41:1 42:0.333333 43:1 44:0.333333 45:1 46:0.333333 47:1 48:-0.333333 49:-1 50:0.333333 51:-1 52:1 53:-1 54:-0.333333 55:0.333333 56:1 57:1 58:1 59:0.333333 60:0.333333 
279.508497187 1:-0.333333 2:-0.333333 3:-1 4:-1 5:-0.333333 6:-1 7:1 8:-0.333333 9:0.333333 10:1 11:-0.333333 12:-0.333333 13:-1 14:-0.333333 15:-0.333333 16:-1 17:-0.333333 18:-1 19:-1 20:-1 21:0.333333 22:0.333333 23:0.333333 24:1 25:-0.333333 26:-0.333333 27:-0.333333 28:-1 29:-1 30:-0.333333 31:-0.333333 32:1 33:-1 34:-0.333333 35:-0.333333 36:0.333333 37:1 38:0.333333 39:1 40:-0.333333 41:-0.333333 42:1 43:-0.333333 44:-1 45:0.333333 46:0.333333 47:-1 48:-0.333333 49:-0.333333 50:-1 51:0.333333 52:-1 53:-1 54:-0.333333 55:-0.333333 56:-0.333333 57:-1 58:-0.333333 59:-0.333333 60:-0.333333 
11.90815966192007 1:-1 2:0.333333 3:1 4:-0.333333 5:-0.333333 6:0.333333 7:-0.333333 8:-0.333333 9:-1 10:-1 11:1 12:-0.333333 13:-1 14:-1 15:1 16:1 17:1 18:-0.333333 19:-1 20:0.333333 21:1 22:-0.333333 23:-0.333333 24:-1 25:-1 26:-0.333333 27:-1 28:-1 29:-0.333333 30:0.333333 31:-1 32:-0.333333 33:-0.333333 34:1 35:-0.333333 36:-0.333333 37:-1 38:-0.333333 39:-1 40:1 41:1 42:0.333333 43:1 44:0.333333 45:-1 46:-1 47:0.333333 48:-1 49:-0.333333 50:-1 51:1 52:-1 53:0.333333 54:0.333333 55:0.333333 56:1 57:0.333333 58:-1 59:0.333333 60:1 
124.0173718100437 1:-0.333333 2:-1 3:-0.333333 4:-0.333333 5:-0.333333 6:-0.333333 7:-0.333333 8:-1 9:1 10:-0.333333 11:-0.333333 12:-0.333333 13:-0.333333 14:-0.333333 15:-0.333333 16:-0.333333 17:0.333333 18:-1 19:-0.333333 20:-1 21:1 22:0.333333 23:1 24:1 25:-0.333333 26:-0.333333 27:-1 28:0.333333 29:1 30:0.333333 31:-1 32:1 33:-0.333333 34:-1 35:-0.333333 36:-0.333333 37:-1 38:-0.333333 39:-0.333333 40:-0.333333 41:-0.333333 42:0.333333 43:0.333333 44:0.333333 45:0.333333 46:0.333333 47:0.333333 48:1 49:-0.333333 50:0.333333 51:0.333333 52:0.333333 53:-1 54:-0.333333 55:-1 56:-0.333333 57:-0.333333 58:-0.333333 59:-0.333333 60:1 
15.41949596111466 1:-0.333333 2:-0.333333 3:1 4:-1 5:-1 6:0.333333 7:-1 8:-1 9:-0.333333 10:-0.333333 11:-0.333333 12:-0.333333 13:-1 14:-0.333333 15:-0.333333 16:-0.333333 17:-0.333333 18:0.333333 19:0.333333 20:-1 21:-0.333333 22:-0.333333 23:-1 24:0.333333 25:-1 26:0.333333 27:-1 28:-0.333333 29:1 30:1 31:1 32:1 33:1 34:0.333333 35:0.333333 36:1 37:-0.333333 38:-1 39:1 40:1 41:1 42:-1 43:-1 44:-1 45:0.333333 46:0.333333 47:0.333333 48:-1 49:-0.333333 50:-0.333333 51:0.333333 52:-1 53:-0.333333 54:0.333333 55:0.333333 56:1 57:-0.333333 58:-0.333333 59:-1 60:1 
279.508497187 1:1 2:0.333333 3:1 4:0.333333 5:-0.333333 6:-0.333333 7:-0.333333 8:-0.333333 9:-0.333333 10:0.333333 11:-0.333333 12:-0.333333 13:0.333333 14:0.333333 15:-0.333333 16:-0.333333 17:0.333333 18:-0.333333 19:0.333333 20:-0.333333 21:-0.333333 22:0.333333 23:-0.333333 24:-0.333333 25:-0.333333 26:-0.333333 27:-1 28:-0.333333 29:0.333333 30:-0.333333 31:-0.333333 32:1 33:0.333333 34:0.333333 35:0.333333 36:0.333333 37:-0.333333 38:-0.333333 39:0.333333 40:0.333333 41:-0.333333 42:0.333333 43:-0.333333 44:-0.333333 45:0.333333 46:0.333333 47:0.333333 48:0.333333 49:-0.333333 50:-1 51:0.333333 52:-0.333333 53:1 54:-0.333333 55:1 56:-0.333333 57:1 58:-0.333333 59:1 60:0.333333 
24.10992331767201 1:1 2:-0.333333 3:0.333333 4:1 5:-1 6:-1 7:0.333333 8:1 9:1 10:0.333333 11:-1 12:-1 13:-0.333333 14:-1 15:1 16:-1 17:-0.333333 18:-1 19:-0.333333 20:0.333333 21:0.333333 22:1 23:0.333333 24:0.333333 25:1 26:-0.333333 27:-0.333333 28:-1 29:0.333333 30:1 31:1 32:1 33:1 34:0.333333 35:0.333333 36:-0.333333 37:1 38:-0.333333 39:-0.333333 40:0.333333 41:0.333333 42:-0.333333 43:0.333333 44:-0.333333 45:-0.333333 46:0.333333 47:-1 48:-1 49:0.333333 50:0.333333 51:-1 52:0.333333 53:0.333333 54:0.333333 55:0.333333 56:-1 57:-1 58:-0.333333 59:-1 60:1 
43.12275275349887 1:-0.333333 2:-0.333333 3:-0.333333 4:-0.333333 5:1 6:-0.333333 7:-1 8:-1 9:-1 10:-0.333333 11:-0.333333 12:-0.333333 13:-1 14:0.333333 15:1 16:0.333333 17:1 18:0.333333 19:1 20:-0.333333 21:-0.333333 22:0.333333 23:0.333333 24:0.333333 25:-1 26:-0.333333 27:-0.333333 28:1 29:0.333333 30:-1 31:-0.333333 32:-0.333333 33:-0.333333 34:-0.333333 35:-1 36:-0.333333 37:-0.333333 38:-0.333333 39:-1 40:-1 41:-1 42:-0.333333 43:-1 44:0.333333 45:-1 46:1 47:0.333333 48:0.333333 49:0.333333 50:0.333333 51:-0.333333 52:-1 53:-0.333333 54:-1 55:-1 56:-0.333333 57:-1 58:1 59:1 60:0.333333 
36.26374164822294 1:-1 2:-0.333333 3:-1 4:-1 5:-0.333333 6:0.333333 7:0.333333 8:-0.333333 9:-0.333333 10:-1 11:-1 12:-0.333333 13:1 14:-0.333333 15:-0.333333 16:1 17:-0.333333 18:-1 19:-1 20:-0.333333 21:-1 22:0.333333 23:-0.333333 24:0.333333 25:-1 26:0.333333 27:0.333333 28:1 29:-0.333333 30:0.333333 31:-0.333333 32:-0.333333 33:-0.333333 34:-1 35:0.333333 36:-1 37:1 38:-0.333333 39:-1 40:1 41:0.333333 42:-1 43:1 44:0.333333 45:0.333333 46:1 47:-1 48:0.333333 49:0.333333 50:0.333333 51:-0.333333 52:-1 53:-0.333333 54:-1 55:1 56:-0.333333 57:-0.333333 58:1 59:-0.333333 60:-0.333333 
9.189359566306917 1:-1 2:-1 3:1 4:0.333333 5:0.333333 6:-1 7:-0.333333 8:-0.333333 9:1 10:-0.333333 11:0.333333 12:-1 13:-1 14:-1 15:-1 16:0.333333 17:-0.333333 18:-1 19:-1 20:1 21:1 22:0.333333 23:1 24:-1 25:-0.333333 26:-1 27:-0.333333 28:0.333333 29:1 30:1 31:-0.333333 32:-1 33:0.333333 34:0.333333 35:-1 36:-0.333333 37:1 38:1 39:1 40:-1 41:-1 42:-0.333333 43:-0.333333 44:-0.333333 45:-0.333333 46:0.333333 47:-1 48:-0.333333 49:0.333333 50:-1 51:-0.333333 52:-0.333333 53:-0.333333 54:-1 55:0.333333 56:-1 57:-1 58:-1 59:-1 60:-1 
33.38870335358862 1:-0.333333 2:-0.333333 3:-0.333333 4:-1 5:-0.333333 6:1 7:0.333333 8:0.333333 9:1 10:-1 11:-0.333333 12:0.333333 13:0.333333 14:1 15:-0.333333 16:-1 17:-0.333333 18:-1 19:-0.333333 20:-0.333333 21:0.333333 22:1 23:-0.333333 24:-0.333333 25:-0.333333 26:-0.333333 27:-0.333333 28:1 29:0.333333 30:0.333333 31:-1 32:1 33:1 34:1 35:1 36:-0.333333 37:-1 38:-0.333333 39:-0.333333 40:1 41:1 42:-1 43:-0.333333 44:-1 45:-0.333333 46:-1 47:-0.333333 48:-0.333333 49:-0.333333 50:-0.333333 51:0.333333 52:-1 53:-0.333333 54:1 55:-1 56:-0.333333 57:-1 58:-0.333333 59:0.333333 60:-1 
22.46285950487222 1:0.333333 2:1 3:-0.333333 4:-0.333333 5:-1 6:0.333333 7:-1 8:0.333333 9:-1 10:0.333333 11:-0.333333 12:0.333333 13:0.333333 14:0.333333 15:-1 16:-0.333333 17:-0.333333 18:1 19:1 20:-0.333333 21:1 22:-1 23:-0.333333 24:-0.333333 25:1 26:-0.333333 27:-1 28:-1 29:0.333333 30:-0.333333 31:0.333333 32:1 33:-1 34:1 35:-0.333333 36:-0.333333 37:0.333333 38:1 39:0.333333 40:0.333333 41:-1 42:-1 43:-0.333333 44:-1 45:-1 46:-0.333333 47:-1 48:-0.333333 49:0.333333 50:-1 51:1 52:-0.333333 53:-0.333333 54:1 55:0.333333 56:-1 57:1 58:1 59:0.333333 60:1 
13.79154753264286 1:-0.333333 2:1 3:0.333333 4:-1 5:1 6:0.333333 7:-0.333333 8:-1 9:-1 10:-0.333333 11:-0.333333 12:-0.333333 13:-1 14:-1 15:-0.333333 16:-0.333333 17:-0.333333 18:1 19:-0.333333 20:-0.333333 21:-0.333333 22:-0.333333 23:-0.333333 24:-0.333333 25:0.333333 26:-1 27:-0.333333 28:0.333333 29:1 30:-0.333333 31:0.333333 32:-0.333333 33:-0.333333 34:1 35:-0.333333 36:-0.333333 37:-0.333333 38:-0.333333 39:-1 40:-0.333333 41:0.333333 42:1 43:-1 44:1 45:-1 46:-1 47:-1 48:-1 49:-1 50:1 51:-0.333333 52:-1 53:0.333333 54:-1 55:-1 56:1 57:1 58:-1 59:-1 60:-1 
17.28555377976078 1:0.333333 2:0.333333 3:1 4:-0.333333 5:1 6:-0.333333 7:-0.333333 8:-0.333333 9:1 10:-0.333333 11:-1 12:-1 13:-0.333333 14:-1 15:-0.333333 16:-1 17:-0.333333 18:-1 19:-0.333333 20:-0.333333 21:-0.333333 22:-1 23:-1 24:-1 25:0.333333 26:-1 27:0.333333 28:-1 29:-0.333333 30:0.333333 31:-1 32:-0.333333 33:0.333333 34:-1 35:1 36:0.333333 37:1 38:0.333333 39:1 40:0.333333 41:0.333333 42:-1 43:0.333333 44:1 45:-0.333333 46:-1 47:-1 48:-1 49:-0.333333 50:-1 51:-1 52:-0.333333 53:1 54:-0.333333 55:-0.333333 56:-0.333333 57:-1 58:0.333333 59:1 60:1 
31.16435692254934 1:0.333333 2:1 3:-0.333333 4:1 5:-0.333333 6:0.333333 7:-1 8:-1 9:1 10:-0.333333 11:0.333333 12:0.333333 13:0.333333 14:-1 15:-1 16:-1 17:0.333333 18:1 19:-0.333333 20:1 21:0.333333 22:0.333333 23:0.333333 24:1 25:-0.333333 26:1 27:-0.333333 28:-1 29:-0.333333 30:1 31:1 32:-0.333333 33:-1 34:-1 35:1 36:-0.333333 37:0.333333 38:0.333333 39:0.333333 40:0.333333 41:1 42:-0.333333 43:-0.333333 44:0.333333 45:-1 46:-0.333333 47:-0.333333 48:-1 49:1 50:-0.333333 51:0.333333 52:-0.333333 53:1 54:-0.333333 55:1 56:0.333333 57:0.333333 58:-1 59:0.333333 60:1 
43.29027807000627 1:0.333333 2:1 3:1 4:1 5:-0.333333 6:-0.333333 7:0.333333 8:-1 9:0.333333 10:0.333333 11:-0.333333 12:-0.333333 13:0.333333 14:-0.333333 15:-1 16:0.333333 17:-0.333333 18:-0.333333 19:0.333333 20:0.333333 21:1 22:1 23:-0.333333 24:-0.333333 25:-0.333333 26:0.333333 27:0.333333 28:0.333333 29:-0.333333 30:1 31:-0.333333 32:-1 33:0.333333 34:1 35:1 36:1 37:1 38:0.333333 39:0.333333 40:1 41:0.333333 42:1 43:0.333333 44:-1 45:-0.333333 46:-0.333333 47:0.333333 48:0.333333 49:1 50:1 51:-0.333333 52:1 53:1 54:0.333333 55:1 56:0.333333 57:1 58:-0.333333 59:0.333333 60:1 
3.825904727833004 1:0.333333 2:-1 3:-1 4:-1 5:-0.333333 6:0.333333 7:1 8:-1 9:-1 10:-0.333333 11:-1 12:-1 13:-0.333333 14:-1 15:-1 16:-0.333333 17:-0.333333 18:-1 19:-1 20:0.333333 21:1 22:-0.333333 23:-0.333333 24:-1 25:-1 26:-0.333333 27:-1 28:-1 29:-1 30:1 31:1 32:-0.333333 33:1 34:1 35:0.333333 36:-1 37:-1 38:0.333333 39:0.333333 40:-1 41:-1 42:1 43:1 44:-1 45:1 46:0.333333 47:-1 48:-0.333333 49:0.333333 50:-1 51:-1 52:-1 53:0.333333 54:1 55:0.333333 56:1 57:-1 58:1 59:-0.333333 60:-0.333333 
80.80418242379461 1:0.333333 2:0.333333 3:1 4:-0.333333 5:-0.333333 6:1 7:-0.333333 8:-1 9:-1 10:-0.333333 11:-1 12:0.333333 13:0.333333 14:-1 15:-1 16:-0.333333 17:-0.333333 18:-1 19:-0.333333 20:-0.333333 21:-1 22:-0.333333 23:0.333333 24:1 25:-0.333333 26:0.333333 27:-1 28:0.333333 29:0.333333 30:1 31:-0.333333 32:-0.333333 33:1 34:-0.333333 35:-1 36:1 37:-0.333333 38:-1 39:0.333333 40:-1 41:-0.333333 42:0.333333 43:-1 44:0.333333 45:0.333333 46:0.333333 47:0.333333 48:0.333333 49:-0.333333 50:0.333333 51:0.333333 52:0.333333 53:0.333333 54:0.333333 55:-1 56:0.333333 57:0.333333 58:-1 59:0.333333 60:0.333333 
64.82878412395213 1:1 2:0.333333 3:1 4:-0.333333 5:-0.333333 6:-0.333333 7:-0.333333 8:-0.333333 9:-0.333333 10:-0.333333 11:1 12:0.333333 13:-1 14:-0.333333 15:-1 16:-1 17:0.333333 18:0.333333 19:0.333333 20:-1 21:-0.333333 22:-1 23:-0.333333 24:1 25:0.333333 26:-1 27:1 28:0.333333 29:0.333333 30:-1 31:-0.333333 32:0.333333 33:1 34:-0.333333 35:-0.333333 36:-1 37:-0.333333 38:0.333333 39:0.333333 40:0.333333 41:1 42:-0.333333 43:-1 44:-0.333333 45:1 46:-0.333333 47:-0.333333 48:0.333333 49:1 50:-0.333333 51:-1 52:-0.333333 53:0.333333 54:1 55:0.333333 56:-1 57:-0.333333 58:-0.333333 59:0.333333 60:0.333333 
7.033766474696736 1:-0.333333 2:-1 3:1 4:1 5:0.333333 6:1 7:1 8:-1 9:0.333333 10:-1 11:-0.333333 12:-1 13:-1 14:-1 15:-1 16:0.333333 17:-1 18:-1 19:-0.333333 20:1 21:-0.333333 22:-0.333333 23:1 24:1 25:-1 26:1 27:-1 28:-0.333333 29:-1 30:1 31:-0.333333 32:-0.333333 33:1 34:-0.333333 35:-1 36:-1 37:-1 38:0.333333 39:0.333333 40:1 41:-0.333333 42:1 43:1 44:1 45:-0.333333 46:1 47:1 48:-0.333333 49:-0.333333 50:-1 51:0.333333 52:-1 53:1 54:-1 55:0.333333 56:1 57:-0.333333 58:-0.333333 59:-1 60:1 
12.37684669695603 1:-0.333333 2:0.333333 3:0.333333 4:-1 5:-1 6:0.333333 7:1 8:-1 9:0.333333 10:-1 11:-0.333333 12:-0.333333 13:-1 14:-1 15:0.333333 16:-0.333333 17:1 18:-0.333333 19:-1 20:1 21:0.333333 22:0.333333 23:-1 24:1 25:-1 26:0.333333 27:0.333333 28:1 29:-1 30:0.333333 31:-1 32:-1 33:0.333333 34:-1 35:1 36:-0.333333 37:0.333333 38:1 39:1 40:0.333333 41:0.333333 42:1 43:-0.333333 44:-1 45:1 46:-0.333333 47:0.333333 48:0.333333 49:-1 50:1 51:-0.333333 52:-1 53:-0.333333 54:0.333333 55:1 56:1 57:1 58:-0.333333 59:-1 60:-1 
14.79905853505539 1:1 2:0.333333 3:1 4:-1 5:1 6:1 7:-0.333333 8:-0.333333 9:-1 10:-1 11:-1 12:0.333333 13:0.333333 14:1 15:0.333333 16:-1 17:1 18:0.333333 19:1 20:1 21:1 22:0.333333 23:1 24:1 25:0.333333 26:1 27:1 28:0.333333 29:-1 30:-0.333333 31:-1 32:-0.333333 33:0.333333 34:0.333333 35:0.333333 36:0.333333 37:1 38:1 39:1 40:-1 41:-1 42:0.333333 43:-1 44:-1 45:0.333333 46:0.333333 47:-0.333333 48:0.333333 49:1 50:-0.333333 51:-0.333333 52:1 53:-1 54:1 55:0.333333 56:-1 57:-1 58:-1 59:1 60:-0.333333 
7.755775950776563 1:-1 2:-1 3:-1 4:-1 5:1 6:-1 7:0.333333 8:1 9:-0.333333 10:1 11:1 12:1 13:0.333333 14:-1 15:0.333333 16:-1 17:0.333333 18:-1 19:1 20:1 21:0.333333 22:1 23:1 24:1 25:0.333333 26:0.333333 27:-1 28:-0.333333 29:-1 30:-1 31:0.333333 32:1 33:0.333333 34:-0.333333 35:-1 36:-1 37:-0.333333 38:1 39:-1 40:-0.333333 41:-0.333333 42:-1 43:1 44:1 45:-1 46:1 47:-1 48:-0.333333 49:0.333333 50:-1 51:-1 52:-0.333333 53:-0.333333 54:1 55:-1 56:-1 57:1 58:-1 59:-1 60:0.333333 
9.282085673804277 1:-0.333333 2:1 3:0.333333 4:-1 5:-1 6:-0.333333 7:-1 8:1 9:-1 10:-1 11:-1 12:0.333333 13:-1 14:-1 15:1 16:0.333333 17:-1 18:-0.333333 19:0.333333 20:1 21:1 22:-1 23:0.333333 24:0.333333 25:0.333333 26:1 27:-0.333333 28:-0.333333 29:-1 30:1 31:-1 32:-0.333333 33:0.333333 34:-1 35:-1 36:0.333333 37:-1 38:0.333333 39:1 40:-1 41:-1 42:-1 43:1 44:-1 45:0.333333 46:1 47:1 48:0.333333 49:0.333333 50:-1 51:0.333333 52:-1 53:-1 54:-1 55:1 56:1 57:-0.333333 58:-1 59:-1 60:0.333333 
9.237693589102967 1:-1 2:-1 3:0.333333 4:0.333333 5:1 6:-1 7:-0.333333 8:-1 9:-0.333333 10:-0.333333 11:0.333333 12:0.333333 13:-1 14:-1 15:-0.333333 16:-0.333333 17:1 18:1 19:0.333333 20:-1 21:-1 22:-0.333333 23:1 24:1 25:1 26:-1 27:0.333333 28:0.333333 29:0.333333 30:-1 31:1 32:0.333333 33:1 34:0.333333 35:0.333333 36:-1 37:-0.333333 38:1 39:-1 40:-0.333333 41:0.333333 42:0.333333 43:1 44:-1 45:-0.333333 46:0.333333 47:-1 48:-1 49:1 50:-1 51:1 52:1 53:1 54:-0.333333 55:0.333333 56:-1 57:-1 58:0.333333 59:-1 60:1 
25.55218841640217 1:0.333333 2:0.333333 3:-0.333333 4:1 5:-0.333333 6:-1 7:-0.333333 8:0.333333 9:0.333333 10:-0.333333 11:-1 12:-1 13:-1 14:1 15:0.333333 16:-0.333333 17:0.333333 18:-0.333333 19:0.333333 20:0.333333 21:-1 22:0.333333 23:1 24:-0.333333 25:0.333333 26:-1 27:0.333333 28:1 29:0.333333 30:-1 31:0.333333 32:0.333333 33:-0.333333 34:0.333333 35:-1 36:0.333333 37:0.333333 38:0.333333 39:-0.333333 40:-0.333333 41:0.333333 42:0.333333 43:-1 44:-1 45:1 46:1 47:1 48:1 49:1 50:-0.333333 51:1 52:-0.333333 53:1 54:1 55:1 56:1 57:1 58:-1 59:-0.333333 60:1 
4.905226406133308 1:-1 2:1 3:-0.333333 4:0.333333 5:0.333333 6:1 7:1 8:-0.333333 9:-1 10:1 11:-1 12:1 13:-1 14:-0.333333 15:-0.333333 16:1 17:-1 18:1 19:-1 20:-0.333333 21:-0.333333 22:0.333333 23:-1 24:1 25:-1 26:1 27:1 28:1 29:-1 30:-1 31:-0.333333 32:1 33:1 34:1 35:-1 36:1 37:1 38:-1 39:1 40:-0.333333 41:-1 42:-1 43:1 44:1 45:1 46:1 47:-0.333333 48:0.333333 49:1 50:-0.333333 51:-1 52:1 53:-1 54:1 55:-1 56:-0.333333 57:-0.333333 58:-1 59:1 60:-0.333333 
16.58427393089291 1:0.333333 2:1 3:0.333333 4:0.333333 5:-1 6:-0.333333 7:-0.333333 8:-0.333333 9:-1 10:-0.333333 11:-0.333333 12:-1 13:-1 14:-1 15:-0.333333 16:-0.333333 17:-1 18:0.333333 19:1 20:1 21:1 22:-0.333333 23:-0.333333 24:0.333333 25:1 26:1 27:1 28:0.333333 29:1 30:-1 31:-0.333333 32:0.333333 33:-1 34:-0.333333 35:-1 36:1 37:-1 38:-1 39:1 40:0.333333 41:1 42:1 43:0.333333 44:0.333333 45:1 46:1 47:-0.333333 48:0.333333 49:1 50:-1 51:0.333333 52:1 53:1 54:-0.333333 55:-0.333333 56:-1 57:-1 58:-0.333333 59:1 60:0.333333 
6.465264398943018 1:0.333333 2:1 3:-0.333333 4:0.333333 5:1 6:-0.333333 7:-1 8:-1 9:1 10:-1 11:-1 12:-1 13:-1 14:1 15:-1 16:0.333333 17:1 18:1 19:-0.333333 20:-1 21:-1 22:-1 23:-1 24:1 25:1 26:-1 27:0.333333 28:-1 29:-1 30:-0.333333 31:-0.333333 32:1 33:-1 34:-0.333333 35:-0.333333 36:1 37:-0.333333 38:-1 39:1 40:-1 41:-0.333333 42:-1 43:-0.333333 44:0.333333 45:-1 46:-0.333333 47:-1 48:-1 49:-0.333333 50:-1 51:-0.333333 52:-1 53:-1 54:1 55:-1 56:1 57:-0.333333 58:-1 59:-0.333333 60:1 
6.16769829142847 1:0.333333 2:-1 3:1 4:1 5:1 6:0.333333 7:1 8:1 9:1 10:0.333333 11:0.333333 12:0.333333 13:1 14:1 15:-1 16:1 17:1 18:1 19:1 20:-1 21:0.333333 22:0.333333 23:0.333333 24:-1 25:1 26:1 27:-0.333333 28:1 29:1 30:1 31:1 32:0.333333 33:1 34:0.333333 35:-1 36:1 37:-1 38:0.333333 39:-1 40:-0.333333 41:-0.333333 42:1 43:1 44:-1 45:1 46:-1 47:-1 48:-0.333333 49:0.333333 50:-1 51:0.333333 52:-1 53:1 54:-0.333333 55:1 56:0.333333 57:0.333333 58:1 59:1 60:-0.333333 
18.7116553846263 1:-0.333333 2:1 3:-0.333333 4:-0.333333 5:0.333333 6:1 7:-0.333333 8:1 9:1 10:-1 11:-1 12:1 13:1 14:0.333333 15:1 16:0.333333 17:0.333333 18:-1 19:-0.333333 20:1 21:0.333333 22:1 23:1 24:-0.333333 25:0.333333 26:-1 27:1 28:1 29:0.333333 30:-0.333333 31:0.333333 32:-1 33:-0.333333 34:1 35:-0.333333 36:0.333333 37:0.333333 38:0.333333 39:-1 40:-0.333333 41:1 42:-0.333333 43:-1 44:1 45:-0.333333 46:-0.333333 47:0.333333 48:-1 49:1 50:1 51:-1 52:0.333333 53:1 54:0.333333 55:1 56:-0.333333 57:0.333333 58:0.333333 59:-0.333333 60:1 
123.6588853067148 1:0.333333 2:0.333333 3:1 4:1 5:0.333333 6:0.333333 7:0.333333 8:0.333333 9:-1 10:-0.333333 11:-0.333333 12:0.333333 13:0.333333 14:0.333333 15:-1 16:0.333333 17:0.333333 18:-1 19:1 20:0.333333 21:-1 22:0.333333 23:0.333333 24:-1 25:0.333333 26:0.333333 27:-0.333333 28:0.333333 29:0.333333 30:1 31:0.333333 32:1 33:-0.333333 34:-0.333333 35:0.333333 36:0.333333 37:-0.333333 38:0.333333 39:0.333333 40:-1 41:0.333333 42:0.333333 43:0.333333 44:0.333333 45:0.333333 46:-1 47:1 48:0.333333 49:1 50:1 51:0.333333 52:0.333333 53:-1 54:0.333333 55:0.333333 56:1 57:-0.333333 58:1 59:-0.333333 60:0.333333 
10.35444505631457 1:0.333333 2:-1 3:0.333333 4:-1 5:1 6:-1 7:0.333333 8:0.333333 9:1 10:-0.333333 11:0.333333 12:-1 13:1 14:0.333333 15:-1 16:1 17:1 18:1 19:1 20:0.333333 21:-1 22:1 23:0.333333 24:0.333333 25:1 26:1 27:1 28:0.333333 29:1 30:1 31:1 32:0.333333 33:-1 34:-0.333333 35:0.333333 36:-1 37:-1 38:0.333333 39:1 40:-0.333333 41:-1 42:0.333333 43:0.333333 44:0.333333 45:1 46:0.333333 47:1 48:0.333333 49:-1 50:-1 51:0.333333 52:1 53:-0.333333 54:-0.333333 55:-1 56:1 57:-0.333333 58:1 59:-1 60:-0.333333 
28.64943877562319 1:-1 2:0.333333 3:-0.333333 4:-1 5:-0.333333 6:-1 7:-1 8:-0.333333 9:-1 10:0.333333 11:-1 12:1 13:-1 14:0.333333 15:0.333333 16:1 17:-0.333333 18:0.333333 19:0.333333 20:0.333333 21:-0.333333 22:0.333333 23:1 24:-0.333333 25:1 26:-1 27:-0.333333 28:-1 29:1 30:-0.333333 31:-1 32:-0.333333 33:-1 34:-1 35:-1 36:0.333333 37:1 38:0.333333 39:-1 40:-0.333333 41:-0.333333 42:1 43:-1 44:-0.333333 45:0.333333 46:-1 47:0.333333 48:0.333333 49:1 50:-0.333333 51:0.333333 52:0.333333 53:0.333333 54:0.333333 55:1 56:-0.333333 57:-0.333333 58:-1 59:-0.333333 60:-1 
15.59219467490914 1:-1 2:1 3:0.333333 4:-1 5:-1 6:1 7:-1 8:-1 9:-0.333333 10:0.333333 11:1 12:0.333333 13:0.333333 14:1 15:-1 16:-0.333333 17:1 18:0.333333 19:0.333333 20:-1 21:-0.333333 22:-1 23:0.333333 24:-0.333333 25:0.333333 26:0.333333 27:-1 28:1 29:-0.333333 30:-0.333333 31:-0.333333 32:1 33:0.333333 34:-1 35:1 36:1 37:1 38:0.333333 39:-1 40:0.333333 41:-1 42:-0.333333 43:-1 44:-0.333333 45:-0.333333 46:-1 47:-0.333333 48:-0.333333 49:-1 50:0.333333 51:-1 52:-1 53:-0.333333 54:-0.333333 55:0.333333 56:1 57:-1 58:0.333333 59:1 60:-1 
46.22641310491417 1:-0.333333 2:-1 3:1 4:-0.333333 5:1 6:-1 7:0.333333 8:0.333333 9:0.333333 10:1 11:-0.333333 12:-0.333333 13:-0.333333 14:-1 15:1 16:0.333333 17:-0.333333 18:0.333333 19:1 20:-0.333333 21:-1 22:0.333333 23:0.333333 24:-0.333333 25:0.333333 26:-1 27:1 28:-0.333333 29:0.333333 30:-1 31:-0.333333 32:-1 33:-1 34:-1 35:-0.333333 36:-1 37:-0.333333 38:-1 39:1 40:0.333333 41:-1 42:0.333333 43:0.333333 44:-0.333333 45:0.333333 46:-0.333333 47:0.333333 48:1 49:-0.333333 50:-0.333333 51:0.333333 52:-1 53:0.333333 54:0.333333 55:0.333333 56:-1 57:-0.333333 58:0.333333 59:-1 60:0.333333 
142.5015437373173 1:-0.333333 2:-1 3:1 4:0.333333 5:-0.333333 6:-0.333333 7:-0.333333 8:-0.333333 9:0.333333 10:1 11:1 12:0.333333 13:0.333333 14:0.333333 15:-0.333333 16:-0.333333 17:-0.333333 18:-1 19:-0.333333 20:0.333333 21:-1 22:-0.333333 23:0.333333 24:-0.333333 25:0.333333 26:-0.333333 27:-1 28:1 29:0.333333 30:-1 31:-0.333333 32:0.333333 33:-1 34:0.333333 35:0.333333 36:-1 37:0.333333 38:-0.333333 39:-1 40:0.333333 41:1 42:0.333333 43:-0.333333 44:-0.333333 45:-0.333333 46:-0.333333 47:-1 48:0.333333 49:-1 50:0.333333 51:-1 52:-0.333333 53:0.333333 54:0.333333 55:-1 56:-0.333333 57:-0.333333 58:-0.333333 59:0.333333 60:0.333333 
9.987909605179123 1:1 2:-1 3:1 4:-0.333333 5:-1 6:-1 7:-1 8:-1 9:-0.333333 10:1 11:1 12:-0.333333 13:1 14:1 15:0.333333 16:1 17:1 18:-0.333333 19:1 20:-0.333333 21:-0.333333 22:-1 23:1 24:-0.333333 25:-0.333333 26:1 27:0.333333 28:-1 29:0.333333 30:1 31:0.333333 32:-0.333333 33:0.333333 34:-1 35:1 36:1 37:-1 38:-1 39:0.333333 40:0.333333 41:-1 42:-0.333333 43:0.333333 44:-1 45:-1 46:0.333333 47:1 48:-0.333333 49:-0.333333 50:-1 51:1 52:-1 53:0.333333 54:-0.333333 55:-1 56:-1 57:-0.333333 58:0.333333 59:1 60:1 
86.10709512769657 1:-1 2:0.333333 3:-1 4:0.333333 5:-1 6:-1 7:0.333333 8:1 9:-1 10:0.333333 11:0.333333 12:-1 13:-0.333333 14:1 15:1 16:-0.333333 17:-0.333333 18:-1 19:-0.333333 20:0.333333 21:1 22:0.333333 23:0.333333 24:-0.333333 25:0.333333 26:-1 27:0.333333 28:-0.333333 29:-1 30:0.333333 31:0.333333 32:1 33:1 34:-0.333333 35:0.333333 36:-1 37:-0.333333 38:0.333333 39:-0.333333 40:-0.333333 41:0.333333 42:-0.333333 43:-1 44:-0.333333 45:-0.333333 46:1 47:-0.333333 48:-1 49:-0.333333 50:0.333333 51:-0.333333 52:-0.333333 53:0.333333 54:-0.333333 55:1 56:0.333333 57:-0.333333 58:0.333333 59:0.333333 60:0.333333 
35.07102564512518 1:-1 2:0.333333 3:-0.333333 4:-0.333333 5:-1 6:-0.333333 7:0.333333 8:-0.333333 9:-0.333333 10:-0.333333 11:1 12:-0.333333 13:0.333333 14:-0.333333 15:-0.333333 16:1 17:1 18:0.333333 19:0.333333 20:1 21:-0.333333 22:0.333333 23:-1 24:0.333333 25:-1 26:-0.333333 27:-1 28:-0.333333 29:-1 30:0.333333 31:-1 32:1 33:0.333333 34:1 35:-1 36:1 37:-1 38:-1 39:0.333333 40:0.333333 41:-1 42:-1 43:-0.333333 44:-1 45:-0.333333 46:-0.333333 47:-1 48:-0.333333 49:-0.333333 50:-1 51:0.333333 52:1 53:1 54:-0.333333 55:0.333333 56:-0.333333 57:0.333333 58:1 59:1 60:0.333333 
14.0291060620733 1:1 2:-1 3:-1 4:-1 5:-1 6:0.333333 7:0.333333 8:-1 9:1 10:-1 11:1 12:-0.333333 13:-1 14:1 15:-0.333333 16:-0.333333 17:1 18:1 19:0.333333 20:1 21:0.333333 22:0.333333 23:0.333333 24:0.333333 25:1 26:1 27:1 28:0.333333 29:-1 30:-0.333333 31:1 32:-0.333333 33:1 34:0.333333 35:1 36:0.333333 37:0.333333 38:1 39:1 40:1 41:0.333333 42:1 43:-1 44:1 45:1 46:0.333333 47:-0.333333 48:-0.333333 49:-1 50:-0.333333 51:0.333333 52:-0.333333 53:-0.333333 54:0.333333 55:1 56:-0.333333 57:-1 58:-1 59:-0.333333 60:-0.333333 
23.57592713254034 1:-1 2:-0.333333 3:-1 4:-0.333333 5:-1 6:-1 7:-0.333333 8:-1 9:-0.333333 10:0.333333 11:1 12:0.333333 13:-1 14:-0.333333 15:-1 16:-0.333333 17:1 18:-0.333333 19:1 20:0.333333 21:1 22:0.333333 23:1 24:-0.333333 25:1 26:0.333333 27:0.333333 28:0.333333 29:-1 30:-0.333333 31:-1 32:0.333333 33:-1 34:1 35:-1 36:0.333333 37:-1 38:-0.333333 39:1 40:-0.333333 41:1 42:-1 43:-0.333333 44:-1 45:0.333333 46:-1 47:-1 48:-0.333333 49:0.333333 50:-1 51:1 52:-0.333333 53:1 54:-0.333333 55:0.333333 56:0.333333 57:-1 58:-0.333333 59:-1 60:0.333333 
16.23238224490203 1:-0.333333 2:-1 3:-0.333333 4:-0.333333 5:-1 6:-0.333333 7:0.333333 8:1 9:1 10:0.333333 11:0.333333 12:-1 13:-1 14:-1 15:1 16:1 17:-1 18:1 19:0.333333 20:0.333333 21:-1 22:1 23:1 24:-1 25:-0.333333 26:0.333333 27:-1 28:0.333333 29:-1 30:-1 31:-0.333333 32:0.333333 33:0.333333 34:0.333333 35:-0.333333 36:1 37:0.333333 38:-1 39:-0.333333 40:1 41:-0.333333 42:-0.333333 43:0.333333 44:0.333333 45:0.333333 46:0.333333 47:-1 48:1 49:-0.333333 50:0.333333 51:-1 52:1 53:-1 54:-1 55:-1 56:1 57:-0.333333 58:1 59:-1 60:0.333333 
32.24112615236399 1:-0.333333 2:0.333333 3:1 4:0.333333 5:1 6:1 7:1 8:-1 9:1 10:-0.333333 11:0.333333 12:-1 13:0.333333 14:-1 15:-0.333333 16:-0.333333 17:0.333333 18:0.333333 19:-1 20:-0.333333 21:-1 22:-0.333333 23:0.333333 24:-1 25:-1 26:-1 27:-1 28:-0.333333 29:-0.333333 30:0.333333 31:-1 32:-1 33:-0.333333 34:-1 35:0.333333 36:-0.333333 37:-0.333333 38:0.333333 39:1 40:-0.333333 41:-0.333333 42:0.333333 43:1 44:1 45:-0.333333 46:-0.333333 47:1 48:-0.333333 49:-1 50:-0.333333 51:-0.333333 52:-1 53:-0.333333 54:0.333333 55:-1 56:-0.333333 57:0.333333 58:-0.333333 59:0.333333 60:1 
2.140846054072033 1:-0.333333 2:-0.333333 3:-0.333333 4:-0.333333 5:-1 6:-1 7:-1 8:-1 9:-1 10:-0.333333 11:1 12:-1 13:-1 14:-1 15:-1 16:0.333333 17:-1 18:-1 19:-1 20:-1 21:1 22:-0.333333 23:1 24:-1 25:-1 26:-1 27:1 28:-1 29:-1 30:-0.333333 31:-0.333333 32:-1 33:-0.333333 34:1 35:-1 36:-1 37:-1 38:-0.333333 39:0.333333 40:-1 41:1 42:-0.333333 43:1 44:-1 45:0.333333 46:1 47:1 48:-1 49:-1 50:-1 51:-1 52:1 53:-1 54:1 55:-1 56:1 57:1 58:0.333333 59:1 60:1 
28.56278281421091 1:-1 2:1 3:0.333333 4:1 5:1 6:1 7:0.333333 8:-0.333333 9:0.333333 10:1 11:1 12:0.333333 13:-1 14:0.333333 15:0.333333 16:0.333333 17:-1 18:-0.333333 19:-0.333333 20:0.333333 21:1 22:-0.333333 23:-0.333333 24:1 25:1 26:0.333333 27:-1 28:-0.333333 29:-1 30:-0.333333 31:-0.333333 32:1 33:-1 34:-1 35:-0.333333 36:-1 37:-0.333333 38:-0.333333 39:-0.333333 40:-1 41:-1 42:-0.333333 43:-0.333333 44:0.333333 45:1 46:1 47:-0.333333 48:-1 49:-0.333333 50:-1 51:-0.333333 52:-0.333333 53:-1 54:0.333333 55:0.333333 56:1 57:-0.333333 58:-0.333333 59:1 60:1 
42.19719492830186 1:-0.333333 2:-1 3:-0.333333 4:-0.333333 5:-1 6:-0.333333 7:-1 8:-1 9:-0.333333 10:-0.333333 11:-0.333333 12:-0.333333 13:-1 14:-0.333333 15:-0.333333 16:-1 17:-0.333333 18:-0.333333 19:-1 20:-0.333333 21:-1 22:-0.333333 23:-0.333333 24:-1 25:-0.333333 26:-0.333333 27:-1 28:-0.333333 29:-0.333333 30:-1 31:-1 32:-1 33:-0.333333 34:0.333333 35:-1 36:-0.333333 37:-0.333333 38:0.333333 39:0.333333 40:1 41:-0.333333 42:1 43:0.333333 44:0.333333 45:0.333333 46:1 47:1 48:1 49:-1 50:-1 51:-0.333333 52:-0.333333 53:-0.333333 54:-0.333333 55:-0.333333 56:1 57:1 58:-0.333333 59:-0.333333 60:0.333333 
50.99957432752092 1:0.333333 2:0.333333 3:1 4:1 5:0.333333 6:0.333333 7:1 8:1 9:0.333333 10:0.333333 11:1 12:-0.333333 13:-0.333333 14:-0.333333 15:1 16:-0.333333 17:-1 18:-0.333333 19:1 20:-0.333333 21:-0.333333 22:-1 23:-0.333333 24:-1 25:0.333333 26:1 27:-0.333333 28:1 29:0.333333 30:1 31:0.333333 32:0.333333 33:0.333333 34:-0.333333 35:-0.333333 36:0.333333 37:1 38:0.333333 39:1 40:-0.333333 41:0.333333 42:0.333333 43:1 44:-0.333333 45:-1 46:0.333333 47:-1 48:1 49:-0.333333 50:-1 51:-0.333333 52:-0.333333 53:-0.333333 54:1 55:1 56:-1 57:0.333333 58:0.333333 59:0.333333 60:0.333333 
86.40349449828676 1:-0.333333 2:0.333333 3:-0.333333 4:-0.333333 5:-0.333333 6:-0.333333 7:-1 8:-0.333333 9:-0.333333 10:0.333333 11:1 12:-1 13:1 14:1 15:0.333333 16:1 17:-0.333333 18:0.333333 19:0.333333 20:0.333333 21:-1 22:1 23:1 24:1 25:-0.333333 26:-0.333333 27:-0.333333 28:-0.333333 29:-1 30:0.333333 31:-1 32:0.333333 33:1 34:1 35:0.333333 36:0.333333 37:0.333333 38:0.333333 39:-0.333333 40:0.333333 41:0.333333 42:-0.333333 43:0.333333 44:1 45:-0.333333 46:0.333333 47:0.333333 48:-1 49:-0.333333 50:-0.333333 51:-1 52:0.333333 53:0.333333 54:0.333333 55:-0.333333 56:0.333333 57:1 58:1 59:0.333333 60:1 
16.06175287080705 1:0.333333 2:-1 3:-1 4:1 5:1 6:1 7:-0.333333 8:0.333333 9:0.333333 10:0.333333 11:0.333333 12:-1 13:-0.333333 14:-1 15:-1 16:1 17:0.333333 18:1 19:1 20:-1 21:0.333333 22:0.333333 23:-0.333333 24:-0.333333 25:0.333333 26:1 27:-1 28:0.333333 29:-1 30:1 31:0.333333 32:1 33:-0.333333 34:-0.333333 35:1 36:-1 37:0.333333 38:-1 39:-1 40:-1 41:-0.333333 42:-0.333333 43:-0.333333 44:0.333333 45:-1 46:-1 47:-1 48:1 49:-0.333333 50:-1 51:-0.333333 52:-0.333333 53:-0.333333 54:-1 55:0.333333 56:0.333333 57:1 58:0.333333 59:1 60:-1 
141.8000631621021 1:1 2:1 3:0.333333 4:0.333333 5:0.333333 6:1 7:0.333333 8:1 9:-0.333333 10:-0.333333 11:-0.333333 12:0.333333 13:-0.333333 14:0.333333 15:0.333333 16:-0.333333 17:-0.333333 18:-0.333333 19:0.333333 20:1 21:-0.333333 22:0.333333 23:-1 24:-1 25:-1 26:-0.333333 27:-0.333333 28:0.333333 29:0.333333 30:-1 31:-1 32:0.333333 33:1 34:-1 35:-0.333333 36:-0.333333 37:-1 38:0.333333 39:-0.333333 40:0.333333 41:1 42:-0.333333 43:-0.333333 44:0.333333 45:0.333333 46:0.333333 47:0.333333 48:-0.333333 49:0.333333 50:-0.333333 51:0.333333 52:1 53:0.333333 54:0.333333 55:-0.333333 56:-0.333333 57:-0.333333 58:0.333333 59:1 60:-1 
4.193961674245931 1:1 2:0.333333 3:-1 4:1 5:-1 6:-1 7:-1 8:-1 9:0.333333 10:1 11:-1 12:1 13:-1 14:-1 15:0.333333 16:1 17:0.333333 18:1 19:1 20:1 21:-1 22:1 23:0.333333 24:1 25:1 26:1 27:-1 28:-1 29:1 30:1 31:-1 32:-0.333333 33:-1 34:-1 35:-1 36:1 37:-0.333333 38:1 39:1 40:1 41:1 42:1 43:1 44:1 45:1 46:1 47:1 48:1 49:-0.333333 50:-1 51:-0.333333 52:-1 53:0.333333 54:-1 55:-1 56:-0.333333 57:-0.333333 58:1 59:0.333333 60:1 
9.19693054364256 1:1 2:1 3:0.333333 4:-1 5:-0.333333 6:-0.333333 7:0.333333 8:0.333333 9:-0.333333 10:-1 11:1 12:-1 13:1 14:1 15:0.333333 16:0.333333 17:1 18:1 19:-0.333333 20:1 21:0.333333 22:-0.333333 23:1 24:1 25:1 26:1 27:-1 28:0.333333 29:1 30:0.333333 31:1 32:1 33:1 34:-0.333333 35:1 36:0.333333 37:-1 38:-0.333333 39:-1 40:-0.333333 41:-0.333333 42:-1 43:-1 44:-1 45:-0.333333 46:-1 47:-1 48:1 49:-0.333333 50:0.333333 51:1 52:-0.333333 53:-1 54:-0.333333 55:1 56:1 57:1 58:1 59:1 60:0.333333 
31.82982014711459 1:-0.333333 2:-0.333333 3:-1 4:-0.333333 5:-0.333333 6:0.333333 7:0.333333 8:-1 9:0.333333 10:-0.333333 11:-0.333333 12:-1 13:-0.333333 14:-0.333333 15:-0.333333 16:-0.333333 17:-1 18:-1 19:-0.333333 20:-1 21:1 22:1 23:0.333333 24:-1 25:-0.333333 26:-0.333333 27:-1 28:-1 29:1 30:1 31:0.333333 32:0.333333 33:1 34:0.333333 35:1 36:0.333333 37:1 38:-0.333333 39:-0.333333 40:-0.333333 41:0.333333 42:1 43:-0.333333 44:0.333333 45:0.333333 46:-0.333333 47:-0.333333 48:-1 49:-1 50:-0.333333 51:-1 52:0.333333 53:-1 54:0.333333 55:0.333333 56:-0.333333 57:1 58:-0.333333 59:1 60:1 
18.36389431114964 1:1 2:1 3:0.333333 4:-1 5:0.333333 6:0.333333 7:1 8:0.333333 9:1 10:1 11:0.333333 12:0.333333 13:1 14:0.333333 15:1 16:-0.333333 17:-0.333333 18:1 19:1 20:0.333333 21:0.333333 22:1 23:1 24:1 25:0.333333 26:-1 27:1 28:0.333333 29:1 30:0.333333 31:1 32:0.333333 33:1 34:-1 35:0.333333 36:0.333333 37:1 38:0.333333 39:0.333333 40:-1 41:0.333333 42:0.333333 43:0.333333 44:1 45:-0.333333 46:0.333333 47:-1 48:1 49:1 50:1 51:1 52:0.333333 53:0.333333 54:1 55:0.333333 56:1 57:1 58:-0.333333 59:1 60:0.333333 
31.08013385313825 1:-0.333333 2:0.333333 3:0.333333 4:1 5:0.333333 6:0.333333 7:1 8:-0.333333 9:0.333333 10:0.333333 11:-1 12:0.333333 13:0.333333 14:0.333333 15:0.333333 16:1 17:1 18:0.333333 19:0.333333 20:1 21:0.333333 22:0.333333 23:0.333333 24:0.333333 25:-1 26:0.333333 27:-1 28:0.333333 29:1 30:0.333333 31:0.333333 32:-1 33:0.333333 34:1 35:0.333333 36:1 37:-0.333333 38:-1 39:1 40:1 41:0.333333 42:-1 43:0.333333 44:0.333333 45:1 46:0.333333 47:1 48:1 49:0.333333 50:0.333333 51:1 52:0.333333 53:1 54:-0.333333 55:-0.333333 56:1 57:1 58:0.333333 59:0.333333 60:1 
91.51670719696337 1:0.333333 2:1 3:1 4:0.333333 5:-0.333333 6:0.333333 7:1 8:-1 9:-0.333333 10:0.333333 11:0.333333 12:-1 13:0.333333 14:0.333333 15:1 16:0.333333 17:-0.333333 18:0.333333 19:1 20:0.333333 21:1 22:0.333333 23:0.333333 24:0.333333 25:1 26:-0.333333 27:0.333333 28:0.333333 29:0.333333 30:1 31:-0.333333 32:0.333333 33:0.333333 34:-1 35:0.333333 36:0.333333 37:-0.333333 38:0.333333 39:1 40:0.333333 41:-1 42:0.333333 43:1 44:-0.333333 45:0.333333 46:1 47:0.333333 48:-1 49:0.333333 50:1 51:0.333333 52:-1 53:0.333333 54:0.333333 55:0.333333 56:-1 57:0.333333 58:0.333333 59:1 60:0.333333 
4.966637151406096 1:1 2:1 3:-1 4:-0.333333 5:1 6:1 7:0.333333 8:-1 9:0.333333 10:1 11:0.333333 12:-1 13:-1 14:0.333333 15:1 16:1 17:-1 18:1 19:-0.333333 20:-0.333333 21:-1 22:-0.333333 23:1 24:-1 25:-0.333333 26:-1 27:-1 28:1 29:-0.333333 30:-1 31:-1 32:-1 33:-1 34:-1 35:-1 36:-1 37:0.333333 38:1 39:-0.333333 40:1 41:-1 42:-1 43:-1 44:-0.333333 45:0.333333 46:0.333333 47:-1 48:-1 49:1 50:1 51:1 52:1 53:0.333333 54:-1 55:1 56:1 57:-1 58:0.333333 59:1 60:-1 
9.791476351471577 1:-0.333333 2:0.333333 3:0.333333 4:-1 5:-1 6:-0.333333 7:0.333333 8:1 9:1 10:-0.333333 11:0.333333 12:0.333333 13:1 14:1 15:-0.333333 16:-1 17:1 18:0.333333 19:0.333333 20:-1 21:-1 22:-0.333333 23:-1 24:-0.333333 25:-1 26:-1 27:-1 28:-1 29:0.333333 30:-1 31:-1 32:-1 33:-1 34:-1 35:-1 36:1 37:0.333333 38:-0.333333 39:0.333333 40:1 41:-1 42:0.333333 43:1 44:1 45:0.333333 46:0.333333 47:0.333333 48:1 49:-0.333333 50:0.333333 51:0.333333 52:1 53:1 54:1 55:-0.333333 56:-1 57:-1 58:-1 59:-1 60:-1 
18.14028600124261 1:1 2:-0.333333 3:0.333333 4:1 5:-0.333333 6:1 7:-0.333333 8:0.333333 9:1 10:1 11:1 12:-1 13:1 14:-0.333333 15:-0.333333 16:-1 17:1 18:-1 19:-0.333333 20:1 21:-1 22:-1 23:-0.333333 24:-1 25:-1 26:1 27:-0.333333 28:-0.333333 29:0.333333 30:0.333333 31:0.333333 32:1 33:-1 34:-0.333333 35:-1 36:-0.333333 37:1 38:-0.333333 39:-0.333333 40:-0.333333 41:-1 42:-0.333333 43:1 44:0.333333 45:0.333333 46:1 47:-0.333333 48:-1 49:1 50:-1 51:-1 52:0.333333 53:0.333333 54:0.333333 55:-1 56:-0.333333 57:-0.333333 58:0.333333 59:0.333333 60:1 
3.297643301801447 1:1 2:-0.333333 3:-0.333333 4:-0.333333 5:-1 6:-1 7:-1 8:1 9:-0.333333 10:1 11:1 12:-1 13:0.333333 14:-1 15:1 16:0.333333 17:-1 18:1 19:1 20:0.333333 21:-1 22:0.333333 23:-1 24:1 25:-1 26:1 27:1 28:-0.333333 29:1 30:0.333333 31:-1 32:0.333333 33:-1 34:1 35:1 36:-1 37:-1 38:-1 39:-1 40:-1 41:1 42:1 43:-0.333333 44:0.333333 45:1 46:-1 47:1 48:-0.333333 49:1 50:1 51:-0.333333 52:-1 53:-1 54:-1 55:1 56:1 57:1 58:0.333333 59:-1 60:-0.333333 
39.5552965672962 1:1 2:-0.333333 3:-0.333333 4:-0.333333 5:-0.333333 6:-0.333333 7:1 8:1 9:-0.333333 10:0.333333 11:1 12:1 13:1 14:-0.333333 15:0.333333 16:-0.333333 17:-0.333333 18:1 19:-0.333333 20:-0.333333 21:0.333333 22:-1 23:-0.333333 24:-1 25:-1 26:-1 27:-0.333333 28:0.333333 29:0.333333 30:0.333333 31:0.333333 32:1 33:1 34:-0.333333 35:0.333333 36:-1 37:1 38:0.333333 39:0.333333 40:1 41:-0.333333 42:-1 43:-0.333333 44:0.333333 45:1 46:0.333333 47:0.333333 48:1 49:1 50:-0.333333 51:-0.333333 52:-1 53:-0.333333 54:1 55:-1 56:-0.333333 57:-0.333333 58:-0.333333 59:-1 60:0.333333 
37.31923706338257 1:0.333333 2:-1 3:0.333333 4:-1 5:0.333333 6:-1 7:-0.333333 8:0.333333 9:0.333333 10:1 11:-1 12:0.333333 13:1 14:1 15:1 16:0.333333 17:0.333333 18:-1 19:-1 20:-0.333333 21:0.333333 22:-0.333333 23:-0.333333 24:-1 25:-0.333333 26:0.333333 27:0.333333 28:-1 29:1 30:-0.333333 31:1 32:0.333333 33:1 34:-0.333333 35:-0.333333 36:1 37:-1 38:-1 39:0.333333 40:-0.333333 41:-0.333333 42:0.333333 43:-1 44:-1 45:1 46:-0.333333 47:0.333333 48:-0.333333 49:-0.333333 50:0.333333 51:1 52:-0.333333 53:0.333333 54:-1 55:-1 56:0.333333 57:-0.333333 58:-0.333333 59:0.333333 60:-0.333333 
68.43005967667094 1:1 2:0.333333 3:0.333333 4:0.333333 5:-0.333333 6:1 7:-0.333333 8:0.333333 9:0.333333 10:0.333333 11:1 12:-0.333333 13:-0.333333 14:-0.333333 15:-1 16:-0.333333 17:0.333333 18:-0.333333 19:-0.333333 20:-0.333333 21:1 22:1 23:0.333333 24:-1 25:-0.333333 26:-0.333333 27:-1 28:0.333333 29:0.333333 30:-0.333333 31:0.333333 32:-0.333333 33:-0.333333 34:-1 35:1 36:0.333333 37:-0.333333 38:-0.333333 39:-1 40:-1 41:-0.333333 42:1 43:-0.333333 44:-1 45:-0.333333 46:-1 47:-1 48:1 49:0.333333 50:0.333333 51:0.333333 52:-1 53:-0.333333 54:0.333333 55:1 56:-0.333333 57:1 58:-0.333333 59:1 60:-0.333333 
176.9055923314212 1:-1 2:-0.333333 3:-0.333333 4:-0.333333 5:-0.333333 6:-1 7:0.333333 8:0.333333 9:0.333333 10:-1 11:-0.333333 12:-0.333333 13:-1 14:0.333333 15:-0.333333 16:1 17:0.333333 18:0.333333 19:0.333333 20:0.333333 21:-1 22:-0.333333 23:1 24:-0.333333 25:0.333333 26:0.333333 27:-0.333333 28:1 29:1 30:-1 31:-0.333333 32:0.333333 33:-0.333333 34:-0.333333 35:0.333333 36:1 37:1 38:1 39:0.333333 40:-1 41:-0.333333 42:-0.333333 43:-0.333333 44:-0.333333 45:-0.333333 46:0.333333 47:0.333333 48:0.333333 49:-0.333333 50:-0.333333 51:-1 52:-0.333333 53:0.333333 54:-0.333333 55:0.333333 56:0.333333 57:1 58:0.333333 59:-0.333333 60:-0.333333 
4.143991914227512 1:-0.333333 2:-0.333333 3:1 4:-1 5:-1 6:1 7:1 8:1 9:1 10:-1 11:1 12:1 13:1 14:1 15:-0.333333 16:-1 17:-1 18:-1 19:0.333333 20:-1 21:-0.333333 22:-1 23:-1 24:-0.333333 25:-1 26:-0.333333 27:-1 28:-0.333333 29:-0.333333 30:-1 31:-1 32:-1 33:-1 34:1 35:-0.333333 36:0.333333 37:-1 38:1 39:-0.333333 40:0.333333 41:1 42:1 43:1 44:-1 45:-1 46:1 47:-1 48:-1 49:1 50:-0.333333 51:1 52:0.333333 53:-1 54:-0.333333 55:1 56:1 57:1 58:0.333333 59:0.333333 60:-1 
48.06912261346655 1:-1 2:-0.333333 3:-0.333333 4:0.333333 5:0.333333 6:1 7:-0.333333 8:-0.333333 9:-0.333333 10:-0.333333 11:0.333333 12:-0.333333 13:-0.333333 14:-0.333333 15:-1 16:-1 17:-0.333333 18:-1 19:-1 20:-0.333333 21:-0.333333 22:-1 23:-0.333333 24:-1 25:-1 26:0.333333 27:0.333333 28:1 29:-0.333333 30:-1 31:-1 32:-0.333333 33:-0.333333 34:0.333333 35:1 36:-0.333333 37:0.333333 38:-0.333333 39:0.333333 40:-1 41:-0.333333 42:-0.333333 43:-1 44:-0.333333 45:-0.333333 46:-1 47:-0.333333 48:1 49:-1 50:1 51:-0.333333 52:1 53:0.333333 54:-1 55:-1 56:-0.333333 57:0.333333 58:-0.333333 59:-1 60:-0.333333 
5.600695483091849 1:-1 2:0.333333 3:-1 4:-1 5:-1 6:-1 7:1 8:0.333333 9:-1 10:-1 11:-0.333333 12:-1 13:-0.333333 14:-0.333333 15:1 16:0.333333 17:-1 18:0.333333 19:1 20:-1 21:-1 22:1 23:1 24:-0.333333 25:-1 26:1 27:-1 28:1 29:-1 30:1 31:0.333333 32:1 33:-1 34:1 35:1 36:1 37:1 38:-0.333333 39:-1 40:-0.333333 41:1 42:1 43:-0.333333 44:0.333333 45:0.333333 46:1 47:1 48:1 49:-0.333333 50:-1 51:-0.333333 52:-1 53:0.333333 54:1 55:1 56:0.333333 57:0.333333 58:-1 59:0.333333 60:-0.333333 
5.180287388837793 1:0.333333 2:1 3:1 4:-0.333333 5:0.333333 6:-1 7:0.333333 8:-1 9:1 10:-1 11:0.333333 12:0.333333 13:1 14:-1 15:1 16:-0.333333 17:0.333333 18:1 19:1 20:0.333333 21:-1 22:-1 23:-0.333333 24:-1 25:-1 26:-1 27:1 28:0.333333 29:0.333333 30:0.333333 31:-1 32:-1 33:0.333333 34:-1 35:1 36:-0.333333 37:-1 38:-1 39:-0.333333 40:-1 41:-1 42:-1 43:-0.333333 44:-0.333333 45:-1 46:-0.333333 47:-1 48:0.333333 49:-0.333333 50:-1 51:-0.333333 52:1 53:-0.333333 54:1 55:-1 56:-1 57:-1 58:-1 59:-1 60:0.333333 
4.752974965319746 1:1 2:0.333333 3:1 4:1 5:0.333333 6:-1 7:1 8:1 9:-1 10:1 11:-0.333333 12:-1 13:1 14:0.333333 15:1 16:0.333333 17:0.333333 18:-1 19:1 20:-1 21:1 22:1 23:-0.333333 24:-0.333333 25:-1 26:0.333333 27:-1 28:-1 29:-1 30:1 31:-0.333333 32:-1 33:-1 34:0.333333 35:1 36:-0.333333 37:-1 38:-1 39:0.333333 40:-1 41:-0.333333 42:-1 43:-0.333333 44:-1 45:1 46:-1 47:-1 48:-1 49:-1 50:-1 51:1 52:1 53:0.333333 54:0.333333 55:0.333333 56:0.333333 57:-1 58:1 59:0.333333 60:-1 
52.76475655031943 1:1 2:-0.333333 3:0.333333 4:-1 5:-0.333333 6:0.333333 7:-0.333333 8:-1 9:0.333333 10:0.333333 11:1 12:0.333333 13:0.333333 14:1 15:-0.333333 16:1 17:1 18:1 19:1 20:0.333333 21:1 22:0.333333 23:0.333333 24:1 25:1 26:-0.333333 27:-0.333333 28:0.333333 29:-1 30:-0.333333 31:-1 32:-1 33:-0.333333 34:-0.333333 35:-1 36:-1 37:-0.333333 38:0.333333 39:0.333333 40:-1 41:1 42:0.333333 43:1 44:0.333333 45:0.333333 46:0.333333 47:0.333333 48:1 49:0.333333 50:0.333333 51:-1 52:-0.333333 53:-1 54:1 55:-0.333333 56:0.333333 57:-0.333333 58:-0.333333 59:0.333333 60:0.333333 
15.58816161179711 1:0.333333 2:0.333333 3:-0.333333 4:-1 5:-1 6:-0.333333 7:-0.333333 8:-0.333333 9:-1 10:1 11:0.333333 12:-1 13:-0.333333 14:-0.333333 15:-0.333333 16:-1 17:-0.333333 18:0.333333 19:0.333333 20:-1 21:-1 22:-1 23:-0.333333 24:-0.333333 25:1 26:-0.333333 27:-1 28:0.333333 29:1 30:-0.333333 31:-0.333333 32:-0.333333 33:-1 34:-1 35:-0.333333 36:0.333333 37:1 38:-1 39:-1 40:-1 41:-0.333333 42:0.333333 43:-1 44:-1 45:0.333333 46:-0.333333 47:-1 48:1 49:0.333333 50:-1 51:0.333333 52:0.333333 53:1 54:-1 55:-1 56:-1 57:1 58:1 59:-1 60:0.333333 
47.14498583955259 1:-0.333333 2:-1 3:-1 4:-0.333333 5:-0.333333 6:0.333333 7:0.333333 8:-1 9:-0.333333 10:-0.333333 11:-1 12:0.333333 13:-0.333333 14:0.333333 15:0.333333 16:-1 17:1 18:0.333333 19:-1 20:0.333333 21:-1 22:-0.333333 23:-1 24:0.333333 25:0.333333 26:-1 27:-0.333333 28:-0.333333 29:0.333333 30:-1 31:-0.333333 32:-1 33:0.333333 34:-1 35:1 36:0.333333 37:-1 38:-0.333333 39:-0.333333 40:-0.333333 41:0.333333 42:-0.333333 43:-1 44:-0.333333 45:-1 46:1 47:-0.333333 48:-0.333333 49:-1 50:-0.333333 51:1 52:-0.333333 53:0.333333 54:1 55:0.333333 56:-1 57:0.333333 58:0.333333 59:1 60:0.333333 
279.508497187 1:-0.333333 2:0.333333 3:-0.333333 4:0.333333 5:0.333333 6:0.333333 7:-0.333333 8:0.333333 9:0.333333 10:0.333333 11:0.333333 12:1 13:0.333333 14:0.333333 15:-0.333333 16:0.333333 17:-0.333333 18:0.333333 19:0.333333 20:-0.333333 21:0.333333 22:0.333333 23:1 24:-0.333333 25:0.333333 26:0.333333 27:0.333333 28:-0.333333 29:0.333333 30:0.333333 31:0.333333 32:-0.333333 33:0.333333 34:0.333333 35:0.333333 36:-0.333333 37:0.333333 38:0.333333 39:-0.333333 40:0.333333 41:-0.333333 42:0.333333 43:1 44:0.333333 45:0.333333 46:0.333333 47:-0.333333 48:0.333333 49:0.333333 50:0.333333 51:-0.333333 52:0.333333 53:0.333333 54:-0.333333 55:0.333333 56:1 57:0.333333 58:1 59:0.333333 60:0.333333 
5.399998179137654 1:-0.333333 2:-1 3:1 4:-0.333333 5:-1 6:0.333333 7:0.333333 8:-1 9:1 10:1 11:0.333333 12:-1 13:-0.333333 14:-1 15:-1 16:-1 17:1 18:-1 19:-1 20:-1 21:-0.333333 22:0.333333 23:-1 24:-1 25:-1 26:-1 27:-1 28:-0.333333 29:0.333333 30:-1 31:-0.333333 32:-0.333333 33:0.333333 34:0.333333 35:-1 36:0.333333 37:-1 38:1 39:-1 40:0.333333 41:0.333333 42:1 43:1 44:-1 45:-1 46:0.333333 47:0.333333 48:-1 49:-1 50:0.333333 51:-1 52:0.333333 53:0.333333 54:-1 55:-1 56:-1 57:-0.333333 58:-1 59:-1 60:-1 
16.58191583503224 1:1 2:-1 3:0.333333 4:1 5:-0.333333 6:1 7:-1 8:1 9:0.333333 10:-1 11:-1 12:-0.333333 13:1 14:0.333333 15:-1 16:1 17:-0.333333 18:-0.333333 19:0.333333 20:-1 21:-0.333333 22:-0.333333 23:1 24:-1 25:0.333333 26:-1 27:-0.333333 28:1 29:-1 30:-0.333333 31:-0.333333 32:-1 33:1 34:-1 35:-1 36:-0.333333 37:0.333333 38:0.333333 39:-1 40:0.333333 41:1 42:0.333333 43:1 44:-0.333333 45:1 46:0.333333 47:0.333333 48:0.333333 49:1 50:1 51:0.333333 52:0.333333 53:1 54:-0.333333 55:-0.333333 56:-0.333333 57:0.333333 58:-1 59:-1 60:-1 
50.66924342401272 1:-1 2:-1 3:-1 4:0.333333 5:1 6:-0.333333 7:-0.333333 8:-0.333333 9:-0.333333 10:0.333333 11:0.333333 12:1 13:-0.333333 14:-1 15:-0.333333 16:-1 17:0.333333 18:-0.333333 19:0.333333 20:0.333333 21:0.333333 22:0.333333 23:1 24:-0.333333 25:-0.333333 26:0.333333 27:0.333333 28:-1 29:1 30:-0.333333 31:-0.333333 32:-1 33:0.333333 34:0.333333 35:-0.333333 36:0.333333 37:1 38:1 39:0.333333 40:0.333333 41:0.333333 42:-1 43:1 44:-1 45:0.333333 46:0.333333 47:1 48:-0.333333 49:-0.333333 50:0.333333 51:1 52:0.333333 53:1 54:-0.333333 55:1 56:0.333333 57:0.333333 58:-1 59:-1 60:-0.333333 
50.8843263811476 1:-0.333333 2:-0.333333 3:0.333333 4:-1 5:0.333333 6:0.333333 7:-0.333333 8:-1 9:-0.333333 10:0.333333 11:-1 12:-0.333333 13:1 14:1 15:0.333333 16:-0.333333 17:0.333333 18:-0.333333 19:1 20:0.333333 21:0.333333 22:-1 23:1 24:-0.333333 25:0.333333 26:-0.333333 27:-0.333333 28:-0.333333 29:-1 30:0.333333 31:0.333333 32:1 33:-0.333333 34:1 35:-1 36:0.333333 37:-1 38:1 39:0.333333 40:-1 41:-1 42:-0.333333 43:-1 44:-1 45:0.333333 46:-0.333333 47:-0.333333 48:0.333333 49:0.333333 50:-1 51:-0.333333 52:-0.333333 53:-0.333333 54:0.333333 55:1 56:1 57:0.333333 58:-1 59:1 60:0.333333 
16.73427436985635 1:-0.333333 2:1 3:-1 4:1 5:0.333333 6:0.333333 7:1 8:0.333333 9:0.333333 10:0.333333 11:0.333333 12:-1 13:1 14:1 15:0.333333 16:1 17:-1 18:-1 19:0.333333 20:0.333333 21:-1 22:0.333333 23:-1 24:1 25:-0.333333 26:-1 27:1 28:0.333333 29:0.333333 30:0.333333 31:0.333333 32:-1 33:-1 34:-0.333333 35:-0.333333 36:-1 37:1 38:0.333333 39:1 40:0.333333 41:0.333333 42:1 43:1 44:-1 45:1 46:0.333333 47:1 48:-1 49:1 50:0.333333 51:0.333333 52:0.333333 53:0.333333 54:-0.333333 55:-0.333333 56:-0.333333 57:-1 58:1 59:0.333333 60:0.333333 
11.16785219737754 1:-0.333333 2:1 3:0.333333 4:-1 5:-1 6:0.333333 7:-1 8:-1 9:-0.333333 10:1 11:-1 12:0.333333 13:0.333333 14:-0.333333 15:1 16:-1 17:-1 18:-0.333333 19:-0.333333 20:-0.333333 21:-1 22:-1 23:-1 24:-0.333333 25:1 26:1 27:-0.333333 28:-1 29:-1 30:-1 31:-1 32:-0.333333 33:-1 34:-1 35:0.333333 36:1 37:1 38:1 39:-0.333333 40:-1 41:-1 42:-0.333333 43:-1 44:-0.333333 45:-1 46:-0.333333 47:-1 48:-0.333333 49:1 50:1 51:0.333333 52:-1 53:-1 54:-0.333333 55:-1 56:-0.333333 57:-0.333333 58:-0.333333 59:0.333333 60:-0.333333 
29.92332142464011 1:-0.333333 2:-0.333333 3:-1 4:-1 5:0.333333 6:0.333333 7:0.333333 8:0.333333 9:-1 10:0.333333 11:-1 12:-0.333333 13:1 14:-0.333333 15:-0.333333 16:-1 17:-0.333333 18:-0.333333 19:1 20:-0.333333 21:-0.333333 22:-1 23:1 24:0.333333 25:1 26:0.333333 27:1 28:-1 29:1 30:-1 31:0.333333 32:1 33:-0.333333 34:0.333333 35:0.333333 36:-1 37:-1 38:-1 39:-0.333333 40:-0.333333 41:1 42:0.333333 43:1 44:1 45:1 46:1 47:0.333333 48:0.333333 49:-0.333333 50:-0.333333 51:-0.333333 52:0.333333 53:1 54:-0.333333 55:0.333333 56:-1 57:-0.333333 58:1 59:-0.333333 60:0.333333 
45.14252449508786 1:-1 2:-0.333333 3:1 4:-0.333333 5:-0.333333 6:-1 7:-0.333333 8:1 9:0.333333 10:-0.333333 11:-0.333333 12:-0.333333 13:-0.333333 14:-0.333333 15:0.333333 16:1 17:1 18:1 19:-0.333333 20:1 21:-0.333333 22:0.333333 23:1 24:-0.333333 25:-0.333333 26:-0.333333 27:0.333333 28:0.333333 29:1 30:-0.333333 31:0.333333 32:1 33:0.333333 34:1 35:1 36:0.333333 37:0.333333 38:1 39:1 40:-0.333333 41:-0.333333 42:-0.333333 43:-0.333333 44:0.333333 45:0.333333 46:-0.333333 47:-0.333333 48:-0.333333 49:1 50:1 51:-0.333333 52:1 53:1 54:0.333333 55:-1 56:1 57:0.333333 58:1 59:-1 60:0.333333 
31.52487504021664 1:0.333333 2:-1 3:-0.333333 4:-1 5:-0.333333 6:0.333333 7:1 8:-0.333333 9:0.333333 10:-0.333333 11:-1 12:-0.333333 13:-0.333333 14:-1 15:-0.333333 16:-1 17:-0.333333 18:-0.333333 19:-1 20:-1 21:1 22:0.333333 23:1 24:0.333333 25:0.333333 26:-0.333333 27:-0.333333 28:-0.333333 29:-1 30:-0.333333 31:-1 32:-1 33:0.333333 34:-0.333333 35:-0.333333 36:-0.333333 37:1 38:-1 39:1 40:-0.333333 41:-1 42:-0.333333 43:1 44:-0.333333 45:1 46:-0.333333 47:-1 48:-0.333333 49:1 50:-0.333333 51:-0.333333 52:0.333333 53:-0.333333 54:0.333333 55:1 56:-1 57:1 58:-1 59:-1 60:0.333333 
46.931999377549 1:-0.333333 2:0.333333 3:-0.333333 4:1 5:0.333333 6:0.333333 7:-0.333333 8:-1 9:0.333333 10:1 11:-0.333333 12:0.333333 13:-0.333333 14:-0.333333 15:-0.333333 16:-0.333333 17:0.333333 18:-1 19:-0.333333 20:1 21:-0.333333 22:-1 23:-1 24:-0.333333 25:0.333333 26:-1 27:0.333333 28:1 29:-0.333333 30:0.333333 31:0.333333 32:1 33:-0.333333 34:0.333333 35:-1 36:-0.333333 37:-1 38:0.333333 39:0.333333 40:-0.333333 41:1 42:1 43:1 44:-0.333333 45:-0.333333 46:-1 47:-1 48:0.333333 49:-1 50:-1 51:-0.333333 52:0.333333 53:0.333333 54:-1 55:-1 56:0.333333 57:-1 58:-0.333333 59:1 60:-0.333333 
48.28021705569158 1:0.333333 2:1 3:0.333333 4:1 5:0.333333 6:0.333333 7:0.333333 8:1 9:0.333333 10:0.333333 11:0.333333 12:1 13:-0.333333 14:-1 15:-0.333333 16:0.333333 17:1 18:-0.333333 19:-0.333333 20:-1 21:-0.333333 22:0.333333 23:-1 24:-1 25:0.333333 26:-1 27:-0.333333 28:0.333333 29:-1 30:-0.333333 31:-0.333333 32:-1 33:-1 34:0.333333 35:-1 36:-0.333333 37:0.333333 38:-1 39:1 40:0.333333 41:-1 42:-0.333333 43:-0.333333 44:-1 45:-0.333333 46:0.333333 47:-1 48:-0.333333 49:0.333333 50:-1 51:-0.333333 52:0.333333 53:-1 54:-0.333333 55:-0.333333 56:-1 57:-0.333333 58:0.333333 59:-1 60:-0.333333 
27.58483472559407 1:-0.333333 2:-0.333333 3:-1 4:-1 5:1 6:-0.333333 7:-0.333333 8:1 9:-0.333333 10:-1 11:0.333333 12:1 13:-0.333333 14:-0.333333 15:-1 16:0.333333 17:1 18:1 19:1 20:0.333333 21:0.333333 22:-1 23:-0.333333 24:-1 25:1 26:0.333333 27:0.333333 28:1 29:-0.333333 30:-0.333333 31:1 32:-0.333333 33:-1 34:1 35:-0.333333 36:0.333333 37:1 38:-0.333333 39:-0.333333 40:-1 41:-1 42:-1 43:1 44:-0.333333 45:-1 46:0.333333 47:1 48:0.333333 49:0.333333 50:0.333333 51:0.333333 52:-1 53:-0.333333 54:0.333333 55:-0.333333 56:1 57:-0.333333 58:-0.333333 59:-1 60:-0.333333 
279.508497187 1:-0.333333 2:-0.333333 3:0.333333 4:0.333333 5:1 6:0.333333 7:-0.333333 8:-0.333333 9:0.333333 10:-0.333333 11:0.333333 12:0.333333 13:1 14:0.333333 15:-0.333333 16:0.333333 17:-0.333333 18:-0.333333 19:0.333333 20:0.333333 21:-0.333333 22:0.333333 23:-0.333333 24:0.333333 25:-0.333333 26:1 27:-0.333333 28:-0.333333 29:0.333333 30:0.333333 31:-0.333333 32:1 33:-0.333333 34:0.333333 35:-0.333333 36:0.333333 37:1 38:0.333333 39:1 40:-0.333333 41:0.333333 42:0.333333 43:1 44:-1 45:1 46:-0.333333 47:-0.333333 48:-0.333333 49:-0.333333 50:-0.333333 51:0.333333 52:0.333333 53:0.333333 54:-0.333333 55:-0.333333 56:1 57:-0.333333 58:-0.333333 59:-0.333333 60:0.333333 
3.552742804390253 1:-1 2:1 3:-0.333333 4:-0.333333 5:0.333333 6:1 7:0.333333 8:1 9:1 10:-1 11:-1 12:1 13:1 14:-1 15:1 16:1 17:-1 18:1 19:0.333333 20:1 21:1 22:1 23:-0.333333 24:-0.333333 25:-1 26:-1 27:1 28:-1 29:1 30:1 31:1 32:-0.333333 33:-0.333333 34:-0.333333 35:0.333333 36:1 37:-1 38:-1 39:0.333333 40:-1 41:-0.333333 42:1 43:-0.333333 44:-1 45:1 46:-0.333333 47:0.333333 48:1 49:-1 50:1 51:1 52:1 53:-0.333333 54:1 55:-1 56:1 57:1 58:0.333333 59:1 60:1 
51.78563977095222 1:1 2:-0.333333 3:0.333333 4:-0.333333 5:0.333333 6:-0.333333 7:-0.333333 8:0.333333 9:1 10:-1 11:0.333333 12:1 13:-1 14:0.333333 15:-1 16:-1 17:0.333333 18:0.333333 19:-1 20:-0.333333 21:-1 22:-0.333333 23:0.333333 24:-0.333333 25:-1 26:-0.333333 27:-0.333333 28:0.333333 29:0.333333 30:-0.333333 31:-0.333333 32:-0.333333 33:1 34:0.333333 35:1 36:0.333333 37:-1 38:0.333333 39:-1 40:0.333333 41:0.333333 42:0.333333 43:1 44:0.333333 45:0.333333 46:-1 47:-0.333333 48:-1 49:-0.333333 50:-0.333333 51:-1 52:1 53:-0.333333 54:1 55:-1 56:1 57:-0.333333 58:-0.333333 59:0.333333 60:1 
13.76457688180433 1:-1 2:-1 3:-0.333333 4:-1 5:1 6:0.333333 7:-1 8:0.333333 9:1 10:-0.333333 11:1 12:-1 13:-0.333333 14:1 15:-0.333333 16:-0.333333 17:-0.333333 18:1 19:-0.333333 20:1 21:1 22:-0.333333 23:-0.333333 24:-1 25:0.333333 26:-1 27:-1 28:-0.333333 29:1 30:1 31:-0.333333 32:-0.333333 33:1 34:-1 35:1 36:-0.333333 37:-0.333333 38:0.333333 39:-0.333333 40:1 41:-0.333333 42:1 43:-0.333333 44:0.333333 45:1 46:-1 47:1 48:0.333333 49:-1 50:-0.333333 51:0.333333 52:-1 53:1 54:1 55:0.333333 56:1 57:-0.333333 58:-0.333333 59:-0.333333 60:-1 
141.5228632520531 1:-0.333333 2:-1 3:1 4:-0.333333 5:-0.333333 6:0.333333 7:0.333333 8:-0.333333 9:0.333333 10:-1 11:-0.333333 12:-0.333333 13:-0.333333 14:-0.333333 15:0.333333 16:-1 17:-0.333333 18:-0.333333 19:-0.333333 20:0.333333 21:1 22:0.333333 23:-1 24:-0.333333 25:-0.333333 26:0.333333 27:1 28:-0.333333 29:1 30:-0.333333 31:-0.333333 32:-0.333333 33:0.333333 34:-0.333333 35:0.333333 36:0.333333 37:1 38:-0.333333 39:-1 40:-0.333333 41:-0.333333 42:0.333333 43:1 44:1 45:0.333333 46:-1 47:-0.333333 48:0.333333 49:1 50:-0.333333 51:-0.333333 52:-0.333333 53:-0.333333 54:0.333333 55:-1 56:-0.333333 57:-0.333333 58:0.333333 59:1 60:1 
27.11175112392764 1:-1 2:-1 3:-0.333333 4:1 5:1 6:0.333333 7:0.333333 8:1 9:-0.333333 10:-0.333333 11:0.333333 12:1 13:1 14:0.333333 15:1 16:-0.333333 17:1 18:-0.333333 19:-1 20:-0.333333 21:0.333333 22:-1 23:0.333333 24:0.333333 25:-0.333333 26:1 27:-0.333333 28:0.333333 29:1 30:-0.333333 31:-1 32:0.333333 33:0.333333 34:1 35:0.333333 36:0.333333 37:-1 38:-1 39:-1 40:1 41:-1 42:0.333333 43:0.333333 44:-0.333333 45:1 46:1 47:-1 48:-1 49:-0.333333 50:0.333333 51:1 52:-0.333333 53:-0.333333 54:-1 55:-0.333333 56:0.333333 57:0.333333 58:1 59:0.333333 60:-0.333333 
19.56230343851463 1:1 2:-1 3:1 4:-1 5:-1 6:1 7:0.333333 8:0.333333 9:0.333333 10:-1 11:-0.333333 12:0.333333 13:1 14:-1 15:0.333333 16:1 17:1 18:-0.333333 19:-1 20:-0.333333 21:-1 22:-0.333333 23:-0.333333 24:0.333333 25:1 26:-0.333333 27:-1 28:-0.333333 29:-0.333333 30:0.333333 31:-1 32:-0.333333 33:-0.333333 34:-1 35:-0.333333 36:-1 37:-1 38:1 39:0.333333 40:-1 41:0.333333 42:1 43:1 44:-0.333333 45:-1 46:-1 47:0.333333 48:0.333333 49:-1 50:-0.333333 51:-0.333333 52:-0.333333 53:-1 54:-0.333333 55:-0.333333 56:1 57:-0.333333 58:-1 59:-1 60:-0.333333 
279.508497187 1:-1 2:1 3:1 4:0.333333 5:0.333333 6:-1 7:-1 8:-1 9:-1 10:-1 11:1 12:-0.333333 13:0.333333 14:1 15:1 16:1 17:0.333333 18:1 19:1 20:1 21:0.333333 22:0.333333 23:0.333333 24:0.333333 25:0.333333 26:1 27:-0.333333 28:0.333333 29:-1 30:-0.333333 31:-0.333333 32:1 33:-0.333333 34:-1 35:-0.333333 36:-1 37:-1 38:-0.333333 39:-1 40:1 41:-0.333333 42:-1 43:0.333333 44:-1 45:-0.333333 46:-1 47:-0.333333 48:-0.333333 49:-1 50:-1 51:-0.333333 52:-1 53:-1 54:-0.333333 55:1 56:-1 57:-0.333333 58:-1 59:-0.333333 60:-1 
28.9931679405633 1:-0.333333 2:-0.333333 3:1 4:0.333333 5:-1 6:0.333333 7:-1 8:-1 9:0.333333 10:1 11:0.333333 12:1 13:0.333333 14:0.333333 15:0.333333 16:0.333333 17:-1 18:-0.333333 19:-1 20:-0.333333 21:-1 22:-1 23:-0.333333 24:-0.333333 25:1 26:-0.333333 27:-0.333333 28:1 29:-0.333333 30:1 31:-0.333333 32:-1 33:-0.333333 34:-0.333333 35:0.333333 36:0.333333 37:-1 38:1 39:0.333333 40:-1 41:0.333333 42:-0.333333 43:-0.333333 44:-1 45:-1 46:-0.333333 47:-1 48:1 49:-0.333333 50:0.333333 51:1 52:-0.333333 53:0.333333 54:1 55:-0.333333 56:0.333333 57:1 58:1 59:0.333333 60:1 
5.399222774726104 1:-0.333333 2:-1 3:-1 4:-1 5:-1 6:-1 7:-0.333333 8:-0.333333 9:-1 10:-0.333333 11:-0.333333 12:0.333333 13:-1 14:-1 15:1 16:-1 17:1 18:-0.333333 19:-1 20:-1 21:-1 22:0.333333 23:-0.333333 24:-1 25:-0.333333 26:1 27:-1 28:1 29:1 30:1 31:-0.333333 32:-1 33:-0.333333 34:0.333333 35:-0.333333 36:-1 37:1 38:1 39:0.333333 40:1 41:-0.333333 42:1 43:0.333333 44:-0.333333 45:1 46:-0.333333 47:-0.333333 48:-1 49:0.333333 50:1 51:-1 52:-1 53:-1 54:-1 55:-0.333333 56:-1 57:-1 58:-0.333333 59:1 60:-1 
2.978865489534767 1:0.333333 2:1 3:-1 4:-1 5:1 6:1 7:1 8:-1 9:-1 10:-1 11:-1 12:-1 13:1 14:1 15:1 16:1 17:-1 18:-1 19:-1 20:-1 21:1 22:1 23:1 24:-1 25:-1 26:1 27:1 28:0.333333 29:0.333333 30:-1 31:1 32:1 33:-1 34:-0.333333 35:-1 36:-1 37:-1 38:-1 39:0.333333 40:-1 41:-1 42:-1 43:-1 44:0.333333 45:1 46:-0.333333 47:-1 48:0.333333 49:1 50:1 51:1 52:1 53:-1 54:-1 55:-0.333333 56:-1 57:-1 58:0.333333 59:-1 60:-1 
16.52345968366179 1:1 2:-1 3:1 4:0.333333 5:1 6:1 7:-0.333333 8:-0.333333 9:0.333333 10:1 11:1 12:-1 13:1 14:-1 15:-0.333333 16:-1 17:1 18:-0.333333 19:-0.333333 20:0.333333 21:0.333333 22:-0.333333 23:1 24:0.333333 25:1 26:1 27:0.333333 28:1 29:1 30:0.333333 31:0.333333 32:0.333333 33:-0.333333 34:1 35:-0.333333 36:1 37:0.333333 38:1 39:0.333333 40:1 41:-1 42:0.333333 43:-1 44:0.333333 45:-1 46:0.333333 47:0.333333 48:-0.333333 49:1 50:0.333333 51:1 52:1 53:0.333333 54:0.333333 55:1 56:1 57:0.333333 58:1 59:-0.333333 60:1 
36.73500722826667 1:-0.333333 2:-0.333333 3:0.333333 4:1 5:1 6:1 7:-0.333333 8:-1 9:-0.333333 10:-1 11:-1 12:-0.333333 13:-0.333333 14:-0.333333 15:1 16:-0.333333 17:-0.333333 18:-1 19:0.333333 20:-1 21:-0.333333 22:-1 23:-0.333333 24:-0.333333 25:0.333333 26:1 27:0.333333 28:0.333333 29:1 30:-1 31:-0.333333 32:0.333333 33:0.333333 34:0.333333 35:0.333333 36:-1 37:0.333333 38:0.333333 39:-1 40:-0.333333 41:-0.333333 42:-0.333333 43:-1 44:1 45:-0.333333 46:0.333333 47:1 48:1 49:-1 50:-0.333333 51:0.333333 52:0.333333 53:-1 54:-1 55:-0.333333 56:0.333333 57:-1 58:-0.333333 59:1 60:0.333333 
6.170185955424324 1:1 2:-1 3:-0.333333 4:1 5:-1 6:-1 7:-1 8:-1 9:-1 10:0.333333 11:-1 12:0.333333 13:0.333333 14:-1 15:0.333333 16:1 17:1 18:-1 19:0.333333 20:1 21:-1 22:-1 23:-1 24:1 25:-1 26:-0.333333 27:0.333333 28:1 29:-0.333333 30:-1 31:1 32:1 33:1 34:-0.333333 35:0.333333 36:1 37:-1 38:-1 39:-1 40:-0.333333 41:0.333333 42:-1 43:-0.333333 44:-1 45:0.333333 46:0.333333 47:1 48:0.333333 49:-1 50:1 51:1 52:0.333333 53:0.333333 54:-1 55:1 56:1 57:1 58:-1 59:-1 60:-0.333333 
20.78110538668077 1:-1 2:0.333333 3:1 4:1 5:0.333333 6:1 7:-0.333333 8:0.333333 9:1 10:0.333333 11:-1 12:-0.333333 13:-0.333333 14:1 15:-0.333333 16:-0.333333 17:-1 18:-1 19:1 20:1 21:-0.333333 22:-1 23:-1 24:0.333333 25:-1 26:-1 27:-0.333333 28:-1 29:-1 30:-0.333333 31:0.333333 32:-0.333333 33:-0.333333 34:-0.333333 35:-1 36:-0.333333 37:-0.333333 38:0.333333 39:1 40:-0.333333 41:-1 42:-0.333333 43:1 44:1 45:1 46:0.333333 47:-1 48:-0.333333 49:-1 50:-1 51:-1 52:0.333333 53:1 54:-0.333333 55:0.333333 56:-0.333333 57:0.333333 58:-1 59:-0.333333 60:-0.333333 
121.1462865233675 1:-0.333333 2:1 3:0.333333 4:-1 5:-0.333333 6:-0.333333 7:-0.333333 8:1 9:-0.333333 10:1 11:0.333333 12:0.333333 13:0.333333 14:0.333333 15:0.333333 16:-1 17:1 18:-0.333333 19:0.333333 20:0.333333 21:1 22:-0.333333 23:-0.333333 24:-1 25:-1 26:-0.333333 27:-1 28:-0.333333 29:-0.333333 30:-1 31:-0.333333 32:0.333333 33:1 34:-0.333333 35:-0.333333 36:1 37:-0.333333 38:0.333333 39:1 40:-0.333333 41:0.333333 42:0.333333 43:-1 44:-0.333333 45:0.333333 46:0.333333 47:0.333333 48:1 49:-0.333333 50:-0.333333 51:-0.333333 52:0.333333 53:0.333333 54:0.333333 55:-0.333333 56:-0.333333 57:0.333333 58:-1 59:0.333333 60:-1 
7.880540244698719 1:0.333333 2:0.333333 3:-1 4:-1 5:-1 6:1 7:-0.333333 8:-0.333333 9:1 10:-0.333333 11:-1 12:0.333333 13:1 14:-1 15:0.333333 16:1 17:0.333333 18:-1 19:0.333333 20:0.333333 21:1 22:1 23:1 24:-1 25:-1 26:-0.333333 27:-0.333333 28:-1 29:1 30:1 31:-1 32:-1 33:-1 34:0.333333 35:-1 36:0.333333 37:-1 38:-0.333333 39:-1 40:-1 41:0.333333 42:1 43:-0.333333 44:-0.333333 45:-1 46:-0.333333 47:-1 48:1 49:-0.333333 50:-1 51:-1 52:-1 53:1 54:0.333333 55:-1 56:0.333333 57:-0.333333 58:1 59:-1 60:0.333333 
14.54336048194041 1:1 2:-0.333333 3:-1 4:0.333333 5:1 6:1 7:1 8:-0.333333 9:0.333333 10:-1 11:0.333333 12:0.333333 13:1 14:-0.333333 15:0.333333 16:1 17:0.333333 18:1 19:-0.333333 20:1 21:-0.333333 22:-1 23:1 24:1 25:-1 26:1 27:-0.333333 28:-1 29:0.333333 30:1 31:-1 32:1 33:0.333333 34:0.333333 35:0.333333 36:-1 37:0.333333 38:-1 39:-0.333333 40:1 41:0.333333 42:1 43:0.333333 44:0.333333 45:1 46:-0.333333 47:-0.333333 48:1 49:1 50:-0.333333 51:1 52:0.333333 53:1 54:-1 55:0.333333 56:0.333333 57:0.333333 58:-1 59:1 60:-0.333333 
6.275114992916075 1:0.333333 2:-1 3:-1 4:-0.333333 5:-1 6:-1 7:-0.333333 8:0.333333 9:0.333333 10:-1 11:-1 12:-1 13:-0.333333 14:0.333333 15:-1 16:-0.333333 17:1 18:-0.333333 19:-1 20:-1 21:-0.333333 22:-0.333333 23:1 24:1 25:-0.333333 26:0.333333 27:-1 28:-0.333333 29:-1 30:-0.333333 31:-1 32:-1 33:1 34:1 35:1 36:1 37:0.333333 38:1 39:1 40:-1 41:0.333333 42:1 43:-1 44:-1 45:-1 46:-1 47:1 48:-0.333333 49:0.333333 50:0.333333 51:-1 52:-1 53:-0.333333 54:-0.333333 55:-1 56:1 57:1 58:0.333333 59:-1 60:1 
17.68209182954999 1:-0.333333 2:-0.333333 3:0.333333 4:1 5:0.333333 6:1 7:0.333333 8:-1 9:-0.333333 10:0.333333 11:0.333333 12:0.333333 13:1 14:1 15:0.333333 16:1 17:-0.333333 18:1 19:1 20:1 21:1 22:0.333333 23:-1 24:-1 25:-0.333333 26:-0.333333 27:0.333333 28:0.333333 29:-1 30:1 31:0.333333 32:-1 33:1 34:-0.333333 35:-0.333333 36:-1 37:-0.333333 38:-1 39:-1 40:-1 41:0.333333 42:1 43:-0.333333 44:-0.333333 45:-1 46:-0.333333 47:-1 48:1 49:-0.333333 50:1 51:0.333333 52:0.333333 53:-1 54:-1 55:-0.333333 56:1 57:1 58:0.333333 59:0.333333 60:-1 
39.33418814912611 1:1 2:-1 3:1 4:0.333333 5:1 6:-1 7:-0.333333 8:-0.333333 9:-1 10:-0.333333 11:-0.333333 12:-0.333333 13:1 14:0.333333 15:-1 16:0.333333 17:-1 18:-0.333333 19:-1 20:-0.333333 21:-1 22:0.333333 23:-1 24:1 25:-0.333333 26:-1 27:0.333333 28:0.333333 29:0.333333 30:-1 31:-0.333333 32:0.333333 33:-1 34:0.333333 35:0.333333 36:-0.333333 37:-0.333333 38:0.333333 39:0.333333 40:0.333333 41:-1 42:-0.333333 43:1 44:-0.333333 45:-1 46:0.333333 47:0.333333 48:1 49:-0.333333 50:-0.333333 51:1 52:-0.333333 53:0.333333 54:-1 55:-0.333333 56:-0.333333 57:-1 58:0.333333 59:1 60:0.333333 
6.997361831283733 1:-0.333333 2:1 3:-1 4:1 5:-1 6:1 7:-0.333333 8:0.333333 9:-1 10:1 11:1 12:1 13:-0.333333 14:-0.333333 15:-1 16:-1 17:1 18:1 19:-0.333333 20:1 21:1 22:0.333333 23:1 24:-0.333333 25:1 26:-1 27:1 28:-0.333333 29:-1 30:-1 31:1 32:1 33:-0.333333 34:-1 35:1 36:-0.333333 37:-1 38:0.333333 39:1 40:-0.333333 41:-0.333333 42:-1 43:0.333333 44:-1 45:-0.333333 46:1 47:1 48:-1 49:0.333333 50:0.333333 51:1 52:1 53:-1 54:1 55:1 56:0.333333 57:-1 58:-1 59:-1 60:0.333333 
22.48799147133318 1:0.333333 2:1 3:-0.333333 4:1 5:-1 6:0.333333 7:0.333333 8:-1 9:-1 10:0.333333 11:-1 12:-1 13:0.333333 14:-0.333333 15:-1 16:-0.333333 17:-0.333333 18:-1 19:-0.333333 20:0.333333 21:-1 22:0.333333 23:-0.333333 24:-0.333333 25:-0.333333 26:-0.333333 27:-0.333333 28:0.333333 29:0.333333 30:1 31:0.333333 32:1 33:-0.333333 34:-0.333333 35:-1 36:-1 37:-0.333333 38:1 39:0.333333 40:-1 41:1 42:-0.333333 43:-1 44:-0.333333 45:-1 46:-0.333333 47:1 48:-1 49:-0.333333 50:-1 51:-1 52:-1 53:-1 54:-1 55:0.333333 56:0.333333 57:-1 58:-0.333333 59:1 60:0.333333 
8.653804770304191 1:1 2:-0.333333 3:1 4:0.333333 5:-1 6:-1 7:1 8:-0.333333 9:-0.333333 10:-0.333333 11:-1 12:-1 13:1 14:-1 15:1 16:-0.333333 17:-0.333333 18:-1 19:-1 20:-1 21:-1 22:1 23:-0.333333 24:0.333333 25:1 26:-0.333333 27:1 28:-0.333333 29:-0.333333 30:-0.333333 31:-0.333333 32:-1 33:-0.333333 34:-0.333333 35:0.333333 36:1 37:1 38:1 39:-1 40:1 41:-0.333333 42:1 43:-0.333333 44:-0.333333 45:-1 46:-1 47:-0.333333 48:0.333333 49:-1 50:-0.333333 51:0.333333 52:-1 53:1 54:1 55:1 56:-0.333333 57:0.333333 58:1 59:-0.333333 60:-0.333333 
125.5541905984736 1:-0.333333 2:1 3:0.333333 4:1 5:-0.333333 6:-1 7:1 8:0.333333 9:0.333333 10:0.333333 11:0.333333 12:0.333333 13:1 14:-0.333333 15:-1 16:0.333333 17:0.333333 18:0.333333 19:-1 20:-0.333333 21:0.333333 22:-1 23:0.333333 24:0.333333 25:0.333333 26:0.333333 27:0.333333 28:1 29:0.333333 30:0.333333 31:-0.333333 32:0.333333 33:-1 34:-0.333333 35:-0.333333 36:1 37:-0.333333 38:0.333333 39:0.333333 40:-0.333333 41:1 42:-0.333333 43:0.333333 44:0.333333 45:0.333333 46:0.333333 47:1 48:0.333333 49:-1 50:1 51:0.333333 52:0.333333 53:-1 54:-0.333333 55:1 56:0.333333 57:1 58:0.333333 59:-0.333333 60:-0.333333 
3.071881838815997 1:0.333333 2:-1 3:1 4:1 5:-1 6:-1 7:1 8:1 9:1 10:1 11:-0.333333 12:1 13:-0.333333 14:0.333333 15:-1 16:1 17:1 18:0.333333 19:1 20:1 21:1 22:-0.333333 23:-0.333333 24:1 25:-1 26:-1 27:1 28:1 29:1 30:1 31:1 32:1 33:1 34:1 35:-0.333333 36:1 37:1 38:1 39:1 40:1 41:1 42:-0.333333 43:1 44:-1 45:-1 46:0.333333 47:1 48:-1 49:0.333333 50:-1 51:-1 52:-1 53:-0.333333 54:0.333333 55:1 56:1 57:1 58:-0.333333 59:0.333333 60:1 
42.58044088785958 1:-0.333333 2:0.333333 3:-1 4:0.333333 5:0.333333 6:-1 7:-0.333333 8:0.333333 9:1 10:-0.333333 11:1 12:1 13:-0.333333 14:1 15:-0.333333 16:-0.333333 17:-0.333333 18:0.333333 19:1 20:-0.333333 21:-0.333333 22:0.333333 23:0.333333 24:-1 25:1 26:-0.333333 27:1 28:0.333333 29:0.333333 30:0.333333 31:0.333333 32:1 33:1 34:0.333333 35:1 36:0.333333 37:-1 38:0.333333 39:0.333333 40:0.333333 41:1 42:-0.333333 43:1 44:-0.333333 45:1 46:-0.333333 47:-0.333333 48:-0.333333 49:1 50:0.333333 51:1 52:1 53:-0.333333 54:-1 55:0.333333 56:-1 57:0.333333 58:0.333333 59:1 60:1 
10.22095851891804 1:1 2:0.333333 3:-1 4:1 5:0.333333 6:1 7:0.333333 8:1 9:1 10:-1 11:1 12:-1 13:-0.333333 14:-1 15:1 16:1 17:-1 18:-1 19:0.333333 20:1 21:1 22:0.333333 23:0.333333 24:1 25:1 26:0.333333 27:0.333333 28:-1 29:-1 30:-1 31:-1 32:1 33:-0.333333 34:1 35:0.333333 36:-1 37:0.333333 38:0.333333 39:-1 40:1 41:1 42:0.333333 43:0.333333 44:1 45:-0.333333 46:1 47:-1 48:0.333333 49:0.333333 50:1 51:-0.333333 52:-0.333333 53:1 54:1 55:0.333333 56:1 57:0.333333 58:1 59:1 60:-0.333333 
8.999213275843383 1:1 2:-0.333333 3:-0.333333 4:0.333333 5:-1 6:-1 7:-1 8:-1 9:0.333333 10:-1 11:0.333333 12:1 13:-0.333333 14:0.333333 15:1 16:0.333333 17:-1 18:-0.333333 19:-1 20:-0.333333 21:-1 22:0.333333 23:-0.333333 24:-1 25:-0.333333 26:-1 27:-0.333333 28:0.333333 29:0.333333 30:1 31:-0.333333 32:-1 33:-1 34:1 35:-1 36:1 37:0.333333 38:1 39:1 40:1 41:0.333333 42:-1 43:-1 44:-1 45:-1 46:0.333333 47:0.333333 48:1 49:0.333333 50:-1 51:-1 52:1 53:0.333333 54:-0.333333 55:1 56:0.333333 57:-0.333333 58:-1 59:0.333333 60:-1 
6.764811641279712 1:-1 2:1 3:-0.333333 4:-1 5:-0.333333 6:-1 7:-1 8:-0.333333 9:1 10:0.333333 11:-1 12:-1 13:-1 14:-1 15:-1 16:-1 17:1 18:-1 19:-1 20:1 21:-1 22:-1 23:0.333333 24:1 25:-0.333333 26:-0.333333 27:0.333333 28:0.333333 29:1 30:1 31:-1 32:-0.333333 33:1 34:-0.333333 35:-0.333333 36:0.333333 37:-1 38:-0.333333 39:-1 40:-1 41:-0.333333 42:0.333333 43:-1 44:-0.333333 45:0.333333 46:1 47:-0.333333 48:0.333333 49:1 50:-0.333333 51:0.333333 52:-1 53:1 54:-1 55:0.333333 56:-1 57:0.333333 58:1 59:1 60:-1 
8.103535185064921 1:-0.333333 2:0.333333 3:1 4:-1 5:1 6:1 7:-0.333333 8:-0.333333 9:-1 10:-0.333333 11:-0.333333 12:-1 13:1 14:0.333333 15:1 16:1 17:-0.333333 18:-1 19:-1 20:-1 21:-0.333333 22:-0.333333 23:0.333333 24:1 25:-0.333333 26:1 27:1 28:-0.333333 29:1 30:1 31:-1 32:1 33:0.333333 34:0.333333 35:1 36:1 37:0.333333 38:1 39:-0.333333 40:1 41:-0.333333 42:-0.333333 43:-1 44:0.333333 45:-1 46:-1 47:0.333333 48:-1 49:-1 50:0.333333 51:-1 52:-0.333333 53:0.333333 54:-1 55:-1 56:-1 57:-1 58:1 59:-0.333333 60:1 
7.274071791886122 1:-1 2:0.333333 3:0.333333 4:-1 5:-0.333333 6:-0.333333 7:-0.333333 8:-1 9:-1 10:1 11:-0.333333 12:-0.333333 13:0.333333 14:-1 15:-0.333333 16:0.333333 17:-1 18:-0.333333 19:0.333333 20:-1 21:1 22:-0.333333 23:0.333333 24:-1 25:-0.333333 26:-1 27:-1 28:1 29:0.333333 30:1 31:1 32:-1 33:-0.333333 34:0.333333 35:-1 36:0.333333 37:1 38:0.333333 39:1 40:1 41:1 42:-1 43:-0.333333 44:0.333333 45:-1 46:0.333333 47:-1 48:-1 49:1 50:-1 51:1 52:1 53:1 54:1 55:-0.333333 56:1 57:-1 58:1 59:1 60:-1 
21.54529599725057 1:-0.333333 2:-1 3:0.333333 4:-1 5:-1 6:0.333333 7:1 8:1 9:0.333333 10:0.333333 11:0.333333 12:0.333333 13:-1 14:-0.333333 15:-1 16:1 17:-1 18:0.333333 19:0.333333 20:0.333333 21:0.333333 22:-0.333333 23:1 24:-0.333333 25:-0.333333 26:-0.333333 27:0.333333 28:-1 29:-1 30:-0.333333 31:1 32:1 33:0.333333 34:1 35:1 36:0.333333 37:0.333333 38:-1 39:-1 40:1 41:-1 42:1 43:-0.333333 44:-1 45:0.333333 46:-1 47:0.333333 48:0.333333 49:1 50:-0.333333 51:-0.333333 52:-1 53:-1 54:-0.333333 55:0.333333 56:-1 57:-0.333333 58:1 59:0.333333 60:0.333333 
13.1717956589811 1:0.333333 2:1 3:-0.333333 4:-0.333333 5:1 6:-0.333333 7:1 8:1 9:1 10:1 11:1 12:1 13:0.333333 14:0.333333 15:1 16:0.333333 17:-1 18:-1 19:-0.333333 20:0.333333 21:0.333333 22:1 23:1 24:0.333333 25:1 26:-0.333333 27:1 28:1 29:1 30:-1 31:0.333333 32:1 33:1 34:-1 35:1 36:-0.333333 37:-0.333333 38:-0.333333 39:-1 40:-1 41:-0.333333 42:0.333333 43:1 44:-1 45:0.333333 46:1 47:-1 48:1 49:-0.333333 50:-0.333333 51:1 52:-0.333333 53:-0.333333 54:0.333333 55:1 56:-0.333333 57:0.333333 58:1 59:1 60:-1 
9.940962645682413 1:-0.333333 2:1 3:1 4:-0.333333 5:-0.333333 6:-0.333333 7:-0.333333 8:-1 9:-1 10:-1 11:1 12:-0.333333 13:0.333333 14:-1 15:1 16:1 17:-0.333333 18:1 19:0.333333 20:-1 21:-0.333333 22:-1 23:-1 24:-1 25:-1 26:1 27:1 28:-0.333333 29:0.333333 30:0.333333 31:1 32:-0.333333 33:1 34:-0.333333 35:1 36:1 37:0.333333 38:1 39:-1 40:0.333333 41:0.333333 42:1 43:-0.333333 44:1 45:-1 46:0.333333 47:1 48:-0.333333 49:-1 50:1 51:-0.333333 52:-0.333333 53:-1 54:1 55:-0.333333 56:-0.333333 57:0.333333 58:-1 59:1 60:-1 
7.821645628347863 1:1 2:1 3:-0.333333 4:1 5:-0.333333 6:-1 7:-1 8:-1 9:-1 10:-0.333333 11:1 12:1 13:-0.333333 14:1 15:1 16:-1 17:-1 18:-1 19:-1 20:-1 21:0.333333 22:-1 23:-1 24:-0.333333 25:0.333333 26:1 27:-1 28:-1 29:-1 30:1 31:-0.333333 32:1 33:-0.333333 34:-1 35:-1 36:0.333333 37:1 38:1 39:-1 40:-1 41:0.333333 42:0.333333 43:0.333333 44:1 45:0.333333 46:-1 47:0.333333 48:1 49:0.333333 50:1 51:-1 52:-1 53:-0.333333 54:0.333333 55:1 56:1 57:1 58:0.333333 59:0.333333 60:0.333333 
48.92217898954684 1:1 2:0.333333 3:0.333333 4:0.333333 5:-0.333333 6:0.333333 7:0.333333 8:1 9:1 10:0.333333 11:1 12:-0.333333 13:-0.333333 14:-0.333333 15:0.333333 16:-1 17:1 18:0.333333 19:1 20:-0.333333 21:0.333333 22:0.333333 23:1 24:-0.333333 25:-1 26:0.333333 27:-1 28:1 29:0.333333 30:0.333333 31:-1 32:0.333333 33:-0.333333 34:-0.333333 35:1 36:-0.333333 37:0.333333 38:-1 39:-0.333333 40:0.333333 41:1 42:-0.333333 43:-0.333333 44:1 45:-0.333333 46:-1 47:0.333333 48:-1 49:0.333333 50:-1 51:-0.333333 52:0.333333 53:1 54:1 55:-1 56:1 57:-0.333333 58:0.333333 59:0.333333 60:0.333333 
21.54661841932761 1:0.333333 2:1 3:-0.333333 4:0.333333 5:1 6:-1 7:0.333333 8:1 9:1 10:0.333333 11:1 12:-1 13:-0.333333 14:1 15:1 16:1 17:0.333333 18:-1 19:-0.333333 20:0.333333 21:1 22:-0.333333 23:-0.333333 24:0.333333 25:-1 26:1 27:-0.333333 28:0.333333 29:-0.333333 30:-0.333333 31:-1 32:0.333333 33:1 34:-0.333333 35:-1 36:-1 37:-0.333333 38:-1 39:1 40:0.333333 41:1 42:0.333333 43:0.333333 44:0.333333 45:-1 46:-1 47:-1 48:-0.333333 49:-0.333333 50:0.333333 51:1 52:-0.333333 53:1 54:-0.333333 55:-0.333333 56:1 57:-0.333333 58:1 59:1 60:0.333333 
35.99250227244057 1:-1 2:-0.333333 3:-0.333333 4:-0.333333 5:0.333333 6:0.333333 7:-1 8:-1 9:0.333333 10:-0.333333 11:1 12:-0.333333 13:0.333333 14:1 15:-0.333333 16:0.333333 17:-0.333333 18:-0.333333 19:-0.333333 20:0.333333 21:1 22:0.333333 23:1 24:-0.333333 25:0.333333 26:1 27:-0.333333 28:1 29:1 30:-0.333333 31:-1 32:-1 33:-1 34:0.333333 35:-1 36:0.333333 37:-1 38:-0.333333 39:0.333333 40:0.333333 41:-1 42:0.333333 43:0.333333 44:0.333333 45:-1 46:-1 47:-0.333333 48:1 49:-0.333333 50:-1 51:1 52:-0.333333 53:-1 54:-0.333333 55:-1 56:-1 57:-0.333333 58:-0.333333 59:-1 60:0.333333 
52.25641861028031 1:-0.333333 2:-1 3:-0.333333 4:0.333333 5:1 6:0.333333 7:0.333333 8:0.333333 9:-1 10:-0.333333 11:-1 12:-0.333333 13:0.333333 14:-1 15:-0.333333 16:0.333333 17:-1 18:-1 19:-0.333333 20:-1 21:-0.333333 22:-0.333333 23:-0.333333 24:0.333333 25:0.333333 26:-1 27:-0.333333 28:0.333333 29:1 30:-0.333333 31:-1 32:-1 33:-0.333333 34:0.333333 35:-1 36:0.333333 37:0.333333 38:1 39:-0.333333 40:-0.333333 41:-1 42:-0.333333 43:-1 44:-1 45:-0.333333 46:0.333333 47:-1 48:-0.333333 49:-0.333333 50:-1 51:-0.333333 52:-0.333333 53:0.333333 54:-1 55:0.333333 56:-1 57:-0.333333 58:0.333333 59:1 60:-0.333333 
8.694153880611568 1:-1 2:1 3:1 4:0.333333 5:-1 6:-1 7:-1 8:0.333333 9:-1 10:-0.333333 11:0.333333 12:-0.333333 13:0.333333 14:0.333333 15:1 16:0.333333 17:-1 18:-0.333333 19:-1 20:0.333333 21:1 22:-1 23:0.333333 24:1 25:1 26:0.333333 27:-1 28:1 29:1 30:1 31:-0.333333 32:-0.333333 33:1 34:-1 35:0.333333 36:-1 37:-1 38:-1 39:0.333333 40:-1 41:-1 42:-0.333333 43:-1 44:-1 45:1 46:0.333333 47:1 48:-0.333333 49:-0.333333 50:-1 51:-1 52:-1 53:-1 54:-0.333333 55:-0.333333 56:1 57:0.333333 58:0.333333 59:1 60:0.333333 
19.30143510972104 1:-0.333333 2:-0.333333 3:-1 4:-0.333333 5:0.333333 6:-1 7:-0.333333 8:-0.333333 9:-0.333333 10:0.333333 11:-1 12:-0.333333 13:-1 14:-0.333333 15:1 16:-0.333333 17:-1 18:-0.333333 19:0.333333 20:-1 21:-0.333333 22:-0.333333 23:-1 24:-1 25:-0.333333 26:-1 27:-1 28:-1 29:1 30:-0.333333 31:-1 32:1 33:-0.333333 34:0.333333 35:1 36:-0.333333 37:-0.333333 38:-0.333333 39:-0.333333 40:-1 41:-1 42:1 43:1 44:1 45:-0.333333 46:1 47:-0.333333 48:1 49:-0.333333 50:0.333333 51:1 52:0.333333 53:0.333333 54:1 55:1 56:-0.333333 57:-0.333333 58:-0.333333 59:1 60:-0.333333 
9.320447275610771 1:-1 2:-1 3:1 4:-0.333333 5:-1 6:-0.333333 7:-1 8:1 9:1 10:0.333333 11:1 12:0.333333 13:-1 14:1 15:-1 16:1 17:1 18:1 19:1 20:-0.333333 21:-0.333333 22:1 23:0.333333 24:1 25:-1 26:-1 27:-0.333333 28:-0.333333 29:-1 30:1 31:-1 32:1 33:-1 34:-0.333333 35:-0.333333 36:-1 37:1 38:-1 39:0.333333 40:-1 41:-0.333333 42:1 43:1 44:1 45:1 46:-1 47:0.333333 48:-1 49:-0.333333 50:1 51:-0.333333 52:-0.333333 53:-0.333333 54:1 55:-0.333333 56:-0.333333 57:-0.333333 58:1 59:0.333333 60:1 
