svm_type c_svc
kernel_type polynomial
degree 3
gamma 0.0166667
coef0 0
nr_class 2
total_sv 1868
rho -0.34148
label 1 -1
nr_sv 1012 856
SV
7.444510497742542 1:-1 2:-0.333333 3:-0.333333 4:-1 5:-0.333333 6:0.333333 7:-1 8:-1 9:-1 10:1 11:-0.333333 12:-1 13:-1 14:-1 15:0.333333 16:-1 17:-0.333333 18:0.333333 19:0.333333 20:-1 21:-1 22:0.333333 23:1 24:0.333333 25:0.333333 26:-1 27:0.333333 28:1 29:-0.333333 30:0.333333 31:0.333333 32:1 33:0.333333 34:0.333333 35:0.333333 36:0.333333 37:0.333333 38:-1 39:1 40:-0.333333 41:0.333333 42:0.333333 43:-1 44:-0.333333 45:-1 46:-1 47:-0.333333 48:-0.333333 49:1 50:-0.333333 51:0.333333 52:0.333333 53:1 54:-0.333333 55:1 56:0.333333 57:-0.333333 58:-1 59:-0.333333 60:0.333333 
11.36626106707779 1:0.333333 2:0.333333 3:1 4:-0.333333 5:-1 6:0.333333 7:-1 8:-0.333333 9:0.333333 10:-1 11:1 12:0.333333 13:-1 14:0.333333 15:-1 16:1 17:-0.333333 18:-0.333333 19:-1 20:-1 21:-0.333333 22:0.333333 23:0.333333 24:-1 25:1 26:-1 27:1 28:-0.333333 29:-1 30:1 31:-0.333333 32:0.333333 33:-1 34:-0.333333 35:0.333333 36:0.333333 37:-0.333333 38:-1 39:0.333333 40:0.333333 41:1 42:-0.333333 43:-0.333333 44:-1 45:0.333333 46:0.333333 47:0.333333 48:0.333333 49:-1 50:0.333333 51:0.333333 52:-0.333333 53:-1 54:-0.333333 55:-1 56:-1 57:0.333333 58:0.333333 59:0.333333 60:0.333333 
1.340019230136013 1:0.333333 2:0.333333 3:0.333333 4:-1 5:-0.333333 6:-0.333333 7:1 8:1 9:-1 10:0.333333 11:0.333333 12:0.333333 13:-0.333333 14:0.333333 15:-0.333333 16:-0.333333 17:-1 18:-1 19:-1 20:1 21:1 22:1 23:-1 24:1 25:-0.333333 26:0.333333 27:1 28:-0.333333 29:1 30:0.333333 31:0.333333 32:-0.333333 33:-0.333333 34:1 35:0.333333 36:-1 37:0.333333 38:0.333333 39:-0.333333 40:1 41:-0.333333 42:-1 43:0.333333 44:-1 45:-1 46:1 47:-0.333333 48:0.333333 49:-1 50:-0.333333 51:0.333333 52:1 53:-0.333333 54:-1 55:-0.333333 56:-0.333333 57:-1 58:-1 59:0.333333 60:0.333333 
4.616123907186489 1:1 2:1 3:-0.333333 4:1 5:-1 6:-1 7:1 8:0.333333 9:1 10:-0.333333 11:-1 12:-0.333333 13:-1 14:-1 15:-0.333333 16:-1 17:-0.333333 18:-0.333333 19:-1 20:-0.333333 21:-1 22:-1 23:-0.333333 24:1 25:-1 26:1 27:-1 28:-0.333333 29:-0.333333 30:-0.333333 31:-1 32:0.333333 33:0.333333 34:1 35:1 36:1 37:0.333333 38:0.333333 39:1 40:-0.333333 41:-1 42:0.333333 43:-1 44:1 45:-0.333333 46:-1 47:-0.333333 48:-0.333333 49:-0.333333 50:-0.333333 51:-1 52:-0.333333 53:1 54:0.333333 55:0.333333 56:-1 57:-1 58:1 59:0.333333 60:1 
4.613354895097193 1:1 2:-0.333333 3:-1 4:1 5:-0.333333 6:-1 7:-0.333333 8:0.333333 9:1 10:0.333333 11:1 12:-0.333333 13:0.333333 14:-1 15:1 16:0.333333 17:0.333333 18:0.333333 19:-1 20:1 21:1 22:1 23:-0.333333 24:1 25:-0.333333 26:-0.333333 27:1 28:0.333333 29:-1 30:1 31:1 32:0.333333 33:0.333333 34:1 35:-0.333333 36:0.333333 37:1 38:-1 39:0.333333 40:-1 41:-0.333333 42:1 43:0.333333 44:1 45:0.333333 46:0.333333 47:-1 48:-1 49:0.333333 50:-1 51:-1 52:1 53:-0.333333 54:1 55:0.333333 56:0.333333 57:0.333333 58:1 59:-0.333333 60:-0.333333 
8.170401684980556 1:1 2:-1 3:-1 4:1 5:-0.333333 6:0.333333 7:0.333333 8:-1 9:0.333333 10:0.333333 11:1 12:1 13:1 14:-0.333333 15:0.333333 16:-1 17:0.333333 18:1 19:-1 20:0.333333 21:0.333333 22:1 23:0.333333 24:0.333333 25:0.333333 26:1 27:0.333333 28:1 29:-1 30:-0.333333 31:-0.333333 32:-1 33:-0.333333 34:-1 35:-1 36:-0.333333 37:-1 38:0.333333 39:1 40:0.333333 41:1 42:1 43:0.333333 44:0.333333 45:-1 46:0.333333 47:0.333333 48:1 49:0.333333 50:1 51:1 52:1 53:1 54:1 55:-0.333333 56:0.333333 57:0.333333 58:1 59:-0.333333 60:-1 
1.158084361719206 1:-1 2:-0.333333 3:0.333333 4:1 5:0.333333 6:0.333333 7:-1 8:-0.333333 9:-0.333333 10:0.333333 11:1 12:-1 13:1 14:1 15:1 16:1 17:1 18:-0.333333 19:1 20:-0.333333 21:0.333333 22:1 23:1 24:-1 25:-0.333333 26:1 27:1 28:-1 29:0.333333 30:1 31:-0.333333 32:-0.333333 33:1 34:1 35:1 36:1 37:0.333333 38:1 39:0.333333 40:0.333333 41:-1 42:1 43:1 44:-0.333333 45:0.333333 46:-1 47:1 48:1 49:-0.333333 50:1 51:1 52:-1 53:-0.333333 54:-0.333333 55:0.333333 56:-1 57:1 58:-0.333333 59:-0.333333 60:1 
1.087396817281047 1:1 2:-0.333333 3:-0.333333 4:-0.333333 5:1 6:1 7:-0.333333 8:-1 9:1 10:-1 11:1 12:1 13:-0.333333 14:0.333333 15:1 16:0.333333 17:1 18:1 19:-0.333333 20:-1 21:-1 22:1 23:-0.333333 24:1 25:-0.333333 26:-1 27:-0.333333 28:0.333333 29:-0.333333 30:-1 31:1 32:-1 33:1 34:1 35:1 36:-1 37:-0.333333 38:0.333333 39:1 40:0.333333 41:0.333333 42:-0.333333 43:-1 44:-1 45:-0.333333 46:-0.333333 47:-0.333333 48:-1 49:1 50:1 51:1 52:-0.333333 53:-0.333333 54:-1 55:-0.333333 56:-0.333333 57:-0.333333 58:-0.333333 59:1 60:1 
15.90120589605471 1:1 2:0.333333 3:-0.333333 4:-0.333333 5:-0.333333 6:0.333333 7:1 8:1 9:0.333333 10:0.333333 11:-0.333333 12:-0.333333 13:-1 14:-0.333333 15:0.333333 16:1 17:1 18:1 19:-0.333333 20:-0.333333 21:0.333333 22:-0.333333 23:-0.333333 24:0.333333 25:-1 26:-0.333333 27:0.333333 28:1 29:-1 30:-0.333333 31:-0.333333 32:-0.333333 33:-0.333333 34:-1 35:-0.333333 36:-0.333333 37:-1 38:1 39:-0.333333 40:-0.333333 41:0.333333 42:-0.333333 43:-0.333333 44:-1 45:-0.333333 46:1 47:0.333333 48:1 49:1 50:0.333333 51:-0.333333 52:-0.333333 53:-1 54:1 55:-1 56:-1 57:-0.333333 58:0.333333 59:1 60:0.333333 
24.87043452494253 1:0.333333 2:0.333333 3:-1 4:1 5:0.333333 6:-0.333333 7:-1 8:-0.333333 9:-1 10:-1 11:-0.333333 12:0.333333 13:1 14:0.333333 15:-0.333333 16:0.333333 17:-0.333333 18:-0.333333 19:1 20:-0.333333 21:-0.333333 22:-1 23:-1 24:-0.333333 25:0.333333 26:0.333333 27:0.333333 28:1 29:-0.333333 30:1 31:0.333333 32:0.333333 33:-1 34:-0.333333 35:0.333333 36:0.333333 37:1 38:-0.333333 39:-0.333333 40:-1 41:0.333333 42:-0.333333 43:-0.333333 44:0.333333 45:-0.333333 46:-1 47:0.333333 48:0.333333 49:1 50:-0.333333 51:-0.333333 52:0.333333 53:-0.333333 54:-0.333333 55:-0.333333 56:0.333333 57:0.333333 58:-0.333333 59:-1 60:1 
9.849998611966102 1:-1 2:-0.333333 3:0.333333 4:0.333333 5:0.333333 6:0.333333 7:-1 8:0.333333 9:-0.333333 10:-0.333333 11:-0.333333 12:0.333333 13:-0.333333 14:0.333333 15:0.333333 16:-1 17:0.333333 18:-0.333333 19:-0.333333 20:-1 21:-1 22:0.333333 23:0.333333 24:0.333333 25:-0.333333 26:0.333333 27:1 28:0.333333 29:-0.333333 30:-1 31:1 32:0.333333 33:1 34:0.333333 35:-0.333333 36:0.333333 37:0.333333 38:-0.333333 39:0.333333 40:0.333333 41:-1 42:-1 43:0.333333 44:1 45:-0.333333 46:-0.333333 47:1 48:-1 49:-0.333333 50:-1 51:0.333333 52:-1 53:1 54:-0.333333 55:-0.333333 56:-1 57:-0.333333 58:-1 59:0.333333 60:0.333333 
5.127929584545069 1:0.333333 2:-1 3:0.333333 4:1 5:-1 6:-0.333333 7:-1 8:-1 9:-1 10:-0.333333 11:-1 12:1 13:-1 14:-0.333333 15:-0.333333 16:-1 17:0.333333 18:-1 19:0.333333 20:1 21:-0.333333 22:-0.333333 23:-1 24:-0.333333 25:-0.333333 26:-0.333333 27:1 28:-0.333333 29:-0.333333 30:-0.333333 31:-1 32:-1 33:-0.333333 34:0.333333 35:0.333333 36:0.333333 37:1 38:-1 39:-0.333333 40:0.333333 41:-1 42:-0.333333 43:1 44:1 45:1 46:0.333333 47:1 48:1 49:0.333333 50:0.333333 51:-1 52:-0.333333 53:-0.333333 54:-0.333333 55:1 56:-0.333333 57:-0.333333 58:-0.333333 59:0.333333 60:1 
3.175869477111275 1:-1 2:1 3:-1 4:-0.333333 5:-1 6:-0.333333 7:0.333333 8:-1 9:-0.333333 10:-0.333333 11:-1 12:-0.333333 13:-0.333333 14:-0.333333 15:1 16:0.333333 17:0.333333 18:-0.333333 19:-0.333333 20:-1 21:-0.333333 22:1 23:-1 24:1 25:1 26:-0.333333 27:-0.333333 28:-0.333333 29:-1 30:0.333333 31:-0.333333 32:-0.333333 33:-0.333333 34:-0.333333 35:-1 36:-0.333333 37:-1 38:0.333333 39:-1 40:0.333333 41:-0.333333 42:-0.333333 43:-1 44:-1 45:-1 46:-0.333333 47:1 48:-0.333333 49:-1 50:-1 51:-0.333333 52:-0.333333 53:0.333333 54:0.333333 55:0.333333 56:-1 57:0.333333 58:1 59:0.333333 60:-1 
12.17869928557169 1:-0.333333 2:0.333333 3:-1 4:-0.333333 5:-0.333333 6:1 7:-1 8:-0.333333 9:-0.333333 10:1 11:0.333333 12:0.333333 13:-1 14:-1 15:-0.333333 16:0.333333 17:1 18:-0.333333 19:0.333333 20:0.333333 21:0.333333 22:0.333333 23:-0.333333 24:1 25:0.333333 26:0.333333 27:-1 28:-1 29:-1 30:0.333333 31:-1 32:1 33:0.333333 34:0.333333 35:1 36:0.333333 37:1 38:1 39:0.333333 40:0.333333 41:1 42:1 43:-0.333333 44:1 45:0.333333 46:1 47:-0.333333 48:-0.333333 49:-1 50:-0.333333 51:0.333333 52:0.333333 53:1 54:-0.333333 55:-0.333333 56:-1 57:-0.333333 58:-0.333333 59:-1 60:-0.333333 
7.300418032034263 1:-0.333333 2:-1 3:1 4:-0.333333 5:-0.333333 6:1 7:-0.333333 8:-0.333333 9:-0.333333 10:-1 11:0.333333 12:-1 13:1 14:0.333333 15:-1 16:-1 17:-1 18:0.333333 19:1 20:-0.333333 21:0.333333 22:-0.333333 23:0.333333 24:1 25:-0.333333 26:0.333333 27:0.333333 28:1 29:0.333333 30:0.333333 31:-0.333333 32:1 33:-0.333333 34:-1 35:-1 36:-1 37:-0.333333 38:-0.333333 39:0.333333 40:-1 41:-0.333333 42:-1 43:1 44:1 45:0.333333 46:-1 47:0.333333 48:0.333333 49:-1 50:1 51:0.333333 52:1 53:0.333333 54:-1 55:-1 56:-0.333333 57:-1 58:-0.333333 59:-1 60:1 
8.724030789925338 1:-0.333333 2:-1 3:-1 4:-0.333333 5:-0.333333 6:0.333333 7:1 8:1 9:-1 10:1 11:-0.333333 12:1 13:-0.333333 14:-0.333333 15:-1 16:1 17:-0.333333 18:-1 19:1 20:-1 21:0.333333 22:1 23:0.333333 24:0.333333 25:1 26:-0.333333 27:0.333333 28:1 29:-0.333333 30:-1 31:-1 32:0.333333 33:-1 34:-0.333333 35:-1 36:1 37:-0.333333 38:-1 39:-1 40:-1 41:-0.333333 42:0.333333 43:-1 44:-0.333333 45:-1 46:-1 47:0.333333 48:-0.333333 49:1 50:-0.333333 51:-1 52:-0.333333 53:0.333333 54:-1 55:-0.333333 56:-1 57:-0.333333 58:-0.333333 59:-1 60:1 
2.013591380864928 1:0.333333 2:1 3:-1 4:0.333333 5:-1 6:1 7:1 8:0.333333 9:0.333333 10:1 11:1 12:1 13:1 14:0.333333 15:0.333333 16:1 17:-0.333333 18:1 19:-0.333333 20:-1 21:-1 22:-1 23:1 24:-1 25:1 26:-0.333333 27:1 28:-0.333333 29:-1 30:-0.333333 31:1 32:-0.333333 33:-1 34:1 35:-1 36:-1 37:1 38:1 39:-1 40:-1 41:-1 42:0.333333 43:-1 44:0.333333 45:1 46:1 47:1 48:-1 49:-0.333333 50:-1 51:0.333333 52:0.333333 53:1 54:-0.333333 55:-1 56:1 57:1 58:0.333333 59:1 60:-0.333333 
5.055229740064368 1:1 2:1 3:1 4:-1 5:0.333333 6:0.333333 7:-1 8:-0.333333 9:-1 10:-0.333333 11:-0.333333 12:-0.333333 13:-1 14:-0.333333 15:0.333333 16:0.333333 17:-1 18:-0.333333 19:-0.333333 20:-0.333333 21:0.333333 22:1 23:-0.333333 24:0.333333 25:-1 26:-0.333333 27:0.333333 28:1 29:0.333333 30:-1 31:1 32:0.333333 33:1 34:-0.333333 35:1 36:1 37:1 38:-0.333333 39:0.333333 40:-0.333333 41:-0.333333 42:-1 43:1 44:0.333333 45:-1 46:-1 47:-0.333333 48:-1 49:-1 50:0.333333 51:0.333333 52:0.333333 53:-0.333333 54:-1 55:-0.333333 56:0.333333 57:1 58:-0.333333 59:1 60:-0.333333 
13.17513664635317 1:-0.333333 2:0.333333 3:0.333333 4:-0.333333 5:1 6:-0.333333 7:-0.333333 8:1 9:1 10:1 11:1 12:1 13:1 14:1 15:-0.333333 16:0.333333 17:1 18:1 19:0.333333 20:-1 21:0.333333 22:0.333333 23:-1 24:0.333333 25:0.333333 26:0.333333 27:1 28:-0.333333 29:-1 30:-0.333333 31:-0.333333 32:1 33:-0.333333 34:0.333333 35:-0.333333 36:1 37:0.333333 38:0.333333 39:1 40:-0.333333 41:-0.333333 42:-0.333333 43:-0.333333 44:-1 45:0.333333 46:-1 47:-1 48:-0.333333 49:0.333333 50:-1 51:-1 52:-1 53:-1 54:-0.333333 55:-0.333333 56:0.333333 57:1 58:0.333333 59:0.333333 60:1 
5.090736941328758 1:-0.333333 2:0.333333 3:1 4:-0.333333 5:-0.333333 6:0.333333 7:0.333333 8:1 9:-0.333333 10:-0.333333 11:1 12:1 13:0.333333 14:1 15:-1 16:0.333333 17:1 18:1 19:-0.333333 20:1 21:-1 22:-0.333333 23:0.333333 24:1 25:-0.333333 26:1 27:-0.333333 28:-0.333333 29:1 30:0.333333 31:-1 32:0.333333 33:1 34:-0.333333 35:-0.333333 36:-1 37:-0.333333 38:0.333333 39:1 40:-0.333333 41:1 42:-0.333333 43:-0.333333 44:1 45:0.333333 46:-0.333333 47:0.333333 48:1 49:-0.333333 50:0.333333 51:1 52:-0.333333 53:1 54:-1 55:-1 56:1 57:-0.333333 58:1 59:-0.333333 60:-0.333333 
3.471053817474375 1:-0.333333 2:-1 3:-1 4:1 5:-0.333333 6:0.333333 7:0.333333 8:-0.333333 9:0.333333 10:0.333333 11:0.333333 12:1 13:-0.333333 14:-0.333333 15:1 16:1 17:-1 18:1 19:1 20:0.333333 21:0.333333 22:-0.333333 23:-0.333333 24:-1 25:-1 26:-0.333333 27:-1 28:0.333333 29:0.333333 30:-0.333333 31:1 32:1 33:1 34:1 35:0.333333 36:1 37:-1 38:1 39:0.333333 40:-1 41:1 42:0.333333 43:1 44:-0.333333 45:0.333333 46:0.333333 47:1 48:-1 49:-1 50:-1 51:-1 52:-1 53:-1 54:0.333333 55:1 56:0.333333 57:-1 58:-0.333333 59:1 60:0.333333 
7.367793868616672 1:-1 2:-0.333333 3:-1 4:-0.333333 5:1 6:-0.333333 7:-1 8:-1 9:-1 10:0.333333 11:0.333333 12:1 13:0.333333 14:0.333333 15:1 16:1 17:0.333333 18:0.333333 19:-1 20:0.333333 21:0.333333 22:1 23:-0.333333 24:-1 25:0.333333 26:-0.333333 27:-0.333333 28:-1 29:-1 30:0.333333 31:0.333333 32:0.333333 33:1 34:0.333333 35:-1 36:-0.333333 37:0.333333 38:0.333333 39:0.333333 40:-1 41:1 42:-1 43:1 44:-0.333333 45:-1 46:-0.333333 47:0.333333 48:-0.333333 49:-1 50:0.333333 51:-0.333333 52:0.333333 53:-0.333333 54:-0.333333 55:0.333333 56:1 57:-0.333333 58:-1 59:-0.333333 60:1 
0.1889970908189075 1:-0.333333 2:0.333333 3:1 4:-1 5:-0.333333 6:1 7:-1 8:1 9:1 10:1 11:1 12:1 13:1 14:1 15:1 16:1 17:1 18:1 19:1 20:1 21:1 22:1 23:-0.333333 24:1 25:-1 26:1 27:1 28:1 29:1 30:1 31:1 32:-1 33:1 34:-1 35:-0.333333 36:-1 37:-0.333333 38:-1 39:0.333333 40:-1 41:-0.333333 42:-0.333333 43:-0.333333 44:1 45:0.333333 46:1 47:1 48:-0.333333 49:0.333333 50:0.333333 51:-1 52:1 53:-0.333333 54:1 55:1 56:-0.333333 57:0.333333 58:0.333333 59:0.333333 60:-1 
7.053569521125453 1:-0.333333 2:-0.333333 3:1 4:1 5:0.333333 6:1 7:0.333333 8:1 9:1 10:-0.333333 11:-0.333333 12:-0.333333 13:0.333333 14:1 15:0.333333 16:1 17:-1 18:-0.333333 19:-0.333333 20:1 21:0.333333 22:0.333333 23:1 24:-0.333333 25:-0.333333 26:-1 27:-0.333333 28:-1 29:-1 30:1 31:-0.333333 32:1 33:1 34:-0.333333 35:1 36:-0.333333 37:-1 38:-0.333333 39:-0.333333 40:-0.333333 41:-0.333333 42:1 43:1 44:1 45:-1 46:1 47:1 48:1 49:1 50:1 51:1 52:1 53:1 54:1 55:-1 56:-1 57:1 58:-1 59:-0.333333 60:1 
0.7574734698130881 1:-1 2:0.333333 3:-1 4:0.333333 5:-1 6:1 7:1 8:0.333333 9:1 10:-1 11:-1 12:-1 13:1 14:-1 15:1 16:-0.333333 17:1 18:-0.333333 19:-0.333333 20:0.333333 21:0.333333 22:1 23:-1 24:-0.333333 25:-1 26:-1 27:-0.333333 28:-1 29:1 30:1 31:1 32:1 33:-0.333333 34:-0.333333 35:1 36:0.333333 37:1 38:-1 39:0.333333 40:1 41:1 42:1 43:1 44:0.333333 45:1 46:-0.333333 47:1 48:-0.333333 49:-1 50:-1 51:0.333333 52:-1 53:-1 54:-1 55:-1 56:1 57:1 58:1 59:-1 60:-1 
3.402237573946941 1:-0.333333 2:0.333333 3:-1 4:0.333333 5:0.333333 6:1 7:1 8:1 9:-1 10:-1 11:-0.333333 12:-1 13:-1 14:-1 15:-0.333333 16:-1 17:-1 18:1 19:-0.333333 20:1 21:-0.333333 22:1 23:-0.333333 24:-0.333333 25:-1 26:-0.333333 27:1 28:-0.333333 29:1 30:-1 31:-1 32:-0.333333 33:-1 34:-1 35:-0.333333 36:1 37:1 38:1 39:-0.333333 40:-1 41:0.333333 42:0.333333 43:-0.333333 44:-0.333333 45:-0.333333 46:-1 47:-0.333333 48:0.333333 49:0.333333 50:0.333333 51:1 52:-1 53:0.333333 54:-1 55:1 56:-0.333333 57:-1 58:0.333333 59:0.333333 60:-0.333333 
3.168329369491203 1:1 2:-1 3:0.333333 4:0.333333 5:1 6:-1 7:0.333333 8:-1 9:-0.333333 10:0.333333 11:-1 12:-1 13:0.333333 14:-1 15:-1 16:0.333333 17:-1 18:-1 19:0.333333 20:1 21:-1 22:-0.333333 23:0.333333 24:-1 25:-1 26:0.333333 27:-1 28:-1 29:-0.333333 30:1 31:-1 32:-1 33:0.333333 34:-1 35:-1 36:0.333333 37:1 38:-0.333333 39:-0.333333 40:0.333333 41:1 42:-1 43:0.333333 44:-0.333333 45:-1 46:1 47:0.333333 48:0.333333 49:1 50:-1 51:-1 52:0.333333 53:-1 54:-1 55:0.333333 56:1 57:-1 58:-1 59:1 60:-0.333333 
7.025194289645739 1:0.333333 2:-1 3:1 4:0.333333 5:-0.333333 6:-1 7:0.333333 8:0.333333 9:-1 10:1 11:0.333333 12:1 13:0.333333 14:0.333333 15:-1 16:-0.333333 17:0.333333 18:0.333333 19:-1 20:1 21:0.333333 22:1 23:-0.333333 24:-0.333333 25:0.333333 26:1 27:-1 28:0.333333 29:0.333333 30:-1 31:-1 32:-0.333333 33:0.333333 34:-1 35:1 36:0.333333 37:1 38:0.333333 39:-1 40:-1 41:-0.333333 42:-0.333333 43:-1 44:-1 45:-0.333333 46:-0.333333 47:-1 48:-0.333333 49:-0.333333 50:0.333333 51:0.333333 52:1 53:0.333333 54:0.333333 55:1 56:-0.333333 57:-1 58:0.333333 59:0.333333 60:1 
5.318824657220709 1:0.333333 2:-1 3:1 4:-0.333333 5:-0.333333 6:0.333333 7:1 8:-0.333333 9:-1 10:-1 11:-0.333333 12:-0.333333 13:-0.333333 14:-0.333333 15:-1 16:-1 17:-1 18:1 19:0.333333 20:-1 21:0.333333 22:0.333333 23:-1 24:0.333333 25:0.333333 26:1 27:1 28:0.333333 29:-1 30:0.333333 31:-1 32:-0.333333 33:0.333333 34:0.333333 35:0.333333 36:1 37:-0.333333 38:-1 39:0.333333 40:0.333333 41:-0.333333 42:-1 43:-0.333333 44:-1 45:-1 46:-0.333333 47:1 48:1 49:1 50:-1 51:-1 52:1 53:0.333333 54:1 55:-0.333333 56:0.333333 57:0.333333 58:1 59:0.333333 60:0.333333 
2.355707691543751 1:-0.333333 2:-0.333333 3:0.333333 4:-1 5:0.333333 6:-1 7:0.333333 8:-1 9:0.333333 10:-1 11:1 12:-0.333333 13:-0.333333 14:-1 15:1 16:-1 17:1 18:-0.333333 19:1 20:-0.333333 21:0.333333 22:-1 23:0.333333 24:-1 25:0.333333 26:-1 27:1 28:-0.333333 29:-0.333333 30:-1 31:0.333333 32:-1 33:0.333333 34:-1 35:1 36:-1 37:0.333333 38:-1 39:1 40:-0.333333 41:1 42:-0.333333 43:0.333333 44:-1 45:-0.333333 46:-0.333333 47:-1 48:0.333333 49:-1 50:1 51:-0.333333 52:0.333333 53:-1 54:0.333333 55:-1 56:0.333333 57:-1 58:0.333333 59:-1 60:0.333333 
5.893830134382178 1:1 2:1 3:0.333333 4:0.333333 5:1 6:0.333333 7:0.333333 8:-0.333333 9:-1 10:-0.333333 11:-0.333333 12:0.333333 13:0.333333 14:-1 15:-0.333333 16:1 17:-1 18:0.333333 19:0.333333 20:1 21:1 22:1 23:0.333333 24:0.333333 25:-1 26:1 27:1 28:1 29:-1 30:1 31:1 32:0.333333 33:1 34:1 35:1 36:-0.333333 37:-1 38:1 39:0.333333 40:1 41:1 42:0.333333 43:-1 44:-0.333333 45:-0.333333 46:-0.333333 47:-1 48:-1 49:0.333333 50:1 51:-0.333333 52:0.333333 53:-1 54:1 55:-1 56:-0.333333 57:-1 58:1 59:1 60:-0.333333 
24.80137365616203 1:0.333333 2:1 3:1 4:0.333333 5:-0.333333 6:0.333333 7:-0.333333 8:-0.333333 9:-1 10:-0.333333 11:-0.333333 12:0.333333 13:-0.333333 14:1 15:-0.333333 16:-0.333333 17:-1 18:-1 19:-0.333333 20:-0.333333 21:0.333333 22:-0.333333 23:0.333333 24:-1 25:-0.333333 26:1 27:1 28:0.333333 29:0.333333 30:0.333333 31:-0.333333 32:-0.333333 33:-1 34:0.333333 35:1 36:0.333333 37:-1 38:-0.333333 39:-1 40:-0.333333 41:0.333333 42:0.333333 43:0.333333 44:0.333333 45:0.333333 46:-0.333333 47:0.333333 48:-0.333333 49:0.333333 50:-1 51:1 52:-0.333333 53:-0.333333 54:-1 55:-0.333333 56:0.333333 57:1 58:-0.333333 59:0.333333 60:-0.333333 
1.103828713117787 1:-0.333333 2:-0.333333 3:0.333333 4:1 5:0.333333 6:-1 7:0.333333 8:-0.333333 9:1 10:1 11:-0.333333 12:0.333333 13:-1 14:1 15:1 16:0.333333 17:0.333333 18:1 19:-0.333333 20:1 21:1 22:-0.333333 23:-0.333333 24:-1 25:0.333333 26:-1 27:-0.333333 28:1 29:-0.333333 30:0.333333 31:1 32:-0.333333 33:1 34:0.333333 35:0.333333 36:1 37:-0.333333 38:-0.333333 39:-1 40:-0.333333 41:-1 42:-0.333333 43:1 44:1 45:-0.333333 46:1 47:1 48:0.333333 49:1 50:1 51:-1 52:1 53:-1 54:0.333333 55:-1 56:1 57:0.333333 58:-1 59:0.333333 60:-1 
3.659582519961637 1:-1 2:1 3:-0.333333 4:0.333333 5:0.333333 6:0.333333 7:0.333333 8:0.333333 9:-1 10:1 11:-0.333333 12:-0.333333 13:-1 14:-0.333333 15:-0.333333 16:-1 17:0.333333 18:1 19:-0.333333 20:1 21:-0.333333 22:1 23:-0.333333 24:-1 25:1 26:0.333333 27:1 28:0.333333 29:0.333333 30:-1 31:1 32:0.333333 33:0.333333 34:1 35:-0.333333 36:-0.333333 37:-0.333333 38:-1 39:-1 40:-0.333333 41:-0.333333 42:-0.333333 43:-0.333333 44:-0.333333 45:0.333333 46:1 47:0.333333 48:-1 49:1 50:1 51:0.333333 52:-1 53:0.333333 54:-1 55:-0.333333 56:-1 57:-0.333333 58:-1 59:-0.333333 60:-1 
1.256396256252567 1:-0.333333 2:-1 3:0.333333 4:-1 5:-0.333333 6:-1 7:-0.333333 8:0.333333 9:0.333333 10:-0.333333 11:-1 12:-0.333333 13:-1 14:0.333333 15:1 16:0.333333 17:0.333333 18:-1 19:1 20:0.333333 21:1 22:0.333333 23:-1 24:-1 25:-1 26:-1 27:-1 28:-1 29:1 30:-1 31:0.333333 32:-0.333333 33:-1 34:-1 35:-1 36:-1 37:0.333333 38:-1 39:-1 40:-1 41:-1 42:-1 43:1 44:0.333333 45:-1 46:-0.333333 47:0.333333 48:0.333333 49:-0.333333 50:-0.333333 51:-0.333333 52:1 53:-0.333333 54:-0.333333 55:1 56:-0.333333 57:-0.333333 58:0.333333 59:-0.333333 60:-0.333333 
24.85347490513886 1:0.333333 2:1 3:-1 4:-0.333333 5:-0.333333 6:-1 7:-0.333333 8:-0.333333 9:-0.333333 10:0.333333 11:1 12:0.333333 13:-0.333333 14:0.333333 15:0.333333 16:-0.333333 17:-0.333333 18:-0.333333 19:1 20:-0.333333 21:0.333333 22:-0.333333 23:-0.333333 24:0.333333 25:-0.333333 26:-0.333333 27:-0.333333 28:-0.333333 29:-1 30:-1 31:-0.333333 32:1 33:-0.333333 34:-1 35:0.333333 36:0.333333 37:-0.333333 38:1 39:-0.333333 40:0.333333 41:-0.333333 42:1 43:-0.333333 44:1 45:-1 46:-1 47:-1 48:-0.333333 49:-0.333333 50:-0.333333 51:1 52:-0.333333 53:-1 54:-0.333333 55:-0.333333 56:0.333333 57:-0.333333 58:1 59:-1 60:0.333333 
1.40003601300637 1:-1 2:-1 3:-1 4:1 5:0.333333 6:0.333333 7:-1 8:-1 9:0.333333 10:-1 11:0.333333 12:0.333333 13:1 14:0.333333 15:-1 16:-0.333333 17:0.333333 18:-0.333333 19:-1 20:1 21:-0.333333 22:1 23:-0.333333 24:-0.333333 25:-0.333333 26:0.333333 27:-1 28:0.333333 29:0.333333 30:-1 31:0.333333 32:-1 33:1 34:1 35:0.333333 36:-1 37:-1 38:0.333333 39:0.333333 40:1 41:0.333333 42:-1 43:1 44:1 45:0.333333 46:1 47:-0.333333 48:-1 49:1 50:-0.333333 51:0.333333 52:0.333333 53:1 54:-0.333333 55:-1 56:-1 57:-1 58:-1 59:-0.333333 60:0.333333 
3.282707299653988 1:-0.333333 2:0.333333 3:-1 4:-1 5:0.333333 6:1 7:0.333333 8:-1 9:1 10:-0.333333 11:-1 12:-1 13:0.333333 14:1 15:1 16:-0.333333 17:-0.333333 18:0.333333 19:0.333333 20:-1 21:1 22:1 23:0.333333 24:1 25:1 26:1 27:-0.333333 28:-0.333333 29:-0.333333 30:1 31:-1 32:1 33:-0.333333 34:-0.333333 35:-0.333333 36:-1 37:0.333333 38:-1 39:1 40:1 41:0.333333 42:0.333333 43:1 44:0.333333 45:1 46:-0.333333 47:-1 48:1 49:0.333333 50:0.333333 51:1 52:-1 53:-1 54:1 55:-0.333333 56:0.333333 57:-1 58:-0.333333 59:1 60:-0.333333 
15.68812753159006 1:-0.333333 2:0.333333 3:1 4:-0.333333 5:0.333333 6:-1 7:0.333333 8:1 9:-0.333333 10:-0.333333 11:-1 12:1 13:-0.333333 14:-0.333333 15:-0.333333 16:-1 17:0.333333 18:0.333333 19:1 20:1 21:0.333333 22:0.333333 23:-1 24:-0.333333 25:-1 26:-0.333333 27:-0.333333 28:-1 29:-1 30:-0.333333 31:-0.333333 32:1 33:-1 34:-1 35:-0.333333 36:-0.333333 37:0.333333 38:-0.333333 39:1 40:0.333333 41:1 42:-0.333333 43:-1 44:1 45:0.333333 46:0.333333 47:-1 48:-0.333333 49:-0.333333 50:1 51:0.333333 52:1 53:-0.333333 54:-0.333333 55:-1 56:-0.333333 57:0.333333 58:1 59:-0.333333 60:-0.333333 
4.724198827749291 1:-0.333333 2:-0.333333 3:0.333333 4:1 5:-0.333333 6:-0.333333 7:-1 8:0.333333 9:-1 10:-0.333333 11:1 12:-0.333333 13:-1 14:-1 15:-1 16:1 17:-1 18:1 19:1 20:-1 21:1 22:-0.333333 23:-1 24:-1 25:0.333333 26:1 27:1 28:-0.333333 29:-1 30:-1 31:-0.333333 32:-1 33:-1 34:-1 35:-1 36:-0.333333 37:-1 38:1 39:-1 40:-0.333333 41:1 42:0.333333 43:-1 44:-0.333333 45:1 46:0.333333 47:1 48:-0.333333 49:-1 50:1 51:0.333333 52:-1 53:-1 54:-0.333333 55:-1 56:-1 57:0.333333 58:0.333333 59:1 60:-0.333333 
1.101455274886078 1:1 2:-1 3:-0.333333 4:0.333333 5:1 6:0.333333 7:-1 8:-1 9:1 10:-0.333333 11:0.333333 12:0.333333 13:-1 14:-1 15:0.333333 16:-1 17:0.333333 18:1 19:1 20:1 21:1 22:1 23:1 24:1 25:1 26:1 27:0.333333 28:1 29:1 30:1 31:1 32:1 33:0.333333 34:1 35:1 36:1 37:-0.333333 38:0.333333 39:-1 40:1 41:1 42:1 43:-1 44:-1 45:0.333333 46:-1 47:1 48:1 49:-0.333333 50:1 51:0.333333 52:1 53:1 54:-0.333333 55:-0.333333 56:-1 57:-0.333333 58:0.333333 59:1 60:-0.333333 
5.627526033040323 1:0.333333 2:-1 3:-1 4:0.333333 5:0.333333 6:0.333333 7:-1 8:-0.333333 9:0.333333 10:1 11:-1 12:1 13:-0.333333 14:-0.333333 15:1 16:1 17:0.333333 18:1 19:0.333333 20:1 21:0.333333 22:-0.333333 23:0.333333 24:-1 25:-1 26:-0.333333 27:-0.333333 28:-0.333333 29:-1 30:-1 31:-0.333333 32:1 33:0.333333 34:0.333333 35:1 36:1 37:-0.333333 38:0.333333 39:-1 40:-1 41:-0.333333 42:0.333333 43:1 44:-1 45:-1 46:1 47:1 48:0.333333 49:1 50:1 51:1 52:-0.333333 53:-1 54:0.333333 55:0.333333 56:1 57:-0.333333 58:1 59:1 60:-0.333333 
279.508497187 1:1 2:-0.333333 3:-1 4:0.333333 5:0.333333 6:1 7:-0.333333 8:-1 9:1 10:0.333333 11:1 12:1 13:1 14:-0.333333 15:0.333333 16:1 17:0.333333 18:1 19:0.333333 20:0.333333 21:0.333333 22:0.333333 23:0.333333 24:1 25:-0.333333 26:-0.333333 27:0.333333 28:0.333333 29:-1 30:-0.333333 31:1 32:1 33:-0.333333 34:-1 35:-0.333333 36:-0.333333 37:-1 38:-0.333333 39:-0.333333 40:-1 41:-0.333333 42:-1 43:-1 44:0.333333 45:0.333333 46:0.333333 47:-0.333333 48:-0.333333 49:-1 50:0.333333 51:1 52:1 53:0.333333 54:1 55:-0.333333 56:-0.333333 57:-1 58:-1 59:0.333333 60:0.333333 
4.053867587122747 1:0.333333 2:1 3:1 4:0.333333 5:1 6:-1 7:1 8:-1 9:-1 10:1 11:-1 12:1 13:1 14:-1 15:1 16:-0.333333 17:-0.333333 18:-0.333333 19:-0.333333 20:1 21:-0.333333 22:-0.333333 23:-1 24:-1 25:-0.333333 26:-0.333333 27:1 28:-0.333333 29:-0.333333 30:1 31:-0.333333 32:-0.333333 33:1 34:-1 35:1 36:-0.333333 37:-0.333333 38:-1 39:-0.333333 40:0.333333 41:-1 42:-1 43:-0.333333 44:-0.333333 45:-0.333333 46:-0.333333 47:1 48:-1 49:-0.333333 50:-0.333333 51:1 52:-0.333333 53:-0.333333 54:-0.333333 55:-1 56:-1 57:-0.333333 58:-1 59:0.333333 60:-0.333333 
279.508497187 1:-0.333333 2:-1 3:1 4:0.333333 5:0.333333 6:-0.333333 7:0.333333 8:0.333333 9:-0.333333 10:0.333333 11:0.333333 12:0.333333 13:-0.333333 14:1 15:0.333333 16:0.333333 17:-1 18:0.333333 19:-1 20:0.333333 21:0.333333 22:0.333333 23:-0.333333 24:0.333333 25:0.333333 26:-0.333333 27:0.333333 28:0.333333 29:-1 30:-0.333333 31:-0.333333 32:1 33:-1 34:-1 35:-0.333333 36:0.333333 37:0.333333 38:0.333333 39:-0.333333 40:-0.333333 41:0.333333 42:0.333333 43:-1 44:-0.333333 45:0.333333 46:0.333333 47:-0.333333 48:-1 49:0.333333 50:0.333333 51:-0.333333 52:-0.333333 53:-0.333333 54:-0.333333 55:0.333333 56:-1 57:1 58:-0.333333 59:0.333333 60:-0.333333 
7.801021776680079 1:-1 2:0.333333 3:-1 4:0.333333 5:-1 6:-0.333333 7:0.333333 8:-0.333333 9:-1 10:-0.333333 11:-0.333333 12:0.333333 13:0.333333 14:1 15:0.333333 16:-1 17:-1 18:-0.333333 19:-1 20:0.333333 21:-1 22:-0.333333 23:1 24:-0.333333 25:1 26:1 27:1 28:-0.333333 29:-1 30:0.333333 31:-0.333333 32:-1 33:-1 34:-0.333333 35:0.333333 36:-0.333333 37:-1 38:1 39:0.333333 40:0.333333 41:-0.333333 42:-1 43:-0.333333 44:0.333333 45:-1 46:-0.333333 47:1 48:0.333333 49:0.333333 50:1 51:0.333333 52:1 53:-0.333333 54:0.333333 55:0.333333 56:0.333333 57:-0.333333 58:0.333333 59:0.333333 60:1 
6.163959802371038 1:1 2:0.333333 3:-1 4:-1 5:0.333333 6:0.333333 7:-1 8:-0.333333 9:-1 10:-0.333333 11:-0.333333 12:1 13:1 14:0.333333 15:0.333333 16:1 17:-0.333333 18:1 19:-0.333333 20:-0.333333 21:1 22:1 23:0.333333 24:0.333333 25:1 26:-0.333333 27:0.333333 28:-1 29:-0.333333 30:-1 31:-1 32:-1 33:-1 34:0.333333 35:-1 36:-0.333333 37:1 38:0.333333 39:0.333333 40:-1 41:-0.333333 42:-0.333333 43:-1 44:-0.333333 45:0.333333 46:-1 47:0.333333 48:1 49:-1 50:1 51:0.333333 52:-1 53:-0.333333 54:-0.333333 55:-1 56:0.333333 57:1 58:1 59:1 60:-0.333333 
0.9381474414275416 1:-0.333333 2:-1 3:-1 4:1 5:1 6:0.333333 7:-1 8:1 9:-0.333333 10:1 11:0.333333 12:1 13:1 14:-1 15:0.333333 16:-0.333333 17:-0.333333 18:1 19:0.333333 20:-1 21:-1 22:-0.333333 23:-0.333333 24:-0.333333 25:0.333333 26:1 27:-1 28:-0.333333 29:-1 30:-0.333333 31:-1 32:-1 33:-1 34:-0.333333 35:-0.333333 36:-1 37:1 38:1 39:1 40:0.333333 41:1 42:-0.333333 43:0.333333 44:-1 45:1 46:0.333333 47:-1 48:0.333333 49:1 50:1 51:1 52:0.333333 53:1 54:1 55:0.333333 56:0.333333 57:1 58:-0.333333 59:1 60:-1 
279.508497187 1:0.333333 2:1 3:0.333333 4:1 5:-1 6:-1 7:1 8:0.333333 9:-1 10:-0.333333 11:0.333333 12:0.333333 13:0.333333 14:1 15:0.333333 16:1 17:-0.333333 18:-0.333333 19:0.333333 20:0.333333 21:0.333333 22:-1 23:-0.333333 24:-0.333333 25:0.333333 26:-1 27:-0.333333 28:1 29:0.333333 30:-1 31:-0.333333 32:1 33:-1 34:-1 35:-0.333333 36:1 37:-0.333333 38:1 39:0.333333 40:1 41:0.333333 42:0.333333 43:-1 44:-1 45:-1 46:0.333333 47:0.333333 48:1 49:0.333333 50:1 51:1 52:1 53:0.333333 54:0.333333 55:1 56:-1 57:-1 58:1 59:1 60:0.333333 
9.355744118614345 1:-1 2:0.333333 3:0.333333 4:0.333333 5:0.333333 6:0.333333 7:-0.333333 8:-0.333333 9:1 10:0.333333 11:0.333333 12:-1 13:-1 14:-0.333333 15:0.333333 16:0.333333 17:1 18:0.333333 19:0.333333 20:0.333333 21:0.333333 22:1 23:0.333333 24:0.333333 25:-1 26:0.333333 27:0.333333 28:-1 29:0.333333 30:1 31:-0.333333 32:0.333333 33:-0.333333 34:0.333333 35:0.333333 36:0.333333 37:1 38:1 39:0.333333 40:1 41:0.333333 42:0.333333 43:0.333333 44:1 45:-0.333333 46:-1 47:-0.333333 48:-0.333333 49:-1 50:0.333333 51:0.333333 52:1 53:0.333333 54:-1 55:-0.333333 56:0.333333 57:1 58:1 59:1 60:0.333333 
8.707480790250223 1:1 2:0.333333 3:0.333333 4:0.333333 5:0.333333 6:1 7:0.333333 8:0.333333 9:0.333333 10:-1 11:0.333333 12:0.333333 13:0.333333 14:1 15:0.333333 16:-1 17:-0.333333 18:-0.333333 19:-0.333333 20:-1 21:-0.333333 22:0.333333 23:0.333333 24:-1 25:-0.333333 26:-0.333333 27:0.333333 28:1 29:0.333333 30:-0.333333 31:-0.333333 32:0.333333 33:-1 34:1 35:1 36:1 37:0.333333 38:1 39:-0.333333 40:-0.333333 41:0.333333 42:-1 43:-0.333333 44:0.333333 45:-1 46:-1 47:-0.333333 48:-1 49:1 50:-0.333333 51:-1 52:-1 53:0.333333 54:0.333333 55:0.333333 56:0.333333 57:0.333333 58:0.333333 59:0.333333 60:-1 
4.353340983691359 1:-0.333333 2:1 3:-0.333333 4:-0.333333 5:0.333333 6:0.333333 7:-1 8:0.333333 9:-1 10:0.333333 11:-1 12:-0.333333 13:0.333333 14:0.333333 15:1 16:-0.333333 17:-1 18:-0.333333 19:1 20:1 21:-0.333333 22:0.333333 23:-1 24:-1 25:-0.333333 26:1 27:1 28:0.333333 29:0.333333 30:-1 31:-0.333333 32:-0.333333 33:-0.333333 34:0.333333 35:0.333333 36:-1 37:-0.333333 38:1 39:-1 40:-0.333333 41:-1 42:-1 43:-1 44:-1 45:0.333333 46:0.333333 47:1 48:-0.333333 49:0.333333 50:-1 51:-1 52:-0.333333 53:0.333333 54:1 55:-0.333333 56:1 57:-1 58:1 59:0.333333 60:1 
8.772568551535938 1:-0.333333 2:-0.333333 3:0.333333 4:1 5:-0.333333 6:1 7:1 8:1 9:0.333333 10:0.333333 11:1 12:1 13:1 14:-0.333333 15:-0.333333 16:-0.333333 17:0.333333 18:1 19:-1 20:1 21:0.333333 22:0.333333 23:-1 24:1 25:-0.333333 26:1 27:0.333333 28:0.333333 29:-1 30:0.333333 31:0.333333 32:1 33:-1 34:0.333333 35:-1 36:0.333333 37:1 38:-0.333333 39:0.333333 40:0.333333 41:0.333333 42:1 43:1 44:1 45:1 46:1 47:-1 48:-1 49:1 50:0.333333 51:0.333333 52:1 53:1 54:-1 55:0.333333 56:-1 57:-1 58:1 59:1 60:1 
5.821500518448786 1:1 2:-0.333333 3:0.333333 4:1 5:-0.333333 6:1 7:0.333333 8:-1 9:-1 10:1 11:0.333333 12:-1 13:-1 14:0.333333 15:0.333333 16:-1 17:-1 18:-1 19:0.333333 20:1 21:1 22:-1 23:0.333333 24:1 25:-0.333333 26:-1 27:-0.333333 28:-1 29:-1 30:-0.333333 31:-0.333333 32:-0.333333 33:-1 34:-0.333333 35:-0.333333 36:0.333333 37:0.333333 38:0.333333 39:0.333333 40:-0.333333 41:-1 42:1 43:0.333333 44:1 45:-0.333333 46:0.333333 47:1 48:-0.333333 49:1 50:0.333333 51:-1 52:-1 53:1 54:0.333333 55:-1 56:1 57:0.333333 58:-1 59:-1 60:-1 
7.796065962933914 1:-0.333333 2:0.333333 3:1 4:-0.333333 5:-0.333333 6:-0.333333 7:0.333333 8:1 9:0.333333 10:-0.333333 11:-0.333333 12:-0.333333 13:0.333333 14:-1 15:1 16:-0.333333 17:-0.333333 18:0.333333 19:-0.333333 20:-0.333333 21:1 22:0.333333 23:-0.333333 24:-1 25:0.333333 26:1 27:-0.333333 28:0.333333 29:1 30:0.333333 31:0.333333 32:-1 33:0.333333 34:-0.333333 35:0.333333 36:1 37:-0.333333 38:-1 39:0.333333 40:0.333333 41:1 42:0.333333 43:0.333333 44:-1 45:-1 46:-0.333333 47:1 48:-0.333333 49:1 50:0.333333 51:1 52:-0.333333 53:0.333333 54:1 55:-0.333333 56:0.333333 57:1 58:0.333333 59:-1 60:-1 
5.219653270527126 1:1 2:-1 3:0.333333 4:0.333333 5:-1 6:-1 7:0.333333 8:1 9:-0.333333 10:0.333333 11:-1 12:-0.333333 13:-1 14:-0.333333 15:0.333333 16:0.333333 17:-1 18:-0.333333 19:-0.333333 20:-1 21:-1 22:-1 23:-1 24:0.333333 25:1 26:1 27:1 28:-0.333333 29:-1 30:-1 31:-0.333333 32:0.333333 33:0.333333 34:1 35:1 36:0.333333 37:-1 38:1 39:-0.333333 40:-1 41:-1 42:-0.333333 43:-0.333333 44:0.333333 45:-1 46:-1 47:1 48:0.333333 49:-0.333333 50:-0.333333 51:1 52:0.333333 53:1 54:-0.333333 55:0.333333 56:0.333333 57:-0.333333 58:-0.333333 59:-1 60:-1 
7.622175420944999 1:1 2:1 3:-0.333333 4:0.333333 5:0.333333 6:0.333333 7:1 8:1 9:-0.333333 10:-1 11:-0.333333 12:-1 13:1 14:0.333333 15:1 16:-1 17:1 18:1 19:1 20:1 21:0.333333 22:0.333333 23:1 24:1 25:0.333333 26:1 27:0.333333 28:-1 29:-1 30:1 31:-1 32:1 33:-0.333333 34:1 35:1 36:-0.333333 37:-1 38:1 39:0.333333 40:-1 41:-1 42:-0.333333 43:0.333333 44:-1 45:-0.333333 46:-1 47:-0.333333 48:1 49:1 50:-0.333333 51:-0.333333 52:-1 53:-1 54:-1 55:-1 56:-1 57:1 58:-1 59:1 60:-0.333333 
1.39127749514074 1:1 2:1 3:-1 4:-1 5:-0.333333 6:-0.333333 7:-1 8:-0.333333 9:-0.333333 10:-1 11:-1 12:-0.333333 13:-0.333333 14:-1 15:-1 16:1 17:-0.333333 18:-1 19:-1 20:-1 21:0.333333 22:0.333333 23:1 24:-0.333333 25:1 26:1 27:1 28:0.333333 29:-1 30:-1 31:0.333333 32:-1 33:1 34:-0.333333 35:-0.333333 36:-1 37:-1 38:-1 39:1 40:-0.333333 41:-1 42:1 43:0.333333 44:1 45:-0.333333 46:1 47:-1 48:1 49:1 50:-0.333333 51:-1 52:0.333333 53:1 54:-1 55:-1 56:1 57:-1 58:0.333333 59:-1 60:0.333333 
5.311778297110062 1:0.333333 2:-1 3:-1 4:-1 5:-0.333333 6:1 7:1 8:-0.333333 9:1 10:0.333333 11:0.333333 12:1 13:0.333333 14:1 15:1 16:0.333333 17:1 18:1 19:0.333333 20:-1 21:-0.333333 22:-1 23:1 24:1 25:0.333333 26:-1 27:-0.333333 28:0.333333 29:-1 30:1 31:1 32:1 33:-0.333333 34:1 35:1 36:0.333333 37:1 38:1 39:1 40:-0.333333 41:0.333333 42:0.333333 43:-1 44:-0.333333 45:1 46:0.333333 47:1 48:0.333333 49:-1 50:1 51:1 52:1 53:1 54:0.333333 55:-1 56:1 57:0.333333 58:1 59:1 60:0.333333 
2.446124047856656 1:1 2:-1 3:-1 4:-1 5:-1 6:-1 7:-1 8:-0.333333 9:-1 10:0.333333 11:1 12:0.333333 13:1 14:0.333333 15:1 16:-0.333333 17:0.333333 18:1 19:-0.333333 20:1 21:-0.333333 22:-0.333333 23:-0.333333 24:-1 25:-0.333333 26:-1 27:1 28:0.333333 29:0.333333 30:0.333333 31:1 32:1 33:0.333333 34:-1 35:-0.333333 36:-1 37:-0.333333 38:-1 39:-0.333333 40:-1 41:-0.333333 42:-1 43:-0.333333 44:-1 45:-0.333333 46:-1 47:0.333333 48:0.333333 49:-1 50:-0.333333 51:-1 52:-1 53:-1 54:1 55:-1 56:-1 57:1 58:0.333333 59:1 60:1 
2.882650836146067 1:1 2:0.333333 3:1 4:-1 5:-1 6:1 7:1 8:1 9:-1 10:-1 11:-0.333333 12:-1 13:-1 14:0.333333 15:-1 16:-1 17:0.333333 18:1 19:-1 20:-1 21:0.333333 22:0.333333 23:0.333333 24:1 25:1 26:1 27:1 28:1 29:-1 30:-1 31:1 32:-0.333333 33:-1 34:-1 35:1 36:-1 37:-1 38:-1 39:1 40:0.333333 41:-1 42:-1 43:0.333333 44:0.333333 45:1 46:1 47:-0.333333 48:1 49:-1 50:1 51:1 52:-0.333333 53:-1 54:-0.333333 55:1 56:1 57:-0.333333 58:0.333333 59:1 60:-1 
4.865855708953099 1:-0.333333 2:-0.333333 3:-0.333333 4:-1 5:-0.333333 6:-0.333333 7:-1 8:-0.333333 9:-0.333333 10:-1 11:-0.333333 12:-0.333333 13:1 14:1 15:-0.333333 16:0.333333 17:-1 18:-0.333333 19:1 20:-0.333333 21:-1 22:-0.333333 23:0.333333 24:0.333333 25:-0.333333 26:-1 27:-0.333333 28:-1 29:1 30:-0.333333 31:-0.333333 32:1 33:-0.333333 34:0.333333 35:0.333333 36:-1 37:0.333333 38:1 39:-0.333333 40:0.333333 41:-1 42:0.333333 43:1 44:0.333333 45:0.333333 46:-1 47:-0.333333 48:0.333333 49:0.333333 50:1 51:-0.333333 52:-0.333333 53:0.333333 54:-1 55:-1 56:0.333333 57:-1 58:-0.333333 59:-1 60:-0.333333 
279.508497187 1:-0.333333 2:-1 3:1 4:-0.333333 5:1 6:1 7:-1 8:-1 9:0.333333 10:0.333333 11:-1 12:1 13:1 14:0.333333 15:1 16:0.333333 17:0.333333 18:1 19:1 20:0.333333 21:1 22:0.333333 23:0.333333 24:0.333333 25:0.333333 26:-1 27:-1 28:0.333333 29:-1 30:-0.333333 31:1 32:1 33:0.333333 34:0.333333 35:0.333333 36:0.333333 37:-1 38:-0.333333 39:-0.333333 40:-0.333333 41:-1 42:0.333333 43:0.333333 44:1 45:0.333333 46:1 47:0.333333 48:1 49:0.333333 50:1 51:-1 52:-1 53:1 54:0.333333 55:-1 56:-0.333333 57:0.333333 58:0.333333 59:0.333333 60:1 
14.1211196958716 1:-1 2:-0.333333 3:-0.333333 4:-0.333333 5:-0.333333 6:0.333333 7:1 8:-0.333333 9:0.333333 10:0.333333 11:-0.333333 12:0.333333 13:-1 14:-0.333333 15:0.333333 16:0.333333 17:-0.333333 18:0.333333 19:0.333333 20:-0.333333 21:0.333333 22:-0.333333 23:-1 24:-0.333333 25:0.333333 26:0.333333 27:1 28:0.333333 29:0.333333 30:-0.333333 31:-0.333333 32:-1 33:0.333333 34:-1 35:-0.333333 36:-1 37:0.333333 38:-0.333333 39:0.333333 40:0.333333 41:-1 42:-0.333333 43:-1 44:-0.333333 45:0.333333 46:-0.333333 47:-1 48:-0.333333 49:-0.333333 50:-1 51:-0.333333 52:-0.333333 53:0.333333 54:-0.333333 55:0.333333 56:1 57:-1 58:0.333333 59:-0.333333 60:0.333333 
3.894844807273839 1:-0.333333 2:1 3:0.333333 4:-1 5:-1 6:-0.333333 7:-1 8:1 9:1 10:-0.333333 11:-1 12:0.333333 13:0.333333 14:-1 15:-0.333333 16:-1 17:0.333333 18:0.333333 19:-0.333333 20:1 21:-0.333333 22:-0.333333 23:-1 24:-0.333333 25:-0.333333 26:-1 27:-0.333333 28:0.333333 29:1 30:-0.333333 31:0.333333 32:-0.333333 33:0.333333 34:0.333333 35:-0.333333 36:0.333333 37:-1 38:-0.333333 39:0.333333 40:0.333333 41:1 42:-0.333333 43:-0.333333 44:0.333333 45:1 46:0.333333 47:0.333333 48:0.333333 49:1 50:-1 51:1 52:-0.333333 53:0.333333 54:1 55:0.333333 56:-1 57:-0.333333 58:-0.333333 59:-1 60:0.333333 
10.72882104058328 1:0.333333 2:-1 3:-0.333333 4:-0.333333 5:0.333333 6:1 7:-0.333333 8:-0.333333 9:-1 10:-0.333333 11:1 12:-0.333333 13:0.333333 14:-1 15:-0.333333 16:1 17:-0.333333 18:-0.333333 19:0.333333 20:-1 21:0.333333 22:-0.333333 23:-1 24:1 25:0.333333 26:1 27:0.333333 28:1 29:-0.333333 30:0.333333 31:1 32:0.333333 33:-1 34:1 35:1 36:-0.333333 37:0.333333 38:-1 39:-1 40:-0.333333 41:0.333333 42:1 43:0.333333 44:0.333333 45:-0.333333 46:0.333333 47:0.333333 48:1 49:0.333333 50:0.333333 51:1 52:-0.333333 53:-0.333333 54:-0.333333 55:1 56:1 57:0.333333 58:-1 59:0.333333 60:-0.333333 
2.426273778457864 1:-1 2:1 3:0.333333 4:-1 5:-1 6:-1 7:1 8:-1 9:-1 10:-1 11:-1 12:0.333333 13:-1 14:-0.333333 15:-0.333333 16:-0.333333 17:-1 18:1 19:1 20:0.333333 21:1 22:-1 23:-1 24:-1 25:-1 26:1 27:-0.333333 28:0.333333 29:1 30:-1 31:1 32:1 33:-1 34:-0.333333 35:-1 36:-1 37:1 38:1 39:-0.333333 40:1 41:-0.333333 42:-1 43:-0.333333 44:-0.333333 45:0.333333 46:1 47:0.333333 48:-1 49:-0.333333 50:-0.333333 51:-0.333333 52:1 53:-0.333333 54:-0.333333 55:-0.333333 56:0.333333 57:-1 58:0.333333 59:-0.333333 60:-0.333333 
9.836836259349623 1:-0.333333 2:0.333333 3:0.333333 4:0.333333 5:-1 6:-0.333333 7:0.333333 8:1 9:0.333333 10:-1 11:-0.333333 12:0.333333 13:1 14:0.333333 15:-1 16:-0.333333 17:1 18:1 19:0.333333 20:-1 21:-0.333333 22:1 23:1 24:0.333333 25:-1 26:-0.333333 27:0.333333 28:0.333333 29:0.333333 30:1 31:-0.333333 32:1 33:1 34:0.333333 35:-1 36:-0.333333 37:0.333333 38:-1 39:0.333333 40:-1 41:-0.333333 42:0.333333 43:-1 44:0.333333 45:-1 46:1 47:0.333333 48:-1 49:-0.333333 50:-1 51:-0.333333 52:0.333333 53:0.333333 54:0.333333 55:1 56:-0.333333 57:0.333333 58:-0.333333 59:-1 60:1 
3.251258407889433 1:1 2:-1 3:1 4:1 5:0.333333 6:1 7:1 8:-0.333333 9:-1 10:0.333333 11:-1 12:1 13:-0.333333 14:-1 15:-0.333333 16:-1 17:-1 18:-1 19:-1 20:1 21:0.333333 22:-1 23:-0.333333 24:1 25:-1 26:-1 27:1 28:1 29:-0.333333 30:-0.333333 31:-1 32:0.333333 33:0.333333 34:-1 35:-0.333333 36:-0.333333 37:0.333333 38:-0.333333 39:0.333333 40:-0.333333 41:-0.333333 42:1 43:-0.333333 44:-0.333333 45:0.333333 46:1 47:0.333333 48:1 49:1 50:-0.333333 51:0.333333 52:0.333333 53:1 54:-0.333333 55:1 56:-1 57:-1 58:1 59:0.333333 60:0.333333 
0.7267283339824649 1:0.333333 2:1 3:-1 4:1 5:-0.333333 6:-1 7:0.333333 8:-1 9:-1 10:-0.333333 11:-1 12:-1 13:0.333333 14:-1 15:1 16:0.333333 17:-1 18:1 19:-0.333333 20:-1 21:0.333333 22:0.333333 23:-1 24:-1 25:-0.333333 26:-0.333333 27:1 28:0.333333 29:0.333333 30:-1 31:1 32:-0.333333 33:-0.333333 34:-0.333333 35:-1 36:-1 37:-0.333333 38:0.333333 39:-0.333333 40:0.333333 41:1 42:-1 43:0.333333 44:-0.333333 45:0.333333 46:0.333333 47:1 48:-1 49:0.333333 50:-1 51:-1 52:-0.333333 53:1 54:1 55:0.333333 56:-0.333333 57:-1 58:0.333333 59:1 60:1 
11.22954768565539 1:1 2:0.333333 3:-1 4:0.333333 5:1 6:1 7:1 8:1 9:1 10:0.333333 11:0.333333 12:0.333333 13:1 14:1 15:0.333333 16:1 17:1 18:1 19:1 20:1 21:0.333333 22:0.333333 23:1 24:1 25:-1 26:1 27:0.333333 28:0.333333 29:-1 30:-0.333333 31:-0.333333 32:-0.333333 33:-1 34:-1 35:0.333333 36:0.333333 37:-0.333333 38:-1 39:-1 40:-0.333333 41:-1 42:0.333333 43:-0.333333 44:1 45:-0.333333 46:1 47:1 48:1 49:-0.333333 50:0.333333 51:-1 52:-1 53:-1 54:1 55:-0.333333 56:1 57:0.333333 58:0.333333 59:0.333333 60:0.333333 
4.975217283921473 1:0.333333 2:1 3:-1 4:-0.333333 5:0.333333 6:0.333333 7:1 8:-1 9:-0.333333 10:-1 11:-1 12:0.333333 13:-1 14:1 15:0.333333 16:0.333333 17:0.333333 18:-1 19:0.333333 20:0.333333 21:-1 22:-1 23:1 24:-1 25:1 26:0.333333 27:1 28:0.333333 29:0.333333 30:-1 31:0.333333 32:0.333333 33:0.333333 34:-1 35:0.333333 36:1 37:1 38:-1 39:-1 40:-0.333333 41:-0.333333 42:-1 43:-0.333333 44:-1 45:-1 46:-1 47:-1 48:-0.333333 49:-0.333333 50:0.333333 51:1 52:-1 53:1 54:0.333333 55:-1 56:-1 57:-0.333333 58:-0.333333 59:-0.333333 60:1 
3.921820408554368 1:-0.333333 2:-0.333333 3:1 4:-0.333333 5:-0.333333 6:-1 7:-0.333333 8:-0.333333 9:-1 10:-0.333333 11:-0.333333 12:0.333333 13:1 14:1 15:1 16:0.333333 17:-1 18:1 19:-1 20:1 21:1 22:0.333333 23:-0.333333 24:1 25:-0.333333 26:0.333333 27:0.333333 28:-1 29:1 30:-0.333333 31:-1 32:0.333333 33:0.333333 34:0.333333 35:0.333333 36:1 37:0.333333 38:-1 39:-1 40:-0.333333 41:-0.333333 42:0.333333 43:-0.333333 44:-0.333333 45:-0.333333 46:0.333333 47:0.333333 48:-1 49:1 50:1 51:0.333333 52:-0.333333 53:1 54:-0.333333 55:1 56:-0.333333 57:0.333333 58:-1 59:0.333333 60:0.333333 
0.1502525211655583 1:1 2:-1 3:1 4:1 5:1 6:1 7:-1 8:1 9:1 10:1 11:-1 12:-1 13:1 14:1 15:-0.333333 16:1 17:1 18:0.333333 19:1 20:-1 21:1 22:1 23:1 24:1 25:-1 26:1 27:0.333333 28:-1 29:1 30:1 31:-1 32:-0.333333 33:1 34:1 35:-1 36:1 37:1 38:-0.333333 39:1 40:1 41:1 42:-0.333333 43:1 44:1 45:-1 46:-1 47:1 48:0.333333 49:1 50:0.333333 51:1 52:1 53:-0.333333 54:0.333333 55:1 56:-0.333333 57:1 58:-1 59:0.333333 60:0.333333 
8.038206100846203 1:1 2:0.333333 3:1 4:-0.333333 5:-0.333333 6:-0.333333 7:0.333333 8:-1 9:1 10:-1 11:-0.333333 12:-0.333333 13:-1 14:-0.333333 15:1 16:-0.333333 17:1 18:-1 19:1 20:0.333333 21:0.333333 22:1 23:-0.333333 24:-0.333333 25:1 26:-1 27:0.333333 28:0.333333 29:-1 30:-1 31:0.333333 32:-1 33:-0.333333 34:-1 35:0.333333 36:0.333333 37:0.333333 38:0.333333 39:-1 40:-0.333333 41:-0.333333 42:-1 43:0.333333 44:-1 45:-0.333333 46:-0.333333 47:-0.333333 48:0.333333 49:0.333333 50:1 51:1 52:0.333333 53:-1 54:-0.333333 55:1 56:1 57:0.333333 58:0.333333 59:1 60:0.333333 
4.686987296258764 1:0.333333 2:0.333333 3:-1 4:-0.333333 5:-1 6:0.333333 7:0.333333 8:-1 9:1 10:1 11:-0.333333 12:-0.333333 13:0.333333 14:1 15:1 16:-0.333333 17:-1 18:-0.333333 19:1 20:-0.333333 21:0.333333 22:-1 23:-0.333333 24:0.333333 25:0.333333 26:-0.333333 27:0.333333 28:0.333333 29:0.333333 30:-0.333333 31:0.333333 32:1 33:1 34:1 35:-1 36:-1 37:0.333333 38:0.333333 39:-1 40:-0.333333 41:1 42:-0.333333 43:0.333333 44:-1 45:-1 46:0.333333 47:-1 48:0.333333 49:-0.333333 50:-1 51:0.333333 52:-1 53:0.333333 54:-0.333333 55:0.333333 56:-0.333333 57:-0.333333 58:0.333333 59:-1 60:-1 
20.81505089316678 1:-0.333333 2:-0.333333 3:-0.333333 4:1 5:0.333333 6:0.333333 7:0.333333 8:-1 9:0.333333 10:0.333333 11:-1 12:-1 13:1 14:0.333333 15:1 16:1 17:-0.333333 18:1 19:1 20:1 21:-0.333333 22:0.333333 23:1 24:1 25:0.333333 26:1 27:-0.333333 28:0.333333 29:-1 30:-0.333333 31:-1 32:-0.333333 33:0.333333 34:0.333333 35:1 36:0.333333 37:-1 38:-0.333333 39:0.333333 40:0.333333 41:1 42:-0.333333 43:0.333333 44:0.333333 45:1 46:-0.333333 47:-0.333333 48:-1 49:-1 50:-0.333333 51:-1 52:1 53:-0.333333 54:0.333333 55:0.333333 56:-0.333333 57:-1 58:-0.333333 59:-1 60:1 
3.355745065730868 1:1 2:-0.333333 3:-0.333333 4:-0.333333 5:1 6:1 7:0.333333 8:0.333333 9:-1 10:-1 11:-1 12:1 13:1 14:-1 15:-1 16:1 17:-1 18:-0.333333 19:1 20:1 21:-0.333333 22:1 23:-1 24:-1 25:-0.333333 26:1 27:-1 28:1 29:-0.333333 30:-1 31:-0.333333 32:1 33:0.333333 34:1 35:-0.333333 36:0.333333 37:0.333333 38:-1 39:-0.333333 40:1 41:0.333333 42:-1 43:-1 44:1 45:-1 46:-1 47:-1 48:1 49:-1 50:0.333333 51:-1 52:1 53:-0.333333 54:-0.333333 55:-1 56:1 57:-1 58:1 59:-1 60:-1 
7.643170320596234 1:-0.333333 2:-1 3:-1 4:1 5:0.333333 6:0.333333 7:0.333333 8:-1 9:-0.333333 10:0.333333 11:-1 12:-0.333333 13:1 14:1 15:1 16:0.333333 17:1 18:1 19:1 20:0.333333 21:1 22:-0.333333 23:1 24:1 25:1 26:1 27:1 28:-0.333333 29:0.333333 30:-0.333333 31:-1 32:-0.333333 33:-0.333333 34:-1 35:0.333333 36:-1 37:0.333333 38:-1 39:-0.333333 40:-1 41:1 42:1 43:-1 44:1 45:0.333333 46:0.333333 47:1 48:1 49:-1 50:1 51:1 52:1 53:-0.333333 54:-0.333333 55:-0.333333 56:1 57:-1 58:0.333333 59:0.333333 60:-1 
1.865507947186854 1:1 2:1 3:1 4:0.333333 5:-1 6:-0.333333 7:-1 8:0.333333 9:-1 10:1 11:-0.333333 12:0.333333 13:-1 14:-0.333333 15:1 16:0.333333 17:-1 18:-0.333333 19:-1 20:-1 21:-1 22:-1 23:1 24:-1 25:-0.333333 26:-1 27:1 28:1 29:1 30:-1 31:0.333333 32:1 33:-1 34:0.333333 35:-1 36:1 37:0.333333 38:0.333333 39:1 40:1 41:-1 42:1 43:1 44:-1 45:-1 46:1 47:-0.333333 48:-1 49:1 50:-1 51:0.333333 52:0.333333 53:-1 54:1 55:1 56:-1 57:1 58:1 59:-0.333333 60:-0.333333 
7.503166308596913 1:1 2:-0.333333 3:-0.333333 4:-1 5:0.333333 6:0.333333 7:-1 8:1 9:0.333333 10:-0.333333 11:0.333333 12:-0.333333 13:-0.333333 14:-1 15:1 16:-1 17:-0.333333 18:-1 19:0.333333 20:-1 21:-1 22:-0.333333 23:-1 24:-1 25:0.333333 26:0.333333 27:-0.333333 28:-1 29:-0.333333 30:-0.333333 31:-0.333333 32:-0.333333 33:0.333333 34:0.333333 35:1 36:0.333333 37:1 38:-0.333333 39:0.333333 40:-0.333333 41:0.333333 42:0.333333 43:0.333333 44:1 45:-0.333333 46:-0.333333 47:-0.333333 48:0.333333 49:0.333333 50:0.333333 51:-1 52:-0.333333 53:0.333333 54:1 55:0.333333 56:1 57:-0.333333 58:1 59:0.333333 60:0.333333 
11.58873910190275 1:-1 2:0.333333 3:-0.333333 4:1 5:-0.333333 6:0.333333 7:1 8:-0.333333 9:0.333333 10:-1 11:-0.333333 12:-1 13:1 14:0.333333 15:0.333333 16:-0.333333 17:-1 18:-1 19:1 20:1 21:-0.333333 22:-0.333333 23:0.333333 24:1 25:0.333333 26:0.333333 27:-1 28:0.333333 29:-1 30:0.333333 31:0.333333 32:0.333333 33:-0.333333 34:1 35:-0.333333 36:-0.333333 37:1 38:-0.333333 39:-0.333333 40:1 41:-0.333333 42:0.333333 43:1 44:-0.333333 45:-1 46:-0.333333 47:0.333333 48:-0.333333 49:-0.333333 50:0.333333 51:0.333333 52:1 53:-0.333333 54:-0.333333 55:-1 56:0.333333 57:-1 58:0.333333 59:0.333333 60:-1 
8.486002475030086 1:-1 2:0.333333 3:0.333333 4:-1 5:-0.333333 6:0.333333 7:-0.333333 8:0.333333 9:0.333333 10:-1 11:-1 12:-1 13:1 14:-0.333333 15:1 16:1 17:0.333333 18:-1 19:1 20:0.333333 21:0.333333 22:1 23:0.333333 24:-1 25:1 26:1 27:-0.333333 28:0.333333 29:0.333333 30:1 31:0.333333 32:0.333333 33:1 34:-0.333333 35:1 36:1 37:0.333333 38:1 39:-0.333333 40:0.333333 41:0.333333 42:0.333333 43:-1 44:0.333333 45:-0.333333 46:-1 47:1 48:0.333333 49:0.333333 50:0.333333 51:0.333333 52:1 53:0.333333 54:0.333333 55:0.333333 56:0.333333 57:0.333333 58:-1 59:-1 60:-0.333333 
7.019299048585081 1:-1 2:1 3:0.333333 4:0.333333 5:0.333333 6:0.333333 7:-1 8:-0.333333 9:-1 10:1 11:0.333333 12:0.333333 13:1 14:-1 15:-1 16:-0.333333 17:-1 18:-0.333333 19:-0.333333 20:0.333333 21:0.333333 22:-0.333333 23:-1 24:-1 25:1 26:-0.333333 27:-0.333333 28:1 29:-1 30:1 31:0.333333 32:1 33:-0.333333 34:-0.333333 35:-0.333333 36:0.333333 37:-1 38:-0.333333 39:-1 40:-1 41:-1 42:-0.333333 43:-1 44:1 45:0.333333 46:-0.333333 47:-1 48:1 49:-1 50:1 51:-1 52:0.333333 53:0.333333 54:1 55:-1 56:1 57:-1 58:-1 59:0.333333 60:-0.333333 
1.252325121565007 1:1 2:-1 3:1 4:-0.333333 5:-1 6:-0.333333 7:-0.333333 8:0.333333 9:0.333333 10:-1 11:0.333333 12:0.333333 13:0.333333 14:1 15:-0.333333 16:-1 17:-0.333333 18:-0.333333 19:1 20:-0.333333 21:0.333333 22:1 23:-0.333333 24:-0.333333 25:-0.333333 26:0.333333 27:0.333333 28:0.333333 29:1 30:-0.333333 31:-0.333333 32:-0.333333 33:0.333333 34:1 35:1 36:0.333333 37:1 38:-1 39:0.333333 40:0.333333 41:0.333333 42:1 43:-0.333333 44:0.333333 45:-0.333333 46:-0.333333 47:-1 48:-0.333333 49:-1 50:1 51:0.333333 52:-1 53:1 54:-1 55:0.333333 56:1 57:-0.333333 58:-1 59:0.333333 60:0.333333 
8.912034154465186 1:1 2:1 3:1 4:-0.333333 5:0.333333 6:1 7:1 8:0.333333 9:-1 10:-0.333333 11:1 12:0.333333 13:0.333333 14:1 15:1 16:-0.333333 17:-1 18:-1 19:1 20:0.333333 21:-1 22:0.333333 23:0.333333 24:1 25:-0.333333 26:1 27:-0.333333 28:-0.333333 29:-0.333333 30:-1 31:0.333333 32:1 33:1 34:-0.333333 35:-1 36:-0.333333 37:-0.333333 38:-1 39:0.333333 40:1 41:0.333333 42:-0.333333 43:-0.333333 44:-0.333333 45:-1 46:1 47:0.333333 48:1 49:1 50:0.333333 51:-1 52:-0.333333 53:-0.333333 54:-1 55:0.333333 56:-0.333333 57:0.333333 58:0.333333 59:1 60:-0.333333 
5.420270895575499 1:-0.333333 2:1 3:1 4:0.333333 5:1 6:-1 7:-0.333333 8:-1 9:-1 10:-0.333333 11:0.333333 12:0.333333 13:1 14:-0.333333 15:-0.333333 16:-0.333333 17:0.333333 18:-0.333333 19:-1 20:-1 21:-0.333333 22:1 23:0.333333 24:0.333333 25:-0.333333 26:-0.333333 27:0.333333 28:1 29:-1 30:-1 31:1 32:1 33:-0.333333 34:1 35:-0.333333 36:-0.333333 37:-1 38:0.333333 39:1 40:1 41:-0.333333 42:-0.333333 43:-0.333333 44:-0.333333 45:-1 46:-1 47:-1 48:-1 49:1 50:-1 51:-1 52:-0.333333 53:-0.333333 54:0.333333 55:0.333333 56:0.333333 57:-1 58:-1 59:0.333333 60:0.333333 
1.422056092906925 1:-0.333333 2:-1 3:-1 4:-1 5:-1 6:-0.333333 7:-1 8:-1 9:-1 10:0.333333 11:1 12:1 13:-1 14:1 15:1 16:1 17:0.333333 18:1 19:-0.333333 20:1 21:1 22:-0.333333 23:-1 24:0.333333 25:-1 26:0.333333 27:-0.333333 28:-0.333333 29:-1 30:-1 31:0.333333 32:-1 33:1 34:1 35:0.333333 36:0.333333 37:-1 38:-1 39:1 40:-1 41:1 42:0.333333 43:1 44:-1 45:1 46:0.333333 47:1 48:1 49:0.333333 50:-1 51:-1 52:-1 53:-1 54:1 55:-0.333333 56:-0.333333 57:0.333333 58:0.333333 59:0.333333 60:-1 
10.49868091665284 1:0.333333 2:1 3:-1 4:0.333333 5:-1 6:-1 7:-0.333333 8:0.333333 9:-1 10:0.333333 11:1 12:-0.333333 13:-1 14:-1 15:-0.333333 16:0.333333 17:1 18:-0.333333 19:1 20:-0.333333 21:0.333333 22:0.333333 23:-0.333333 24:0.333333 25:0.333333 26:-1 27:-0.333333 28:0.333333 29:1 30:0.333333 31:1 32:0.333333 33:-1 34:-0.333333 35:1 36:0.333333 37:0.333333 38:0.333333 39:-1 40:0.333333 41:-1 42:-0.333333 43:0.333333 44:1 45:0.333333 46:1 47:0.333333 48:-1 49:-0.333333 50:-0.333333 51:0.333333 52:0.333333 53:0.333333 54:0.333333 55:1 56:0.333333 57:1 58:0.333333 59:1 60:-0.333333 
4.450842899519854 1:0.333333 2:1 3:-1 4:1 5:0.333333 6:0.333333 7:0.333333 8:-1 9:-1 10:-0.333333 11:1 12:0.333333 13:1 14:-1 15:1 16:-0.333333 17:1 18:0.333333 19:0.333333 20:-1 21:-1 22:-0.333333 23:-0.333333 24:-1 25:-1 26:-0.333333 27:0.333333 28:1 29:-0.333333 30:1 31:-0.333333 32:-0.333333 33:0.333333 34:0.333333 35:-1 36:1 37:0.333333 38:1 39:-0.333333 40:0.333333 41:-1 42:-1 43:-1 44:-0.333333 45:-0.333333 46:-0.333333 47:0.333333 48:1 49:-0.333333 50:-1 51:1 52:-0.333333 53:-1 54:0.333333 55:0.333333 56:-1 57:-1 58:-1 59:0.333333 60:-1 
17.36713722285189 1:0.333333 2:1 3:-0.333333 4:-0.333333 5:1 6:-0.333333 7:1 8:-0.333333 9:-1 10:-1 11:1 12:-0.333333 13:-0.333333 14:0.333333 15:-1 16:1 17:1 18:0.333333 19:1 20:0.333333 21:1 22:1 23:1 24:1 25:1 26:1 27:-0.333333 28:0.333333 29:-1 30:-0.333333 31:-1 32:0.333333 33:-1 34:-0.333333 35:-1 36:-0.333333 37:-0.333333 38:-1 39:-0.333333 40:0.333333 41:1 42:-0.333333 43:-1 44:-1 45:0.333333 46:0.333333 47:-0.333333 48:0.333333 49:-0.333333 50:-1 51:-0.333333 52:-0.333333 53:1 54:-0.333333 55:-0.333333 56:0.333333 57:0.333333 58:-1 59:0.333333 60:0.333333 
5.922497753589042 1:1 2:1 3:-0.333333 4:0.333333 5:-1 6:-0.333333 7:0.333333 8:-1 9:-1 10:-1 11:-0.333333 12:-1 13:1 14:0.333333 15:1 16:1 17:-0.333333 18:-0.333333 19:-1 20:-1 21:-1 22:1 23:-0.333333 24:0.333333 25:1 26:1 27:-0.333333 28:-1 29:-1 30:-0.333333 31:-1 32:0.333333 33:0.333333 34:-1 35:0.333333 36:-1 37:-1 38:-0.333333 39:-0.333333 40:0.333333 41:1 42:-0.333333 43:-1 44:-1 45:-1 46:-1 47:-0.333333 48:1 49:-0.333333 50:0.333333 51:1 52:1 53:1 54:-0.333333 55:0.333333 56:1 57:-0.333333 58:-0.333333 59:-1 60:-0.333333 
3.766133940114972 1:0.333333 2:-1 3:-0.333333 4:-1 5:0.333333 6:-1 7:1 8:-0.333333 9:-1 10:1 11:1 12:1 13:0.333333 14:-0.333333 15:-0.333333 16:-1 17:1 18:1 19:0.333333 20:0.333333 21:0.333333 22:0.333333 23:-0.333333 24:-1 25:-0.333333 26:-0.333333 27:-1 28:-0.333333 29:-0.333333 30:-1 31:-0.333333 32:1 33:1 34:1 35:-0.333333 36:-1 37:1 38:-0.333333 39:-0.333333 40:0.333333 41:0.333333 42:-1 43:0.333333 44:0.333333 45:-1 46:-0.333333 47:1 48:1 49:0.333333 50:0.333333 51:-1 52:-0.333333 53:-1 54:-1 55:-0.333333 56:-1 57:0.333333 58:1 59:0.333333 60:-1 
10.32869645653459 1:1 2:-1 3:0.333333 4:0.333333 5:-1 6:1 7:-0.333333 8:1 9:-1 10:0.333333 11:1 12:0.333333 13:1 14:-0.333333 15:0.333333 16:0.333333 17:1 18:1 19:-1 20:1 21:0.333333 22:1 23:0.333333 24:0.333333 25:0.333333 26:0.333333 27:0.333333 28:0.333333 29:-1 30:-0.333333 31:-1 32:-0.333333 33:1 34:1 35:1 36:-0.333333 37:-1 38:1 39:-0.333333 40:0.333333 41:1 42:0.333333 43:0.333333 44:-1 45:-1 46:-0.333333 47:0.333333 48:0.333333 49:0.333333 50:1 51:0.333333 52:1 53:0.333333 54:0.333333 55:0.333333 56:-1 57:-0.333333 58:-1 59:-0.333333 60:-1 
10.77755098914464 1:0.333333 2:0.333333 3:-1 4:-0.333333 5:1 6:0.333333 7:0.333333 8:-0.333333 9:0.333333 10:1 11:0.333333 12:-1 13:-0.333333 14:0.333333 15:0.333333 16:0.333333 17:-1 18:-0.333333 19:0.333333 20:0.333333 21:0.333333 22:-1 23:-1 24:-0.333333 25:0.333333 26:0.333333 27:0.333333 28:-1 29:-0.333333 30:0.333333 31:0.333333 32:0.333333 33:-1 34:-0.333333 35:0.333333 36:-0.333333 37:0.333333 38:0.333333 39:-1 40:-1 41:0.333333 42:0.333333 43:0.333333 44:-1 45:-0.333333 46:0.333333 47:1 48:0.333333 49:-0.333333 50:-0.333333 51:0.333333 52:1 53:1 54:-1 55:-1 56:0.333333 57:0.333333 58:0.333333 59:-1 60:-0.333333 
6.558931950155913 1:1 2:-1 3:0.333333 4:-1 5:0.333333 6:0.333333 7:1 8:-0.333333 9:0.333333 10:0.333333 11:-1 12:1 13:-0.333333 14:1 15:-0.333333 16:0.333333 17:-1 18:-0.333333 19:0.333333 20:-1 21:1 22:-0.333333 23:-1 24:-0.333333 25:-0.333333 26:-0.333333 27:1 28:0.333333 29:1 30:-0.333333 31:0.333333 32:0.333333 33:0.333333 34:-1 35:-1 36:-0.333333 37:0.333333 38:0.333333 39:0.333333 40:0.333333 41:1 42:0.333333 43:-1 44:0.333333 45:0.333333 46:0.333333 47:1 48:-0.333333 49:-1 50:-0.333333 51:-1 52:1 53:-0.333333 54:-0.333333 55:-0.333333 56:-1 57:-0.333333 58:0.333333 59:0.333333 60:-0.333333 
10.59081934052738 1:-0.333333 2:-1 3:-0.333333 4:0.333333 5:-1 6:-0.333333 7:1 8:1 9:0.333333 10:-1 11:0.333333 12:-0.333333 13:-0.333333 14:0.333333 15:0.333333 16:-1 17:1 18:-0.333333 19:1 20:1 21:0.333333 22:0.333333 23:-0.333333 24:-0.333333 25:0.333333 26:-0.333333 27:0.333333 28:-1 29:-1 30:-0.333333 31:-0.333333 32:0.333333 33:0.333333 34:1 35:1 36:0.333333 37:1 38:1 39:-0.333333 40:0.333333 41:-1 42:0.333333 43:1 44:-0.333333 45:-0.333333 46:1 47:-1 48:0.333333 49:-1 50:0.333333 51:-0.333333 52:-0.333333 53:-0.333333 54:0.333333 55:-0.333333 56:-1 57:-0.333333 58:-0.333333 59:-0.333333 60:0.333333 
5.26427595882509 1:1 2:1 3:-1 4:-1 5:0.333333 6:1 7:-0.333333 8:1 9:-0.333333 10:1 11:0.333333 12:1 13:0.333333 14:-0.333333 15:1 16:-0.333333 17:0.333333 18:-1 19:0.333333 20:-0.333333 21:-0.333333 22:-1 23:-1 24:-1 25:-1 26:1 27:0.333333 28:0.333333 29:-1 30:-0.333333 31:0.333333 32:-0.333333 33:1 34:1 35:1 36:0.333333 37:1 38:1 39:-0.333333 40:1 41:0.333333 42:1 43:0.333333 44:-1 45:-0.333333 46:0.333333 47:0.333333 48:-1 49:1 50:1 51:0.333333 52:0.333333 53:-1 54:-0.333333 55:-0.333333 56:1 57:-0.333333 58:-0.333333 59:0.333333 60:1 
3.367107391953156 1:-1 2:0.333333 3:0.333333 4:1 5:1 6:1 7:-0.333333 8:-0.333333 9:0.333333 10:1 11:0.333333 12:-0.333333 13:-0.333333 14:-0.333333 15:-1 16:-0.333333 17:-1 18:-0.333333 19:-0.333333 20:0.333333 21:-1 22:-0.333333 23:-1 24:0.333333 25:1 26:-0.333333 27:1 28:-0.333333 29:-0.333333 30:-0.333333 31:0.333333 32:1 33:-0.333333 34:0.333333 35:-0.333333 36:-1 37:0.333333 38:0.333333 39:1 40:0.333333 41:1 42:-0.333333 43:1 44:1 45:0.333333 46:-0.333333 47:-1 48:-0.333333 49:-1 50:-1 51:-0.333333 52:-1 53:-1 54:-0.333333 55:1 56:0.333333 57:-0.333333 58:0.333333 59:1 60:-0.333333 
6.924567119265439 1:0.333333 2:-1 3:1 4:-0.333333 5:-1 6:-0.333333 7:0.333333 8:1 9:1 10:1 11:0.333333 12:-1 13:0.333333 14:-0.333333 15:-1 16:-0.333333 17:-1 18:1 19:-1 20:-1 21:-0.333333 22:-1 23:-1 24:-0.333333 25:-1 26:-1 27:-1 28:-0.333333 29:-1 30:0.333333 31:-1 32:0.333333 33:-1 34:-0.333333 35:1 36:-0.333333 37:0.333333 38:0.333333 39:0.333333 40:1 41:-0.333333 42:-0.333333 43:1 44:1 45:0.333333 46:0.333333 47:0.333333 48:-1 49:-1 50:-0.333333 51:-1 52:-1 53:0.333333 54:0.333333 55:-1 56:1 57:1 58:0.333333 59:-1 60:-1 
4.583169607318749 1:1 2:-1 3:-1 4:1 5:-1 6:0.333333 7:-1 8:-1 9:-1 10:0.333333 11:-1 12:-0.333333 13:-1 14:-1 15:-1 16:1 17:0.333333 18:-1 19:-0.333333 20:-1 21:0.333333 22:0.333333 23:1 24:1 25:1 26:-1 27:-1 28:-0.333333 29:-1 30:-0.333333 31:1 32:1 33:-0.333333 34:-1 35:-0.333333 36:-1 37:-0.333333 38:1 39:-1 40:-1 41:-0.333333 42:1 43:-1 44:-0.333333 45:-0.333333 46:-1 47:-0.333333 48:-1 49:-0.333333 50:1 51:1 52:-1 53:-0.333333 54:-0.333333 55:-1 56:0.333333 57:1 58:1 59:-0.333333 60:1 
2.40346169277862 1:1 2:-0.333333 3:-0.333333 4:-0.333333 5:-1 6:0.333333 7:-1 8:0.333333 9:1 10:1 11:-1 12:-1 13:0.333333 14:-1 15:-0.333333 16:-1 17:1 18:-0.333333 19:0.333333 20:-1 21:-1 22:1 23:-0.333333 24:1 25:-0.333333 26:0.333333 27:1 28:-1 29:0.333333 30:1 31:-0.333333 32:-1 33:1 34:1 35:-0.333333 36:1 37:1 38:1 39:0.333333 40:-1 41:1 42:1 43:-0.333333 44:0.333333 45:-0.333333 46:-1 47:-1 48:1 49:0.333333 50:1 51:1 52:1 53:1 54:1 55:1 56:-1 57:-0.333333 58:0.333333 59:-1 60:1 
6.247972297310288 1:0.333333 2:-1 3:0.333333 4:0.333333 5:-0.333333 6:-0.333333 7:-0.333333 8:-0.333333 9:0.333333 10:1 11:1 12:-0.333333 13:0.333333 14:1 15:-0.333333 16:1 17:1 18:-0.333333 19:-0.333333 20:-1 21:1 22:-1 23:0.333333 24:-1 25:1 26:0.333333 27:1 28:0.333333 29:-0.333333 30:0.333333 31:0.333333 32:-1 33:1 34:1 35:-1 36:0.333333 37:0.333333 38:1 39:-0.333333 40:0.333333 41:0.333333 42:-1 43:0.333333 44:1 45:0.333333 46:1 47:0.333333 48:1 49:-1 50:-0.333333 51:0.333333 52:-1 53:1 54:0.333333 55:0.333333 56:1 57:-0.333333 58:-0.333333 59:-1 60:0.333333 
3.932425851175371 1:1 2:-0.333333 3:-1 4:0.333333 5:-1 6:1 7:0.333333 8:0.333333 9:-1 10:0.333333 11:0.333333 12:0.333333 13:-1 14:-0.333333 15:-1 16:-0.333333 17:0.333333 18:1 19:-1 20:-1 21:1 22:0.333333 23:-1 24:0.333333 25:0.333333 26:-1 27:0.333333 28:0.333333 29:-1 30:1 31:-0.333333 32:0.333333 33:1 34:-0.333333 35:-0.333333 36:-1 37:-1 38:-1 39:-1 40:-1 41:-0.333333 42:-1 43:0.333333 44:-1 45:0.333333 46:-1 47:-0.333333 48:-0.333333 49:1 50:-0.333333 51:-1 52:-1 53:-0.333333 54:0.333333 55:1 56:-0.333333 57:-1 58:-0.333333 59:-1 60:-1 
1.40746530178134 1:0.333333 2:0.333333 3:-0.333333 4:-1 5:0.333333 6:1 7:-0.333333 8:-1 9:-0.333333 10:0.333333 11:-1 12:-1 13:-1 14:-0.333333 15:-0.333333 16:0.333333 17:0.333333 18:1 19:-0.333333 20:-0.333333 21:-0.333333 22:-0.333333 23:1 24:-0.333333 25:0.333333 26:-1 27:-0.333333 28:-0.333333 29:-1 30:-0.333333 31:1 32:-0.333333 33:0.333333 34:1 35:-1 36:0.333333 37:0.333333 38:-1 39:1 40:-0.333333 41:-0.333333 42:1 43:-1 44:-1 45:1 46:-0.333333 47:-0.333333 48:-1 49:0.333333 50:-1 51:-0.333333 52:-1 53:-0.333333 54:1 55:1 56:-1 57:1 58:0.333333 59:-0.333333 60:-1 
10.69732503038392 1:0.333333 2:-1 3:-0.333333 4:-1 5:-0.333333 6:-0.333333 7:-0.333333 8:-0.333333 9:0.333333 10:0.333333 11:1 12:0.333333 13:0.333333 14:0.333333 15:-0.333333 16:-0.333333 17:-1 18:0.333333 19:0.333333 20:1 21:0.333333 22:0.333333 23:-0.333333 24:-0.333333 25:-0.333333 26:-0.333333 27:0.333333 28:1 29:0.333333 30:0.333333 31:-1 32:-1 33:-0.333333 34:-0.333333 35:1 36:-0.333333 37:1 38:1 39:0.333333 40:0.333333 41:1 42:-0.333333 43:-0.333333 44:-1 45:0.333333 46:0.333333 47:-1 48:-1 49:-1 50:-0.333333 51:-0.333333 52:-0.333333 53:-0.333333 54:-0.333333 55:-1 56:-1 57:-0.333333 58:0.333333 59:-1 60:-0.333333 
36.00087350589143 1:-1 2:-1 3:-0.333333 4:-0.333333 5:-0.333333 6:0.333333 7:0.333333 8:1 9:-0.333333 10:-1 11:-0.333333 12:-0.333333 13:-0.333333 14:-0.333333 15:-0.333333 16:-0.333333 17:0.333333 18:1 19:1 20:0.333333 21:1 22:1 23:0.333333 24:0.333333 25:1 26:1 27:0.333333 28:0.333333 29:-1 30:-0.333333 31:-0.333333 32:0.333333 33:-0.333333 34:-1 35:-0.333333 36:0.333333 37:-1 38:0.333333 39:-0.333333 40:-1 41:0.333333 42:0.333333 43:1 44:0.333333 45:-1 46:-0.333333 47:0.333333 48:-0.333333 49:-1 50:-0.333333 51:0.333333 52:-1 53:0.333333 54:-0.333333 55:-1 56:0.333333 57:-0.333333 58:-0.333333 59:-0.333333 60:-0.333333 
2.172436141452945 1:0.333333 2:0.333333 3:0.333333 4:0.333333 5:0.333333 6:0.333333 7:-1 8:1 9:0.333333 10:0.333333 11:0.333333 12:0.333333 13:-1 14:-0.333333 15:0.333333 16:1 17:-1 18:0.333333 19:0.333333 20:1 21:-0.333333 22:-1 23:-1 24:0.333333 25:-0.333333 26:-1 27:0.333333 28:0.333333 29:1 30:-0.333333 31:-0.333333 32:-1 33:-0.333333 34:0.333333 35:-0.333333 36:1 37:-1 38:1 39:1 40:-0.333333 41:0.333333 42:-1 43:0.333333 44:-1 45:-0.333333 46:-1 47:-0.333333 48:1 49:-0.333333 50:-1 51:0.333333 52:1 53:-1 54:0.333333 55:-1 56:1 57:0.333333 58:0.333333 59:0.333333 60:0.333333 
8.243177253434599 1:-1 2:0.333333 3:-1 4:0.333333 5:-1 6:0.333333 7:-1 8:0.333333 9:-1 10:0.333333 11:0.333333 12:0.333333 13:1 14:-0.333333 15:1 16:0.333333 17:0.333333 18:-1 19:0.333333 20:-1 21:-1 22:-1 23:-0.333333 24:-0.333333 25:-0.333333 26:0.333333 27:0.333333 28:1 29:-1 30:-0.333333 31:-0.333333 32:-1 33:-1 34:-1 35:0.333333 36:1 37:-1 38:0.333333 39:-0.333333 40:1 41:-0.333333 42:0.333333 43:0.333333 44:0.333333 45:1 46:1 47:0.333333 48:-1 49:-0.333333 50:0.333333 51:0.333333 52:-1 53:1 54:-0.333333 55:0.333333 56:-1 57:0.333333 58:0.333333 59:0.333333 60:-0.333333 
10.98661956400747 1:-1 2:-0.333333 3:-0.333333 4:-1 5:-1 6:-1 7:-1 8:-1 9:-0.333333 10:-1 11:-0.333333 12:-0.333333 13:-1 14:-1 15:-0.333333 16:-0.333333 17:-0.333333 18:-1 19:-0.333333 20:-0.333333 21:-0.333333 22:-1 23:-0.333333 24:-0.333333 25:-0.333333 26:-1 27:-0.333333 28:-0.333333 29:-1 30:-1 31:-0.333333 32:-0.333333 33:-1 34:-1 35:-0.333333 36:-0.333333 37:-1 38:-1 39:-1 40:-0.333333 41:-1 42:-1 43:-0.333333 44:-0.333333 45:-1 46:-1 47:-0.333333 48:-0.333333 49:-1 50:-1 51:-0.333333 52:-0.333333 53:-0.333333 54:-1 55:-0.333333 56:-1 57:-0.333333 58:-1 59:-0.333333 60:-1 
2.096536847917383 1:-1 2:-1 3:0.333333 4:1 5:1 6:-0.333333 7:-0.333333 8:0.333333 9:1 10:1 11:-0.333333 12:-0.333333 13:-0.333333 14:-1 15:-0.333333 16:1 17:0.333333 18:1 19:-0.333333 20:0.333333 21:-1 22:1 23:0.333333 24:0.333333 25:-1 26:-1 27:0.333333 28:-1 29:0.333333 30:1 31:1 32:1 33:0.333333 34:1 35:-0.333333 36:-0.333333 37:0.333333 38:1 39:-0.333333 40:1 41:-0.333333 42:1 43:-0.333333 44:-1 45:0.333333 46:0.333333 47:1 48:1 49:-0.333333 50:-0.333333 51:-0.333333 52:0.333333 53:-1 54:-1 55:-0.333333 56:1 57:1 58:-1 59:0.333333 60:1 
8.478586574898785 1:-0.333333 2:0.333333 3:-0.333333 4:-0.333333 5:-0.333333 6:-1 7:-0.333333 8:-0.333333 9:0.333333 10:0.333333 11:1 12:0.333333 13:1 14:0.333333 15:1 16:-1 17:-0.333333 18:-0.333333 19:-1 20:-1 21:-1 22:1 23:0.333333 24:1 25:-0.333333 26:1 27:-0.333333 28:-0.333333 29:-1 30:0.333333 31:1 32:0.333333 33:-1 34:0.333333 35:-1 36:0.333333 37:-0.333333 38:1 39:1 40:1 41:-1 42:0.333333 43:1 44:-1 45:-1 46:1 47:-0.333333 48:1 49:1 50:-0.333333 51:0.333333 52:1 53:-0.333333 54:0.333333 55:-1 56:-0.333333 57:0.333333 58:0.333333 59:0.333333 60:0.333333 
15.80856445624912 1:0.333333 2:1 3:-0.333333 4:-0.333333 5:0.333333 6:0.333333 7:1 8:-0.333333 9:-1 10:-0.333333 11:-0.333333 12:-1 13:0.333333 14:0.333333 15:0.333333 16:-0.333333 17:-0.333333 18:0.333333 19:-0.333333 20:0.333333 21:1 22:-0.333333 23:-1 24:-0.333333 25:1 26:-0.333333 27:-0.333333 28:0.333333 29:-0.333333 30:-0.333333 31:-0.333333 32:-0.333333 33:0.333333 34:0.333333 35:0.333333 36:0.333333 37:1 38:-0.333333 39:0.333333 40:1 41:0.333333 42:0.333333 43:-0.333333 44:-1 45:-0.333333 46:-0.333333 47:-0.333333 48:-0.333333 49:0.333333 50:1 51:0.333333 52:-1 53:1 54:-0.333333 55:1 56:1 57:0.333333 58:-1 59:-0.333333 60:-0.333333 
6.914555317726244 1:-1 2:0.333333 3:-1 4:-0.333333 5:-1 6:-1 7:-0.333333 8:-1 9:-1 10:-0.333333 11:0.333333 12:-0.333333 13:-1 14:-0.333333 15:0.333333 16:0.333333 17:-1 18:0.333333 19:-0.333333 20:0.333333 21:0.333333 22:0.333333 23:0.333333 24:0.333333 25:-1 26:-0.333333 27:0.333333 28:-0.333333 29:0.333333 30:-1 31:0.333333 32:-0.333333 33:0.333333 34:0.333333 35:0.333333 36:1 37:-0.333333 38:0.333333 39:-0.333333 40:-1 41:-0.333333 42:-0.333333 43:-0.333333 44:-0.333333 45:-1 46:-1 47:0.333333 48:-1 49:-1 50:-0.333333 51:-0.333333 52:-0.333333 53:-1 54:-1 55:0.333333 56:0.333333 57:1 58:1 59:1 60:0.333333 
279.508497187 1:-0.333333 2:-1 3:-0.333333 4:0.333333 5:0.333333 6:0.333333 7:1 8:-0.333333 9:-0.333333 10:0.333333 11:0.333333 12:0.333333 13:1 14:-0.333333 15:-1 16:0.333333 17:0.333333 18:-0.333333 19:-1 20:-0.333333 21:-1 22:0.333333 23:0.333333 24:1 25:-0.333333 26:-0.333333 27:-0.333333 28:0.333333 29:0.333333 30:1 31:-0.333333 32:1 33:-0.333333 34:-1 35:-0.333333 36:1 37:-0.333333 38:0.333333 39:-0.333333 40:-0.333333 41:-0.333333 42:-0.333333 43:1 44:1 45:-0.333333 46:-0.333333 47:-0.333333 48:-1 49:-0.333333 50:-0.333333 51:-0.333333 52:-1 53:-1 54:-1 55:0.333333 56:-0.333333 57:-0.333333 58:0.333333 59:0.333333 60:1 
6.357624093658209 1:-0.333333 2:-0.333333 3:0.333333 4:-0.333333 5:0.333333 6:1 7:1 8:1 9:-0.333333 10:1 11:0.333333 12:1 13:-0.333333 14:-0.333333 15:-0.333333 16:-1 17:-0.333333 18:-0.333333 19:0.333333 20:-0.333333 21:-0.333333 22:1 23:1 24:-1 25:0.333333 26:1 27:-0.333333 28:-1 29:-1 30:-0.333333 31:0.333333 32:-1 33:-0.333333 34:-0.333333 35:0.333333 36:-1 37:1 38:-0.333333 39:-1 40:-1 41:-0.333333 42:-0.333333 43:-1 44:-0.333333 45:-0.333333 46:-0.333333 47:-1 48:-0.333333 49:0.333333 50:-1 51:-0.333333 52:-0.333333 53:-0.333333 54:-1 55:-0.333333 56:-1 57:-0.333333 58:1 59:-0.333333 60:-0.333333 
0.4983877167609423 1:-0.333333 2:0.333333 3:1 4:-1 5:-1 6:1 7:-1 8:-1 9:-1 10:-1 11:-1 12:0.333333 13:-1 14:-1 15:-0.333333 16:0.333333 17:-1 18:0.333333 19:1 20:-1 21:1 22:1 23:-0.333333 24:1 25:1 26:0.333333 27:-1 28:-1 29:0.333333 30:1 31:1 32:1 33:1 34:-1 35:-0.333333 36:-0.333333 37:1 38:-0.333333 39:1 40:-0.333333 41:1 42:-0.333333 43:1 44:-1 45:0.333333 46:1 47:1 48:1 49:-0.333333 50:-0.333333 51:-1 52:-0.333333 53:0.333333 54:0.333333 55:-1 56:0.333333 57:0.333333 58:-1 59:1 60:1 
13.73661142149837 1:0.333333 2:0.333333 3:1 4:-0.333333 5:-0.333333 6:-1 7:0.333333 8:1 9:1 10:1 11:0.333333 12:1 13:1 14:-0.333333 15:0.333333 16:0.333333 17:1 18:0.333333 19:1 20:1 21:0.333333 22:0.333333 23:0.333333 24:0.333333 25:0.333333 26:-1 27:0.333333 28:0.333333 29:-1 30:-0.333333 31:0.333333 32:1 33:-0.333333 34:-0.333333 35:-1 36:-0.333333 37:-1 38:-0.333333 39:-1 40:-1 41:-1 42:-0.333333 43:-0.333333 44:0.333333 45:0.333333 46:-1 47:-1 48:-0.333333 49:0.333333 50:-0.333333 51:-0.333333 52:-1 53:0.333333 54:0.333333 55:-1 56:-0.333333 57:-1 58:-0.333333 59:0.333333 60:1 
6.538653593182054 1:-0.333333 2:-0.333333 3:1 4:-1 5:1 6:-0.333333 7:-1 8:-0.333333 9:-1 10:-1 11:1 12:0.333333 13:1 14:-1 15:-0.333333 16:-0.333333 17:0.333333 18:-1 19:-0.333333 20:-0.333333 21:-0.333333 22:-0.333333 23:0.333333 24:-1 25:-0.333333 26:-0.333333 27:-0.333333 28:-0.333333 29:-1 30:-0.333333 31:1 32:1 33:-1 34:0.333333 35:-1 36:-0.333333 37:1 38:0.333333 39:0.333333 40:0.333333 41:1 42:1 43:1 44:1 45:-1 46:0.333333 47:-1 48:-0.333333 49:-1 50:1 51:-1 52:-0.333333 53:-1 54:-1 55:-1 56:-1 57:-1 58:0.333333 59:-1 60:-0.333333 
3.696493867962982 1:-1 2:-0.333333 3:-0.333333 4:-0.333333 5:0.333333 6:-1 7:1 8:-0.333333 9:-0.333333 10:1 11:-0.333333 12:-1 13:-1 14:-1 15:-1 16:-1 17:-0.333333 18:-0.333333 19:-1 20:-1 21:-1 22:1 23:-1 24:1 25:0.333333 26:1 27:1 28:0.333333 29:0.333333 30:-0.333333 31:1 32:1 33:0.333333 34:-1 35:-1 36:-1 37:-1 38:0.333333 39:1 40:-0.333333 41:-0.333333 42:-1 43:-1 44:-1 45:1 46:-1 47:-1 48:-0.333333 49:0.333333 50:1 51:1 52:1 53:0.333333 54:1 55:-0.333333 56:-1 57:-0.333333 58:-1 59:-1 60:-1 
3.126731088695279 1:0.333333 2:1 3:1 4:-1 5:0.333333 6:1 7:0.333333 8:1 9:1 10:1 11:1 12:1 13:1 14:1 15:0.333333 16:0.333333 17:0.333333 18:0.333333 19:0.333333 20:0.333333 21:1 22:1 23:0.333333 24:1 25:1 26:-1 27:-1 28:-1 29:0.333333 30:0.333333 31:-1 32:0.333333 33:0.333333 34:-1 35:-0.333333 36:1 37:-0.333333 38:-0.333333 39:1 40:1 41:0.333333 42:-1 43:1 44:1 45:1 46:1 47:1 48:-1 49:-1 50:-0.333333 51:-0.333333 52:1 53:1 54:1 55:1 56:1 57:1 58:0.333333 59:-1 60:1 
5.703689871833086 1:0.333333 2:1 3:-0.333333 4:-0.333333 5:-0.333333 6:-1 7:-1 8:-0.333333 9:1 10:-0.333333 11:-1 12:-0.333333 13:0.333333 14:1 15:0.333333 16:-0.333333 17:0.333333 18:-1 19:-0.333333 20:1 21:-0.333333 22:1 23:-0.333333 24:0.333333 25:1 26:-0.333333 27:-1 28:0.333333 29:-1 30:0.333333 31:0.333333 32:-1 33:-0.333333 34:-1 35:-1 36:-1 37:-1 38:-0.333333 39:1 40:-0.333333 41:0.333333 42:0.333333 43:1 44:0.333333 45:1 46:-0.333333 47:-0.333333 48:-1 49:0.333333 50:1 51:0.333333 52:-1 53:1 54:0.333333 55:0.333333 56:0.333333 57:0.333333 58:1 59:-0.333333 60:0.333333 
1.164115127762489 1:-1 2:-1 3:-0.333333 4:0.333333 5:0.333333 6:1 7:1 8:0.333333 9:-0.333333 10:1 11:1 12:-0.333333 13:-0.333333 14:-1 15:-1 16:-1 17:0.333333 18:-0.333333 19:-0.333333 20:-0.333333 21:-1 22:-1 23:1 24:-1 25:1 26:0.333333 27:1 28:1 29:0.333333 30:0.333333 31:0.333333 32:0.333333 33:1 34:1 35:-0.333333 36:-1 37:-1 38:-1 39:0.333333 40:1 41:-1 42:-0.333333 43:-1 44:0.333333 45:-1 46:-0.333333 47:-1 48:-1 49:-0.333333 50:0.333333 51:-1 52:1 53:1 54:0.333333 55:1 56:0.333333 57:-1 58:-0.333333 59:-1 60:-1 
11.02100940603142 1:-0.333333 2:0.333333 3:0.333333 4:1 5:-0.333333 6:0.333333 7:-0.333333 8:-0.333333 9:-0.333333 10:-0.333333 11:-1 12:-0.333333 13:0.333333 14:-1 15:0.333333 16:0.333333 17:1 18:-0.333333 19:-0.333333 20:-1 21:-0.333333 22:-0.333333 23:0.333333 24:0.333333 25:1 26:1 27:1 28:-0.333333 29:0.333333 30:1 31:1 32:1 33:-0.333333 34:0.333333 35:1 36:-0.333333 37:-0.333333 38:-1 39:-0.333333 40:0.333333 41:-0.333333 42:0.333333 43:1 44:1 45:0.333333 46:-1 47:-0.333333 48:0.333333 49:-0.333333 50:-0.333333 51:0.333333 52:1 53:-1 54:0.333333 55:0.333333 56:-0.333333 57:-0.333333 58:-0.333333 59:-1 60:-1 
2.203411855329443 1:-1 2:-0.333333 3:1 4:-1 5:-0.333333 6:0.333333 7:0.333333 8:-1 9:-1 10:-1 11:-0.333333 12:-1 13:0.333333 14:0.333333 15:-1 16:1 17:0.333333 18:-1 19:-0.333333 20:0.333333 21:-0.333333 22:1 23:1 24:1 25:0.333333 26:0.333333 27:1 28:1 29:1 30:-1 31:1 32:-0.333333 33:1 34:-0.333333 35:1 36:-0.333333 37:-1 38:-0.333333 39:-1 40:-1 41:1 42:1 43:-0.333333 44:-1 45:-1 46:-1 47:1 48:-0.333333 49:-1 50:0.333333 51:1 52:-1 53:-0.333333 54:0.333333 55:-1 56:1 57:1 58:-1 59:1 60:1 
2.522837228244204 1:-1 2:1 3:-0.333333 4:0.333333 5:-1 6:-0.333333 7:0.333333 8:-1 9:0.333333 10:0.333333 11:1 12:1 13:0.333333 14:-1 15:-0.333333 16:-0.333333 17:1 18:0.333333 19:1 20:1 21:-0.333333 22:-1 23:-0.333333 24:0.333333 25:1 26:0.333333 27:1 28:-1 29:1 30:-0.333333 31:0.333333 32:-1 33:-0.333333 34:-0.333333 35:-0.333333 36:-1 37:-0.333333 38:-0.333333 39:1 40:-1 41:-1 42:-0.333333 43:0.333333 44:0.333333 45:-1 46:0.333333 47:-0.333333 48:-0.333333 49:-1 50:-1 51:-0.333333 52:1 53:0.333333 54:-1 55:0.333333 56:-1 57:-1 58:-0.333333 59:0.333333 60:-1 
6.835944483181317 1:1 2:0.333333 3:1 4:0.333333 5:-1 6:-1 7:1 8:0.333333 9:0.333333 10:1 11:1 12:1 13:0.333333 14:0.333333 15:0.333333 16:1 17:-0.333333 18:1 19:-1 20:-1 21:0.333333 22:1 23:0.333333 24:0.333333 25:1 26:-0.333333 27:0.333333 28:0.333333 29:-1 30:-0.333333 31:-1 32:-0.333333 33:1 34:1 35:0.333333 36:0.333333 37:1 38:-0.333333 39:-0.333333 40:-1 41:1 42:-0.333333 43:-1 44:1 45:-0.333333 46:-1 47:0.333333 48:-1 49:1 50:1 51:-1 52:0.333333 53:1 54:-0.333333 55:-1 56:1 57:-0.333333 58:-1 59:0.333333 60:-1 
2.30801921868029 1:-1 2:0.333333 3:-1 4:-1 5:-0.333333 6:-1 7:-1 8:-0.333333 9:-0.333333 10:-1 11:1 12:-0.333333 13:-0.333333 14:-1 15:-0.333333 16:0.333333 17:1 18:-0.333333 19:-1 20:0.333333 21:1 22:1 23:0.333333 24:-1 25:0.333333 26:0.333333 27:-1 28:-1 29:-0.333333 30:1 31:-0.333333 32:-0.333333 33:0.333333 34:-1 35:1 36:1 37:-0.333333 38:1 39:-0.333333 40:1 41:1 42:0.333333 43:1 44:-0.333333 45:-1 46:-1 47:-0.333333 48:-1 49:1 50:1 51:-0.333333 52:-0.333333 53:-0.333333 54:-0.333333 55:-1 56:-1 57:0.333333 58:-1 59:0.333333 60:-1 
1.653122637993465 1:-1 2:1 3:1 4:0.333333 5:1 6:-1 7:0.333333 8:1 9:1 10:-1 11:-0.333333 12:1 13:-1 14:-1 15:-1 16:0.333333 17:-1 18:1 19:-1 20:-1 21:1 22:1 23:1 24:0.333333 25:1 26:1 27:-0.333333 28:1 29:-0.333333 30:0.333333 31:1 32:-1 33:-0.333333 34:-1 35:1 36:-1 37:-1 38:0.333333 39:0.333333 40:-1 41:-1 42:-1 43:1 44:1 45:-1 46:-1 47:-0.333333 48:-1 49:-1 50:-1 51:-1 52:0.333333 53:0.333333 54:-1 55:-1 56:-1 57:-1 58:0.333333 59:-1 60:-1 
11.20415808098482 1:1 2:0.333333 3:-1 4:-1 5:0.333333 6:0.333333 7:-1 8:1 9:1 10:-1 11:-1 12:1 13:-0.333333 14:1 15:0.333333 16:1 17:0.333333 18:1 19:1 20:0.333333 21:0.333333 22:1 23:1 24:0.333333 25:0.333333 26:1 27:-0.333333 28:0.333333 29:-1 30:-0.333333 31:0.333333 32:-0.333333 33:1 34:1 35:1 36:-0.333333 37:1 38:-0.333333 39:-1 40:-0.333333 41:-0.333333 42:0.333333 43:-1 44:1 45:-1 46:1 47:0.333333 48:0.333333 49:1 50:-0.333333 51:1 52:0.333333 53:-0.333333 54:-0.333333 55:-0.333333 56:-0.333333 57:1 58:-0.333333 59:-1 60:0.333333 
12.87058068428568 1:0.333333 2:1 3:0.333333 4:-0.333333 5:-0.333333 6:-0.333333 7:0.333333 8:-1 9:-0.333333 10:0.333333 11:-1 12:-0.333333 13:1 14:0.333333 15:-1 16:1 17:1 18:-0.333333 19:0.333333 20:1 21:-0.333333 22:1 23:0.333333 24:-1 25:0.333333 26:0.333333 27:0.333333 28:-0.333333 29:0.333333 30:1 31:0.333333 32:1 33:-0.333333 34:0.333333 35:0.333333 36:0.333333 37:-1 38:-0.333333 39:-0.333333 40:0.333333 41:1 42:-0.333333 43:0.333333 44:0.333333 45:0.333333 46:-0.333333 47:0.333333 48:0.333333 49:-1 50:-0.333333 51:-0.333333 52:1 53:0.333333 54:0.333333 55:-1 56:0.333333 57:1 58:1 59:-1 60:1 
8.966336729609473 1:-1 2:-0.333333 3:-0.333333 4:-0.333333 5:-0.333333 6:1 7:-0.333333 8:0.333333 9:1 10:0.333333 11:0.333333 12:1 13:-0.333333 14:-0.333333 15:0.333333 16:-1 17:-1 18:1 19:0.333333 20:-0.333333 21:1 22:-0.333333 23:-0.333333 24:1 25:1 26:1 27:1 28:0.333333 29:0.333333 30:-1 31:-0.333333 32:-0.333333 33:0.333333 34:1 35:0.333333 36:1 37:-0.333333 38:-1 39:1 40:-0.333333 41:-0.333333 42:1 43:1 44:1 45:-1 46:0.333333 47:0.333333 48:1 49:-0.333333 50:-0.333333 51:-0.333333 52:0.333333 53:0.333333 54:-1 55:-1 56:-1 57:-0.333333 58:-0.333333 59:-0.333333 60:1 
12.00288307818921 1:-1 2:0.333333 3:0.333333 4:1 5:0.333333 6:-0.333333 7:-0.333333 8:-0.333333 9:0.333333 10:0.333333 11:1 12:-0.333333 13:0.333333 14:-0.333333 15:-0.333333 16:0.333333 17:-1 18:1 19:-0.333333 20:1 21:-0.333333 22:0.333333 23:-1 24:-0.333333 25:0.333333 26:1 27:-0.333333 28:-0.333333 29:0.333333 30:0.333333 31:1 32:1 33:0.333333 34:1 35:1 36:0.333333 37:0.333333 38:0.333333 39:1 40:0.333333 41:0.333333 42:0.333333 43:-0.333333 44:-0.333333 45:0.333333 46:-1 47:0.333333 48:0.333333 49:-0.333333 50:1 51:-0.333333 52:0.333333 53:-1 54:1 55:0.333333 56:0.333333 57:-0.333333 58:0.333333 59:1 60:-0.333333 
2.745353779099472 1:-1 2:0.333333 3:0.333333 4:1 5:0.333333 6:-1 7:-1 8:-1 9:1 10:1 11:-0.333333 12:-1 13:-1 14:0.333333 15:-0.333333 16:-1 17:1 18:1 19:-1 20:-1 21:-1 22:-1 23:-1 24:1 25:1 26:0.333333 27:-1 28:-1 29:-1 30:-0.333333 31:0.333333 32:-1 33:1 34:-1 35:-0.333333 36:0.333333 37:0.333333 38:0.333333 39:1 40:-0.333333 41:-1 42:-1 43:-1 44:-0.333333 45:-1 46:-0.333333 47:-1 48:-1 49:-1 50:-0.333333 51:-0.333333 52:-1 53:0.333333 54:-1 55:-1 56:-0.333333 57:-0.333333 58:-1 59:0.333333 60:0.333333 
1.190393574222664 1:-1 2:-0.333333 3:-0.333333 4:-1 5:-0.333333 6:-1 7:-0.333333 8:-0.333333 9:-1 10:-1 11:1 12:-1 13:-0.333333 14:-0.333333 15:1 16:1 17:1 18:-0.333333 19:-0.333333 20:-0.333333 21:-1 22:-1 23:-1 24:1 25:-1 26:-1 27:-1 28:1 29:0.333333 30:0.333333 31:1 32:-0.333333 33:0.333333 34:1 35:-0.333333 36:-1 37:0.333333 38:-1 39:1 40:1 41:-0.333333 42:-0.333333 43:-1 44:-1 45:-1 46:0.333333 47:0.333333 48:0.333333 49:0.333333 50:-1 51:-1 52:-0.333333 53:-0.333333 54:-1 55:-1 56:-0.333333 57:0.333333 58:0.333333 59:1 60:0.333333 
5.382863620712343 1:-1 2:-0.333333 3:1 4:0.333333 5:1 6:1 7:-0.333333 8:0.333333 9:1 10:-0.333333 11:1 12:0.333333 13:0.333333 14:1 15:-0.333333 16:-0.333333 17:0.333333 18:-1 19:0.333333 20:1 21:-0.333333 22:0.333333 23:1 24:0.333333 25:1 26:-1 27:-1 28:-0.333333 29:-0.333333 30:-0.333333 31:0.333333 32:1 33:1 34:1 35:-1 36:1 37:-1 38:0.333333 39:1 40:1 41:-1 42:1 43:1 44:1 45:-0.333333 46:0.333333 47:1 48:0.333333 49:-1 50:0.333333 51:1 52:1 53:-1 54:-0.333333 55:1 56:0.333333 57:0.333333 58:1 59:0.333333 60:-1 
4.914980661945921 1:0.333333 2:-1 3:-0.333333 4:-0.333333 5:1 6:-0.333333 7:1 8:1 9:-0.333333 10:-1 11:0.333333 12:-1 13:-1 14:-0.333333 15:-1 16:-1 17:0.333333 18:0.333333 19:0.333333 20:1 21:-0.333333 22:-0.333333 23:-1 24:-0.333333 25:-0.333333 26:-0.333333 27:-1 28:-0.333333 29:-0.333333 30:-1 31:-0.333333 32:-1 33:-0.333333 34:0.333333 35:-1 36:-0.333333 37:-0.333333 38:-0.333333 39:-1 40:-1 41:-1 42:-0.333333 43:-0.333333 44:1 45:0.333333 46:-1 47:-0.333333 48:-1 49:-1 50:-1 51:-0.333333 52:-0.333333 53:-0.333333 54:-1 55:-1 56:-0.333333 57:-1 58:0.333333 59:0.333333 60:0.333333 
13.84664788812297 1:1 2:-0.333333 3:1 4:1 5:0.333333 6:0.333333 7:-1 8:1 9:-0.333333 10:-1 11:0.333333 12:0.333333 13:0.333333 14:0.333333 15:0.333333 16:0.333333 17:0.333333 18:-1 19:0.333333 20:0.333333 21:-0.333333 22:0.333333 23:0.333333 24:1 25:1 26:1 27:-1 28:0.333333 29:-1 30:-0.333333 31:1 32:-0.333333 33:1 34:1 35:0.333333 36:0.333333 37:1 38:-0.333333 39:-0.333333 40:0.333333 41:1 42:0.333333 43:0.333333 44:1 45:0.333333 46:-1 47:-0.333333 48:0.333333 49:-1 50:-1 51:-0.333333 52:0.333333 53:-1 54:0.333333 55:-0.333333 56:-0.333333 57:1 58:0.333333 59:-0.333333 60:0.333333 
4.473069284887088 1:-1 2:-1 3:1 4:-1 5:-1 6:0.333333 7:0.333333 8:1 9:1 10:0.333333 11:1 12:-0.333333 13:0.333333 14:1 15:-0.333333 16:-0.333333 17:0.333333 18:0.333333 19:0.333333 20:0.333333 21:1 22:0.333333 23:1 24:-0.333333 25:0.333333 26:0.333333 27:1 28:1 29:-1 30:-0.333333 31:-0.333333 32:-1 33:-1 34:1 35:0.333333 36:-1 37:1 38:1 39:1 40:1 41:1 42:-1 43:-1 44:1 45:-1 46:-1 47:1 48:-0.333333 49:-0.333333 50:-1 51:0.333333 52:0.333333 53:1 54:-1 55:0.333333 56:0.333333 57:1 58:-0.333333 59:-0.333333 60:-1 
4.935240883684604 1:-0.333333 2:-0.333333 3:-1 4:0.333333 5:-1 6:-0.333333 7:-0.333333 8:-1 9:1 10:-0.333333 11:1 12:-1 13:-0.333333 14:0.333333 15:1 16:0.333333 17:1 18:0.333333 19:-1 20:-0.333333 21:-0.333333 22:1 23:-0.333333 24:1 25:-0.333333 26:-1 27:1 28:0.333333 29:0.333333 30:-1 31:-1 32:1 33:1 34:1 35:0.333333 36:-0.333333 37:-0.333333 38:-0.333333 39:1 40:0.333333 41:-1 42:1 43:-0.333333 44:1 45:-1 46:1 47:0.333333 48:0.333333 49:0.333333 50:1 51:1 52:1 53:-1 54:1 55:1 56:-0.333333 57:-0.333333 58:1 59:-1 60:0.333333 
17.53831728027052 1:0.333333 2:-1 3:1 4:0.333333 5:1 6:-0.333333 7:1 8:-0.333333 9:0.333333 10:0.333333 11:-0.333333 12:-0.333333 13:0.333333 14:1 15:-1 16:0.333333 17:1 18:-0.333333 19:0.333333 20:0.333333 21:0.333333 22:0.333333 23:-1 24:0.333333 25:0.333333 26:-1 27:1 28:-0.333333 29:-1 30:0.333333 31:0.333333 32:0.333333 33:-0.333333 34:0.333333 35:-0.333333 36:1 37:-0.333333 38:0.333333 39:1 40:-0.333333 41:0.333333 42:-1 43:-0.333333 44:-0.333333 45:-0.333333 46:-0.333333 47:-0.333333 48:1 49:0.333333 50:0.333333 51:1 52:-0.333333 53:0.333333 54:0.333333 55:-0.333333 56:-0.333333 57:0.333333 58:0.333333 59:0.333333 60:1 
4.922723819110617 1:0.333333 2:-1 3:0.333333 4:-1 5:-0.333333 6:-0.333333 7:-1 8:0.333333 9:-1 10:0.333333 11:0.333333 12:1 13:0.333333 14:-1 15:0.333333 16:-1 17:-0.333333 18:-1 19:-0.333333 20:-0.333333 21:1 22:0.333333 23:-1 24:0.333333 25:0.333333 26:1 27:0.333333 28:-1 29:0.333333 30:-1 31:0.333333 32:-0.333333 33:-0.333333 34:-0.333333 35:-0.333333 36:0.333333 37:-1 38:0.333333 39:-1 40:0.333333 41:1 42:1 43:0.333333 44:-1 45:0.333333 46:-1 47:0.333333 48:1 49:0.333333 50:-1 51:-0.333333 52:-0.333333 53:1 54:0.333333 55:-1 56:0.333333 57:0.333333 58:1 59:0.333333 60:-1 
2.82051871086666 1:1 2:-1 3:1 4:1 5:0.333333 6:1 7:-0.333333 8:0.333333 9:0.333333 10:-1 11:-1 12:1 13:0.333333 14:-1 15:0.333333 16:-1 17:1 18:1 19:1 20:0.333333 21:1 22:0.333333 23:1 24:1 25:0.333333 26:-1 27:-1 28:0.333333 29:1 30:-1 31:1 32:-0.333333 33:0.333333 34:0.333333 35:1 36:1 37:-0.333333 38:1 39:-0.333333 40:-1 41:1 42:-1 43:1 44:-1 45:-0.333333 46:1 47:1 48:1 49:-0.333333 50:-0.333333 51:0.333333 52:1 53:0.333333 54:1 55:-0.333333 56:1 57:0.333333 58:0.333333 59:0.333333 60:0.333333 
0.08672060628453904 1:-1 2:1 3:0.333333 4:1 5:0.333333 6:-0.333333 7:-0.333333 8:0.333333 9:1 10:0.333333 11:-1 12:0.333333 13:-1 14:-0.333333 15:0.333333 16:-1 17:-1 18:0.333333 19:0.333333 20:1 21:0.333333 22:0.333333 23:-0.333333 24:0.333333 25:0.333333 26:1 27:0.333333 28:0.333333 29:0.333333 30:-1 31:-0.333333 32:-0.333333 33:1 34:1 35:0.333333 36:-1 37:-1 38:-0.333333 39:0.333333 40:0.333333 41:-1 42:1 43:1 44:0.333333 45:1 46:0.333333 47:0.333333 48:1 49:-0.333333 50:0.333333 51:0.333333 52:1 53:0.333333 54:-1 55:-0.333333 56:-0.333333 57:0.333333 58:1 59:0.333333 60:0.333333 
36.81524380226318 1:-0.333333 2:-0.333333 3:-0.333333 4:0.333333 5:1 6:-0.333333 7:0.333333 8:-0.333333 9:1 10:1 11:-0.333333 12:0.333333 13:1 14:-0.333333 15:-0.333333 16:1 17:0.333333 18:-1 19:0.333333 20:-1 21:1 22:1 23:0.333333 24:0.333333 25:1 26:-0.333333 27:-0.333333 28:0.333333 29:-1 30:-0.333333 31:-0.333333 32:1 33:-1 34:1 35:-0.333333 36:-0.333333 37:-0.333333 38:-0.333333 39:0.333333 40:-0.333333 41:-0.333333 42:-0.333333 43:-0.333333 44:0.333333 45:1 46:1 47:-0.333333 48:0.333333 49:1 50:0.333333 51:-0.333333 52:-0.333333 53:1 54:1 55:1 56:1 57:0.333333 58:0.333333 59:0.333333 60:0.333333 
2.825000493912651 1:1 2:-1 3:-1 4:-1 5:-1 6:-1 7:1 8:1 9:-1 10:-1 11:-1 12:-1 13:1 14:-0.333333 15:1 16:-0.333333 17:-1 18:-1 19:1 20:-0.333333 21:1 22:0.333333 23:-1 24:-1 25:0.333333 26:-1 27:-1 28:1 29:-1 30:-1 31:-1 32:-1 33:-1 34:-0.333333 35:0.333333 36:-1 37:-1 38:-0.333333 39:-1 40:0.333333 41:1 42:-1 43:1 44:-0.333333 45:-1 46:-1 47:-1 48:-0.333333 49:-0.333333 50:0.333333 51:1 52:0.333333 53:-1 54:-0.333333 55:-1 56:1 57:1 58:1 59:0.333333 60:1 
2.828475275448469 1:1 2:1 3:-0.333333 4:1 5:-0.333333 6:1 7:-1 8:1 9:-0.333333 10:-0.333333 11:1 12:-0.333333 13:1 14:-0.333333 15:-1 16:-0.333333 17:-0.333333 18:1 19:-1 20:-0.333333 21:-0.333333 22:-0.333333 23:0.333333 24:1 25:1 26:-0.333333 27:-1 28:-0.333333 29:-0.333333 30:1 31:1 32:1 33:-1 34:1 35:-0.333333 36:1 37:1 38:1 39:1 40:-0.333333 41:1 42:1 43:1 44:-1 45:1 46:-0.333333 47:-0.333333 48:-0.333333 49:1 50:-0.333333 51:1 52:-1 53:0.333333 54:-1 55:-0.333333 56:1 57:1 58:-0.333333 59:1 60:1 
9.920695355067386 1:-1 2:-0.333333 3:-0.333333 4:1 5:1 6:0.333333 7:-1 8:-1 9:0.333333 10:-1 11:1 12:0.333333 13:-0.333333 14:-0.333333 15:1 16:-0.333333 17:-0.333333 18:0.333333 19:0.333333 20:0.333333 21:0.333333 22:-1 23:0.333333 24:-1 25:1 26:0.333333 27:0.333333 28:1 29:0.333333 30:0.333333 31:-1 32:1 33:1 34:0.333333 35:0.333333 36:0.333333 37:-1 38:1 39:0.333333 40:1 41:1 42:-0.333333 43:1 44:-0.333333 45:0.333333 46:1 47:0.333333 48:0.333333 49:1 50:-1 51:0.333333 52:1 53:1 54:0.333333 55:1 56:1 57:1 58:-0.333333 59:-1 60:1 
4.045762426960628 1:-0.333333 2:-0.333333 3:0.333333 4:-1 5:0.333333 6:-1 7:0.333333 8:0.333333 9:0.333333 10:1 11:-1 12:1 13:-1 14:-1 15:0.333333 16:-1 17:-1 18:1 19:-0.333333 20:-1 21:-1 22:-1 23:-0.333333 24:-1 25:0.333333 26:-1 27:0.333333 28:-1 29:0.333333 30:-1 31:0.333333 32:0.333333 33:-0.333333 34:-1 35:-0.333333 36:-1 37:-0.333333 38:0.333333 39:1 40:-1 41:0.333333 42:-0.333333 43:0.333333 44:1 45:0.333333 46:-1 47:1 48:0.333333 49:-1 50:0.333333 51:0.333333 52:1 53:1 54:1 55:0.333333 56:1 57:0.333333 58:1 59:-0.333333 60:1 
10.09521383811873 1:-0.333333 2:-0.333333 3:-1 4:0.333333 5:1 6:0.333333 7:-1 8:0.333333 9:-1 10:-0.333333 11:0.333333 12:1 13:-0.333333 14:0.333333 15:0.333333 16:0.333333 17:0.333333 18:0.333333 19:-1 20:-0.333333 21:-1 22:-0.333333 23:0.333333 24:0.333333 25:0.333333 26:-1 27:-0.333333 28:-0.333333 29:0.333333 30:-1 31:-1 32:1 33:-0.333333 34:-0.333333 35:0.333333 36:-1 37:0.333333 38:1 39:-0.333333 40:-1 41:0.333333 42:-0.333333 43:0.333333 44:1 45:1 46:0.333333 47:0.333333 48:0.333333 49:-1 50:1 51:1 52:-1 53:-1 54:-1 55:-0.333333 56:0.333333 57:1 58:0.333333 59:0.333333 60:-1 
1.399831414699921 1:0.333333 2:1 3:-1 4:0.333333 5:-1 6:1 7:-0.333333 8:0.333333 9:1 10:0.333333 11:1 12:1 13:-1 14:-1 15:-1 16:0.333333 17:1 18:0.333333 19:-1 20:-0.333333 21:-0.333333 22:-0.333333 23:1 24:-0.333333 25:-0.333333 26:-0.333333 27:-1 28:-0.333333 29:-1 30:-1 31:-0.333333 32:-1 33:1 34:1 35:1 36:0.333333 37:-1 38:0.333333 39:0.333333 40:-1 41:0.333333 42:1 43:-1 44:0.333333 45:-1 46:-0.333333 47:-1 48:-0.333333 49:-0.333333 50:-0.333333 51:1 52:-0.333333 53:1 54:1 55:0.333333 56:1 57:1 58:1 59:0.333333 60:0.333333 
3.898975221165383 1:-1 2:1 3:-0.333333 4:0.333333 5:1 6:1 7:0.333333 8:-1 9:-1 10:-1 11:-0.333333 12:-0.333333 13:0.333333 14:1 15:1 16:0.333333 17:1 18:-1 19:-0.333333 20:-0.333333 21:0.333333 22:0.333333 23:0.333333 24:-1 25:1 26:0.333333 27:0.333333 28:0.333333 29:-0.333333 30:-0.333333 31:-0.333333 32:-1 33:-1 34:-0.333333 35:1 36:-0.333333 37:1 38:1 39:-1 40:-1 41:1 42:-0.333333 43:-1 44:-0.333333 45:0.333333 46:1 47:-0.333333 48:1 49:-0.333333 50:-0.333333 51:-1 52:0.333333 53:1 54:-0.333333 55:-0.333333 56:1 57:1 58:0.333333 59:-1 60:0.333333 
18.23943626235713 1:0.333333 2:1 3:1 4:0.333333 5:0.333333 6:-0.333333 7:0.333333 8:-1 9:0.333333 10:0.333333 11:0.333333 12:-1 13:-0.333333 14:0.333333 15:-0.333333 16:0.333333 17:-0.333333 18:1 19:0.333333 20:-0.333333 21:-1 22:0.333333 23:0.333333 24:1 25:1 26:1 27:-1 28:0.333333 29:0.333333 30:-1 31:-0.333333 32:0.333333 33:-1 34:-0.333333 35:-0.333333 36:0.333333 37:0.333333 38:1 39:0.333333 40:0.333333 41:0.333333 42:0.333333 43:-1 44:0.333333 45:0.333333 46:-1 47:-0.333333 48:-1 49:1 50:-0.333333 51:0.333333 52:0.333333 53:0.333333 54:1 55:-0.333333 56:0.333333 57:-0.333333 58:0.333333 59:1 60:-0.333333 
8.293392072835134 1:-0.333333 2:-0.333333 3:-1 4:0.333333 5:0.333333 6:-1 7:0.333333 8:0.333333 9:0.333333 10:0.333333 11:0.333333 12:-1 13:0.333333 14:-1 15:-1 16:-0.333333 17:-0.333333 18:-1 19:-0.333333 20:-0.333333 21:0.333333 22:-1 23:-1 24:0.333333 25:0.333333 26:-1 27:-0.333333 28:0.333333 29:0.333333 30:1 31:0.333333 32:-1 33:-1 34:-0.333333 35:-0.333333 36:1 37:0.333333 38:0.333333 39:0.333333 40:0.333333 41:0.333333 42:-1 43:0.333333 44:0.333333 45:1 46:0.333333 47:0.333333 48:1 49:0.333333 50:0.333333 51:-1 52:-0.333333 53:-0.333333 54:-1 55:-1 56:-1 57:-0.333333 58:0.333333 59:0.333333 60:-1 
2.252062377120897 1:-0.333333 2:0.333333 3:-0.333333 4:-1 5:-0.333333 6:0.333333 7:0.333333 8:0.333333 9:-0.333333 10:1 11:-0.333333 12:-0.333333 13:1 14:-0.333333 15:-1 16:0.333333 17:0.333333 18:1 19:-0.333333 20:-0.333333 21:-0.333333 22:1 23:-0.333333 24:1 25:0.333333 26:1 27:0.333333 28:-1 29:-0.333333 30:0.333333 31:1 32:-0.333333 33:1 34:1 35:0.333333 36:0.333333 37:1 38:-0.333333 39:-0.333333 40:-1 41:0.333333 42:-1 43:1 44:-0.333333 45:-1 46:0.333333 47:1 48:-0.333333 49:-1 50:-1 51:-0.333333 52:1 53:0.333333 54:0.333333 55:1 56:-0.333333 57:0.333333 58:0.333333 59:0.333333 60:1 
4.645747127748081 1:1 2:0.333333 3:0.333333 4:0.333333 5:-1 6:0.333333 7:-1 8:0.333333 9:-0.333333 10:-0.333333 11:1 12:1 13:0.333333 14:-1 15:-0.333333 16:-1 17:1 18:-1 19:-1 20:1 21:0.333333 22:0.333333 23:0.333333 24:1 25:-0.333333 26:0.333333 27:1 28:-0.333333 29:0.333333 30:-1 31:1 32:1 33:1 34:1 35:-1 36:0.333333 37:0.333333 38:0.333333 39:1 40:0.333333 41:-1 42:1 43:0.333333 44:-1 45:1 46:-0.333333 47:0.333333 48:-1 49:0.333333 50:0.333333 51:-1 52:0.333333 53:1 54:1 55:1 56:-1 57:-0.333333 58:0.333333 59:0.333333 60:-1 
2.500001112859925 1:-1 2:-1 3:1 4:1 5:1 6:-0.333333 7:0.333333 8:1 9:0.333333 10:0.333333 11:1 12:-1 13:-1 14:1 15:1 16:0.333333 17:-1 18:-0.333333 19:1 20:-0.333333 21:1 22:0.333333 23:0.333333 24:-1 25:1 26:-0.333333 27:1 28:1 29:1 30:0.333333 31:1 32:-0.333333 33:-1 34:-0.333333 35:0.333333 36:0.333333 37:1 38:0.333333 39:0.333333 40:-1 41:-0.333333 42:-1 43:0.333333 44:0.333333 45:-1 46:1 47:0.333333 48:-0.333333 49:0.333333 50:1 51:-1 52:1 53:-0.333333 54:-1 55:-0.333333 56:0.333333 57:1 58:1 59:0.333333 60:0.333333 
8.080508337272374 1:-1 2:1 3:1 4:-0.333333 5:-1 6:-1 7:-1 8:0.333333 9:-1 10:0.333333 11:-1 12:-0.333333 13:-1 14:-0.333333 15:0.333333 16:-1 17:0.333333 18:0.333333 19:-1 20:-0.333333 21:0.333333 22:1 23:0.333333 24:1 25:-0.333333 26:-1 27:-0.333333 28:-0.333333 29:-1 30:-1 31:0.333333 32:1 33:0.333333 34:-0.333333 35:1 36:0.333333 37:0.333333 38:0.333333 39:-1 40:-1 41:-0.333333 42:0.333333 43:0.333333 44:0.333333 45:0.333333 46:0.333333 47:0.333333 48:-1 49:1 50:0.333333 51:1 52:0.333333 53:0.333333 54:-1 55:0.333333 56:1 57:1 58:0.333333 59:0.333333 60:1 
89.63999635347055 1:-1 2:-0.333333 3:-0.333333 4:-0.333333 5:0.333333 6:0.333333 7:0.333333 8:0.333333 9:1 10:1 11:-1 12:0.333333 13:-0.333333 14:1 15:1 16:0.333333 17:0.333333 18:0.333333 19:0.333333 20:1 21:0.333333 22:1 23:1 24:1 25:1 26:0.333333 27:0.333333 28:0.333333 29:-1 30:-0.333333 31:-1 32:-0.333333 33:0.333333 34:0.333333 35:-0.333333 36:-0.333333 37:0.333333 38:1 39:1 40:0.333333 41:0.333333 42:0.333333 43:-1 44:-0.333333 45:0.333333 46:0.333333 47:0.333333 48:-1 49:0.333333 50:0.333333 51:-1 52:1 53:0.333333 54:0.333333 55:0.333333 56:0.333333 57:-1 58:1 59:0.333333 60:-0.333333 
6.665633279750431 1:-1 2:0.333333 3:1 4:-0.333333 5:-0.333333 6:0.333333 7:0.333333 8:-0.333333 9:1 10:-0.333333 11:1 12:-0.333333 13:-0.333333 14:1 15:1 16:1 17:1 18:-1 19:-0.333333 20:-0.333333 21:1 22:-0.333333 23:-0.333333 24:-1 25:0.333333 26:0.333333 27:-1 28:-0.333333 29:-0.333333 30:-1 31:-1 32:-0.333333 33:0.333333 34:1 35:-1 36:1 37:1 38:1 39:0.333333 40:1 41:-0.333333 42:-0.333333 43:0.333333 44:-1 45:-1 46:-0.333333 47:-0.333333 48:0.333333 49:0.333333 50:-1 51:-0.333333 52:-1 53:1 54:0.333333 55:0.333333 56:1 57:-0.333333 58:1 59:0.333333 60:1 
7.62617643132917 1:-1 2:-1 3:0.333333 4:1 5:0.333333 6:1 7:0.333333 8:1 9:1 10:1 11:0.333333 12:1 13:0.333333 14:0.333333 15:-1 16:1 17:1 18:1 19:0.333333 20:1 21:1 22:-0.333333 23:0.333333 24:0.333333 25:1 26:1 27:1 28:0.333333 29:-1 30:-0.333333 31:-1 32:-1 33:-0.333333 34:-1 35:-1 36:0.333333 37:-1 38:1 39:-0.333333 40:1 41:-0.333333 42:-1 43:1 44:0.333333 45:-1 46:1 47:0.333333 48:0.333333 49:-1 50:-0.333333 51:-0.333333 52:0.333333 53:0.333333 54:-0.333333 55:-1 56:-0.333333 57:1 58:1 59:0.333333 60:1 
6.296915981539755 1:-1 2:-1 3:-1 4:-0.333333 5:-1 6:-0.333333 7:1 8:0.333333 9:0.333333 10:-1 11:-0.333333 12:-0.333333 13:-1 14:0.333333 15:0.333333 16:-1 17:-0.333333 18:-1 19:1 20:-0.333333 21:-0.333333 22:-1 23:1 24:1 25:0.333333 26:-1 27:0.333333 28:-1 29:-0.333333 30:0.333333 31:0.333333 32:-1 33:-1 34:-1 35:1 36:1 37:0.333333 38:1 39:-1 40:0.333333 41:0.333333 42:-1 43:-0.333333 44:-1 45:-0.333333 46:-0.333333 47:1 48:-1 49:0.333333 50:-1 51:-1 52:-0.333333 53:-0.333333 54:1 55:-0.333333 56:-0.333333 57:-1 58:-1 59:0.333333 60:1 
3.965526813824055 1:-1 2:-1 3:0.333333 4:-1 5:-0.333333 6:-1 7:-0.333333 8:-1 9:-0.333333 10:-1 11:-0.333333 12:-1 13:-1 14:0.333333 15:-1 16:-0.333333 17:0.333333 18:-0.333333 19:-0.333333 20:0.333333 21:-1 22:-1 23:-0.333333 24:0.333333 25:0.333333 26:0.333333 27:-1 28:-1 29:-0.333333 30:-1 31:-1 32:-0.333333 33:0.333333 34:0.333333 35:0.333333 36:-0.333333 37:-0.333333 38:-0.333333 39:-1 40:0.333333 41:1 42:0.333333 43:0.333333 44:1 45:-0.333333 46:-1 47:-0.333333 48:-1 49:-1 50:0.333333 51:-1 52:-1 53:1 54:-1 55:-1 56:-0.333333 57:-0.333333 58:-1 59:-0.333333 60:1 
3.789638751356573 1:-0.333333 2:0.333333 3:0.333333 4:-1 5:0.333333 6:1 7:1 8:0.333333 9:-1 10:-0.333333 11:0.333333 12:-1 13:-1 14:-0.333333 15:1 16:1 17:0.333333 18:-1 19:1 20:1 21:0.333333 22:0.333333 23:1 24:-0.333333 25:-1 26:-0.333333 27:-0.333333 28:-0.333333 29:0.333333 30:1 31:0.333333 32:0.333333 33:0.333333 34:-1 35:-0.333333 36:-1 37:-0.333333 38:-1 39:-0.333333 40:1 41:-0.333333 42:-0.333333 43:-0.333333 44:-0.333333 45:0.333333 46:1 47:-0.333333 48:-0.333333 49:1 50:1 51:-0.333333 52:0.333333 53:0.333333 54:-1 55:-0.333333 56:1 57:0.333333 58:-1 59:-0.333333 60:-1 
2.420231973896537 1:-1 2:-1 3:-1 4:0.333333 5:1 6:-1 7:0.333333 8:0.333333 9:0.333333 10:0.333333 11:1 12:-1 13:-1 14:-1 15:-1 16:-0.333333 17:0.333333 18:0.333333 19:-1 20:-1 21:-1 22:-1 23:1 24:-0.333333 25:-0.333333 26:-0.333333 27:-1 28:-1 29:-1 30:-0.333333 31:-0.333333 32:-1 33:-1 34:-1 35:-1 36:-0.333333 37:-1 38:0.333333 39:1 40:0.333333 41:-1 42:1 43:-1 44:1 45:0.333333 46:-1 47:-1 48:0.333333 49:-1 50:1 51:1 52:-0.333333 53:1 54:0.333333 55:-0.333333 56:1 57:0.333333 58:-1 59:1 60:1 
4.607180657415845 1:-0.333333 2:0.333333 3:0.333333 4:-1 5:1 6:-0.333333 7:-0.333333 8:-1 9:-1 10:-1 11:-1 12:-0.333333 13:0.333333 14:-1 15:0.333333 16:0.333333 17:-1 18:-0.333333 19:-1 20:-1 21:-0.333333 22:0.333333 23:-0.333333 24:-0.333333 25:-0.333333 26:0.333333 27:0.333333 28:-1 29:-1 30:-1 31:-0.333333 32:-1 33:1 34:-0.333333 35:-1 36:-1 37:-1 38:-1 39:1 40:-0.333333 41:-0.333333 42:-1 43:-0.333333 44:0.333333 45:1 46:-0.333333 47:1 48:1 49:1 50:-0.333333 51:1 52:-0.333333 53:0.333333 54:-1 55:-1 56:0.333333 57:-1 58:-0.333333 59:-1 60:0.333333 
5.548724312845211 1:1 2:-0.333333 3:0.333333 4:1 5:0.333333 6:0.333333 7:-1 8:-0.333333 9:-0.333333 10:-0.333333 11:-1 12:-0.333333 13:0.333333 14:1 15:-0.333333 16:-1 17:-0.333333 18:-0.333333 19:0.333333 20:0.333333 21:0.333333 22:1 23:1 24:0.333333 25:-1 26:-1 27:-1 28:-0.333333 29:0.333333 30:0.333333 31:0.333333 32:-1 33:-0.333333 34:1 35:-1 36:0.333333 37:-1 38:1 39:-0.333333 40:0.333333 41:1 42:-0.333333 43:-0.333333 44:1 45:-0.333333 46:-0.333333 47:1 48:1 49:0.333333 50:-1 51:0.333333 52:-1 53:1 54:-0.333333 55:0.333333 56:-0.333333 57:0.333333 58:-1 59:-0.333333 60:-1 
2.03647016441699 1:-0.333333 2:-1 3:-0.333333 4:-1 5:-1 6:-0.333333 7:-1 8:-1 9:1 10:1 11:-1 12:-1 13:0.333333 14:0.333333 15:1 16:1 17:1 18:1 19:-0.333333 20:0.333333 21:1 22:1 23:0.333333 24:1 25:0.333333 26:0.333333 27:-1 28:-0.333333 29:1 30:1 31:-0.333333 32:-1 33:-1 34:0.333333 35:-1 36:1 37:1 38:1 39:-0.333333 40:1 41:-1 42:-0.333333 43:0.333333 44:-1 45:-1 46:1 47:-1 48:-1 49:-0.333333 50:1 51:0.333333 52:-1 53:1 54:-0.333333 55:0.333333 56:-1 57:-1 58:-1 59:1 60:-1 
3.712838806254096 1:-0.333333 2:-0.333333 3:-1 4:-0.333333 5:-1 6:1 7:-1 8:-1 9:-0.333333 10:-0.333333 11:-0.333333 12:-0.333333 13:-1 14:0.333333 15:1 16:0.333333 17:-1 18:-0.333333 19:0.333333 20:1 21:0.333333 22:1 23:0.333333 24:-1 25:-0.333333 26:-0.333333 27:-1 28:-0.333333 29:-0.333333 30:1 31:0.333333 32:-1 33:-1 34:-1 35:-1 36:-1 37:0.333333 38:-1 39:-0.333333 40:-1 41:-0.333333 42:-0.333333 43:-1 44:1 45:1 46:-0.333333 47:0.333333 48:1 49:-1 50:1 51:1 52:-0.333333 53:0.333333 54:0.333333 55:0.333333 56:-0.333333 57:-1 58:-0.333333 59:0.333333 60:0.333333 
1.351942341797806 1:1 2:1 3:0.333333 4:0.333333 5:0.333333 6:0.333333 7:-1 8:-1 9:-0.333333 10:-0.333333 11:0.333333 12:-1 13:-1 14:-1 15:-0.333333 16:0.333333 17:0.333333 18:1 19:1 20:-1 21:1 22:-0.333333 23:-1 24:-1 25:-0.333333 26:-0.333333 27:-1 28:-1 29:-0.333333 30:0.333333 31:-1 32:1 33:0.333333 34:1 35:1 36:-0.333333 37:-0.333333 38:-1 39:-0.333333 40:-0.333333 41:0.333333 42:0.333333 43:-0.333333 44:-1 45:0.333333 46:1 47:-0.333333 48:1 49:-0.333333 50:-1 51:0.333333 52:-1 53:1 54:-1 55:0.333333 56:1 57:-0.333333 58:-1 59:1 60:0.333333 
14.04945339651061 1:1 2:-0.333333 3:1 4:1 5:1 6:1 7:0.333333 8:1 9:0.333333 10:1 11:1 12:0.333333 13:1 14:-1 15:1 16:1 17:0.333333 18:0.333333 19:0.333333 20:1 21:1 22:-0.333333 23:-0.333333 24:0.333333 25:1 26:0.333333 27:-1 28:0.333333 29:-1 30:-0.333333 31:-0.333333 32:-0.333333 33:-1 34:0.333333 35:0.333333 36:0.333333 37:-0.333333 38:-1 39:-0.333333 40:1 41:-0.333333 42:1 43:-1 44:1 45:-1 46:-0.333333 47:0.333333 48:0.333333 49:0.333333 50:1 51:0.333333 52:0.333333 53:-1 54:-0.333333 55:-1 56:-0.333333 57:1 58:-0.333333 59:-0.333333 60:-1 
2.755541426543485 1:-1 2:1 3:0.333333 4:0.333333 5:-1 6:-0.333333 7:1 8:0.333333 9:1 10:-1 11:-1 12:1 13:-1 14:-1 15:-0.333333 16:-1 17:-1 18:-1 19:-1 20:-1 21:-0.333333 22:-1 23:1 24:0.333333 25:-1 26:-1 27:0.333333 28:1 29:0.333333 30:-0.333333 31:1 32:-1 33:-0.333333 34:-0.333333 35:-1 36:-0.333333 37:1 38:-0.333333 39:1 40:0.333333 41:0.333333 42:-0.333333 43:1 44:-0.333333 45:-0.333333 46:-1 47:1 48:0.333333 49:-1 50:0.333333 51:-1 52:-1 53:-0.333333 54:0.333333 55:0.333333 56:0.333333 57:-1 58:-1 59:-0.333333 60:-1 
0.8691436171053584 1:-1 2:1 3:1 4:-0.333333 5:1 6:1 7:-0.333333 8:-1 9:-1 10:1 11:-1 12:1 13:-0.333333 14:-1 15:-1 16:-0.333333 17:0.333333 18:-1 19:1 20:1 21:0.333333 22:0.333333 23:0.333333 24:0.333333 25:-1 26:-1 27:-1 28:0.333333 29:0.333333 30:1 31:-0.333333 32:-1 33:-1 34:0.333333 35:-1 36:0.333333 37:0.333333 38:-1 39:-0.333333 40:0.333333 41:-1 42:-0.333333 43:1 44:-0.333333 45:-0.333333 46:-1 47:1 48:0.333333 49:1 50:-1 51:1 52:-1 53:1 54:-0.333333 55:-1 56:-1 57:0.333333 58:-1 59:-0.333333 60:-1 
1.77672703781231 1:0.333333 2:0.333333 3:1 4:-0.333333 5:-0.333333 6:1 7:-0.333333 8:0.333333 9:-0.333333 10:-1 11:-0.333333 12:-1 13:-1 14:-0.333333 15:-1 16:0.333333 17:1 18:1 19:1 20:-0.333333 21:1 22:-0.333333 23:0.333333 24:1 25:-0.333333 26:-1 27:0.333333 28:-1 29:-0.333333 30:0.333333 31:-1 32:-0.333333 33:0.333333 34:1 35:0.333333 36:-1 37:1 38:1 39:-0.333333 40:0.333333 41:1 42:-0.333333 43:-0.333333 44:-0.333333 45:-0.333333 46:-1 47:-1 48:-0.333333 49:-0.333333 50:1 51:-0.333333 52:-1 53:-0.333333 54:-0.333333 55:-1 56:-0.333333 57:0.333333 58:1 59:-1 60:-1 
16.68084424168114 1:1 2:1 3:0.333333 4:-1 5:-1 6:-0.333333 7:-1 8:1 9:0.333333 10:-1 11:1 12:0.333333 13:-0.333333 14:-1 15:-0.333333 16:-0.333333 17:-1 18:0.333333 19:0.333333 20:1 21:-0.333333 22:-1 23:-0.333333 24:-0.333333 25:-0.333333 26:0.333333 27:1 28:0.333333 29:-1 30:-0.333333 31:-0.333333 32:1 33:-1 34:-1 35:-0.333333 36:-0.333333 37:-0.333333 38:-0.333333 39:1 40:-1 41:-0.333333 42:-0.333333 43:-1 44:-0.333333 45:-0.333333 46:-0.333333 47:-1 48:0.333333 49:0.333333 50:1 51:0.333333 52:-1 53:-1 54:0.333333 55:1 56:0.333333 57:0.333333 58:0.333333 59:-1 60:-0.333333 
0.2491510052849948 1:-0.333333 2:0.333333 3:-1 4:-1 5:-1 6:-1 7:1 8:1 9:1 10:0.333333 11:0.333333 12:-1 13:-1 14:1 15:0.333333 16:-1 17:-1 18:-1 19:1 20:-0.333333 21:-0.333333 22:-1 23:0.333333 24:-1 25:-0.333333 26:0.333333 27:1 28:0.333333 29:0.333333 30:1 31:-0.333333 32:-1 33:-1 34:-0.333333 35:0.333333 36:1 37:-0.333333 38:0.333333 39:-1 40:0.333333 41:1 42:-0.333333 43:1 44:-1 45:1 46:-0.333333 47:-0.333333 48:1 49:0.333333 50:-0.333333 51:-0.333333 52:1 53:1 54:1 55:-1 56:0.333333 57:-1 58:-1 59:1 60:-1 
16.56134262346664 1:0.333333 2:1 3:-0.333333 4:0.333333 5:1 6:-0.333333 7:1 8:-0.333333 9:-1 10:1 11:-1 12:1 13:-0.333333 14:-0.333333 15:-1 16:-0.333333 17:-0.333333 18:-1 19:-1 20:-0.333333 21:-1 22:-1 23:-0.333333 24:-1 25:-0.333333 26:0.333333 27:1 28:0.333333 29:-1 30:-0.333333 31:-0.333333 32:1 33:-0.333333 34:-0.333333 35:-0.333333 36:-0.333333 37:-1 38:-1 39:-0.333333 40:-0.333333 41:-0.333333 42:-1 43:-0.333333 44:-1 45:-1 46:-0.333333 47:-0.333333 48:-0.333333 49:1 50:-0.333333 51:-0.333333 52:-0.333333 53:-0.333333 54:1 55:0.333333 56:1 57:-0.333333 58:-1 59:-0.333333 60:1 
12.11146498558904 1:1 2:0.333333 3:0.333333 4:1 5:-0.333333 6:-0.333333 7:-0.333333 8:1 9:1 10:0.333333 11:-1 12:1 13:-0.333333 14:0.333333 15:0.333333 16:-1 17:1 18:1 19:0.333333 20:1 21:0.333333 22:0.333333 23:1 24:-0.333333 25:0.333333 26:0.333333 27:1 28:0.333333 29:-1 30:-0.333333 31:0.333333 32:0.333333 33:1 34:0.333333 35:0.333333 36:0.333333 37:-0.333333 38:-1 39:-0.333333 40:1 41:-1 42:-1 43:-0.333333 44:0.333333 45:1 46:-0.333333 47:-0.333333 48:-0.333333 49:-1 50:-1 51:1 52:-1 53:0.333333 54:-1 55:-0.333333 56:-0.333333 57:0.333333 58:-1 59:0.333333 60:0.333333 
0.1101490139349844 1:1 2:0.333333 3:1 4:-1 5:-0.333333 6:-1 7:-1 8:1 9:0.333333 10:0.333333 11:1 12:-0.333333 13:0.333333 14:1 15:1 16:1 17:1 18:-1 19:1 20:0.333333 21:0.333333 22:0.333333 23:-1 24:-0.333333 25:0.333333 26:-1 27:1 28:0.333333 29:1 30:1 31:1 32:-0.333333 33:0.333333 34:1 35:1 36:1 37:0.333333 38:1 39:-1 40:1 41:-0.333333 42:1 43:1 44:-0.333333 45:0.333333 46:1 47:0.333333 48:-1 49:-0.333333 50:1 51:0.333333 52:-0.333333 53:0.333333 54:0.333333 55:0.333333 56:1 57:-1 58:1 59:-0.333333 60:1 
