svm_type c_svc
kernel_type polynomial
degree 5
gamma 0.0166667
coef0 0
nr_class 2
total_sv 2062
rho -0.0645286
label 1 -1
nr_sv 1087 975
SV
36.68049331983011 1:-1 2:-0.333333 3:-0.333333 4:-1 5:-0.333333 6:0.333333 7:-1 8:-1 9:-1 10:1 11:-0.333333 12:-1 13:-1 14:-1 15:0.333333 16:-1 17:-0.333333 18:0.333333 19:0.333333 20:-1 21:-1 22:0.333333 23:1 24:0.333333 25:0.333333 26:-1 27:0.333333 28:1 29:-0.333333 30:0.333333 31:0.333333 32:1 33:0.333333 34:0.333333 35:0.333333 36:0.333333 37:0.333333 38:-1 39:1 40:-0.333333 41:0.333333 42:0.333333 43:-1 44:-0.333333 45:-1 46:-1 47:-0.333333 48:-0.333333 49:1 50:-0.333333 51:0.333333 52:0.333333 53:1 54:-0.333333 55:1 56:0.333333 57:-0.333333 58:-1 59:-0.333333 60:0.333333 
44.95758657392294 1:0.333333 2:0.333333 3:1 4:-0.333333 5:-1 6:0.333333 7:-1 8:-0.333333 9:0.333333 10:-1 11:1 12:0.333333 13:-1 14:0.333333 15:-1 16:1 17:-0.333333 18:-0.333333 19:-1 20:-1 21:-0.333333 22:0.333333 23:0.333333 24:-1 25:1 26:-1 27:1 28:-0.333333 29:-1 30:1 31:-0.333333 32:0.333333 33:-1 34:-0.333333 35:0.333333 36:0.333333 37:-0.333333 38:-1 39:0.333333 40:0.333333 41:1 42:-0.333333 43:-0.333333 44:-1 45:0.333333 46:0.333333 47:0.333333 48:0.333333 49:-1 50:0.333333 51:0.333333 52:-0.333333 53:-1 54:-0.333333 55:-1 56:-1 57:0.333333 58:0.333333 59:0.333333 60:0.333333 
28.18016508105346 1:0.333333 2:0.333333 3:0.333333 4:-1 5:-0.333333 6:-0.333333 7:1 8:1 9:-1 10:0.333333 11:0.333333 12:0.333333 13:-0.333333 14:0.333333 15:-0.333333 16:-0.333333 17:-1 18:-1 19:-1 20:1 21:1 22:1 23:-1 24:1 25:-0.333333 26:0.333333 27:1 28:-0.333333 29:1 30:0.333333 31:0.333333 32:-0.333333 33:-0.333333 34:1 35:0.333333 36:-1 37:0.333333 38:0.333333 39:-0.333333 40:1 41:-0.333333 42:-1 43:0.333333 44:-1 45:-1 46:1 47:-0.333333 48:0.333333 49:-1 50:-0.333333 51:0.333333 52:1 53:-0.333333 54:-1 55:-0.333333 56:-0.333333 57:-1 58:-1 59:0.333333 60:0.333333 
12.09406725124895 1:1 2:1 3:-0.333333 4:1 5:-1 6:-1 7:1 8:0.333333 9:1 10:-0.333333 11:-1 12:-0.333333 13:-1 14:-1 15:-0.333333 16:-1 17:-0.333333 18:-0.333333 19:-1 20:-0.333333 21:-1 22:-1 23:-0.333333 24:1 25:-1 26:1 27:-1 28:-0.333333 29:-0.333333 30:-0.333333 31:-1 32:0.333333 33:0.333333 34:1 35:1 36:1 37:0.333333 38:0.333333 39:1 40:-0.333333 41:-1 42:0.333333 43:-1 44:1 45:-0.333333 46:-1 47:-0.333333 48:-0.333333 49:-0.333333 50:-0.333333 51:-1 52:-0.333333 53:1 54:0.333333 55:0.333333 56:-1 57:-1 58:1 59:0.333333 60:1 
18.11266727088722 1:1 2:-0.333333 3:-1 4:1 5:-0.333333 6:-1 7:-0.333333 8:0.333333 9:1 10:0.333333 11:1 12:-0.333333 13:0.333333 14:-1 15:1 16:0.333333 17:0.333333 18:0.333333 19:-1 20:1 21:1 22:1 23:-0.333333 24:1 25:-0.333333 26:-0.333333 27:1 28:0.333333 29:-1 30:1 31:1 32:0.333333 33:0.333333 34:1 35:-0.333333 36:0.333333 37:1 38:-1 39:0.333333 40:-1 41:-0.333333 42:1 43:0.333333 44:1 45:0.333333 46:0.333333 47:-1 48:-1 49:0.333333 50:-1 51:-1 52:1 53:-0.333333 54:1 55:0.333333 56:0.333333 57:0.333333 58:1 59:-0.333333 60:-0.333333 
18.98935107376615 1:1 2:-1 3:-1 4:1 5:-0.333333 6:0.333333 7:0.333333 8:-1 9:0.333333 10:0.333333 11:1 12:1 13:1 14:-0.333333 15:0.333333 16:-1 17:0.333333 18:1 19:-1 20:0.333333 21:0.333333 22:1 23:0.333333 24:0.333333 25:0.333333 26:1 27:0.333333 28:1 29:-1 30:-0.333333 31:-0.333333 32:-1 33:-0.333333 34:-1 35:-1 36:-0.333333 37:-1 38:0.333333 39:1 40:0.333333 41:1 42:1 43:0.333333 44:0.333333 45:-1 46:0.333333 47:0.333333 48:1 49:0.333333 50:1 51:1 52:1 53:1 54:1 55:-0.333333 56:0.333333 57:0.333333 58:1 59:-0.333333 60:-1 
8.730129161309858 1:-1 2:-0.333333 3:0.333333 4:1 5:0.333333 6:0.333333 7:-1 8:-0.333333 9:-0.333333 10:0.333333 11:1 12:-1 13:1 14:1 15:1 16:1 17:1 18:-0.333333 19:1 20:-0.333333 21:0.333333 22:1 23:1 24:-1 25:-0.333333 26:1 27:1 28:-1 29:0.333333 30:1 31:-0.333333 32:-0.333333 33:1 34:1 35:1 36:1 37:0.333333 38:1 39:0.333333 40:0.333333 41:-1 42:1 43:1 44:-0.333333 45:0.333333 46:-1 47:1 48:1 49:-0.333333 50:1 51:1 52:-1 53:-0.333333 54:-0.333333 55:0.333333 56:-1 57:1 58:-0.333333 59:-0.333333 60:1 
10.74601652902783 1:1 2:-0.333333 3:-0.333333 4:-0.333333 5:1 6:1 7:-0.333333 8:-1 9:1 10:-1 11:1 12:1 13:-0.333333 14:0.333333 15:1 16:0.333333 17:1 18:1 19:-0.333333 20:-1 21:-1 22:1 23:-0.333333 24:1 25:-0.333333 26:-1 27:-0.333333 28:0.333333 29:-0.333333 30:-1 31:1 32:-1 33:1 34:1 35:1 36:-1 37:-0.333333 38:0.333333 39:1 40:0.333333 41:0.333333 42:-0.333333 43:-1 44:-1 45:-0.333333 46:-0.333333 47:-0.333333 48:-1 49:1 50:1 51:1 52:-0.333333 53:-0.333333 54:-1 55:-0.333333 56:-0.333333 57:-0.333333 58:-0.333333 59:1 60:1 
65.82830497894757 1:1 2:0.333333 3:-0.333333 4:-0.333333 5:-0.333333 6:0.333333 7:1 8:1 9:0.333333 10:0.333333 11:-0.333333 12:-0.333333 13:-1 14:-0.333333 15:0.333333 16:1 17:1 18:1 19:-0.333333 20:-0.333333 21:0.333333 22:-0.333333 23:-0.333333 24:0.333333 25:-1 26:-0.333333 27:0.333333 28:1 29:-1 30:-0.333333 31:-0.333333 32:-0.333333 33:-0.333333 34:-1 35:-0.333333 36:-0.333333 37:-1 38:1 39:-0.333333 40:-0.333333 41:0.333333 42:-0.333333 43:-0.333333 44:-1 45:-0.333333 46:1 47:0.333333 48:1 49:1 50:0.333333 51:-0.333333 52:-0.333333 53:-1 54:1 55:-1 56:-1 57:-0.333333 58:0.333333 59:1 60:0.333333 
3.60374118438228 1:-0.333333 2:-0.333333 3:-1 4:-0.333333 5:0.333333 6:1 7:-0.333333 8:-0.333333 9:-1 10:-0.333333 11:-0.333333 12:-1 13:0.333333 14:-1 15:0.333333 16:-1 17:-0.333333 18:0.333333 19:-1 20:0.333333 21:-1 22:1 23:1 24:-0.333333 25:-0.333333 26:-1 27:-1 28:-1 29:1 30:0.333333 31:-1 32:-1 33:-0.333333 34:-1 35:-1 36:-0.333333 37:-1 38:-1 39:-1 40:-1 41:1 42:-1 43:-1 44:-1 45:-1 46:-0.333333 47:1 48:-1 49:-1 50:-1 51:-1 52:-1 53:0.333333 54:-1 55:-0.333333 56:-0.333333 57:-1 58:-1 59:1 60:1 
125 1:0.333333 2:0.333333 3:-1 4:1 5:0.333333 6:-0.333333 7:-1 8:-0.333333 9:-1 10:-1 11:-0.333333 12:0.333333 13:1 14:0.333333 15:-0.333333 16:0.333333 17:-0.333333 18:-0.333333 19:1 20:-0.333333 21:-0.333333 22:-1 23:-1 24:-0.333333 25:0.333333 26:0.333333 27:0.333333 28:1 29:-0.333333 30:1 31:0.333333 32:0.333333 33:-1 34:-0.333333 35:0.333333 36:0.333333 37:1 38:-0.333333 39:-0.333333 40:-1 41:0.333333 42:-0.333333 43:-0.333333 44:0.333333 45:-0.333333 46:-1 47:0.333333 48:0.333333 49:1 50:-0.333333 51:-0.333333 52:0.333333 53:-0.333333 54:-0.333333 55:-0.333333 56:0.333333 57:0.333333 58:-0.333333 59:-1 60:1 
97.44393293278819 1:-1 2:-0.333333 3:0.333333 4:0.333333 5:0.333333 6:0.333333 7:-1 8:0.333333 9:-0.333333 10:-0.333333 11:-0.333333 12:0.333333 13:-0.333333 14:0.333333 15:0.333333 16:-1 17:0.333333 18:-0.333333 19:-0.333333 20:-1 21:-1 22:0.333333 23:0.333333 24:0.333333 25:-0.333333 26:0.333333 27:1 28:0.333333 29:-0.333333 30:-1 31:1 32:0.333333 33:1 34:0.333333 35:-0.333333 36:0.333333 37:0.333333 38:-0.333333 39:0.333333 40:0.333333 41:-1 42:-1 43:0.333333 44:1 45:-0.333333 46:-0.333333 47:1 48:-1 49:-0.333333 50:-1 51:0.333333 52:-1 53:1 54:-0.333333 55:-0.333333 56:-1 57:-0.333333 58:-1 59:0.333333 60:0.333333 
25.21151900181522 1:0.333333 2:-1 3:0.333333 4:1 5:-1 6:-0.333333 7:-1 8:-1 9:-1 10:-0.333333 11:-1 12:1 13:-1 14:-0.333333 15:-0.333333 16:-1 17:0.333333 18:-1 19:0.333333 20:1 21:-0.333333 22:-0.333333 23:-1 24:-0.333333 25:-0.333333 26:-0.333333 27:1 28:-0.333333 29:-0.333333 30:-0.333333 31:-1 32:-1 33:-0.333333 34:0.333333 35:0.333333 36:0.333333 37:1 38:-1 39:-0.333333 40:0.333333 41:-1 42:-0.333333 43:1 44:1 45:1 46:0.333333 47:1 48:1 49:0.333333 50:0.333333 51:-1 52:-0.333333 53:-0.333333 54:-0.333333 55:1 56:-0.333333 57:-0.333333 58:-0.333333 59:0.333333 60:1 
34.71204510207008 1:-1 2:1 3:-1 4:-0.333333 5:-1 6:-0.333333 7:0.333333 8:-1 9:-0.333333 10:-0.333333 11:-1 12:-0.333333 13:-0.333333 14:-0.333333 15:1 16:0.333333 17:0.333333 18:-0.333333 19:-0.333333 20:-1 21:-0.333333 22:1 23:-1 24:1 25:1 26:-0.333333 27:-0.333333 28:-0.333333 29:-1 30:0.333333 31:-0.333333 32:-0.333333 33:-0.333333 34:-0.333333 35:-1 36:-0.333333 37:-1 38:0.333333 39:-1 40:0.333333 41:-0.333333 42:-0.333333 43:-1 44:-1 45:-1 46:-0.333333 47:1 48:-0.333333 49:-1 50:-1 51:-0.333333 52:-0.333333 53:0.333333 54:0.333333 55:0.333333 56:-1 57:0.333333 58:1 59:0.333333 60:-1 
48.52380715134634 1:-0.333333 2:0.333333 3:-1 4:-0.333333 5:-0.333333 6:1 7:-1 8:-0.333333 9:-0.333333 10:1 11:0.333333 12:0.333333 13:-1 14:-1 15:-0.333333 16:0.333333 17:1 18:-0.333333 19:0.333333 20:0.333333 21:0.333333 22:0.333333 23:-0.333333 24:1 25:0.333333 26:0.333333 27:-1 28:-1 29:-1 30:0.333333 31:-1 32:1 33:0.333333 34:0.333333 35:1 36:0.333333 37:1 38:1 39:0.333333 40:0.333333 41:1 42:1 43:-0.333333 44:1 45:0.333333 46:1 47:-0.333333 48:-0.333333 49:-1 50:-0.333333 51:0.333333 52:0.333333 53:1 54:-0.333333 55:-0.333333 56:-1 57:-0.333333 58:-0.333333 59:-1 60:-0.333333 
22.53191807383641 1:-0.333333 2:-1 3:1 4:-0.333333 5:-0.333333 6:1 7:-0.333333 8:-0.333333 9:-0.333333 10:-1 11:0.333333 12:-1 13:1 14:0.333333 15:-1 16:-1 17:-1 18:0.333333 19:1 20:-0.333333 21:0.333333 22:-0.333333 23:0.333333 24:1 25:-0.333333 26:0.333333 27:0.333333 28:1 29:0.333333 30:0.333333 31:-0.333333 32:1 33:-0.333333 34:-1 35:-1 36:-1 37:-0.333333 38:-0.333333 39:0.333333 40:-1 41:-0.333333 42:-1 43:1 44:1 45:0.333333 46:-1 47:0.333333 48:0.333333 49:-1 50:1 51:0.333333 52:1 53:0.333333 54:-1 55:-1 56:-0.333333 57:-1 58:-0.333333 59:-1 60:1 
19.18318984780307 1:-0.333333 2:-1 3:-1 4:-0.333333 5:-0.333333 6:0.333333 7:1 8:1 9:-1 10:1 11:-0.333333 12:1 13:-0.333333 14:-0.333333 15:-1 16:1 17:-0.333333 18:-1 19:1 20:-1 21:0.333333 22:1 23:0.333333 24:0.333333 25:1 26:-0.333333 27:0.333333 28:1 29:-0.333333 30:-1 31:-1 32:0.333333 33:-1 34:-0.333333 35:-1 36:1 37:-0.333333 38:-1 39:-1 40:-1 41:-0.333333 42:0.333333 43:-1 44:-0.333333 45:-1 46:-1 47:0.333333 48:-0.333333 49:1 50:-0.333333 51:-1 52:-0.333333 53:0.333333 54:-1 55:-0.333333 56:-1 57:-0.333333 58:-0.333333 59:-1 60:1 
5.613698920893023 1:0.333333 2:1 3:-1 4:0.333333 5:-1 6:1 7:1 8:0.333333 9:0.333333 10:1 11:1 12:1 13:1 14:0.333333 15:0.333333 16:1 17:-0.333333 18:1 19:-0.333333 20:-1 21:-1 22:-1 23:1 24:-1 25:1 26:-0.333333 27:1 28:-0.333333 29:-1 30:-0.333333 31:1 32:-0.333333 33:-1 34:1 35:-1 36:-1 37:1 38:1 39:-1 40:-1 41:-1 42:0.333333 43:-1 44:0.333333 45:1 46:1 47:1 48:-1 49:-0.333333 50:-1 51:0.333333 52:0.333333 53:1 54:-0.333333 55:-1 56:1 57:1 58:0.333333 59:1 60:-0.333333 
29.53594187876892 1:1 2:1 3:1 4:-1 5:0.333333 6:0.333333 7:-1 8:-0.333333 9:-1 10:-0.333333 11:-0.333333 12:-0.333333 13:-1 14:-0.333333 15:0.333333 16:0.333333 17:-1 18:-0.333333 19:-0.333333 20:-0.333333 21:0.333333 22:1 23:-0.333333 24:0.333333 25:-1 26:-0.333333 27:0.333333 28:1 29:0.333333 30:-1 31:1 32:0.333333 33:1 34:-0.333333 35:1 36:1 37:1 38:-0.333333 39:0.333333 40:-0.333333 41:-0.333333 42:-1 43:1 44:0.333333 45:-1 46:-1 47:-0.333333 48:-1 49:-1 50:0.333333 51:0.333333 52:0.333333 53:-0.333333 54:-1 55:-0.333333 56:0.333333 57:1 58:-0.333333 59:1 60:-0.333333 
48.84333196646289 1:-0.333333 2:0.333333 3:0.333333 4:-0.333333 5:1 6:-0.333333 7:-0.333333 8:1 9:1 10:1 11:1 12:1 13:1 14:1 15:-0.333333 16:0.333333 17:1 18:1 19:0.333333 20:-1 21:0.333333 22:0.333333 23:-1 24:0.333333 25:0.333333 26:0.333333 27:1 28:-0.333333 29:-1 30:-0.333333 31:-0.333333 32:1 33:-0.333333 34:0.333333 35:-0.333333 36:1 37:0.333333 38:0.333333 39:1 40:-0.333333 41:-0.333333 42:-0.333333 43:-0.333333 44:-1 45:0.333333 46:-1 47:-1 48:-0.333333 49:0.333333 50:-1 51:-1 52:-1 53:-1 54:-0.333333 55:-0.333333 56:0.333333 57:1 58:0.333333 59:0.333333 60:1 
1.600467110985121 1:-1 2:1 3:-1 4:1 5:1 6:1 7:1 8:-1 9:1 10:-1 11:-1 12:-0.333333 13:1 14:-1 15:1 16:0.333333 17:1 18:-1 19:1 20:1 21:1 22:-1 23:-1 24:1 25:0.333333 26:1 27:1 28:1 29:1 30:-0.333333 31:1 32:-1 33:-0.333333 34:1 35:1 36:-1 37:-1 38:0.333333 39:1 40:-0.333333 41:1 42:-1 43:0.333333 44:1 45:1 46:1 47:1 48:1 49:-1 50:-1 51:-0.333333 52:-1 53:-0.333333 54:0.333333 55:1 56:0.333333 57:-1 58:-1 59:1 60:1 
31.50107632705346 1:-0.333333 2:0.333333 3:1 4:-0.333333 5:-0.333333 6:0.333333 7:0.333333 8:1 9:-0.333333 10:-0.333333 11:1 12:1 13:0.333333 14:1 15:-1 16:0.333333 17:1 18:1 19:-0.333333 20:1 21:-1 22:-0.333333 23:0.333333 24:1 25:-0.333333 26:1 27:-0.333333 28:-0.333333 29:1 30:0.333333 31:-1 32:0.333333 33:1 34:-0.333333 35:-0.333333 36:-1 37:-0.333333 38:0.333333 39:1 40:-0.333333 41:1 42:-0.333333 43:-0.333333 44:1 45:0.333333 46:-0.333333 47:0.333333 48:1 49:-0.333333 50:0.333333 51:1 52:-0.333333 53:1 54:-1 55:-1 56:1 57:-0.333333 58:1 59:-0.333333 60:-0.333333 
13.70345606308629 1:-0.333333 2:-1 3:-1 4:1 5:-0.333333 6:0.333333 7:0.333333 8:-0.333333 9:0.333333 10:0.333333 11:0.333333 12:1 13:-0.333333 14:-0.333333 15:1 16:1 17:-1 18:1 19:1 20:0.333333 21:0.333333 22:-0.333333 23:-0.333333 24:-1 25:-1 26:-0.333333 27:-1 28:0.333333 29:0.333333 30:-0.333333 31:1 32:1 33:1 34:1 35:0.333333 36:1 37:-1 38:1 39:0.333333 40:-1 41:1 42:0.333333 43:1 44:-0.333333 45:0.333333 46:0.333333 47:1 48:-1 49:-1 50:-1 51:-1 52:-1 53:-1 54:0.333333 55:1 56:0.333333 57:-1 58:-0.333333 59:1 60:0.333333 
37.00314160756256 1:-1 2:-0.333333 3:-1 4:-0.333333 5:1 6:-0.333333 7:-1 8:-1 9:-1 10:0.333333 11:0.333333 12:1 13:0.333333 14:0.333333 15:1 16:1 17:0.333333 18:0.333333 19:-1 20:0.333333 21:0.333333 22:1 23:-0.333333 24:-1 25:0.333333 26:-0.333333 27:-0.333333 28:-1 29:-1 30:0.333333 31:0.333333 32:0.333333 33:1 34:0.333333 35:-1 36:-0.333333 37:0.333333 38:0.333333 39:0.333333 40:-1 41:1 42:-1 43:1 44:-0.333333 45:-1 46:-0.333333 47:0.333333 48:-0.333333 49:-1 50:0.333333 51:-0.333333 52:0.333333 53:-0.333333 54:-0.333333 55:0.333333 56:1 57:-0.333333 58:-1 59:-0.333333 60:1 
5.021237840121774 1:-0.333333 2:0.333333 3:1 4:-1 5:-0.333333 6:1 7:-1 8:1 9:1 10:1 11:1 12:1 13:1 14:1 15:1 16:1 17:1 18:1 19:1 20:1 21:1 22:1 23:-0.333333 24:1 25:-1 26:1 27:1 28:1 29:1 30:1 31:1 32:-1 33:1 34:-1 35:-0.333333 36:-1 37:-0.333333 38:-1 39:0.333333 40:-1 41:-0.333333 42:-0.333333 43:-0.333333 44:1 45:0.333333 46:1 47:1 48:-0.333333 49:0.333333 50:0.333333 51:-1 52:1 53:-0.333333 54:1 55:1 56:-0.333333 57:0.333333 58:0.333333 59:0.333333 60:-1 
10.50011080319987 1:-0.333333 2:-0.333333 3:1 4:1 5:0.333333 6:1 7:0.333333 8:1 9:1 10:-0.333333 11:-0.333333 12:-0.333333 13:0.333333 14:1 15:0.333333 16:1 17:-1 18:-0.333333 19:-0.333333 20:1 21:0.333333 22:0.333333 23:1 24:-0.333333 25:-0.333333 26:-1 27:-0.333333 28:-1 29:-1 30:1 31:-0.333333 32:1 33:1 34:-0.333333 35:1 36:-0.333333 37:-1 38:-0.333333 39:-0.333333 40:-0.333333 41:-0.333333 42:1 43:1 44:1 45:-1 46:1 47:1 48:1 49:1 50:1 51:1 52:1 53:1 54:1 55:-1 56:-1 57:1 58:-1 59:-0.333333 60:1 
3.98619000364413 1:-1 2:0.333333 3:-1 4:0.333333 5:-1 6:1 7:1 8:0.333333 9:1 10:-1 11:-1 12:-1 13:1 14:-1 15:1 16:-0.333333 17:1 18:-0.333333 19:-0.333333 20:0.333333 21:0.333333 22:1 23:-1 24:-0.333333 25:-1 26:-1 27:-0.333333 28:-1 29:1 30:1 31:1 32:1 33:-0.333333 34:-0.333333 35:1 36:0.333333 37:1 38:-1 39:0.333333 40:1 41:1 42:1 43:1 44:0.333333 45:1 46:-0.333333 47:1 48:-0.333333 49:-1 50:-1 51:0.333333 52:-1 53:-1 54:-1 55:-1 56:1 57:1 58:1 59:-1 60:-1 
14.22888977307527 1:-0.333333 2:0.333333 3:-1 4:0.333333 5:0.333333 6:1 7:1 8:1 9:-1 10:-1 11:-0.333333 12:-1 13:-1 14:-1 15:-0.333333 16:-1 17:-1 18:1 19:-0.333333 20:1 21:-0.333333 22:1 23:-0.333333 24:-0.333333 25:-1 26:-0.333333 27:1 28:-0.333333 29:1 30:-1 31:-1 32:-0.333333 33:-1 34:-1 35:-0.333333 36:1 37:1 38:1 39:-0.333333 40:-1 41:0.333333 42:0.333333 43:-0.333333 44:-0.333333 45:-0.333333 46:-1 47:-0.333333 48:0.333333 49:0.333333 50:0.333333 51:1 52:-1 53:0.333333 54:-1 55:1 56:-0.333333 57:-1 58:0.333333 59:0.333333 60:-0.333333 
8.280727006513914 1:1 2:-1 3:0.333333 4:0.333333 5:1 6:-1 7:0.333333 8:-1 9:-0.333333 10:0.333333 11:-1 12:-1 13:0.333333 14:-1 15:-1 16:0.333333 17:-1 18:-1 19:0.333333 20:1 21:-1 22:-0.333333 23:0.333333 24:-1 25:-1 26:0.333333 27:-1 28:-1 29:-0.333333 30:1 31:-1 32:-1 33:0.333333 34:-1 35:-1 36:0.333333 37:1 38:-0.333333 39:-0.333333 40:0.333333 41:1 42:-1 43:0.333333 44:-0.333333 45:-1 46:1 47:0.333333 48:0.333333 49:1 50:-1 51:-1 52:0.333333 53:-1 54:-1 55:0.333333 56:1 57:-1 58:-1 59:1 60:-0.333333 
32.1259099814325 1:0.333333 2:-1 3:1 4:0.333333 5:-0.333333 6:-1 7:0.333333 8:0.333333 9:-1 10:1 11:0.333333 12:1 13:0.333333 14:0.333333 15:-1 16:-0.333333 17:0.333333 18:0.333333 19:-1 20:1 21:0.333333 22:1 23:-0.333333 24:-0.333333 25:0.333333 26:1 27:-1 28:0.333333 29:0.333333 30:-1 31:-1 32:-0.333333 33:0.333333 34:-1 35:1 36:0.333333 37:1 38:0.333333 39:-1 40:-1 41:-0.333333 42:-0.333333 43:-1 44:-1 45:-0.333333 46:-0.333333 47:-1 48:-0.333333 49:-0.333333 50:0.333333 51:0.333333 52:1 53:0.333333 54:0.333333 55:1 56:-0.333333 57:-1 58:0.333333 59:0.333333 60:1 
23.7354127187844 1:0.333333 2:-1 3:1 4:-0.333333 5:-0.333333 6:0.333333 7:1 8:-0.333333 9:-1 10:-1 11:-0.333333 12:-0.333333 13:-0.333333 14:-0.333333 15:-1 16:-1 17:-1 18:1 19:0.333333 20:-1 21:0.333333 22:0.333333 23:-1 24:0.333333 25:0.333333 26:1 27:1 28:0.333333 29:-1 30:0.333333 31:-1 32:-0.333333 33:0.333333 34:0.333333 35:0.333333 36:1 37:-0.333333 38:-1 39:0.333333 40:0.333333 41:-0.333333 42:-1 43:-0.333333 44:-1 45:-1 46:-0.333333 47:1 48:1 49:1 50:-1 51:-1 52:1 53:0.333333 54:1 55:-0.333333 56:0.333333 57:0.333333 58:1 59:0.333333 60:0.333333 
16.37932924803305 1:-0.333333 2:-0.333333 3:0.333333 4:-1 5:0.333333 6:-1 7:0.333333 8:-1 9:0.333333 10:-1 11:1 12:-0.333333 13:-0.333333 14:-1 15:1 16:-1 17:1 18:-0.333333 19:1 20:-0.333333 21:0.333333 22:-1 23:0.333333 24:-1 25:0.333333 26:-1 27:1 28:-0.333333 29:-0.333333 30:-1 31:0.333333 32:-1 33:0.333333 34:-1 35:1 36:-1 37:0.333333 38:-1 39:1 40:-0.333333 41:1 42:-0.333333 43:0.333333 44:-1 45:-0.333333 46:-0.333333 47:-1 48:0.333333 49:-1 50:1 51:-0.333333 52:0.333333 53:-1 54:0.333333 55:-1 56:0.333333 57:-1 58:0.333333 59:-1 60:0.333333 
12.74730330812529 1:1 2:1 3:0.333333 4:0.333333 5:1 6:0.333333 7:0.333333 8:-0.333333 9:-1 10:-0.333333 11:-0.333333 12:0.333333 13:0.333333 14:-1 15:-0.333333 16:1 17:-1 18:0.333333 19:0.333333 20:1 21:1 22:1 23:0.333333 24:0.333333 25:-1 26:1 27:1 28:1 29:-1 30:1 31:1 32:0.333333 33:1 34:1 35:1 36:-0.333333 37:-1 38:1 39:0.333333 40:1 41:1 42:0.333333 43:-1 44:-0.333333 45:-0.333333 46:-0.333333 47:-1 48:-1 49:0.333333 50:1 51:-0.333333 52:0.333333 53:-1 54:1 55:-1 56:-0.333333 57:-1 58:1 59:1 60:-0.333333 
125 1:0.333333 2:1 3:1 4:0.333333 5:-0.333333 6:0.333333 7:-0.333333 8:-0.333333 9:-1 10:-0.333333 11:-0.333333 12:0.333333 13:-0.333333 14:1 15:-0.333333 16:-0.333333 17:-1 18:-1 19:-0.333333 20:-0.333333 21:0.333333 22:-0.333333 23:0.333333 24:-1 25:-0.333333 26:1 27:1 28:0.333333 29:0.333333 30:0.333333 31:-0.333333 32:-0.333333 33:-1 34:0.333333 35:1 36:0.333333 37:-1 38:-0.333333 39:-1 40:-0.333333 41:0.333333 42:0.333333 43:0.333333 44:0.333333 45:0.333333 46:-0.333333 47:0.333333 48:-0.333333 49:0.333333 50:-1 51:1 52:-0.333333 53:-0.333333 54:-1 55:-0.333333 56:0.333333 57:1 58:-0.333333 59:0.333333 60:-0.333333 
14.67531795189322 1:-0.333333 2:-0.333333 3:0.333333 4:1 5:0.333333 6:-1 7:0.333333 8:-0.333333 9:1 10:1 11:-0.333333 12:0.333333 13:-1 14:1 15:1 16:0.333333 17:0.333333 18:1 19:-0.333333 20:1 21:1 22:-0.333333 23:-0.333333 24:-1 25:0.333333 26:-1 27:-0.333333 28:1 29:-0.333333 30:0.333333 31:1 32:-0.333333 33:1 34:0.333333 35:0.333333 36:1 37:-0.333333 38:-0.333333 39:-1 40:-0.333333 41:-1 42:-0.333333 43:1 44:1 45:-0.333333 46:1 47:1 48:0.333333 49:1 50:1 51:-1 52:1 53:-1 54:0.333333 55:-1 56:1 57:0.333333 58:-1 59:0.333333 60:-1 
29.50637256786285 1:-1 2:1 3:-0.333333 4:0.333333 5:0.333333 6:0.333333 7:0.333333 8:0.333333 9:-1 10:1 11:-0.333333 12:-0.333333 13:-1 14:-0.333333 15:-0.333333 16:-1 17:0.333333 18:1 19:-0.333333 20:1 21:-0.333333 22:1 23:-0.333333 24:-1 25:1 26:0.333333 27:1 28:0.333333 29:0.333333 30:-1 31:1 32:0.333333 33:0.333333 34:1 35:-0.333333 36:-0.333333 37:-0.333333 38:-1 39:-1 40:-0.333333 41:-0.333333 42:-0.333333 43:-0.333333 44:-0.333333 45:0.333333 46:1 47:0.333333 48:-1 49:1 50:1 51:0.333333 52:-1 53:0.333333 54:-1 55:-0.333333 56:-1 57:-0.333333 58:-1 59:-0.333333 60:-1 
15.50664592609887 1:-0.333333 2:-1 3:0.333333 4:-1 5:-0.333333 6:-1 7:-0.333333 8:0.333333 9:0.333333 10:-0.333333 11:-1 12:-0.333333 13:-1 14:0.333333 15:1 16:0.333333 17:0.333333 18:-1 19:1 20:0.333333 21:1 22:0.333333 23:-1 24:-1 25:-1 26:-1 27:-1 28:-1 29:1 30:-1 31:0.333333 32:-0.333333 33:-1 34:-1 35:-1 36:-1 37:0.333333 38:-1 39:-1 40:-1 41:-1 42:-1 43:1 44:0.333333 45:-1 46:-0.333333 47:0.333333 48:0.333333 49:-0.333333 50:-0.333333 51:-0.333333 52:1 53:-0.333333 54:-0.333333 55:1 56:-0.333333 57:-0.333333 58:0.333333 59:-0.333333 60:-0.333333 
112.1965321882873 1:0.333333 2:1 3:-1 4:-0.333333 5:-0.333333 6:-1 7:-0.333333 8:-0.333333 9:-0.333333 10:0.333333 11:1 12:0.333333 13:-0.333333 14:0.333333 15:0.333333 16:-0.333333 17:-0.333333 18:-0.333333 19:1 20:-0.333333 21:0.333333 22:-0.333333 23:-0.333333 24:0.333333 25:-0.333333 26:-0.333333 27:-0.333333 28:-0.333333 29:-1 30:-1 31:-0.333333 32:1 33:-0.333333 34:-1 35:0.333333 36:0.333333 37:-0.333333 38:1 39:-0.333333 40:0.333333 41:-0.333333 42:1 43:-0.333333 44:1 45:-1 46:-1 47:-1 48:-0.333333 49:-0.333333 50:-0.333333 51:1 52:-0.333333 53:-1 54:-0.333333 55:-0.333333 56:0.333333 57:-0.333333 58:1 59:-1 60:0.333333 
14.29809918455191 1:-1 2:-1 3:-1 4:1 5:0.333333 6:0.333333 7:-1 8:-1 9:0.333333 10:-1 11:0.333333 12:0.333333 13:1 14:0.333333 15:-1 16:-0.333333 17:0.333333 18:-0.333333 19:-1 20:1 21:-0.333333 22:1 23:-0.333333 24:-0.333333 25:-0.333333 26:0.333333 27:-1 28:0.333333 29:0.333333 30:-1 31:0.333333 32:-1 33:1 34:1 35:0.333333 36:-1 37:-1 38:0.333333 39:0.333333 40:1 41:0.333333 42:-1 43:1 44:1 45:0.333333 46:1 47:-0.333333 48:-1 49:1 50:-0.333333 51:0.333333 52:0.333333 53:1 54:-0.333333 55:-1 56:-1 57:-1 58:-1 59:-0.333333 60:0.333333 
14.80918911715228 1:-0.333333 2:0.333333 3:-1 4:-1 5:0.333333 6:1 7:0.333333 8:-1 9:1 10:-0.333333 11:-1 12:-1 13:0.333333 14:1 15:1 16:-0.333333 17:-0.333333 18:0.333333 19:0.333333 20:-1 21:1 22:1 23:0.333333 24:1 25:1 26:1 27:-0.333333 28:-0.333333 29:-0.333333 30:1 31:-1 32:1 33:-0.333333 34:-0.333333 35:-0.333333 36:-1 37:0.333333 38:-1 39:1 40:1 41:0.333333 42:0.333333 43:1 44:0.333333 45:1 46:-0.333333 47:-1 48:1 49:0.333333 50:0.333333 51:1 52:-1 53:-1 54:1 55:-0.333333 56:0.333333 57:-1 58:-0.333333 59:1 60:-0.333333 
6.053445240830529 1:-1 2:-1 3:-1 4:-0.333333 5:1 6:-0.333333 7:1 8:-1 9:-1 10:1 11:1 12:1 13:-1 14:-1 15:-1 16:0.333333 17:1 18:-1 19:-0.333333 20:-0.333333 21:-0.333333 22:1 23:0.333333 24:1 25:-1 26:-1 27:-1 28:1 29:-0.333333 30:-1 31:1 32:-1 33:-1 34:-0.333333 35:1 36:0.333333 37:0.333333 38:-0.333333 39:-0.333333 40:-1 41:-0.333333 42:1 43:0.333333 44:0.333333 45:1 46:1 47:0.333333 48:0.333333 49:-1 50:-0.333333 51:1 52:-0.333333 53:-1 54:-1 55:-1 56:1 57:-1 58:-1 59:-0.333333 60:-0.333333 
49.9843545574839 1:-0.333333 2:0.333333 3:1 4:-0.333333 5:0.333333 6:-1 7:0.333333 8:1 9:-0.333333 10:-0.333333 11:-1 12:1 13:-0.333333 14:-0.333333 15:-0.333333 16:-1 17:0.333333 18:0.333333 19:1 20:1 21:0.333333 22:0.333333 23:-1 24:-0.333333 25:-1 26:-0.333333 27:-0.333333 28:-1 29:-1 30:-0.333333 31:-0.333333 32:1 33:-1 34:-1 35:-0.333333 36:-0.333333 37:0.333333 38:-0.333333 39:1 40:0.333333 41:1 42:-0.333333 43:-1 44:1 45:0.333333 46:0.333333 47:-1 48:-0.333333 49:-0.333333 50:1 51:0.333333 52:1 53:-0.333333 54:-0.333333 55:-1 56:-0.333333 57:0.333333 58:1 59:-0.333333 60:-0.333333 
9.066846487671357 1:-0.333333 2:-0.333333 3:0.333333 4:1 5:-0.333333 6:-0.333333 7:-1 8:0.333333 9:-1 10:-0.333333 11:1 12:-0.333333 13:-1 14:-1 15:-1 16:1 17:-1 18:1 19:1 20:-1 21:1 22:-0.333333 23:-1 24:-1 25:0.333333 26:1 27:1 28:-0.333333 29:-1 30:-1 31:-0.333333 32:-1 33:-1 34:-1 35:-1 36:-0.333333 37:-1 38:1 39:-1 40:-0.333333 41:1 42:0.333333 43:-1 44:-0.333333 45:1 46:0.333333 47:1 48:-0.333333 49:-1 50:1 51:0.333333 52:-1 53:-1 54:-0.333333 55:-1 56:-1 57:0.333333 58:0.333333 59:1 60:-0.333333 
5.051708685149585 1:1 2:-1 3:-0.333333 4:0.333333 5:1 6:0.333333 7:-1 8:-1 9:1 10:-0.333333 11:0.333333 12:0.333333 13:-1 14:-1 15:0.333333 16:-1 17:0.333333 18:1 19:1 20:1 21:1 22:1 23:1 24:1 25:1 26:1 27:0.333333 28:1 29:1 30:1 31:1 32:1 33:0.333333 34:1 35:1 36:1 37:-0.333333 38:0.333333 39:-1 40:1 41:1 42:1 43:-1 44:-1 45:0.333333 46:-1 47:1 48:1 49:-0.333333 50:1 51:0.333333 52:1 53:1 54:-0.333333 55:-0.333333 56:-1 57:-0.333333 58:0.333333 59:1 60:-0.333333 
17.79741209609156 1:0.333333 2:-1 3:-1 4:0.333333 5:0.333333 6:0.333333 7:-1 8:-0.333333 9:0.333333 10:1 11:-1 12:1 13:-0.333333 14:-0.333333 15:1 16:1 17:0.333333 18:1 19:0.333333 20:1 21:0.333333 22:-0.333333 23:0.333333 24:-1 25:-1 26:-0.333333 27:-0.333333 28:-0.333333 29:-1 30:-1 31:-0.333333 32:1 33:0.333333 34:0.333333 35:1 36:1 37:-0.333333 38:0.333333 39:-1 40:-1 41:-0.333333 42:0.333333 43:1 44:-1 45:-1 46:1 47:1 48:0.333333 49:1 50:1 51:1 52:-0.333333 53:-1 54:0.333333 55:0.333333 56:1 57:-0.333333 58:1 59:1 60:-0.333333 
125 1:1 2:-0.333333 3:-1 4:0.333333 5:0.333333 6:1 7:-0.333333 8:-1 9:1 10:0.333333 11:1 12:1 13:1 14:-0.333333 15:0.333333 16:1 17:0.333333 18:1 19:0.333333 20:0.333333 21:0.333333 22:0.333333 23:0.333333 24:1 25:-0.333333 26:-0.333333 27:0.333333 28:0.333333 29:-1 30:-0.333333 31:1 32:1 33:-0.333333 34:-1 35:-0.333333 36:-0.333333 37:-1 38:-0.333333 39:-0.333333 40:-1 41:-0.333333 42:-1 43:-1 44:0.333333 45:0.333333 46:0.333333 47:-0.333333 48:-0.333333 49:-1 50:0.333333 51:1 52:1 53:0.333333 54:1 55:-0.333333 56:-0.333333 57:-1 58:-1 59:0.333333 60:0.333333 
17.61668045574413 1:0.333333 2:1 3:1 4:0.333333 5:1 6:-1 7:1 8:-1 9:-1 10:1 11:-1 12:1 13:1 14:-1 15:1 16:-0.333333 17:-0.333333 18:-0.333333 19:-0.333333 20:1 21:-0.333333 22:-0.333333 23:-1 24:-1 25:-0.333333 26:-0.333333 27:1 28:-0.333333 29:-0.333333 30:1 31:-0.333333 32:-0.333333 33:1 34:-1 35:1 36:-0.333333 37:-0.333333 38:-1 39:-0.333333 40:0.333333 41:-1 42:-1 43:-0.333333 44:-0.333333 45:-0.333333 46:-0.333333 47:1 48:-1 49:-0.333333 50:-0.333333 51:1 52:-0.333333 53:-0.333333 54:-0.333333 55:-1 56:-1 57:-0.333333 58:-1 59:0.333333 60:-0.333333 
2.119789562151878 1:-1 2:-1 3:0.333333 4:-1 5:-1 6:-1 7:1 8:-1 9:0.333333 10:-1 11:-1 12:1 13:1 14:0.333333 15:1 16:-0.333333 17:0.333333 18:1 19:0.333333 20:1 21:0.333333 22:1 23:1 24:-0.333333 25:1 26:-0.333333 27:1 28:-1 29:1 30:1 31:1 32:-0.333333 33:-1 34:1 35:1 36:1 37:1 38:1 39:-0.333333 40:1 41:-1 42:1 43:-0.333333 44:-1 45:-1 46:-1 47:-1 48:-1 49:-1 50:-1 51:0.333333 52:1 53:-1 54:-1 55:-1 56:-1 57:-1 58:1 59:-0.333333 60:-0.333333 
125 1:-0.333333 2:-1 3:1 4:0.333333 5:0.333333 6:-0.333333 7:0.333333 8:0.333333 9:-0.333333 10:0.333333 11:0.333333 12:0.333333 13:-0.333333 14:1 15:0.333333 16:0.333333 17:-1 18:0.333333 19:-1 20:0.333333 21:0.333333 22:0.333333 23:-0.333333 24:0.333333 25:0.333333 26:-0.333333 27:0.333333 28:0.333333 29:-1 30:-0.333333 31:-0.333333 32:1 33:-1 34:-1 35:-0.333333 36:0.333333 37:0.333333 38:0.333333 39:-0.333333 40:-0.333333 41:0.333333 42:0.333333 43:-1 44:-0.333333 45:0.333333 46:0.333333 47:-0.333333 48:-1 49:0.333333 50:0.333333 51:-0.333333 52:-0.333333 53:-0.333333 54:-0.333333 55:0.333333 56:-1 57:1 58:-0.333333 59:0.333333 60:-0.333333 
43.60758936361542 1:-1 2:0.333333 3:-1 4:0.333333 5:-1 6:-0.333333 7:0.333333 8:-0.333333 9:-1 10:-0.333333 11:-0.333333 12:0.333333 13:0.333333 14:1 15:0.333333 16:-1 17:-1 18:-0.333333 19:-1 20:0.333333 21:-1 22:-0.333333 23:1 24:-0.333333 25:1 26:1 27:1 28:-0.333333 29:-1 30:0.333333 31:-0.333333 32:-1 33:-1 34:-0.333333 35:0.333333 36:-0.333333 37:-1 38:1 39:0.333333 40:0.333333 41:-0.333333 42:-1 43:-0.333333 44:0.333333 45:-1 46:-0.333333 47:1 48:0.333333 49:0.333333 50:1 51:0.333333 52:1 53:-0.333333 54:0.333333 55:0.333333 56:0.333333 57:-0.333333 58:0.333333 59:0.333333 60:1 
5.728141006521628 1:-1 2:0.333333 3:1 4:1 5:1 6:0.333333 7:-1 8:0.333333 9:-1 10:-0.333333 11:1 12:-0.333333 13:1 14:-1 15:0.333333 16:-0.333333 17:-1 18:-1 19:1 20:-1 21:0.333333 22:0.333333 23:-1 24:0.333333 25:-1 26:-0.333333 27:-1 28:0.333333 29:0.333333 30:-1 31:-0.333333 32:-1 33:1 34:-1 35:-1 36:-1 37:0.333333 38:-1 39:-0.333333 40:1 41:-0.333333 42:1 43:-1 44:0.333333 45:0.333333 46:-1 47:1 48:-0.333333 49:1 50:1 51:1 52:1 53:-1 54:1 55:-1 56:-0.333333 57:0.333333 58:-1 59:0.333333 60:1 
7.76319865305764 1:1 2:0.333333 3:1 4:-0.333333 5:-0.333333 6:-0.333333 7:-1 8:-1 9:-0.333333 10:-1 11:-1 12:-0.333333 13:0.333333 14:1 15:-0.333333 16:1 17:-1 18:-1 19:-1 20:-1 21:-1 22:1 23:-0.333333 24:-0.333333 25:-0.333333 26:0.333333 27:1 28:-1 29:1 30:1 31:-1 32:1 33:-1 34:1 35:-1 36:1 37:1 38:-0.333333 39:-0.333333 40:-0.333333 41:-0.333333 42:-0.333333 43:1 44:-0.333333 45:-0.333333 46:-0.333333 47:-0.333333 48:1 49:-1 50:-0.333333 51:-1 52:-0.333333 53:-0.333333 54:-0.333333 55:-1 56:1 57:-0.333333 58:1 59:-1 60:1 
19.31627414754528 1:1 2:0.333333 3:-1 4:-1 5:0.333333 6:0.333333 7:-1 8:-0.333333 9:-1 10:-0.333333 11:-0.333333 12:1 13:1 14:0.333333 15:0.333333 16:1 17:-0.333333 18:1 19:-0.333333 20:-0.333333 21:1 22:1 23:0.333333 24:0.333333 25:1 26:-0.333333 27:0.333333 28:-1 29:-0.333333 30:-1 31:-1 32:-1 33:-1 34:0.333333 35:-1 36:-0.333333 37:1 38:0.333333 39:0.333333 40:-1 41:-0.333333 42:-0.333333 43:-1 44:-0.333333 45:0.333333 46:-1 47:0.333333 48:1 49:-1 50:1 51:0.333333 52:-1 53:-0.333333 54:-0.333333 55:-1 56:0.333333 57:1 58:1 59:1 60:-0.333333 
9.90345512941369 1:-0.333333 2:-1 3:-1 4:1 5:1 6:0.333333 7:-1 8:1 9:-0.333333 10:1 11:0.333333 12:1 13:1 14:-1 15:0.333333 16:-0.333333 17:-0.333333 18:1 19:0.333333 20:-1 21:-1 22:-0.333333 23:-0.333333 24:-0.333333 25:0.333333 26:1 27:-1 28:-0.333333 29:-1 30:-0.333333 31:-1 32:-1 33:-1 34:-0.333333 35:-0.333333 36:-1 37:1 38:1 39:1 40:0.333333 41:1 42:-0.333333 43:0.333333 44:-1 45:1 46:0.333333 47:-1 48:0.333333 49:1 50:1 51:1 52:0.333333 53:1 54:1 55:0.333333 56:0.333333 57:1 58:-0.333333 59:1 60:-1 
125 1:0.333333 2:1 3:0.333333 4:1 5:-1 6:-1 7:1 8:0.333333 9:-1 10:-0.333333 11:0.333333 12:0.333333 13:0.333333 14:1 15:0.333333 16:1 17:-0.333333 18:-0.333333 19:0.333333 20:0.333333 21:0.333333 22:-1 23:-0.333333 24:-0.333333 25:0.333333 26:-1 27:-0.333333 28:1 29:0.333333 30:-1 31:-0.333333 32:1 33:-1 34:-1 35:-0.333333 36:1 37:-0.333333 38:1 39:0.333333 40:1 41:0.333333 42:0.333333 43:-1 44:-1 45:-1 46:0.333333 47:0.333333 48:1 49:0.333333 50:1 51:1 52:1 53:0.333333 54:0.333333 55:1 56:-1 57:-1 58:1 59:1 60:0.333333 
81.88403912199851 1:-1 2:0.333333 3:0.333333 4:0.333333 5:0.333333 6:0.333333 7:-0.333333 8:-0.333333 9:1 10:0.333333 11:0.333333 12:-1 13:-1 14:-0.333333 15:0.333333 16:0.333333 17:1 18:0.333333 19:0.333333 20:0.333333 21:0.333333 22:1 23:0.333333 24:0.333333 25:-1 26:0.333333 27:0.333333 28:-1 29:0.333333 30:1 31:-0.333333 32:0.333333 33:-0.333333 34:0.333333 35:0.333333 36:0.333333 37:1 38:1 39:0.333333 40:1 41:0.333333 42:0.333333 43:0.333333 44:1 45:-0.333333 46:-1 47:-0.333333 48:-0.333333 49:-1 50:0.333333 51:0.333333 52:1 53:0.333333 54:-1 55:-0.333333 56:0.333333 57:1 58:1 59:1 60:0.333333 
69.04239857689549 1:1 2:0.333333 3:0.333333 4:0.333333 5:0.333333 6:1 7:0.333333 8:0.333333 9:0.333333 10:-1 11:0.333333 12:0.333333 13:0.333333 14:1 15:0.333333 16:-1 17:-0.333333 18:-0.333333 19:-0.333333 20:-1 21:-0.333333 22:0.333333 23:0.333333 24:-1 25:-0.333333 26:-0.333333 27:0.333333 28:1 29:0.333333 30:-0.333333 31:-0.333333 32:0.333333 33:-1 34:1 35:1 36:1 37:0.333333 38:1 39:-0.333333 40:-0.333333 41:0.333333 42:-1 43:-0.333333 44:0.333333 45:-1 46:-1 47:-0.333333 48:-1 49:1 50:-0.333333 51:-1 52:-1 53:0.333333 54:0.333333 55:0.333333 56:0.333333 57:0.333333 58:0.333333 59:0.333333 60:-1 
2.499583994799993 1:1 2:1 3:-1 4:-0.333333 5:-1 6:-1 7:-0.333333 8:-1 9:1 10:-1 11:-1 12:-1 13:-0.333333 14:-0.333333 15:1 16:0.333333 17:-1 18:-1 19:-0.333333 20:1 21:-1 22:0.333333 23:1 24:-1 25:-1 26:-1 27:1 28:-1 29:1 30:1 31:0.333333 32:-1 33:-0.333333 34:-1 35:1 36:-0.333333 37:-1 38:-0.333333 39:-1 40:-1 41:-0.333333 42:-1 43:-1 44:0.333333 45:-1 46:1 47:1 48:-0.333333 49:0.333333 50:-1 51:1 52:-1 53:-1 54:-1 55:-0.333333 56:0.333333 57:-1 58:1 59:1 60:1 
22.85127157856917 1:-0.333333 2:1 3:-0.333333 4:-0.333333 5:0.333333 6:0.333333 7:-1 8:0.333333 9:-1 10:0.333333 11:-1 12:-0.333333 13:0.333333 14:0.333333 15:1 16:-0.333333 17:-1 18:-0.333333 19:1 20:1 21:-0.333333 22:0.333333 23:-1 24:-1 25:-0.333333 26:1 27:1 28:0.333333 29:0.333333 30:-1 31:-0.333333 32:-0.333333 33:-0.333333 34:0.333333 35:0.333333 36:-1 37:-0.333333 38:1 39:-1 40:-0.333333 41:-1 42:-1 43:-1 44:-1 45:0.333333 46:0.333333 47:1 48:-0.333333 49:0.333333 50:-1 51:-1 52:-0.333333 53:0.333333 54:1 55:-0.333333 56:1 57:-1 58:1 59:0.333333 60:1 
15.38748941637093 1:-0.333333 2:-0.333333 3:0.333333 4:1 5:-0.333333 6:1 7:1 8:1 9:0.333333 10:0.333333 11:1 12:1 13:1 14:-0.333333 15:-0.333333 16:-0.333333 17:0.333333 18:1 19:-1 20:1 21:0.333333 22:0.333333 23:-1 24:1 25:-0.333333 26:1 27:0.333333 28:0.333333 29:-1 30:0.333333 31:0.333333 32:1 33:-1 34:0.333333 35:-1 36:0.333333 37:1 38:-0.333333 39:0.333333 40:0.333333 41:0.333333 42:1 43:1 44:1 45:1 46:1 47:-1 48:-1 49:1 50:0.333333 51:0.333333 52:1 53:1 54:-1 55:0.333333 56:-1 57:-1 58:1 59:1 60:1 
15.22514128693435 1:1 2:-0.333333 3:0.333333 4:1 5:-0.333333 6:1 7:0.333333 8:-1 9:-1 10:1 11:0.333333 12:-1 13:-1 14:0.333333 15:0.333333 16:-1 17:-1 18:-1 19:0.333333 20:1 21:1 22:-1 23:0.333333 24:1 25:-0.333333 26:-1 27:-0.333333 28:-1 29:-1 30:-0.333333 31:-0.333333 32:-0.333333 33:-1 34:-0.333333 35:-0.333333 36:0.333333 37:0.333333 38:0.333333 39:0.333333 40:-0.333333 41:-1 42:1 43:0.333333 44:1 45:-0.333333 46:0.333333 47:1 48:-0.333333 49:1 50:0.333333 51:-1 52:-1 53:1 54:0.333333 55:-1 56:1 57:0.333333 58:-1 59:-1 60:-1 
67.33392645654317 1:-0.333333 2:0.333333 3:1 4:-0.333333 5:-0.333333 6:-0.333333 7:0.333333 8:1 9:0.333333 10:-0.333333 11:-0.333333 12:-0.333333 13:0.333333 14:-1 15:1 16:-0.333333 17:-0.333333 18:0.333333 19:-0.333333 20:-0.333333 21:1 22:0.333333 23:-0.333333 24:-1 25:0.333333 26:1 27:-0.333333 28:0.333333 29:1 30:0.333333 31:0.333333 32:-1 33:0.333333 34:-0.333333 35:0.333333 36:1 37:-0.333333 38:-1 39:0.333333 40:0.333333 41:1 42:0.333333 43:0.333333 44:-1 45:-1 46:-0.333333 47:1 48:-0.333333 49:1 50:0.333333 51:1 52:-0.333333 53:0.333333 54:1 55:-0.333333 56:0.333333 57:1 58:0.333333 59:-1 60:-1 
17.5204240835074 1:1 2:-1 3:0.333333 4:0.333333 5:-1 6:-1 7:0.333333 8:1 9:-0.333333 10:0.333333 11:-1 12:-0.333333 13:-1 14:-0.333333 15:0.333333 16:0.333333 17:-1 18:-0.333333 19:-0.333333 20:-1 21:-1 22:-1 23:-1 24:0.333333 25:1 26:1 27:1 28:-0.333333 29:-1 30:-1 31:-0.333333 32:0.333333 33:0.333333 34:1 35:1 36:0.333333 37:-1 38:1 39:-0.333333 40:-1 41:-1 42:-0.333333 43:-0.333333 44:0.333333 45:-1 46:-1 47:1 48:0.333333 49:-0.333333 50:-0.333333 51:1 52:0.333333 53:1 54:-0.333333 55:0.333333 56:0.333333 57:-0.333333 58:-0.333333 59:-1 60:-1 
10.50684791631043 1:1 2:1 3:-0.333333 4:0.333333 5:0.333333 6:0.333333 7:1 8:1 9:-0.333333 10:-1 11:-0.333333 12:-1 13:1 14:0.333333 15:1 16:-1 17:1 18:1 19:1 20:1 21:0.333333 22:0.333333 23:1 24:1 25:0.333333 26:1 27:0.333333 28:-1 29:-1 30:1 31:-1 32:1 33:-0.333333 34:1 35:1 36:-0.333333 37:-1 38:1 39:0.333333 40:-1 41:-1 42:-0.333333 43:0.333333 44:-1 45:-0.333333 46:-1 47:-0.333333 48:1 49:1 50:-0.333333 51:-0.333333 52:-1 53:-1 54:-1 55:-1 56:-1 57:1 58:-1 59:1 60:-0.333333 
5.412969712260858 1:1 2:1 3:-1 4:-1 5:-0.333333 6:-0.333333 7:-1 8:-0.333333 9:-0.333333 10:-1 11:-1 12:-0.333333 13:-0.333333 14:-1 15:-1 16:1 17:-0.333333 18:-1 19:-1 20:-1 21:0.333333 22:0.333333 23:1 24:-0.333333 25:1 26:1 27:1 28:0.333333 29:-1 30:-1 31:0.333333 32:-1 33:1 34:-0.333333 35:-0.333333 36:-1 37:-1 38:-1 39:1 40:-0.333333 41:-1 42:1 43:0.333333 44:1 45:-0.333333 46:1 47:-1 48:1 49:1 50:-0.333333 51:-1 52:0.333333 53:1 54:-1 55:-1 56:1 57:-1 58:0.333333 59:-1 60:0.333333 
8.993022882978913 1:0.333333 2:-1 3:-1 4:-1 5:-0.333333 6:1 7:1 8:-0.333333 9:1 10:0.333333 11:0.333333 12:1 13:0.333333 14:1 15:1 16:0.333333 17:1 18:1 19:0.333333 20:-1 21:-0.333333 22:-1 23:1 24:1 25:0.333333 26:-1 27:-0.333333 28:0.333333 29:-1 30:1 31:1 32:1 33:-0.333333 34:1 35:1 36:0.333333 37:1 38:1 39:1 40:-0.333333 41:0.333333 42:0.333333 43:-1 44:-0.333333 45:1 46:0.333333 47:1 48:0.333333 49:-1 50:1 51:1 52:1 53:1 54:0.333333 55:-1 56:1 57:0.333333 58:1 59:1 60:0.333333 
8.676908175540643 1:1 2:-1 3:-1 4:-1 5:-1 6:-1 7:-1 8:-0.333333 9:-1 10:0.333333 11:1 12:0.333333 13:1 14:0.333333 15:1 16:-0.333333 17:0.333333 18:1 19:-0.333333 20:1 21:-0.333333 22:-0.333333 23:-0.333333 24:-1 25:-0.333333 26:-1 27:1 28:0.333333 29:0.333333 30:0.333333 31:1 32:1 33:0.333333 34:-1 35:-0.333333 36:-1 37:-0.333333 38:-1 39:-0.333333 40:-1 41:-0.333333 42:-1 43:-0.333333 44:-1 45:-0.333333 46:-1 47:0.333333 48:0.333333 49:-1 50:-0.333333 51:-1 52:-1 53:-1 54:1 55:-1 56:-1 57:1 58:0.333333 59:1 60:1 
4.323331402851724 1:1 2:0.333333 3:1 4:-1 5:-1 6:1 7:1 8:1 9:-1 10:-1 11:-0.333333 12:-1 13:-1 14:0.333333 15:-1 16:-1 17:0.333333 18:1 19:-1 20:-1 21:0.333333 22:0.333333 23:0.333333 24:1 25:1 26:1 27:1 28:1 29:-1 30:-1 31:1 32:-0.333333 33:-1 34:-1 35:1 36:-1 37:-1 38:-1 39:1 40:0.333333 41:-1 42:-1 43:0.333333 44:0.333333 45:1 46:1 47:-0.333333 48:1 49:-1 50:1 51:1 52:-0.333333 53:-1 54:-0.333333 55:1 56:1 57:-0.333333 58:0.333333 59:1 60:-1 
56.25983178363347 1:-0.333333 2:-0.333333 3:-0.333333 4:-1 5:-0.333333 6:-0.333333 7:-1 8:-0.333333 9:-0.333333 10:-1 11:-0.333333 12:-0.333333 13:1 14:1 15:-0.333333 16:0.333333 17:-1 18:-0.333333 19:1 20:-0.333333 21:-1 22:-0.333333 23:0.333333 24:0.333333 25:-0.333333 26:-1 27:-0.333333 28:-1 29:1 30:-0.333333 31:-0.333333 32:1 33:-0.333333 34:0.333333 35:0.333333 36:-1 37:0.333333 38:1 39:-0.333333 40:0.333333 41:-1 42:0.333333 43:1 44:0.333333 45:0.333333 46:-1 47:-0.333333 48:0.333333 49:0.333333 50:1 51:-0.333333 52:-0.333333 53:0.333333 54:-1 55:-1 56:0.333333 57:-1 58:-0.333333 59:-1 60:-0.333333 
125 1:-0.333333 2:-1 3:1 4:-0.333333 5:1 6:1 7:-1 8:-1 9:0.333333 10:0.333333 11:-1 12:1 13:1 14:0.333333 15:1 16:0.333333 17:0.333333 18:1 19:1 20:0.333333 21:1 22:0.333333 23:0.333333 24:0.333333 25:0.333333 26:-1 27:-1 28:0.333333 29:-1 30:-0.333333 31:1 32:1 33:0.333333 34:0.333333 35:0.333333 36:0.333333 37:-1 38:-0.333333 39:-0.333333 40:-0.333333 41:-1 42:0.333333 43:0.333333 44:1 45:0.333333 46:1 47:0.333333 48:1 49:0.333333 50:1 51:-1 52:-1 53:1 54:0.333333 55:-1 56:-0.333333 57:0.333333 58:0.333333 59:0.333333 60:1 
125 1:-1 2:-0.333333 3:-0.333333 4:-0.333333 5:-0.333333 6:0.333333 7:1 8:-0.333333 9:0.333333 10:0.333333 11:-0.333333 12:0.333333 13:-1 14:-0.333333 15:0.333333 16:0.333333 17:-0.333333 18:0.333333 19:0.333333 20:-0.333333 21:0.333333 22:-0.333333 23:-1 24:-0.333333 25:0.333333 26:0.333333 27:1 28:0.333333 29:0.333333 30:-0.333333 31:-0.333333 32:-1 33:0.333333 34:-1 35:-0.333333 36:-1 37:0.333333 38:-0.333333 39:0.333333 40:0.333333 41:-1 42:-0.333333 43:-1 44:-0.333333 45:0.333333 46:-0.333333 47:-1 48:-0.333333 49:-0.333333 50:-1 51:-0.333333 52:-0.333333 53:0.333333 54:-0.333333 55:0.333333 56:1 57:-1 58:0.333333 59:-0.333333 60:0.333333 
52.8168039663792 1:-0.333333 2:1 3:0.333333 4:-1 5:-1 6:-0.333333 7:-1 8:1 9:1 10:-0.333333 11:-1 12:0.333333 13:0.333333 14:-1 15:-0.333333 16:-1 17:0.333333 18:0.333333 19:-0.333333 20:1 21:-0.333333 22:-0.333333 23:-1 24:-0.333333 25:-0.333333 26:-1 27:-0.333333 28:0.333333 29:1 30:-0.333333 31:0.333333 32:-0.333333 33:0.333333 34:0.333333 35:-0.333333 36:0.333333 37:-1 38:-0.333333 39:0.333333 40:0.333333 41:1 42:-0.333333 43:-0.333333 44:0.333333 45:1 46:0.333333 47:0.333333 48:0.333333 49:1 50:-1 51:1 52:-0.333333 53:0.333333 54:1 55:0.333333 56:-1 57:-0.333333 58:-0.333333 59:-1 60:0.333333 
50.14149338348929 1:0.333333 2:-1 3:-0.333333 4:-0.333333 5:0.333333 6:1 7:-0.333333 8:-0.333333 9:-1 10:-0.333333 11:1 12:-0.333333 13:0.333333 14:-1 15:-0.333333 16:1 17:-0.333333 18:-0.333333 19:0.333333 20:-1 21:0.333333 22:-0.333333 23:-1 24:1 25:0.333333 26:1 27:0.333333 28:1 29:-0.333333 30:0.333333 31:1 32:0.333333 33:-1 34:1 35:1 36:-0.333333 37:0.333333 38:-1 39:-1 40:-0.333333 41:0.333333 42:1 43:0.333333 44:0.333333 45:-0.333333 46:0.333333 47:0.333333 48:1 49:0.333333 50:0.333333 51:1 52:-0.333333 53:-0.333333 54:-0.333333 55:1 56:1 57:0.333333 58:-1 59:0.333333 60:-0.333333 
8.508699318967478 1:-1 2:1 3:0.333333 4:-1 5:-1 6:-1 7:1 8:-1 9:-1 10:-1 11:-1 12:0.333333 13:-1 14:-0.333333 15:-0.333333 16:-0.333333 17:-1 18:1 19:1 20:0.333333 21:1 22:-1 23:-1 24:-1 25:-1 26:1 27:-0.333333 28:0.333333 29:1 30:-1 31:1 32:1 33:-1 34:-0.333333 35:-1 36:-1 37:1 38:1 39:-0.333333 40:1 41:-0.333333 42:-1 43:-0.333333 44:-0.333333 45:0.333333 46:1 47:0.333333 48:-1 49:-0.333333 50:-0.333333 51:-0.333333 52:1 53:-0.333333 54:-0.333333 55:-0.333333 56:0.333333 57:-1 58:0.333333 59:-0.333333 60:-0.333333 
38.31244876911885 1:-0.333333 2:0.333333 3:0.333333 4:0.333333 5:-1 6:-0.333333 7:0.333333 8:1 9:0.333333 10:-1 11:-0.333333 12:0.333333 13:1 14:0.333333 15:-1 16:-0.333333 17:1 18:1 19:0.333333 20:-1 21:-0.333333 22:1 23:1 24:0.333333 25:-1 26:-0.333333 27:0.333333 28:0.333333 29:0.333333 30:1 31:-0.333333 32:1 33:1 34:0.333333 35:-1 36:-0.333333 37:0.333333 38:-1 39:0.333333 40:-1 41:-0.333333 42:0.333333 43:-1 44:0.333333 45:-1 46:1 47:0.333333 48:-1 49:-0.333333 50:-1 51:-0.333333 52:0.333333 53:0.333333 54:0.333333 55:1 56:-0.333333 57:0.333333 58:-0.333333 59:-1 60:1 
13.51214461656098 1:1 2:-1 3:1 4:1 5:0.333333 6:1 7:1 8:-0.333333 9:-1 10:0.333333 11:-1 12:1 13:-0.333333 14:-1 15:-0.333333 16:-1 17:-1 18:-1 19:-1 20:1 21:0.333333 22:-1 23:-0.333333 24:1 25:-1 26:-1 27:1 28:1 29:-0.333333 30:-0.333333 31:-1 32:0.333333 33:0.333333 34:-1 35:-0.333333 36:-0.333333 37:0.333333 38:-0.333333 39:0.333333 40:-0.333333 41:-0.333333 42:1 43:-0.333333 44:-0.333333 45:0.333333 46:1 47:0.333333 48:1 49:1 50:-0.333333 51:0.333333 52:0.333333 53:1 54:-0.333333 55:1 56:-1 57:-1 58:1 59:0.333333 60:0.333333 
13.4071062689972 1:0.333333 2:1 3:-1 4:1 5:-0.333333 6:-1 7:0.333333 8:-1 9:-1 10:-0.333333 11:-1 12:-1 13:0.333333 14:-1 15:1 16:0.333333 17:-1 18:1 19:-0.333333 20:-1 21:0.333333 22:0.333333 23:-1 24:-1 25:-0.333333 26:-0.333333 27:1 28:0.333333 29:0.333333 30:-1 31:1 32:-0.333333 33:-0.333333 34:-0.333333 35:-1 36:-1 37:-0.333333 38:0.333333 39:-0.333333 40:0.333333 41:1 42:-1 43:0.333333 44:-0.333333 45:0.333333 46:0.333333 47:1 48:-1 49:0.333333 50:-1 51:-1 52:-0.333333 53:1 54:1 55:0.333333 56:-0.333333 57:-1 58:0.333333 59:1 60:1 
19.64418234840306 1:1 2:0.333333 3:-1 4:0.333333 5:1 6:1 7:1 8:1 9:1 10:0.333333 11:0.333333 12:0.333333 13:1 14:1 15:0.333333 16:1 17:1 18:1 19:1 20:1 21:0.333333 22:0.333333 23:1 24:1 25:-1 26:1 27:0.333333 28:0.333333 29:-1 30:-0.333333 31:-0.333333 32:-0.333333 33:-1 34:-1 35:0.333333 36:0.333333 37:-0.333333 38:-1 39:-1 40:-0.333333 41:-1 42:0.333333 43:-0.333333 44:1 45:-0.333333 46:1 47:1 48:1 49:-0.333333 50:0.333333 51:-1 52:-1 53:-1 54:1 55:-0.333333 56:1 57:0.333333 58:0.333333 59:0.333333 60:0.333333 
14.54088285890356 1:0.333333 2:1 3:-1 4:-0.333333 5:0.333333 6:0.333333 7:1 8:-1 9:-0.333333 10:-1 11:-1 12:0.333333 13:-1 14:1 15:0.333333 16:0.333333 17:0.333333 18:-1 19:0.333333 20:0.333333 21:-1 22:-1 23:1 24:-1 25:1 26:0.333333 27:1 28:0.333333 29:0.333333 30:-1 31:0.333333 32:0.333333 33:0.333333 34:-1 35:0.333333 36:1 37:1 38:-1 39:-1 40:-0.333333 41:-0.333333 42:-1 43:-0.333333 44:-1 45:-1 46:-1 47:-1 48:-0.333333 49:-0.333333 50:0.333333 51:1 52:-1 53:1 54:0.333333 55:-1 56:-1 57:-0.333333 58:-0.333333 59:-0.333333 60:1 
41.10592105620808 1:-0.333333 2:-0.333333 3:1 4:-0.333333 5:-0.333333 6:-1 7:-0.333333 8:-0.333333 9:-1 10:-0.333333 11:-0.333333 12:0.333333 13:1 14:1 15:1 16:0.333333 17:-1 18:1 19:-1 20:1 21:1 22:0.333333 23:-0.333333 24:1 25:-0.333333 26:0.333333 27:0.333333 28:-1 29:1 30:-0.333333 31:-1 32:0.333333 33:0.333333 34:0.333333 35:0.333333 36:1 37:0.333333 38:-1 39:-1 40:-0.333333 41:-0.333333 42:0.333333 43:-0.333333 44:-0.333333 45:-0.333333 46:0.333333 47:0.333333 48:-1 49:1 50:1 51:0.333333 52:-0.333333 53:1 54:-0.333333 55:1 56:-0.333333 57:0.333333 58:-1 59:0.333333 60:0.333333 
2.196428826703126 1:1 2:-1 3:1 4:1 5:1 6:1 7:-1 8:1 9:1 10:1 11:-1 12:-1 13:1 14:1 15:-0.333333 16:1 17:1 18:0.333333 19:1 20:-1 21:1 22:1 23:1 24:1 25:-1 26:1 27:0.333333 28:-1 29:1 30:1 31:-1 32:-0.333333 33:1 34:1 35:-1 36:1 37:1 38:-0.333333 39:1 40:1 41:1 42:-0.333333 43:1 44:1 45:-1 46:-1 47:1 48:0.333333 49:1 50:0.333333 51:1 52:1 53:-0.333333 54:0.333333 55:1 56:-0.333333 57:1 58:-1 59:0.333333 60:0.333333 
8.792266064119717 1:0.333333 2:1 3:-0.333333 4:0.333333 5:-1 6:-1 7:-1 8:-1 9:-0.333333 10:0.333333 11:1 12:-0.333333 13:-0.333333 14:-1 15:-1 16:-0.333333 17:-1 18:-1 19:-0.333333 20:0.333333 21:-1 22:-0.333333 23:-1 24:-1 25:-1 26:-1 27:-1 28:-0.333333 29:0.333333 30:1 31:-0.333333 32:0.333333 33:1 34:-0.333333 35:-0.333333 36:1 37:-0.333333 38:-1 39:-0.333333 40:-1 41:-0.333333 42:1 43:-0.333333 44:-1 45:-0.333333 46:-1 47:-0.333333 48:-1 49:-0.333333 50:-0.333333 51:1 52:-1 53:1 54:-0.333333 55:-1 56:-1 57:-0.333333 58:-0.333333 59:1 60:1 
31.49150312016993 1:1 2:0.333333 3:1 4:-0.333333 5:-0.333333 6:-0.333333 7:0.333333 8:-1 9:1 10:-1 11:-0.333333 12:-0.333333 13:-1 14:-0.333333 15:1 16:-0.333333 17:1 18:-1 19:1 20:0.333333 21:0.333333 22:1 23:-0.333333 24:-0.333333 25:1 26:-1 27:0.333333 28:0.333333 29:-1 30:-1 31:0.333333 32:-1 33:-0.333333 34:-1 35:0.333333 36:0.333333 37:0.333333 38:0.333333 39:-1 40:-0.333333 41:-0.333333 42:-1 43:0.333333 44:-1 45:-0.333333 46:-0.333333 47:-0.333333 48:0.333333 49:0.333333 50:1 51:1 52:0.333333 53:-1 54:-0.333333 55:1 56:1 57:0.333333 58:0.333333 59:1 60:0.333333 
41.56576514182063 1:0.333333 2:0.333333 3:-1 4:-0.333333 5:-1 6:0.333333 7:0.333333 8:-1 9:1 10:1 11:-0.333333 12:-0.333333 13:0.333333 14:1 15:1 16:-0.333333 17:-1 18:-0.333333 19:1 20:-0.333333 21:0.333333 22:-1 23:-0.333333 24:0.333333 25:0.333333 26:-0.333333 27:0.333333 28:0.333333 29:0.333333 30:-0.333333 31:0.333333 32:1 33:1 34:1 35:-1 36:-1 37:0.333333 38:0.333333 39:-1 40:-0.333333 41:1 42:-0.333333 43:0.333333 44:-1 45:-1 46:0.333333 47:-1 48:0.333333 49:-0.333333 50:-1 51:0.333333 52:-1 53:0.333333 54:-0.333333 55:0.333333 56:-0.333333 57:-0.333333 58:0.333333 59:-1 60:-1 
46.15959549854578 1:-0.333333 2:-0.333333 3:-0.333333 4:1 5:0.333333 6:0.333333 7:0.333333 8:-1 9:0.333333 10:0.333333 11:-1 12:-1 13:1 14:0.333333 15:1 16:1 17:-0.333333 18:1 19:1 20:1 21:-0.333333 22:0.333333 23:1 24:1 25:0.333333 26:1 27:-0.333333 28:0.333333 29:-1 30:-0.333333 31:-1 32:-0.333333 33:0.333333 34:0.333333 35:1 36:0.333333 37:-1 38:-0.333333 39:0.333333 40:0.333333 41:1 42:-0.333333 43:0.333333 44:0.333333 45:1 46:-0.333333 47:-0.333333 48:-1 49:-1 50:-0.333333 51:-1 52:1 53:-0.333333 54:0.333333 55:0.333333 56:-0.333333 57:-1 58:-0.333333 59:-1 60:1 
5.679759990879249 1:1 2:-0.333333 3:-0.333333 4:-0.333333 5:1 6:1 7:0.333333 8:0.333333 9:-1 10:-1 11:-1 12:1 13:1 14:-1 15:-1 16:1 17:-1 18:-0.333333 19:1 20:1 21:-0.333333 22:1 23:-1 24:-1 25:-0.333333 26:1 27:-1 28:1 29:-0.333333 30:-1 31:-0.333333 32:1 33:0.333333 34:1 35:-0.333333 36:0.333333 37:0.333333 38:-1 39:-0.333333 40:1 41:0.333333 42:-1 43:-1 44:1 45:-1 46:-1 47:-1 48:1 49:-1 50:0.333333 51:-1 52:1 53:-0.333333 54:-0.333333 55:-1 56:1 57:-1 58:1 59:-1 60:-1 
11.51868285269983 1:-0.333333 2:-1 3:-1 4:1 5:0.333333 6:0.333333 7:0.333333 8:-1 9:-0.333333 10:0.333333 11:-1 12:-0.333333 13:1 14:1 15:1 16:0.333333 17:1 18:1 19:1 20:0.333333 21:1 22:-0.333333 23:1 24:1 25:1 26:1 27:1 28:-0.333333 29:0.333333 30:-0.333333 31:-1 32:-0.333333 33:-0.333333 34:-1 35:0.333333 36:-1 37:0.333333 38:-1 39:-0.333333 40:-1 41:1 42:1 43:-1 44:1 45:0.333333 46:0.333333 47:1 48:1 49:-1 50:1 51:1 52:1 53:-0.333333 54:-0.333333 55:-0.333333 56:1 57:-1 58:0.333333 59:0.333333 60:-1 
4.418043579154981 1:1 2:1 3:1 4:0.333333 5:-1 6:-0.333333 7:-1 8:0.333333 9:-1 10:1 11:-0.333333 12:0.333333 13:-1 14:-0.333333 15:1 16:0.333333 17:-1 18:-0.333333 19:-1 20:-1 21:-1 22:-1 23:1 24:-1 25:-0.333333 26:-1 27:1 28:1 29:1 30:-1 31:0.333333 32:1 33:-1 34:0.333333 35:-1 36:1 37:0.333333 38:0.333333 39:1 40:1 41:-1 42:1 43:1 44:-1 45:-1 46:1 47:-0.333333 48:-1 49:1 50:-1 51:0.333333 52:0.333333 53:-1 54:1 55:1 56:-1 57:1 58:1 59:-0.333333 60:-0.333333 
78.29731281667628 1:1 2:-0.333333 3:-0.333333 4:-1 5:0.333333 6:0.333333 7:-1 8:1 9:0.333333 10:-0.333333 11:0.333333 12:-0.333333 13:-0.333333 14:-1 15:1 16:-1 17:-0.333333 18:-1 19:0.333333 20:-1 21:-1 22:-0.333333 23:-1 24:-1 25:0.333333 26:0.333333 27:-0.333333 28:-1 29:-0.333333 30:-0.333333 31:-0.333333 32:-0.333333 33:0.333333 34:0.333333 35:1 36:0.333333 37:1 38:-0.333333 39:0.333333 40:-0.333333 41:0.333333 42:0.333333 43:0.333333 44:1 45:-0.333333 46:-0.333333 47:-0.333333 48:0.333333 49:0.333333 50:0.333333 51:-1 52:-0.333333 53:0.333333 54:1 55:0.333333 56:1 57:-0.333333 58:1 59:0.333333 60:0.333333 
62.685061454565 1:-1 2:0.333333 3:-0.333333 4:1 5:-0.333333 6:0.333333 7:1 8:-0.333333 9:0.333333 10:-1 11:-0.333333 12:-1 13:1 14:0.333333 15:0.333333 16:-0.333333 17:-1 18:-1 19:1 20:1 21:-0.333333 22:-0.333333 23:0.333333 24:1 25:0.333333 26:0.333333 27:-1 28:0.333333 29:-1 30:0.333333 31:0.333333 32:0.333333 33:-0.333333 34:1 35:-0.333333 36:-0.333333 37:1 38:-0.333333 39:-0.333333 40:1 41:-0.333333 42:0.333333 43:1 44:-0.333333 45:-1 46:-0.333333 47:0.333333 48:-0.333333 49:-0.333333 50:0.333333 51:0.333333 52:1 53:-0.333333 54:-0.333333 55:-1 56:0.333333 57:-1 58:0.333333 59:0.333333 60:-1 
37.32583708144608 1:-1 2:0.333333 3:0.333333 4:-1 5:-0.333333 6:0.333333 7:-0.333333 8:0.333333 9:0.333333 10:-1 11:-1 12:-1 13:1 14:-0.333333 15:1 16:1 17:0.333333 18:-1 19:1 20:0.333333 21:0.333333 22:1 23:0.333333 24:-1 25:1 26:1 27:-0.333333 28:0.333333 29:0.333333 30:1 31:0.333333 32:0.333333 33:1 34:-0.333333 35:1 36:1 37:0.333333 38:1 39:-0.333333 40:0.333333 41:0.333333 42:0.333333 43:-1 44:0.333333 45:-0.333333 46:-1 47:1 48:0.333333 49:0.333333 50:0.333333 51:0.333333 52:1 53:0.333333 54:0.333333 55:0.333333 56:0.333333 57:0.333333 58:-1 59:-1 60:-0.333333 
15.29089363439847 1:-1 2:1 3:0.333333 4:0.333333 5:0.333333 6:0.333333 7:-1 8:-0.333333 9:-1 10:1 11:0.333333 12:0.333333 13:1 14:-1 15:-1 16:-0.333333 17:-1 18:-0.333333 19:-0.333333 20:0.333333 21:0.333333 22:-0.333333 23:-1 24:-1 25:1 26:-0.333333 27:-0.333333 28:1 29:-1 30:1 31:0.333333 32:1 33:-0.333333 34:-0.333333 35:-0.333333 36:0.333333 37:-1 38:-0.333333 39:-1 40:-1 41:-1 42:-0.333333 43:-1 44:1 45:0.333333 46:-0.333333 47:-1 48:1 49:-1 50:1 51:-1 52:0.333333 53:0.333333 54:1 55:-1 56:1 57:-1 58:-1 59:0.333333 60:-0.333333 
45.07244105439352 1:1 2:-1 3:1 4:-0.333333 5:-1 6:-0.333333 7:-0.333333 8:0.333333 9:0.333333 10:-1 11:0.333333 12:0.333333 13:0.333333 14:1 15:-0.333333 16:-1 17:-0.333333 18:-0.333333 19:1 20:-0.333333 21:0.333333 22:1 23:-0.333333 24:-0.333333 25:-0.333333 26:0.333333 27:0.333333 28:0.333333 29:1 30:-0.333333 31:-0.333333 32:-0.333333 33:0.333333 34:1 35:1 36:0.333333 37:1 38:-1 39:0.333333 40:0.333333 41:0.333333 42:1 43:-0.333333 44:0.333333 45:-0.333333 46:-0.333333 47:-1 48:-0.333333 49:-1 50:1 51:0.333333 52:-1 53:1 54:-1 55:0.333333 56:1 57:-0.333333 58:-1 59:0.333333 60:0.333333 
26.75954021560101 1:1 2:1 3:1 4:-0.333333 5:0.333333 6:1 7:1 8:0.333333 9:-1 10:-0.333333 11:1 12:0.333333 13:0.333333 14:1 15:1 16:-0.333333 17:-1 18:-1 19:1 20:0.333333 21:-1 22:0.333333 23:0.333333 24:1 25:-0.333333 26:1 27:-0.333333 28:-0.333333 29:-0.333333 30:-1 31:0.333333 32:1 33:1 34:-0.333333 35:-1 36:-0.333333 37:-0.333333 38:-1 39:0.333333 40:1 41:0.333333 42:-0.333333 43:-0.333333 44:-0.333333 45:-1 46:1 47:0.333333 48:1 49:1 50:0.333333 51:-1 52:-0.333333 53:-0.333333 54:-1 55:0.333333 56:-0.333333 57:0.333333 58:0.333333 59:1 60:-0.333333 
24.4261677623633 1:-0.333333 2:1 3:1 4:0.333333 5:1 6:-1 7:-0.333333 8:-1 9:-1 10:-0.333333 11:0.333333 12:0.333333 13:1 14:-0.333333 15:-0.333333 16:-0.333333 17:0.333333 18:-0.333333 19:-1 20:-1 21:-0.333333 22:1 23:0.333333 24:0.333333 25:-0.333333 26:-0.333333 27:0.333333 28:1 29:-1 30:-1 31:1 32:1 33:-0.333333 34:1 35:-0.333333 36:-0.333333 37:-1 38:0.333333 39:1 40:1 41:-0.333333 42:-0.333333 43:-0.333333 44:-0.333333 45:-1 46:-1 47:-1 48:-1 49:1 50:-1 51:-1 52:-0.333333 53:-0.333333 54:0.333333 55:0.333333 56:0.333333 57:-1 58:-1 59:0.333333 60:0.333333 
5.571565265524931 1:-0.333333 2:-1 3:-1 4:-1 5:-1 6:-0.333333 7:-1 8:-1 9:-1 10:0.333333 11:1 12:1 13:-1 14:1 15:1 16:1 17:0.333333 18:1 19:-0.333333 20:1 21:1 22:-0.333333 23:-1 24:0.333333 25:-1 26:0.333333 27:-0.333333 28:-0.333333 29:-1 30:-1 31:0.333333 32:-1 33:1 34:1 35:0.333333 36:0.333333 37:-1 38:-1 39:1 40:-1 41:1 42:0.333333 43:1 44:-1 45:1 46:0.333333 47:1 48:1 49:0.333333 50:-1 51:-1 52:-1 53:-1 54:1 55:-0.333333 56:-0.333333 57:0.333333 58:0.333333 59:0.333333 60:-1 
51.66268482801128 1:0.333333 2:1 3:-1 4:0.333333 5:-1 6:-1 7:-0.333333 8:0.333333 9:-1 10:0.333333 11:1 12:-0.333333 13:-1 14:-1 15:-0.333333 16:0.333333 17:1 18:-0.333333 19:1 20:-0.333333 21:0.333333 22:0.333333 23:-0.333333 24:0.333333 25:0.333333 26:-1 27:-0.333333 28:0.333333 29:1 30:0.333333 31:1 32:0.333333 33:-1 34:-0.333333 35:1 36:0.333333 37:0.333333 38:0.333333 39:-1 40:0.333333 41:-1 42:-0.333333 43:0.333333 44:1 45:0.333333 46:1 47:0.333333 48:-1 49:-0.333333 50:-0.333333 51:0.333333 52:0.333333 53:0.333333 54:0.333333 55:1 56:0.333333 57:1 58:0.333333 59:1 60:-0.333333 
18.22955405526773 1:0.333333 2:1 3:-1 4:1 5:0.333333 6:0.333333 7:0.333333 8:-1 9:-1 10:-0.333333 11:1 12:0.333333 13:1 14:-1 15:1 16:-0.333333 17:1 18:0.333333 19:0.333333 20:-1 21:-1 22:-0.333333 23:-0.333333 24:-1 25:-1 26:-0.333333 27:0.333333 28:1 29:-0.333333 30:1 31:-0.333333 32:-0.333333 33:0.333333 34:0.333333 35:-1 36:1 37:0.333333 38:1 39:-0.333333 40:0.333333 41:-1 42:-1 43:-1 44:-0.333333 45:-0.333333 46:-0.333333 47:0.333333 48:1 49:-0.333333 50:-1 51:1 52:-0.333333 53:-1 54:0.333333 55:0.333333 56:-1 57:-1 58:-1 59:0.333333 60:-1 
38.31225258773748 1:0.333333 2:1 3:-0.333333 4:-0.333333 5:1 6:-0.333333 7:1 8:-0.333333 9:-1 10:-1 11:1 12:-0.333333 13:-0.333333 14:0.333333 15:-1 16:1 17:1 18:0.333333 19:1 20:0.333333 21:1 22:1 23:1 24:1 25:1 26:1 27:-0.333333 28:0.333333 29:-1 30:-0.333333 31:-1 32:0.333333 33:-1 34:-0.333333 35:-1 36:-0.333333 37:-0.333333 38:-1 39:-0.333333 40:0.333333 41:1 42:-0.333333 43:-1 44:-1 45:0.333333 46:0.333333 47:-0.333333 48:0.333333 49:-0.333333 50:-1 51:-0.333333 52:-0.333333 53:1 54:-0.333333 55:-0.333333 56:0.333333 57:0.333333 58:-1 59:0.333333 60:0.333333 
13.40191643849715 1:1 2:1 3:-0.333333 4:0.333333 5:-1 6:-0.333333 7:0.333333 8:-1 9:-1 10:-1 11:-0.333333 12:-1 13:1 14:0.333333 15:1 16:1 17:-0.333333 18:-0.333333 19:-1 20:-1 21:-1 22:1 23:-0.333333 24:0.333333 25:1 26:1 27:-0.333333 28:-1 29:-1 30:-0.333333 31:-1 32:0.333333 33:0.333333 34:-1 35:0.333333 36:-1 37:-1 38:-0.333333 39:-0.333333 40:0.333333 41:1 42:-0.333333 43:-1 44:-1 45:-1 46:-1 47:-0.333333 48:1 49:-0.333333 50:0.333333 51:1 52:1 53:1 54:-0.333333 55:0.333333 56:1 57:-0.333333 58:-0.333333 59:-1 60:-0.333333 
20.00246543286016 1:0.333333 2:-1 3:-0.333333 4:-1 5:0.333333 6:-1 7:1 8:-0.333333 9:-1 10:1 11:1 12:1 13:0.333333 14:-0.333333 15:-0.333333 16:-1 17:1 18:1 19:0.333333 20:0.333333 21:0.333333 22:0.333333 23:-0.333333 24:-1 25:-0.333333 26:-0.333333 27:-1 28:-0.333333 29:-0.333333 30:-1 31:-0.333333 32:1 33:1 34:1 35:-0.333333 36:-1 37:1 38:-0.333333 39:-0.333333 40:0.333333 41:0.333333 42:-1 43:0.333333 44:0.333333 45:-1 46:-0.333333 47:1 48:1 49:0.333333 50:0.333333 51:-1 52:-0.333333 53:-1 54:-1 55:-0.333333 56:-1 57:0.333333 58:1 59:0.333333 60:-1 
28.72267351344692 1:1 2:-1 3:0.333333 4:0.333333 5:-1 6:1 7:-0.333333 8:1 9:-1 10:0.333333 11:1 12:0.333333 13:1 14:-0.333333 15:0.333333 16:0.333333 17:1 18:1 19:-1 20:1 21:0.333333 22:1 23:0.333333 24:0.333333 25:0.333333 26:0.333333 27:0.333333 28:0.333333 29:-1 30:-0.333333 31:-1 32:-0.333333 33:1 34:1 35:1 36:-0.333333 37:-1 38:1 39:-0.333333 40:0.333333 41:1 42:0.333333 43:0.333333 44:-1 45:-1 46:-0.333333 47:0.333333 48:0.333333 49:0.333333 50:1 51:0.333333 52:1 53:0.333333 54:0.333333 55:0.333333 56:-1 57:-0.333333 58:-1 59:-0.333333 60:-1 
120.3337323425721 1:0.333333 2:0.333333 3:-1 4:-0.333333 5:1 6:0.333333 7:0.333333 8:-0.333333 9:0.333333 10:1 11:0.333333 12:-1 13:-0.333333 14:0.333333 15:0.333333 16:0.333333 17:-1 18:-0.333333 19:0.333333 20:0.333333 21:0.333333 22:-1 23:-1 24:-0.333333 25:0.333333 26:0.333333 27:0.333333 28:-1 29:-0.333333 30:0.333333 31:0.333333 32:0.333333 33:-1 34:-0.333333 35:0.333333 36:-0.333333 37:0.333333 38:0.333333 39:-1 40:-1 41:0.333333 42:0.333333 43:0.333333 44:-1 45:-0.333333 46:0.333333 47:1 48:0.333333 49:-0.333333 50:-0.333333 51:0.333333 52:1 53:1 54:-1 55:-1 56:0.333333 57:0.333333 58:0.333333 59:-1 60:-0.333333 
57.90035464745323 1:1 2:-1 3:0.333333 4:-1 5:0.333333 6:0.333333 7:1 8:-0.333333 9:0.333333 10:0.333333 11:-1 12:1 13:-0.333333 14:1 15:-0.333333 16:0.333333 17:-1 18:-0.333333 19:0.333333 20:-1 21:1 22:-0.333333 23:-1 24:-0.333333 25:-0.333333 26:-0.333333 27:1 28:0.333333 29:1 30:-0.333333 31:0.333333 32:0.333333 33:0.333333 34:-1 35:-1 36:-0.333333 37:0.333333 38:0.333333 39:0.333333 40:0.333333 41:1 42:0.333333 43:-1 44:0.333333 45:0.333333 46:0.333333 47:1 48:-0.333333 49:-1 50:-0.333333 51:-1 52:1 53:-0.333333 54:-0.333333 55:-0.333333 56:-1 57:-0.333333 58:0.333333 59:0.333333 60:-0.333333 
71.00452210837518 1:-0.333333 2:-1 3:-0.333333 4:0.333333 5:-1 6:-0.333333 7:1 8:1 9:0.333333 10:-1 11:0.333333 12:-0.333333 13:-0.333333 14:0.333333 15:0.333333 16:-1 17:1 18:-0.333333 19:1 20:1 21:0.333333 22:0.333333 23:-0.333333 24:-0.333333 25:0.333333 26:-0.333333 27:0.333333 28:-1 29:-1 30:-0.333333 31:-0.333333 32:0.333333 33:0.333333 34:1 35:1 36:0.333333 37:1 38:1 39:-0.333333 40:0.333333 41:-1 42:0.333333 43:1 44:-0.333333 45:-0.333333 46:1 47:-1 48:0.333333 49:-1 50:0.333333 51:-0.333333 52:-0.333333 53:-0.333333 54:0.333333 55:-0.333333 56:-1 57:-0.333333 58:-0.333333 59:-0.333333 60:0.333333 
16.65090122879672 1:1 2:1 3:-1 4:-1 5:0.333333 6:1 7:-0.333333 8:1 9:-0.333333 10:1 11:0.333333 12:1 13:0.333333 14:-0.333333 15:1 16:-0.333333 17:0.333333 18:-1 19:0.333333 20:-0.333333 21:-0.333333 22:-1 23:-1 24:-1 25:-1 26:1 27:0.333333 28:0.333333 29:-1 30:-0.333333 31:0.333333 32:-0.333333 33:1 34:1 35:1 36:0.333333 37:1 38:1 39:-0.333333 40:1 41:0.333333 42:1 43:0.333333 44:-1 45:-0.333333 46:0.333333 47:0.333333 48:-1 49:1 50:1 51:0.333333 52:0.333333 53:-1 54:-0.333333 55:-0.333333 56:1 57:-0.333333 58:-0.333333 59:0.333333 60:1 
15.58638383199575 1:0.333333 2:0.333333 3:-1 4:-0.333333 5:0.333333 6:1 7:-0.333333 8:-1 9:0.333333 10:1 11:-0.333333 12:1 13:0.333333 14:1 15:-1 16:0.333333 17:1 18:-0.333333 19:1 20:0.333333 21:-1 22:0.333333 23:0.333333 24:1 25:1 26:-1 27:1 28:1 29:1 30:0.333333 31:1 32:-1 33:0.333333 34:0.333333 35:1 36:0.333333 37:-1 38:-0.333333 39:-1 40:1 41:0.333333 42:-1 43:0.333333 44:0.333333 45:1 46:1 47:0.333333 48:1 49:-1 50:0.333333 51:-0.333333 52:-1 53:-0.333333 54:-0.333333 55:-1 56:0.333333 57:0.333333 58:-0.333333 59:-1 60:-0.333333 
37.67998389503298 1:-1 2:0.333333 3:0.333333 4:1 5:1 6:1 7:-0.333333 8:-0.333333 9:0.333333 10:1 11:0.333333 12:-0.333333 13:-0.333333 14:-0.333333 15:-1 16:-0.333333 17:-1 18:-0.333333 19:-0.333333 20:0.333333 21:-1 22:-0.333333 23:-1 24:0.333333 25:1 26:-0.333333 27:1 28:-0.333333 29:-0.333333 30:-0.333333 31:0.333333 32:1 33:-0.333333 34:0.333333 35:-0.333333 36:-1 37:0.333333 38:0.333333 39:1 40:0.333333 41:1 42:-0.333333 43:1 44:1 45:0.333333 46:-0.333333 47:-1 48:-0.333333 49:-1 50:-1 51:-0.333333 52:-1 53:-1 54:-0.333333 55:1 56:0.333333 57:-0.333333 58:0.333333 59:1 60:-0.333333 
12.81503313160815 1:0.333333 2:-1 3:1 4:-0.333333 5:-1 6:-0.333333 7:0.333333 8:1 9:1 10:1 11:0.333333 12:-1 13:0.333333 14:-0.333333 15:-1 16:-0.333333 17:-1 18:1 19:-1 20:-1 21:-0.333333 22:-1 23:-1 24:-0.333333 25:-1 26:-1 27:-1 28:-0.333333 29:-1 30:0.333333 31:-1 32:0.333333 33:-1 34:-0.333333 35:1 36:-0.333333 37:0.333333 38:0.333333 39:0.333333 40:1 41:-0.333333 42:-0.333333 43:1 44:1 45:0.333333 46:0.333333 47:0.333333 48:-1 49:-1 50:-0.333333 51:-1 52:-1 53:0.333333 54:0.333333 55:-1 56:1 57:1 58:0.333333 59:-1 60:-1 
7.449881993532257 1:1 2:-1 3:-1 4:1 5:-1 6:0.333333 7:-1 8:-1 9:-1 10:0.333333 11:-1 12:-0.333333 13:-1 14:-1 15:-1 16:1 17:0.333333 18:-1 19:-0.333333 20:-1 21:0.333333 22:0.333333 23:1 24:1 25:1 26:-1 27:-1 28:-0.333333 29:-1 30:-0.333333 31:1 32:1 33:-0.333333 34:-1 35:-0.333333 36:-1 37:-0.333333 38:1 39:-1 40:-1 41:-0.333333 42:1 43:-1 44:-0.333333 45:-0.333333 46:-1 47:-0.333333 48:-1 49:-0.333333 50:1 51:1 52:-1 53:-0.333333 54:-0.333333 55:-1 56:0.333333 57:1 58:1 59:-0.333333 60:1 
5.545148212772727 1:1 2:-0.333333 3:-0.333333 4:-0.333333 5:-1 6:0.333333 7:-1 8:0.333333 9:1 10:1 11:-1 12:-1 13:0.333333 14:-1 15:-0.333333 16:-1 17:1 18:-0.333333 19:0.333333 20:-1 21:-1 22:1 23:-0.333333 24:1 25:-0.333333 26:0.333333 27:1 28:-1 29:0.333333 30:1 31:-0.333333 32:-1 33:1 34:1 35:-0.333333 36:1 37:1 38:1 39:0.333333 40:-1 41:1 42:1 43:-0.333333 44:0.333333 45:-0.333333 46:-1 47:-1 48:1 49:0.333333 50:1 51:1 52:1 53:1 54:1 55:1 56:-1 57:-0.333333 58:0.333333 59:-1 60:1 
31.21064849551426 1:0.333333 2:-1 3:0.333333 4:0.333333 5:-0.333333 6:-0.333333 7:-0.333333 8:-0.333333 9:0.333333 10:1 11:1 12:-0.333333 13:0.333333 14:1 15:-0.333333 16:1 17:1 18:-0.333333 19:-0.333333 20:-1 21:1 22:-1 23:0.333333 24:-1 25:1 26:0.333333 27:1 28:0.333333 29:-0.333333 30:0.333333 31:0.333333 32:-1 33:1 34:1 35:-1 36:0.333333 37:0.333333 38:1 39:-0.333333 40:0.333333 41:0.333333 42:-1 43:0.333333 44:1 45:0.333333 46:1 47:0.333333 48:1 49:-1 50:-0.333333 51:0.333333 52:-1 53:1 54:0.333333 55:0.333333 56:1 57:-0.333333 58:-0.333333 59:-1 60:0.333333 
15.75874721677093 1:1 2:-0.333333 3:-1 4:0.333333 5:-1 6:1 7:0.333333 8:0.333333 9:-1 10:0.333333 11:0.333333 12:0.333333 13:-1 14:-0.333333 15:-1 16:-0.333333 17:0.333333 18:1 19:-1 20:-1 21:1 22:0.333333 23:-1 24:0.333333 25:0.333333 26:-1 27:0.333333 28:0.333333 29:-1 30:1 31:-0.333333 32:0.333333 33:1 34:-0.333333 35:-0.333333 36:-1 37:-1 38:-1 39:-1 40:-1 41:-0.333333 42:-1 43:0.333333 44:-1 45:0.333333 46:-1 47:-0.333333 48:-0.333333 49:1 50:-0.333333 51:-1 52:-1 53:-0.333333 54:0.333333 55:1 56:-0.333333 57:-1 58:-0.333333 59:-1 60:-1 
24.59470154416504 1:0.333333 2:0.333333 3:-0.333333 4:-1 5:0.333333 6:1 7:-0.333333 8:-1 9:-0.333333 10:0.333333 11:-1 12:-1 13:-1 14:-0.333333 15:-0.333333 16:0.333333 17:0.333333 18:1 19:-0.333333 20:-0.333333 21:-0.333333 22:-0.333333 23:1 24:-0.333333 25:0.333333 26:-1 27:-0.333333 28:-0.333333 29:-1 30:-0.333333 31:1 32:-0.333333 33:0.333333 34:1 35:-1 36:0.333333 37:0.333333 38:-1 39:1 40:-0.333333 41:-0.333333 42:1 43:-1 44:-1 45:1 46:-0.333333 47:-0.333333 48:-1 49:0.333333 50:-1 51:-0.333333 52:-1 53:-0.333333 54:1 55:1 56:-1 57:1 58:0.333333 59:-0.333333 60:-1 
97.37096334723793 1:0.333333 2:-1 3:-0.333333 4:-1 5:-0.333333 6:-0.333333 7:-0.333333 8:-0.333333 9:0.333333 10:0.333333 11:1 12:0.333333 13:0.333333 14:0.333333 15:-0.333333 16:-0.333333 17:-1 18:0.333333 19:0.333333 20:1 21:0.333333 22:0.333333 23:-0.333333 24:-0.333333 25:-0.333333 26:-0.333333 27:0.333333 28:1 29:0.333333 30:0.333333 31:-1 32:-1 33:-0.333333 34:-0.333333 35:1 36:-0.333333 37:1 38:1 39:0.333333 40:0.333333 41:1 42:-0.333333 43:-0.333333 44:-1 45:0.333333 46:0.333333 47:-1 48:-1 49:-1 50:-0.333333 51:-0.333333 52:-0.333333 53:-0.333333 54:-0.333333 55:-1 56:-1 57:-0.333333 58:0.333333 59:-1 60:-0.333333 
125 1:-1 2:-1 3:-0.333333 4:-0.333333 5:-0.333333 6:0.333333 7:0.333333 8:1 9:-0.333333 10:-1 11:-0.333333 12:-0.333333 13:-0.333333 14:-0.333333 15:-0.333333 16:-0.333333 17:0.333333 18:1 19:1 20:0.333333 21:1 22:1 23:0.333333 24:0.333333 25:1 26:1 27:0.333333 28:0.333333 29:-1 30:-0.333333 31:-0.333333 32:0.333333 33:-0.333333 34:-1 35:-0.333333 36:0.333333 37:-1 38:0.333333 39:-0.333333 40:-1 41:0.333333 42:0.333333 43:1 44:0.333333 45:-1 46:-0.333333 47:0.333333 48:-0.333333 49:-1 50:-0.333333 51:0.333333 52:-1 53:0.333333 54:-0.333333 55:-1 56:0.333333 57:-0.333333 58:-0.333333 59:-0.333333 60:-0.333333 
38.71295294226906 1:0.333333 2:0.333333 3:0.333333 4:0.333333 5:0.333333 6:0.333333 7:-1 8:1 9:0.333333 10:0.333333 11:0.333333 12:0.333333 13:-1 14:-0.333333 15:0.333333 16:1 17:-1 18:0.333333 19:0.333333 20:1 21:-0.333333 22:-1 23:-1 24:0.333333 25:-0.333333 26:-1 27:0.333333 28:0.333333 29:1 30:-0.333333 31:-0.333333 32:-1 33:-0.333333 34:0.333333 35:-0.333333 36:1 37:-1 38:1 39:1 40:-0.333333 41:0.333333 42:-1 43:0.333333 44:-1 45:-0.333333 46:-1 47:-0.333333 48:1 49:-0.333333 50:-1 51:0.333333 52:1 53:-1 54:0.333333 55:-1 56:1 57:0.333333 58:0.333333 59:0.333333 60:0.333333 
38.19429425094807 1:-1 2:0.333333 3:-1 4:0.333333 5:-1 6:0.333333 7:-1 8:0.333333 9:-1 10:0.333333 11:0.333333 12:0.333333 13:1 14:-0.333333 15:1 16:0.333333 17:0.333333 18:-1 19:0.333333 20:-1 21:-1 22:-1 23:-0.333333 24:-0.333333 25:-0.333333 26:0.333333 27:0.333333 28:1 29:-1 30:-0.333333 31:-0.333333 32:-1 33:-1 34:-1 35:0.333333 36:1 37:-1 38:0.333333 39:-0.333333 40:1 41:-0.333333 42:0.333333 43:0.333333 44:0.333333 45:1 46:1 47:0.333333 48:-1 49:-0.333333 50:0.333333 51:0.333333 52:-1 53:1 54:-0.333333 55:0.333333 56:-1 57:0.333333 58:0.333333 59:0.333333 60:-0.333333 
21.08012011597244 1:-1 2:-0.333333 3:-0.333333 4:-1 5:-1 6:-1 7:-1 8:-1 9:-0.333333 10:-1 11:-0.333333 12:-0.333333 13:-1 14:-1 15:-0.333333 16:-0.333333 17:-0.333333 18:-1 19:-0.333333 20:-0.333333 21:-0.333333 22:-1 23:-0.333333 24:-0.333333 25:-0.333333 26:-1 27:-0.333333 28:-0.333333 29:-1 30:-1 31:-0.333333 32:-0.333333 33:-1 34:-1 35:-0.333333 36:-0.333333 37:-1 38:-1 39:-1 40:-0.333333 41:-1 42:-1 43:-0.333333 44:-0.333333 45:-1 46:-1 47:-0.333333 48:-0.333333 49:-1 50:-1 51:-0.333333 52:-0.333333 53:-0.333333 54:-1 55:-0.333333 56:-1 57:-0.333333 58:-1 59:-0.333333 60:-1 
16.27617319906623 1:-1 2:-1 3:0.333333 4:1 5:1 6:-0.333333 7:-0.333333 8:0.333333 9:1 10:1 11:-0.333333 12:-0.333333 13:-0.333333 14:-1 15:-0.333333 16:1 17:0.333333 18:1 19:-0.333333 20:0.333333 21:-1 22:1 23:0.333333 24:0.333333 25:-1 26:-1 27:0.333333 28:-1 29:0.333333 30:1 31:1 32:1 33:0.333333 34:1 35:-0.333333 36:-0.333333 37:0.333333 38:1 39:-0.333333 40:1 41:-0.333333 42:1 43:-0.333333 44:-1 45:0.333333 46:0.333333 47:1 48:1 49:-0.333333 50:-0.333333 51:-0.333333 52:0.333333 53:-1 54:-1 55:-0.333333 56:1 57:1 58:-1 59:0.333333 60:1 
29.0894363963779 1:-0.333333 2:0.333333 3:-0.333333 4:-0.333333 5:-0.333333 6:-1 7:-0.333333 8:-0.333333 9:0.333333 10:0.333333 11:1 12:0.333333 13:1 14:0.333333 15:1 16:-1 17:-0.333333 18:-0.333333 19:-1 20:-1 21:-1 22:1 23:0.333333 24:1 25:-0.333333 26:1 27:-0.333333 28:-0.333333 29:-1 30:0.333333 31:1 32:0.333333 33:-1 34:0.333333 35:-1 36:0.333333 37:-0.333333 38:1 39:1 40:1 41:-1 42:0.333333 43:1 44:-1 45:-1 46:1 47:-0.333333 48:1 49:1 50:-0.333333 51:0.333333 52:1 53:-0.333333 54:0.333333 55:-1 56:-0.333333 57:0.333333 58:0.333333 59:0.333333 60:0.333333 
125 1:0.333333 2:1 3:-0.333333 4:-0.333333 5:0.333333 6:0.333333 7:1 8:-0.333333 9:-1 10:-0.333333 11:-0.333333 12:-1 13:0.333333 14:0.333333 15:0.333333 16:-0.333333 17:-0.333333 18:0.333333 19:-0.333333 20:0.333333 21:1 22:-0.333333 23:-1 24:-0.333333 25:1 26:-0.333333 27:-0.333333 28:0.333333 29:-0.333333 30:-0.333333 31:-0.333333 32:-0.333333 33:0.333333 34:0.333333 35:0.333333 36:0.333333 37:1 38:-0.333333 39:0.333333 40:1 41:0.333333 42:0.333333 43:-0.333333 44:-1 45:-0.333333 46:-0.333333 47:-0.333333 48:-0.333333 49:0.333333 50:1 51:0.333333 52:-1 53:1 54:-0.333333 55:1 56:1 57:0.333333 58:-1 59:-0.333333 60:-0.333333 
63.75901136139755 1:-1 2:0.333333 3:-1 4:-0.333333 5:-1 6:-1 7:-0.333333 8:-1 9:-1 10:-0.333333 11:0.333333 12:-0.333333 13:-1 14:-0.333333 15:0.333333 16:0.333333 17:-1 18:0.333333 19:-0.333333 20:0.333333 21:0.333333 22:0.333333 23:0.333333 24:0.333333 25:-1 26:-0.333333 27:0.333333 28:-0.333333 29:0.333333 30:-1 31:0.333333 32:-0.333333 33:0.333333 34:0.333333 35:0.333333 36:1 37:-0.333333 38:0.333333 39:-0.333333 40:-1 41:-0.333333 42:-0.333333 43:-0.333333 44:-0.333333 45:-1 46:-1 47:0.333333 48:-1 49:-1 50:-0.333333 51:-0.333333 52:-0.333333 53:-1 54:-1 55:0.333333 56:0.333333 57:1 58:1 59:1 60:0.333333 
125 1:-0.333333 2:-1 3:-0.333333 4:0.333333 5:0.333333 6:0.333333 7:1 8:-0.333333 9:-0.333333 10:0.333333 11:0.333333 12:0.333333 13:1 14:-0.333333 15:-1 16:0.333333 17:0.333333 18:-0.333333 19:-1 20:-0.333333 21:-1 22:0.333333 23:0.333333 24:1 25:-0.333333 26:-0.333333 27:-0.333333 28:0.333333 29:0.333333 30:1 31:-0.333333 32:1 33:-0.333333 34:-1 35:-0.333333 36:1 37:-0.333333 38:0.333333 39:-0.333333 40:-0.333333 41:-0.333333 42:-0.333333 43:1 44:1 45:-0.333333 46:-0.333333 47:-0.333333 48:-1 49:-0.333333 50:-0.333333 51:-0.333333 52:-1 53:-1 54:-1 55:0.333333 56:-0.333333 57:-0.333333 58:0.333333 59:0.333333 60:1 
48.7901461631804 1:-0.333333 2:-0.333333 3:0.333333 4:-0.333333 5:0.333333 6:1 7:1 8:1 9:-0.333333 10:1 11:0.333333 12:1 13:-0.333333 14:-0.333333 15:-0.333333 16:-1 17:-0.333333 18:-0.333333 19:0.333333 20:-0.333333 21:-0.333333 22:1 23:1 24:-1 25:0.333333 26:1 27:-0.333333 28:-1 29:-1 30:-0.333333 31:0.333333 32:-1 33:-0.333333 34:-0.333333 35:0.333333 36:-1 37:1 38:-0.333333 39:-1 40:-1 41:-0.333333 42:-0.333333 43:-1 44:-0.333333 45:-0.333333 46:-0.333333 47:-1 48:-0.333333 49:0.333333 50:-1 51:-0.333333 52:-0.333333 53:-0.333333 54:-1 55:-0.333333 56:-1 57:-0.333333 58:1 59:-0.333333 60:-0.333333 
6.158226270648282 1:-0.333333 2:0.333333 3:1 4:-1 5:-1 6:1 7:-1 8:-1 9:-1 10:-1 11:-1 12:0.333333 13:-1 14:-1 15:-0.333333 16:0.333333 17:-1 18:0.333333 19:1 20:-1 21:1 22:1 23:-0.333333 24:1 25:1 26:0.333333 27:-1 28:-1 29:0.333333 30:1 31:1 32:1 33:1 34:-1 35:-0.333333 36:-0.333333 37:1 38:-0.333333 39:1 40:-0.333333 41:1 42:-0.333333 43:1 44:-1 45:0.333333 46:1 47:1 48:1 49:-0.333333 50:-0.333333 51:-1 52:-0.333333 53:0.333333 54:0.333333 55:-1 56:0.333333 57:0.333333 58:-1 59:1 60:1 
53.33360656569648 1:0.333333 2:0.333333 3:1 4:-0.333333 5:-0.333333 6:-1 7:0.333333 8:1 9:1 10:1 11:0.333333 12:1 13:1 14:-0.333333 15:0.333333 16:0.333333 17:1 18:0.333333 19:1 20:1 21:0.333333 22:0.333333 23:0.333333 24:0.333333 25:0.333333 26:-1 27:0.333333 28:0.333333 29:-1 30:-0.333333 31:0.333333 32:1 33:-0.333333 34:-0.333333 35:-1 36:-0.333333 37:-1 38:-0.333333 39:-1 40:-1 41:-1 42:-0.333333 43:-0.333333 44:0.333333 45:0.333333 46:-1 47:-1 48:-0.333333 49:0.333333 50:-0.333333 51:-0.333333 52:-1 53:0.333333 54:0.333333 55:-1 56:-0.333333 57:-1 58:-0.333333 59:0.333333 60:1 
15.85470785475415 1:-0.333333 2:-0.333333 3:1 4:-1 5:1 6:-0.333333 7:-1 8:-0.333333 9:-1 10:-1 11:1 12:0.333333 13:1 14:-1 15:-0.333333 16:-0.333333 17:0.333333 18:-1 19:-0.333333 20:-0.333333 21:-0.333333 22:-0.333333 23:0.333333 24:-1 25:-0.333333 26:-0.333333 27:-0.333333 28:-0.333333 29:-1 30:-0.333333 31:1 32:1 33:-1 34:0.333333 35:-1 36:-0.333333 37:1 38:0.333333 39:0.333333 40:0.333333 41:1 42:1 43:1 44:1 45:-1 46:0.333333 47:-1 48:-0.333333 49:-1 50:1 51:-1 52:-0.333333 53:-1 54:-1 55:-1 56:-1 57:-1 58:0.333333 59:-1 60:-0.333333 
6.166179023513902 1:-1 2:-0.333333 3:-0.333333 4:-0.333333 5:0.333333 6:-1 7:1 8:-0.333333 9:-0.333333 10:1 11:-0.333333 12:-1 13:-1 14:-1 15:-1 16:-1 17:-0.333333 18:-0.333333 19:-1 20:-1 21:-1 22:1 23:-1 24:1 25:0.333333 26:1 27:1 28:0.333333 29:0.333333 30:-0.333333 31:1 32:1 33:0.333333 34:-1 35:-1 36:-1 37:-1 38:0.333333 39:1 40:-0.333333 41:-0.333333 42:-1 43:-1 44:-1 45:1 46:-1 47:-1 48:-0.333333 49:0.333333 50:1 51:1 52:1 53:0.333333 54:1 55:-0.333333 56:-1 57:-0.333333 58:-1 59:-1 60:-1 
7.747217202087395 1:0.333333 2:1 3:1 4:-1 5:0.333333 6:1 7:0.333333 8:1 9:1 10:1 11:1 12:1 13:1 14:1 15:0.333333 16:0.333333 17:0.333333 18:0.333333 19:0.333333 20:0.333333 21:1 22:1 23:0.333333 24:1 25:1 26:-1 27:-1 28:-1 29:0.333333 30:0.333333 31:-1 32:0.333333 33:0.333333 34:-1 35:-0.333333 36:1 37:-0.333333 38:-0.333333 39:1 40:1 41:0.333333 42:-1 43:1 44:1 45:1 46:1 47:1 48:-1 49:-1 50:-0.333333 51:-0.333333 52:1 53:1 54:1 55:1 56:1 57:1 58:0.333333 59:-1 60:1 
37.13584538695422 1:0.333333 2:1 3:-0.333333 4:-0.333333 5:-0.333333 6:-1 7:-1 8:-0.333333 9:1 10:-0.333333 11:-1 12:-0.333333 13:0.333333 14:1 15:0.333333 16:-0.333333 17:0.333333 18:-1 19:-0.333333 20:1 21:-0.333333 22:1 23:-0.333333 24:0.333333 25:1 26:-0.333333 27:-1 28:0.333333 29:-1 30:0.333333 31:0.333333 32:-1 33:-0.333333 34:-1 35:-1 36:-1 37:-1 38:-0.333333 39:1 40:-0.333333 41:0.333333 42:0.333333 43:1 44:0.333333 45:1 46:-0.333333 47:-0.333333 48:-1 49:0.333333 50:1 51:0.333333 52:-1 53:1 54:0.333333 55:0.333333 56:0.333333 57:0.333333 58:1 59:-0.333333 60:0.333333 
8.029010160799709 1:-1 2:-1 3:-0.333333 4:0.333333 5:0.333333 6:1 7:1 8:0.333333 9:-0.333333 10:1 11:1 12:-0.333333 13:-0.333333 14:-1 15:-1 16:-1 17:0.333333 18:-0.333333 19:-0.333333 20:-0.333333 21:-1 22:-1 23:1 24:-1 25:1 26:0.333333 27:1 28:1 29:0.333333 30:0.333333 31:0.333333 32:0.333333 33:1 34:1 35:-0.333333 36:-1 37:-1 38:-1 39:0.333333 40:1 41:-1 42:-0.333333 43:-1 44:0.333333 45:-1 46:-0.333333 47:-1 48:-1 49:-0.333333 50:0.333333 51:-1 52:1 53:1 54:0.333333 55:1 56:0.333333 57:-1 58:-0.333333 59:-1 60:-1 
84.10157377482716 1:-0.333333 2:0.333333 3:0.333333 4:1 5:-0.333333 6:0.333333 7:-0.333333 8:-0.333333 9:-0.333333 10:-0.333333 11:-1 12:-0.333333 13:0.333333 14:-1 15:0.333333 16:0.333333 17:1 18:-0.333333 19:-0.333333 20:-1 21:-0.333333 22:-0.333333 23:0.333333 24:0.333333 25:1 26:1 27:1 28:-0.333333 29:0.333333 30:1 31:1 32:1 33:-0.333333 34:0.333333 35:1 36:-0.333333 37:-0.333333 38:-1 39:-0.333333 40:0.333333 41:-0.333333 42:0.333333 43:1 44:1 45:0.333333 46:-1 47:-0.333333 48:0.333333 49:-0.333333 50:-0.333333 51:0.333333 52:1 53:-1 54:0.333333 55:0.333333 56:-0.333333 57:-0.333333 58:-0.333333 59:-1 60:-1 
6.688345558637219 1:-1 2:-0.333333 3:1 4:-1 5:-0.333333 6:0.333333 7:0.333333 8:-1 9:-1 10:-1 11:-0.333333 12:-1 13:0.333333 14:0.333333 15:-1 16:1 17:0.333333 18:-1 19:-0.333333 20:0.333333 21:-0.333333 22:1 23:1 24:1 25:0.333333 26:0.333333 27:1 28:1 29:1 30:-1 31:1 32:-0.333333 33:1 34:-0.333333 35:1 36:-0.333333 37:-1 38:-0.333333 39:-1 40:-1 41:1 42:1 43:-0.333333 44:-1 45:-1 46:-1 47:1 48:-0.333333 49:-1 50:0.333333 51:1 52:-1 53:-0.333333 54:0.333333 55:-1 56:1 57:1 58:-1 59:1 60:1 
21.83376445601566 1:-1 2:1 3:-0.333333 4:0.333333 5:-1 6:-0.333333 7:0.333333 8:-1 9:0.333333 10:0.333333 11:1 12:1 13:0.333333 14:-1 15:-0.333333 16:-0.333333 17:1 18:0.333333 19:1 20:1 21:-0.333333 22:-1 23:-0.333333 24:0.333333 25:1 26:0.333333 27:1 28:-1 29:1 30:-0.333333 31:0.333333 32:-1 33:-0.333333 34:-0.333333 35:-0.333333 36:-1 37:-0.333333 38:-0.333333 39:1 40:-1 41:-1 42:-0.333333 43:0.333333 44:0.333333 45:-1 46:0.333333 47:-0.333333 48:-0.333333 49:-1 50:-1 51:-0.333333 52:1 53:0.333333 54:-1 55:0.333333 56:-1 57:-1 58:-0.333333 59:0.333333 60:-1 
14.77170246490751 1:1 2:0.333333 3:1 4:0.333333 5:-1 6:-1 7:1 8:0.333333 9:0.333333 10:1 11:1 12:1 13:0.333333 14:0.333333 15:0.333333 16:1 17:-0.333333 18:1 19:-1 20:-1 21:0.333333 22:1 23:0.333333 24:0.333333 25:1 26:-0.333333 27:0.333333 28:0.333333 29:-1 30:-0.333333 31:-1 32:-0.333333 33:1 34:1 35:0.333333 36:0.333333 37:1 38:-0.333333 39:-0.333333 40:-1 41:1 42:-0.333333 43:-1 44:1 45:-0.333333 46:-1 47:0.333333 48:-1 49:1 50:1 51:-1 52:0.333333 53:1 54:-0.333333 55:-1 56:1 57:-0.333333 58:-1 59:0.333333 60:-1 
13.38427487012929 1:-1 2:0.333333 3:-1 4:-1 5:-0.333333 6:-1 7:-1 8:-0.333333 9:-0.333333 10:-1 11:1 12:-0.333333 13:-0.333333 14:-1 15:-0.333333 16:0.333333 17:1 18:-0.333333 19:-1 20:0.333333 21:1 22:1 23:0.333333 24:-1 25:0.333333 26:0.333333 27:-1 28:-1 29:-0.333333 30:1 31:-0.333333 32:-0.333333 33:0.333333 34:-1 35:1 36:1 37:-0.333333 38:1 39:-0.333333 40:1 41:1 42:0.333333 43:1 44:-0.333333 45:-1 46:-1 47:-0.333333 48:-1 49:1 50:1 51:-0.333333 52:-0.333333 53:-0.333333 54:-0.333333 55:-1 56:-1 57:0.333333 58:-1 59:0.333333 60:-1 
3.431566221803287 1:-1 2:1 3:1 4:0.333333 5:1 6:-1 7:0.333333 8:1 9:1 10:-1 11:-0.333333 12:1 13:-1 14:-1 15:-1 16:0.333333 17:-1 18:1 19:-1 20:-1 21:1 22:1 23:1 24:0.333333 25:1 26:1 27:-0.333333 28:1 29:-0.333333 30:0.333333 31:1 32:-1 33:-0.333333 34:-1 35:1 36:-1 37:-1 38:0.333333 39:0.333333 40:-1 41:-1 42:-1 43:1 44:1 45:-1 46:-1 47:-0.333333 48:-1 49:-1 50:-1 51:-1 52:0.333333 53:0.333333 54:-1 55:-1 56:-1 57:-1 58:0.333333 59:-1 60:-1 
25.212518782389 1:1 2:0.333333 3:-1 4:-1 5:0.333333 6:0.333333 7:-1 8:1 9:1 10:-1 11:-1 12:1 13:-0.333333 14:1 15:0.333333 16:1 17:0.333333 18:1 19:1 20:0.333333 21:0.333333 22:1 23:1 24:0.333333 25:0.333333 26:1 27:-0.333333 28:0.333333 29:-1 30:-0.333333 31:0.333333 32:-0.333333 33:1 34:1 35:1 36:-0.333333 37:1 38:-0.333333 39:-1 40:-0.333333 41:-0.333333 42:0.333333 43:-1 44:1 45:-1 46:1 47:0.333333 48:0.333333 49:1 50:-0.333333 51:1 52:0.333333 53:-0.333333 54:-0.333333 55:-0.333333 56:-0.333333 57:1 58:-0.333333 59:-1 60:0.333333 
73.33574930376356 1:0.333333 2:1 3:0.333333 4:-0.333333 5:-0.333333 6:-0.333333 7:0.333333 8:-1 9:-0.333333 10:0.333333 11:-1 12:-0.333333 13:1 14:0.333333 15:-1 16:1 17:1 18:-0.333333 19:0.333333 20:1 21:-0.333333 22:1 23:0.333333 24:-1 25:0.333333 26:0.333333 27:0.333333 28:-0.333333 29:0.333333 30:1 31:0.333333 32:1 33:-0.333333 34:0.333333 35:0.333333 36:0.333333 37:-1 38:-0.333333 39:-0.333333 40:0.333333 41:1 42:-0.333333 43:0.333333 44:0.333333 45:0.333333 46:-0.333333 47:0.333333 48:0.333333 49:-1 50:-0.333333 51:-0.333333 52:1 53:0.333333 54:0.333333 55:-1 56:0.333333 57:1 58:1 59:-1 60:1 
32.78384601270538 1:-1 2:-0.333333 3:-0.333333 4:-0.333333 5:-0.333333 6:1 7:-0.333333 8:0.333333 9:1 10:0.333333 11:0.333333 12:1 13:-0.333333 14:-0.333333 15:0.333333 16:-1 17:-1 18:1 19:0.333333 20:-0.333333 21:1 22:-0.333333 23:-0.333333 24:1 25:1 26:1 27:1 28:0.333333 29:0.333333 30:-1 31:-0.333333 32:-0.333333 33:0.333333 34:1 35:0.333333 36:1 37:-0.333333 38:-1 39:1 40:-0.333333 41:-0.333333 42:1 43:1 44:1 45:-1 46:0.333333 47:0.333333 48:1 49:-0.333333 50:-0.333333 51:-0.333333 52:0.333333 53:0.333333 54:-1 55:-1 56:-1 57:-0.333333 58:-0.333333 59:-0.333333 60:1 
120.0744326869908 1:-1 2:0.333333 3:0.333333 4:1 5:0.333333 6:-0.333333 7:-0.333333 8:-0.333333 9:0.333333 10:0.333333 11:1 12:-0.333333 13:0.333333 14:-0.333333 15:-0.333333 16:0.333333 17:-1 18:1 19:-0.333333 20:1 21:-0.333333 22:0.333333 23:-1 24:-0.333333 25:0.333333 26:1 27:-0.333333 28:-0.333333 29:0.333333 30:0.333333 31:1 32:1 33:0.333333 34:1 35:1 36:0.333333 37:0.333333 38:0.333333 39:1 40:0.333333 41:0.333333 42:0.333333 43:-0.333333 44:-0.333333 45:0.333333 46:-1 47:0.333333 48:0.333333 49:-0.333333 50:1 51:-0.333333 52:0.333333 53:-1 54:1 55:0.333333 56:0.333333 57:-0.333333 58:0.333333 59:1 60:-0.333333 
7.318864057150602 1:-1 2:0.333333 3:0.333333 4:1 5:0.333333 6:-1 7:-1 8:-1 9:1 10:1 11:-0.333333 12:-1 13:-1 14:0.333333 15:-0.333333 16:-1 17:1 18:1 19:-1 20:-1 21:-1 22:-1 23:-1 24:1 25:1 26:0.333333 27:-1 28:-1 29:-1 30:-0.333333 31:0.333333 32:-1 33:1 34:-1 35:-0.333333 36:0.333333 37:0.333333 38:0.333333 39:1 40:-0.333333 41:-1 42:-1 43:-1 44:-0.333333 45:-1 46:-0.333333 47:-1 48:-1 49:-1 50:-0.333333 51:-0.333333 52:-1 53:0.333333 54:-1 55:-1 56:-0.333333 57:-0.333333 58:-1 59:0.333333 60:0.333333 
9.9442175204526 1:-1 2:-0.333333 3:-0.333333 4:-1 5:-0.333333 6:-1 7:-0.333333 8:-0.333333 9:-1 10:-1 11:1 12:-1 13:-0.333333 14:-0.333333 15:1 16:1 17:1 18:-0.333333 19:-0.333333 20:-0.333333 21:-1 22:-1 23:-1 24:1 25:-1 26:-1 27:-1 28:1 29:0.333333 30:0.333333 31:1 32:-0.333333 33:0.333333 34:1 35:-0.333333 36:-1 37:0.333333 38:-1 39:1 40:1 41:-0.333333 42:-0.333333 43:-1 44:-1 45:-1 46:0.333333 47:0.333333 48:0.333333 49:0.333333 50:-1 51:-1 52:-0.333333 53:-0.333333 54:-1 55:-1 56:-0.333333 57:0.333333 58:0.333333 59:1 60:0.333333 
15.18883883514089 1:-1 2:-0.333333 3:1 4:0.333333 5:1 6:1 7:-0.333333 8:0.333333 9:1 10:-0.333333 11:1 12:0.333333 13:0.333333 14:1 15:-0.333333 16:-0.333333 17:0.333333 18:-1 19:0.333333 20:1 21:-0.333333 22:0.333333 23:1 24:0.333333 25:1 26:-1 27:-1 28:-0.333333 29:-0.333333 30:-0.333333 31:0.333333 32:1 33:1 34:1 35:-1 36:1 37:-1 38:0.333333 39:1 40:1 41:-1 42:1 43:1 44:1 45:-0.333333 46:0.333333 47:1 48:0.333333 49:-1 50:0.333333 51:1 52:1 53:-1 54:-0.333333 55:1 56:0.333333 57:0.333333 58:1 59:0.333333 60:-1 
30.76002907678108 1:0.333333 2:-1 3:-0.333333 4:-0.333333 5:1 6:-0.333333 7:1 8:1 9:-0.333333 10:-1 11:0.333333 12:-1 13:-1 14:-0.333333 15:-1 16:-1 17:0.333333 18:0.333333 19:0.333333 20:1 21:-0.333333 22:-0.333333 23:-1 24:-0.333333 25:-0.333333 26:-0.333333 27:-1 28:-0.333333 29:-0.333333 30:-1 31:-0.333333 32:-1 33:-0.333333 34:0.333333 35:-1 36:-0.333333 37:-0.333333 38:-0.333333 39:-1 40:-1 41:-1 42:-0.333333 43:-0.333333 44:1 45:0.333333 46:-1 47:-0.333333 48:-1 49:-1 50:-1 51:-0.333333 52:-0.333333 53:-0.333333 54:-1 55:-1 56:-0.333333 57:-1 58:0.333333 59:0.333333 60:0.333333 
55.51800941642586 1:1 2:-0.333333 3:1 4:1 5:0.333333 6:0.333333 7:-1 8:1 9:-0.333333 10:-1 11:0.333333 12:0.333333 13:0.333333 14:0.333333 15:0.333333 16:0.333333 17:0.333333 18:-1 19:0.333333 20:0.333333 21:-0.333333 22:0.333333 23:0.333333 24:1 25:1 26:1 27:-1 28:0.333333 29:-1 30:-0.333333 31:1 32:-0.333333 33:1 34:1 35:0.333333 36:0.333333 37:1 38:-0.333333 39:-0.333333 40:0.333333 41:1 42:0.333333 43:0.333333 44:1 45:0.333333 46:-1 47:-0.333333 48:0.333333 49:-1 50:-1 51:-0.333333 52:0.333333 53:-1 54:0.333333 55:-0.333333 56:-0.333333 57:1 58:0.333333 59:-0.333333 60:0.333333 
11.13513196157922 1:-1 2:-1 3:1 4:-1 5:-1 6:0.333333 7:0.333333 8:1 9:1 10:0.333333 11:1 12:-0.333333 13:0.333333 14:1 15:-0.333333 16:-0.333333 17:0.333333 18:0.333333 19:0.333333 20:0.333333 21:1 22:0.333333 23:1 24:-0.333333 25:0.333333 26:0.333333 27:1 28:1 29:-1 30:-0.333333 31:-0.333333 32:-1 33:-1 34:1 35:0.333333 36:-1 37:1 38:1 39:1 40:1 41:1 42:-1 43:-1 44:1 45:-1 46:-1 47:1 48:-0.333333 49:-0.333333 50:-1 51:0.333333 52:0.333333 53:1 54:-1 55:0.333333 56:0.333333 57:1 58:-0.333333 59:-0.333333 60:-1 
14.64420600432041 1:-0.333333 2:-0.333333 3:-1 4:0.333333 5:-1 6:-0.333333 7:-0.333333 8:-1 9:1 10:-0.333333 11:1 12:-1 13:-0.333333 14:0.333333 15:1 16:0.333333 17:1 18:0.333333 19:-1 20:-0.333333 21:-0.333333 22:1 23:-0.333333 24:1 25:-0.333333 26:-1 27:1 28:0.333333 29:0.333333 30:-1 31:-1 32:1 33:1 34:1 35:0.333333 36:-0.333333 37:-0.333333 38:-0.333333 39:1 40:0.333333 41:-1 42:1 43:-0.333333 44:1 45:-1 46:1 47:0.333333 48:0.333333 49:0.333333 50:1 51:1 52:1 53:-1 54:1 55:1 56:-0.333333 57:-0.333333 58:1 59:-1 60:0.333333 
125 1:0.333333 2:-1 3:1 4:0.333333 5:1 6:-0.333333 7:1 8:-0.333333 9:0.333333 10:0.333333 11:-0.333333 12:-0.333333 13:0.333333 14:1 15:-1 16:0.333333 17:1 18:-0.333333 19:0.333333 20:0.333333 21:0.333333 22:0.333333 23:-1 24:0.333333 25:0.333333 26:-1 27:1 28:-0.333333 29:-1 30:0.333333 31:0.333333 32:0.333333 33:-0.333333 34:0.333333 35:-0.333333 36:1 37:-0.333333 38:0.333333 39:1 40:-0.333333 41:0.333333 42:-1 43:-0.333333 44:-0.333333 45:-0.333333 46:-0.333333 47:-0.333333 48:1 49:0.333333 50:0.333333 51:1 52:-0.333333 53:0.333333 54:0.333333 55:-0.333333 56:-0.333333 57:0.333333 58:0.333333 59:0.333333 60:1 
35.33542838504934 1:0.333333 2:-1 3:0.333333 4:-1 5:-0.333333 6:-0.333333 7:-1 8:0.333333 9:-1 10:0.333333 11:0.333333 12:1 13:0.333333 14:-1 15:0.333333 16:-1 17:-0.333333 18:-1 19:-0.333333 20:-0.333333 21:1 22:0.333333 23:-1 24:0.333333 25:0.333333 26:1 27:0.333333 28:-1 29:0.333333 30:-1 31:0.333333 32:-0.333333 33:-0.333333 34:-0.333333 35:-0.333333 36:0.333333 37:-1 38:0.333333 39:-1 40:0.333333 41:1 42:1 43:0.333333 44:-1 45:0.333333 46:-1 47:0.333333 48:1 49:0.333333 50:-1 51:-0.333333 52:-0.333333 53:1 54:0.333333 55:-1 56:0.333333 57:0.333333 58:1 59:0.333333 60:-1 
9.543918568931335 1:1 2:-1 3:1 4:1 5:0.333333 6:1 7:-0.333333 8:0.333333 9:0.333333 10:-1 11:-1 12:1 13:0.333333 14:-1 15:0.333333 16:-1 17:1 18:1 19:1 20:0.333333 21:1 22:0.333333 23:1 24:1 25:0.333333 26:-1 27:-1 28:0.333333 29:1 30:-1 31:1 32:-0.333333 33:0.333333 34:0.333333 35:1 36:1 37:-0.333333 38:1 39:-0.333333 40:-1 41:1 42:-1 43:1 44:-1 45:-0.333333 46:1 47:1 48:1 49:-0.333333 50:-0.333333 51:0.333333 52:1 53:0.333333 54:1 55:-0.333333 56:1 57:0.333333 58:0.333333 59:0.333333 60:0.333333 
42.7403563793695 1:-1 2:1 3:0.333333 4:1 5:0.333333 6:-0.333333 7:-0.333333 8:0.333333 9:1 10:0.333333 11:-1 12:0.333333 13:-1 14:-0.333333 15:0.333333 16:-1 17:-1 18:0.333333 19:0.333333 20:1 21:0.333333 22:0.333333 23:-0.333333 24:0.333333 25:0.333333 26:1 27:0.333333 28:0.333333 29:0.333333 30:-1 31:-0.333333 32:-0.333333 33:1 34:1 35:0.333333 36:-1 37:-1 38:-0.333333 39:0.333333 40:0.333333 41:-1 42:1 43:1 44:0.333333 45:1 46:0.333333 47:0.333333 48:1 49:-0.333333 50:0.333333 51:0.333333 52:1 53:0.333333 54:-1 55:-0.333333 56:-0.333333 57:0.333333 58:1 59:0.333333 60:0.333333 
123.3520928058851 1:-0.333333 2:-0.333333 3:-0.333333 4:0.333333 5:1 6:-0.333333 7:0.333333 8:-0.333333 9:1 10:1 11:-0.333333 12:0.333333 13:1 14:-0.333333 15:-0.333333 16:1 17:0.333333 18:-1 19:0.333333 20:-1 21:1 22:1 23:0.333333 24:0.333333 25:1 26:-0.333333 27:-0.333333 28:0.333333 29:-1 30:-0.333333 31:-0.333333 32:1 33:-1 34:1 35:-0.333333 36:-0.333333 37:-0.333333 38:-0.333333 39:0.333333 40:-0.333333 41:-0.333333 42:-0.333333 43:-0.333333 44:0.333333 45:1 46:1 47:-0.333333 48:0.333333 49:1 50:0.333333 51:-0.333333 52:-0.333333 53:1 54:1 55:1 56:1 57:0.333333 58:0.333333 59:0.333333 60:0.333333 
3.887979682410955 1:1 2:-1 3:-1 4:-1 5:-1 6:-1 7:1 8:1 9:-1 10:-1 11:-1 12:-1 13:1 14:-0.333333 15:1 16:-0.333333 17:-1 18:-1 19:1 20:-0.333333 21:1 22:0.333333 23:-1 24:-1 25:0.333333 26:-1 27:-1 28:1 29:-1 30:-1 31:-1 32:-1 33:-1 34:-0.333333 35:0.333333 36:-1 37:-1 38:-0.333333 39:-1 40:0.333333 41:1 42:-1 43:1 44:-0.333333 45:-1 46:-1 47:-1 48:-0.333333 49:-0.333333 50:0.333333 51:1 52:0.333333 53:-1 54:-0.333333 55:-1 56:1 57:1 58:1 59:0.333333 60:1 
9.72974605953639 1:1 2:1 3:-0.333333 4:1 5:-0.333333 6:1 7:-1 8:1 9:-0.333333 10:-0.333333 11:1 12:-0.333333 13:1 14:-0.333333 15:-1 16:-0.333333 17:-0.333333 18:1 19:-1 20:-0.333333 21:-0.333333 22:-0.333333 23:0.333333 24:1 25:1 26:-0.333333 27:-1 28:-0.333333 29:-0.333333 30:1 31:1 32:1 33:-1 34:1 35:-0.333333 36:1 37:1 38:1 39:1 40:-0.333333 41:1 42:1 43:1 44:-1 45:1 46:-0.333333 47:-0.333333 48:-0.333333 49:1 50:-0.333333 51:1 52:-1 53:0.333333 54:-1 55:-0.333333 56:1 57:1 58:-0.333333 59:1 60:1 
19.77239455867784 1:-1 2:-0.333333 3:-0.333333 4:1 5:1 6:0.333333 7:-1 8:-1 9:0.333333 10:-1 11:1 12:0.333333 13:-0.333333 14:-0.333333 15:1 16:-0.333333 17:-0.333333 18:0.333333 19:0.333333 20:0.333333 21:0.333333 22:-1 23:0.333333 24:-1 25:1 26:0.333333 27:0.333333 28:1 29:0.333333 30:0.333333 31:-1 32:1 33:1 34:0.333333 35:0.333333 36:0.333333 37:-1 38:1 39:0.333333 40:1 41:1 42:-0.333333 43:1 44:-0.333333 45:0.333333 46:1 47:0.333333 48:0.333333 49:1 50:-1 51:0.333333 52:1 53:1 54:0.333333 55:1 56:1 57:1 58:-0.333333 59:-1 60:1 
12.86041945277167 1:-0.333333 2:-0.333333 3:0.333333 4:-1 5:0.333333 6:-1 7:0.333333 8:0.333333 9:0.333333 10:1 11:-1 12:1 13:-1 14:-1 15:0.333333 16:-1 17:-1 18:1 19:-0.333333 20:-1 21:-1 22:-1 23:-0.333333 24:-1 25:0.333333 26:-1 27:0.333333 28:-1 29:0.333333 30:-1 31:0.333333 32:0.333333 33:-0.333333 34:-1 35:-0.333333 36:-1 37:-0.333333 38:0.333333 39:1 40:-1 41:0.333333 42:-0.333333 43:0.333333 44:1 45:0.333333 46:-1 47:1 48:0.333333 49:-1 50:0.333333 51:0.333333 52:1 53:1 54:1 55:0.333333 56:1 57:0.333333 58:1 59:-0.333333 60:1 
46.1288038372411 1:-0.333333 2:-0.333333 3:-1 4:0.333333 5:1 6:0.333333 7:-1 8:0.333333 9:-1 10:-0.333333 11:0.333333 12:1 13:-0.333333 14:0.333333 15:0.333333 16:0.333333 17:0.333333 18:0.333333 19:-1 20:-0.333333 21:-1 22:-0.333333 23:0.333333 24:0.333333 25:0.333333 26:-1 27:-0.333333 28:-0.333333 29:0.333333 30:-1 31:-1 32:1 33:-0.333333 34:-0.333333 35:0.333333 36:-1 37:0.333333 38:1 39:-0.333333 40:-1 41:0.333333 42:-0.333333 43:0.333333 44:1 45:1 46:0.333333 47:0.333333 48:0.333333 49:-1 50:1 51:1 52:-1 53:-1 54:-1 55:-0.333333 56:0.333333 57:1 58:0.333333 59:0.333333 60:-1 
12.63313459593615 1:0.333333 2:1 3:-1 4:0.333333 5:-1 6:1 7:-0.333333 8:0.333333 9:1 10:0.333333 11:1 12:1 13:-1 14:-1 15:-1 16:0.333333 17:1 18:0.333333 19:-1 20:-0.333333 21:-0.333333 22:-0.333333 23:1 24:-0.333333 25:-0.333333 26:-0.333333 27:-1 28:-0.333333 29:-1 30:-1 31:-0.333333 32:-1 33:1 34:1 35:1 36:0.333333 37:-1 38:0.333333 39:0.333333 40:-1 41:0.333333 42:1 43:-1 44:0.333333 45:-1 46:-0.333333 47:-1 48:-0.333333 49:-0.333333 50:-0.333333 51:1 52:-0.333333 53:1 54:1 55:0.333333 56:1 57:1 58:1 59:0.333333 60:0.333333 
19.77090589667399 1:-1 2:1 3:-0.333333 4:0.333333 5:1 6:1 7:0.333333 8:-1 9:-1 10:-1 11:-0.333333 12:-0.333333 13:0.333333 14:1 15:1 16:0.333333 17:1 18:-1 19:-0.333333 20:-0.333333 21:0.333333 22:0.333333 23:0.333333 24:-1 25:1 26:0.333333 27:0.333333 28:0.333333 29:-0.333333 30:-0.333333 31:-0.333333 32:-1 33:-1 34:-0.333333 35:1 36:-0.333333 37:1 38:1 39:-1 40:-1 41:1 42:-0.333333 43:-1 44:-0.333333 45:0.333333 46:1 47:-0.333333 48:1 49:-0.333333 50:-0.333333 51:-1 52:0.333333 53:1 54:-0.333333 55:-0.333333 56:1 57:1 58:0.333333 59:-1 60:0.333333 
104.5672279926036 1:0.333333 2:1 3:1 4:0.333333 5:0.333333 6:-0.333333 7:0.333333 8:-1 9:0.333333 10:0.333333 11:0.333333 12:-1 13:-0.333333 14:0.333333 15:-0.333333 16:0.333333 17:-0.333333 18:1 19:0.333333 20:-0.333333 21:-1 22:0.333333 23:0.333333 24:1 25:1 26:1 27:-1 28:0.333333 29:0.333333 30:-1 31:-0.333333 32:0.333333 33:-1 34:-0.333333 35:-0.333333 36:0.333333 37:0.333333 38:1 39:0.333333 40:0.333333 41:0.333333 42:0.333333 43:-1 44:0.333333 45:0.333333 46:-1 47:-0.333333 48:-1 49:1 50:-0.333333 51:0.333333 52:0.333333 53:0.333333 54:1 55:-0.333333 56:0.333333 57:-0.333333 58:0.333333 59:1 60:-0.333333 
67.22735232205646 1:-0.333333 2:-0.333333 3:-1 4:0.333333 5:0.333333 6:-1 7:0.333333 8:0.333333 9:0.333333 10:0.333333 11:0.333333 12:-1 13:0.333333 14:-1 15:-1 16:-0.333333 17:-0.333333 18:-1 19:-0.333333 20:-0.333333 21:0.333333 22:-1 23:-1 24:0.333333 25:0.333333 26:-1 27:-0.333333 28:0.333333 29:0.333333 30:1 31:0.333333 32:-1 33:-1 34:-0.333333 35:-0.333333 36:1 37:0.333333 38:0.333333 39:0.333333 40:0.333333 41:0.333333 42:-1 43:0.333333 44:0.333333 45:1 46:0.333333 47:0.333333 48:1 49:0.333333 50:0.333333 51:-1 52:-0.333333 53:-0.333333 54:-1 55:-1 56:-1 57:-0.333333 58:0.333333 59:0.333333 60:-1 
45.79972067163946 1:-0.333333 2:0.333333 3:-0.333333 4:-1 5:-0.333333 6:0.333333 7:0.333333 8:0.333333 9:-0.333333 10:1 11:-0.333333 12:-0.333333 13:1 14:-0.333333 15:-1 16:0.333333 17:0.333333 18:1 19:-0.333333 20:-0.333333 21:-0.333333 22:1 23:-0.333333 24:1 25:0.333333 26:1 27:0.333333 28:-1 29:-0.333333 30:0.333333 31:1 32:-0.333333 33:1 34:1 35:0.333333 36:0.333333 37:1 38:-0.333333 39:-0.333333 40:-1 41:0.333333 42:-1 43:1 44:-0.333333 45:-1 46:0.333333 47:1 48:-0.333333 49:-1 50:-1 51:-0.333333 52:1 53:0.333333 54:0.333333 55:1 56:-0.333333 57:0.333333 58:0.333333 59:0.333333 60:1 
3.471713030420362 1:-0.333333 2:0.333333 3:1 4:1 5:-0.333333 6:-1 7:1 8:-0.333333 9:1 10:0.333333 11:1 12:-1 13:-1 14:-1 15:-1 16:-1 17:1 18:-1 19:1 20:-1 21:1 22:1 23:1 24:0.333333 25:-1 26:1 27:-0.333333 28:1 29:0.333333 30:1 31:1 32:-1 33:0.333333 34:1 35:-0.333333 36:-1 37:-1 38:-1 39:0.333333 40:-1 41:1 42:1 43:1 44:1 45:-0.333333 46:0.333333 47:0.333333 48:-1 49:-0.333333 50:-1 51:0.333333 52:1 53:1 54:1 55:0.333333 56:1 57:0.333333 58:0.333333 59:-1 60:-1 
15.91144487192839 1:1 2:0.333333 3:0.333333 4:0.333333 5:-1 6:0.333333 7:-1 8:0.333333 9:-0.333333 10:-0.333333 11:1 12:1 13:0.333333 14:-1 15:-0.333333 16:-1 17:1 18:-1 19:-1 20:1 21:0.333333 22:0.333333 23:0.333333 24:1 25:-0.333333 26:0.333333 27:1 28:-0.333333 29:0.333333 30:-1 31:1 32:1 33:1 34:1 35:-1 36:0.333333 37:0.333333 38:0.333333 39:1 40:0.333333 41:-1 42:1 43:0.333333 44:-1 45:1 46:-0.333333 47:0.333333 48:-1 49:0.333333 50:0.333333 51:-1 52:0.333333 53:1 54:1 55:1 56:-1 57:-0.333333 58:0.333333 59:0.333333 60:-1 
13.27595345321968 1:-1 2:-1 3:1 4:1 5:1 6:-0.333333 7:0.333333 8:1 9:0.333333 10:0.333333 11:1 12:-1 13:-1 14:1 15:1 16:0.333333 17:-1 18:-0.333333 19:1 20:-0.333333 21:1 22:0.333333 23:0.333333 24:-1 25:1 26:-0.333333 27:1 28:1 29:1 30:0.333333 31:1 32:-0.333333 33:-1 34:-0.333333 35:0.333333 36:0.333333 37:1 38:0.333333 39:0.333333 40:-1 41:-0.333333 42:-1 43:0.333333 44:0.333333 45:-1 46:1 47:0.333333 48:-0.333333 49:0.333333 50:1 51:-1 52:1 53:-0.333333 54:-1 55:-0.333333 56:0.333333 57:1 58:1 59:0.333333 60:0.333333 
28.51260268311702 1:-1 2:1 3:1 4:-0.333333 5:-1 6:-1 7:-1 8:0.333333 9:-1 10:0.333333 11:-1 12:-0.333333 13:-1 14:-0.333333 15:0.333333 16:-1 17:0.333333 18:0.333333 19:-1 20:-0.333333 21:0.333333 22:1 23:0.333333 24:1 25:-0.333333 26:-1 27:-0.333333 28:-0.333333 29:-1 30:-1 31:0.333333 32:1 33:0.333333 34:-0.333333 35:1 36:0.333333 37:0.333333 38:0.333333 39:-1 40:-1 41:-0.333333 42:0.333333 43:0.333333 44:0.333333 45:0.333333 46:0.333333 47:0.333333 48:-1 49:1 50:0.333333 51:1 52:0.333333 53:0.333333 54:-1 55:0.333333 56:1 57:1 58:0.333333 59:0.333333 60:1 
125 1:-1 2:-0.333333 3:-0.333333 4:-0.333333 5:0.333333 6:0.333333 7:0.333333 8:0.333333 9:1 10:1 11:-1 12:0.333333 13:-0.333333 14:1 15:1 16:0.333333 17:0.333333 18:0.333333 19:0.333333 20:1 21:0.333333 22:1 23:1 24:1 25:1 26:0.333333 27:0.333333 28:0.333333 29:-1 30:-0.333333 31:-1 32:-0.333333 33:0.333333 34:0.333333 35:-0.333333 36:-0.333333 37:0.333333 38:1 39:1 40:0.333333 41:0.333333 42:0.333333 43:-1 44:-0.333333 45:0.333333 46:0.333333 47:0.333333 48:-1 49:0.333333 50:0.333333 51:-1 52:1 53:0.333333 54:0.333333 55:0.333333 56:0.333333 57:-1 58:1 59:0.333333 60:-0.333333 
24.22704455929017 1:-1 2:0.333333 3:1 4:-0.333333 5:-0.333333 6:0.333333 7:0.333333 8:-0.333333 9:1 10:-0.333333 11:1 12:-0.333333 13:-0.333333 14:1 15:1 16:1 17:1 18:-1 19:-0.333333 20:-0.333333 21:1 22:-0.333333 23:-0.333333 24:-1 25:0.333333 26:0.333333 27:-1 28:-0.333333 29:-0.333333 30:-1 31:-1 32:-0.333333 33:0.333333 34:1 35:-1 36:1 37:1 38:1 39:0.333333 40:1 41:-0.333333 42:-0.333333 43:0.333333 44:-1 45:-1 46:-0.333333 47:-0.333333 48:0.333333 49:0.333333 50:-1 51:-0.333333 52:-1 53:1 54:0.333333 55:0.333333 56:1 57:-0.333333 58:1 59:0.333333 60:1 
17.75924876369171 1:-1 2:-1 3:0.333333 4:1 5:0.333333 6:1 7:0.333333 8:1 9:1 10:1 11:0.333333 12:1 13:0.333333 14:0.333333 15:-1 16:1 17:1 18:1 19:0.333333 20:1 21:1 22:-0.333333 23:0.333333 24:0.333333 25:1 26:1 27:1 28:0.333333 29:-1 30:-0.333333 31:-1 32:-1 33:-0.333333 34:-1 35:-1 36:0.333333 37:-1 38:1 39:-0.333333 40:1 41:-0.333333 42:-1 43:1 44:0.333333 45:-1 46:1 47:0.333333 48:0.333333 49:-1 50:-0.333333 51:-0.333333 52:0.333333 53:0.333333 54:-0.333333 55:-1 56:-0.333333 57:1 58:1 59:0.333333 60:1 
13.18727470267297 1:-1 2:-1 3:-1 4:-0.333333 5:-1 6:-0.333333 7:1 8:0.333333 9:0.333333 10:-1 11:-0.333333 12:-0.333333 13:-1 14:0.333333 15:0.333333 16:-1 17:-0.333333 18:-1 19:1 20:-0.333333 21:-0.333333 22:-1 23:1 24:1 25:0.333333 26:-1 27:0.333333 28:-1 29:-0.333333 30:0.333333 31:0.333333 32:-1 33:-1 34:-1 35:1 36:1 37:0.333333 38:1 39:-1 40:0.333333 41:0.333333 42:-1 43:-0.333333 44:-1 45:-0.333333 46:-0.333333 47:1 48:-1 49:0.333333 50:-1 51:-1 52:-0.333333 53:-0.333333 54:1 55:-0.333333 56:-0.333333 57:-1 58:-1 59:0.333333 60:1 
3.423513158167168 1:-1 2:-1 3:-1 4:-0.333333 5:-1 6:1 7:-0.333333 8:0.333333 9:-1 10:1 11:-1 12:-0.333333 13:-1 14:-1 15:-1 16:-0.333333 17:-1 18:-0.333333 19:1 20:-1 21:1 22:-1 23:-1 24:1 25:-0.333333 26:1 27:1 28:1 29:1 30:-1 31:-1 32:-1 33:-1 34:0.333333 35:-1 36:1 37:-1 38:-1 39:-0.333333 40:-0.333333 41:0.333333 42:-1 43:1 44:1 45:0.333333 46:-1 47:1 48:0.333333 49:1 50:-0.333333 51:0.333333 52:0.333333 53:-1 54:1 55:1 56:1 57:1 58:1 59:0.333333 60:-1 
20.30514905391276 1:-1 2:-1 3:0.333333 4:-1 5:-0.333333 6:-1 7:-0.333333 8:-1 9:-0.333333 10:-1 11:-0.333333 12:-1 13:-1 14:0.333333 15:-1 16:-0.333333 17:0.333333 18:-0.333333 19:-0.333333 20:0.333333 21:-1 22:-1 23:-0.333333 24:0.333333 25:0.333333 26:0.333333 27:-1 28:-1 29:-0.333333 30:-1 31:-1 32:-0.333333 33:0.333333 34:0.333333 35:0.333333 36:-0.333333 37:-0.333333 38:-0.333333 39:-1 40:0.333333 41:1 42:0.333333 43:0.333333 44:1 45:-0.333333 46:-1 47:-0.333333 48:-1 49:-1 50:0.333333 51:-1 52:-1 53:1 54:-1 55:-1 56:-0.333333 57:-0.333333 58:-1 59:-0.333333 60:1 
36.05598084832765 1:-0.333333 2:0.333333 3:0.333333 4:-1 5:0.333333 6:1 7:1 8:0.333333 9:-1 10:-0.333333 11:0.333333 12:-1 13:-1 14:-0.333333 15:1 16:1 17:0.333333 18:-1 19:1 20:1 21:0.333333 22:0.333333 23:1 24:-0.333333 25:-1 26:-0.333333 27:-0.333333 28:-0.333333 29:0.333333 30:1 31:0.333333 32:0.333333 33:0.333333 34:-1 35:-0.333333 36:-1 37:-0.333333 38:-1 39:-0.333333 40:1 41:-0.333333 42:-0.333333 43:-0.333333 44:-0.333333 45:0.333333 46:1 47:-0.333333 48:-0.333333 49:1 50:1 51:-0.333333 52:0.333333 53:0.333333 54:-1 55:-0.333333 56:1 57:0.333333 58:-1 59:-0.333333 60:-1 
6.328343193764725 1:-1 2:-1 3:-1 4:0.333333 5:1 6:-1 7:0.333333 8:0.333333 9:0.333333 10:0.333333 11:1 12:-1 13:-1 14:-1 15:-1 16:-0.333333 17:0.333333 18:0.333333 19:-1 20:-1 21:-1 22:-1 23:1 24:-0.333333 25:-0.333333 26:-0.333333 27:-1 28:-1 29:-1 30:-0.333333 31:-0.333333 32:-1 33:-1 34:-1 35:-1 36:-0.333333 37:-1 38:0.333333 39:1 40:0.333333 41:-1 42:1 43:-1 44:1 45:0.333333 46:-1 47:-1 48:0.333333 49:-1 50:1 51:1 52:-0.333333 53:1 54:0.333333 55:-0.333333 56:1 57:0.333333 58:-1 59:1 60:1 
17.66621451012265 1:-0.333333 2:0.333333 3:0.333333 4:-1 5:1 6:-0.333333 7:-0.333333 8:-1 9:-1 10:-1 11:-1 12:-0.333333 13:0.333333 14:-1 15:0.333333 16:0.333333 17:-1 18:-0.333333 19:-1 20:-1 21:-0.333333 22:0.333333 23:-0.333333 24:-0.333333 25:-0.333333 26:0.333333 27:0.333333 28:-1 29:-1 30:-1 31:-0.333333 32:-1 33:1 34:-0.333333 35:-1 36:-1 37:-1 38:-1 39:1 40:-0.333333 41:-0.333333 42:-1 43:-0.333333 44:0.333333 45:1 46:-0.333333 47:1 48:1 49:1 50:-0.333333 51:1 52:-0.333333 53:0.333333 54:-1 55:-1 56:0.333333 57:-1 58:-0.333333 59:-1 60:0.333333 
35.18735276102908 1:1 2:-0.333333 3:0.333333 4:1 5:0.333333 6:0.333333 7:-1 8:-0.333333 9:-0.333333 10:-0.333333 11:-1 12:-0.333333 13:0.333333 14:1 15:-0.333333 16:-1 17:-0.333333 18:-0.333333 19:0.333333 20:0.333333 21:0.333333 22:1 23:1 24:0.333333 25:-1 26:-1 27:-1 28:-0.333333 29:0.333333 30:0.333333 31:0.333333 32:-1 33:-0.333333 34:1 35:-1 36:0.333333 37:-1 38:1 39:-0.333333 40:0.333333 41:1 42:-0.333333 43:-0.333333 44:1 45:-0.333333 46:-0.333333 47:1 48:1 49:0.333333 50:-1 51:0.333333 52:-1 53:1 54:-0.333333 55:0.333333 56:-0.333333 57:0.333333 58:-1 59:-0.333333 60:-1 
6.195064841842246 1:-0.333333 2:-1 3:-0.333333 4:-1 5:-1 6:-0.333333 7:-1 8:-1 9:1 10:1 11:-1 12:-1 13:0.333333 14:0.333333 15:1 16:1 17:1 18:1 19:-0.333333 20:0.333333 21:1 22:1 23:0.333333 24:1 25:0.333333 26:0.333333 27:-1 28:-0.333333 29:1 30:1 31:-0.333333 32:-1 33:-1 34:0.333333 35:-1 36:1 37:1 38:1 39:-0.333333 40:1 41:-1 42:-0.333333 43:0.333333 44:-1 45:-1 46:1 47:-1 48:-1 49:-0.333333 50:1 51:0.333333 52:-1 53:1 54:-0.333333 55:0.333333 56:-1 57:-1 58:-1 59:1 60:-1 
22.64162221554844 1:-0.333333 2:-0.333333 3:-1 4:-0.333333 5:-1 6:1 7:-1 8:-1 9:-0.333333 10:-0.333333 11:-0.333333 12:-0.333333 13:-1 14:0.333333 15:1 16:0.333333 17:-1 18:-0.333333 19:0.333333 20:1 21:0.333333 22:1 23:0.333333 24:-1 25:-0.333333 26:-0.333333 27:-1 28:-0.333333 29:-0.333333 30:1 31:0.333333 32:-1 33:-1 34:-1 35:-1 36:-1 37:0.333333 38:-1 39:-0.333333 40:-1 41:-0.333333 42:-0.333333 43:-1 44:1 45:1 46:-0.333333 47:0.333333 48:1 49:-1 50:1 51:1 52:-0.333333 53:0.333333 54:0.333333 55:0.333333 56:-0.333333 57:-1 58:-0.333333 59:0.333333 60:0.333333 
