svm_type c_svc
kernel_type polynomial
degree 3
gamma 0.0166667
coef0 0
nr_class 2
total_sv 1870
rho -0.352501
label 1 -1
nr_sv 1006 864
SV
8.130794853447608 1:-0.333333 2:-1 3:1 4:0.333333 5:-1 6:0.333333 7:-1 8:0.333333 9:1 10:-1 11:1 12:0.333333 13:1 14:0.333333 15:0.333333 16:-1 17:0.333333 18:1 19:1 20:-0.333333 21:0.333333 22:0.333333 23:0.333333 24:-1 25:-0.333333 26:0.333333 27:0.333333 28:0.333333 29:1 30:-0.333333 31:1 32:-0.333333 33:-0.333333 34:-1 35:-1 36:-0.333333 37:-1 38:1 39:1 40:-1 41:-0.333333 42:0.333333 43:-0.333333 44:-0.333333 45:0.333333 46:0.333333 47:-1 48:1 49:-0.333333 50:1 51:-1 52:1 53:1 54:0.333333 55:0.333333 56:-1 57:-1 58:1 59:-0.333333 60:1 
15.30348292379581 1:1 2:1 3:1 4:1 5:1 6:1 7:0.333333 8:0.333333 9:1 10:-0.333333 11:-1 12:-0.333333 13:0.333333 14:1 15:1 16:-0.333333 17:-0.333333 18:0.333333 19:0.333333 20:-1 21:-0.333333 22:-1 23:-1 24:-0.333333 25:-0.333333 26:-0.333333 27:-0.333333 28:-0.333333 29:0.333333 30:0.333333 31:-1 32:1 33:-0.333333 34:-1 35:-0.333333 36:-0.333333 37:0.333333 38:0.333333 39:1 40:0.333333 41:-1 42:-0.333333 43:1 44:-0.333333 45:-0.333333 46:-1 47:0.333333 48:1 49:1 50:1 51:0.333333 52:0.333333 53:-1 54:0.333333 55:0.333333 56:0.333333 57:0.333333 58:0.333333 59:1 60:0.333333 
6.850053475361766 1:0.333333 2:1 3:0.333333 4:-0.333333 5:-0.333333 6:-0.333333 7:-0.333333 8:-1 9:0.333333 10:-0.333333 11:0.333333 12:0.333333 13:0.333333 14:0.333333 15:0.333333 16:-1 17:0.333333 18:0.333333 19:-1 20:-0.333333 21:0.333333 22:1 23:0.333333 24:-1 25:-1 26:-1 27:1 28:1 29:0.333333 30:0.333333 31:-0.333333 32:-1 33:-0.333333 34:1 35:-0.333333 36:0.333333 37:-1 38:-0.333333 39:-1 40:-1 41:-1 42:-1 43:-0.333333 44:-1 45:-1 46:-1 47:0.333333 48:0.333333 49:-0.333333 50:-0.333333 51:-1 52:0.333333 53:0.333333 54:0.333333 55:0.333333 56:0.333333 57:0.333333 58:-1 59:-0.333333 60:1 
1.614477386006034 1:1 2:-1 3:0.333333 4:1 5:0.333333 6:1 7:0.333333 8:0.333333 9:1 10:1 11:1 12:0.333333 13:1 14:1 15:-0.333333 16:-0.333333 17:-0.333333 18:-0.333333 19:-0.333333 20:1 21:-1 22:1 23:0.333333 24:-1 25:1 26:1 27:1 28:0.333333 29:1 30:1 31:-0.333333 32:-0.333333 33:-0.333333 34:-0.333333 35:1 36:1 37:-0.333333 38:1 39:-1 40:1 41:-1 42:-1 43:-1 44:-1 45:-1 46:1 47:-1 48:1 49:-1 50:-1 51:1 52:1 53:1 54:1 55:-1 56:1 57:-1 58:-1 59:1 60:-0.333333 
3.180213874197738 1:-1 2:0.333333 3:-1 4:0.333333 5:0.333333 6:-1 7:-1 8:1 9:1 10:1 11:-1 12:1 13:1 14:-0.333333 15:1 16:-1 17:1 18:-1 19:1 20:1 21:1 22:1 23:0.333333 24:-1 25:1 26:-1 27:0.333333 28:-0.333333 29:-0.333333 30:0.333333 31:1 32:-1 33:-0.333333 34:-1 35:-1 36:-0.333333 37:-1 38:-0.333333 39:0.333333 40:-1 41:-1 42:-1 43:1 44:1 45:1 46:1 47:-0.333333 48:-1 49:1 50:1 51:-0.333333 52:1 53:1 54:0.333333 55:0.333333 56:0.333333 57:-1 58:-0.333333 59:0.333333 60:-1 
1.402845492403366 1:-0.333333 2:-0.333333 3:-0.333333 4:-0.333333 5:-0.333333 6:-1 7:-1 8:-0.333333 9:-1 10:-0.333333 11:-1 12:1 13:-1 14:-1 15:-1 16:-1 17:-0.333333 18:0.333333 19:-1 20:-1 21:-1 22:0.333333 23:-1 24:-0.333333 25:-0.333333 26:1 27:0.333333 28:1 29:-0.333333 30:-0.333333 31:-0.333333 32:-1 33:-0.333333 34:-0.333333 35:0.333333 36:-1 37:-0.333333 38:1 39:1 40:0.333333 41:1 42:-0.333333 43:1 44:1 45:-0.333333 46:0.333333 47:0.333333 48:-1 49:0.333333 50:1 51:0.333333 52:1 53:0.333333 54:1 55:0.333333 56:1 57:0.333333 58:0.333333 59:1 60:-0.333333 
17.71391778870906 1:-0.333333 2:-0.333333 3:1 4:-1 5:-1 6:0.333333 7:-0.333333 8:1 9:0.333333 10:0.333333 11:1 12:0.333333 13:1 14:1 15:0.333333 16:0.333333 17:0.333333 18:-1 19:0.333333 20:0.333333 21:1 22:0.333333 23:1 24:1 25:0.333333 26:0.333333 27:0.333333 28:0.333333 29:-1 30:-0.333333 31:1 32:-0.333333 33:-1 34:0.333333 35:0.333333 36:1 37:0.333333 38:0.333333 39:1 40:0.333333 41:0.333333 42:-1 43:-0.333333 44:0.333333 45:0.333333 46:-0.333333 47:0.333333 48:0.333333 49:-1 50:-1 51:-1 52:1 53:0.333333 54:0.333333 55:-0.333333 56:0.333333 57:-1 58:0.333333 59:0.333333 60:-1 
18.49413523973155 1:1 2:0.333333 3:1 4:-0.333333 5:0.333333 6:1 7:0.333333 8:-1 9:0.333333 10:-0.333333 11:0.333333 12:1 13:0.333333 14:0.333333 15:0.333333 16:0.333333 17:-0.333333 18:0.333333 19:0.333333 20:-0.333333 21:0.333333 22:-0.333333 23:-0.333333 24:1 25:0.333333 26:0.333333 27:0.333333 28:0.333333 29:-1 30:-0.333333 31:-0.333333 32:1 33:-1 34:1 35:-0.333333 36:-0.333333 37:-1 38:-0.333333 39:1 40:0.333333 41:-0.333333 42:-0.333333 43:0.333333 44:-0.333333 45:-0.333333 46:-0.333333 47:0.333333 48:-1 49:1 50:1 51:0.333333 52:-1 53:0.333333 54:-0.333333 55:-1 56:-0.333333 57:-1 58:0.333333 59:0.333333 60:-1 
5.908906315620323 1:-0.333333 2:1 3:1 4:-0.333333 5:-1 6:-0.333333 7:-0.333333 8:-0.333333 9:-0.333333 10:-0.333333 11:0.333333 12:1 13:-0.333333 14:1 15:-0.333333 16:-1 17:0.333333 18:0.333333 19:0.333333 20:-1 21:1 22:-0.333333 23:-1 24:1 25:0.333333 26:-1 27:1 28:-0.333333 29:0.333333 30:0.333333 31:-1 32:1 33:1 34:-0.333333 35:0.333333 36:-1 37:0.333333 38:1 39:0.333333 40:0.333333 41:-1 42:-0.333333 43:0.333333 44:0.333333 45:1 46:-1 47:-0.333333 48:-0.333333 49:1 50:-0.333333 51:-1 52:0.333333 53:-1 54:-0.333333 55:-1 56:-0.333333 57:-0.333333 58:-0.333333 59:-1 60:-0.333333 
3.36480892449866 1:-1 2:-0.333333 3:0.333333 4:0.333333 5:-0.333333 6:-0.333333 7:-0.333333 8:0.333333 9:-1 10:-0.333333 11:-1 12:-0.333333 13:-1 14:0.333333 15:-1 16:0.333333 17:-1 18:-1 19:0.333333 20:-1 21:-1 22:-1 23:-1 24:-1 25:-1 26:-1 27:-1 28:-0.333333 29:-1 30:-1 31:1 32:1 33:1 34:1 35:-1 36:-0.333333 37:-1 38:0.333333 39:0.333333 40:-1 41:-1 42:1 43:-1 44:1 45:0.333333 46:0.333333 47:1 48:1 49:-0.333333 50:-1 51:1 52:-0.333333 53:-1 54:-1 55:0.333333 56:-1 57:1 58:1 59:-0.333333 60:-1 
5.469974039403857 1:-0.333333 2:0.333333 3:-0.333333 4:0.333333 5:0.333333 6:-1 7:-1 8:-1 9:-0.333333 10:0.333333 11:-1 12:-1 13:-1 14:-0.333333 15:-0.333333 16:-0.333333 17:-0.333333 18:-1 19:0.333333 20:-1 21:1 22:-1 23:-1 24:-1 25:0.333333 26:-1 27:0.333333 28:0.333333 29:-1 30:-0.333333 31:-0.333333 32:-1 33:-1 34:0.333333 35:-1 36:-1 37:0.333333 38:-0.333333 39:-0.333333 40:-0.333333 41:-0.333333 42:-1 43:-0.333333 44:-1 45:-0.333333 46:-1 47:-0.333333 48:0.333333 49:0.333333 50:1 51:0.333333 52:0.333333 53:1 54:-0.333333 55:1 56:-0.333333 57:-1 58:-1 59:-1 60:-0.333333 
10.46384193225547 1:0.333333 2:0.333333 3:-0.333333 4:1 5:-0.333333 6:-0.333333 7:1 8:0.333333 9:-1 10:-0.333333 11:0.333333 12:-1 13:-0.333333 14:0.333333 15:-1 16:-0.333333 17:0.333333 18:-1 19:0.333333 20:-0.333333 21:-1 22:0.333333 23:1 24:1 25:0.333333 26:0.333333 27:-0.333333 28:0.333333 29:0.333333 30:1 31:0.333333 32:0.333333 33:-0.333333 34:0.333333 35:-1 36:-0.333333 37:-0.333333 38:1 39:-0.333333 40:-0.333333 41:0.333333 42:1 43:-1 44:1 45:-0.333333 46:-0.333333 47:-1 48:-0.333333 49:-0.333333 50:-1 51:-0.333333 52:-0.333333 53:1 54:1 55:-1 56:0.333333 57:-0.333333 58:-0.333333 59:0.333333 60:-0.333333 
1.915430425920595 1:-0.333333 2:-0.333333 3:-1 4:-0.333333 5:-1 6:1 7:0.333333 8:-0.333333 9:-1 10:-0.333333 11:-1 12:0.333333 13:0.333333 14:-1 15:1 16:0.333333 17:0.333333 18:1 19:-0.333333 20:-0.333333 21:0.333333 22:1 23:-1 24:-1 25:0.333333 26:-1 27:0.333333 28:-0.333333 29:-0.333333 30:1 31:1 32:-1 33:-1 34:-1 35:1 36:0.333333 37:0.333333 38:0.333333 39:-0.333333 40:1 41:0.333333 42:1 43:0.333333 44:1 45:-1 46:0.333333 47:1 48:-1 49:-1 50:-1 51:-1 52:-1 53:1 54:-1 55:1 56:-1 57:-1 58:-1 59:-1 60:-1 
4.63671278051663 1:-1 2:-1 3:-0.333333 4:-1 5:-1 6:1 7:-0.333333 8:0.333333 9:1 10:1 11:-1 12:0.333333 13:-1 14:-1 15:1 16:-1 17:-1 18:-1 19:0.333333 20:1 21:0.333333 22:1 23:0.333333 24:0.333333 25:1 26:0.333333 27:0.333333 28:-1 29:-0.333333 30:-0.333333 31:-0.333333 32:1 33:0.333333 34:1 35:1 36:0.333333 37:0.333333 38:1 39:-0.333333 40:-0.333333 41:-1 42:1 43:0.333333 44:-1 45:0.333333 46:-1 47:-1 48:0.333333 49:-0.333333 50:0.333333 51:0.333333 52:0.333333 53:1 54:0.333333 55:0.333333 56:0.333333 57:0.333333 58:-0.333333 59:-1 60:0.333333 
17.05818252663804 1:0.333333 2:1 3:0.333333 4:-0.333333 5:0.333333 6:1 7:-0.333333 8:-1 9:0.333333 10:1 11:0.333333 12:1 13:0.333333 14:0.333333 15:1 16:1 17:1 18:1 19:1 20:0.333333 21:1 22:1 23:1 24:0.333333 25:1 26:0.333333 27:0.333333 28:-1 29:-1 30:-0.333333 31:0.333333 32:0.333333 33:0.333333 34:-1 35:-1 36:-0.333333 37:-1 38:-0.333333 39:-0.333333 40:-1 41:-0.333333 42:-1 43:1 44:0.333333 45:-0.333333 46:-0.333333 47:0.333333 48:-0.333333 49:0.333333 50:-0.333333 51:-0.333333 52:1 53:1 54:-0.333333 55:1 56:0.333333 57:-1 58:-0.333333 59:0.333333 60:1 
23.61586627424244 1:-0.333333 2:-0.333333 3:-1 4:0.333333 5:-0.333333 6:-1 7:0.333333 8:-0.333333 9:1 10:0.333333 11:0.333333 12:1 13:-0.333333 14:0.333333 15:-0.333333 16:-0.333333 17:-0.333333 18:-0.333333 19:0.333333 20:-0.333333 21:-1 22:-0.333333 23:0.333333 24:1 25:-0.333333 26:0.333333 27:-1 28:-0.333333 29:-1 30:-0.333333 31:-0.333333 32:0.333333 33:1 34:-0.333333 35:0.333333 36:-0.333333 37:-0.333333 38:-0.333333 39:-1 40:-0.333333 41:-0.333333 42:-1 43:-0.333333 44:0.333333 45:1 46:-0.333333 47:-0.333333 48:-0.333333 49:0.333333 50:0.333333 51:-0.333333 52:-0.333333 53:0.333333 54:1 55:0.333333 56:-0.333333 57:0.333333 58:-0.333333 59:-0.333333 60:-1 
9.259622566568803 1:0.333333 2:-0.333333 3:0.333333 4:-1 5:-0.333333 6:0.333333 7:-0.333333 8:-0.333333 9:-1 10:-0.333333 11:-0.333333 12:1 13:-0.333333 14:-1 15:-1 16:-0.333333 17:-0.333333 18:-1 19:0.333333 20:-0.333333 21:1 22:0.333333 23:0.333333 24:1 25:1 26:0.333333 27:0.333333 28:0.333333 29:0.333333 30:-1 31:-0.333333 32:-0.333333 33:-1 34:-0.333333 35:0.333333 36:0.333333 37:-0.333333 38:-1 39:0.333333 40:1 41:-0.333333 42:-0.333333 43:0.333333 44:0.333333 45:-1 46:-1 47:1 48:0.333333 49:-1 50:0.333333 51:-1 52:-0.333333 53:-0.333333 54:0.333333 55:-1 56:-0.333333 57:-0.333333 58:-1 59:-1 60:-0.333333 
2.635515506654568 1:-0.333333 2:-1 3:-0.333333 4:0.333333 5:1 6:0.333333 7:1 8:-0.333333 9:1 10:-0.333333 11:-1 12:0.333333 13:-0.333333 14:-1 15:1 16:-0.333333 17:-1 18:0.333333 19:0.333333 20:0.333333 21:-0.333333 22:0.333333 23:0.333333 24:-1 25:-0.333333 26:-1 27:-0.333333 28:-1 29:1 30:0.333333 31:0.333333 32:0.333333 33:-1 34:0.333333 35:-1 36:0.333333 37:-0.333333 38:0.333333 39:0.333333 40:-1 41:0.333333 42:-1 43:1 44:1 45:0.333333 46:-1 47:-1 48:-1 49:-0.333333 50:0.333333 51:0.333333 52:-1 53:1 54:-0.333333 55:-0.333333 56:0.333333 57:0.333333 58:1 59:-1 60:0.333333 
2.389359998186473 1:0.333333 2:-1 3:0.333333 4:1 5:-0.333333 6:-1 7:-0.333333 8:1 9:1 10:-0.333333 11:-1 12:1 13:1 14:1 15:1 16:-1 17:-0.333333 18:0.333333 19:-1 20:-0.333333 21:-1 22:-0.333333 23:-1 24:-1 25:-1 26:0.333333 27:-0.333333 28:1 29:-0.333333 30:-0.333333 31:1 32:-0.333333 33:-1 34:0.333333 35:0.333333 36:1 37:-0.333333 38:-1 39:0.333333 40:-1 41:-1 42:-0.333333 43:-1 44:-0.333333 45:-1 46:-0.333333 47:-1 48:-1 49:1 50:-0.333333 51:1 52:-0.333333 53:-1 54:-1 55:0.333333 56:0.333333 57:-1 58:-0.333333 59:1 60:-0.333333 
3.941041699727255 1:-1 2:-0.333333 3:-1 4:-1 5:-1 6:-0.333333 7:0.333333 8:0.333333 9:-1 10:-1 11:-1 12:-1 13:1 14:-0.333333 15:1 16:1 17:1 18:-0.333333 19:1 20:1 21:1 22:1 23:1 24:1 25:1 26:-1 27:-1 28:-0.333333 29:-1 30:1 31:1 32:0.333333 33:1 34:-0.333333 35:-1 36:-1 37:-1 38:1 39:-0.333333 40:1 41:-0.333333 42:1 43:1 44:-0.333333 45:1 46:-0.333333 47:-1 48:0.333333 49:-1 50:-1 51:0.333333 52:-1 53:-1 54:1 55:-0.333333 56:-1 57:0.333333 58:0.333333 59:1 60:-1 
18.75198417408321 1:-0.333333 2:1 3:-0.333333 4:-0.333333 5:-0.333333 6:-1 7:0.333333 8:0.333333 9:-1 10:0.333333 11:-1 12:-0.333333 13:0.333333 14:0.333333 15:-1 16:-0.333333 17:-0.333333 18:-1 19:0.333333 20:-0.333333 21:-0.333333 22:0.333333 23:0.333333 24:0.333333 25:1 26:1 27:0.333333 28:-1 29:-1 30:-0.333333 31:-1 32:1 33:-1 34:-0.333333 35:-0.333333 36:-0.333333 37:-0.333333 38:0.333333 39:1 40:-0.333333 41:-1 42:-0.333333 43:-0.333333 44:-0.333333 45:-1 46:-0.333333 47:-0.333333 48:0.333333 49:0.333333 50:-1 51:-1 52:-0.333333 53:-0.333333 54:-0.333333 55:-0.333333 56:-1 57:-1 58:0.333333 59:-1 60:1 
3.925453266021794 1:-0.333333 2:-1 3:1 4:-0.333333 5:-0.333333 6:-1 7:-0.333333 8:-0.333333 9:-0.333333 10:1 11:1 12:1 13:-0.333333 14:1 15:0.333333 16:1 17:-1 18:0.333333 19:-1 20:1 21:-1 22:-0.333333 23:0.333333 24:-0.333333 25:-0.333333 26:-0.333333 27:0.333333 28:-1 29:-1 30:-0.333333 31:1 32:-0.333333 33:1 34:-0.333333 35:-0.333333 36:1 37:0.333333 38:1 39:-0.333333 40:-0.333333 41:1 42:-0.333333 43:0.333333 44:0.333333 45:1 46:-0.333333 47:1 48:0.333333 49:1 50:1 51:-0.333333 52:-0.333333 53:0.333333 54:-1 55:-0.333333 56:-1 57:-1 58:-1 59:-1 60:0.333333 
0.9560018809105237 1:1 2:-0.333333 3:-0.333333 4:-1 5:1 6:1 7:-1 8:0.333333 9:-1 10:-0.333333 11:-0.333333 12:0.333333 13:-1 14:1 15:-0.333333 16:-1 17:-0.333333 18:0.333333 19:0.333333 20:-1 21:0.333333 22:0.333333 23:-0.333333 24:1 25:-0.333333 26:0.333333 27:0.333333 28:0.333333 29:-0.333333 30:-0.333333 31:0.333333 32:0.333333 33:1 34:1 35:-1 36:1 37:0.333333 38:-1 39:0.333333 40:-1 41:1 42:1 43:1 44:-1 45:1 46:1 47:-1 48:1 49:1 50:1 51:-1 52:1 53:1 54:-0.333333 55:1 56:1 57:1 58:1 59:1 60:0.333333 
2.985642063999298 1:0.333333 2:1 3:0.333333 4:1 5:-1 6:0.333333 7:1 8:-1 9:-1 10:-1 11:-1 12:-1 13:1 14:-1 15:1 16:-1 17:-1 18:-1 19:-1 20:-1 21:1 22:1 23:-1 24:-0.333333 25:0.333333 26:1 27:-0.333333 28:-0.333333 29:-0.333333 30:0.333333 31:-0.333333 32:1 33:-0.333333 34:-0.333333 35:1 36:-1 37:-0.333333 38:1 39:-0.333333 40:0.333333 41:-1 42:1 43:-0.333333 44:-0.333333 45:0.333333 46:1 47:-0.333333 48:1 49:0.333333 50:-1 51:1 52:0.333333 53:0.333333 54:0.333333 55:-1 56:-0.333333 57:1 58:1 59:-1 60:0.333333 
8.181248226817727 1:-1 2:-0.333333 3:1 4:-1 5:-1 6:0.333333 7:-0.333333 8:0.333333 9:0.333333 10:1 11:0.333333 12:0.333333 13:0.333333 14:0.333333 15:0.333333 16:0.333333 17:-1 18:-0.333333 19:-0.333333 20:0.333333 21:1 22:-0.333333 23:-0.333333 24:1 25:-0.333333 26:-1 27:-1 28:-1 29:-1 30:-1 31:-0.333333 32:-1 33:-1 34:1 35:-0.333333 36:-1 37:-0.333333 38:-0.333333 39:-1 40:-1 41:-0.333333 42:0.333333 43:1 44:-0.333333 45:0.333333 46:1 47:-0.333333 48:-1 49:1 50:-0.333333 51:-1 52:-0.333333 53:-0.333333 54:1 55:0.333333 56:1 57:1 58:0.333333 59:-1 60:-1 
0.9937935265771042 1:-0.333333 2:0.333333 3:1 4:-0.333333 5:-1 6:-0.333333 7:0.333333 8:-0.333333 9:-1 10:0.333333 11:0.333333 12:1 13:-0.333333 14:0.333333 15:-1 16:0.333333 17:-0.333333 18:0.333333 19:-0.333333 20:0.333333 21:-1 22:0.333333 23:-1 24:-1 25:-0.333333 26:0.333333 27:1 28:1 29:0.333333 30:-0.333333 31:-0.333333 32:-0.333333 33:1 34:-0.333333 35:-0.333333 36:-1 37:0.333333 38:0.333333 39:0.333333 40:-0.333333 41:-0.333333 42:1 43:0.333333 44:-1 45:-1 46:0.333333 47:1 48:1 49:0.333333 50:-1 51:-1 52:-0.333333 53:-0.333333 54:1 55:-0.333333 56:-1 57:-0.333333 58:0.333333 59:-0.333333 60:-0.333333 
7.439439474731933 1:1 2:1 3:0.333333 4:0.333333 5:-1 6:-1 7:-0.333333 8:-0.333333 9:-1 10:-0.333333 11:-0.333333 12:-0.333333 13:-1 14:0.333333 15:0.333333 16:1 17:0.333333 18:1 19:0.333333 20:1 21:-0.333333 22:0.333333 23:0.333333 24:0.333333 25:0.333333 26:0.333333 27:0.333333 28:-1 29:0.333333 30:0.333333 31:-1 32:1 33:1 34:-1 35:0.333333 36:0.333333 37:-1 38:1 39:0.333333 40:-1 41:0.333333 42:1 43:-0.333333 44:1 45:-0.333333 46:-1 47:0.333333 48:1 49:1 50:1 51:0.333333 52:0.333333 53:0.333333 54:0.333333 55:-1 56:-1 57:-0.333333 58:0.333333 59:0.333333 60:0.333333 
4.153212366139982 1:1 2:-0.333333 3:-0.333333 4:-0.333333 5:1 6:-1 7:0.333333 8:0.333333 9:-1 10:0.333333 11:1 12:-0.333333 13:-0.333333 14:0.333333 15:1 16:-0.333333 17:-1 18:-0.333333 19:1 20:-1 21:-0.333333 22:-0.333333 23:-1 24:-1 25:-1 26:-0.333333 27:-0.333333 28:-0.333333 29:-0.333333 30:-1 31:-1 32:-0.333333 33:-1 34:0.333333 35:0.333333 36:-1 37:-0.333333 38:-0.333333 39:1 40:-0.333333 41:-0.333333 42:0.333333 43:1 44:0.333333 45:0.333333 46:-1 47:1 48:-0.333333 49:0.333333 50:0.333333 51:1 52:1 53:1 54:0.333333 55:0.333333 56:0.333333 57:0.333333 58:-1 59:-0.333333 60:-0.333333 
9.517088671964135 1:0.333333 2:-0.333333 3:0.333333 4:0.333333 5:0.333333 6:1 7:0.333333 8:0.333333 9:1 10:0.333333 11:0.333333 12:0.333333 13:1 14:1 15:-0.333333 16:1 17:1 18:1 19:-1 20:-0.333333 21:-1 22:-1 23:1 24:1 25:-0.333333 26:1 27:0.333333 28:1 29:1 30:0.333333 31:-0.333333 32:1 33:0.333333 34:-0.333333 35:1 36:0.333333 37:-1 38:1 39:-0.333333 40:-1 41:1 42:-1 43:-1 44:-1 45:0.333333 46:0.333333 47:0.333333 48:-0.333333 49:1 50:1 51:0.333333 52:1 53:-0.333333 54:1 55:-0.333333 56:1 57:0.333333 58:0.333333 59:0.333333 60:0.333333 
7.556927021845606 1:1 2:1 3:0.333333 4:-0.333333 5:0.333333 6:1 7:1 8:1 9:0.333333 10:0.333333 11:1 12:0.333333 13:1 14:-0.333333 15:-0.333333 16:1 17:1 18:1 19:-0.333333 20:-1 21:-1 22:-1 23:-0.333333 24:0.333333 25:0.333333 26:1 27:0.333333 28:1 29:-0.333333 30:-0.333333 31:-1 32:-1 33:-1 34:-1 35:0.333333 36:1 37:0.333333 38:-1 39:-0.333333 40:-0.333333 41:-1 42:1 43:1 44:0.333333 45:1 46:0.333333 47:-1 48:0.333333 49:-0.333333 50:-1 51:0.333333 52:1 53:0.333333 54:1 55:-1 56:0.333333 57:0.333333 58:-1 59:1 60:-0.333333 
7.214816596224344 1:0.333333 2:1 3:-0.333333 4:-1 5:0.333333 6:-1 7:-0.333333 8:-1 9:-1 10:1 11:-0.333333 12:-1 13:-1 14:0.333333 15:0.333333 16:1 17:-0.333333 18:0.333333 19:-1 20:-0.333333 21:-1 22:0.333333 23:0.333333 24:0.333333 25:1 26:-0.333333 27:0.333333 28:-0.333333 29:0.333333 30:-0.333333 31:-0.333333 32:0.333333 33:1 34:-1 35:0.333333 36:1 37:-1 38:0.333333 39:-1 40:-1 41:0.333333 42:0.333333 43:-1 44:-0.333333 45:-1 46:-0.333333 47:0.333333 48:-0.333333 49:-1 50:-0.333333 51:-0.333333 52:0.333333 53:0.333333 54:-1 55:-0.333333 56:1 57:-0.333333 58:-1 59:-0.333333 60:1 
6.325704850427671 1:-1 2:0.333333 3:0.333333 4:1 5:1 6:1 7:-0.333333 8:1 9:1 10:-0.333333 11:-0.333333 12:1 13:1 14:-0.333333 15:1 16:-1 17:-1 18:-1 19:1 20:0.333333 21:1 22:-0.333333 23:1 24:0.333333 25:1 26:1 27:-1 28:0.333333 29:0.333333 30:-1 31:-1 32:1 33:-0.333333 34:-0.333333 35:1 36:-0.333333 37:-0.333333 38:1 39:1 40:1 41:-0.333333 42:1 43:1 44:0.333333 45:0.333333 46:0.333333 47:1 48:0.333333 49:0.333333 50:1 51:-0.333333 52:-1 53:-1 54:0.333333 55:-1 56:-0.333333 57:1 58:1 59:1 60:1 
1.684995403470601 1:0.333333 2:-0.333333 3:-0.333333 4:-0.333333 5:0.333333 6:-0.333333 7:-0.333333 8:-0.333333 9:1 10:0.333333 11:1 12:-0.333333 13:-0.333333 14:-1 15:-1 16:-1 17:-1 18:-1 19:-1 20:-1 21:1 22:1 23:-1 24:0.333333 25:1 26:-0.333333 27:0.333333 28:0.333333 29:-0.333333 30:1 31:-1 32:-1 33:0.333333 34:0.333333 35:0.333333 36:1 37:-0.333333 38:-1 39:1 40:-0.333333 41:-0.333333 42:1 43:-0.333333 44:-1 45:1 46:-0.333333 47:1 48:-1 49:-0.333333 50:-0.333333 51:1 52:-0.333333 53:-0.333333 54:1 55:0.333333 56:0.333333 57:0.333333 58:1 59:-0.333333 60:-0.333333 
18.54330208618208 1:0.333333 2:1 3:-0.333333 4:1 5:0.333333 6:1 7:0.333333 8:-1 9:0.333333 10:0.333333 11:1 12:-0.333333 13:1 14:-0.333333 15:0.333333 16:0.333333 17:1 18:1 19:0.333333 20:1 21:0.333333 22:0.333333 23:0.333333 24:1 25:-1 26:0.333333 27:1 28:-0.333333 29:-1 30:-1 31:0.333333 32:-1 33:0.333333 34:-1 35:0.333333 36:-0.333333 37:0.333333 38:-1 39:0.333333 40:-0.333333 41:-0.333333 42:-0.333333 43:-1 44:1 45:-0.333333 46:-0.333333 47:-0.333333 48:0.333333 49:0.333333 50:1 51:-0.333333 52:-0.333333 53:-0.333333 54:-0.333333 55:-0.333333 56:-0.333333 57:-1 58:0.333333 59:0.333333 60:0.333333 
92.48454100101424 1:-0.333333 2:1 3:-0.333333 4:0.333333 5:0.333333 6:1 7:-0.333333 8:-1 9:-1 10:1 11:1 12:1 13:1 14:0.333333 15:1 16:-0.333333 17:-1 18:0.333333 19:1 20:0.333333 21:1 22:1 23:0.333333 24:0.333333 25:0.333333 26:0.333333 27:1 28:0.333333 29:-1 30:-0.333333 31:-1 32:-0.333333 33:0.333333 34:0.333333 35:0.333333 36:0.333333 37:0.333333 38:-1 39:-1 40:-1 41:-0.333333 42:-1 43:0.333333 44:-1 45:0.333333 46:-1 47:0.333333 48:-0.333333 49:1 50:-0.333333 51:-1 52:0.333333 53:1 54:0.333333 55:-1 56:0.333333 57:0.333333 58:-1 59:0.333333 60:0.333333 
3.529421803032155 1:-0.333333 2:0.333333 3:1 4:-0.333333 5:-1 6:1 7:-1 8:-1 9:-1 10:-0.333333 11:-1 12:0.333333 13:-1 14:1 15:-1 16:0.333333 17:0.333333 18:1 19:-0.333333 20:-1 21:-0.333333 22:-1 23:0.333333 24:1 25:-0.333333 26:-0.333333 27:-0.333333 28:1 29:-1 30:-1 31:1 32:1 33:-1 34:0.333333 35:-1 36:-1 37:-1 38:-1 39:-0.333333 40:-1 41:-1 42:-1 43:-0.333333 44:-0.333333 45:1 46:1 47:1 48:-1 49:1 50:1 51:-0.333333 52:-0.333333 53:-1 54:0.333333 55:1 56:0.333333 57:-1 58:0.333333 59:-1 60:-0.333333 
3.406585860682021 1:-0.333333 2:-1 3:-0.333333 4:-1 5:-0.333333 6:-1 7:-0.333333 8:0.333333 9:0.333333 10:0.333333 11:0.333333 12:-1 13:-0.333333 14:-1 15:0.333333 16:1 17:-0.333333 18:-1 19:-0.333333 20:-0.333333 21:-0.333333 22:-1 23:-1 24:-0.333333 25:0.333333 26:-1 27:1 28:-0.333333 29:-0.333333 30:-1 31:1 32:-0.333333 33:-0.333333 34:-1 35:1 36:-0.333333 37:-0.333333 38:-1 39:-0.333333 40:-1 41:-1 42:-0.333333 43:-0.333333 44:-1 45:1 46:-0.333333 47:0.333333 48:0.333333 49:1 50:0.333333 51:-0.333333 52:0.333333 53:1 54:-0.333333 55:-0.333333 56:-0.333333 57:-0.333333 58:-1 59:0.333333 60:1 
2.917656476681699 1:1 2:0.333333 3:1 4:-0.333333 5:-1 6:-0.333333 7:0.333333 8:1 9:0.333333 10:1 11:-0.333333 12:0.333333 13:-1 14:1 15:1 16:1 17:-0.333333 18:1 19:0.333333 20:1 21:-1 22:1 23:1 24:0.333333 25:1 26:0.333333 27:0.333333 28:-1 29:-0.333333 30:0.333333 31:1 32:-0.333333 33:-1 34:0.333333 35:0.333333 36:0.333333 37:1 38:-0.333333 39:-0.333333 40:1 41:1 42:0.333333 43:1 44:0.333333 45:1 46:0.333333 47:1 48:0.333333 49:1 50:1 51:-1 52:-0.333333 53:0.333333 54:1 55:-1 56:0.333333 57:0.333333 58:1 59:-0.333333 60:0.333333 
279.508497187 1:-0.333333 2:0.333333 3:0.333333 4:-0.333333 5:1 6:-0.333333 7:-0.333333 8:1 9:1 10:1 11:1 12:1 13:1 14:1 15:-0.333333 16:0.333333 17:1 18:1 19:0.333333 20:-1 21:0.333333 22:0.333333 23:-1 24:0.333333 25:0.333333 26:0.333333 27:1 28:-0.333333 29:-1 30:-0.333333 31:-0.333333 32:1 33:-0.333333 34:0.333333 35:-0.333333 36:1 37:0.333333 38:0.333333 39:1 40:-0.333333 41:-0.333333 42:-0.333333 43:-0.333333 44:-1 45:0.333333 46:-1 47:-1 48:-0.333333 49:0.333333 50:-1 51:-1 52:-1 53:-1 54:-0.333333 55:-0.333333 56:0.333333 57:1 58:0.333333 59:0.333333 60:1 
4.236894185659545 1:-1 2:1 3:-1 4:1 5:0.333333 6:-1 7:0.333333 8:-1 9:0.333333 10:-0.333333 11:-0.333333 12:-0.333333 13:0.333333 14:0.333333 15:1 16:1 17:1 18:-0.333333 19:-1 20:-1 21:-0.333333 22:-0.333333 23:-0.333333 24:0.333333 25:-1 26:-0.333333 27:-0.333333 28:0.333333 29:-1 30:0.333333 31:-1 32:0.333333 33:-0.333333 34:-0.333333 35:1 36:-0.333333 37:0.333333 38:-1 39:-0.333333 40:-1 41:1 42:-1 43:-0.333333 44:-1 45:1 46:0.333333 47:1 48:-0.333333 49:-0.333333 50:-1 51:-1 52:-1 53:-0.333333 54:-0.333333 55:-1 56:0.333333 57:-0.333333 58:-0.333333 59:0.333333 60:-0.333333 
4.789846393820204 1:-1 2:0.333333 3:0.333333 4:1 5:1 6:-0.333333 7:-0.333333 8:0.333333 9:0.333333 10:-0.333333 11:1 12:-0.333333 13:0.333333 14:1 15:0.333333 16:1 17:1 18:0.333333 19:0.333333 20:1 21:-0.333333 22:-1 23:0.333333 24:-0.333333 25:-0.333333 26:-0.333333 27:1 28:-1 29:-0.333333 30:-0.333333 31:1 32:-0.333333 33:1 34:0.333333 35:0.333333 36:0.333333 37:0.333333 38:1 39:-1 40:-1 41:0.333333 42:0.333333 43:1 44:-1 45:-0.333333 46:-0.333333 47:-1 48:-0.333333 49:0.333333 50:0.333333 51:-1 52:-1 53:0.333333 54:0.333333 55:-1 56:1 57:0.333333 58:-0.333333 59:-0.333333 60:-0.333333 
16.21081994608624 1:1 2:0.333333 3:-1 4:1 5:1 6:1 7:1 8:1 9:-0.333333 10:-0.333333 11:-0.333333 12:0.333333 13:0.333333 14:0.333333 15:0.333333 16:1 17:1 18:1 19:0.333333 20:1 21:0.333333 22:1 23:-0.333333 24:0.333333 25:0.333333 26:0.333333 27:1 28:1 29:-1 30:-0.333333 31:-0.333333 32:1 33:-0.333333 34:1 35:0.333333 36:-1 37:-0.333333 38:-1 39:0.333333 40:0.333333 41:1 42:-0.333333 43:-1 44:0.333333 45:0.333333 46:0.333333 47:-1 48:-0.333333 49:-0.333333 50:0.333333 51:-1 52:-0.333333 53:0.333333 54:0.333333 55:-1 56:-1 57:0.333333 58:-1 59:-1 60:-0.333333 
3.424186154013241 1:1 2:-1 3:-1 4:0.333333 5:1 6:0.333333 7:1 8:1 9:1 10:0.333333 11:0.333333 12:-1 13:0.333333 14:0.333333 15:-1 16:-1 17:1 18:1 19:1 20:0.333333 21:-1 22:-1 23:-1 24:1 25:-1 26:-0.333333 27:1 28:-0.333333 29:0.333333 30:-0.333333 31:-0.333333 32:0.333333 33:1 34:1 35:-1 36:-1 37:-1 38:-1 39:-0.333333 40:-1 41:1 42:-0.333333 43:-1 44:-1 45:-0.333333 46:-0.333333 47:-1 48:-0.333333 49:-1 50:-0.333333 51:0.333333 52:1 53:-1 54:-1 55:-1 56:0.333333 57:-1 58:-1 59:-1 60:0.333333 
4.010522841995669 1:-0.333333 2:0.333333 3:1 4:-0.333333 5:-0.333333 6:-1 7:-1 8:-0.333333 9:-1 10:-0.333333 11:-0.333333 12:-0.333333 13:0.333333 14:-1 15:-1 16:-1 17:-0.333333 18:1 19:-0.333333 20:-0.333333 21:-1 22:0.333333 23:-0.333333 24:-0.333333 25:-0.333333 26:-1 27:-0.333333 28:1 29:-0.333333 30:-0.333333 31:-1 32:0.333333 33:-1 34:-0.333333 35:-0.333333 36:-1 37:-0.333333 38:1 39:-0.333333 40:-0.333333 41:-1 42:1 43:-0.333333 44:0.333333 45:-0.333333 46:-1 47:1 48:-1 49:-1 50:-0.333333 51:-1 52:1 53:-0.333333 54:1 55:-0.333333 56:-0.333333 57:1 58:1 59:1 60:-0.333333 
13.4327134394208 1:0.333333 2:0.333333 3:0.333333 4:1 5:-0.333333 6:-1 7:1 8:-0.333333 9:-1 10:-1 11:-0.333333 12:-0.333333 13:0.333333 14:-1 15:0.333333 16:0.333333 17:1 18:1 19:-0.333333 20:-0.333333 21:-0.333333 22:-0.333333 23:0.333333 24:1 25:1 26:0.333333 27:0.333333 28:0.333333 29:1 30:-0.333333 31:0.333333 32:0.333333 33:-0.333333 34:0.333333 35:-1 36:1 37:0.333333 38:0.333333 39:1 40:0.333333 41:1 42:0.333333 43:0.333333 44:0.333333 45:0.333333 46:1 47:0.333333 48:-1 49:-0.333333 50:-0.333333 51:-1 52:-1 53:-0.333333 54:-0.333333 55:-0.333333 56:-0.333333 57:-1 58:0.333333 59:1 60:-0.333333 
4.220451636318487 1:0.333333 2:1 3:1 4:-1 5:-1 6:0.333333 7:1 8:-0.333333 9:-1 10:1 11:-0.333333 12:-1 13:0.333333 14:-1 15:1 16:1 17:0.333333 18:0.333333 19:-1 20:0.333333 21:0.333333 22:-1 23:0.333333 24:-1 25:-1 26:-1 27:-1 28:-0.333333 29:-1 30:-1 31:-0.333333 32:1 33:-0.333333 34:-1 35:-1 36:-1 37:-1 38:1 39:-0.333333 40:-0.333333 41:0.333333 42:0.333333 43:-0.333333 44:-0.333333 45:1 46:0.333333 47:0.333333 48:1 49:1 50:-0.333333 51:0.333333 52:0.333333 53:1 54:1 55:-1 56:-1 57:-0.333333 58:1 59:-0.333333 60:-1 
4.583314223722214 1:0.333333 2:-0.333333 3:0.333333 4:1 5:-0.333333 6:-1 7:1 8:-1 9:0.333333 10:0.333333 11:1 12:-1 13:1 14:-0.333333 15:0.333333 16:0.333333 17:-1 18:-0.333333 19:0.333333 20:-1 21:0.333333 22:0.333333 23:-1 24:1 25:-1 26:-0.333333 27:-0.333333 28:-0.333333 29:0.333333 30:-1 31:0.333333 32:1 33:-1 34:1 35:-0.333333 36:-1 37:1 38:-1 39:1 40:1 41:-1 42:-1 43:1 44:-0.333333 45:0.333333 46:-1 47:0.333333 48:-1 49:0.333333 50:-0.333333 51:0.333333 52:0.333333 53:1 54:-0.333333 55:1 56:-0.333333 57:1 58:1 59:-1 60:0.333333 
5.614035929151461 1:1 2:1 3:-1 4:1 5:1 6:1 7:1 8:-1 9:1 10:-1 11:1 12:-1 13:1 14:1 15:1 16:-1 17:1 18:1 19:1 20:1 21:-1 22:1 23:1 24:1 25:1 26:1 27:1 28:1 29:-1 30:-0.333333 31:-1 32:-0.333333 33:-1 34:-0.333333 35:1 36:0.333333 37:1 38:0.333333 39:-1 40:0.333333 41:1 42:0.333333 43:1 44:-0.333333 45:1 46:0.333333 47:-0.333333 48:0.333333 49:0.333333 50:0.333333 51:-1 52:-1 53:-0.333333 54:0.333333 55:1 56:-0.333333 57:-0.333333 58:-1 59:-0.333333 60:1 
19.69047501076233 1:-0.333333 2:-0.333333 3:-0.333333 4:-0.333333 5:-1 6:0.333333 7:0.333333 8:-1 9:1 10:-0.333333 11:-0.333333 12:-0.333333 13:-0.333333 14:-1 15:-0.333333 16:-0.333333 17:-0.333333 18:0.333333 19:-1 20:0.333333 21:-1 22:-0.333333 23:1 24:-0.333333 25:-0.333333 26:-0.333333 27:-0.333333 28:-1 29:-0.333333 30:-0.333333 31:-0.333333 32:-0.333333 33:-1 34:-0.333333 35:-1 36:-0.333333 37:1 38:-0.333333 39:-1 40:-0.333333 41:-0.333333 42:-1 43:-1 44:-0.333333 45:-0.333333 46:-0.333333 47:-1 48:0.333333 49:-1 50:-0.333333 51:1 52:-0.333333 53:-1 54:-0.333333 55:-0.333333 56:-1 57:-0.333333 58:-0.333333 59:-0.333333 60:-0.333333 
279.508497187 1:-0.333333 2:-0.333333 3:0.333333 4:0.333333 5:1 6:0.333333 7:1 8:0.333333 9:0.333333 10:1 11:1 12:0.333333 13:1 14:0.333333 15:1 16:1 17:0.333333 18:0.333333 19:1 20:1 21:0.333333 22:-1 23:0.333333 24:1 25:1 26:1 27:-0.333333 28:0.333333 29:-1 30:-0.333333 31:-1 32:-0.333333 33:-0.333333 34:0.333333 35:1 36:-0.333333 37:-0.333333 38:-1 39:-1 40:-0.333333 41:-1 42:0.333333 43:-0.333333 44:-0.333333 45:0.333333 46:-1 47:-0.333333 48:0.333333 49:0.333333 50:-0.333333 51:0.333333 52:0.333333 53:-0.333333 54:-0.333333 55:-1 56:0.333333 57:1 58:-0.333333 59:-0.333333 60:-0.333333 
1.963025138598515 1:1 2:-0.333333 3:-1 4:1 5:-0.333333 6:-0.333333 7:-0.333333 8:-0.333333 9:-0.333333 10:0.333333 11:-1 12:-0.333333 13:-0.333333 14:-0.333333 15:-0.333333 16:-1 17:1 18:-0.333333 19:-0.333333 20:-1 21:-1 22:0.333333 23:-1 24:1 25:0.333333 26:-1 27:0.333333 28:-1 29:0.333333 30:-1 31:1 32:-0.333333 33:-0.333333 34:-0.333333 35:0.333333 36:-1 37:1 38:-1 39:-1 40:-1 41:-0.333333 42:-0.333333 43:-1 44:-1 45:1 46:0.333333 47:1 48:0.333333 49:-1 50:-0.333333 51:-1 52:-0.333333 53:0.333333 54:0.333333 55:-1 56:-0.333333 57:-1 58:-0.333333 59:0.333333 60:-1 
8.236285100753236 1:-1 2:-0.333333 3:0.333333 4:1 5:-0.333333 6:-0.333333 7:0.333333 8:-1 9:1 10:-1 11:1 12:0.333333 13:-0.333333 14:-0.333333 15:0.333333 16:0.333333 17:-0.333333 18:0.333333 19:0.333333 20:0.333333 21:-1 22:-1 23:-0.333333 24:1 25:-0.333333 26:-1 27:0.333333 28:0.333333 29:0.333333 30:1 31:-0.333333 32:1 33:0.333333 34:0.333333 35:-1 36:-0.333333 37:1 38:-0.333333 39:1 40:0.333333 41:1 42:-0.333333 43:0.333333 44:1 45:1 46:-0.333333 47:0.333333 48:0.333333 49:-1 50:1 51:0.333333 52:0.333333 53:1 54:-0.333333 55:0.333333 56:0.333333 57:-1 58:-0.333333 59:-1 60:-1 
9.676959959369904 1:-0.333333 2:-0.333333 3:1 4:-0.333333 5:1 6:1 7:-0.333333 8:0.333333 9:1 10:0.333333 11:1 12:1 13:-1 14:-0.333333 15:-0.333333 16:-1 17:1 18:-0.333333 19:1 20:-1 21:1 22:0.333333 23:0.333333 24:0.333333 25:0.333333 26:1 27:0.333333 28:-1 29:-1 30:-1 31:0.333333 32:0.333333 33:1 34:-1 35:0.333333 36:0.333333 37:1 38:-0.333333 39:-0.333333 40:1 41:-0.333333 42:-0.333333 43:1 44:1 45:0.333333 46:1 47:-0.333333 48:1 49:-0.333333 50:0.333333 51:0.333333 52:1 53:1 54:0.333333 55:0.333333 56:0.333333 57:0.333333 58:1 59:-1 60:0.333333 
6.695250924834112 1:-0.333333 2:-0.333333 3:0.333333 4:1 5:0.333333 6:0.333333 7:0.333333 8:-1 9:0.333333 10:1 11:0.333333 12:0.333333 13:-1 14:1 15:-0.333333 16:-1 17:-0.333333 18:-0.333333 19:1 20:-1 21:1 22:1 23:1 24:0.333333 25:1 26:-1 27:0.333333 28:-1 29:0.333333 30:0.333333 31:1 32:0.333333 33:0.333333 34:-0.333333 35:1 36:-0.333333 37:1 38:0.333333 39:0.333333 40:0.333333 41:-0.333333 42:-0.333333 43:0.333333 44:0.333333 45:0.333333 46:-0.333333 47:-0.333333 48:0.333333 49:0.333333 50:-0.333333 51:0.333333 52:-0.333333 53:-0.333333 54:-0.333333 55:-0.333333 56:-1 57:-0.333333 58:0.333333 59:0.333333 60:0.333333 
2.49679883051132 1:1 2:0.333333 3:-1 4:-1 5:1 6:1 7:0.333333 8:1 9:-1 10:1 11:1 12:0.333333 13:0.333333 14:-1 15:1 16:1 17:0.333333 18:-0.333333 19:-1 20:1 21:1 22:1 23:-1 24:-0.333333 25:1 26:1 27:0.333333 28:-0.333333 29:-1 30:1 31:1 32:0.333333 33:1 34:-1 35:1 36:1 37:0.333333 38:-1 39:0.333333 40:1 41:1 42:0.333333 43:0.333333 44:-1 45:1 46:1 47:0.333333 48:0.333333 49:-1 50:1 51:1 52:0.333333 53:-0.333333 54:-1 55:1 56:1 57:0.333333 58:0.333333 59:-1 60:-0.333333 
2.751201212008852 1:-1 2:-0.333333 3:-0.333333 4:0.333333 5:-1 6:-0.333333 7:1 8:0.333333 9:0.333333 10:1 11:-0.333333 12:-0.333333 13:1 14:0.333333 15:-1 16:-0.333333 17:1 18:1 19:1 20:-0.333333 21:0.333333 22:-1 23:-1 24:-0.333333 25:0.333333 26:-1 27:-1 28:-0.333333 29:1 30:0.333333 31:1 32:1 33:1 34:0.333333 35:0.333333 36:1 37:-0.333333 38:-0.333333 39:0.333333 40:0.333333 41:1 42:-0.333333 43:-1 44:-1 45:1 46:1 47:-1 48:0.333333 49:1 50:-0.333333 51:0.333333 52:-1 53:0.333333 54:0.333333 55:1 56:0.333333 57:-1 58:-0.333333 59:-0.333333 60:0.333333 
10.06793347358182 1:-1 2:-0.333333 3:0.333333 4:1 5:-0.333333 6:-0.333333 7:-1 8:1 9:1 10:1 11:1 12:0.333333 13:0.333333 14:1 15:1 16:-0.333333 17:1 18:1 19:-0.333333 20:0.333333 21:1 22:-1 23:1 24:1 25:1 26:1 27:-1 28:-1 29:-1 30:-1 31:-0.333333 32:-0.333333 33:1 34:-0.333333 35:1 36:0.333333 37:0.333333 38:-1 39:-0.333333 40:1 41:-0.333333 42:1 43:-0.333333 44:-1 45:-0.333333 46:-0.333333 47:1 48:-0.333333 49:0.333333 50:-0.333333 51:-1 52:0.333333 53:1 54:-0.333333 55:-0.333333 56:1 57:-0.333333 58:-0.333333 59:-1 60:-0.333333 
9.589752951377998 1:-0.333333 2:-1 3:-0.333333 4:1 5:1 6:-0.333333 7:-0.333333 8:0.333333 9:-1 10:-0.333333 11:0.333333 12:-1 13:-1 14:0.333333 15:-1 16:1 17:0.333333 18:1 19:0.333333 20:1 21:1 22:-0.333333 23:-0.333333 24:1 25:1 26:1 27:-1 28:-1 29:-0.333333 30:-1 31:-0.333333 32:1 33:1 34:0.333333 35:0.333333 36:-1 37:-0.333333 38:0.333333 39:-1 40:0.333333 41:-1 42:-0.333333 43:0.333333 44:-0.333333 45:-1 46:1 47:-1 48:-0.333333 49:1 50:-1 51:0.333333 52:1 53:1 54:1 55:0.333333 56:1 57:-1 58:-0.333333 59:0.333333 60:0.333333 
7.574076903854133 1:1 2:1 3:1 4:1 5:0.333333 6:1 7:1 8:1 9:0.333333 10:-1 11:1 12:1 13:1 14:1 15:-0.333333 16:1 17:0.333333 18:1 19:1 20:1 21:0.333333 22:-1 23:0.333333 24:0.333333 25:1 26:-1 27:-1 28:0.333333 29:-1 30:-0.333333 31:0.333333 32:1 33:0.333333 34:0.333333 35:1 36:-0.333333 37:-0.333333 38:-0.333333 39:-1 40:-1 41:-1 42:0.333333 43:-0.333333 44:1 45:-0.333333 46:-1 47:1 48:-0.333333 49:-0.333333 50:1 51:-0.333333 52:-1 53:1 54:1 55:-1 56:1 57:1 58:0.333333 59:1 60:-0.333333 
5.013960021007457 1:-0.333333 2:-0.333333 3:-0.333333 4:-1 5:1 6:-0.333333 7:-0.333333 8:-0.333333 9:0.333333 10:1 11:-0.333333 12:0.333333 13:-1 14:0.333333 15:0.333333 16:-0.333333 17:1 18:-0.333333 19:-1 20:-0.333333 21:0.333333 22:-0.333333 23:0.333333 24:0.333333 25:-0.333333 26:-1 27:-0.333333 28:-0.333333 29:-1 30:0.333333 31:-1 32:-1 33:-0.333333 34:-0.333333 35:0.333333 36:-0.333333 37:-0.333333 38:0.333333 39:-0.333333 40:-0.333333 41:0.333333 42:0.333333 43:-0.333333 44:-1 45:-0.333333 46:0.333333 47:-0.333333 48:0.333333 49:1 50:0.333333 51:1 52:-1 53:-1 54:-0.333333 55:-1 56:1 57:-0.333333 58:-1 59:1 60:0.333333 
8.113625996345814 1:-0.333333 2:-1 3:1 4:0.333333 5:0.333333 6:-1 7:-0.333333 8:0.333333 9:1 10:-0.333333 11:1 12:-0.333333 13:-0.333333 14:0.333333 15:1 16:-1 17:1 18:0.333333 19:0.333333 20:-1 21:-0.333333 22:0.333333 23:0.333333 24:0.333333 25:0.333333 26:1 27:1 28:0.333333 29:0.333333 30:1 31:-0.333333 32:-0.333333 33:-0.333333 34:-0.333333 35:-1 36:0.333333 37:1 38:1 39:1 40:-0.333333 41:-0.333333 42:-1 43:0.333333 44:1 45:1 46:1 47:-0.333333 48:-1 49:-0.333333 50:-0.333333 51:-0.333333 52:-0.333333 53:-0.333333 54:-0.333333 55:-0.333333 56:0.333333 57:-1 58:1 59:-0.333333 60:0.333333 
8.42778688247023 1:0.333333 2:1 3:1 4:1 5:-0.333333 6:0.333333 7:1 8:-0.333333 9:-1 10:-0.333333 11:-1 12:1 13:-0.333333 14:-1 15:-1 16:0.333333 17:-1 18:-0.333333 19:-0.333333 20:-0.333333 21:-0.333333 22:0.333333 23:1 24:0.333333 25:-0.333333 26:-1 27:-1 28:0.333333 29:-0.333333 30:-1 31:-0.333333 32:1 33:-0.333333 34:-0.333333 35:-1 36:-1 37:-0.333333 38:-1 39:0.333333 40:-0.333333 41:-0.333333 42:1 43:1 44:-0.333333 45:1 46:-0.333333 47:-0.333333 48:-0.333333 49:0.333333 50:-0.333333 51:-0.333333 52:1 53:-0.333333 54:0.333333 55:0.333333 56:-1 57:1 58:-0.333333 59:1 60:1 
4.051031548273083 1:-0.333333 2:-1 3:0.333333 4:1 5:0.333333 6:0.333333 7:-1 8:-1 9:1 10:-0.333333 11:-1 12:-1 13:1 14:1 15:1 16:1 17:0.333333 18:1 19:-0.333333 20:1 21:-1 22:-1 23:1 24:1 25:-0.333333 26:0.333333 27:1 28:-0.333333 29:-1 30:0.333333 31:0.333333 32:0.333333 33:-1 34:-1 35:-0.333333 36:-1 37:-0.333333 38:-0.333333 39:-1 40:-1 41:-1 42:0.333333 43:-1 44:0.333333 45:1 46:0.333333 47:1 48:-1 49:-0.333333 50:-0.333333 51:-1 52:0.333333 53:-0.333333 54:-0.333333 55:-0.333333 56:-0.333333 57:-1 58:-1 59:0.333333 60:-0.333333 
0.8916355983996718 1:-0.333333 2:-0.333333 3:-1 4:0.333333 5:-1 6:1 7:1 8:0.333333 9:-0.333333 10:-1 11:-1 12:0.333333 13:-1 14:-0.333333 15:-1 16:-0.333333 17:1 18:1 19:0.333333 20:-1 21:-1 22:-0.333333 23:-1 24:-1 25:-0.333333 26:0.333333 27:-1 28:1 29:1 30:-1 31:1 32:-0.333333 33:-0.333333 34:0.333333 35:1 36:-1 37:1 38:1 39:0.333333 40:0.333333 41:0.333333 42:1 43:-1 44:1 45:-1 46:1 47:1 48:0.333333 49:-1 50:-0.333333 51:0.333333 52:-1 53:-1 54:1 55:1 56:-1 57:-1 58:-1 59:1 60:0.333333 
73.13264035568479 1:-0.333333 2:-0.333333 3:0.333333 4:0.333333 5:-0.333333 6:0.333333 7:-0.333333 8:0.333333 9:-0.333333 10:0.333333 11:0.333333 12:0.333333 13:1 14:0.333333 15:0.333333 16:1 17:0.333333 18:-0.333333 19:0.333333 20:0.333333 21:0.333333 22:0.333333 23:0.333333 24:-1 25:-0.333333 26:-0.333333 27:0.333333 28:-0.333333 29:-0.333333 30:0.333333 31:-1 32:-0.333333 33:0.333333 34:-1 35:-1 36:1 37:-1 38:0.333333 39:-0.333333 40:0.333333 41:-0.333333 42:0.333333 43:-0.333333 44:-0.333333 45:0.333333 46:-0.333333 47:0.333333 48:-0.333333 49:-0.333333 50:-0.333333 51:0.333333 52:0.333333 53:-0.333333 54:-0.333333 55:-0.333333 56:-0.333333 57:-0.333333 58:0.333333 59:-0.333333 60:0.333333 
4.993165262783996 1:-1 2:-1 3:-0.333333 4:-1 5:0.333333 6:1 7:1 8:0.333333 9:1 10:-0.333333 11:-1 12:-0.333333 13:-1 14:-1 15:-0.333333 16:1 17:-0.333333 18:-0.333333 19:1 20:1 21:0.333333 22:-1 23:-0.333333 24:-0.333333 25:-1 26:1 27:-0.333333 28:-0.333333 29:-0.333333 30:1 31:1 32:1 33:0.333333 34:-1 35:-0.333333 36:-1 37:-1 38:0.333333 39:1 40:0.333333 41:1 42:-0.333333 43:-1 44:-0.333333 45:1 46:-1 47:-1 48:-1 49:-0.333333 50:1 51:-1 52:-1 53:-0.333333 54:-0.333333 55:1 56:0.333333 57:-0.333333 58:-0.333333 59:-1 60:0.333333 
9.26419470257286 1:0.333333 2:0.333333 3:-1 4:-0.333333 5:1 6:1 7:1 8:-0.333333 9:-1 10:-1 11:-0.333333 12:-0.333333 13:-1 14:-0.333333 15:-0.333333 16:0.333333 17:-1 18:0.333333 19:1 20:-0.333333 21:0.333333 22:1 23:-0.333333 24:-0.333333 25:1 26:-0.333333 27:0.333333 28:0.333333 29:-1 30:-0.333333 31:1 32:0.333333 33:1 34:1 35:-0.333333 36:0.333333 37:-1 38:-0.333333 39:-0.333333 40:1 41:0.333333 42:1 43:0.333333 44:0.333333 45:0.333333 46:-0.333333 47:-1 48:-0.333333 49:-0.333333 50:-0.333333 51:0.333333 52:-1 53:-0.333333 54:-1 55:-1 56:-0.333333 57:-0.333333 58:1 59:-0.333333 60:-1 
3.88394316129115 1:-0.333333 2:1 3:0.333333 4:0.333333 5:0.333333 6:1 7:1 8:1 9:0.333333 10:-1 11:-1 12:-1 13:1 14:1 15:-0.333333 16:1 17:-0.333333 18:-1 19:-1 20:-0.333333 21:-1 22:-1 23:1 24:0.333333 25:0.333333 26:-1 27:-1 28:-0.333333 29:-0.333333 30:1 31:0.333333 32:1 33:-0.333333 34:1 35:-0.333333 36:-0.333333 37:-0.333333 38:-1 39:-1 40:-1 41:-1 42:-0.333333 43:0.333333 44:-1 45:-1 46:-0.333333 47:0.333333 48:-0.333333 49:-1 50:-0.333333 51:0.333333 52:-1 53:-0.333333 54:0.333333 55:1 56:-0.333333 57:-0.333333 58:0.333333 59:1 60:-0.333333 
14.85547443940096 1:-0.333333 2:1 3:-0.333333 4:-0.333333 5:-0.333333 6:0.333333 7:0.333333 8:1 9:0.333333 10:0.333333 11:1 12:-1 13:1 14:1 15:0.333333 16:0.333333 17:0.333333 18:1 19:-0.333333 20:-0.333333 21:-1 22:-0.333333 23:1 24:-1 25:0.333333 26:-0.333333 27:-0.333333 28:-0.333333 29:-1 30:-1 31:-0.333333 32:-0.333333 33:1 34:-1 35:-1 36:-0.333333 37:-1 38:-0.333333 39:-0.333333 40:-0.333333 41:0.333333 42:1 43:-0.333333 44:-0.333333 45:-0.333333 46:-0.333333 47:1 48:-0.333333 49:-0.333333 50:0.333333 51:0.333333 52:-0.333333 53:-0.333333 54:-1 55:-0.333333 56:-0.333333 57:-1 58:-1 59:-0.333333 60:-0.333333 
0.7754521126888454 1:-1 2:1 3:-0.333333 4:-0.333333 5:-0.333333 6:-0.333333 7:-1 8:0.333333 9:-1 10:0.333333 11:-1 12:-0.333333 13:0.333333 14:0.333333 15:-1 16:-1 17:-1 18:0.333333 19:1 20:-1 21:1 22:-0.333333 23:1 24:0.333333 25:-1 26:-0.333333 27:1 28:-1 29:-1 30:1 31:0.333333 32:-1 33:0.333333 34:-0.333333 35:-0.333333 36:1 37:0.333333 38:-0.333333 39:-1 40:-0.333333 41:-1 42:0.333333 43:1 44:-1 45:1 46:0.333333 47:1 48:-0.333333 49:0.333333 50:-1 51:-1 52:1 53:1 54:1 55:-1 56:-0.333333 57:1 58:-0.333333 59:-1 60:-1 
4.966880850878507 1:0.333333 2:-1 3:-1 4:0.333333 5:-1 6:1 7:-0.333333 8:0.333333 9:0.333333 10:-1 11:0.333333 12:0.333333 13:1 14:-0.333333 15:-0.333333 16:0.333333 17:-1 18:1 19:1 20:-0.333333 21:-1 22:-0.333333 23:-0.333333 24:0.333333 25:0.333333 26:-1 27:-0.333333 28:1 29:0.333333 30:0.333333 31:1 32:-0.333333 33:-1 34:0.333333 35:-1 36:-1 37:-1 38:-1 39:1 40:-0.333333 41:0.333333 42:1 43:1 44:0.333333 45:-1 46:-0.333333 47:-0.333333 48:-0.333333 49:0.333333 50:0.333333 51:-0.333333 52:0.333333 53:0.333333 54:1 55:1 56:1 57:1 58:1 59:-0.333333 60:0.333333 
4.668897714639842 1:1 2:-0.333333 3:-0.333333 4:-1 5:1 6:-0.333333 7:1 8:-0.333333 9:-0.333333 10:1 11:-0.333333 12:-0.333333 13:0.333333 14:-1 15:1 16:-1 17:0.333333 18:-0.333333 19:0.333333 20:0.333333 21:1 22:-0.333333 23:1 24:-1 25:-0.333333 26:1 27:0.333333 28:0.333333 29:1 30:-1 31:-0.333333 32:0.333333 33:0.333333 34:-1 35:0.333333 36:1 37:0.333333 38:-1 39:-0.333333 40:-0.333333 41:-1 42:-0.333333 43:-0.333333 44:0.333333 45:1 46:-0.333333 47:-1 48:-0.333333 49:-0.333333 50:0.333333 51:-1 52:-0.333333 53:-0.333333 54:-1 55:-0.333333 56:-0.333333 57:-1 58:1 59:1 60:-0.333333 
1.035927444824732 1:-1 2:-0.333333 3:-1 4:1 5:-1 6:-0.333333 7:-1 8:-0.333333 9:-0.333333 10:-1 11:1 12:-0.333333 13:-1 14:0.333333 15:-1 16:1 17:1 18:-0.333333 19:-0.333333 20:-1 21:-1 22:-0.333333 23:-0.333333 24:-1 25:-0.333333 26:-0.333333 27:-0.333333 28:0.333333 29:-1 30:-0.333333 31:-1 32:-1 33:-1 34:1 35:-0.333333 36:-1 37:-1 38:1 39:-0.333333 40:-1 41:-1 42:0.333333 43:1 44:1 45:-1 46:1 47:-0.333333 48:-0.333333 49:-1 50:-0.333333 51:0.333333 52:-1 53:-0.333333 54:-1 55:0.333333 56:0.333333 57:1 58:0.333333 59:-0.333333 60:-0.333333 
5.767880944026325 1:-1 2:-0.333333 3:-0.333333 4:-1 5:-1 6:-1 7:-0.333333 8:0.333333 9:1 10:1 11:-0.333333 12:-1 13:0.333333 14:0.333333 15:0.333333 16:1 17:-0.333333 18:-0.333333 19:1 20:-0.333333 21:-0.333333 22:-0.333333 23:1 24:0.333333 25:1 26:0.333333 27:-0.333333 28:-0.333333 29:1 30:-0.333333 31:-1 32:0.333333 33:1 34:1 35:0.333333 36:1 37:-1 38:1 39:0.333333 40:-1 41:0.333333 42:-0.333333 43:-1 44:1 45:-0.333333 46:1 47:0.333333 48:0.333333 49:1 50:-1 51:-0.333333 52:1 53:1 54:1 55:0.333333 56:1 57:0.333333 58:0.333333 59:-0.333333 60:0.333333 
7.631193113036614 1:0.333333 2:0.333333 3:-1 4:-1 5:1 6:0.333333 7:-1 8:0.333333 9:-1 10:-0.333333 11:-0.333333 12:-1 13:-0.333333 14:-1 15:-1 16:-0.333333 17:-0.333333 18:-1 19:-0.333333 20:-0.333333 21:-1 22:-0.333333 23:-0.333333 24:1 25:-0.333333 26:-0.333333 27:-1 28:-0.333333 29:-0.333333 30:-1 31:-0.333333 32:-0.333333 33:-1 34:-0.333333 35:-0.333333 36:-0.333333 37:0.333333 38:1 39:-0.333333 40:0.333333 41:1 42:1 43:-0.333333 44:-1 45:-0.333333 46:-0.333333 47:-1 48:-1 49:-0.333333 50:1 51:-1 52:1 53:-1 54:-1 55:-0.333333 56:-1 57:-1 58:1 59:-0.333333 60:-1 
5.269235037456552 1:-0.333333 2:1 3:-1 4:0.333333 5:1 6:-0.333333 7:1 8:1 9:1 10:-1 11:1 12:0.333333 13:1 14:1 15:1 16:1 17:1 18:-1 19:1 20:-0.333333 21:-1 22:0.333333 23:1 24:-0.333333 25:-1 26:0.333333 27:1 28:1 29:-1 30:1 31:1 32:1 33:0.333333 34:0.333333 35:0.333333 36:1 37:1 38:-1 39:-0.333333 40:0.333333 41:-1 42:1 43:-1 44:-0.333333 45:1 46:-0.333333 47:0.333333 48:-1 49:1 50:1 51:0.333333 52:-1 53:-1 54:-1 55:-0.333333 56:1 57:0.333333 58:0.333333 59:-1 60:-1 
24.26162768410878 1:0.333333 2:0.333333 3:0.333333 4:-0.333333 5:0.333333 6:0.333333 7:1 8:-0.333333 9:0.333333 10:1 11:-0.333333 12:-1 13:-0.333333 14:0.333333 15:0.333333 16:0.333333 17:0.333333 18:-1 19:1 20:-0.333333 21:-0.333333 22:0.333333 23:0.333333 24:0.333333 25:-0.333333 26:0.333333 27:-0.333333 28:0.333333 29:1 30:-0.333333 31:0.333333 32:1 33:0.333333 34:1 35:0.333333 36:1 37:0.333333 38:0.333333 39:-0.333333 40:0.333333 41:0.333333 42:-0.333333 43:0.333333 44:0.333333 45:0.333333 46:0.333333 47:0.333333 48:-1 49:-0.333333 50:0.333333 51:-1 52:-1 53:1 54:0.333333 55:0.333333 56:0.333333 57:0.333333 58:-0.333333 59:-0.333333 60:0.333333 
10.2856921350658 1:-0.333333 2:0.333333 3:0.333333 4:0.333333 5:-0.333333 6:-0.333333 7:-1 8:0.333333 9:0.333333 10:0.333333 11:0.333333 12:-1 13:-0.333333 14:-1 15:-0.333333 16:-0.333333 17:0.333333 18:0.333333 19:-0.333333 20:-0.333333 21:1 22:0.333333 23:0.333333 24:1 25:-0.333333 26:1 27:-1 28:1 29:1 30:1 31:-0.333333 32:1 33:1 34:0.333333 35:0.333333 36:1 37:-0.333333 38:-0.333333 39:-1 40:1 41:-0.333333 42:-0.333333 43:-1 44:-1 45:-0.333333 46:-0.333333 47:-1 48:-0.333333 49:-1 50:-1 51:1 52:-1 53:-1 54:-0.333333 55:-1 56:-1 57:0.333333 58:-0.333333 59:-0.333333 60:-0.333333 
1.001262670659933 1:-1 2:-1 3:-1 4:0.333333 5:-1 6:1 7:0.333333 8:-1 9:-1 10:0.333333 11:1 12:0.333333 13:0.333333 14:1 15:-0.333333 16:-1 17:0.333333 18:0.333333 19:1 20:-1 21:-1 22:0.333333 23:0.333333 24:-0.333333 25:0.333333 26:1 27:1 28:-0.333333 29:1 30:-0.333333 31:-0.333333 32:-1 33:1 34:1 35:0.333333 36:0.333333 37:-1 38:-0.333333 39:-1 40:0.333333 41:-1 42:1 43:1 44:-0.333333 45:1 46:-1 47:1 48:-0.333333 49:-1 50:-0.333333 51:-0.333333 52:-1 53:-1 54:-0.333333 55:-1 56:0.333333 57:1 58:1 59:0.333333 60:1 
4.104173923149403 1:-1 2:1 3:1 4:1 5:1 6:-0.333333 7:1 8:1 9:1 10:1 11:-0.333333 12:0.333333 13:1 14:1 15:1 16:1 17:1 18:0.333333 19:1 20:-0.333333 21:-1 22:0.333333 23:1 24:0.333333 25:0.333333 26:-1 27:-0.333333 28:1 29:-0.333333 30:-0.333333 31:-0.333333 32:-0.333333 33:0.333333 34:-1 35:-1 36:-0.333333 37:-1 38:1 39:1 40:1 41:1 42:0.333333 43:0.333333 44:1 45:1 46:1 47:1 48:1 49:1 50:-1 51:1 52:-1 53:0.333333 54:-1 55:0.333333 56:-1 57:1 58:-1 59:-1 60:1 
5.386446557757584 1:-0.333333 2:-1 3:0.333333 4:-1 5:-1 6:-0.333333 7:1 8:-1 9:0.333333 10:-1 11:1 12:-0.333333 13:-1 14:0.333333 15:1 16:-1 17:1 18:-1 19:1 20:0.333333 21:-1 22:-0.333333 23:-0.333333 24:-1 25:1 26:1 27:1 28:0.333333 29:-1 30:-1 31:-1 32:1 33:1 34:-0.333333 35:-1 36:-0.333333 37:-0.333333 38:-1 39:-1 40:-1 41:0.333333 42:0.333333 43:-1 44:1 45:1 46:-0.333333 47:-1 48:0.333333 49:0.333333 50:-0.333333 51:0.333333 52:-0.333333 53:-1 54:-0.333333 55:-1 56:0.333333 57:1 58:1 59:0.333333 60:1 
26.20194300175373 1:-1 2:0.333333 3:1 4:-1 5:-0.333333 6:-0.333333 7:-1 8:-1 9:-0.333333 10:-1 11:0.333333 12:-0.333333 13:0.333333 14:-0.333333 15:0.333333 16:-0.333333 17:-1 18:-1 19:0.333333 20:-0.333333 21:-0.333333 22:-0.333333 23:-0.333333 24:0.333333 25:1 26:-0.333333 27:-0.333333 28:0.333333 29:0.333333 30:-0.333333 31:-0.333333 32:0.333333 33:0.333333 34:-0.333333 35:-0.333333 36:0.333333 37:-0.333333 38:-0.333333 39:-0.333333 40:1 41:-0.333333 42:-0.333333 43:-0.333333 44:-0.333333 45:-0.333333 46:-1 47:-0.333333 48:-0.333333 49:-0.333333 50:-0.333333 51:-1 52:-0.333333 53:-0.333333 54:0.333333 55:-0.333333 56:-0.333333 57:-0.333333 58:-0.333333 59:-0.333333 60:-1 
2.983826703082965 1:0.333333 2:-1 3:1 4:0.333333 5:-0.333333 6:0.333333 7:-1 8:1 9:-0.333333 10:-0.333333 11:-1 12:0.333333 13:0.333333 14:-0.333333 15:0.333333 16:-1 17:-0.333333 18:-0.333333 19:-1 20:-0.333333 21:-0.333333 22:-0.333333 23:0.333333 24:-1 25:-0.333333 26:-1 27:1 28:1 29:0.333333 30:-0.333333 31:-0.333333 32:-1 33:0.333333 34:0.333333 35:-1 36:0.333333 37:1 38:-1 39:-0.333333 40:-0.333333 41:0.333333 42:0.333333 43:1 44:-0.333333 45:-1 46:-1 47:-1 48:1 49:-0.333333 50:-1 51:0.333333 52:-1 53:1 54:1 55:1 56:0.333333 57:-1 58:0.333333 59:1 60:-1 
2.827463805397396 1:-1 2:-1 3:1 4:0.333333 5:0.333333 6:1 7:1 8:1 9:0.333333 10:1 11:1 12:1 13:0.333333 14:-1 15:-0.333333 16:0.333333 17:1 18:-0.333333 19:-0.333333 20:-1 21:-0.333333 22:1 23:-0.333333 24:1 25:0.333333 26:0.333333 27:1 28:0.333333 29:-1 30:-0.333333 31:-0.333333 32:-1 33:-0.333333 34:0.333333 35:0.333333 36:-1 37:-0.333333 38:0.333333 39:0.333333 40:0.333333 41:0.333333 42:-1 43:0.333333 44:0.333333 45:0.333333 46:1 47:1 48:-1 49:-0.333333 50:-1 51:-1 52:-1 53:-1 54:-0.333333 55:-1 56:1 57:-0.333333 58:1 59:1 60:1 
4.093394301508711 1:-0.333333 2:-1 3:1 4:-1 5:1 6:-1 7:1 8:1 9:1 10:-0.333333 11:-1 12:-0.333333 13:-1 14:0.333333 15:-1 16:1 17:1 18:1 19:1 20:0.333333 21:-1 22:-1 23:-0.333333 24:1 25:0.333333 26:1 27:1 28:-1 29:-1 30:1 31:-0.333333 32:-1 33:-1 34:-1 35:0.333333 36:-1 37:1 38:1 39:0.333333 40:1 41:-0.333333 42:0.333333 43:0.333333 44:1 45:-0.333333 46:1 47:-0.333333 48:-1 49:1 50:-1 51:0.333333 52:-1 53:-1 54:-1 55:1 56:0.333333 57:1 58:0.333333 59:0.333333 60:-1 
1.455359189684589 1:1 2:1 3:-0.333333 4:1 5:0.333333 6:-1 7:-1 8:-0.333333 9:-1 10:-1 11:-1 12:-0.333333 13:-1 14:1 15:-1 16:-0.333333 17:-0.333333 18:-1 19:-0.333333 20:-1 21:-0.333333 22:-0.333333 23:-1 24:-0.333333 25:-1 26:-0.333333 27:-1 28:1 29:-1 30:-1 31:-1 32:-1 33:1 34:-1 35:-0.333333 36:1 37:1 38:-0.333333 39:-1 40:1 41:-0.333333 42:-0.333333 43:-0.333333 44:-0.333333 45:1 46:-0.333333 47:-0.333333 48:-1 49:-0.333333 50:-1 51:-0.333333 52:-0.333333 53:1 54:0.333333 55:1 56:-1 57:1 58:-1 59:1 60:1 
279.508497187 1:1 2:0.333333 3:0.333333 4:0.333333 5:1 6:0.333333 7:1 8:-0.333333 9:1 10:1 11:-0.333333 12:0.333333 13:0.333333 14:0.333333 15:1 16:0.333333 17:1 18:-0.333333 19:-0.333333 20:1 21:1 22:1 23:0.333333 24:1 25:0.333333 26:0.333333 27:0.333333 28:0.333333 29:-1 30:-0.333333 31:-0.333333 32:0.333333 33:1 34:0.333333 35:0.333333 36:0.333333 37:-0.333333 38:-0.333333 39:-1 40:0.333333 41:-0.333333 42:1 43:0.333333 44:0.333333 45:0.333333 46:1 47:-0.333333 48:0.333333 49:1 50:0.333333 51:0.333333 52:1 53:-0.333333 54:-0.333333 55:0.333333 56:1 57:1 58:1 59:1 60:-0.333333 
13.45601096679875 1:-0.333333 2:0.333333 3:1 4:0.333333 5:1 6:0.333333 7:0.333333 8:0.333333 9:1 10:-0.333333 11:0.333333 12:1 13:1 14:0.333333 15:-1 16:-0.333333 17:-0.333333 18:-1 19:-0.333333 20:0.333333 21:-0.333333 22:-0.333333 23:1 24:1 25:-0.333333 26:-0.333333 27:-0.333333 28:-0.333333 29:-0.333333 30:0.333333 31:0.333333 32:1 33:-0.333333 34:1 35:-0.333333 36:-0.333333 37:0.333333 38:0.333333 39:1 40:-0.333333 41:-0.333333 42:-1 43:-0.333333 44:-0.333333 45:-1 46:-0.333333 47:-0.333333 48:-1 49:-0.333333 50:-0.333333 51:0.333333 52:-1 53:0.333333 54:0.333333 55:-1 56:-0.333333 57:0.333333 58:1 59:1 60:-0.333333 
6.258931356749453 1:0.333333 2:-0.333333 3:1 4:0.333333 5:0.333333 6:1 7:0.333333 8:0.333333 9:0.333333 10:1 11:-1 12:0.333333 13:-1 14:-1 15:1 16:1 17:1 18:-0.333333 19:0.333333 20:0.333333 21:-1 22:1 23:1 24:-0.333333 25:1 26:1 27:1 28:0.333333 29:1 30:0.333333 31:0.333333 32:1 33:-0.333333 34:-0.333333 35:-0.333333 36:1 37:1 38:-1 39:-0.333333 40:-0.333333 41:0.333333 42:0.333333 43:0.333333 44:0.333333 45:-0.333333 46:-0.333333 47:0.333333 48:1 49:1 50:0.333333 51:-1 52:0.333333 53:1 54:-0.333333 55:-0.333333 56:1 57:1 58:-0.333333 59:-1 60:-0.333333 
2.876076813082606 1:1 2:1 3:-0.333333 4:-0.333333 5:1 6:0.333333 7:-1 8:-0.333333 9:-0.333333 10:0.333333 11:1 12:-0.333333 13:-0.333333 14:1 15:0.333333 16:1 17:1 18:-0.333333 19:-1 20:-1 21:0.333333 22:1 23:0.333333 24:0.333333 25:1 26:-0.333333 27:-1 28:0.333333 29:0.333333 30:1 31:0.333333 32:-1 33:-0.333333 34:1 35:-0.333333 36:-1 37:1 38:0.333333 39:1 40:-0.333333 41:0.333333 42:0.333333 43:1 44:-0.333333 45:0.333333 46:0.333333 47:1 48:0.333333 49:-0.333333 50:-0.333333 51:0.333333 52:0.333333 53:1 54:0.333333 55:0.333333 56:0.333333 57:-1 58:-1 59:-1 60:-0.333333 
279.508497187 1:1 2:-0.333333 3:1 4:1 5:1 6:0.333333 7:1 8:1 9:-0.333333 10:1 11:0.333333 12:0.333333 13:1 14:0.333333 15:0.333333 16:1 17:-0.333333 18:-0.333333 19:1 20:-1 21:1 22:1 23:-0.333333 24:-0.333333 25:-0.333333 26:-1 27:1 28:1 29:1 30:-0.333333 31:-0.333333 32:1 33:-0.333333 34:-1 35:-0.333333 36:1 37:-0.333333 38:1 39:-0.333333 40:-0.333333 41:-0.333333 42:0.333333 43:1 44:1 45:0.333333 46:0.333333 47:-0.333333 48:-0.333333 49:-0.333333 50:-0.333333 51:-1 52:-0.333333 53:-0.333333 54:-0.333333 55:-1 56:-1 57:-0.333333 58:0.333333 59:0.333333 60:1 
5.025331098692956 1:0.333333 2:0.333333 3:1 4:0.333333 5:0.333333 6:0.333333 7:0.333333 8:-1 9:0.333333 10:0.333333 11:1 12:0.333333 13:0.333333 14:0.333333 15:-1 16:0.333333 17:1 18:0.333333 19:1 20:-1 21:-0.333333 22:-0.333333 23:1 24:1 25:0.333333 26:0.333333 27:-1 28:-0.333333 29:1 30:0.333333 31:-1 32:-1 33:-1 34:1 35:-0.333333 36:-0.333333 37:-1 38:-1 39:-1 40:1 41:-1 42:1 43:-0.333333 44:1 45:-0.333333 46:-0.333333 47:0.333333 48:1 49:1 50:1 51:1 52:0.333333 53:1 54:0.333333 55:-1 56:0.333333 57:1 58:0.333333 59:0.333333 60:-1 
7.083740687318171 1:1 2:0.333333 3:-0.333333 4:-0.333333 5:0.333333 6:-1 7:-0.333333 8:-0.333333 9:1 10:-0.333333 11:-0.333333 12:-0.333333 13:0.333333 14:-1 15:-1 16:0.333333 17:-1 18:-1 19:-0.333333 20:-1 21:0.333333 22:0.333333 23:-0.333333 24:-1 25:-0.333333 26:1 27:-0.333333 28:1 29:-0.333333 30:0.333333 31:1 32:0.333333 33:1 34:-0.333333 35:0.333333 36:1 37:-1 38:-0.333333 39:-0.333333 40:0.333333 41:1 42:1 43:1 44:-0.333333 45:1 46:0.333333 47:-1 48:0.333333 49:-1 50:-0.333333 51:-1 52:1 53:0.333333 54:1 55:-0.333333 56:-1 57:-1 58:-0.333333 59:0.333333 60:-1 
279.508497187 1:-1 2:1 3:-0.333333 4:0.333333 5:1 6:-0.333333 7:-1 8:0.333333 9:0.333333 10:-1 11:0.333333 12:1 13:1 14:0.333333 15:0.333333 16:0.333333 17:1 18:0.333333 19:1 20:1 21:0.333333 22:1 23:0.333333 24:1 25:-0.333333 26:-1 27:-0.333333 28:0.333333 29:-1 30:-0.333333 31:1 32:-0.333333 33:1 34:-0.333333 35:-1 36:0.333333 37:1 38:1 39:0.333333 40:-1 41:0.333333 42:0.333333 43:-0.333333 44:-1 45:-1 46:-0.333333 47:-1 48:0.333333 49:0.333333 50:-1 51:-0.333333 52:-1 53:0.333333 54:0.333333 55:-0.333333 56:0.333333 57:-1 58:-0.333333 59:-0.333333 60:1 
5.524896666967553 1:-1 2:-0.333333 3:-0.333333 4:-1 5:0.333333 6:0.333333 7:0.333333 8:1 9:-0.333333 10:0.333333 11:0.333333 12:0.333333 13:0.333333 14:1 15:-0.333333 16:-1 17:0.333333 18:0.333333 19:1 20:-1 21:-1 22:-0.333333 23:0.333333 24:0.333333 25:0.333333 26:-1 27:0.333333 28:0.333333 29:0.333333 30:0.333333 31:-1 32:-1 33:-1 34:-0.333333 35:-0.333333 36:0.333333 37:0.333333 38:-1 39:-1 40:-1 41:0.333333 42:1 43:0.333333 44:1 45:0.333333 46:0.333333 47:-1 48:0.333333 49:1 50:0.333333 51:0.333333 52:0.333333 53:1 54:0.333333 55:-1 56:-0.333333 57:0.333333 58:1 59:0.333333 60:-0.333333 
2.854510834935081 1:-0.333333 2:-1 3:-1 4:0.333333 5:-1 6:0.333333 7:0.333333 8:1 9:-1 10:0.333333 11:0.333333 12:-1 13:-1 14:-1 15:-1 16:-1 17:-1 18:1 19:-1 20:-1 21:-0.333333 22:1 23:1 24:1 25:-0.333333 26:-1 27:1 28:-1 29:-1 30:0.333333 31:-1 32:1 33:1 34:1 35:-1 36:-1 37:-1 38:-1 39:-0.333333 40:-1 41:1 42:-0.333333 43:-0.333333 44:-0.333333 45:0.333333 46:-0.333333 47:1 48:1 49:1 50:0.333333 51:0.333333 52:0.333333 53:0.333333 54:0.333333 55:-1 56:-1 57:1 58:-0.333333 59:-1 60:-1 
5.500598350366178 1:-0.333333 2:-1 3:1 4:-1 5:-1 6:-1 7:-1 8:-0.333333 9:-0.333333 10:-1 11:1 12:1 13:1 14:-0.333333 15:-0.333333 16:-0.333333 17:0.333333 18:1 19:-0.333333 20:-1 21:-1 22:0.333333 23:-1 24:-0.333333 25:-0.333333 26:-0.333333 27:1 28:-0.333333 29:-0.333333 30:-1 31:-0.333333 32:-0.333333 33:-0.333333 34:-1 35:-0.333333 36:0.333333 37:-1 38:1 39:1 40:-0.333333 41:-0.333333 42:-1 43:-1 44:1 45:-0.333333 46:-0.333333 47:0.333333 48:-1 49:0.333333 50:1 51:0.333333 52:-1 53:-0.333333 54:-0.333333 55:-0.333333 56:0.333333 57:-1 58:-1 59:-1 60:-0.333333 
3.368271880878012 1:0.333333 2:1 3:-1 4:-0.333333 5:0.333333 6:-0.333333 7:-0.333333 8:-0.333333 9:0.333333 10:-1 11:-0.333333 12:0.333333 13:1 14:0.333333 15:-0.333333 16:-1 17:-0.333333 18:-0.333333 19:-1 20:-1 21:-0.333333 22:1 23:-0.333333 24:-1 25:-1 26:-1 27:0.333333 28:1 29:1 30:-1 31:0.333333 32:-1 33:0.333333 34:-0.333333 35:1 36:1 37:-0.333333 38:-0.333333 39:1 40:0.333333 41:1 42:0.333333 43:0.333333 44:1 45:-0.333333 46:1 47:1 48:1 49:0.333333 50:0.333333 51:1 52:1 53:-1 54:0.333333 55:0.333333 56:-1 57:-1 58:-0.333333 59:0.333333 60:1 
2.948569084509333 1:0.333333 2:-1 3:0.333333 4:0.333333 5:0.333333 6:-0.333333 7:-1 8:-0.333333 9:-0.333333 10:-1 11:-0.333333 12:0.333333 13:1 14:-0.333333 15:-0.333333 16:-1 17:-0.333333 18:-0.333333 19:-0.333333 20:-0.333333 21:1 22:0.333333 23:-0.333333 24:-0.333333 25:0.333333 26:0.333333 27:-1 28:-1 29:-0.333333 30:0.333333 31:1 32:-0.333333 33:-1 34:0.333333 35:1 36:-0.333333 37:1 38:-1 39:-1 40:-1 41:1 42:1 43:1 44:0.333333 45:-1 46:0.333333 47:-1 48:-0.333333 49:1 50:0.333333 51:1 52:0.333333 53:1 54:0.333333 55:1 56:-0.333333 57:-1 58:-1 59:-0.333333 60:-1 
11.72681165178673 1:-0.333333 2:-1 3:1 4:-0.333333 5:-0.333333 6:-0.333333 7:-1 8:-0.333333 9:-1 10:-1 11:0.333333 12:0.333333 13:1 14:-0.333333 15:0.333333 16:-0.333333 17:1 18:-1 19:-0.333333 20:-1 21:0.333333 22:1 23:0.333333 24:0.333333 25:-0.333333 26:-0.333333 27:-0.333333 28:-1 29:-0.333333 30:-0.333333 31:0.333333 32:1 33:0.333333 34:0.333333 35:0.333333 36:1 37:0.333333 38:-0.333333 39:-0.333333 40:-0.333333 41:0.333333 42:-0.333333 43:-1 44:0.333333 45:1 46:1 47:-0.333333 48:-0.333333 49:-1 50:1 51:0.333333 52:1 53:0.333333 54:0.333333 55:-1 56:1 57:-0.333333 58:1 59:0.333333 60:-0.333333 
3.717978985857304 1:-1 2:-0.333333 3:-1 4:-1 5:-1 6:1 7:-0.333333 8:-1 9:-1 10:-1 11:0.333333 12:-1 13:-0.333333 14:-0.333333 15:-1 16:0.333333 17:0.333333 18:0.333333 19:1 20:-1 21:1 22:0.333333 23:-1 24:-1 25:1 26:-0.333333 27:1 28:-0.333333 29:-1 30:-1 31:-1 32:1 33:-1 34:0.333333 35:-0.333333 36:-0.333333 37:-0.333333 38:-1 39:0.333333 40:0.333333 41:-0.333333 42:-1 43:1 44:-1 45:1 46:-0.333333 47:-0.333333 48:1 49:-0.333333 50:-0.333333 51:0.333333 52:-1 53:1 54:0.333333 55:0.333333 56:-0.333333 57:0.333333 58:-1 59:-0.333333 60:1 
3.979308986844166 1:-0.333333 2:1 3:-0.333333 4:0.333333 5:0.333333 6:1 7:-1 8:-0.333333 9:0.333333 10:0.333333 11:-1 12:1 13:-0.333333 14:-0.333333 15:-0.333333 16:-1 17:-1 18:1 19:1 20:0.333333 21:1 22:0.333333 23:0.333333 24:-1 25:1 26:0.333333 27:1 28:-0.333333 29:1 30:1 31:1 32:1 33:-0.333333 34:0.333333 35:1 36:-1 37:0.333333 38:-1 39:1 40:1 41:-0.333333 42:-1 43:-1 44:0.333333 45:0.333333 46:0.333333 47:-1 48:-0.333333 49:-1 50:1 51:-0.333333 52:0.333333 53:0.333333 54:-1 55:1 56:1 57:0.333333 58:1 59:-1 60:-1 
3.00249222672848 1:-1 2:0.333333 3:-1 4:-0.333333 5:0.333333 6:1 7:0.333333 8:0.333333 9:-1 10:-0.333333 11:-1 12:-1 13:-0.333333 14:1 15:1 16:-0.333333 17:-1 18:-1 19:-1 20:-1 21:1 22:-0.333333 23:0.333333 24:-1 25:-1 26:1 27:1 28:-1 29:-0.333333 30:-1 31:-0.333333 32:1 33:-1 34:0.333333 35:0.333333 36:-1 37:-0.333333 38:-0.333333 39:-1 40:-1 41:-1 42:0.333333 43:-1 44:-0.333333 45:-0.333333 46:-1 47:-0.333333 48:1 49:1 50:1 51:0.333333 52:1 53:1 54:1 55:1 56:0.333333 57:0.333333 58:0.333333 59:1 60:0.333333 
6.725822986752779 1:1 2:-1 3:-1 4:-0.333333 5:0.333333 6:0.333333 7:1 8:1 9:0.333333 10:-1 11:-1 12:1 13:-1 14:0.333333 15:0.333333 16:-1 17:0.333333 18:0.333333 19:-1 20:-1 21:1 22:0.333333 23:-1 24:0.333333 25:0.333333 26:-1 27:-1 28:1 29:-0.333333 30:1 31:-0.333333 32:0.333333 33:0.333333 34:1 35:1 36:0.333333 37:1 38:1 39:0.333333 40:1 41:0.333333 42:-1 43:1 44:-0.333333 45:0.333333 46:-0.333333 47:-1 48:-1 49:-1 50:-1 51:1 52:-1 53:0.333333 54:-0.333333 55:-0.333333 56:0.333333 57:0.333333 58:0.333333 59:0.333333 60:1 
12.66416389946712 1:0.333333 2:-1 3:0.333333 4:0.333333 5:1 6:1 7:0.333333 8:0.333333 9:1 10:0.333333 11:-1 12:1 13:0.333333 14:-0.333333 15:-0.333333 16:0.333333 17:1 18:-0.333333 19:0.333333 20:-0.333333 21:0.333333 22:-0.333333 23:0.333333 24:0.333333 25:0.333333 26:1 27:-0.333333 28:0.333333 29:-1 30:-1 31:0.333333 32:-0.333333 33:1 34:0.333333 35:-1 36:1 37:-1 38:-0.333333 39:0.333333 40:0.333333 41:-0.333333 42:-1 43:0.333333 44:-1 45:1 46:0.333333 47:0.333333 48:1 49:0.333333 50:1 51:1 52:0.333333 53:0.333333 54:-0.333333 55:0.333333 56:-1 57:-1 58:-0.333333 59:0.333333 60:-1 
4.139660912350079 1:-1 2:-1 3:-0.333333 4:-0.333333 5:-1 6:0.333333 7:-1 8:0.333333 9:-0.333333 10:-0.333333 11:-0.333333 12:0.333333 13:-1 14:-0.333333 15:0.333333 16:-1 17:-0.333333 18:-1 19:0.333333 20:-1 21:-0.333333 22:1 23:-0.333333 24:-0.333333 25:1 26:0.333333 27:-1 28:-0.333333 29:1 30:0.333333 31:0.333333 32:1 33:1 34:1 35:0.333333 36:1 37:1 38:-0.333333 39:-0.333333 40:0.333333 41:1 42:0.333333 43:1 44:-0.333333 45:0.333333 46:1 47:-0.333333 48:-1 49:0.333333 50:-1 51:0.333333 52:1 53:0.333333 54:-0.333333 55:-1 56:-0.333333 57:0.333333 58:0.333333 59:0.333333 60:-1 
0.2787487618893403 1:-0.333333 2:0.333333 3:-1 4:1 5:1 6:1 7:1 8:-0.333333 9:-0.333333 10:-1 11:1 12:1 13:-0.333333 14:1 15:1 16:1 17:0.333333 18:1 19:1 20:1 21:0.333333 22:1 23:1 24:1 25:1 26:1 27:1 28:1 29:1 30:1 31:-0.333333 32:-0.333333 33:1 34:1 35:1 36:1 37:1 38:-0.333333 39:1 40:1 41:1 42:1 43:1 44:-0.333333 45:0.333333 46:1 47:1 48:1 49:1 50:-0.333333 51:1 52:1 53:1 54:1 55:1 56:-0.333333 57:1 58:1 59:1 60:1 
4.83637193147635 1:-1 2:-1 3:1 4:1 5:1 6:1 7:-0.333333 8:0.333333 9:1 10:-0.333333 11:-0.333333 12:-1 13:-0.333333 14:-1 15:-1 16:-0.333333 17:0.333333 18:0.333333 19:-1 20:0.333333 21:-1 22:0.333333 23:1 24:0.333333 25:0.333333 26:-1 27:-1 28:0.333333 29:-0.333333 30:0.333333 31:-1 32:1 33:-1 34:1 35:-1 36:1 37:1 38:0.333333 39:0.333333 40:0.333333 41:1 42:0.333333 43:1 44:-0.333333 45:-0.333333 46:-0.333333 47:-1 48:-0.333333 49:0.333333 50:-1 51:0.333333 52:-1 53:-0.333333 54:1 55:-1 56:0.333333 57:-0.333333 58:-1 59:-1 60:-1 
2.720396442428173 1:1 2:0.333333 3:-1 4:1 5:0.333333 6:1 7:-1 8:-1 9:-1 10:1 11:0.333333 12:-1 13:1 14:-1 15:-0.333333 16:-0.333333 17:0.333333 18:-1 19:-1 20:-0.333333 21:0.333333 22:1 23:0.333333 24:-1 25:-0.333333 26:0.333333 27:0.333333 28:-1 29:1 30:-1 31:-0.333333 32:-0.333333 33:0.333333 34:-1 35:-0.333333 36:-0.333333 37:-0.333333 38:1 39:-1 40:1 41:-1 42:1 43:1 44:1 45:1 46:0.333333 47:-1 48:-0.333333 49:-1 50:-0.333333 51:-1 52:-0.333333 53:-0.333333 54:-1 55:0.333333 56:1 57:-0.333333 58:-0.333333 59:1 60:1 
19.04793384110583 1:-1 2:1 3:-0.333333 4:0.333333 5:-1 6:1 7:-0.333333 8:1 9:-1 10:1 11:0.333333 12:1 13:-0.333333 14:0.333333 15:0.333333 16:1 17:-1 18:0.333333 19:0.333333 20:1 21:0.333333 22:1 23:1 24:0.333333 25:1 26:0.333333 27:-1 28:0.333333 29:-1 30:-0.333333 31:0.333333 32:1 33:0.333333 34:0.333333 35:1 36:-0.333333 37:-0.333333 38:-0.333333 39:0.333333 40:-1 41:-1 42:1 43:-0.333333 44:1 45:-0.333333 46:0.333333 47:1 48:-0.333333 49:-0.333333 50:1 51:-0.333333 52:1 53:-0.333333 54:1 55:-0.333333 56:1 57:-1 58:0.333333 59:1 60:-0.333333 
10.97241437541788 1:0.333333 2:-1 3:-0.333333 4:-0.333333 5:0.333333 6:-1 7:-0.333333 8:-0.333333 9:-0.333333 10:-0.333333 11:1 12:-0.333333 13:-0.333333 14:-0.333333 15:-1 16:-0.333333 17:-1 18:-0.333333 19:0.333333 20:0.333333 21:-1 22:-0.333333 23:0.333333 24:1 25:0.333333 26:1 27:0.333333 28:1 29:0.333333 30:1 31:-1 32:0.333333 33:0.333333 34:0.333333 35:-0.333333 36:-0.333333 37:0.333333 38:0.333333 39:0.333333 40:-1 41:-0.333333 42:-1 43:-0.333333 44:-1 45:0.333333 46:0.333333 47:0.333333 48:0.333333 49:1 50:1 51:0.333333 52:0.333333 53:1 54:1 55:1 56:0.333333 57:0.333333 58:1 59:0.333333 60:1 
3.718180178290665 1:-0.333333 2:0.333333 3:-0.333333 4:-0.333333 5:-0.333333 6:0.333333 7:1 8:-0.333333 9:-1 10:-0.333333 11:1 12:0.333333 13:0.333333 14:-0.333333 15:-1 16:-1 17:-1 18:-1 19:-0.333333 20:-1 21:-0.333333 22:-1 23:-0.333333 24:1 25:0.333333 26:-1 27:-0.333333 28:0.333333 29:-1 30:-1 31:-1 32:-0.333333 33:-0.333333 34:-0.333333 35:-1 36:-0.333333 37:-1 38:1 39:-1 40:-1 41:-0.333333 42:-0.333333 43:-0.333333 44:1 45:-0.333333 46:-1 47:-0.333333 48:-0.333333 49:0.333333 50:0.333333 51:-1 52:1 53:1 54:1 55:1 56:-1 57:1 58:-1 59:-1 60:-0.333333 
3.774467373980909 1:-0.333333 2:-0.333333 3:-0.333333 4:-0.333333 5:1 6:-0.333333 7:-0.333333 8:-0.333333 9:-0.333333 10:-0.333333 11:0.333333 12:1 13:-0.333333 14:-1 15:-0.333333 16:-1 17:0.333333 18:0.333333 19:0.333333 20:0.333333 21:-1 22:-0.333333 23:-1 24:-1 25:-0.333333 26:-0.333333 27:0.333333 28:0.333333 29:0.333333 30:0.333333 31:1 32:1 33:0.333333 34:1 35:0.333333 36:0.333333 37:0.333333 38:-1 39:0.333333 40:-1 41:-0.333333 42:-0.333333 43:-1 44:-1 45:-1 46:-0.333333 47:-0.333333 48:-0.333333 49:-0.333333 50:-1 51:-1 52:-0.333333 53:0.333333 54:0.333333 55:-1 56:-0.333333 57:-1 58:0.333333 59:0.333333 60:0.333333 
233.5266629873419 1:-0.333333 2:-1 3:0.333333 4:0.333333 5:-0.333333 6:0.333333 7:1 8:1 9:0.333333 10:0.333333 11:0.333333 12:-0.333333 13:1 14:-1 15:0.333333 16:-0.333333 17:1 18:-0.333333 19:-0.333333 20:0.333333 21:1 22:0.333333 23:1 24:-0.333333 25:1 26:0.333333 27:0.333333 28:-1 29:-1 30:-0.333333 31:-0.333333 32:1 33:-1 34:-1 35:-0.333333 36:1 37:-0.333333 38:0.333333 39:1 40:-0.333333 41:-0.333333 42:-0.333333 43:0.333333 44:1 45:-1 46:0.333333 47:0.333333 48:1 49:1 50:-1 51:-0.333333 52:-1 53:-0.333333 54:1 55:0.333333 56:0.333333 57:1 58:0.333333 59:0.333333 60:-1 
5.288280340428822 1:0.333333 2:-1 3:-0.333333 4:0.333333 5:1 6:-0.333333 7:0.333333 8:-1 9:-0.333333 10:-1 11:-1 12:-1 13:-0.333333 14:-1 15:0.333333 16:0.333333 17:-1 18:1 19:-0.333333 20:-1 21:-0.333333 22:-0.333333 23:-1 24:0.333333 25:1 26:1 27:0.333333 28:1 29:1 30:-0.333333 31:-0.333333 32:0.333333 33:0.333333 34:1 35:0.333333 36:0.333333 37:0.333333 38:1 39:-0.333333 40:-0.333333 41:0.333333 42:1 43:-1 44:-0.333333 45:-0.333333 46:-0.333333 47:0.333333 48:1 49:0.333333 50:-1 51:-1 52:-0.333333 53:0.333333 54:-1 55:-0.333333 56:-1 57:0.333333 58:1 59:1 60:1 
10.58792385405064 1:-1 2:-1 3:1 4:-0.333333 5:0.333333 6:0.333333 7:1 8:-0.333333 9:0.333333 10:-0.333333 11:-0.333333 12:-1 13:-0.333333 14:1 15:1 16:-0.333333 17:1 18:-0.333333 19:0.333333 20:-1 21:0.333333 22:-0.333333 23:1 24:-1 25:-0.333333 26:1 27:-1 28:-0.333333 29:-0.333333 30:-0.333333 31:1 32:0.333333 33:-1 34:-0.333333 35:-0.333333 36:0.333333 37:0.333333 38:-1 39:0.333333 40:-0.333333 41:-0.333333 42:0.333333 43:-1 44:-0.333333 45:0.333333 46:0.333333 47:1 48:-1 49:0.333333 50:0.333333 51:-0.333333 52:-0.333333 53:0.333333 54:-1 55:-1 56:1 57:1 58:1 59:0.333333 60:0.333333 
14.55009623592726 1:-0.333333 2:0.333333 3:-1 4:-1 5:-1 6:0.333333 7:0.333333 8:1 9:0.333333 10:1 11:0.333333 12:0.333333 13:0.333333 14:1 15:-0.333333 16:-0.333333 17:0.333333 18:0.333333 19:0.333333 20:0.333333 21:1 22:1 23:-0.333333 24:-0.333333 25:-1 26:-0.333333 27:1 28:0.333333 29:-1 30:-0.333333 31:-0.333333 32:0.333333 33:-1 34:0.333333 35:-1 36:-0.333333 37:-0.333333 38:-0.333333 39:0.333333 40:-0.333333 41:-0.333333 42:-0.333333 43:-0.333333 44:1 45:-0.333333 46:1 47:1 48:-0.333333 49:-0.333333 50:1 51:-0.333333 52:-0.333333 53:-0.333333 54:-0.333333 55:-1 56:-1 57:-1 58:1 59:-0.333333 60:1 
6.979494760267369 1:-0.333333 2:0.333333 3:0.333333 4:0.333333 5:-1 6:1 7:1 8:0.333333 9:0.333333 10:1 11:-0.333333 12:0.333333 13:1 14:0.333333 15:-1 16:0.333333 17:0.333333 18:1 19:-0.333333 20:0.333333 21:1 22:-0.333333 23:-0.333333 24:-0.333333 25:-0.333333 26:-1 27:-1 28:0.333333 29:-1 30:1 31:-0.333333 32:1 33:-0.333333 34:-0.333333 35:-0.333333 36:0.333333 37:-0.333333 38:0.333333 39:-1 40:-0.333333 41:-1 42:0.333333 43:0.333333 44:1 45:-0.333333 46:-0.333333 47:1 48:0.333333 49:0.333333 50:-1 51:-1 52:0.333333 53:-1 54:1 55:0.333333 56:1 57:-1 58:1 59:-0.333333 60:-1 
34.7745281202115 1:1 2:0.333333 3:-1 4:-0.333333 5:-0.333333 6:0.333333 7:-1 8:1 9:0.333333 10:0.333333 11:-0.333333 12:0.333333 13:-0.333333 14:1 15:0.333333 16:1 17:0.333333 18:0.333333 19:-0.333333 20:-1 21:0.333333 22:-1 23:-1 24:0.333333 25:1 26:1 27:-0.333333 28:0.333333 29:0.333333 30:-0.333333 31:-0.333333 32:1 33:-0.333333 34:-1 35:-0.333333 36:1 37:-0.333333 38:-0.333333 39:-0.333333 40:0.333333 41:-0.333333 42:0.333333 43:0.333333 44:0.333333 45:0.333333 46:-0.333333 47:0.333333 48:-0.333333 49:-0.333333 50:1 51:-0.333333 52:-0.333333 53:-0.333333 54:-0.333333 55:-1 56:-0.333333 57:-0.333333 58:-0.333333 59:0.333333 60:-0.333333 
10.80826019877892 1:-0.333333 2:1 3:0.333333 4:-0.333333 5:1 6:0.333333 7:0.333333 8:1 9:0.333333 10:-1 11:0.333333 12:-0.333333 13:-0.333333 14:1 15:1 16:-1 17:0.333333 18:1 19:0.333333 20:1 21:1 22:1 23:-0.333333 24:-1 25:-0.333333 26:-0.333333 27:1 28:-0.333333 29:-0.333333 30:-0.333333 31:-1 32:1 33:0.333333 34:1 35:1 36:1 37:-0.333333 38:0.333333 39:0.333333 40:1 41:-0.333333 42:-1 43:1 44:0.333333 45:1 46:1 47:1 48:-0.333333 49:0.333333 50:-1 51:-1 52:-1 53:-1 54:1 55:0.333333 56:-1 57:-0.333333 58:-0.333333 59:-1 60:-0.333333 
252.0503043720173 1:-0.333333 2:-0.333333 3:-1 4:-1 5:-0.333333 6:-1 7:1 8:-0.333333 9:0.333333 10:1 11:-0.333333 12:-0.333333 13:-1 14:-0.333333 15:-0.333333 16:-1 17:-0.333333 18:-1 19:-1 20:-1 21:0.333333 22:1 23:0.333333 24:1 25:-0.333333 26:-0.333333 27:-0.333333 28:-1 29:-1 30:-0.333333 31:-0.333333 32:1 33:-1 34:-0.333333 35:-0.333333 36:0.333333 37:1 38:0.333333 39:1 40:-0.333333 41:-0.333333 42:1 43:-0.333333 44:-1 45:0.333333 46:0.333333 47:-1 48:-0.333333 49:-0.333333 50:-1 51:0.333333 52:-1 53:-1 54:-0.333333 55:-0.333333 56:-0.333333 57:-1 58:-0.333333 59:-0.333333 60:-0.333333 
4.261551150804144 1:-0.333333 2:-1 3:-1 4:-1 5:-1 6:1 7:-0.333333 8:0.333333 9:-1 10:-0.333333 11:1 12:1 13:-0.333333 14:-1 15:-1 16:1 17:-0.333333 18:0.333333 19:1 20:1 21:0.333333 22:0.333333 23:-1 24:-1 25:-1 26:0.333333 27:-1 28:-1 29:-1 30:-0.333333 31:-0.333333 32:1 33:-1 34:1 35:0.333333 36:-1 37:1 38:-1 39:1 40:1 41:1 42:-0.333333 43:0.333333 44:-0.333333 45:1 46:-0.333333 47:-0.333333 48:-1 49:1 50:-1 51:1 52:0.333333 53:1 54:-0.333333 55:-1 56:-1 57:0.333333 58:0.333333 59:-1 60:-0.333333 
6.666562445496146 1:1 2:0.333333 3:1 4:0.333333 5:-1 6:-0.333333 7:0.333333 8:1 9:-1 10:-1 11:1 12:1 13:1 14:1 15:1 16:-1 17:-1 18:1 19:1 20:1 21:-1 22:1 23:1 24:1 25:1 26:1 27:1 28:1 29:-1 30:-0.333333 31:-1 32:-0.333333 33:-1 34:1 35:-1 36:0.333333 37:-0.333333 38:-0.333333 39:1 40:0.333333 41:0.333333 42:0.333333 43:-1 44:0.333333 45:1 46:0.333333 47:1 48:-0.333333 49:1 50:1 51:1 52:0.333333 53:0.333333 54:0.333333 55:-1 56:-0.333333 57:-0.333333 58:0.333333 59:1 60:-0.333333 
2.959223806748557 1:-1 2:1 3:1 4:-0.333333 5:1 6:1 7:1 8:-1 9:-1 10:1 11:-1 12:-0.333333 13:-1 14:-1 15:-0.333333 16:0.333333 17:-1 18:-0.333333 19:1 20:1 21:0.333333 22:1 23:1 24:0.333333 25:-1 26:-0.333333 27:1 28:1 29:-0.333333 30:0.333333 31:-1 32:-1 33:-1 34:-0.333333 35:-0.333333 36:1 37:1 38:0.333333 39:1 40:1 41:1 42:-0.333333 43:0.333333 44:-1 45:-0.333333 46:1 47:-1 48:-0.333333 49:-1 50:-1 51:1 52:1 53:1 54:1 55:0.333333 56:1 57:0.333333 58:-1 59:-0.333333 60:0.333333 
5.777129239078882 1:-0.333333 2:-0.333333 3:1 4:-0.333333 5:-0.333333 6:-1 7:1 8:1 9:1 10:-1 11:-1 12:0.333333 13:-1 14:1 15:1 16:1 17:0.333333 18:1 19:1 20:1 21:1 22:1 23:-1 24:1 25:1 26:1 27:0.333333 28:0.333333 29:-1 30:-0.333333 31:-1 32:1 33:1 34:1 35:1 36:0.333333 37:0.333333 38:0.333333 39:0.333333 40:-1 41:-1 42:0.333333 43:-1 44:-1 45:-1 46:-1 47:0.333333 48:0.333333 49:0.333333 50:1 51:-0.333333 52:-0.333333 53:-1 54:-1 55:-1 56:-1 57:-1 58:1 59:1 60:-1 
4.164082410943359 1:1 2:1 3:0.333333 4:1 5:0.333333 6:-1 7:-0.333333 8:-0.333333 9:-1 10:1 11:1 12:1 13:-0.333333 14:1 15:-0.333333 16:-0.333333 17:0.333333 18:-1 19:0.333333 20:0.333333 21:1 22:1 23:0.333333 24:1 25:-0.333333 26:-1 27:0.333333 28:1 29:-0.333333 30:1 31:0.333333 32:-1 33:-1 34:-1 35:0.333333 36:1 37:-0.333333 38:1 39:1 40:0.333333 41:1 42:1 43:-0.333333 44:1 45:0.333333 46:-1 47:-1 48:1 49:0.333333 50:1 51:0.333333 52:-1 53:0.333333 54:-1 55:-0.333333 56:-0.333333 57:0.333333 58:1 59:0.333333 60:0.333333 
1.491642921550617 1:-0.333333 2:1 3:1 4:1 5:1 6:1 7:-0.333333 8:-1 9:1 10:0.333333 11:-1 12:0.333333 13:-0.333333 14:0.333333 15:1 16:1 17:0.333333 18:1 19:-1 20:1 21:-0.333333 22:-0.333333 23:-1 24:-0.333333 25:1 26:0.333333 27:0.333333 28:-1 29:-1 30:-0.333333 31:-1 32:-1 33:1 34:1 35:-1 36:0.333333 37:0.333333 38:-1 39:1 40:-1 41:-1 42:-0.333333 43:-0.333333 44:0.333333 45:-1 46:-1 47:1 48:-0.333333 49:1 50:1 51:1 52:0.333333 53:1 54:-0.333333 55:-1 56:-1 57:-0.333333 58:-1 59:1 60:1 
3.499733434408454 1:-0.333333 2:-1 3:1 4:1 5:-0.333333 6:-1 7:-1 8:-0.333333 9:1 10:-0.333333 11:-0.333333 12:0.333333 13:1 14:-0.333333 15:-0.333333 16:-1 17:-1 18:-1 19:-0.333333 20:-1 21:-0.333333 22:1 23:-0.333333 24:-1 25:1 26:-0.333333 27:0.333333 28:0.333333 29:1 30:-0.333333 31:-0.333333 32:-0.333333 33:-0.333333 34:-1 35:-1 36:-0.333333 37:-0.333333 38:-1 39:-0.333333 40:-1 41:1 42:-0.333333 43:-0.333333 44:-1 45:-0.333333 46:1 47:1 48:-1 49:1 50:-0.333333 51:-1 52:-0.333333 53:-0.333333 54:-0.333333 55:1 56:-1 57:0.333333 58:1 59:-0.333333 60:1 
2.736251825684702 1:-1 2:1 3:-0.333333 4:-0.333333 5:-0.333333 6:0.333333 7:1 8:-1 9:1 10:1 11:-1 12:-1 13:-0.333333 14:1 15:-0.333333 16:0.333333 17:-1 18:-0.333333 19:-1 20:-0.333333 21:-0.333333 22:0.333333 23:-1 24:-1 25:-1 26:-1 27:-1 28:-1 29:-0.333333 30:1 31:0.333333 32:0.333333 33:0.333333 34:0.333333 35:-1 36:-1 37:0.333333 38:-1 39:-0.333333 40:-0.333333 41:1 42:-0.333333 43:-1 44:-0.333333 45:-0.333333 46:-1 47:-1 48:-1 49:0.333333 50:-1 51:-1 52:1 53:-0.333333 54:-0.333333 55:0.333333 56:-1 57:1 58:-1 59:-0.333333 60:-1 
18.61673684478554 1:-0.333333 2:1 3:1 4:0.333333 5:1 6:-0.333333 7:-1 8:-1 9:-0.333333 10:-0.333333 11:-0.333333 12:1 13:-1 14:-0.333333 15:-0.333333 16:-0.333333 17:0.333333 18:-1 19:-0.333333 20:-0.333333 21:-0.333333 22:-0.333333 23:0.333333 24:-1 25:-0.333333 26:0.333333 27:-1 28:0.333333 29:-1 30:-0.333333 31:0.333333 32:1 33:0.333333 34:0.333333 35:1 36:-1 37:-1 38:-0.333333 39:0.333333 40:0.333333 41:-1 42:0.333333 43:1 44:-0.333333 45:0.333333 46:0.333333 47:1 48:-0.333333 49:0.333333 50:1 51:-0.333333 52:-0.333333 53:1 54:-0.333333 55:-1 56:0.333333 57:0.333333 58:0.333333 59:1 60:-0.333333 
6.668103641740891 1:0.333333 2:1 3:1 4:0.333333 5:-0.333333 6:-1 7:1 8:1 9:1 10:-0.333333 11:1 12:-1 13:0.333333 14:0.333333 15:-1 16:1 17:1 18:0.333333 19:0.333333 20:1 21:1 22:0.333333 23:-1 24:-1 25:-1 26:1 27:-1 28:-1 29:-1 30:-0.333333 31:-1 32:-1 33:-1 34:1 35:1 36:1 37:-0.333333 38:-0.333333 39:1 40:-1 41:0.333333 42:0.333333 43:-1 44:-1 45:-1 46:-1 47:-1 48:-1 49:-1 50:-1 51:-1 52:-1 53:-1 54:-0.333333 55:-1 56:-1 57:-1 58:-0.333333 59:-1 60:-1 
0.2535929094095212 1:-1 2:-0.333333 3:1 4:-0.333333 5:1 6:0.333333 7:-1 8:0.333333 9:-1 10:-1 11:-0.333333 12:-1 13:-1 14:-1 15:1 16:-0.333333 17:-1 18:-1 19:-1 20:0.333333 21:-1 22:-0.333333 23:-0.333333 24:-1 25:0.333333 26:0.333333 27:0.333333 28:1 29:-1 30:1 31:0.333333 32:-1 33:-1 34:1 35:-0.333333 36:1 37:-0.333333 38:-1 39:-1 40:-1 41:1 42:-1 43:0.333333 44:-0.333333 45:-0.333333 46:-0.333333 47:-1 48:0.333333 49:0.333333 50:-0.333333 51:-1 52:1 53:-1 54:1 55:-0.333333 56:-0.333333 57:1 58:-0.333333 59:-0.333333 60:0.333333 
30.54993460114427 1:-0.333333 2:-0.333333 3:-0.333333 4:0.333333 5:-0.333333 6:-0.333333 7:-0.333333 8:-0.333333 9:0.333333 10:1 11:-0.333333 12:-1 13:0.333333 14:0.333333 15:-0.333333 16:-1 17:-0.333333 18:-0.333333 19:-0.333333 20:-0.333333 21:-0.333333 22:1 23:-0.333333 24:-0.333333 25:-0.333333 26:-0.333333 27:0.333333 28:0.333333 29:-1 30:-0.333333 31:-0.333333 32:1 33:1 34:0.333333 35:1 36:0.333333 37:-1 38:0.333333 39:-1 40:0.333333 41:0.333333 42:0.333333 43:1 44:0.333333 45:0.333333 46:-1 47:-0.333333 48:1 49:-0.333333 50:-0.333333 51:-1 52:1 53:-0.333333 54:-1 55:1 56:1 57:-0.333333 58:-0.333333 59:0.333333 60:1 
16.69290232666551 1:0.333333 2:0.333333 3:0.333333 4:1 5:-0.333333 6:0.333333 7:1 8:0.333333 9:0.333333 10:0.333333 11:-1 12:-1 13:1 14:0.333333 15:0.333333 16:0.333333 17:1 18:-1 19:1 20:0.333333 21:1 22:0.333333 23:0.333333 24:1 25:0.333333 26:1 27:0.333333 28:1 29:-1 30:-0.333333 31:-0.333333 32:-1 33:1 34:-1 35:-0.333333 36:0.333333 37:0.333333 38:-0.333333 39:0.333333 40:1 41:1 42:0.333333 43:0.333333 44:0.333333 45:-1 46:-1 47:-1 48:-0.333333 49:-1 50:1 51:0.333333 52:0.333333 53:1 54:-0.333333 55:-0.333333 56:-1 57:-0.333333 58:-1 59:-1 60:0.333333 
2.770701853328671 1:-0.333333 2:0.333333 3:1 4:-0.333333 5:1 6:-1 7:-1 8:1 9:1 10:-1 11:1 12:-1 13:1 14:1 15:-0.333333 16:-1 17:-0.333333 18:-0.333333 19:1 20:-0.333333 21:-1 22:1 23:-0.333333 24:-0.333333 25:-1 26:1 27:-1 28:-1 29:-1 30:-0.333333 31:-1 32:-1 33:0.333333 34:1 35:-0.333333 36:-1 37:-1 38:-0.333333 39:1 40:1 41:-0.333333 42:-1 43:1 44:-0.333333 45:-0.333333 46:-1 47:-1 48:-1 49:0.333333 50:-1 51:-1 52:1 53:-0.333333 54:-1 55:-1 56:-0.333333 57:1 58:1 59:-1 60:-1 
6.717861854371677 1:-0.333333 2:0.333333 3:0.333333 4:0.333333 5:-1 6:-0.333333 7:-1 8:-1 9:-0.333333 10:-1 11:1 12:-1 13:-1 14:0.333333 15:1 16:0.333333 17:-1 18:-1 19:-1 20:0.333333 21:0.333333 22:0.333333 23:-1 24:-1 25:0.333333 26:0.333333 27:-1 28:-0.333333 29:-0.333333 30:-1 31:-1 32:1 33:-0.333333 34:1 35:1 36:0.333333 37:-0.333333 38:1 39:-0.333333 40:0.333333 41:-1 42:-0.333333 43:-0.333333 44:-1 45:-1 46:-1 47:-1 48:-0.333333 49:-0.333333 50:-1 51:-0.333333 52:-0.333333 53:0.333333 54:1 55:-0.333333 56:1 57:-0.333333 58:-1 59:0.333333 60:1 
8.292147481265681 1:0.333333 2:-0.333333 3:0.333333 4:-1 5:0.333333 6:0.333333 7:-1 8:1 9:0.333333 10:-1 11:0.333333 12:0.333333 13:-0.333333 14:-0.333333 15:-0.333333 16:-1 17:1 18:-0.333333 19:1 20:-0.333333 21:0.333333 22:-1 23:-1 24:0.333333 25:-1 26:-1 27:0.333333 28:-1 29:-0.333333 30:-0.333333 31:1 32:-0.333333 33:0.333333 34:-0.333333 35:-0.333333 36:0.333333 37:1 38:-0.333333 39:-0.333333 40:0.333333 41:1 42:-0.333333 43:-0.333333 44:-0.333333 45:-0.333333 46:-0.333333 47:1 48:-0.333333 49:-0.333333 50:0.333333 51:1 52:-0.333333 53:0.333333 54:-1 55:-0.333333 56:-0.333333 57:-1 58:-1 59:0.333333 60:0.333333 
6.974558571373192 1:1 2:-1 3:1 4:-0.333333 5:1 6:0.333333 7:1 8:0.333333 9:0.333333 10:-1 11:-0.333333 12:-1 13:1 14:-0.333333 15:-1 16:1 17:1 18:-0.333333 19:-1 20:-0.333333 21:0.333333 22:-1 23:-1 24:-1 25:1 26:-0.333333 27:-0.333333 28:-0.333333 29:0.333333 30:1 31:0.333333 32:0.333333 33:0.333333 34:-1 35:-0.333333 36:0.333333 37:1 38:0.333333 39:-1 40:-1 41:-0.333333 42:-0.333333 43:-0.333333 44:1 45:0.333333 46:0.333333 47:0.333333 48:-0.333333 49:-0.333333 50:-0.333333 51:1 52:1 53:1 54:-0.333333 55:-1 56:-0.333333 57:1 58:0.333333 59:0.333333 60:-1 
2.110518007617844 1:0.333333 2:1 3:-0.333333 4:-0.333333 5:0.333333 6:0.333333 7:1 8:1 9:1 10:-0.333333 11:0.333333 12:1 13:1 14:-0.333333 15:-0.333333 16:-0.333333 17:0.333333 18:1 19:1 20:0.333333 21:1 22:-1 23:-0.333333 24:-1 25:0.333333 26:-1 27:0.333333 28:0.333333 29:1 30:1 31:1 32:0.333333 33:-1 34:0.333333 35:1 36:-0.333333 37:0.333333 38:-1 39:0.333333 40:1 41:0.333333 42:-1 43:0.333333 44:1 45:-0.333333 46:1 47:0.333333 48:1 49:1 50:0.333333 51:1 52:0.333333 53:0.333333 54:0.333333 55:0.333333 56:0.333333 57:1 58:0.333333 59:0.333333 60:1 
6.676583509008974 1:0.333333 2:0.333333 3:1 4:-0.333333 5:-0.333333 6:-1 7:-0.333333 8:-0.333333 9:-0.333333 10:-0.333333 11:-1 12:-1 13:1 14:0.333333 15:1 16:-0.333333 17:-0.333333 18:1 19:0.333333 20:-1 21:0.333333 22:0.333333 23:0.333333 24:1 25:-0.333333 26:-1 27:-0.333333 28:0.333333 29:1 30:-0.333333 31:1 32:-0.333333 33:-1 34:-1 35:-1 36:0.333333 37:-1 38:-1 39:-1 40:-0.333333 41:1 42:1 43:-0.333333 44:0.333333 45:1 46:0.333333 47:1 48:1 49:-0.333333 50:0.333333 51:-1 52:-0.333333 53:-1 54:-0.333333 55:-0.333333 56:0.333333 57:0.333333 58:1 59:-0.333333 60:-0.333333 
19.76541566814547 1:0.333333 2:0.333333 3:1 4:1 5:-1 6:-1 7:-0.333333 8:0.333333 9:1 10:-1 11:-0.333333 12:1 13:0.333333 14:0.333333 15:0.333333 16:1 17:1 18:0.333333 19:1 20:0.333333 21:0.333333 22:0.333333 23:0.333333 24:1 25:1 26:1 27:-0.333333 28:0.333333 29:-1 30:-0.333333 31:-1 32:0.333333 33:-0.333333 34:-1 35:-0.333333 36:-1 37:1 38:-0.333333 39:0.333333 40:-1 41:-0.333333 42:0.333333 43:-0.333333 44:-1 45:0.333333 46:1 47:-1 48:1 49:-0.333333 50:1 51:-0.333333 52:1 53:-0.333333 54:1 55:-1 56:1 57:-0.333333 58:1 59:-0.333333 60:0.333333 
7.37163215973634 1:-1 2:-1 3:1 4:1 5:0.333333 6:-1 7:-0.333333 8:-0.333333 9:0.333333 10:0.333333 11:1 12:-0.333333 13:1 14:0.333333 15:0.333333 16:1 17:1 18:-1 19:-0.333333 20:-1 21:-1 22:1 23:-0.333333 24:0.333333 25:1 26:-1 27:0.333333 28:-1 29:-0.333333 30:-0.333333 31:-0.333333 32:1 33:-1 34:0.333333 35:-1 36:-0.333333 37:0.333333 38:0.333333 39:0.333333 40:-1 41:1 42:1 43:1 44:-0.333333 45:-1 46:-0.333333 47:0.333333 48:1 49:0.333333 50:0.333333 51:1 52:-0.333333 53:1 54:-1 55:1 56:-1 57:-0.333333 58:-1 59:1 60:-1 
6.681129179968461 1:-1 2:-0.333333 3:-0.333333 4:-0.333333 5:-0.333333 6:-0.333333 7:0.333333 8:1 9:-0.333333 10:-1 11:-1 12:1 13:0.333333 14:0.333333 15:1 16:0.333333 17:-1 18:-0.333333 19:1 20:1 21:1 22:-1 23:-1 24:-0.333333 25:-0.333333 26:-0.333333 27:0.333333 28:0.333333 29:1 30:-0.333333 31:-0.333333 32:-1 33:0.333333 34:0.333333 35:1 36:-0.333333 37:-0.333333 38:-0.333333 39:-1 40:-0.333333 41:0.333333 42:1 43:1 44:-1 45:1 46:-0.333333 47:-0.333333 48:-1 49:-1 50:-0.333333 51:-1 52:-0.333333 53:0.333333 54:-1 55:-1 56:-0.333333 57:-0.333333 58:-0.333333 59:-0.333333 60:0.333333 
5.934357210963515 1:-1 2:-1 3:1 4:0.333333 5:-1 6:-1 7:1 8:-0.333333 9:-1 10:-0.333333 11:-1 12:-1 13:-0.333333 14:-0.333333 15:-0.333333 16:-0.333333 17:0.333333 18:1 19:-0.333333 20:0.333333 21:0.333333 22:1 23:-0.333333 24:0.333333 25:0.333333 26:1 27:-0.333333 28:-1 29:0.333333 30:0.333333 31:-1 32:0.333333 33:1 34:-0.333333 35:-0.333333 36:1 37:1 38:-0.333333 39:1 40:-0.333333 41:1 42:-0.333333 43:-0.333333 44:-1 45:1 46:0.333333 47:0.333333 48:1 49:1 50:0.333333 51:-0.333333 52:-0.333333 53:-0.333333 54:-1 55:-1 56:-0.333333 57:-0.333333 58:-1 59:-1 60:-1 
5.948958000777189 1:0.333333 2:-1 3:0.333333 4:0.333333 5:-0.333333 6:0.333333 7:0.333333 8:1 9:-1 10:0.333333 11:0.333333 12:1 13:-0.333333 14:0.333333 15:-1 16:-0.333333 17:1 18:-0.333333 19:-0.333333 20:-1 21:-0.333333 22:0.333333 23:-1 24:-0.333333 25:0.333333 26:0.333333 27:1 28:-0.333333 29:-1 30:-1 31:-0.333333 32:-0.333333 33:0.333333 34:0.333333 35:1 36:0.333333 37:-0.333333 38:-0.333333 39:-1 40:0.333333 41:-1 42:0.333333 43:0.333333 44:-0.333333 45:0.333333 46:0.333333 47:-1 48:1 49:-0.333333 50:1 51:-1 52:1 53:1 54:-1 55:0.333333 56:1 57:-0.333333 58:1 59:-0.333333 60:0.333333 
10.36400961225018 1:-0.333333 2:0.333333 3:0.333333 4:0.333333 5:-0.333333 6:-0.333333 7:0.333333 8:1 9:0.333333 10:-0.333333 11:0.333333 12:1 13:-0.333333 14:-0.333333 15:0.333333 16:-0.333333 17:1 18:-0.333333 19:-0.333333 20:-1 21:-0.333333 22:0.333333 23:0.333333 24:-0.333333 25:-0.333333 26:-0.333333 27:-0.333333 28:1 29:-0.333333 30:-0.333333 31:-1 32:-1 33:1 34:-0.333333 35:0.333333 36:-0.333333 37:-1 38:-0.333333 39:1 40:-0.333333 41:0.333333 42:0.333333 43:1 44:-1 45:-0.333333 46:1 47:-0.333333 48:-0.333333 49:-0.333333 50:0.333333 51:0.333333 52:-1 53:0.333333 54:1 55:1 56:1 57:1 58:-0.333333 59:-0.333333 60:1 
11.10006668970848 1:0.333333 2:0.333333 3:-0.333333 4:1 5:0.333333 6:0.333333 7:0.333333 8:1 9:-1 10:1 11:1 12:0.333333 13:1 14:-0.333333 15:-0.333333 16:0.333333 17:0.333333 18:-1 19:0.333333 20:1 21:1 22:-0.333333 23:-1 24:1 25:1 26:0.333333 27:-0.333333 28:-0.333333 29:-0.333333 30:-0.333333 31:-0.333333 32:-1 33:0.333333 34:-1 35:0.333333 36:0.333333 37:1 38:-0.333333 39:-0.333333 40:1 41:-1 42:-0.333333 43:-0.333333 44:-0.333333 45:-0.333333 46:-1 47:1 48:-0.333333 49:-0.333333 50:-0.333333 51:-0.333333 52:-1 53:-1 54:-1 55:-0.333333 56:-0.333333 57:1 58:-0.333333 59:-0.333333 60:-0.333333 
9.371062898562631 1:-0.333333 2:-0.333333 3:1 4:0.333333 5:1 6:0.333333 7:1 8:-0.333333 9:0.333333 10:1 11:-0.333333 12:-0.333333 13:1 14:1 15:0.333333 16:1 17:-1 18:-0.333333 19:0.333333 20:1 21:1 22:0.333333 23:0.333333 24:1 25:0.333333 26:1 27:1 28:0.333333 29:0.333333 30:0.333333 31:-1 32:1 33:1 34:1 35:0.333333 36:1 37:-0.333333 38:-1 39:0.333333 40:1 41:0.333333 42:0.333333 43:1 44:-0.333333 45:-0.333333 46:0.333333 47:1 48:1 49:1 50:-1 51:-0.333333 52:0.333333 53:1 54:0.333333 55:1 56:0.333333 57:1 58:-0.333333 59:-0.333333 60:-1 
49.60735043820971 1:-0.333333 2:0.333333 3:1 4:-0.333333 5:-0.333333 6:-1 7:0.333333 8:-1 9:0.333333 10:0.333333 11:-0.333333 12:1 13:-0.333333 14:0.333333 15:0.333333 16:0.333333 17:1 18:1 19:0.333333 20:0.333333 21:0.333333 22:-0.333333 23:0.333333 24:0.333333 25:-0.333333 26:0.333333 27:0.333333 28:0.333333 29:-1 30:-0.333333 31:-0.333333 32:1 33:-0.333333 34:0.333333 35:-0.333333 36:0.333333 37:-0.333333 38:0.333333 39:-1 40:-0.333333 41:-0.333333 42:0.333333 43:-1 44:0.333333 45:0.333333 46:-0.333333 47:-0.333333 48:-0.333333 49:-1 50:0.333333 51:-1 52:0.333333 53:-0.333333 54:-0.333333 55:-0.333333 56:-0.333333 57:0.333333 58:-1 59:-0.333333 60:-0.333333 
7.769218882153084 1:-0.333333 2:-0.333333 3:-1 4:-1 5:-0.333333 6:-1 7:-0.333333 8:-0.333333 9:-0.333333 10:-1 11:-1 12:1 13:0.333333 14:0.333333 15:0.333333 16:-1 17:1 18:0.333333 19:-1 20:-1 21:-1 22:-0.333333 23:1 24:0.333333 25:-1 26:-0.333333 27:0.333333 28:0.333333 29:-0.333333 30:1 31:-0.333333 32:1 33:-0.333333 34:-0.333333 35:-0.333333 36:-0.333333 37:1 38:0.333333 39:1 40:-0.333333 41:0.333333 42:-1 43:-1 44:1 45:-0.333333 46:-0.333333 47:1 48:-0.333333 49:-1 50:-1 51:1 52:-0.333333 53:0.333333 54:0.333333 55:-1 56:-1 57:-1 58:-0.333333 59:-1 60:1 
7.376455444323863 1:-0.333333 2:0.333333 3:-1 4:-1 5:1 6:-0.333333 7:-0.333333 8:0.333333 9:-1 10:1 11:-1 12:-0.333333 13:-1 14:-1 15:-1 16:-0.333333 17:1 18:-0.333333 19:1 20:-0.333333 21:-1 22:-1 23:0.333333 24:-1 25:-1 26:-1 27:-0.333333 28:-1 29:-1 30:-1 31:-1 32:1 33:-0.333333 34:-1 35:1 36:-1 37:1 38:1 39:-1 40:-1 41:-0.333333 42:-0.333333 43:-1 44:-0.333333 45:-0.333333 46:-0.333333 47:-0.333333 48:-0.333333 49:-0.333333 50:0.333333 51:1 52:-0.333333 53:1 54:-1 55:-0.333333 56:-1 57:-1 58:-0.333333 59:-0.333333 60:-0.333333 
8.814521953806421 1:0.333333 2:-1 3:1 4:1 5:-0.333333 6:0.333333 7:0.333333 8:1 9:-0.333333 10:1 11:-1 12:1 13:1 14:0.333333 15:-1 16:-0.333333 17:1 18:-0.333333 19:-0.333333 20:-1 21:-0.333333 22:0.333333 23:0.333333 24:1 25:-0.333333 26:-0.333333 27:-1 28:-0.333333 29:0.333333 30:-1 31:-1 32:1 33:-0.333333 34:-1 35:-0.333333 36:-0.333333 37:-1 38:-1 39:-0.333333 40:-1 41:-0.333333 42:-0.333333 43:-0.333333 44:-1 45:-0.333333 46:1 47:0.333333 48:0.333333 49:-1 50:-1 51:0.333333 52:-1 53:1 54:-0.333333 55:1 56:0.333333 57:-1 58:-1 59:1 60:-1 
22.73469075699331 1:1 2:-0.333333 3:-0.333333 4:-0.333333 5:0.333333 6:-0.333333 7:-0.333333 8:-0.333333 9:-1 10:0.333333 11:1 12:-0.333333 13:-1 14:0.333333 15:1 16:-1 17:-1 18:-0.333333 19:-0.333333 20:-0.333333 21:-0.333333 22:0.333333 23:-0.333333 24:-0.333333 25:-0.333333 26:-0.333333 27:0.333333 28:0.333333 29:-1 30:-0.333333 31:-0.333333 32:-0.333333 33:1 34:0.333333 35:1 36:0.333333 37:-1 38:0.333333 39:-1 40:0.333333 41:0.333333 42:0.333333 43:1 44:-0.333333 45:0.333333 46:-1 47:-0.333333 48:1 49:-0.333333 50:-0.333333 51:-1 52:1 53:-0.333333 54:0.333333 55:-1 56:1 57:-0.333333 58:-0.333333 59:0.333333 60:1 
4.971316799209279 1:-0.333333 2:-1 3:-0.333333 4:1 5:1 6:-1 7:-0.333333 8:-1 9:-0.333333 10:-0.333333 11:0.333333 12:1 13:-0.333333 14:1 15:-0.333333 16:-0.333333 17:1 18:0.333333 19:0.333333 20:0.333333 21:1 22:0.333333 23:0.333333 24:1 25:0.333333 26:1 27:1 28:0.333333 29:1 30:1 31:-0.333333 32:0.333333 33:0.333333 34:0.333333 35:1 36:0.333333 37:1 38:0.333333 39:1 40:0.333333 41:1 42:-0.333333 43:0.333333 44:0.333333 45:1 46:0.333333 47:1 48:-0.333333 49:1 50:-0.333333 51:0.333333 52:1 53:0.333333 54:-1 55:-0.333333 56:1 57:-0.333333 58:1 59:-0.333333 60:-1 
9.547610553015256 1:0.333333 2:1 3:1 4:-1 5:0.333333 6:-1 7:0.333333 8:-1 9:-1 10:-1 11:1 12:1 13:-0.333333 14:-0.333333 15:0.333333 16:-1 17:1 18:-0.333333 19:0.333333 20:1 21:1 22:-0.333333 23:1 24:-0.333333 25:1 26:1 27:1 28:0.333333 29:-1 30:-0.333333 31:-1 32:1 33:-0.333333 34:0.333333 35:0.333333 36:1 37:1 38:-0.333333 39:-0.333333 40:1 41:1 42:0.333333 43:-1 44:-1 45:-0.333333 46:-0.333333 47:-0.333333 48:-1 49:1 50:-0.333333 51:-0.333333 52:-1 53:-1 54:-1 55:-0.333333 56:1 57:0.333333 58:-1 59:0.333333 60:0.333333 
3.504090547772738 1:-0.333333 2:1 3:-0.333333 4:-1 5:-0.333333 6:1 7:1 8:-0.333333 9:-0.333333 10:0.333333 11:-1 12:1 13:-1 14:-0.333333 15:0.333333 16:-1 17:-1 18:-0.333333 19:1 20:-1 21:-1 22:-0.333333 23:-1 24:-0.333333 25:-1 26:-1 27:-0.333333 28:-0.333333 29:-1 30:1 31:-1 32:-0.333333 33:-0.333333 34:-1 35:0.333333 36:-1 37:0.333333 38:-1 39:-1 40:1 41:-0.333333 42:-0.333333 43:-0.333333 44:-1 45:-0.333333 46:-0.333333 47:1 48:-0.333333 49:0.333333 50:-1 51:-0.333333 52:-0.333333 53:-0.333333 54:0.333333 55:1 56:-0.333333 57:0.333333 58:0.333333 59:-1 60:-0.333333 
13.55996859741854 1:-1 2:1 3:-0.333333 4:-0.333333 5:0.333333 6:0.333333 7:-0.333333 8:1 9:0.333333 10:-1 11:1 12:-0.333333 13:-0.333333 14:0.333333 15:-0.333333 16:0.333333 17:0.333333 18:0.333333 19:0.333333 20:-0.333333 21:-1 22:-1 23:0.333333 24:0.333333 25:0.333333 26:1 27:0.333333 28:-0.333333 29:1 30:0.333333 31:0.333333 32:1 33:-0.333333 34:0.333333 35:1 36:-1 37:0.333333 38:1 39:0.333333 40:1 41:0.333333 42:-0.333333 43:-0.333333 44:-0.333333 45:-0.333333 46:-0.333333 47:0.333333 48:1 49:0.333333 50:1 51:-0.333333 52:-0.333333 53:0.333333 54:0.333333 55:0.333333 56:1 57:-0.333333 58:-1 59:0.333333 60:0.333333 
12.58432534856467 1:-0.333333 2:-1 3:-1 4:0.333333 5:-0.333333 6:-1 7:0.333333 8:-1 9:-1 10:1 11:-1 12:-0.333333 13:0.333333 14:1 15:1 16:1 17:-1 18:0.333333 19:0.333333 20:0.333333 21:1 22:0.333333 23:-1 24:-0.333333 25:-0.333333 26:0.333333 27:-1 28:1 29:-1 30:-0.333333 31:-0.333333 32:0.333333 33:0.333333 34:1 35:-0.333333 36:-0.333333 37:-0.333333 38:1 39:-0.333333 40:0.333333 41:1 42:-0.333333 43:-0.333333 44:0.333333 45:1 46:-0.333333 47:0.333333 48:0.333333 49:0.333333 50:-1 51:-0.333333 52:-1 53:0.333333 54:0.333333 55:0.333333 56:0.333333 57:1 58:0.333333 59:1 60:-0.333333 
14.70726472504801 1:1 2:0.333333 3:1 4:1 5:0.333333 6:0.333333 7:0.333333 8:-1 9:-0.333333 10:1 11:0.333333 12:0.333333 13:-1 14:0.333333 15:0.333333 16:-0.333333 17:1 18:0.333333 19:0.333333 20:0.333333 21:0.333333 22:-1 23:1 24:0.333333 25:-0.333333 26:1 27:-0.333333 28:-0.333333 29:-0.333333 30:0.333333 31:-1 32:1 33:1 34:-0.333333 35:1 36:1 37:-0.333333 38:0.333333 39:1 40:-0.333333 41:-0.333333 42:0.333333 43:0.333333 44:1 45:-0.333333 46:-0.333333 47:0.333333 48:1 49:-0.333333 50:1 51:0.333333 52:0.333333 53:1 54:-1 55:-0.333333 56:0.333333 57:-1 58:-0.333333 59:1 60:1 
0.1366087959335534 1:1 2:0.333333 3:0.333333 4:1 5:-0.333333 6:0.333333 7:1 8:1 9:1 10:-1 11:1 12:1 13:-0.333333 14:1 15:1 16:-0.333333 17:-0.333333 18:1 19:1 20:-1 21:-1 22:1 23:1 24:1 25:-0.333333 26:0.333333 27:1 28:0.333333 29:1 30:0.333333 31:1 32:-0.333333 33:-0.333333 34:-0.333333 35:1 36:1 37:1 38:1 39:-0.333333 40:-0.333333 41:-0.333333 42:-0.333333 43:-0.333333 44:-0.333333 45:0.333333 46:1 47:-0.333333 48:-0.333333 49:-0.333333 50:-0.333333 51:-0.333333 52:1 53:1 54:-0.333333 55:0.333333 56:1 57:1 58:1 59:-0.333333 60:0.333333 
2.856619743965748 1:-0.333333 2:-0.333333 3:1 4:-0.333333 5:-1 6:-1 7:-0.333333 8:-1 9:0.333333 10:-1 11:1 12:1 13:-0.333333 14:1 15:-0.333333 16:-0.333333 17:0.333333 18:1 19:-0.333333 20:-1 21:0.333333 22:0.333333 23:-1 24:0.333333 25:-0.333333 26:1 27:1 28:-0.333333 29:0.333333 30:0.333333 31:1 32:0.333333 33:1 34:1 35:-0.333333 36:1 37:-0.333333 38:-0.333333 39:1 40:-0.333333 41:1 42:-1 43:-1 44:-1 45:0.333333 46:1 47:1 48:-0.333333 49:1 50:-1 51:0.333333 52:0.333333 53:-1 54:-0.333333 55:1 56:1 57:1 58:1 59:-1 60:0.333333 
279.508497187 1:-0.333333 2:0.333333 3:0.333333 4:1 5:-0.333333 6:0.333333 7:1 8:-0.333333 9:-1 10:-1 11:0.333333 12:1 13:0.333333 14:-1 15:0.333333 16:-1 17:0.333333 18:1 19:-0.333333 20:1 21:1 22:1 23:0.333333 24:1 25:0.333333 26:0.333333 27:-1 28:0.333333 29:-1 30:-0.333333 31:0.333333 32:-0.333333 33:0.333333 34:-1 35:1 36:-0.333333 37:-1 38:-0.333333 39:-1 40:-0.333333 41:0.333333 42:0.333333 43:0.333333 44:-1 45:-0.333333 46:0.333333 47:0.333333 48:0.333333 49:-0.333333 50:-0.333333 51:0.333333 52:-1 53:0.333333 54:0.333333 55:0.333333 56:0.333333 57:1 58:-0.333333 59:1 60:-0.333333 
6.358489531088678 1:1 2:1 3:0.333333 4:0.333333 5:1 6:-1 7:-1 8:-0.333333 9:-1 10:0.333333 11:0.333333 12:0.333333 13:0.333333 14:1 15:1 16:1 17:0.333333 18:-1 19:0.333333 20:1 21:-1 22:1 23:1 24:-1 25:-1 26:-0.333333 27:-1 28:-0.333333 29:-1 30:-1 31:1 32:1 33:-1 34:-1 35:-1 36:-1 37:-1 38:1 39:1 40:-1 41:1 42:-1 43:-0.333333 44:0.333333 45:1 46:-0.333333 47:1 48:1 49:0.333333 50:0.333333 51:1 52:0.333333 53:0.333333 54:1 55:1 56:0.333333 57:-1 58:-0.333333 59:-0.333333 60:-1 
2.799461098539687 1:1 2:-0.333333 3:-1 4:-1 5:-1 6:1 7:-1 8:1 9:1 10:-1 11:1 12:-1 13:1 14:-1 15:1 16:-1 17:-1 18:1 19:-1 20:1 21:-1 22:-0.333333 23:-1 24:-1 25:1 26:0.333333 27:-1 28:-1 29:-0.333333 30:-1 31:-0.333333 32:-0.333333 33:0.333333 34:0.333333 35:1 36:-0.333333 37:1 38:0.333333 39:0.333333 40:-1 41:-1 42:-1 43:-1 44:-0.333333 45:1 46:0.333333 47:0.333333 48:1 49:0.333333 50:0.333333 51:0.333333 52:-1 53:-1 54:-1 55:-0.333333 56:1 57:-1 58:1 59:1 60:-1 
3.086089745639067 1:0.333333 2:0.333333 3:0.333333 4:0.333333 5:1 6:-1 7:-0.333333 8:-1 9:1 10:-0.333333 11:-1 12:-1 13:-0.333333 14:1 15:0.333333 16:1 17:0.333333 18:0.333333 19:-1 20:1 21:-0.333333 22:-1 23:-0.333333 24:0.333333 25:1 26:-1 27:0.333333 28:-1 29:-1 30:-0.333333 31:-0.333333 32:-0.333333 33:0.333333 34:0.333333 35:1 36:-0.333333 37:-0.333333 38:1 39:-0.333333 40:1 41:-1 42:1 43:0.333333 44:0.333333 45:-1 46:-0.333333 47:-0.333333 48:1 49:-0.333333 50:-1 51:1 52:0.333333 53:1 54:-1 55:-0.333333 56:1 57:-1 58:-1 59:1 60:1 
0.7952797551554156 1:-1 2:-0.333333 3:-0.333333 4:-1 5:-0.333333 6:-1 7:-0.333333 8:-1 9:-1 10:-1 11:1 12:1 13:-1 14:-1 15:-1 16:-1 17:1 18:1 19:1 20:-1 21:1 22:1 23:-1 24:1 25:1 26:1 27:1 28:-1 29:-1 30:-0.333333 31:-0.333333 32:1 33:1 34:0.333333 35:1 36:1 37:-1 38:-1 39:1 40:-1 41:1 42:-1 43:0.333333 44:-1 45:-1 46:-1 47:0.333333 48:1 49:-1 50:-0.333333 51:1 52:-1 53:1 54:-1 55:1 56:1 57:-1 58:1 59:0.333333 60:-1 
4.481983024054482 1:0.333333 2:-1 3:0.333333 4:-0.333333 5:1 6:1 7:-0.333333 8:-0.333333 9:-0.333333 10:-1 11:-0.333333 12:-0.333333 13:1 14:0.333333 15:-0.333333 16:-1 17:-0.333333 18:-0.333333 19:0.333333 20:-1 21:-0.333333 22:-0.333333 23:0.333333 24:-1 25:-0.333333 26:-1 27:1 28:0.333333 29:-1 30:0.333333 31:1 32:1 33:-0.333333 34:-1 35:-0.333333 36:0.333333 37:0.333333 38:0.333333 39:-1 40:-0.333333 41:0.333333 42:-1 43:-0.333333 44:1 45:-0.333333 46:1 47:-1 48:-1 49:-0.333333 50:-0.333333 51:1 52:1 53:0.333333 54:1 55:1 56:-0.333333 57:1 58:-1 59:1 60:0.333333 
1.064839708253519 1:0.333333 2:-0.333333 3:-0.333333 4:1 5:1 6:-0.333333 7:-0.333333 8:-1 9:-0.333333 10:-1 11:-1 12:-1 13:-0.333333 14:-0.333333 15:-0.333333 16:1 17:1 18:0.333333 19:0.333333 20:-1 21:-1 22:-0.333333 23:1 24:-0.333333 25:-0.333333 26:1 27:-0.333333 28:-0.333333 29:1 30:-0.333333 31:-1 32:0.333333 33:0.333333 34:1 35:1 36:-0.333333 37:0.333333 38:-0.333333 39:-0.333333 40:-1 41:-0.333333 42:-1 43:-0.333333 44:-1 45:-1 46:-0.333333 47:-1 48:1 49:1 50:1 51:1 52:-0.333333 53:-1 54:1 55:-0.333333 56:1 57:-0.333333 58:-0.333333 59:-1 60:-1 
8.086074371540183 1:-0.333333 2:-1 3:0.333333 4:-1 5:0.333333 6:1 7:-0.333333 8:-1 9:-0.333333 10:1 11:-1 12:-0.333333 13:-0.333333 14:-1 15:0.333333 16:0.333333 17:1 18:0.333333 19:0.333333 20:-1 21:-1 22:0.333333 23:1 24:0.333333 25:1 26:1 27:-1 28:0.333333 29:-1 30:-0.333333 31:-1 32:1 33:0.333333 34:0.333333 35:0.333333 36:1 37:1 38:0.333333 39:0.333333 40:0.333333 41:0.333333 42:1 43:-0.333333 44:-1 45:-1 46:-0.333333 47:1 48:-1 49:1 50:1 51:1 52:-0.333333 53:-1 54:-1 55:-0.333333 56:-1 57:-0.333333 58:0.333333 59:1 60:-0.333333 
26.50949901822694 1:0.333333 2:-0.333333 3:-0.333333 4:-1 5:0.333333 6:0.333333 7:-1 8:-0.333333 9:0.333333 10:1 11:0.333333 12:-1 13:1 14:-0.333333 15:-0.333333 16:0.333333 17:0.333333 18:1 19:1 20:0.333333 21:-0.333333 22:-0.333333 23:0.333333 24:-0.333333 25:-0.333333 26:0.333333 27:1 28:0.333333 29:0.333333 30:-1 31:-0.333333 32:0.333333 33:-0.333333 34:-1 35:-0.333333 36:0.333333 37:0.333333 38:-0.333333 39:1 40:-0.333333 41:0.333333 42:-0.333333 43:0.333333 44:-0.333333 45:0.333333 46:1 47:0.333333 48:1 49:-0.333333 50:0.333333 51:-1 52:-0.333333 53:0.333333 54:0.333333 55:1 56:-0.333333 57:0.333333 58:-1 59:0.333333 60:-1 
13.8409578860666 1:1 2:0.333333 3:-0.333333 4:-0.333333 5:-1 6:-0.333333 7:0.333333 8:-0.333333 9:-0.333333 10:0.333333 11:-0.333333 12:-0.333333 13:-0.333333 14:0.333333 15:0.333333 16:0.333333 17:0.333333 18:-1 19:-0.333333 20:-0.333333 21:0.333333 22:-1 23:-1 24:-1 25:0.333333 26:1 27:1 28:-0.333333 29:0.333333 30:-1 31:0.333333 32:-0.333333 33:-1 34:0.333333 35:-0.333333 36:0.333333 37:0.333333 38:1 39:-0.333333 40:0.333333 41:0.333333 42:-1 43:-0.333333 44:-0.333333 45:-0.333333 46:0.333333 47:-0.333333 48:-1 49:1 50:1 51:0.333333 52:-0.333333 53:-0.333333 54:-0.333333 55:-1 56:-0.333333 57:-0.333333 58:0.333333 59:0.333333 60:0.333333 
5.950584319795739 1:0.333333 2:0.333333 3:1 4:0.333333 5:0.333333 6:-1 7:-0.333333 8:-1 9:-0.333333 10:-0.333333 11:1 12:-1 13:-1 14:0.333333 15:1 16:-0.333333 17:1 18:-0.333333 19:0.333333 20:1 21:0.333333 22:-1 23:0.333333 24:-0.333333 25:-1 26:-1 27:0.333333 28:-1 29:-0.333333 30:0.333333 31:0.333333 32:0.333333 33:1 34:-0.333333 35:1 36:-0.333333 37:-0.333333 38:-1 39:-1 40:0.333333 41:1 42:-0.333333 43:-1 44:-0.333333 45:-1 46:-0.333333 47:-1 48:-0.333333 49:0.333333 50:0.333333 51:0.333333 52:-1 53:-1 54:0.333333 55:-0.333333 56:1 57:0.333333 58:0.333333 59:1 60:0.333333 
9.159918761682432 1:-1 2:-1 3:-0.333333 4:-0.333333 5:-1 6:0.333333 7:-1 8:-1 9:-0.333333 10:0.333333 11:-1 12:-0.333333 13:-0.333333 14:1 15:0.333333 16:1 17:-1 18:0.333333 19:0.333333 20:-0.333333 21:-0.333333 22:-0.333333 23:0.333333 24:0.333333 25:-1 26:0.333333 27:-0.333333 28:0.333333 29:-1 30:0.333333 31:0.333333 32:-0.333333 33:0.333333 34:0.333333 35:1 36:-0.333333 37:0.333333 38:1 39:-0.333333 40:0.333333 41:1 42:-0.333333 43:0.333333 44:1 45:-0.333333 46:-0.333333 47:-0.333333 48:1 49:-0.333333 50:0.333333 51:1 52:-0.333333 53:-0.333333 54:-1 55:-0.333333 56:-1 57:-1 58:1 59:0.333333 60:1 
5.097574716739779 1:0.333333 2:1 3:0.333333 4:-1 5:-0.333333 6:1 7:-0.333333 8:-1 9:0.333333 10:-1 11:0.333333 12:0.333333 13:1 14:-0.333333 15:0.333333 16:0.333333 17:0.333333 18:-1 19:0.333333 20:-0.333333 21:1 22:1 23:1 24:0.333333 25:-1 26:1 27:0.333333 28:1 29:1 30:-0.333333 31:-0.333333 32:-0.333333 33:1 34:0.333333 35:1 36:1 37:0.333333 38:1 39:1 40:-0.333333 41:-1 42:1 43:-0.333333 44:0.333333 45:-1 46:-0.333333 47:-0.333333 48:-1 49:-1 50:-1 51:-0.333333 52:-0.333333 53:0.333333 54:-1 55:0.333333 56:-1 57:1 58:0.333333 59:1 60:0.333333 
8.384669859606166 1:0.333333 2:0.333333 3:1 4:0.333333 5:-1 6:0.333333 7:0.333333 8:-1 9:0.333333 10:0.333333 11:-1 12:0.333333 13:0.333333 14:-1 15:0.333333 16:-0.333333 17:1 18:-0.333333 19:1 20:0.333333 21:1 22:0.333333 23:0.333333 24:0.333333 25:-1 26:0.333333 27:0.333333 28:-1 29:-0.333333 30:0.333333 31:0.333333 32:1 33:0.333333 34:1 35:-0.333333 36:-1 37:-0.333333 38:0.333333 39:1 40:1 41:0.333333 42:1 43:0.333333 44:-1 45:1 46:1 47:0.333333 48:-1 49:0.333333 50:-1 51:-0.333333 52:-1 53:-0.333333 54:-1 55:0.333333 56:-1 57:0.333333 58:0.333333 59:0.333333 60:1 
0.3692257463162738 1:-1 2:-0.333333 3:-1 4:-1 5:0.333333 6:0.333333 7:-1 8:0.333333 9:0.333333 10:1 11:-1 12:0.333333 13:1 14:1 15:0.333333 16:1 17:1 18:-0.333333 19:-0.333333 20:-0.333333 21:-0.333333 22:-1 23:-0.333333 24:-0.333333 25:1 26:-1 27:-0.333333 28:-0.333333 29:1 30:0.333333 31:1 32:-0.333333 33:0.333333 34:1 35:1 36:0.333333 37:0.333333 38:0.333333 39:1 40:1 41:0.333333 42:-1 43:-1 44:0.333333 45:1 46:0.333333 47:-1 48:-0.333333 49:-0.333333 50:-1 51:1 52:-1 53:0.333333 54:-1 55:-1 56:0.333333 57:1 58:-0.333333 59:0.333333 60:1 
3.08059494206844 1:-0.333333 2:-0.333333 3:-1 4:-0.333333 5:-1 6:-1 7:-0.333333 8:-1 9:-0.333333 10:-1 11:-0.333333 12:-1 13:-1 14:-0.333333 15:-1 16:-0.333333 17:-0.333333 18:-1 19:-1 20:-0.333333 21:-1 22:-0.333333 23:-0.333333 24:-1 25:-1 26:-0.333333 27:-1 28:-0.333333 29:-0.333333 30:-1 31:-1 32:-0.333333 33:-1 34:-0.333333 35:-1 36:-0.333333 37:-0.333333 38:-1 39:-1 40:-0.333333 41:0.333333 42:-0.333333 43:-0.333333 44:-1 45:-0.333333 46:-0.333333 47:-0.333333 48:-1 49:-1 50:0.333333 51:1 52:-0.333333 53:0.333333 54:-0.333333 55:-0.333333 56:0.333333 57:0.333333 58:-1 59:-0.333333 60:-0.333333 
