svm_type c_svc
kernel_type polynomial
degree 3
gamma 0.0166667
coef0 0
nr_class 2
total_sv 1871
rho -0.340711
label 1 -1
nr_sv 1004 867
SV
3.61099174127085 1:-0.333333 2:-0.333333 3:1 4:-1 5:-1 6:-0.333333 7:-1 8:-0.333333 9:-1 10:-1 11:-1 12:1 13:-1 14:-0.333333 15:1 16:-0.333333 17:1 18:1 19:-0.333333 20:-1 21:1 22:1 23:1 24:1 25:-1 26:-0.333333 27:-0.333333 28:-0.333333 29:-1 30:-0.333333 31:-1 32:-1 33:1 34:-1 35:-1 36:0.333333 37:1 38:0.333333 39:-1 40:-0.333333 41:0.333333 42:-1 43:-1 44:1 45:1 46:-0.333333 47:-0.333333 48:-1 49:1 50:0.333333 51:1 52:-0.333333 53:-0.333333 54:1 55:-1 56:1 57:-0.333333 58:1 59:-0.333333 60:1 
4.35667140755105 1:1 2:0.333333 3:-1 4:0.333333 5:-1 6:1 7:1 8:-1 9:-0.333333 10:-1 11:1 12:-0.333333 13:0.333333 14:-1 15:-1 16:-1 17:1 18:-0.333333 19:0.333333 20:1 21:-0.333333 22:-1 23:0.333333 24:-1 25:1 26:-1 27:-0.333333 28:-0.333333 29:-0.333333 30:-1 31:-1 32:1 33:-0.333333 34:-0.333333 35:-1 36:-1 37:0.333333 38:0.333333 39:-1 40:0.333333 41:0.333333 42:1 43:0.333333 44:-1 45:-0.333333 46:0.333333 47:-1 48:-1 49:-1 50:0.333333 51:-0.333333 52:-1 53:-1 54:-0.333333 55:0.333333 56:-1 57:-0.333333 58:-0.333333 59:1 60:-1 
3.650369967779111 1:1 2:1 3:-0.333333 4:-1 5:-1 6:0.333333 7:1 8:0.333333 9:1 10:0.333333 11:1 12:-0.333333 13:-1 14:-0.333333 15:-1 16:1 17:-1 18:-1 19:-1 20:0.333333 21:-0.333333 22:-0.333333 23:-1 24:-0.333333 25:-1 26:1 27:-0.333333 28:0.333333 29:-1 30:-0.333333 31:-0.333333 32:-0.333333 33:1 34:0.333333 35:-1 36:-1 37:-1 38:0.333333 39:1 40:-1 41:0.333333 42:-1 43:1 44:-1 45:-1 46:-1 47:1 48:-0.333333 49:0.333333 50:0.333333 51:-1 52:-0.333333 53:0.333333 54:1 55:-1 56:1 57:-1 58:1 59:1 60:-0.333333 
1.589468538998126 1:1 2:1 3:-0.333333 4:-0.333333 5:-1 6:-1 7:1 8:0.333333 9:0.333333 10:-1 11:0.333333 12:0.333333 13:-1 14:-0.333333 15:0.333333 16:1 17:-1 18:0.333333 19:-1 20:1 21:0.333333 22:0.333333 23:-1 24:-0.333333 25:0.333333 26:1 27:0.333333 28:0.333333 29:0.333333 30:1 31:-0.333333 32:-1 33:-0.333333 34:-0.333333 35:0.333333 36:-1 37:-0.333333 38:-0.333333 39:1 40:-1 41:-1 42:1 43:0.333333 44:0.333333 45:-1 46:1 47:-0.333333 48:-1 49:1 50:-0.333333 51:1 52:1 53:1 54:1 55:-1 56:0.333333 57:-1 58:1 59:0.333333 60:0.333333 
11.87065977048384 1:-1 2:-0.333333 3:0.333333 4:0.333333 5:0.333333 6:0.333333 7:-0.333333 8:-0.333333 9:0.333333 10:1 11:-0.333333 12:-0.333333 13:-0.333333 14:1 15:-1 16:0.333333 17:-0.333333 18:0.333333 19:-1 20:0.333333 21:0.333333 22:0.333333 23:-0.333333 24:0.333333 25:1 26:-0.333333 27:-0.333333 28:-0.333333 29:0.333333 30:-1 31:0.333333 32:1 33:-0.333333 34:0.333333 35:1 36:-0.333333 37:0.333333 38:1 39:-0.333333 40:0.333333 41:1 42:0.333333 43:1 44:1 45:0.333333 46:1 47:-0.333333 48:-0.333333 49:0.333333 50:1 51:0.333333 52:-0.333333 53:-0.333333 54:0.333333 55:1 56:-0.333333 57:-0.333333 58:0.333333 59:1 60:0.333333 
5.641394927722701 1:-1 2:-0.333333 3:-0.333333 4:-0.333333 5:0.333333 6:-1 7:0.333333 8:1 9:-0.333333 10:1 11:-0.333333 12:-0.333333 13:1 14:-1 15:-0.333333 16:-0.333333 17:0.333333 18:-1 19:0.333333 20:0.333333 21:1 22:-1 23:1 24:-1 25:-0.333333 26:1 27:0.333333 28:0.333333 29:0.333333 30:-1 31:-0.333333 32:0.333333 33:1 34:-1 35:0.333333 36:1 37:1 38:-0.333333 39:-0.333333 40:-0.333333 41:-1 42:-0.333333 43:-0.333333 44:0.333333 45:1 46:-0.333333 47:-1 48:-0.333333 49:-0.333333 50:0.333333 51:-1 52:-1 53:-0.333333 54:-1 55:-0.333333 56:-1 57:-1 58:1 59:1 60:-0.333333 
11.32063942732001 1:0.333333 2:0.333333 3:-0.333333 4:-0.333333 5:-0.333333 6:1 7:-0.333333 8:-1 9:-1 10:0.333333 11:-0.333333 12:1 13:-0.333333 14:-0.333333 15:-1 16:-0.333333 17:-1 18:-0.333333 19:-1 20:0.333333 21:1 22:-0.333333 23:-0.333333 24:-0.333333 25:0.333333 26:0.333333 27:0.333333 28:0.333333 29:0.333333 30:0.333333 31:-0.333333 32:-0.333333 33:-1 34:0.333333 35:0.333333 36:-1 37:-0.333333 38:0.333333 39:-0.333333 40:-0.333333 41:-0.333333 42:-1 43:1 44:1 45:1 46:-0.333333 47:0.333333 48:1 49:-0.333333 50:-0.333333 51:-0.333333 52:0.333333 53:0.333333 54:1 55:0.333333 56:0.333333 57:1 58:-0.333333 59:-0.333333 60:1 
10.66604757198927 1:-0.333333 2:-0.333333 3:-0.333333 4:0.333333 5:1 6:1 7:0.333333 8:1 9:0.333333 10:0.333333 11:-1 12:-0.333333 13:1 14:1 15:-0.333333 16:0.333333 17:1 18:-1 19:-0.333333 20:0.333333 21:1 22:1 23:1 24:0.333333 25:-1 26:-0.333333 27:1 28:1 29:1 30:0.333333 31:1 32:1 33:-1 34:-0.333333 35:0.333333 36:0.333333 37:0.333333 38:1 39:-0.333333 40:1 41:-0.333333 42:0.333333 43:-1 44:-0.333333 45:-1 46:-0.333333 47:0.333333 48:0.333333 49:0.333333 50:-0.333333 51:-1 52:-0.333333 53:1 54:-0.333333 55:0.333333 56:-0.333333 57:0.333333 58:-0.333333 59:0.333333 60:1 
64.8344946151111 1:1 2:0.333333 3:0.333333 4:0.333333 5:1 6:0.333333 7:0.333333 8:-1 9:1 10:1 11:-0.333333 12:0.333333 13:0.333333 14:0.333333 15:1 16:0.333333 17:0.333333 18:-0.333333 19:-0.333333 20:1 21:1 22:1 23:0.333333 24:1 25:0.333333 26:0.333333 27:0.333333 28:0.333333 29:-1 30:-0.333333 31:-0.333333 32:0.333333 33:1 34:0.333333 35:0.333333 36:0.333333 37:-0.333333 38:-0.333333 39:-1 40:0.333333 41:-0.333333 42:1 43:0.333333 44:0.333333 45:0.333333 46:1 47:-0.333333 48:0.333333 49:1 50:0.333333 51:0.333333 52:1 53:-0.333333 54:-0.333333 55:0.333333 56:1 57:1 58:1 59:1 60:-0.333333 
3.3541526533357 1:1 2:-0.333333 3:0.333333 4:1 5:0.333333 6:1 7:-1 8:0.333333 9:1 10:-0.333333 11:0.333333 12:1 13:1 14:0.333333 15:-1 16:-0.333333 17:-0.333333 18:-1 19:-1 20:-0.333333 21:-0.333333 22:-1 23:0.333333 24:-1 25:1 26:-0.333333 27:-0.333333 28:-1 29:0.333333 30:-1 31:-1 32:-0.333333 33:-0.333333 34:1 35:0.333333 36:-0.333333 37:-1 38:-0.333333 39:-1 40:0.333333 41:-1 42:1 43:1 44:0.333333 45:0.333333 46:1 47:-0.333333 48:0.333333 49:-0.333333 50:0.333333 51:-1 52:1 53:0.333333 54:-0.333333 55:1 56:-0.333333 57:0.333333 58:-1 59:-0.333333 60:1 
5.113841390690299 1:0.333333 2:1 3:0.333333 4:1 5:1 6:1 7:-0.333333 8:1 9:0.333333 10:0.333333 11:1 12:1 13:1 14:-0.333333 15:-0.333333 16:-0.333333 17:0.333333 18:0.333333 19:0.333333 20:1 21:1 22:-0.333333 23:-0.333333 24:1 25:-0.333333 26:-0.333333 27:-1 28:-0.333333 29:-1 30:-1 31:0.333333 32:-1 33:-0.333333 34:1 35:-0.333333 36:0.333333 37:-1 38:1 39:0.333333 40:0.333333 41:1 42:1 43:0.333333 44:-1 45:-0.333333 46:-1 47:-1 48:0.333333 49:-1 50:-0.333333 51:1 52:-0.333333 53:0.333333 54:-1 55:1 56:0.333333 57:1 58:1 59:-1 60:-1 
13.99488570891568 1:-0.333333 2:-0.333333 3:-0.333333 4:-1 5:1 6:0.333333 7:0.333333 8:-1 9:0.333333 10:1 11:0.333333 12:-1 13:-1 14:-0.333333 15:-0.333333 16:0.333333 17:1 18:0.333333 19:0.333333 20:0.333333 21:1 22:1 23:-0.333333 24:0.333333 25:0.333333 26:0.333333 27:-1 28:0.333333 29:-1 30:-0.333333 31:-0.333333 32:1 33:0.333333 34:0.333333 35:1 36:0.333333 37:-1 38:1 39:-0.333333 40:0.333333 41:0.333333 42:1 43:0.333333 44:1 45:0.333333 46:0.333333 47:1 48:0.333333 49:0.333333 50:1 51:0.333333 52:1 53:1 54:-0.333333 55:0.333333 56:1 57:-0.333333 58:0.333333 59:1 60:0.333333 
19.05694730892893 1:1 2:-0.333333 3:0.333333 4:1 5:1 6:-0.333333 7:-0.333333 8:-0.333333 9:0.333333 10:1 11:1 12:0.333333 13:-1 14:-0.333333 15:-0.333333 16:-0.333333 17:0.333333 18:1 19:-0.333333 20:0.333333 21:0.333333 22:1 23:-0.333333 24:-0.333333 25:0.333333 26:1 27:-0.333333 28:0.333333 29:-1 30:-0.333333 31:-0.333333 32:1 33:-0.333333 34:0.333333 35:-0.333333 36:1 37:0.333333 38:0.333333 39:-0.333333 40:-0.333333 41:-0.333333 42:-0.333333 43:-1 44:-0.333333 45:-0.333333 46:1 47:1 48:1 49:1 50:0.333333 51:1 52:0.333333 53:0.333333 54:-1 55:1 56:-1 57:-1 58:-1 59:0.333333 60:1 
5.232043113149228 1:1 2:0.333333 3:1 4:-1 5:1 6:1 7:-1 8:-1 9:-1 10:1 11:1 12:0.333333 13:0.333333 14:1 15:-0.333333 16:-1 17:1 18:1 19:1 20:1 21:-1 22:1 23:1 24:1 25:0.333333 26:1 27:-0.333333 28:1 29:-1 30:-0.333333 31:-0.333333 32:-1 33:0.333333 34:1 35:-0.333333 36:-1 37:-1 38:0.333333 39:-0.333333 40:1 41:0.333333 42:1 43:1 44:-0.333333 45:0.333333 46:1 47:0.333333 48:-0.333333 49:-1 50:-0.333333 51:-1 52:1 53:-0.333333 54:1 55:-0.333333 56:-1 57:1 58:-0.333333 59:-1 60:-1 
1.825173063093672 1:1 2:0.333333 3:1 4:-1 5:-0.333333 6:-1 7:-1 8:-0.333333 9:-0.333333 10:-0.333333 11:0.333333 12:1 13:-0.333333 14:-1 15:-0.333333 16:-1 17:0.333333 18:0.333333 19:-1 20:1 21:-0.333333 22:0.333333 23:-1 24:1 25:1 26:1 27:1 28:1 29:0.333333 30:-1 31:0.333333 32:-1 33:-0.333333 34:0.333333 35:1 36:-0.333333 37:1 38:-1 39:1 40:0.333333 41:0.333333 42:0.333333 43:0.333333 44:1 45:-1 46:-0.333333 47:-1 48:-1 49:0.333333 50:-1 51:-0.333333 52:1 53:-0.333333 54:0.333333 55:0.333333 56:1 57:-0.333333 58:-1 59:1 60:-1 
2.509055672839707 1:-0.333333 2:1 3:1 4:0.333333 5:1 6:-1 7:-0.333333 8:-1 9:0.333333 10:0.333333 11:1 12:0.333333 13:1 14:0.333333 15:0.333333 16:-1 17:0.333333 18:-0.333333 19:-1 20:-1 21:1 22:-0.333333 23:1 24:0.333333 25:1 26:-1 27:0.333333 28:-1 29:-0.333333 30:0.333333 31:-1 32:-1 33:0.333333 34:1 35:1 36:-0.333333 37:1 38:-1 39:0.333333 40:-1 41:-1 42:0.333333 43:1 44:-0.333333 45:-0.333333 46:1 47:0.333333 48:0.333333 49:-0.333333 50:0.333333 51:0.333333 52:1 53:0.333333 54:0.333333 55:1 56:-1 57:0.333333 58:-1 59:-0.333333 60:1 
3.796546540393197 1:-0.333333 2:-1 3:-0.333333 4:0.333333 5:1 6:-0.333333 7:-1 8:-0.333333 9:0.333333 10:-1 11:-0.333333 12:0.333333 13:0.333333 14:1 15:-0.333333 16:-1 17:-0.333333 18:-1 19:1 20:0.333333 21:1 22:-0.333333 23:-1 24:-0.333333 25:-0.333333 26:-1 27:0.333333 28:-1 29:0.333333 30:-0.333333 31:-0.333333 32:0.333333 33:0.333333 34:-0.333333 35:1 36:-0.333333 37:1 38:-1 39:1 40:1 41:-1 42:0.333333 43:1 44:-0.333333 45:1 46:-0.333333 47:0.333333 48:-0.333333 49:-1 50:0.333333 51:0.333333 52:-0.333333 53:0.333333 54:-1 55:-1 56:0.333333 57:1 58:-0.333333 59:-0.333333 60:-1 
45.22707693023275 1:0.333333 2:-0.333333 3:-0.333333 4:0.333333 5:-0.333333 6:-1 7:-0.333333 8:0.333333 9:-0.333333 10:-0.333333 11:-0.333333 12:0.333333 13:-0.333333 14:-0.333333 15:-0.333333 16:0.333333 17:-1 18:-0.333333 19:-1 20:0.333333 21:-0.333333 22:-0.333333 23:-1 24:0.333333 25:0.333333 26:-0.333333 27:-1 28:0.333333 29:-0.333333 30:-0.333333 31:-1 32:0.333333 33:1 34:0.333333 35:-0.333333 36:0.333333 37:-0.333333 38:0.333333 39:0.333333 40:-0.333333 41:0.333333 42:-0.333333 43:1 44:0.333333 45:0.333333 46:-1 47:0.333333 48:0.333333 49:1 50:-0.333333 51:1 52:0.333333 53:-0.333333 54:-0.333333 55:0.333333 56:0.333333 57:-0.333333 58:-0.333333 59:-0.333333 60:0.333333 
1.532140513253362 1:1 2:-0.333333 3:1 4:1 5:-1 6:0.333333 7:1 8:-1 9:-0.333333 10:-1 11:-0.333333 12:-1 13:-1 14:-0.333333 15:1 16:1 17:1 18:0.333333 19:1 20:0.333333 21:1 22:-0.333333 23:-1 24:-1 25:0.333333 26:-0.333333 27:1 28:-0.333333 29:1 30:-1 31:-0.333333 32:-1 33:-0.333333 34:0.333333 35:-1 36:0.333333 37:0.333333 38:-0.333333 39:-1 40:-0.333333 41:-1 42:-1 43:0.333333 44:0.333333 45:1 46:-1 47:0.333333 48:-1 49:-1 50:-1 51:-1 52:1 53:-1 54:0.333333 55:0.333333 56:-1 57:1 58:-0.333333 59:-1 60:-1 
6.949647866546585 1:-1 2:-0.333333 3:-0.333333 4:-0.333333 5:0.333333 6:-1 7:0.333333 8:-1 9:-0.333333 10:-1 11:1 12:-0.333333 13:1 14:1 15:-1 16:0.333333 17:-1 18:-0.333333 19:0.333333 20:1 21:0.333333 22:-1 23:-0.333333 24:-0.333333 25:0.333333 26:0.333333 27:0.333333 28:0.333333 29:-1 30:-0.333333 31:-0.333333 32:-0.333333 33:0.333333 34:0.333333 35:-1 36:-0.333333 37:0.333333 38:1 39:0.333333 40:0.333333 41:-1 42:-0.333333 43:-0.333333 44:0.333333 45:1 46:-1 47:-0.333333 48:1 49:1 50:-1 51:0.333333 52:0.333333 53:1 54:-0.333333 55:1 56:-0.333333 57:-1 58:-0.333333 59:-0.333333 60:0.333333 
3.52681739320003 1:-0.333333 2:0.333333 3:-0.333333 4:-0.333333 5:-0.333333 6:0.333333 7:0.333333 8:0.333333 9:1 10:-0.333333 11:0.333333 12:0.333333 13:-0.333333 14:-0.333333 15:-1 16:0.333333 17:1 18:1 19:1 20:-1 21:-0.333333 22:1 23:-0.333333 24:0.333333 25:1 26:1 27:1 28:-1 29:-0.333333 30:-0.333333 31:-0.333333 32:-0.333333 33:1 34:1 35:-1 36:-1 37:1 38:1 39:1 40:0.333333 41:-0.333333 42:-0.333333 43:-0.333333 44:0.333333 45:1 46:-0.333333 47:-1 48:0.333333 49:-1 50:-0.333333 51:-0.333333 52:-0.333333 53:-1 54:0.333333 55:-0.333333 56:-0.333333 57:-1 58:-0.333333 59:0.333333 60:0.333333 
6.335050435699308 1:-0.333333 2:-1 3:-0.333333 4:-0.333333 5:-0.333333 6:-0.333333 7:1 8:1 9:0.333333 10:0.333333 11:1 12:1 13:0.333333 14:0.333333 15:-1 16:0.333333 17:1 18:1 19:0.333333 20:1 21:-0.333333 22:-0.333333 23:-0.333333 24:-0.333333 25:0.333333 26:0.333333 27:-1 28:0.333333 29:0.333333 30:1 31:0.333333 32:1 33:-0.333333 34:-0.333333 35:-1 36:1 37:0.333333 38:0.333333 39:0.333333 40:-0.333333 41:1 42:1 43:0.333333 44:-1 45:-0.333333 46:-1 47:-1 48:-1 49:-1 50:0.333333 51:0.333333 52:-1 53:0.333333 54:1 55:1 56:1 57:-1 58:1 59:1 60:-0.333333 
4.069310685536776 1:-0.333333 2:-1 3:-0.333333 4:0.333333 5:1 6:0.333333 7:-1 8:1 9:1 10:1 11:1 12:1 13:1 14:-1 15:-1 16:-1 17:-1 18:-1 19:1 20:0.333333 21:0.333333 22:-1 23:-1 24:1 25:1 26:1 27:-0.333333 28:1 29:-1 30:0.333333 31:-1 32:1 33:1 34:-1 35:-0.333333 36:-1 37:0.333333 38:1 39:-1 40:-1 41:-1 42:0.333333 43:-0.333333 44:1 45:-0.333333 46:-1 47:-1 48:-1 49:1 50:1 51:-1 52:1 53:0.333333 54:1 55:0.333333 56:1 57:1 58:-1 59:1 60:1 
10.30594198858799 1:-0.333333 2:1 3:-0.333333 4:-0.333333 5:0.333333 6:0.333333 7:-0.333333 8:-1 9:0.333333 10:0.333333 11:-1 12:-0.333333 13:-0.333333 14:1 15:-0.333333 16:-0.333333 17:0.333333 18:-0.333333 19:0.333333 20:1 21:-0.333333 22:0.333333 23:1 24:-0.333333 25:0.333333 26:-0.333333 27:0.333333 28:-1 29:1 30:-0.333333 31:-1 32:-0.333333 33:0.333333 34:1 35:-0.333333 36:-0.333333 37:-1 38:-0.333333 39:0.333333 40:-0.333333 41:-1 42:-0.333333 43:0.333333 44:1 45:0.333333 46:1 47:1 48:0.333333 49:-0.333333 50:1 51:-0.333333 52:0.333333 53:1 54:-0.333333 55:-1 56:-1 57:0.333333 58:-0.333333 59:0.333333 60:-0.333333 
13.92072121422603 1:-0.333333 2:0.333333 3:1 4:-0.333333 5:-0.333333 6:-0.333333 7:0.333333 8:0.333333 9:0.333333 10:1 11:-0.333333 12:-0.333333 13:-0.333333 14:0.333333 15:1 16:1 17:0.333333 18:1 19:-1 20:0.333333 21:0.333333 22:0.333333 23:1 24:-0.333333 25:0.333333 26:-0.333333 27:-0.333333 28:-1 29:-0.333333 30:-1 31:1 32:0.333333 33:-1 34:0.333333 35:-1 36:0.333333 37:1 38:-0.333333 39:-1 40:0.333333 41:0.333333 42:1 43:-0.333333 44:-0.333333 45:0.333333 46:-1 47:-0.333333 48:0.333333 49:-0.333333 50:-0.333333 51:-0.333333 52:-1 53:1 54:-0.333333 55:-0.333333 56:0.333333 57:-0.333333 58:-1 59:-0.333333 60:-0.333333 
3.268482137328938 1:-1 2:0.333333 3:-1 4:-1 5:-0.333333 6:1 7:0.333333 8:-1 9:1 10:0.333333 11:1 12:0.333333 13:1 14:0.333333 15:1 16:-0.333333 17:-1 18:-1 19:1 20:1 21:1 22:1 23:1 24:1 25:-0.333333 26:1 27:-1 28:0.333333 29:1 30:1 31:1 32:-0.333333 33:-1 34:-0.333333 35:-1 36:-0.333333 37:1 38:-1 39:1 40:1 41:1 42:-0.333333 43:1 44:1 45:-1 46:1 47:-1 48:1 49:1 50:1 51:-0.333333 52:0.333333 53:-1 54:-1 55:-0.333333 56:-1 57:1 58:-0.333333 59:-1 60:-1 
3.606948509384263 1:1 2:0.333333 3:1 4:-0.333333 5:-1 6:-1 7:1 8:-0.333333 9:0.333333 10:-1 11:1 12:1 13:1 14:-0.333333 15:1 16:-1 17:1 18:-0.333333 19:1 20:0.333333 21:1 22:0.333333 23:0.333333 24:-1 25:-0.333333 26:-1 27:-1 28:-0.333333 29:-1 30:-1 31:-0.333333 32:-1 33:0.333333 34:1 35:-0.333333 36:1 37:-1 38:-0.333333 39:0.333333 40:0.333333 41:-1 42:1 43:0.333333 44:-1 45:1 46:1 47:0.333333 48:-1 49:-0.333333 50:-1 51:-1 52:-0.333333 53:-1 54:1 55:0.333333 56:1 57:0.333333 58:1 59:-0.333333 60:1 
1.74421854338271 1:0.333333 2:0.333333 3:1 4:0.333333 5:1 6:-1 7:1 8:0.333333 9:0.333333 10:-0.333333 11:1 12:-1 13:1 14:1 15:-1 16:-0.333333 17:-0.333333 18:1 19:0.333333 20:1 21:1 22:1 23:-0.333333 24:-1 25:-0.333333 26:-1 27:-0.333333 28:0.333333 29:1 30:-0.333333 31:-0.333333 32:-1 33:1 34:-0.333333 35:0.333333 36:-1 37:0.333333 38:0.333333 39:-1 40:1 41:1 42:-0.333333 43:-0.333333 44:0.333333 45:1 46:0.333333 47:0.333333 48:1 49:-0.333333 50:1 51:1 52:1 53:-0.333333 54:-1 55:-1 56:-1 57:1 58:-0.333333 59:-1 60:-0.333333 
5.371662824189092 1:0.333333 2:-0.333333 3:0.333333 4:0.333333 5:1 6:1 7:-0.333333 8:-1 9:-0.333333 10:-0.333333 11:-1 12:-0.333333 13:0.333333 14:1 15:-1 16:-0.333333 17:-1 18:0.333333 19:1 20:1 21:-0.333333 22:-0.333333 23:0.333333 24:0.333333 25:-1 26:1 27:0.333333 28:1 29:-1 30:0.333333 31:-1 32:-1 33:1 34:-1 35:-0.333333 36:0.333333 37:-1 38:1 39:0.333333 40:-1 41:-1 42:1 43:-0.333333 44:-0.333333 45:1 46:-0.333333 47:0.333333 48:0.333333 49:-1 50:1 51:0.333333 52:-1 53:0.333333 54:0.333333 55:0.333333 56:-1 57:-0.333333 58:1 59:1 60:0.333333 
0.6072418894094443 1:-1 2:-0.333333 3:-1 4:1 5:0.333333 6:-1 7:-0.333333 8:1 9:-1 10:-1 11:-1 12:-0.333333 13:-1 14:-1 15:0.333333 16:-0.333333 17:1 18:-0.333333 19:-0.333333 20:1 21:0.333333 22:-1 23:-0.333333 24:-1 25:-0.333333 26:1 27:-1 28:-0.333333 29:-1 30:-1 31:0.333333 32:0.333333 33:0.333333 34:0.333333 35:1 36:-0.333333 37:-1 38:-1 39:-0.333333 40:1 41:-1 42:1 43:1 44:1 45:1 46:1 47:1 48:-1 49:-1 50:1 51:0.333333 52:0.333333 53:1 54:-1 55:0.333333 56:0.333333 57:1 58:0.333333 59:-1 60:-1 
3.211999439997632 1:-0.333333 2:-1 3:-1 4:-0.333333 5:1 6:0.333333 7:-1 8:-1 9:-1 10:0.333333 11:-1 12:1 13:1 14:1 15:0.333333 16:-1 17:-1 18:-1 19:-0.333333 20:1 21:1 22:1 23:-0.333333 24:-0.333333 25:-1 26:1 27:1 28:-0.333333 29:0.333333 30:-1 31:1 32:0.333333 33:-1 34:-1 35:-0.333333 36:1 37:-0.333333 38:-0.333333 39:0.333333 40:-1 41:1 42:-0.333333 43:1 44:-0.333333 45:0.333333 46:1 47:-0.333333 48:1 49:-0.333333 50:-1 51:0.333333 52:0.333333 53:-1 54:1 55:1 56:1 57:-1 58:1 59:-1 60:-1 
3.385786768700293 1:0.333333 2:1 3:1 4:0.333333 5:-1 6:1 7:1 8:1 9:-1 10:-1 11:0.333333 12:1 13:0.333333 14:-1 15:-1 16:0.333333 17:1 18:-1 19:1 20:-1 21:-0.333333 22:-1 23:-1 24:1 25:1 26:-1 27:1 28:1 29:-1 30:-0.333333 31:-0.333333 32:0.333333 33:1 34:-0.333333 35:-0.333333 36:1 37:-0.333333 38:0.333333 39:-0.333333 40:0.333333 41:-1 42:-1 43:-0.333333 44:1 45:-0.333333 46:-1 47:0.333333 48:1 49:-0.333333 50:0.333333 51:-1 52:-0.333333 53:1 54:1 55:1 56:1 57:1 58:-1 59:0.333333 60:0.333333 
4.135082858099241 1:-0.333333 2:-0.333333 3:1 4:-0.333333 5:1 6:0.333333 7:-1 8:-0.333333 9:-0.333333 10:1 11:-0.333333 12:-0.333333 13:-0.333333 14:-1 15:-0.333333 16:1 17:-1 18:0.333333 19:1 20:-0.333333 21:0.333333 22:-1 23:-1 24:0.333333 25:0.333333 26:1 27:-0.333333 28:-1 29:0.333333 30:-0.333333 31:0.333333 32:-1 33:-1 34:1 35:-0.333333 36:0.333333 37:1 38:0.333333 39:-1 40:-0.333333 41:-1 42:0.333333 43:-0.333333 44:0.333333 45:-1 46:-0.333333 47:-1 48:-1 49:-0.333333 50:-0.333333 51:-0.333333 52:-1 53:0.333333 54:1 55:-0.333333 56:0.333333 57:0.333333 58:-0.333333 59:1 60:0.333333 
1.21844082985979 1:0.333333 2:1 3:1 4:-1 5:-0.333333 6:-1 7:-0.333333 8:1 9:-1 10:-0.333333 11:1 12:1 13:-1 14:-1 15:-1 16:-1 17:1 18:1 19:1 20:1 21:0.333333 22:-1 23:-1 24:-1 25:0.333333 26:1 27:-0.333333 28:-1 29:-0.333333 30:-1 31:1 32:1 33:1 34:1 35:-1 36:-1 37:-1 38:-1 39:0.333333 40:1 41:-0.333333 42:1 43:-1 44:-1 45:1 46:1 47:1 48:-1 49:1 50:1 51:1 52:-1 53:-1 54:-1 55:-0.333333 56:-0.333333 57:-0.333333 58:1 59:1 60:-1 
27.54661343734248 1:1 2:-1 3:1 4:-0.333333 5:-0.333333 6:-0.333333 7:0.333333 8:-1 9:-0.333333 10:0.333333 11:1 12:0.333333 13:-0.333333 14:1 15:0.333333 16:1 17:1 18:0.333333 19:-1 20:0.333333 21:0.333333 22:-0.333333 23:1 24:0.333333 25:-1 26:-1 27:-0.333333 28:-0.333333 29:-1 30:-0.333333 31:-0.333333 32:1 33:-1 34:0.333333 35:-0.333333 36:-0.333333 37:-0.333333 38:0.333333 39:0.333333 40:-0.333333 41:-0.333333 42:-0.333333 43:-0.333333 44:-0.333333 45:-0.333333 46:1 47:-0.333333 48:-0.333333 49:-0.333333 50:0.333333 51:-0.333333 52:-0.333333 53:0.333333 54:0.333333 55:1 56:0.333333 57:-1 58:0.333333 59:-0.333333 60:-0.333333 
3.135436229425088 1:0.333333 2:-0.333333 3:1 4:0.333333 5:1 6:-0.333333 7:0.333333 8:0.333333 9:0.333333 10:0.333333 11:1 12:-0.333333 13:0.333333 14:-1 15:-0.333333 16:0.333333 17:1 18:-0.333333 19:-0.333333 20:-1 21:1 22:-0.333333 23:-1 24:1 25:-0.333333 26:0.333333 27:1 28:-0.333333 29:1 30:1 31:0.333333 32:-0.333333 33:-0.333333 34:0.333333 35:0.333333 36:1 37:-0.333333 38:-1 39:-0.333333 40:0.333333 41:-1 42:-1 43:-0.333333 44:-1 45:-1 46:-0.333333 47:-0.333333 48:-1 49:-0.333333 50:-1 51:-1 52:-0.333333 53:-1 54:-0.333333 55:-0.333333 56:-1 57:-1 58:-0.333333 59:-0.333333 60:-1 
202.6149421782312 1:-0.333333 2:-1 3:0.333333 4:0.333333 5:1 6:0.333333 7:1 8:0.333333 9:0.333333 10:1 11:1 12:0.333333 13:1 14:0.333333 15:1 16:1 17:0.333333 18:0.333333 19:1 20:1 21:0.333333 22:-1 23:0.333333 24:1 25:1 26:1 27:-0.333333 28:0.333333 29:-1 30:-0.333333 31:-1 32:-0.333333 33:-0.333333 34:0.333333 35:1 36:-0.333333 37:-0.333333 38:-1 39:-1 40:-0.333333 41:-1 42:0.333333 43:-0.333333 44:-0.333333 45:0.333333 46:-1 47:-0.333333 48:0.333333 49:0.333333 50:-0.333333 51:0.333333 52:0.333333 53:-0.333333 54:-0.333333 55:-1 56:0.333333 57:1 58:-0.333333 59:-0.333333 60:-0.333333 
3.660282105897413 1:1 2:1 3:-0.333333 4:-1 5:0.333333 6:-1 7:1 8:-1 9:0.333333 10:-1 11:1 12:0.333333 13:0.333333 14:-1 15:-1 16:0.333333 17:-1 18:1 19:1 20:-1 21:-1 22:-1 23:-1 24:-0.333333 25:0.333333 26:0.333333 27:-1 28:0.333333 29:0.333333 30:0.333333 31:0.333333 32:0.333333 33:-1 34:-1 35:-1 36:1 37:-0.333333 38:0.333333 39:0.333333 40:0.333333 41:-1 42:-1 43:-0.333333 44:-1 45:-1 46:-1 47:-1 48:-1 49:-1 50:-1 51:-0.333333 52:-1 53:-1 54:-1 55:-0.333333 56:-1 57:0.333333 58:1 59:1 60:-1 
6.012832784719606 1:0.333333 2:0.333333 3:0.333333 4:-1 5:-1 6:-1 7:1 8:-0.333333 9:1 10:0.333333 11:1 12:0.333333 13:-1 14:-0.333333 15:-1 16:-1 17:1 18:-0.333333 19:1 20:-1 21:1 22:-0.333333 23:1 24:0.333333 25:0.333333 26:0.333333 27:-1 28:-0.333333 29:-1 30:-1 31:-1 32:0.333333 33:0.333333 34:1 35:-0.333333 36:1 37:-0.333333 38:-0.333333 39:0.333333 40:1 41:-0.333333 42:0.333333 43:1 44:1 45:0.333333 46:-1 47:-1 48:0.333333 49:0.333333 50:-1 51:1 52:1 53:-0.333333 54:-1 55:0.333333 56:-1 57:-0.333333 58:1 59:1 60:1 
4.239478433081659 1:-0.333333 2:0.333333 3:0.333333 4:-1 5:1 6:1 7:1 8:0.333333 9:1 10:-1 11:1 12:-0.333333 13:1 14:0.333333 15:0.333333 16:1 17:1 18:1 19:-1 20:1 21:-1 22:1 23:-0.333333 24:0.333333 25:-1 26:1 27:0.333333 28:-1 29:-1 30:-1 31:1 32:-1 33:0.333333 34:1 35:-0.333333 36:1 37:1 38:0.333333 39:1 40:-0.333333 41:-0.333333 42:-1 43:-0.333333 44:0.333333 45:-1 46:-0.333333 47:-1 48:-0.333333 49:-0.333333 50:0.333333 51:-1 52:0.333333 53:0.333333 54:1 55:1 56:1 57:-1 58:-0.333333 59:-1 60:1 
2.295836876823315 1:1 2:1 3:-1 4:1 5:1 6:0.333333 7:-1 8:-1 9:-1 10:1 11:1 12:1 13:1 14:1 15:-0.333333 16:1 17:1 18:-1 19:-0.333333 20:1 21:0.333333 22:1 23:1 24:-0.333333 25:0.333333 26:1 27:-1 28:-1 29:1 30:-0.333333 31:1 32:0.333333 33:1 34:1 35:1 36:1 37:-1 38:1 39:-1 40:-0.333333 41:-0.333333 42:-0.333333 43:-1 44:-1 45:-1 46:-1 47:-1 48:-1 49:-1 50:-1 51:-1 52:-1 53:-1 54:-1 55:-1 56:-1 57:-1 58:-1 59:-0.333333 60:0.333333 
4.132951737028024 1:1 2:-1 3:-1 4:-1 5:1 6:-0.333333 7:1 8:-0.333333 9:1 10:1 11:1 12:0.333333 13:0.333333 14:1 15:-0.333333 16:0.333333 17:-1 18:1 19:-1 20:0.333333 21:-1 22:-0.333333 23:1 24:0.333333 25:-1 26:-1 27:-1 28:-0.333333 29:1 30:1 31:-0.333333 32:0.333333 33:0.333333 34:-1 35:0.333333 36:1 37:1 38:0.333333 39:1 40:1 41:1 42:1 43:1 44:0.333333 45:1 46:1 47:0.333333 48:-1 49:1 50:-1 51:1 52:0.333333 53:-1 54:1 55:0.333333 56:-0.333333 57:-1 58:1 59:0.333333 60:1 
22.48189476029538 1:0.333333 2:0.333333 3:-1 4:-1 5:-0.333333 6:-0.333333 7:0.333333 8:1 9:-0.333333 10:-1 11:0.333333 12:0.333333 13:-0.333333 14:-0.333333 15:-0.333333 16:-0.333333 17:1 18:-0.333333 19:-0.333333 20:-0.333333 21:-0.333333 22:1 23:0.333333 24:1 25:0.333333 26:0.333333 27:-0.333333 28:0.333333 29:-1 30:-0.333333 31:-0.333333 32:1 33:-1 34:-1 35:0.333333 36:1 37:-0.333333 38:1 39:-0.333333 40:0.333333 41:1 42:-0.333333 43:-1 44:-0.333333 45:-0.333333 46:-0.333333 47:1 48:0.333333 49:1 50:-0.333333 51:-0.333333 52:-0.333333 53:1 54:-1 55:0.333333 56:-0.333333 57:-1 58:-1 59:0.333333 60:1 
1.589881243162704 1:1 2:-0.333333 3:1 4:1 5:1 6:1 7:1 8:-1 9:1 10:1 11:0.333333 12:0.333333 13:0.333333 14:0.333333 15:-1 16:0.333333 17:1 18:-1 19:0.333333 20:1 21:0.333333 22:1 23:1 24:0.333333 25:1 26:0.333333 27:1 28:0.333333 29:1 30:-1 31:1 32:0.333333 33:-1 34:-0.333333 35:-1 36:1 37:-1 38:0.333333 39:0.333333 40:-1 41:1 42:1 43:1 44:-1 45:1 46:-0.333333 47:-1 48:-0.333333 49:-1 50:0.333333 51:-1 52:1 53:1 54:0.333333 55:1 56:1 57:-0.333333 58:0.333333 59:1 60:-1 
9.244660581714472 1:-0.333333 2:-0.333333 3:1 4:-0.333333 5:0.333333 6:-1 7:-1 8:1 9:0.333333 10:-0.333333 11:-0.333333 12:0.333333 13:-1 14:-0.333333 15:1 16:0.333333 17:0.333333 18:-1 19:-0.333333 20:-0.333333 21:-1 22:0.333333 23:0.333333 24:1 25:-0.333333 26:0.333333 27:-1 28:-0.333333 29:-0.333333 30:0.333333 31:0.333333 32:0.333333 33:0.333333 34:-1 35:-0.333333 36:-1 37:-0.333333 38:-0.333333 39:-1 40:0.333333 41:0.333333 42:1 43:-0.333333 44:1 45:1 46:-0.333333 47:-0.333333 48:-1 49:0.333333 50:0.333333 51:0.333333 52:-1 53:-0.333333 54:1 55:-0.333333 56:-0.333333 57:-1 58:0.333333 59:0.333333 60:1 
5.655660299162001 1:-0.333333 2:1 3:1 4:0.333333 5:-1 6:-0.333333 7:-1 8:-0.333333 9:-0.333333 10:1 11:-1 12:-1 13:-0.333333 14:-1 15:-0.333333 16:-0.333333 17:-0.333333 18:-1 19:-1 20:-0.333333 21:-0.333333 22:0.333333 23:1 24:1 25:-0.333333 26:-1 27:-0.333333 28:-1 29:-0.333333 30:-0.333333 31:-1 32:0.333333 33:0.333333 34:1 35:-0.333333 36:-0.333333 37:1 38:1 39:0.333333 40:-1 41:1 42:0.333333 43:1 44:-0.333333 45:-0.333333 46:0.333333 47:0.333333 48:1 49:1 50:1 51:0.333333 52:1 53:1 54:0.333333 55:-0.333333 56:-0.333333 57:-1 58:1 59:-0.333333 60:-1 
8.611010151100613 1:0.333333 2:1 3:-1 4:0.333333 5:-1 6:1 7:-0.333333 8:-0.333333 9:-0.333333 10:0.333333 11:1 12:0.333333 13:0.333333 14:-1 15:-0.333333 16:-0.333333 17:-0.333333 18:-0.333333 19:0.333333 20:-1 21:-0.333333 22:0.333333 23:-1 24:0.333333 25:0.333333 26:-0.333333 27:-1 28:-1 29:-0.333333 30:-1 31:0.333333 32:0.333333 33:-1 34:-0.333333 35:-1 36:1 37:-0.333333 38:-0.333333 39:0.333333 40:0.333333 41:-1 42:-1 43:-0.333333 44:-0.333333 45:1 46:-0.333333 47:0.333333 48:1 49:1 50:0.333333 51:-1 52:-0.333333 53:1 54:1 55:1 56:-1 57:-1 58:1 59:-0.333333 60:-1 
4.48765283015415 1:-1 2:-0.333333 3:-1 4:1 5:1 6:1 7:1 8:-0.333333 9:-0.333333 10:-0.333333 11:-1 12:-1 13:-1 14:-1 15:-1 16:-0.333333 17:1 18:-1 19:-1 20:1 21:0.333333 22:1 23:-0.333333 24:0.333333 25:1 26:1 27:-1 28:1 29:-0.333333 30:1 31:-0.333333 32:0.333333 33:-1 34:0.333333 35:-1 36:-1 37:-1 38:-1 39:1 40:-0.333333 41:-0.333333 42:-1 43:1 44:1 45:0.333333 46:-1 47:-1 48:-0.333333 49:1 50:1 51:1 52:-0.333333 53:0.333333 54:-1 55:-0.333333 56:-1 57:1 58:-1 59:-1 60:-1 
2.970596325108675 1:1 2:1 3:0.333333 4:0.333333 5:1 6:1 7:-1 8:0.333333 9:-1 10:-0.333333 11:0.333333 12:0.333333 13:1 14:-0.333333 15:0.333333 16:-1 17:0.333333 18:1 19:0.333333 20:1 21:-0.333333 22:-1 23:1 24:-0.333333 25:1 26:1 27:-0.333333 28:-0.333333 29:0.333333 30:-1 31:0.333333 32:-1 33:-0.333333 34:-0.333333 35:0.333333 36:1 37:-0.333333 38:1 39:-1 40:1 41:-1 42:1 43:0.333333 44:-1 45:1 46:-0.333333 47:0.333333 48:-1 49:-0.333333 50:-1 51:0.333333 52:0.333333 53:-1 54:1 55:1 56:1 57:1 58:0.333333 59:1 60:1 
8.90794154887219 1:-1 2:0.333333 3:1 4:-1 5:1 6:-1 7:0.333333 8:0.333333 9:0.333333 10:-1 11:-1 12:-1 13:-1 14:1 15:0.333333 16:0.333333 17:0.333333 18:0.333333 19:-1 20:0.333333 21:0.333333 22:0.333333 23:1 24:1 25:0.333333 26:0.333333 27:0.333333 28:1 29:-0.333333 30:-0.333333 31:-0.333333 32:-0.333333 33:-1 34:0.333333 35:-1 36:0.333333 37:0.333333 38:1 39:-0.333333 40:-0.333333 41:1 42:0.333333 43:0.333333 44:-1 45:0.333333 46:0.333333 47:0.333333 48:1 49:-1 50:-1 51:-0.333333 52:0.333333 53:1 54:-0.333333 55:0.333333 56:0.333333 57:1 58:1 59:1 60:0.333333 
4.102192436566042 1:-0.333333 2:-1 3:-1 4:-0.333333 5:-0.333333 6:-1 7:0.333333 8:1 9:-0.333333 10:-0.333333 11:-0.333333 12:-0.333333 13:-1 14:-1 15:-0.333333 16:-1 17:0.333333 18:1 19:-0.333333 20:-0.333333 21:-1 22:1 23:-0.333333 24:-1 25:-0.333333 26:-1 27:-1 28:-0.333333 29:-0.333333 30:-0.333333 31:1 32:-1 33:-0.333333 34:-1 35:-1 36:-0.333333 37:-1 38:-0.333333 39:-0.333333 40:-0.333333 41:1 42:-0.333333 43:-0.333333 44:-0.333333 45:1 46:-0.333333 47:1 48:-0.333333 49:-0.333333 50:-0.333333 51:-1 52:1 53:-0.333333 54:-0.333333 55:-0.333333 56:-0.333333 57:-1 58:-0.333333 59:-0.333333 60:-0.333333 
3.031857020467897 1:1 2:-1 3:1 4:1 5:0.333333 6:1 7:-0.333333 8:0.333333 9:0.333333 10:0.333333 11:-1 12:1 13:1 14:1 15:-0.333333 16:-0.333333 17:-0.333333 18:-0.333333 19:-1 20:0.333333 21:-1 22:0.333333 23:1 24:1 25:0.333333 26:0.333333 27:0.333333 28:0.333333 29:-0.333333 30:0.333333 31:0.333333 32:-0.333333 33:0.333333 34:1 35:-0.333333 36:0.333333 37:0.333333 38:-1 39:-0.333333 40:-0.333333 41:-1 42:0.333333 43:0.333333 44:0.333333 45:-0.333333 46:0.333333 47:1 48:1 49:0.333333 50:1 51:0.333333 52:1 53:-0.333333 54:-1 55:-1 56:-1 57:-0.333333 58:-0.333333 59:0.333333 60:1 
3.21250840460803 1:-0.333333 2:0.333333 3:0.333333 4:-0.333333 5:0.333333 6:0.333333 7:1 8:-1 9:-1 10:0.333333 11:-1 12:0.333333 13:1 14:1 15:1 16:-0.333333 17:-1 18:-0.333333 19:0.333333 20:-1 21:-0.333333 22:-1 23:1 24:-1 25:1 26:-1 27:-1 28:-0.333333 29:0.333333 30:0.333333 31:1 32:1 33:-1 34:0.333333 35:-1 36:0.333333 37:-1 38:-0.333333 39:-0.333333 40:-1 41:1 42:1 43:-1 44:1 45:-0.333333 46:-1 47:-1 48:-0.333333 49:1 50:0.333333 51:1 52:-0.333333 53:-1 54:-1 55:-1 56:-0.333333 57:-0.333333 58:-1 59:1 60:1 
1.013630374275382 1:-1 2:0.333333 3:0.333333 4:1 5:-0.333333 6:-1 7:0.333333 8:0.333333 9:1 10:-0.333333 11:1 12:-0.333333 13:-1 14:-1 15:0.333333 16:-1 17:1 18:-1 19:-0.333333 20:0.333333 21:0.333333 22:1 23:1 24:1 25:1 26:1 27:1 28:1 29:0.333333 30:1 31:1 32:-1 33:1 34:-0.333333 35:0.333333 36:0.333333 37:-1 38:1 39:-0.333333 40:-1 41:-0.333333 42:-0.333333 43:-1 44:0.333333 45:1 46:-1 47:-0.333333 48:-1 49:1 50:-1 51:-1 52:1 53:-0.333333 54:-1 55:-1 56:1 57:0.333333 58:0.333333 59:1 60:0.333333 
8.515252862510422 1:1 2:0.333333 3:-1 4:-0.333333 5:0.333333 6:1 7:1 8:0.333333 9:1 10:1 11:1 12:-0.333333 13:-1 14:-1 15:-1 16:1 17:1 18:-0.333333 19:-0.333333 20:-0.333333 21:0.333333 22:0.333333 23:-1 24:-0.333333 25:-0.333333 26:0.333333 27:0.333333 28:0.333333 29:-0.333333 30:-1 31:1 32:0.333333 33:0.333333 34:0.333333 35:0.333333 36:1 37:-0.333333 38:-0.333333 39:1 40:1 41:0.333333 42:-1 43:1 44:-0.333333 45:-0.333333 46:1 47:-0.333333 48:-0.333333 49:0.333333 50:1 51:-0.333333 52:-1 53:-0.333333 54:1 55:1 56:1 57:1 58:1 59:0.333333 60:-1 
0.7898143797542974 1:-1 2:-1 3:-1 4:-1 5:-1 6:-1 7:-1 8:-1 9:-1 10:-1 11:1 12:-1 13:-0.333333 14:0.333333 15:1 16:-0.333333 17:-0.333333 18:-0.333333 19:0.333333 20:-1 21:1 22:-0.333333 23:-0.333333 24:1 25:-0.333333 26:-0.333333 27:0.333333 28:-1 29:-0.333333 30:-0.333333 31:0.333333 32:-0.333333 33:0.333333 34:0.333333 35:1 36:-0.333333 37:1 38:-1 39:-0.333333 40:1 41:1 42:1 43:0.333333 44:-1 45:-0.333333 46:0.333333 47:1 48:-0.333333 49:0.333333 50:1 51:1 52:-0.333333 53:-0.333333 54:1 55:-0.333333 56:1 57:0.333333 58:1 59:-0.333333 60:-1 
11.08689983028426 1:-0.333333 2:-1 3:-0.333333 4:-1 5:0.333333 6:-0.333333 7:0.333333 8:1 9:-0.333333 10:0.333333 11:-1 12:-0.333333 13:0.333333 14:-0.333333 15:0.333333 16:-1 17:0.333333 18:-0.333333 19:-0.333333 20:-1 21:0.333333 22:0.333333 23:0.333333 24:0.333333 25:0.333333 26:0.333333 27:0.333333 28:-1 29:-1 30:-0.333333 31:-1 32:0.333333 33:-1 34:0.333333 35:-1 36:1 37:-1 38:1 39:-0.333333 40:-1 41:0.333333 42:0.333333 43:0.333333 44:-1 45:0.333333 46:0.333333 47:-1 48:0.333333 49:0.333333 50:0.333333 51:0.333333 52:-1 53:1 54:0.333333 55:1 56:0.333333 57:1 58:-0.333333 59:-1 60:0.333333 
2.97541592955987 1:0.333333 2:-1 3:-1 4:-1 5:-0.333333 6:0.333333 7:-1 8:0.333333 9:1 10:0.333333 11:-1 12:0.333333 13:-1 14:1 15:1 16:1 17:1 18:1 19:1 20:-1 21:1 22:0.333333 23:1 24:0.333333 25:-1 26:-0.333333 27:1 28:0.333333 29:0.333333 30:0.333333 31:1 32:-0.333333 33:1 34:-1 35:-0.333333 36:-0.333333 37:1 38:0.333333 39:-1 40:-0.333333 41:-1 42:-1 43:-0.333333 44:-1 45:1 46:-1 47:-1 48:0.333333 49:0.333333 50:-1 51:0.333333 52:0.333333 53:-1 54:1 55:-0.333333 56:1 57:0.333333 58:-1 59:0.333333 60:1 
4.205066719063112 1:1 2:1 3:0.333333 4:-1 5:-0.333333 6:-0.333333 7:-0.333333 8:-1 9:-1 10:-1 11:1 12:1 13:0.333333 14:1 15:0.333333 16:1 17:1 18:-1 19:0.333333 20:1 21:-1 22:0.333333 23:-1 24:1 25:-0.333333 26:-1 27:1 28:1 29:-1 30:-1 31:1 32:1 33:-0.333333 34:1 35:-0.333333 36:1 37:-0.333333 38:-0.333333 39:-1 40:0.333333 41:0.333333 42:-1 43:1 44:1 45:1 46:-0.333333 47:1 48:-0.333333 49:1 50:1 51:1 52:-1 53:1 54:-0.333333 55:0.333333 56:1 57:1 58:0.333333 59:0.333333 60:-1 
5.809156017815222 1:0.333333 2:-0.333333 3:0.333333 4:-1 5:0.333333 6:0.333333 7:1 8:-0.333333 9:-0.333333 10:-0.333333 11:0.333333 12:-0.333333 13:0.333333 14:0.333333 15:0.333333 16:1 17:-0.333333 18:0.333333 19:1 20:-0.333333 21:-0.333333 22:0.333333 23:-1 24:-1 25:-0.333333 26:-1 27:1 28:-1 29:0.333333 30:-1 31:1 32:0.333333 33:0.333333 34:-1 35:-0.333333 36:0.333333 37:-1 38:-0.333333 39:-0.333333 40:0.333333 41:0.333333 42:0.333333 43:-0.333333 44:-0.333333 45:-1 46:-1 47:-1 48:-0.333333 49:-0.333333 50:1 51:-1 52:-1 53:-0.333333 54:-1 55:-1 56:1 57:-0.333333 58:0.333333 59:1 60:-0.333333 
4.479371381179619 1:-1 2:0.333333 3:0.333333 4:-1 5:-0.333333 6:1 7:0.333333 8:1 9:1 10:-0.333333 11:1 12:0.333333 13:-1 14:0.333333 15:-1 16:-0.333333 17:-1 18:-0.333333 19:-0.333333 20:-1 21:-1 22:-1 23:1 24:-1 25:-0.333333 26:1 27:-0.333333 28:-1 29:-1 30:1 31:-0.333333 32:1 33:0.333333 34:0.333333 35:-1 36:1 37:-1 38:-1 39:-1 40:-0.333333 41:-1 42:-0.333333 43:-1 44:1 45:1 46:0.333333 47:-1 48:-1 49:-1 50:1 51:-0.333333 52:1 53:0.333333 54:-0.333333 55:-0.333333 56:1 57:1 58:-0.333333 59:-1 60:-1 
198.5300650942372 1:0.333333 2:1 3:-0.333333 4:1 5:0.333333 6:-1 7:-1 8:-1 9:0.333333 10:1 11:-0.333333 12:0.333333 13:1 14:0.333333 15:1 16:1 17:-0.333333 18:1 19:1 20:0.333333 21:-1 22:-1 23:1 24:0.333333 25:1 26:0.333333 27:-1 28:0.333333 29:-1 30:-0.333333 31:-0.333333 32:0.333333 33:1 34:0.333333 35:0.333333 36:1 37:-0.333333 38:-0.333333 39:1 40:1 41:-0.333333 42:1 43:0.333333 44:1 45:-1 46:0.333333 47:0.333333 48:0.333333 49:-1 50:1 51:-0.333333 52:-0.333333 53:-1 54:0.333333 55:0.333333 56:0.333333 57:-1 58:-0.333333 59:-1 60:-0.333333 
1.143072468597789 1:1 2:-0.333333 3:0.333333 4:-0.333333 5:1 6:0.333333 7:0.333333 8:1 9:-0.333333 10:0.333333 11:-0.333333 12:-0.333333 13:-1 14:0.333333 15:-1 16:-1 17:-0.333333 18:0.333333 19:-1 20:-1 21:-1 22:-1 23:-0.333333 24:-0.333333 25:0.333333 26:1 27:0.333333 28:0.333333 29:1 30:1 31:0.333333 32:0.333333 33:0.333333 34:-1 35:-0.333333 36:0.333333 37:-1 38:-1 39:0.333333 40:0.333333 41:1 42:-0.333333 43:-0.333333 44:0.333333 45:0.333333 46:-1 47:-0.333333 48:-0.333333 49:-0.333333 50:0.333333 51:-0.333333 52:-0.333333 53:1 54:-0.333333 55:-0.333333 56:0.333333 57:0.333333 58:-1 59:0.333333 60:0.333333 
4.232643319252626 1:-1 2:-0.333333 3:-1 4:1 5:-0.333333 6:0.333333 7:1 8:1 9:1 10:0.333333 11:0.333333 12:1 13:-1 14:-1 15:-0.333333 16:0.333333 17:0.333333 18:-1 19:-0.333333 20:-1 21:-0.333333 22:-0.333333 23:-1 24:-1 25:-0.333333 26:1 27:-0.333333 28:1 29:-0.333333 30:-1 31:-0.333333 32:0.333333 33:0.333333 34:0.333333 35:-1 36:-1 37:-1 38:-0.333333 39:-0.333333 40:-1 41:0.333333 42:0.333333 43:0.333333 44:1 45:1 46:-0.333333 47:-1 48:1 49:0.333333 50:-1 51:-1 52:1 53:1 54:0.333333 55:1 56:-0.333333 57:-1 58:-1 59:1 60:1 
11.96749646117349 1:0.333333 2:1 3:0.333333 4:1 5:0.333333 6:1 7:1 8:1 9:1 10:-1 11:1 12:-0.333333 13:0.333333 14:1 15:1 16:0.333333 17:1 18:0.333333 19:1 20:1 21:1 22:1 23:0.333333 24:-1 25:0.333333 26:1 27:0.333333 28:1 29:-0.333333 30:-0.333333 31:-1 32:-0.333333 33:-1 34:0.333333 35:-1 36:-0.333333 37:-1 38:-0.333333 39:0.333333 40:1 41:-0.333333 42:1 43:-1 44:-0.333333 45:-0.333333 46:-1 47:-0.333333 48:-1 49:-1 50:-0.333333 51:-0.333333 52:-1 53:-1 54:-0.333333 55:0.333333 56:1 57:0.333333 58:0.333333 59:0.333333 60:1 
16.51231728360029 1:0.333333 2:-1 3:0.333333 4:0.333333 5:0.333333 6:0.333333 7:0.333333 8:-0.333333 9:-0.333333 10:1 11:-1 12:1 13:1 14:-1 15:-1 16:-1 17:-1 18:0.333333 19:-0.333333 20:-1 21:-1 22:0.333333 23:-0.333333 24:-0.333333 25:-0.333333 26:-0.333333 27:0.333333 28:-0.333333 29:-0.333333 30:-1 31:-1 32:-1 33:-0.333333 34:-1 35:-1 36:-0.333333 37:0.333333 38:0.333333 39:0.333333 40:1 41:0.333333 42:-1 43:-0.333333 44:1 45:0.333333 46:-0.333333 47:0.333333 48:0.333333 49:-0.333333 50:-0.333333 51:0.333333 52:0.333333 53:-0.333333 54:-0.333333 55:-0.333333 56:-1 57:-0.333333 58:-0.333333 59:0.333333 60:-0.333333 
4.67875092210266 1:1 2:-0.333333 3:0.333333 4:-1 5:-0.333333 6:1 7:1 8:-0.333333 9:-1 10:-1 11:-0.333333 12:0.333333 13:0.333333 14:0.333333 15:-1 16:1 17:-0.333333 18:-1 19:-0.333333 20:-0.333333 21:0.333333 22:0.333333 23:0.333333 24:-1 25:-1 26:-0.333333 27:-1 28:-1 29:1 30:-0.333333 31:1 32:1 33:0.333333 34:-1 35:1 36:-0.333333 37:1 38:1 39:0.333333 40:0.333333 41:0.333333 42:-1 43:-0.333333 44:-0.333333 45:-1 46:-1 47:-0.333333 48:-0.333333 49:1 50:0.333333 51:-1 52:0.333333 53:-1 54:-1 55:0.333333 56:0.333333 57:1 58:-1 59:-0.333333 60:1 
3.635733758796649 1:0.333333 2:-1 3:1 4:-0.333333 5:0.333333 6:1 7:0.333333 8:-1 9:0.333333 10:1 11:-0.333333 12:1 13:1 14:0.333333 15:1 16:0.333333 17:0.333333 18:0.333333 19:0.333333 20:-1 21:1 22:0.333333 23:0.333333 24:1 25:1 26:-0.333333 27:1 28:0.333333 29:0.333333 30:1 31:1 32:0.333333 33:0.333333 34:0.333333 35:-1 36:1 37:-0.333333 38:1 39:1 40:0.333333 41:-1 42:1 43:1 44:-1 45:-1 46:1 47:1 48:0.333333 49:-1 50:1 51:-1 52:1 53:1 54:-0.333333 55:0.333333 56:0.333333 57:0.333333 58:0.333333 59:-0.333333 60:0.333333 
3.701362763757357 1:0.333333 2:-0.333333 3:-0.333333 4:-0.333333 5:-0.333333 6:-1 7:-0.333333 8:0.333333 9:0.333333 10:0.333333 11:0.333333 12:-0.333333 13:0.333333 14:1 15:1 16:0.333333 17:-1 18:1 19:0.333333 20:1 21:0.333333 22:1 23:-0.333333 24:1 25:-0.333333 26:-0.333333 27:-0.333333 28:0.333333 29:1 30:-1 31:0.333333 32:-0.333333 33:1 34:-0.333333 35:-0.333333 36:-1 37:0.333333 38:-0.333333 39:-1 40:0.333333 41:-1 42:0.333333 43:0.333333 44:0.333333 45:-1 46:-0.333333 47:1 48:1 49:0.333333 50:-0.333333 51:1 52:-0.333333 53:0.333333 54:-0.333333 55:0.333333 56:1 57:1 58:0.333333 59:-0.333333 60:-1 
2.690558196623545 1:0.333333 2:0.333333 3:1 4:-1 5:-1 6:-0.333333 7:-1 8:-1 9:-1 10:-1 11:-1 12:1 13:-0.333333 14:1 15:-0.333333 16:1 17:1 18:1 19:1 20:0.333333 21:-1 22:1 23:-0.333333 24:1 25:-1 26:0.333333 27:-1 28:-0.333333 29:1 30:-1 31:-1 32:-0.333333 33:1 34:0.333333 35:-1 36:1 37:1 38:-0.333333 39:1 40:0.333333 41:1 42:1 43:0.333333 44:-1 45:0.333333 46:1 47:1 48:-0.333333 49:-0.333333 50:0.333333 51:1 52:-0.333333 53:0.333333 54:0.333333 55:-1 56:0.333333 57:0.333333 58:1 59:0.333333 60:0.333333 
5.5265724550812 1:1 2:-0.333333 3:-0.333333 4:1 5:0.333333 6:-1 7:-1 8:1 9:1 10:0.333333 11:1 12:-0.333333 13:-1 14:-1 15:1 16:1 17:0.333333 18:1 19:0.333333 20:1 21:0.333333 22:0.333333 23:-1 24:0.333333 25:-1 26:1 27:1 28:-1 29:1 30:1 31:-1 32:1 33:1 34:-1 35:1 36:1 37:-1 38:1 39:1 40:1 41:1 42:1 43:1 44:-0.333333 45:-1 46:-0.333333 47:-1 48:0.333333 49:-1 50:-0.333333 51:1 52:0.333333 53:1 54:1 55:-0.333333 56:0.333333 57:1 58:0.333333 59:1 60:-0.333333 
4.384325914588014 1:0.333333 2:0.333333 3:1 4:-1 5:-1 6:1 7:-1 8:-1 9:-1 10:1 11:-1 12:0.333333 13:-1 14:-1 15:-1 16:-0.333333 17:-0.333333 18:-0.333333 19:0.333333 20:1 21:-0.333333 22:1 23:-1 24:-0.333333 25:-1 26:-1 27:-0.333333 28:0.333333 29:1 30:0.333333 31:-1 32:-0.333333 33:-0.333333 34:-0.333333 35:0.333333 36:0.333333 37:0.333333 38:1 39:1 40:-0.333333 41:1 42:1 43:0.333333 44:0.333333 45:0.333333 46:1 47:-1 48:-0.333333 49:-1 50:-1 51:-0.333333 52:-1 53:-1 54:-1 55:-0.333333 56:-0.333333 57:-1 58:-0.333333 59:0.333333 60:0.333333 
7.77812463503656 1:-0.333333 2:-1 3:-0.333333 4:-1 5:1 6:1 7:1 8:0.333333 9:1 10:1 11:0.333333 12:1 13:1 14:-1 15:-0.333333 16:-0.333333 17:1 18:1 19:1 20:-0.333333 21:-0.333333 22:-1 23:1 24:0.333333 25:1 26:-1 27:1 28:1 29:0.333333 30:-0.333333 31:0.333333 32:1 33:-0.333333 34:-0.333333 35:-0.333333 36:-0.333333 37:1 38:0.333333 39:0.333333 40:-1 41:-0.333333 42:1 43:-0.333333 44:1 45:-0.333333 46:-0.333333 47:-1 48:-0.333333 49:-0.333333 50:1 51:-0.333333 52:-0.333333 53:1 54:-1 55:-0.333333 56:-0.333333 57:-0.333333 58:-0.333333 59:-1 60:-0.333333 
10.70629472519226 1:-0.333333 2:-0.333333 3:-0.333333 4:-1 5:0.333333 6:-1 7:-0.333333 8:-0.333333 9:-1 10:0.333333 11:1 12:0.333333 13:0.333333 14:1 15:-0.333333 16:-0.333333 17:-0.333333 18:1 19:0.333333 20:1 21:-0.333333 22:-1 23:-0.333333 24:-0.333333 25:-0.333333 26:-1 27:-0.333333 28:-0.333333 29:-1 30:-0.333333 31:-0.333333 32:-0.333333 33:0.333333 34:0.333333 35:-1 36:-1 37:-0.333333 38:-0.333333 39:-1 40:-1 41:0.333333 42:0.333333 43:-1 44:-0.333333 45:-0.333333 46:1 47:-0.333333 48:-0.333333 49:-0.333333 50:-0.333333 51:1 52:0.333333 53:0.333333 54:-1 55:-0.333333 56:0.333333 57:0.333333 58:0.333333 59:-1 60:0.333333 
0.76958822639786 1:0.333333 2:-1 3:0.333333 4:1 5:1 6:-0.333333 7:-1 8:-0.333333 9:0.333333 10:0.333333 11:0.333333 12:-1 13:-0.333333 14:-0.333333 15:-1 16:-0.333333 17:1 18:1 19:-0.333333 20:-0.333333 21:-1 22:-0.333333 23:-0.333333 24:0.333333 25:1 26:-0.333333 27:0.333333 28:-1 29:-0.333333 30:1 31:-1 32:-1 33:1 34:0.333333 35:1 36:-1 37:0.333333 38:-0.333333 39:-1 40:1 41:1 42:-1 43:1 44:-0.333333 45:0.333333 46:0.333333 47:-1 48:0.333333 49:1 50:-0.333333 51:0.333333 52:-1 53:1 54:1 55:1 56:0.333333 57:-1 58:-1 59:0.333333 60:0.333333 
4.244917058332715 1:-0.333333 2:1 3:1 4:0.333333 5:-1 6:-0.333333 7:0.333333 8:0.333333 9:1 10:1 11:1 12:-0.333333 13:-1 14:0.333333 15:0.333333 16:1 17:1 18:-0.333333 19:-0.333333 20:-1 21:-1 22:-0.333333 23:1 24:-0.333333 25:0.333333 26:0.333333 27:-1 28:-0.333333 29:-1 30:-0.333333 31:1 32:-0.333333 33:0.333333 34:0.333333 35:0.333333 36:0.333333 37:1 38:-1 39:-1 40:-0.333333 41:0.333333 42:1 43:1 44:0.333333 45:1 46:-0.333333 47:0.333333 48:0.333333 49:0.333333 50:0.333333 51:0.333333 52:1 53:0.333333 54:-1 55:-0.333333 56:-1 57:-1 58:0.333333 59:-1 60:-0.333333 
273.9545254110272 1:1 2:0.333333 3:0.333333 4:0.333333 5:1 6:0.333333 7:0.333333 8:-1 9:1 10:1 11:-0.333333 12:0.333333 13:0.333333 14:0.333333 15:1 16:0.333333 17:0.333333 18:-0.333333 19:-0.333333 20:1 21:1 22:1 23:0.333333 24:1 25:0.333333 26:0.333333 27:0.333333 28:0.333333 29:-1 30:-0.333333 31:-0.333333 32:0.333333 33:1 34:0.333333 35:0.333333 36:0.333333 37:-0.333333 38:-0.333333 39:-1 40:0.333333 41:-0.333333 42:1 43:0.333333 44:0.333333 45:0.333333 46:1 47:-0.333333 48:0.333333 49:1 50:0.333333 51:0.333333 52:1 53:-0.333333 54:-0.333333 55:0.333333 56:1 57:1 58:1 59:1 60:-0.333333 
8.836591427784883 1:-0.333333 2:-1 3:1 4:-0.333333 5:1 6:-0.333333 7:-0.333333 8:-0.333333 9:0.333333 10:-1 11:-0.333333 12:1 13:1 14:1 15:1 16:1 17:-1 18:1 19:1 20:1 21:0.333333 22:-1 23:-0.333333 24:0.333333 25:1 26:-0.333333 27:-1 28:-0.333333 29:1 30:0.333333 31:1 32:0.333333 33:0.333333 34:-1 35:-0.333333 36:-1 37:-1 38:-0.333333 39:-0.333333 40:0.333333 41:-1 42:-0.333333 43:-0.333333 44:-0.333333 45:-0.333333 46:-1 47:0.333333 48:-1 49:-0.333333 50:-0.333333 51:-0.333333 52:-1 53:0.333333 54:1 55:-0.333333 56:-0.333333 57:-0.333333 58:-1 59:-0.333333 60:-0.333333 
3.418628502674786 1:-0.333333 2:-0.333333 3:-0.333333 4:1 5:-0.333333 6:-0.333333 7:-0.333333 8:-0.333333 9:1 10:-0.333333 11:0.333333 12:1 13:-0.333333 14:-1 15:-0.333333 16:0.333333 17:-0.333333 18:-0.333333 19:0.333333 20:0.333333 21:1 22:0.333333 23:0.333333 24:-1 25:-0.333333 26:1 27:-0.333333 28:1 29:0.333333 30:1 31:-0.333333 32:-1 33:-0.333333 34:-0.333333 35:-1 36:0.333333 37:1 38:0.333333 39:-1 40:1 41:1 42:1 43:-1 44:-1 45:-0.333333 46:-1 47:-0.333333 48:-1 49:-1 50:-0.333333 51:-0.333333 52:-1 53:-1 54:-1 55:-1 56:-1 57:-0.333333 58:-0.333333 59:-0.333333 60:1 
1.054300122843336 1:-1 2:-0.333333 3:0.333333 4:0.333333 5:1 6:-1 7:0.333333 8:-1 9:1 10:-0.333333 11:-0.333333 12:-1 13:-0.333333 14:0.333333 15:1 16:-0.333333 17:-1 18:-0.333333 19:0.333333 20:-1 21:-0.333333 22:0.333333 23:0.333333 24:1 25:-0.333333 26:-1 27:-0.333333 28:-1 29:1 30:0.333333 31:1 32:-0.333333 33:-1 34:-0.333333 35:-0.333333 36:-1 37:0.333333 38:-1 39:0.333333 40:-0.333333 41:-0.333333 42:0.333333 43:0.333333 44:-0.333333 45:1 46:-0.333333 47:1 48:-1 49:1 50:1 51:-1 52:0.333333 53:1 54:-0.333333 55:1 56:-0.333333 57:0.333333 58:-0.333333 59:-1 60:-0.333333 
7.706129985550932 1:1 2:-1 3:-0.333333 4:-0.333333 5:0.333333 6:1 7:0.333333 8:0.333333 9:-1 10:-0.333333 11:0.333333 12:-1 13:-0.333333 14:-0.333333 15:0.333333 16:1 17:-0.333333 18:-0.333333 19:0.333333 20:1 21:0.333333 22:-1 23:-0.333333 24:-0.333333 25:0.333333 26:1 27:1 28:0.333333 29:-1 30:1 31:1 32:0.333333 33:0.333333 34:-1 35:1 36:-0.333333 37:-0.333333 38:1 39:0.333333 40:0.333333 41:1 42:0.333333 43:1 44:-0.333333 45:1 46:1 47:-0.333333 48:-0.333333 49:1 50:1 51:0.333333 52:0.333333 53:1 54:-1 55:-0.333333 56:1 57:-1 58:-0.333333 59:0.333333 60:-1 
13.03208774212441 1:1 2:-1 3:0.333333 4:-1 5:-0.333333 6:0.333333 7:0.333333 8:-1 9:0.333333 10:0.333333 11:-1 12:1 13:-0.333333 14:-1 15:-0.333333 16:-1 17:-1 18:-0.333333 19:-0.333333 20:-1 21:0.333333 22:-1 23:0.333333 24:1 25:0.333333 26:-0.333333 27:0.333333 28:1 29:-0.333333 30:0.333333 31:0.333333 32:1 33:-0.333333 34:-0.333333 35:-0.333333 36:1 37:-0.333333 38:0.333333 39:-0.333333 40:-1 41:0.333333 42:1 43:-0.333333 44:0.333333 45:-1 46:0.333333 47:-1 48:-0.333333 49:0.333333 50:-1 51:-0.333333 52:1 53:1 54:0.333333 55:0.333333 56:-1 57:0.333333 58:-1 59:-0.333333 60:-0.333333 
3.690620570173142 1:1 2:1 3:-1 4:-1 5:-0.333333 6:1 7:-0.333333 8:0.333333 9:1 10:-1 11:-0.333333 12:1 13:1 14:-0.333333 15:1 16:-0.333333 17:-1 18:1 19:1 20:1 21:1 22:-1 23:1 24:-1 25:0.333333 26:-1 27:1 28:-1 29:-1 30:-1 31:-0.333333 32:-0.333333 33:0.333333 34:0.333333 35:-1 36:-0.333333 37:-1 38:-1 39:-0.333333 40:0.333333 41:1 42:-0.333333 43:1 44:0.333333 45:1 46:-0.333333 47:-1 48:-0.333333 49:-0.333333 50:0.333333 51:-1 52:-1 53:1 54:0.333333 55:-1 56:1 57:-0.333333 58:-1 59:1 60:1 
23.44448916220128 1:-1 2:-0.333333 3:0.333333 4:1 5:-0.333333 6:-1 7:-1 8:-0.333333 9:0.333333 10:0.333333 11:-0.333333 12:1 13:-0.333333 14:0.333333 15:0.333333 16:1 17:-0.333333 18:-0.333333 19:0.333333 20:1 21:-0.333333 22:1 23:0.333333 24:1 25:1 26:1 27:-0.333333 28:0.333333 29:-1 30:-0.333333 31:-1 32:1 33:0.333333 34:-1 35:1 36:0.333333 37:-0.333333 38:0.333333 39:-1 40:0.333333 41:0.333333 42:0.333333 43:0.333333 44:0.333333 45:-1 46:-0.333333 47:-1 48:-0.333333 49:0.333333 50:-0.333333 51:0.333333 52:-1 53:-1 54:-0.333333 55:1 56:-1 57:0.333333 58:1 59:0.333333 60:-1 
2.379588177620853 1:-1 2:-0.333333 3:-1 4:0.333333 5:0.333333 6:0.333333 7:0.333333 8:-1 9:1 10:0.333333 11:1 12:0.333333 13:1 14:1 15:-1 16:-1 17:-1 18:-1 19:-1 20:-1 21:1 22:-0.333333 23:-1 24:-1 25:1 26:1 27:1 28:-0.333333 29:-0.333333 30:0.333333 31:0.333333 32:-1 33:-0.333333 34:-1 35:0.333333 36:-1 37:0.333333 38:-1 39:-0.333333 40:-0.333333 41:1 42:-0.333333 43:0.333333 44:0.333333 45:1 46:0.333333 47:-1 48:0.333333 49:-0.333333 50:0.333333 51:0.333333 52:1 53:-0.333333 54:1 55:-1 56:-1 57:1 58:0.333333 59:0.333333 60:0.333333 
6.16419517885506 1:-1 2:-1 3:-0.333333 4:0.333333 5:-1 6:-1 7:0.333333 8:1 9:1 10:1 11:1 12:-1 13:-1 14:-0.333333 15:1 16:-0.333333 17:-1 18:-0.333333 19:-0.333333 20:0.333333 21:1 22:-0.333333 23:0.333333 24:-1 25:-1 26:-0.333333 27:-1 28:-0.333333 29:0.333333 30:0.333333 31:-0.333333 32:0.333333 33:0.333333 34:-0.333333 35:-0.333333 36:-0.333333 37:-1 38:1 39:-0.333333 40:1 41:-1 42:-0.333333 43:-1 44:1 45:1 46:1 47:1 48:-1 49:-0.333333 50:1 51:1 52:0.333333 53:-0.333333 54:1 55:-0.333333 56:-0.333333 57:0.333333 58:0.333333 59:-1 60:-1 
4.049504034686042 1:-1 2:-0.333333 3:1 4:-0.333333 5:1 6:1 7:1 8:1 9:0.333333 10:-1 11:1 12:-1 13:1 14:1 15:-0.333333 16:0.333333 17:1 18:1 19:0.333333 20:1 21:0.333333 22:0.333333 23:0.333333 24:1 25:1 26:1 27:-1 28:-0.333333 29:1 30:1 31:0.333333 32:1 33:-0.333333 34:0.333333 35:1 36:-0.333333 37:1 38:0.333333 39:1 40:0.333333 41:0.333333 42:0.333333 43:1 44:-0.333333 45:-1 46:-1 47:-0.333333 48:-1 49:-0.333333 50:1 51:-0.333333 52:-1 53:-1 54:0.333333 55:0.333333 56:0.333333 57:1 58:0.333333 59:1 60:1 
1.466631648976077 1:-1 2:-1 3:0.333333 4:-1 5:-0.333333 6:-0.333333 7:1 8:0.333333 9:1 10:0.333333 11:-1 12:-1 13:-1 14:0.333333 15:1 16:1 17:-1 18:-1 19:1 20:1 21:-1 22:1 23:-0.333333 24:1 25:-1 26:-1 27:-1 28:-0.333333 29:-1 30:-1 31:1 32:-1 33:1 34:1 35:0.333333 36:1 37:-0.333333 38:-0.333333 39:-1 40:-0.333333 41:-1 42:-0.333333 43:0.333333 44:1 45:1 46:0.333333 47:0.333333 48:1 49:1 50:1 51:1 52:-1 53:0.333333 54:0.333333 55:0.333333 56:-1 57:-0.333333 58:1 59:0.333333 60:0.333333 
12.41246815364563 1:-0.333333 2:0.333333 3:0.333333 4:1 5:-0.333333 6:0.333333 7:1 8:-0.333333 9:0.333333 10:1 11:0.333333 12:1 13:-0.333333 14:-0.333333 15:0.333333 16:0.333333 17:0.333333 18:0.333333 19:1 20:-0.333333 21:-0.333333 22:1 23:0.333333 24:0.333333 25:1 26:-0.333333 27:1 28:0.333333 29:0.333333 30:1 31:-0.333333 32:1 33:1 34:0.333333 35:1 36:0.333333 37:0.333333 38:-1 39:-0.333333 40:0.333333 41:-1 42:1 43:-0.333333 44:-0.333333 45:1 46:-0.333333 47:1 48:-0.333333 49:1 50:0.333333 51:1 52:-0.333333 53:-1 54:-0.333333 55:-0.333333 56:0.333333 57:1 58:0.333333 59:0.333333 60:0.333333 
4.968878962879351 1:0.333333 2:1 3:-0.333333 4:-0.333333 5:0.333333 6:0.333333 7:1 8:1 9:0.333333 10:0.333333 11:1 12:-0.333333 13:-0.333333 14:-1 15:0.333333 16:-1 17:-0.333333 18:0.333333 19:-1 20:-0.333333 21:-0.333333 22:-0.333333 23:-0.333333 24:-0.333333 25:0.333333 26:1 27:0.333333 28:0.333333 29:1 30:-0.333333 31:-0.333333 32:-0.333333 33:-1 34:1 35:1 36:0.333333 37:0.333333 38:1 39:-0.333333 40:-0.333333 41:-0.333333 42:1 43:1 44:1 45:0.333333 46:0.333333 47:-1 48:-0.333333 49:-0.333333 50:1 51:-1 52:-1 53:-0.333333 54:1 55:-0.333333 56:-1 57:1 58:1 59:1 60:1 
9.857757744388378 1:-0.333333 2:1 3:0.333333 4:1 5:-0.333333 6:0.333333 7:0.333333 8:0.333333 9:1 10:0.333333 11:0.333333 12:-0.333333 13:-1 14:1 15:-1 16:0.333333 17:0.333333 18:0.333333 19:-0.333333 20:0.333333 21:0.333333 22:1 23:1 24:-0.333333 25:1 26:0.333333 27:0.333333 28:1 29:0.333333 30:0.333333 31:1 32:0.333333 33:-1 34:-1 35:1 36:-0.333333 37:0.333333 38:1 39:-1 40:1 41:0.333333 42:1 43:-1 44:0.333333 45:0.333333 46:1 47:-0.333333 48:-1 49:-0.333333 50:1 51:-0.333333 52:0.333333 53:0.333333 54:-1 55:-1 56:-0.333333 57:1 58:-0.333333 59:-0.333333 60:-1 
5.878482292459204 1:-0.333333 2:1 3:-1 4:1 5:0.333333 6:0.333333 7:0.333333 8:0.333333 9:-1 10:0.333333 11:1 12:-0.333333 13:0.333333 14:0.333333 15:1 16:1 17:-0.333333 18:1 19:-1 20:1 21:-0.333333 22:1 23:-0.333333 24:-0.333333 25:1 26:-0.333333 27:-1 28:-1 29:-1 30:0.333333 31:0.333333 32:-1 33:-1 34:-1 35:-0.333333 36:-0.333333 37:-0.333333 38:1 39:1 40:-1 41:0.333333 42:1 43:1 44:1 45:1 46:-1 47:0.333333 48:-1 49:0.333333 50:1 51:1 52:-1 53:-1 54:1 55:0.333333 56:1 57:-1 58:1 59:-1 60:-0.333333 
10.10303576225723 1:-0.333333 2:-1 3:-0.333333 4:-1 5:-1 6:-1 7:-1 8:-0.333333 9:0.333333 10:0.333333 11:0.333333 12:-0.333333 13:1 14:0.333333 15:1 16:-0.333333 17:1 18:1 19:1 20:-0.333333 21:0.333333 22:-1 23:-0.333333 24:0.333333 25:0.333333 26:0.333333 27:1 28:0.333333 29:1 30:-0.333333 31:-1 32:-1 33:0.333333 34:-1 35:1 36:-0.333333 37:-1 38:0.333333 39:-1 40:1 41:0.333333 42:1 43:1 44:0.333333 45:-0.333333 46:-0.333333 47:1 48:1 49:1 50:-0.333333 51:0.333333 52:-1 53:-0.333333 54:0.333333 55:0.333333 56:0.333333 57:1 58:-0.333333 59:0.333333 60:1 
7.538028278960258 1:-0.333333 2:1 3:1 4:0.333333 5:-0.333333 6:-1 7:1 8:1 9:0.333333 10:1 11:-0.333333 12:0.333333 13:1 14:1 15:0.333333 16:-1 17:-1 18:1 19:1 20:1 21:-0.333333 22:1 23:0.333333 24:0.333333 25:0.333333 26:1 27:-1 28:1 29:0.333333 30:1 31:-1 32:1 33:1 34:-1 35:-1 36:1 37:0.333333 38:-1 39:0.333333 40:0.333333 41:-1 42:0.333333 43:1 44:0.333333 45:1 46:1 47:-1 48:0.333333 49:1 50:-0.333333 51:0.333333 52:0.333333 53:0.333333 54:-1 55:-0.333333 56:1 57:0.333333 58:-1 59:-0.333333 60:-0.333333 
6.803609610211694 1:1 2:1 3:1 4:0.333333 5:-0.333333 6:1 7:-0.333333 8:0.333333 9:1 10:1 11:1 12:0.333333 13:1 14:1 15:-0.333333 16:0.333333 17:1 18:1 19:1 20:0.333333 21:0.333333 22:0.333333 23:-0.333333 24:1 25:1 26:1 27:1 28:0.333333 29:1 30:1 31:-0.333333 32:0.333333 33:1 34:1 35:1 36:0.333333 37:1 38:1 39:1 40:0.333333 41:1 42:1 43:1 44:0.333333 45:1 46:1 47:1 48:0.333333 49:-0.333333 50:1 51:1 52:1 53:0.333333 54:1 55:1 56:1 57:0.333333 58:-1 59:1 60:-0.333333 
20.00725131871254 1:-0.333333 2:-0.333333 3:-1 4:1 5:0.333333 6:0.333333 7:0.333333 8:-0.333333 9:-1 10:-0.333333 11:-0.333333 12:-1 13:-0.333333 14:-1 15:0.333333 16:0.333333 17:0.333333 18:1 19:-0.333333 20:-0.333333 21:-0.333333 22:-1 23:0.333333 24:0.333333 25:0.333333 26:0.333333 27:-1 28:-0.333333 29:-0.333333 30:-1 31:-0.333333 32:1 33:-0.333333 34:0.333333 35:0.333333 36:1 37:-0.333333 38:-0.333333 39:-1 40:-1 41:-1 42:-0.333333 43:-0.333333 44:-1 45:0.333333 46:-0.333333 47:-0.333333 48:-0.333333 49:0.333333 50:-1 51:-0.333333 52:-0.333333 53:0.333333 54:-1 55:-0.333333 56:-0.333333 57:-1 58:0.333333 59:-1 60:-0.333333 
2.573603201405775 1:-1 2:-1 3:1 4:-1 5:1 6:0.333333 7:1 8:0.333333 9:-1 10:-1 11:-1 12:-0.333333 13:-1 14:-1 15:1 16:-1 17:-1 18:-0.333333 19:0.333333 20:0.333333 21:-1 22:0.333333 23:1 24:0.333333 25:1 26:1 27:-0.333333 28:-1 29:-1 30:-1 31:1 32:1 33:0.333333 34:0.333333 35:-1 36:-1 37:-0.333333 38:1 39:-1 40:-0.333333 41:-0.333333 42:-1 43:1 44:1 45:-1 46:1 47:1 48:1 49:1 50:1 51:0.333333 52:1 53:-1 54:-1 55:-1 56:1 57:-1 58:1 59:-1 60:-0.333333 
1.750397355674447 1:-1 2:-0.333333 3:-1 4:1 5:-1 6:0.333333 7:-1 8:0.333333 9:-0.333333 10:1 11:-0.333333 12:0.333333 13:0.333333 14:-1 15:1 16:-0.333333 17:1 18:-0.333333 19:0.333333 20:-1 21:-0.333333 22:0.333333 23:-1 24:0.333333 25:-0.333333 26:-1 27:-0.333333 28:-0.333333 29:-0.333333 30:-0.333333 31:0.333333 32:1 33:-0.333333 34:0.333333 35:0.333333 36:-0.333333 37:-0.333333 38:-1 39:-0.333333 40:0.333333 41:0.333333 42:0.333333 43:0.333333 44:1 45:0.333333 46:-1 47:0.333333 48:0.333333 49:0.333333 50:1 51:-0.333333 52:-1 53:-0.333333 54:-1 55:1 56:-0.333333 57:-0.333333 58:-0.333333 59:-1 60:-0.333333 
4.985876983425321 1:-0.333333 2:-1 3:-0.333333 4:-1 5:-1 6:-1 7:-0.333333 8:-0.333333 9:-1 10:1 11:1 12:0.333333 13:0.333333 14:-1 15:-0.333333 16:-1 17:-0.333333 18:-0.333333 19:0.333333 20:1 21:-1 22:-0.333333 23:0.333333 24:1 25:0.333333 26:0.333333 27:-1 28:-1 29:-1 30:-1 31:0.333333 32:0.333333 33:-1 34:1 35:0.333333 36:0.333333 37:0.333333 38:-1 39:-0.333333 40:-0.333333 41:1 42:0.333333 43:-1 44:1 45:1 46:0.333333 47:1 48:1 49:0.333333 50:-1 51:1 52:0.333333 53:0.333333 54:1 55:0.333333 56:-1 57:0.333333 58:0.333333 59:0.333333 60:-1 
5.461702890572582 1:-1 2:-1 3:-1 4:1 5:1 6:1 7:-0.333333 8:-0.333333 9:1 10:1 11:1 12:-1 13:-0.333333 14:-1 15:-0.333333 16:-0.333333 17:-0.333333 18:1 19:0.333333 20:-1 21:-1 22:-1 23:-1 24:0.333333 25:1 26:-0.333333 27:-1 28:-0.333333 29:1 30:1 31:-0.333333 32:1 33:-0.333333 34:1 35:-1 36:1 37:1 38:-0.333333 39:-1 40:1 41:-0.333333 42:-1 43:-1 44:1 45:-1 46:-0.333333 47:0.333333 48:-1 49:0.333333 50:-0.333333 51:-0.333333 52:1 53:0.333333 54:0.333333 55:1 56:-0.333333 57:0.333333 58:1 59:-1 60:0.333333 
0.9969536821076622 1:-1 2:-0.333333 3:1 4:1 5:1 6:-0.333333 7:-1 8:-0.333333 9:-1 10:0.333333 11:0.333333 12:-1 13:-0.333333 14:-1 15:0.333333 16:1 17:-0.333333 18:-1 19:-0.333333 20:0.333333 21:-1 22:-1 23:0.333333 24:-1 25:0.333333 26:-1 27:-0.333333 28:1 29:-0.333333 30:-0.333333 31:-0.333333 32:-1 33:0.333333 34:0.333333 35:1 36:1 37:-0.333333 38:1 39:0.333333 40:1 41:0.333333 42:1 43:-1 44:0.333333 45:1 46:-1 47:-1 48:-1 49:-1 50:-1 51:1 52:0.333333 53:-1 54:-1 55:-1 56:-1 57:-1 58:0.333333 59:-1 60:1 
2.855859372830803 1:-0.333333 2:-0.333333 3:-1 4:-1 5:-0.333333 6:-1 7:0.333333 8:-1 9:-1 10:-1 11:-0.333333 12:1 13:-0.333333 14:-1 15:-0.333333 16:-1 17:1 18:0.333333 19:0.333333 20:1 21:1 22:1 23:0.333333 24:1 25:0.333333 26:-1 27:-1 28:-1 29:-1 30:-1 31:-1 32:-1 33:-1 34:-1 35:-1 36:-1 37:-1 38:-1 39:-1 40:-1 41:0.333333 42:1 43:1 44:1 45:-0.333333 46:-0.333333 47:-0.333333 48:1 49:-0.333333 50:-0.333333 51:-1 52:-1 53:-0.333333 54:-0.333333 55:1 56:-0.333333 57:-0.333333 58:-0.333333 59:-0.333333 60:1 
6.393927907363047 1:-1 2:1 3:1 4:-0.333333 5:0.333333 6:1 7:-0.333333 8:-0.333333 9:-1 10:0.333333 11:-1 12:-0.333333 13:-0.333333 14:-0.333333 15:-1 16:-0.333333 17:1 18:1 19:-0.333333 20:0.333333 21:1 22:1 23:-0.333333 24:-0.333333 25:-1 26:0.333333 27:0.333333 28:-1 29:-1 30:-1 31:-1 32:1 33:-0.333333 34:0.333333 35:0.333333 36:-1 37:-0.333333 38:1 39:-1 40:1 41:-0.333333 42:1 43:-0.333333 44:-1 45:-1 46:-0.333333 47:-1 48:-1 49:-1 50:1 51:1 52:1 53:1 54:1 55:1 56:-0.333333 57:0.333333 58:0.333333 59:0.333333 60:-1 
6.829241887297552 1:-0.333333 2:0.333333 3:-0.333333 4:-0.333333 5:-0.333333 6:0.333333 7:0.333333 8:-0.333333 9:-0.333333 10:-1 11:-0.333333 12:0.333333 13:-1 14:0.333333 15:-0.333333 16:-0.333333 17:-0.333333 18:0.333333 19:-1 20:0.333333 21:0.333333 22:0.333333 23:-1 24:-0.333333 25:0.333333 26:-1 27:1 28:-0.333333 29:-0.333333 30:-0.333333 31:-0.333333 32:-0.333333 33:1 34:-1 35:0.333333 36:1 37:-0.333333 38:0.333333 39:1 40:0.333333 41:-1 42:0.333333 43:-1 44:0.333333 45:-1 46:-0.333333 47:-1 48:-0.333333 49:-0.333333 50:-1 51:0.333333 52:-0.333333 53:0.333333 54:1 55:-0.333333 56:0.333333 57:1 58:0.333333 59:-1 60:-0.333333 
5.945890535530024 1:1 2:-0.333333 3:-1 4:0.333333 5:-1 6:-1 7:-1 8:-1 9:0.333333 10:0.333333 11:-1 12:-1 13:-0.333333 14:-1 15:1 16:0.333333 17:1 18:1 19:-0.333333 20:-0.333333 21:-0.333333 22:-0.333333 23:1 24:1 25:0.333333 26:1 27:1 28:-0.333333 29:-0.333333 30:-0.333333 31:-0.333333 32:-1 33:-1 34:-1 35:0.333333 36:1 37:-0.333333 38:-1 39:0.333333 40:-1 41:1 42:-0.333333 43:0.333333 44:1 45:-0.333333 46:-1 47:1 48:1 49:-0.333333 50:-0.333333 51:1 52:1 53:1 54:1 55:1 56:-0.333333 57:1 58:-1 59:0.333333 60:-1 
2.215000131911196 1:-0.333333 2:-1 3:-1 4:-0.333333 5:1 6:-0.333333 7:-0.333333 8:1 9:0.333333 10:0.333333 11:1 12:-0.333333 13:0.333333 14:1 15:-0.333333 16:-1 17:-1 18:-0.333333 19:-1 20:-1 21:-0.333333 22:-0.333333 23:1 24:-0.333333 25:-1 26:-0.333333 27:0.333333 28:1 29:0.333333 30:-0.333333 31:-0.333333 32:-0.333333 33:1 34:1 35:1 36:0.333333 37:1 38:0.333333 39:0.333333 40:-0.333333 41:-0.333333 42:0.333333 43:-0.333333 44:1 45:0.333333 46:-1 47:1 48:1 49:-1 50:-0.333333 51:-0.333333 52:0.333333 53:1 54:0.333333 55:0.333333 56:1 57:-0.333333 58:-0.333333 59:-1 60:0.333333 
9.535806958148354 1:-0.333333 2:0.333333 3:-0.333333 4:0.333333 5:1 6:0.333333 7:1 8:-0.333333 9:0.333333 10:1 11:1 12:-0.333333 13:0.333333 14:0.333333 15:-1 16:-1 17:1 18:-0.333333 19:1 20:0.333333 21:1 22:1 23:1 24:-1 25:1 26:-1 27:-0.333333 28:-0.333333 29:1 30:0.333333 31:-1 32:0.333333 33:0.333333 34:0.333333 35:-0.333333 36:-0.333333 37:-1 38:-1 39:-0.333333 40:-0.333333 41:0.333333 42:-1 43:0.333333 44:-0.333333 45:0.333333 46:-0.333333 47:-0.333333 48:-1 49:-1 50:0.333333 51:0.333333 52:1 53:0.333333 54:-0.333333 55:-0.333333 56:0.333333 57:-0.333333 58:0.333333 59:-0.333333 60:-0.333333 
1.310512338385202 1:-0.333333 2:-0.333333 3:1 4:-1 5:1 6:1 7:1 8:-0.333333 9:1 10:-0.333333 11:1 12:-1 13:1 14:0.333333 15:1 16:-1 17:-1 18:-1 19:0.333333 20:-1 21:1 22:-1 23:-0.333333 24:-1 25:-1 26:-1 27:-1 28:-0.333333 29:-0.333333 30:1 31:-1 32:0.333333 33:-1 34:-0.333333 35:1 36:-0.333333 37:-1 38:-1 39:-1 40:-1 41:1 42:-1 43:0.333333 44:-1 45:-0.333333 46:1 47:-1 48:1 49:1 50:-1 51:1 52:-1 53:-1 54:0.333333 55:0.333333 56:1 57:1 58:-1 59:1 60:-0.333333 
9.593131644316738 1:-1 2:0.333333 3:0.333333 4:0.333333 5:0.333333 6:-0.333333 7:1 8:0.333333 9:-0.333333 10:1 11:-0.333333 12:0.333333 13:0.333333 14:0.333333 15:1 16:-0.333333 17:-1 18:0.333333 19:-1 20:0.333333 21:1 22:-0.333333 23:0.333333 24:-0.333333 25:0.333333 26:0.333333 27:1 28:-0.333333 29:0.333333 30:-1 31:0.333333 32:0.333333 33:0.333333 34:-0.333333 35:1 36:-0.333333 37:1 38:1 39:0.333333 40:0.333333 41:0.333333 42:0.333333 43:-1 44:0.333333 45:-1 46:-0.333333 47:-0.333333 48:-0.333333 49:-1 50:-0.333333 51:0.333333 52:0.333333 53:-0.333333 54:0.333333 55:0.333333 56:0.333333 57:0.333333 58:1 59:1 60:0.333333 
8.688568267349988 1:1 2:-1 3:-0.333333 4:-0.333333 5:-1 6:1 7:1 8:1 9:-0.333333 10:-0.333333 11:-0.333333 12:-0.333333 13:-1 14:1 15:1 16:-0.333333 17:-1 18:-1 19:-0.333333 20:0.333333 21:0.333333 22:0.333333 23:-0.333333 24:-0.333333 25:0.333333 26:1 27:-0.333333 28:-1 29:1 30:-0.333333 31:-0.333333 32:1 33:-1 34:-0.333333 35:-0.333333 36:0.333333 37:-1 38:-0.333333 39:-1 40:-1 41:0.333333 42:1 43:1 44:-0.333333 45:-0.333333 46:-1 47:-0.333333 48:-1 49:0.333333 50:-1 51:-1 52:1 53:-0.333333 54:1 55:-0.333333 56:-1 57:-0.333333 58:-1 59:-1 60:-0.333333 
7.087514145979563 1:0.333333 2:1 3:0.333333 4:0.333333 5:0.333333 6:0.333333 7:1 8:-1 9:-1 10:-1 11:0.333333 12:0.333333 13:-1 14:-0.333333 15:-0.333333 16:0.333333 17:0.333333 18:0.333333 19:1 20:1 21:-0.333333 22:-0.333333 23:-1 24:-0.333333 25:-1 26:-0.333333 27:0.333333 28:-1 29:-0.333333 30:-0.333333 31:0.333333 32:0.333333 33:0.333333 34:0.333333 35:-1 36:-0.333333 37:-0.333333 38:-0.333333 39:-0.333333 40:-1 41:-0.333333 42:0.333333 43:-1 44:-0.333333 45:1 46:-0.333333 47:0.333333 48:-1 49:-1 50:0.333333 51:1 52:0.333333 53:-1 54:0.333333 55:0.333333 56:1 57:1 58:0.333333 59:-1 60:0.333333 
15.41665416887221 1:0.333333 2:0.333333 3:0.333333 4:1 5:0.333333 6:0.333333 7:1 8:-1 9:0.333333 10:0.333333 11:-0.333333 12:-0.333333 13:-1 14:-1 15:0.333333 16:1 17:-0.333333 18:-1 19:-1 20:0.333333 21:0.333333 22:0.333333 23:1 24:0.333333 25:0.333333 26:-1 27:-1 28:0.333333 29:-1 30:-0.333333 31:-0.333333 32:-0.333333 33:-1 34:-0.333333 35:0.333333 36:0.333333 37:0.333333 38:0.333333 39:-0.333333 40:-1 41:-0.333333 42:1 43:-1 44:1 45:0.333333 46:-0.333333 47:-0.333333 48:0.333333 49:-1 50:-0.333333 51:0.333333 52:-1 53:-0.333333 54:1 55:0.333333 56:-1 57:-0.333333 58:0.333333 59:-1 60:-0.333333 
35.35028057903067 1:-0.333333 2:-0.333333 3:-1 4:0.333333 5:-0.333333 6:-1 7:-1 8:-0.333333 9:1 10:1 11:-0.333333 12:-0.333333 13:1 14:-0.333333 15:-0.333333 16:1 17:-0.333333 18:-1 19:-0.333333 20:-0.333333 21:0.333333 22:0.333333 23:0.333333 24:1 25:-0.333333 26:-0.333333 27:-0.333333 28:0.333333 29:-1 30:-0.333333 31:-0.333333 32:1 33:1 34:-0.333333 35:-0.333333 36:1 37:-1 38:1 39:0.333333 40:-1 41:-1 42:-0.333333 43:-0.333333 44:1 45:1 46:-1 47:0.333333 48:-1 49:-1 50:-0.333333 51:-0.333333 52:0.333333 53:-1 54:-0.333333 55:-0.333333 56:1 57:1 58:1 59:-1 60:-1 
2.200051300728295 1:-1 2:1 3:-0.333333 4:-1 5:-0.333333 6:-1 7:-0.333333 8:-1 9:0.333333 10:-1 11:-0.333333 12:-0.333333 13:0.333333 14:-1 15:1 16:1 17:1 18:-0.333333 19:-0.333333 20:-1 21:0.333333 22:0.333333 23:-1 24:-1 25:-1 26:1 27:1 28:-1 29:1 30:-0.333333 31:-1 32:1 33:-0.333333 34:1 35:-0.333333 36:1 37:1 38:0.333333 39:0.333333 40:-1 41:1 42:-0.333333 43:1 44:-1 45:1 46:-0.333333 47:-0.333333 48:0.333333 49:-1 50:1 51:-1 52:1 53:-0.333333 54:0.333333 55:-1 56:-1 57:-1 58:-0.333333 59:1 60:-0.333333 
3.189581344221203 1:1 2:0.333333 3:0.333333 4:0.333333 5:1 6:-0.333333 7:-0.333333 8:-1 9:-1 10:0.333333 11:-1 12:1 13:-1 14:0.333333 15:0.333333 16:-1 17:-1 18:-1 19:0.333333 20:0.333333 21:0.333333 22:1 23:-1 24:-0.333333 25:-1 26:-1 27:-1 28:1 29:-0.333333 30:1 31:1 32:1 33:0.333333 34:0.333333 35:-1 36:-1 37:-0.333333 38:-1 39:-1 40:0.333333 41:-1 42:0.333333 43:0.333333 44:1 45:-0.333333 46:-0.333333 47:-1 48:-1 49:1 50:1 51:1 52:-0.333333 53:-0.333333 54:1 55:1 56:-1 57:0.333333 58:1 59:0.333333 60:0.333333 
4.32372335494909 1:-0.333333 2:1 3:0.333333 4:0.333333 5:1 6:-0.333333 7:1 8:-0.333333 9:0.333333 10:0.333333 11:1 12:-0.333333 13:1 14:-0.333333 15:1 16:1 17:-1 18:0.333333 19:1 20:1 21:-0.333333 22:0.333333 23:1 24:-1 25:0.333333 26:-1 27:-0.333333 28:1 29:1 30:-1 31:-0.333333 32:-1 33:-1 34:-1 35:0.333333 36:-1 37:-1 38:-1 39:0.333333 40:1 41:1 42:0.333333 43:-1 44:1 45:-0.333333 46:0.333333 47:0.333333 48:0.333333 49:-1 50:-1 51:-1 52:0.333333 53:0.333333 54:-1 55:-1 56:-0.333333 57:-0.333333 58:-1 59:-1 60:0.333333 
4.394882960910222 1:-0.333333 2:-0.333333 3:-1 4:-1 5:-0.333333 6:-0.333333 7:-1 8:-0.333333 9:-0.333333 10:-0.333333 11:-0.333333 12:1 13:-1 14:-1 15:1 16:-0.333333 17:-0.333333 18:-0.333333 19:-0.333333 20:1 21:-1 22:0.333333 23:-1 24:-1 25:-1 26:-1 27:-1 28:1 29:-0.333333 30:-1 31:1 32:-0.333333 33:-1 34:-1 35:1 36:1 37:1 38:0.333333 39:1 40:1 41:1 42:-0.333333 43:1 44:0.333333 45:0.333333 46:0.333333 47:-1 48:-1 49:1 50:0.333333 51:0.333333 52:-1 53:0.333333 54:1 55:1 56:1 57:1 58:-1 59:0.333333 60:0.333333 
3.278259281249596 1:0.333333 2:-1 3:1 4:-1 5:0.333333 6:1 7:1 8:-0.333333 9:1 10:-0.333333 11:0.333333 12:1 13:-1 14:1 15:0.333333 16:0.333333 17:0.333333 18:0.333333 19:1 20:-0.333333 21:0.333333 22:0.333333 23:0.333333 24:1 25:1 26:0.333333 27:1 28:-1 29:-1 30:-1 31:1 32:0.333333 33:1 34:0.333333 35:-1 36:1 37:1 38:-0.333333 39:1 40:-0.333333 41:1 42:-1 43:1 44:1 45:1 46:1 47:-1 48:-1 49:-1 50:1 51:1 52:-1 53:-1 54:-0.333333 55:-1 56:-0.333333 57:-1 58:-1 59:1 60:-1 
2.613564612405072 1:1 2:0.333333 3:-0.333333 4:-1 5:-0.333333 6:-1 7:0.333333 8:1 9:-0.333333 10:-0.333333 11:0.333333 12:0.333333 13:-1 14:-0.333333 15:-1 16:1 17:-0.333333 18:0.333333 19:1 20:0.333333 21:-0.333333 22:1 23:-0.333333 24:-0.333333 25:-1 26:-1 27:1 28:1 29:1 30:-0.333333 31:-0.333333 32:1 33:-1 34:1 35:-0.333333 36:-1 37:-1 38:-0.333333 39:0.333333 40:1 41:-0.333333 42:0.333333 43:1 44:0.333333 45:-1 46:1 47:1 48:-1 49:0.333333 50:0.333333 51:1 52:0.333333 53:1 54:1 55:1 56:1 57:-0.333333 58:1 59:0.333333 60:1 
10.60742146975722 1:-1 2:0.333333 3:-0.333333 4:0.333333 5:0.333333 6:0.333333 7:0.333333 8:-1 9:-0.333333 10:0.333333 11:0.333333 12:0.333333 13:1 14:0.333333 15:1 16:-0.333333 17:-1 18:-1 19:-0.333333 20:-0.333333 21:1 22:-0.333333 23:0.333333 24:1 25:-0.333333 26:0.333333 27:1 28:0.333333 29:0.333333 30:-1 31:-0.333333 32:0.333333 33:1 34:-0.333333 35:1 36:0.333333 37:0.333333 38:1 39:-0.333333 40:-0.333333 41:-0.333333 42:-0.333333 43:-0.333333 44:-1 45:-0.333333 46:-0.333333 47:1 48:-0.333333 49:-0.333333 50:-1 51:0.333333 52:-1 53:0.333333 54:0.333333 55:1 56:0.333333 57:-0.333333 58:1 59:1 60:-0.333333 
7.535373070126603 1:-0.333333 2:-1 3:1 4:0.333333 5:-0.333333 6:1 7:-0.333333 8:0.333333 9:0.333333 10:-1 11:0.333333 12:1 13:-0.333333 14:0.333333 15:-1 16:0.333333 17:1 18:0.333333 19:0.333333 20:-1 21:-0.333333 22:0.333333 23:0.333333 24:1 25:-0.333333 26:-0.333333 27:-0.333333 28:0.333333 29:-0.333333 30:-1 31:0.333333 32:-1 33:-0.333333 34:-1 35:-0.333333 36:1 37:-0.333333 38:-1 39:-0.333333 40:-1 41:0.333333 42:1 43:0.333333 44:1 45:-0.333333 46:1 47:0.333333 48:1 49:0.333333 50:-1 51:-1 52:-1 53:-1 54:-1 55:-1 56:-1 57:-1 58:-1 59:-1 60:-1 
7.459704140775929 1:-0.333333 2:-0.333333 3:-1 4:-0.333333 5:1 6:1 7:-0.333333 8:-0.333333 9:0.333333 10:1 11:-0.333333 12:-0.333333 13:-1 14:-0.333333 15:1 16:0.333333 17:-1 18:1 19:0.333333 20:0.333333 21:1 22:0.333333 23:1 24:0.333333 25:0.333333 26:0.333333 27:-1 28:0.333333 29:-1 30:-1 31:1 32:-0.333333 33:1 34:-0.333333 35:-1 36:-1 37:-1 38:1 39:1 40:-0.333333 41:1 42:0.333333 43:-1 44:-1 45:-0.333333 46:1 47:-0.333333 48:1 49:-1 50:-1 51:-0.333333 52:0.333333 53:0.333333 54:1 55:0.333333 56:0.333333 57:1 58:0.333333 59:0.333333 60:-1 
9.914494847591717 1:-1 2:0.333333 3:-0.333333 4:-0.333333 5:0.333333 6:1 7:0.333333 8:0.333333 9:0.333333 10:-0.333333 11:-0.333333 12:-0.333333 13:-1 14:0.333333 15:0.333333 16:1 17:0.333333 18:-0.333333 19:-0.333333 20:0.333333 21:-1 22:-0.333333 23:-0.333333 24:-1 25:1 26:-0.333333 27:-0.333333 28:-1 29:-1 30:-0.333333 31:-0.333333 32:1 33:-1 34:1 35:-0.333333 36:-1 37:-0.333333 38:0.333333 39:0.333333 40:1 41:0.333333 42:0.333333 43:1 44:0.333333 45:1 46:0.333333 47:0.333333 48:1 49:1 50:1 51:1 52:-0.333333 53:0.333333 54:0.333333 55:0.333333 56:-1 57:1 58:1 59:-0.333333 60:0.333333 
17.70452751905587 1:1 2:-0.333333 3:-0.333333 4:-1 5:-0.333333 6:-0.333333 7:-1 8:-1 9:-1 10:1 11:1 12:0.333333 13:1 14:0.333333 15:-0.333333 16:-1 17:-0.333333 18:-0.333333 19:1 20:-0.333333 21:-1 22:0.333333 23:0.333333 24:1 25:-0.333333 26:-0.333333 27:-1 28:0.333333 29:-1 30:-0.333333 31:-0.333333 32:-0.333333 33:0.333333 34:-0.333333 35:-0.333333 36:-0.333333 37:0.333333 38:1 39:-0.333333 40:-0.333333 41:-0.333333 42:0.333333 43:-0.333333 44:-1 45:-0.333333 46:-0.333333 47:-1 48:0.333333 49:-0.333333 50:0.333333 51:1 52:0.333333 53:0.333333 54:0.333333 55:-0.333333 56:-0.333333 57:-0.333333 58:-0.333333 59:0.333333 60:0.333333 
2.877431983295629 1:-1 2:-1 3:-1 4:1 5:-1 6:1 7:-1 8:-1 9:-1 10:1 11:0.333333 12:-0.333333 13:-0.333333 14:-1 15:-0.333333 16:-0.333333 17:-0.333333 18:-0.333333 19:-1 20:-1 21:-0.333333 22:1 23:-0.333333 24:0.333333 25:1 26:1 27:0.333333 28:1 29:0.333333 30:1 31:-0.333333 32:1 33:1 34:1 35:1 36:-0.333333 37:-0.333333 38:-0.333333 39:-1 40:1 41:1 42:1 43:1 44:-0.333333 45:1 46:-1 47:-1 48:-1 49:1 50:0.333333 51:1 52:1 53:0.333333 54:1 55:0.333333 56:-1 57:-0.333333 58:-0.333333 59:1 60:1 
2.986625091788191 1:0.333333 2:-1 3:-0.333333 4:-1 5:-1 6:-0.333333 7:0.333333 8:-0.333333 9:-0.333333 10:0.333333 11:-1 12:-1 13:-1 14:-1 15:-0.333333 16:0.333333 17:-1 18:-0.333333 19:-0.333333 20:1 21:-1 22:0.333333 23:0.333333 24:0.333333 25:-0.333333 26:0.333333 27:1 28:0.333333 29:-1 30:0.333333 31:-0.333333 32:0.333333 33:0.333333 34:0.333333 35:-0.333333 36:-1 37:-0.333333 38:-1 39:0.333333 40:1 41:1 42:1 43:0.333333 44:-1 45:0.333333 46:-1 47:1 48:0.333333 49:-1 50:-1 51:0.333333 52:0.333333 53:1 54:0.333333 55:1 56:1 57:1 58:0.333333 59:-1 60:-1 
5.677104105813569 1:1 2:-0.333333 3:-1 4:-0.333333 5:-1 6:-1 7:-0.333333 8:-0.333333 9:-1 10:-0.333333 11:-1 12:-0.333333 13:-1 14:0.333333 15:-1 16:-1 17:-1 18:1 19:0.333333 20:-1 21:-1 22:-0.333333 23:-1 24:-1 25:-1 26:0.333333 27:-1 28:-1 29:-1 30:0.333333 31:-0.333333 32:1 33:-0.333333 34:-1 35:-0.333333 36:-0.333333 37:-1 38:-0.333333 39:1 40:-1 41:1 42:1 43:1 44:0.333333 45:-1 46:1 47:1 48:-1 49:0.333333 50:1 51:-0.333333 52:0.333333 53:-1 54:1 55:-0.333333 56:1 57:-0.333333 58:1 59:1 60:1 
8.018210863308969 1:-1 2:-1 3:-0.333333 4:-0.333333 5:-0.333333 6:-1 7:-0.333333 8:1 9:-0.333333 10:-0.333333 11:0.333333 12:1 13:1 14:0.333333 15:0.333333 16:1 17:0.333333 18:1 19:0.333333 20:1 21:-0.333333 22:0.333333 23:0.333333 24:1 25:0.333333 26:1 27:-0.333333 28:1 29:-0.333333 30:0.333333 31:0.333333 32:0.333333 33:-1 34:0.333333 35:1 36:-0.333333 37:-1 38:0.333333 39:-1 40:1 41:-0.333333 42:1 43:-1 44:-0.333333 45:-0.333333 46:-0.333333 47:-0.333333 48:-1 49:-0.333333 50:-1 51:-0.333333 52:-0.333333 53:-0.333333 54:-0.333333 55:-1 56:-1 57:-0.333333 58:-1 59:1 60:-0.333333 
5.913043880453063 1:-0.333333 2:-0.333333 3:-0.333333 4:-1 5:0.333333 6:-1 7:-0.333333 8:0.333333 9:0.333333 10:1 11:0.333333 12:-1 13:0.333333 14:0.333333 15:0.333333 16:1 17:1 18:-1 19:-1 20:-0.333333 21:0.333333 22:1 23:-1 24:-0.333333 25:1 26:0.333333 27:0.333333 28:0.333333 29:1 30:1 31:0.333333 32:1 33:0.333333 34:0.333333 35:0.333333 36:0.333333 37:1 38:1 39:1 40:-0.333333 41:0.333333 42:-1 43:-0.333333 44:-1 45:0.333333 46:-0.333333 47:-1 48:-0.333333 49:-1 50:1 51:-0.333333 52:0.333333 53:-1 54:-0.333333 55:0.333333 56:-0.333333 57:-1 58:0.333333 59:1 60:-1 
5.575187141286435 1:-1 2:-1 3:0.333333 4:1 5:-1 6:1 7:-1 8:1 9:1 10:-0.333333 11:0.333333 12:-0.333333 13:-0.333333 14:-1 15:0.333333 16:-1 17:1 18:1 19:-0.333333 20:-1 21:-0.333333 22:-0.333333 23:1 24:-0.333333 25:-0.333333 26:-1 27:0.333333 28:-0.333333 29:-0.333333 30:0.333333 31:-1 32:-1 33:-0.333333 34:0.333333 35:-1 36:-0.333333 37:-0.333333 38:1 39:-0.333333 40:-0.333333 41:-1 42:-0.333333 43:0.333333 44:1 45:-0.333333 46:-0.333333 47:0.333333 48:1 49:0.333333 50:1 51:-0.333333 52:1 53:-0.333333 54:-0.333333 55:-0.333333 56:-1 57:0.333333 58:-1 59:0.333333 60:-1 
4.204799332796296 1:0.333333 2:-1 3:-0.333333 4:-0.333333 5:-1 6:0.333333 7:-1 8:-1 9:-1 10:0.333333 11:0.333333 12:0.333333 13:1 14:-1 15:0.333333 16:-1 17:-1 18:-1 19:1 20:-0.333333 21:1 22:-1 23:0.333333 24:1 25:-0.333333 26:-1 27:0.333333 28:1 29:-0.333333 30:1 31:-0.333333 32:-0.333333 33:-0.333333 34:-1 35:-1 36:-0.333333 37:1 38:0.333333 39:-0.333333 40:1 41:1 42:1 43:-1 44:-1 45:0.333333 46:0.333333 47:-1 48:1 49:-1 50:-1 51:0.333333 52:-0.333333 53:0.333333 54:-1 55:0.333333 56:-1 57:0.333333 58:0.333333 59:1 60:0.333333 
3.486159944261597 1:1 2:-0.333333 3:1 4:1 5:1 6:1 7:0.333333 8:1 9:-1 10:-0.333333 11:-0.333333 12:-1 13:-1 14:-0.333333 15:-1 16:1 17:-0.333333 18:1 19:-0.333333 20:-0.333333 21:-1 22:0.333333 23:-1 24:-1 25:-0.333333 26:-0.333333 27:0.333333 28:-1 29:-0.333333 30:1 31:-0.333333 32:-1 33:-1 34:-0.333333 35:-0.333333 36:0.333333 37:0.333333 38:-0.333333 39:0.333333 40:0.333333 41:0.333333 42:-0.333333 43:-0.333333 44:-0.333333 45:0.333333 46:0.333333 47:-0.333333 48:0.333333 49:0.333333 50:1 51:1 52:0.333333 53:0.333333 54:-1 55:-0.333333 56:0.333333 57:1 58:-0.333333 59:-0.333333 60:-0.333333 
4.233104768224552 1:-1 2:-0.333333 3:0.333333 4:-1 5:-0.333333 6:0.333333 7:-1 8:-0.333333 9:-0.333333 10:-0.333333 11:0.333333 12:-1 13:0.333333 14:1 15:0.333333 16:-1 17:-0.333333 18:0.333333 19:-0.333333 20:-1 21:-0.333333 22:-0.333333 23:-0.333333 24:-0.333333 25:-1 26:0.333333 27:-1 28:1 29:0.333333 30:1 31:1 32:-0.333333 33:0.333333 34:0.333333 35:0.333333 36:-1 37:-0.333333 38:1 39:-0.333333 40:0.333333 41:1 42:-0.333333 43:-1 44:1 45:-0.333333 46:-0.333333 47:-0.333333 48:-1 49:0.333333 50:-1 51:1 52:-0.333333 53:-0.333333 54:1 55:-1 56:1 57:0.333333 58:1 59:0.333333 60:0.333333 
9.245651947061665 1:0.333333 2:0.333333 3:1 4:-1 5:-0.333333 6:-0.333333 7:-0.333333 8:-0.333333 9:0.333333 10:-1 11:1 12:-0.333333 13:-0.333333 14:0.333333 15:0.333333 16:0.333333 17:-1 18:-0.333333 19:1 20:-0.333333 21:1 22:0.333333 23:1 24:0.333333 25:1 26:-0.333333 27:0.333333 28:1 29:0.333333 30:0.333333 31:1 32:-0.333333 33:-1 34:-0.333333 35:1 36:-0.333333 37:0.333333 38:0.333333 39:0.333333 40:-1 41:0.333333 42:0.333333 43:-0.333333 44:1 45:-0.333333 46:0.333333 47:-1 48:-0.333333 49:0.333333 50:-1 51:0.333333 52:1 53:1 54:-0.333333 55:0.333333 56:-1 57:-0.333333 58:-0.333333 59:-0.333333 60:-0.333333 
3.161121187393102 1:-0.333333 2:0.333333 3:1 4:1 5:1 6:0.333333 7:0.333333 8:1 9:-0.333333 10:0.333333 11:1 12:1 13:-0.333333 14:-0.333333 15:0.333333 16:-1 17:-0.333333 18:1 19:1 20:-1 21:1 22:1 23:0.333333 24:1 25:1 26:0.333333 27:0.333333 28:-1 29:0.333333 30:-1 31:-1 32:-0.333333 33:-1 34:-0.333333 35:-1 36:-0.333333 37:-0.333333 38:-0.333333 39:0.333333 40:1 41:1 42:1 43:0.333333 44:1 45:0.333333 46:-1 47:-0.333333 48:-0.333333 49:-1 50:0.333333 51:0.333333 52:1 53:-0.333333 54:-0.333333 55:1 56:1 57:-0.333333 58:0.333333 59:1 60:-1 
1.235013786840677 1:0.333333 2:1 3:0.333333 4:-1 5:-1 6:1 7:-0.333333 8:-0.333333 9:-1 10:-0.333333 11:-1 12:0.333333 13:0.333333 14:0.333333 15:0.333333 16:1 17:-0.333333 18:-0.333333 19:0.333333 20:-1 21:0.333333 22:-1 23:-1 24:-0.333333 25:-1 26:1 27:0.333333 28:0.333333 29:0.333333 30:1 31:-0.333333 32:0.333333 33:0.333333 34:0.333333 35:1 36:-0.333333 37:-0.333333 38:-1 39:0.333333 40:0.333333 41:0.333333 42:-1 43:-0.333333 44:-1 45:-0.333333 46:-1 47:-1 48:-0.333333 49:0.333333 50:1 51:0.333333 52:-1 53:-1 54:1 55:-0.333333 56:1 57:0.333333 58:1 59:1 60:0.333333 
0.1361114114774175 1:-1 2:-0.333333 3:-0.333333 4:-1 5:-0.333333 6:1 7:1 8:1 9:-0.333333 10:-0.333333 11:1 12:-1 13:-1 14:-1 15:-0.333333 16:-1 17:1 18:1 19:-0.333333 20:-0.333333 21:1 22:-1 23:-1 24:-1 25:1 26:-0.333333 27:-1 28:-0.333333 29:-0.333333 30:-0.333333 31:0.333333 32:-1 33:1 34:1 35:1 36:-1 37:-1 38:-0.333333 39:-1 40:1 41:1 42:1 43:-0.333333 44:0.333333 45:0.333333 46:-1 47:1 48:-0.333333 49:-0.333333 50:-0.333333 51:1 52:1 53:-0.333333 54:0.333333 55:-1 56:-1 57:-1 58:-1 59:-0.333333 60:1 
3.024660739124282 1:0.333333 2:-1 3:1 4:1 5:0.333333 6:1 7:0.333333 8:-1 9:0.333333 10:-1 11:1 12:0.333333 13:1 14:-0.333333 15:1 16:1 17:0.333333 18:1 19:0.333333 20:1 21:-1 22:-1 23:0.333333 24:1 25:1 26:1 27:-1 28:-1 29:0.333333 30:1 31:-0.333333 32:-1 33:-1 34:-0.333333 35:1 36:1 37:1 38:1 39:0.333333 40:1 41:-1 42:-1 43:1 44:1 45:0.333333 46:1 47:0.333333 48:1 49:0.333333 50:0.333333 51:-1 52:-0.333333 53:0.333333 54:1 55:1 56:-0.333333 57:-1 58:-1 59:-1 60:-0.333333 
12.07775166289384 1:1 2:-0.333333 3:-1 4:1 5:1 6:0.333333 7:1 8:0.333333 9:-1 10:1 11:-0.333333 12:-1 13:-1 14:-1 15:1 16:-1 17:0.333333 18:0.333333 19:0.333333 20:1 21:-0.333333 22:-1 23:-0.333333 24:-1 25:1 26:0.333333 27:-0.333333 28:-1 29:-1 30:-0.333333 31:-0.333333 32:1 33:-1 34:-0.333333 35:-0.333333 36:0.333333 37:-1 38:-1 39:-0.333333 40:1 41:-0.333333 42:-1 43:0.333333 44:1 45:-0.333333 46:-1 47:-1 48:-0.333333 49:-0.333333 50:-0.333333 51:-1 52:0.333333 53:-1 54:0.333333 55:0.333333 56:-0.333333 57:1 58:-0.333333 59:0.333333 60:-0.333333 
5.734112987339829 1:0.333333 2:1 3:0.333333 4:0.333333 5:-1 6:0.333333 7:-0.333333 8:1 9:0.333333 10:1 11:-0.333333 12:1 13:0.333333 14:1 15:-0.333333 16:1 17:0.333333 18:1 19:-0.333333 20:1 21:-0.333333 22:-0.333333 23:-1 24:1 25:0.333333 26:-1 27:-0.333333 28:1 29:-0.333333 30:1 31:-0.333333 32:1 33:1 34:1 35:1 36:-0.333333 37:-1 38:-0.333333 39:1 40:0.333333 41:1 42:-0.333333 43:-1 44:0.333333 45:-1 46:-0.333333 47:1 48:0.333333 49:1 50:-1 51:0.333333 52:0.333333 53:1 54:-0.333333 55:-0.333333 56:0.333333 57:1 58:-0.333333 59:-0.333333 60:1 
3.662824055371959 1:1 2:-0.333333 3:1 4:-1 5:-1 6:-1 7:1 8:-0.333333 9:0.333333 10:-1 11:-1 12:-1 13:0.333333 14:0.333333 15:-1 16:1 17:0.333333 18:1 19:-1 20:-1 21:1 22:-1 23:-0.333333 24:1 25:0.333333 26:-1 27:-0.333333 28:0.333333 29:-0.333333 30:-1 31:-0.333333 32:-1 33:0.333333 34:0.333333 35:0.333333 36:1 37:-1 38:1 39:-1 40:-0.333333 41:0.333333 42:0.333333 43:0.333333 44:1 45:-0.333333 46:0.333333 47:1 48:-0.333333 49:0.333333 50:1 51:1 52:-1 53:-1 54:1 55:-0.333333 56:-0.333333 57:-0.333333 58:-0.333333 59:-0.333333 60:0.333333 
1.830912643722977 1:-0.333333 2:-1 3:-1 4:1 5:-1 6:-1 7:-1 8:-1 9:-0.333333 10:1 11:-0.333333 12:0.333333 13:-1 14:1 15:-0.333333 16:0.333333 17:0.333333 18:1 19:1 20:-1 21:1 22:-1 23:-1 24:-1 25:-1 26:-1 27:-1 28:-1 29:-1 30:0.333333 31:-1 32:0.333333 33:1 34:1 35:-1 36:1 37:-0.333333 38:1 39:1 40:1 41:0.333333 42:0.333333 43:-1 44:0.333333 45:1 46:-1 47:1 48:-1 49:0.333333 50:1 51:-0.333333 52:1 53:-1 54:-0.333333 55:1 56:0.333333 57:1 58:-1 59:1 60:1 
1.516661052328685 1:1 2:-0.333333 3:1 4:-0.333333 5:-0.333333 6:-1 7:-0.333333 8:-1 9:0.333333 10:-1 11:1 12:-0.333333 13:-0.333333 14:0.333333 15:1 16:-0.333333 17:-0.333333 18:-1 19:1 20:1 21:0.333333 22:0.333333 23:-0.333333 24:0.333333 25:0.333333 26:-1 27:-1 28:-1 29:-0.333333 30:-1 31:-1 32:-1 33:1 34:-1 35:-1 36:-1 37:-1 38:-1 39:-1 40:-0.333333 41:0.333333 42:-1 43:-0.333333 44:-0.333333 45:1 46:1 47:0.333333 48:-0.333333 49:1 50:-0.333333 51:-0.333333 52:1 53:-0.333333 54:1 55:0.333333 56:0.333333 57:0.333333 58:1 59:1 60:-0.333333 
11.6722498773796 1:-1 2:-0.333333 3:-1 4:-0.333333 5:0.333333 6:0.333333 7:0.333333 8:0.333333 9:0.333333 10:0.333333 11:1 12:0.333333 13:-1 14:-1 15:0.333333 16:1 17:0.333333 18:1 19:-0.333333 20:1 21:1 22:0.333333 23:1 24:0.333333 25:0.333333 26:0.333333 27:0.333333 28:1 29:-1 30:-0.333333 31:-0.333333 32:-0.333333 33:-0.333333 34:0.333333 35:1 36:0.333333 37:0.333333 38:0.333333 39:1 40:-0.333333 41:-0.333333 42:1 43:-0.333333 44:1 45:1 46:-0.333333 47:-0.333333 48:0.333333 49:0.333333 50:1 51:0.333333 52:-1 53:0.333333 54:-1 55:0.333333 56:0.333333 57:1 58:1 59:0.333333 60:-1 
4.062410401999899 1:-0.333333 2:-0.333333 3:0.333333 4:0.333333 5:1 6:-0.333333 7:1 8:1 9:-1 10:-0.333333 11:0.333333 12:0.333333 13:0.333333 14:-0.333333 15:-0.333333 16:0.333333 17:-0.333333 18:-0.333333 19:-0.333333 20:-1 21:1 22:-0.333333 23:0.333333 24:0.333333 25:0.333333 26:1 27:-1 28:0.333333 29:-0.333333 30:1 31:-0.333333 32:-1 33:-1 34:-1 35:-1 36:-0.333333 37:-0.333333 38:0.333333 39:1 40:-0.333333 41:0.333333 42:0.333333 43:-1 44:0.333333 45:1 46:-1 47:-0.333333 48:-1 49:0.333333 50:-0.333333 51:1 52:-1 53:-0.333333 54:-1 55:1 56:1 57:-0.333333 58:0.333333 59:1 60:-0.333333 
5.914154303496201 1:-1 2:-1 3:-1 4:-0.333333 5:1 6:0.333333 7:-1 8:-0.333333 9:0.333333 10:1 11:0.333333 12:0.333333 13:-1 14:0.333333 15:1 16:-0.333333 17:-1 18:-1 19:-0.333333 20:0.333333 21:1 22:-0.333333 23:1 24:-0.333333 25:-0.333333 26:0.333333 27:0.333333 28:0.333333 29:-0.333333 30:-0.333333 31:-0.333333 32:-1 33:1 34:-0.333333 35:0.333333 36:-0.333333 37:-0.333333 38:0.333333 39:1 40:0.333333 41:-0.333333 42:1 43:-1 44:-0.333333 45:0.333333 46:-1 47:1 48:0.333333 49:0.333333 50:-0.333333 51:0.333333 52:-1 53:-1 54:0.333333 55:-0.333333 56:-1 57:0.333333 58:1 59:-0.333333 60:-0.333333 
3.91035025523595 1:1 2:-0.333333 3:1 4:-1 5:-0.333333 6:-1 7:1 8:1 9:1 10:1 11:1 12:1 13:1 14:1 15:1 16:1 17:1 18:1 19:-0.333333 20:0.333333 21:-1 22:0.333333 23:0.333333 24:0.333333 25:0.333333 26:-1 27:1 28:-0.333333 29:0.333333 30:1 31:-0.333333 32:1 33:1 34:-0.333333 35:-1 36:1 37:1 38:-0.333333 39:0.333333 40:1 41:-1 42:-1 43:-1 44:1 45:-0.333333 46:1 47:-1 48:-1 49:0.333333 50:-1 51:-0.333333 52:1 53:0.333333 54:1 55:-0.333333 56:-1 57:1 58:0.333333 59:-0.333333 60:1 
5.801481565351909 1:-1 2:1 3:-0.333333 4:-0.333333 5:-1 6:0.333333 7:-1 8:-0.333333 9:-1 10:0.333333 11:0.333333 12:0.333333 13:1 14:1 15:0.333333 16:0.333333 17:1 18:0.333333 19:1 20:1 21:1 22:-0.333333 23:1 24:-0.333333 25:-0.333333 26:1 27:0.333333 28:0.333333 29:-0.333333 30:-0.333333 31:0.333333 32:-1 33:0.333333 34:-1 35:-1 36:0.333333 37:0.333333 38:0.333333 39:0.333333 40:-1 41:0.333333 42:-1 43:-0.333333 44:-0.333333 45:-1 46:-1 47:0.333333 48:-1 49:-0.333333 50:1 51:0.333333 52:0.333333 53:1 54:1 55:1 56:1 57:0.333333 58:-1 59:1 60:-0.333333 
6.031061809036841 1:-1 2:1 3:1 4:1 5:1 6:1 7:-0.333333 8:1 9:-1 10:1 11:1 12:1 13:-1 14:-0.333333 15:1 16:-0.333333 17:-0.333333 18:0.333333 19:-1 20:-0.333333 21:-0.333333 22:1 23:1 24:1 25:0.333333 26:-0.333333 27:0.333333 28:-1 29:1 30:-0.333333 31:1 32:1 33:-1 34:-0.333333 35:1 36:-1 37:-0.333333 38:-0.333333 39:-0.333333 40:1 41:-0.333333 42:-0.333333 43:1 44:0.333333 45:1 46:1 47:0.333333 48:1 49:1 50:-0.333333 51:-1 52:0.333333 53:0.333333 54:1 55:-0.333333 56:-1 57:0.333333 58:0.333333 59:1 60:1 
2.444164654449231 1:1 2:1 3:0.333333 4:-1 5:1 6:-0.333333 7:-0.333333 8:0.333333 9:-1 10:-0.333333 11:-0.333333 12:0.333333 13:1 14:0.333333 15:1 16:-1 17:-1 18:-0.333333 19:-1 20:-0.333333 21:-0.333333 22:-1 23:-0.333333 24:-1 25:-0.333333 26:0.333333 27:0.333333 28:1 29:0.333333 30:0.333333 31:1 32:0.333333 33:0.333333 34:-1 35:-0.333333 36:-0.333333 37:-0.333333 38:-1 39:-0.333333 40:-0.333333 41:-1 42:-1 43:-1 44:-0.333333 45:-0.333333 46:-1 47:0.333333 48:1 49:1 50:1 51:-0.333333 52:-0.333333 53:0.333333 54:1 55:1 56:1 57:0.333333 58:1 59:-1 60:-0.333333 
5.888814562862944 1:-1 2:-0.333333 3:0.333333 4:-1 5:1 6:-1 7:-1 8:1 9:-0.333333 10:1 11:-0.333333 12:-1 13:-0.333333 14:-0.333333 15:-1 16:-0.333333 17:-0.333333 18:1 19:-0.333333 20:-0.333333 21:-1 22:-0.333333 23:-1 24:-0.333333 25:-1 26:0.333333 27:0.333333 28:-1 29:-0.333333 30:0.333333 31:0.333333 32:0.333333 33:-1 34:0.333333 35:0.333333 36:0.333333 37:0.333333 38:0.333333 39:-0.333333 40:1 41:-0.333333 42:1 43:0.333333 44:0.333333 45:-1 46:0.333333 47:0.333333 48:-0.333333 49:1 50:-0.333333 51:-1 52:0.333333 53:0.333333 54:0.333333 55:0.333333 56:1 57:-0.333333 58:1 59:0.333333 60:0.333333 
1.798729512497255 1:1 2:-1 3:0.333333 4:0.333333 5:-1 6:0.333333 7:1 8:-0.333333 9:0.333333 10:1 11:-0.333333 12:-0.333333 13:1 14:-0.333333 15:-1 16:-0.333333 17:0.333333 18:1 19:-0.333333 20:-1 21:-1 22:-1 23:-0.333333 24:1 25:1 26:1 27:0.333333 28:-1 29:1 30:-1 31:1 32:1 33:0.333333 34:-1 35:1 36:-1 37:-1 38:-1 39:1 40:-0.333333 41:1 42:0.333333 43:-1 44:0.333333 45:-1 46:-0.333333 47:1 48:-0.333333 49:1 50:-1 51:-0.333333 52:1 53:-0.333333 54:-0.333333 55:1 56:1 57:-1 58:-1 59:-0.333333 60:-0.333333 
1.110823571309317 1:1 2:0.333333 3:1 4:0.333333 5:0.333333 6:0.333333 7:0.333333 8:-1 9:1 10:-1 11:1 12:-0.333333 13:0.333333 14:-1 15:-1 16:1 17:1 18:1 19:-0.333333 20:0.333333 21:1 22:1 23:-1 24:-1 25:1 26:-0.333333 27:1 28:-1 29:-1 30:0.333333 31:0.333333 32:1 33:0.333333 34:1 35:1 36:0.333333 37:1 38:1 39:1 40:1 41:-0.333333 42:0.333333 43:0.333333 44:-1 45:1 46:-0.333333 47:1 48:1 49:1 50:0.333333 51:0.333333 52:-1 53:1 54:1 55:0.333333 56:1 57:-0.333333 58:0.333333 59:0.333333 60:-1 
5.544336259182309 1:0.333333 2:0.333333 3:0.333333 4:0.333333 5:-1 6:-1 7:0.333333 8:1 9:1 10:-0.333333 11:-1 12:-0.333333 13:-1 14:1 15:-0.333333 16:1 17:-1 18:1 19:-0.333333 20:-1 21:-1 22:-0.333333 23:-0.333333 24:0.333333 25:1 26:1 27:1 28:1 29:-0.333333 30:-0.333333 31:1 32:0.333333 33:1 34:0.333333 35:0.333333 36:0.333333 37:1 38:-0.333333 39:-0.333333 40:-0.333333 41:-1 42:-0.333333 43:1 44:-0.333333 45:-0.333333 46:-0.333333 47:1 48:-0.333333 49:-0.333333 50:-1 51:-0.333333 52:-0.333333 53:0.333333 54:-1 55:-0.333333 56:0.333333 57:0.333333 58:-1 59:-0.333333 60:-0.333333 
9.820667019732372 1:-0.333333 2:-1 3:-1 4:-0.333333 5:1 6:0.333333 7:-1 8:1 9:0.333333 10:1 11:0.333333 12:-1 13:-0.333333 14:-1 15:-1 16:-1 17:1 18:-0.333333 19:1 20:1 21:1 22:-0.333333 23:-1 24:0.333333 25:0.333333 26:1 27:0.333333 28:0.333333 29:-1 30:-0.333333 31:-0.333333 32:1 33:-1 34:-1 35:-0.333333 36:-1 37:1 38:-0.333333 39:0.333333 40:1 41:1 42:0.333333 43:1 44:0.333333 45:1 46:0.333333 47:1 48:-0.333333 49:-1 50:0.333333 51:-1 52:1 53:-1 54:-0.333333 55:0.333333 56:1 57:1 58:1 59:0.333333 60:0.333333 
279.508497187 1:-0.333333 2:-0.333333 3:-1 4:-1 5:-0.333333 6:-1 7:1 8:-0.333333 9:0.333333 10:1 11:-0.333333 12:-0.333333 13:-1 14:-0.333333 15:-0.333333 16:-1 17:-0.333333 18:-1 19:-1 20:-1 21:0.333333 22:0.333333 23:0.333333 24:1 25:-0.333333 26:-0.333333 27:-0.333333 28:-1 29:-1 30:-0.333333 31:-0.333333 32:1 33:-1 34:-0.333333 35:-0.333333 36:0.333333 37:1 38:0.333333 39:1 40:-0.333333 41:-0.333333 42:1 43:-0.333333 44:-1 45:0.333333 46:0.333333 47:-1 48:-0.333333 49:-0.333333 50:-1 51:0.333333 52:-1 53:-1 54:-0.333333 55:-0.333333 56:-0.333333 57:-1 58:-0.333333 59:-0.333333 60:-0.333333 
0.6318376437262355 1:-1 2:0.333333 3:1 4:-0.333333 5:-0.333333 6:0.333333 7:-0.333333 8:-0.333333 9:-1 10:-1 11:1 12:-0.333333 13:-1 14:-1 15:1 16:1 17:1 18:-0.333333 19:-1 20:0.333333 21:1 22:-0.333333 23:-0.333333 24:-1 25:-1 26:-0.333333 27:-1 28:-1 29:-0.333333 30:0.333333 31:-1 32:-0.333333 33:-0.333333 34:1 35:-0.333333 36:-0.333333 37:-1 38:-0.333333 39:-1 40:1 41:1 42:0.333333 43:1 44:0.333333 45:-1 46:-1 47:0.333333 48:-1 49:-0.333333 50:-1 51:1 52:-1 53:0.333333 54:0.333333 55:0.333333 56:1 57:0.333333 58:-1 59:0.333333 60:1 
16.60989405260896 1:-0.333333 2:-1 3:-0.333333 4:-0.333333 5:-0.333333 6:-0.333333 7:-0.333333 8:-1 9:1 10:-0.333333 11:-0.333333 12:-0.333333 13:-0.333333 14:-0.333333 15:-0.333333 16:-0.333333 17:0.333333 18:-1 19:-0.333333 20:-1 21:1 22:0.333333 23:1 24:1 25:-0.333333 26:-0.333333 27:-1 28:0.333333 29:1 30:0.333333 31:-1 32:1 33:-0.333333 34:-1 35:-0.333333 36:-0.333333 37:-1 38:-0.333333 39:-0.333333 40:-0.333333 41:-0.333333 42:0.333333 43:0.333333 44:0.333333 45:0.333333 46:0.333333 47:0.333333 48:1 49:-0.333333 50:0.333333 51:0.333333 52:0.333333 53:-1 54:-0.333333 55:-1 56:-0.333333 57:-0.333333 58:-0.333333 59:-0.333333 60:1 
50.72064798756583 1:1 2:0.333333 3:1 4:0.333333 5:-0.333333 6:-0.333333 7:-0.333333 8:-0.333333 9:-0.333333 10:0.333333 11:-0.333333 12:-0.333333 13:0.333333 14:0.333333 15:-0.333333 16:-0.333333 17:0.333333 18:-0.333333 19:0.333333 20:-0.333333 21:-0.333333 22:0.333333 23:-0.333333 24:-0.333333 25:-0.333333 26:-0.333333 27:-1 28:-0.333333 29:0.333333 30:-0.333333 31:-0.333333 32:1 33:0.333333 34:0.333333 35:0.333333 36:0.333333 37:-0.333333 38:-0.333333 39:0.333333 40:0.333333 41:-0.333333 42:0.333333 43:-0.333333 44:-0.333333 45:0.333333 46:0.333333 47:0.333333 48:0.333333 49:-0.333333 50:-1 51:0.333333 52:-0.333333 53:1 54:-0.333333 55:1 56:-0.333333 57:1 58:-0.333333 59:1 60:0.333333 
3.747633374383287 1:1 2:-0.333333 3:0.333333 4:1 5:-1 6:-1 7:0.333333 8:1 9:1 10:0.333333 11:-1 12:-1 13:-0.333333 14:-1 15:1 16:-1 17:-0.333333 18:-1 19:-0.333333 20:0.333333 21:0.333333 22:1 23:0.333333 24:0.333333 25:1 26:-0.333333 27:-0.333333 28:-1 29:0.333333 30:1 31:1 32:1 33:1 34:0.333333 35:0.333333 36:-0.333333 37:1 38:-0.333333 39:-0.333333 40:0.333333 41:0.333333 42:-0.333333 43:0.333333 44:-0.333333 45:-0.333333 46:0.333333 47:-1 48:-1 49:0.333333 50:0.333333 51:-1 52:0.333333 53:0.333333 54:0.333333 55:0.333333 56:-1 57:-1 58:-0.333333 59:-1 60:1 
11.01104335938033 1:-0.333333 2:-0.333333 3:-0.333333 4:-0.333333 5:1 6:-0.333333 7:-1 8:-1 9:-1 10:-0.333333 11:-0.333333 12:-0.333333 13:-1 14:0.333333 15:1 16:0.333333 17:1 18:0.333333 19:1 20:-0.333333 21:-0.333333 22:0.333333 23:0.333333 24:0.333333 25:-1 26:-0.333333 27:-0.333333 28:1 29:0.333333 30:-1 31:-0.333333 32:-0.333333 33:-0.333333 34:-0.333333 35:-1 36:-0.333333 37:-0.333333 38:-0.333333 39:-1 40:-1 41:-1 42:-0.333333 43:-1 44:0.333333 45:-1 46:1 47:0.333333 48:0.333333 49:0.333333 50:0.333333 51:-0.333333 52:-1 53:-0.333333 54:-1 55:-1 56:-0.333333 57:-1 58:1 59:1 60:0.333333 
8.329451152240624 1:-1 2:-0.333333 3:-1 4:-1 5:-0.333333 6:0.333333 7:0.333333 8:-0.333333 9:-0.333333 10:-1 11:-1 12:-0.333333 13:1 14:-0.333333 15:-0.333333 16:1 17:-0.333333 18:-1 19:-1 20:-0.333333 21:-1 22:0.333333 23:-0.333333 24:0.333333 25:-1 26:0.333333 27:0.333333 28:1 29:-0.333333 30:0.333333 31:-0.333333 32:-0.333333 33:-0.333333 34:-1 35:0.333333 36:-1 37:1 38:-0.333333 39:-1 40:1 41:0.333333 42:-1 43:1 44:0.333333 45:0.333333 46:1 47:-1 48:0.333333 49:0.333333 50:0.333333 51:-0.333333 52:-1 53:-0.333333 54:-1 55:1 56:-0.333333 57:-0.333333 58:1 59:-0.333333 60:-0.333333 
2.791057494136383 1:-1 2:-1 3:1 4:0.333333 5:0.333333 6:-1 7:-0.333333 8:-0.333333 9:1 10:-0.333333 11:0.333333 12:-1 13:-1 14:-1 15:-1 16:0.333333 17:-0.333333 18:-1 19:-1 20:1 21:1 22:0.333333 23:1 24:-1 25:-0.333333 26:-1 27:-0.333333 28:0.333333 29:1 30:1 31:-0.333333 32:-1 33:0.333333 34:0.333333 35:-1 36:-0.333333 37:1 38:1 39:1 40:-1 41:-1 42:-0.333333 43:-0.333333 44:-0.333333 45:-0.333333 46:0.333333 47:-1 48:-0.333333 49:0.333333 50:-1 51:-0.333333 52:-0.333333 53:-0.333333 54:-1 55:0.333333 56:-1 57:-1 58:-1 59:-1 60:-1 
5.48825880584607 1:-0.333333 2:-0.333333 3:-0.333333 4:-1 5:-0.333333 6:1 7:0.333333 8:0.333333 9:1 10:-1 11:-0.333333 12:0.333333 13:0.333333 14:1 15:-0.333333 16:-1 17:-0.333333 18:-1 19:-0.333333 20:-0.333333 21:0.333333 22:1 23:-0.333333 24:-0.333333 25:-0.333333 26:-0.333333 27:-0.333333 28:1 29:0.333333 30:0.333333 31:-1 32:1 33:1 34:1 35:1 36:-0.333333 37:-1 38:-0.333333 39:-0.333333 40:1 41:1 42:-1 43:-0.333333 44:-1 45:-0.333333 46:-1 47:-0.333333 48:-0.333333 49:-0.333333 50:-0.333333 51:0.333333 52:-1 53:-0.333333 54:1 55:-1 56:-0.333333 57:-1 58:-0.333333 59:0.333333 60:-1 
4.271383417352735 1:0.333333 2:1 3:-0.333333 4:-0.333333 5:-1 6:0.333333 7:-1 8:0.333333 9:-1 10:0.333333 11:-0.333333 12:0.333333 13:0.333333 14:0.333333 15:-1 16:-0.333333 17:-0.333333 18:1 19:1 20:-0.333333 21:1 22:-1 23:-0.333333 24:-0.333333 25:1 26:-0.333333 27:-1 28:-1 29:0.333333 30:-0.333333 31:0.333333 32:1 33:-1 34:1 35:-0.333333 36:-0.333333 37:0.333333 38:1 39:0.333333 40:0.333333 41:-1 42:-1 43:-0.333333 44:-1 45:-1 46:-0.333333 47:-1 48:-0.333333 49:0.333333 50:-1 51:1 52:-0.333333 53:-0.333333 54:1 55:0.333333 56:-1 57:1 58:1 59:0.333333 60:1 
2.08150531121116 1:0.333333 2:0.333333 3:1 4:-0.333333 5:1 6:-0.333333 7:-0.333333 8:-0.333333 9:1 10:-0.333333 11:-1 12:-1 13:-0.333333 14:-1 15:-0.333333 16:-1 17:-0.333333 18:-1 19:-0.333333 20:-0.333333 21:-0.333333 22:-1 23:-1 24:-1 25:0.333333 26:-1 27:0.333333 28:-1 29:-0.333333 30:0.333333 31:-1 32:-0.333333 33:0.333333 34:-1 35:1 36:0.333333 37:1 38:0.333333 39:1 40:0.333333 41:0.333333 42:-1 43:0.333333 44:1 45:-0.333333 46:-1 47:-1 48:-1 49:-0.333333 50:-1 51:-1 52:-0.333333 53:1 54:-0.333333 55:-0.333333 56:-0.333333 57:-1 58:0.333333 59:1 60:1 
7.499786224786667 1:0.333333 2:1 3:-0.333333 4:1 5:-0.333333 6:0.333333 7:-1 8:-1 9:1 10:-0.333333 11:0.333333 12:0.333333 13:0.333333 14:-1 15:-1 16:-1 17:0.333333 18:1 19:-0.333333 20:1 21:0.333333 22:0.333333 23:0.333333 24:1 25:-0.333333 26:1 27:-0.333333 28:-1 29:-0.333333 30:1 31:1 32:-0.333333 33:-1 34:-1 35:1 36:-0.333333 37:0.333333 38:0.333333 39:0.333333 40:0.333333 41:1 42:-0.333333 43:-0.333333 44:0.333333 45:-1 46:-0.333333 47:-0.333333 48:-1 49:1 50:-0.333333 51:0.333333 52:-0.333333 53:1 54:-0.333333 55:1 56:0.333333 57:0.333333 58:-1 59:0.333333 60:1 
0.5387512338124462 1:0.333333 2:1 3:1 4:1 5:-0.333333 6:-0.333333 7:0.333333 8:-1 9:0.333333 10:0.333333 11:-0.333333 12:-0.333333 13:0.333333 14:-0.333333 15:-1 16:0.333333 17:-0.333333 18:-0.333333 19:0.333333 20:0.333333 21:1 22:1 23:-0.333333 24:-0.333333 25:-0.333333 26:0.333333 27:0.333333 28:0.333333 29:-0.333333 30:1 31:-0.333333 32:-1 33:0.333333 34:1 35:1 36:1 37:1 38:0.333333 39:0.333333 40:1 41:0.333333 42:1 43:0.333333 44:-1 45:-0.333333 46:-0.333333 47:0.333333 48:0.333333 49:1 50:1 51:-0.333333 52:1 53:1 54:0.333333 55:1 56:0.333333 57:1 58:-0.333333 59:0.333333 60:1 
11.73959868046018 1:0.333333 2:0.333333 3:1 4:-0.333333 5:-0.333333 6:1 7:-0.333333 8:-1 9:-1 10:-0.333333 11:-1 12:0.333333 13:0.333333 14:-1 15:-1 16:-0.333333 17:-0.333333 18:-1 19:-0.333333 20:-0.333333 21:-1 22:-0.333333 23:0.333333 24:1 25:-0.333333 26:0.333333 27:-1 28:0.333333 29:0.333333 30:1 31:-0.333333 32:-0.333333 33:1 34:-0.333333 35:-1 36:1 37:-0.333333 38:-1 39:0.333333 40:-1 41:-0.333333 42:0.333333 43:-1 44:0.333333 45:0.333333 46:0.333333 47:0.333333 48:0.333333 49:-0.333333 50:0.333333 51:0.333333 52:0.333333 53:0.333333 54:0.333333 55:-1 56:0.333333 57:0.333333 58:-1 59:0.333333 60:0.333333 
7.299334343107515 1:1 2:0.333333 3:1 4:-0.333333 5:-0.333333 6:-0.333333 7:-0.333333 8:-0.333333 9:-0.333333 10:-0.333333 11:1 12:0.333333 13:-1 14:-0.333333 15:-1 16:-1 17:0.333333 18:0.333333 19:0.333333 20:-1 21:-0.333333 22:-1 23:-0.333333 24:1 25:0.333333 26:-1 27:1 28:0.333333 29:0.333333 30:-1 31:-0.333333 32:0.333333 33:1 34:-0.333333 35:-0.333333 36:-1 37:-0.333333 38:0.333333 39:0.333333 40:0.333333 41:1 42:-0.333333 43:-1 44:-0.333333 45:1 46:-0.333333 47:-0.333333 48:0.333333 49:1 50:-0.333333 51:-1 52:-0.333333 53:0.333333 54:1 55:0.333333 56:-1 57:-0.333333 58:-0.333333 59:0.333333 60:0.333333 
2.632942184874007 1:-0.333333 2:-1 3:1 4:1 5:0.333333 6:1 7:1 8:-1 9:0.333333 10:-1 11:-0.333333 12:-1 13:-1 14:-1 15:-1 16:0.333333 17:-1 18:-1 19:-0.333333 20:1 21:-0.333333 22:-0.333333 23:1 24:1 25:-1 26:1 27:-1 28:-0.333333 29:-1 30:1 31:-0.333333 32:-0.333333 33:1 34:-0.333333 35:-1 36:-1 37:-1 38:0.333333 39:0.333333 40:1 41:-0.333333 42:1 43:1 44:1 45:-0.333333 46:1 47:1 48:-0.333333 49:-0.333333 50:-1 51:0.333333 52:-1 53:1 54:-1 55:0.333333 56:1 57:-0.333333 58:-0.333333 59:-1 60:1 
2.812327332939091 1:-0.333333 2:0.333333 3:0.333333 4:-1 5:-1 6:0.333333 7:1 8:-1 9:0.333333 10:-1 11:-0.333333 12:-0.333333 13:-1 14:-1 15:0.333333 16:-0.333333 17:1 18:-0.333333 19:-1 20:1 21:0.333333 22:0.333333 23:-1 24:1 25:-1 26:0.333333 27:0.333333 28:1 29:-1 30:0.333333 31:-1 32:-1 33:0.333333 34:-1 35:1 36:-0.333333 37:0.333333 38:1 39:1 40:0.333333 41:0.333333 42:1 43:-0.333333 44:-1 45:1 46:-0.333333 47:0.333333 48:0.333333 49:-1 50:1 51:-0.333333 52:-1 53:-0.333333 54:0.333333 55:1 56:1 57:1 58:-0.333333 59:-1 60:-1 
9.989587471073635 1:1 2:0.333333 3:1 4:-1 5:1 6:1 7:-0.333333 8:-0.333333 9:-1 10:-1 11:-1 12:0.333333 13:0.333333 14:1 15:0.333333 16:-1 17:1 18:0.333333 19:1 20:1 21:1 22:0.333333 23:1 24:1 25:0.333333 26:1 27:1 28:0.333333 29:-1 30:-0.333333 31:-1 32:-0.333333 33:0.333333 34:0.333333 35:0.333333 36:0.333333 37:1 38:1 39:1 40:-1 41:-1 42:0.333333 43:-1 44:-1 45:0.333333 46:0.333333 47:-0.333333 48:0.333333 49:1 50:-0.333333 51:-0.333333 52:1 53:-1 54:1 55:0.333333 56:-1 57:-1 58:-1 59:1 60:-0.333333 
4.68403555934245 1:-1 2:-1 3:-1 4:-1 5:1 6:-1 7:0.333333 8:1 9:-0.333333 10:1 11:1 12:1 13:0.333333 14:-1 15:0.333333 16:-1 17:0.333333 18:-1 19:1 20:1 21:0.333333 22:1 23:1 24:1 25:0.333333 26:0.333333 27:-1 28:-0.333333 29:-1 30:-1 31:0.333333 32:1 33:0.333333 34:-0.333333 35:-1 36:-1 37:-0.333333 38:1 39:-1 40:-0.333333 41:-0.333333 42:-1 43:1 44:1 45:-1 46:1 47:-1 48:-0.333333 49:0.333333 50:-1 51:-1 52:-0.333333 53:-0.333333 54:1 55:-1 56:-1 57:1 58:-1 59:-1 60:0.333333 
6.809911153951679 1:-0.333333 2:1 3:0.333333 4:-1 5:-1 6:-0.333333 7:-1 8:1 9:-1 10:-1 11:-1 12:0.333333 13:-1 14:-1 15:1 16:0.333333 17:-1 18:-0.333333 19:0.333333 20:1 21:1 22:-1 23:0.333333 24:0.333333 25:0.333333 26:1 27:-0.333333 28:-0.333333 29:-1 30:1 31:-1 32:-0.333333 33:0.333333 34:-1 35:-1 36:0.333333 37:-1 38:0.333333 39:1 40:-1 41:-1 42:-1 43:1 44:-1 45:0.333333 46:1 47:1 48:0.333333 49:0.333333 50:-1 51:0.333333 52:-1 53:-1 54:-1 55:1 56:1 57:-0.333333 58:-1 59:-1 60:0.333333 
1.666530039649496 1:-1 2:-1 3:0.333333 4:0.333333 5:1 6:-1 7:-0.333333 8:-1 9:-0.333333 10:-0.333333 11:0.333333 12:0.333333 13:-1 14:-1 15:-0.333333 16:-0.333333 17:1 18:1 19:0.333333 20:-1 21:-1 22:-0.333333 23:1 24:1 25:1 26:-1 27:0.333333 28:0.333333 29:0.333333 30:-1 31:1 32:0.333333 33:1 34:0.333333 35:0.333333 36:-1 37:-0.333333 38:1 39:-1 40:-0.333333 41:0.333333 42:0.333333 43:1 44:-1 45:-0.333333 46:0.333333 47:-1 48:-1 49:1 50:-1 51:1 52:1 53:1 54:-0.333333 55:0.333333 56:-1 57:-1 58:0.333333 59:-1 60:1 
6.972545434479095 1:0.333333 2:0.333333 3:-0.333333 4:1 5:-0.333333 6:-1 7:-0.333333 8:0.333333 9:0.333333 10:-0.333333 11:-1 12:-1 13:-1 14:1 15:0.333333 16:-0.333333 17:0.333333 18:-0.333333 19:0.333333 20:0.333333 21:-1 22:0.333333 23:1 24:-0.333333 25:0.333333 26:-1 27:0.333333 28:1 29:0.333333 30:-1 31:0.333333 32:0.333333 33:-0.333333 34:0.333333 35:-1 36:0.333333 37:0.333333 38:0.333333 39:-0.333333 40:-0.333333 41:0.333333 42:0.333333 43:-1 44:-1 45:1 46:1 47:1 48:1 49:1 50:-0.333333 51:1 52:-0.333333 53:1 54:1 55:1 56:1 57:1 58:-1 59:-0.333333 60:1 
4.084321529467479 1:-1 2:1 3:-0.333333 4:0.333333 5:0.333333 6:1 7:1 8:-0.333333 9:-1 10:1 11:-1 12:1 13:-1 14:-0.333333 15:-0.333333 16:1 17:-1 18:1 19:-1 20:-0.333333 21:-0.333333 22:0.333333 23:-1 24:1 25:-1 26:1 27:1 28:1 29:-1 30:-1 31:-0.333333 32:1 33:1 34:1 35:-1 36:1 37:1 38:-1 39:1 40:-0.333333 41:-1 42:-1 43:1 44:1 45:1 46:1 47:-0.333333 48:0.333333 49:1 50:-0.333333 51:-1 52:1 53:-1 54:1 55:-1 56:-0.333333 57:-0.333333 58:-1 59:1 60:-0.333333 
7.97564431404187 1:0.333333 2:1 3:0.333333 4:0.333333 5:-1 6:-0.333333 7:-0.333333 8:-0.333333 9:-1 10:-0.333333 11:-0.333333 12:-1 13:-1 14:-1 15:-0.333333 16:-0.333333 17:-1 18:0.333333 19:1 20:1 21:1 22:-0.333333 23:-0.333333 24:0.333333 25:1 26:1 27:1 28:0.333333 29:1 30:-1 31:-0.333333 32:0.333333 33:-1 34:-0.333333 35:-1 36:1 37:-1 38:-1 39:1 40:0.333333 41:1 42:1 43:0.333333 44:0.333333 45:1 46:1 47:-0.333333 48:0.333333 49:1 50:-1 51:0.333333 52:1 53:1 54:-0.333333 55:-0.333333 56:-1 57:-1 58:-0.333333 59:1 60:0.333333 
3.769730166105193 1:0.333333 2:1 3:-0.333333 4:0.333333 5:1 6:-0.333333 7:-1 8:-1 9:1 10:-1 11:-1 12:-1 13:-1 14:1 15:-1 16:0.333333 17:1 18:1 19:-0.333333 20:-1 21:-1 22:-1 23:-1 24:1 25:1 26:-1 27:0.333333 28:-1 29:-1 30:-0.333333 31:-0.333333 32:1 33:-1 34:-0.333333 35:-0.333333 36:1 37:-0.333333 38:-1 39:1 40:-1 41:-0.333333 42:-1 43:-0.333333 44:0.333333 45:-1 46:-0.333333 47:-1 48:-1 49:-0.333333 50:-1 51:-0.333333 52:-1 53:-1 54:1 55:-1 56:1 57:-0.333333 58:-1 59:-0.333333 60:1 
