svm_type c_svc
kernel_type polynomial
degree 3
gamma 0.0166667
coef0 0
nr_class 2
total_sv 1863
rho -0.341762
label 1 -1
nr_sv 1010 853
SV
7.316203879989503 1:-1 2:-0.333333 3:-0.333333 4:-1 5:-0.333333 6:0.333333 7:-1 8:-1 9:-1 10:1 11:-0.333333 12:-1 13:-1 14:-1 15:0.333333 16:-1 17:-0.333333 18:0.333333 19:0.333333 20:-1 21:-1 22:0.333333 23:1 24:0.333333 25:0.333333 26:-1 27:0.333333 28:1 29:-0.333333 30:0.333333 31:0.333333 32:1 33:0.333333 34:0.333333 35:0.333333 36:0.333333 37:0.333333 38:-1 39:1 40:-0.333333 41:0.333333 42:0.333333 43:-1 44:-0.333333 45:-1 46:-1 47:-0.333333 48:-0.333333 49:1 50:-0.333333 51:0.333333 52:0.333333 53:1 54:-0.333333 55:1 56:0.333333 57:-0.333333 58:-1 59:-0.333333 60:0.333333 
11.53887502453773 1:0.333333 2:0.333333 3:1 4:-0.333333 5:-1 6:0.333333 7:-1 8:-0.333333 9:0.333333 10:-1 11:1 12:0.333333 13:-1 14:0.333333 15:-1 16:1 17:-0.333333 18:-0.333333 19:-1 20:-1 21:-0.333333 22:0.333333 23:0.333333 24:-1 25:1 26:-1 27:1 28:-0.333333 29:-1 30:1 31:-0.333333 32:0.333333 33:-1 34:-0.333333 35:0.333333 36:0.333333 37:-0.333333 38:-1 39:0.333333 40:0.333333 41:1 42:-0.333333 43:-0.333333 44:-1 45:0.333333 46:0.333333 47:0.333333 48:0.333333 49:-1 50:0.333333 51:0.333333 52:-0.333333 53:-1 54:-0.333333 55:-1 56:-1 57:0.333333 58:0.333333 59:0.333333 60:0.333333 
1.289973432099101 1:0.333333 2:0.333333 3:0.333333 4:-1 5:-0.333333 6:-0.333333 7:1 8:1 9:-1 10:0.333333 11:0.333333 12:0.333333 13:-0.333333 14:0.333333 15:-0.333333 16:-0.333333 17:-1 18:-1 19:-1 20:1 21:1 22:1 23:-1 24:1 25:-0.333333 26:0.333333 27:1 28:-0.333333 29:1 30:0.333333 31:0.333333 32:-0.333333 33:-0.333333 34:1 35:0.333333 36:-1 37:0.333333 38:0.333333 39:-0.333333 40:1 41:-0.333333 42:-1 43:0.333333 44:-1 45:-1 46:1 47:-0.333333 48:0.333333 49:-1 50:-0.333333 51:0.333333 52:1 53:-0.333333 54:-1 55:-0.333333 56:-0.333333 57:-1 58:-1 59:0.333333 60:0.333333 
4.536970728928415 1:1 2:1 3:-0.333333 4:1 5:-1 6:-1 7:1 8:0.333333 9:1 10:-0.333333 11:-1 12:-0.333333 13:-1 14:-1 15:-0.333333 16:-1 17:-0.333333 18:-0.333333 19:-1 20:-0.333333 21:-1 22:-1 23:-0.333333 24:1 25:-1 26:1 27:-1 28:-0.333333 29:-0.333333 30:-0.333333 31:-1 32:0.333333 33:0.333333 34:1 35:1 36:1 37:0.333333 38:0.333333 39:1 40:-0.333333 41:-1 42:0.333333 43:-1 44:1 45:-0.333333 46:-1 47:-0.333333 48:-0.333333 49:-0.333333 50:-0.333333 51:-1 52:-0.333333 53:1 54:0.333333 55:0.333333 56:-1 57:-1 58:1 59:0.333333 60:1 
4.619998751149268 1:1 2:-0.333333 3:-1 4:1 5:-0.333333 6:-1 7:-0.333333 8:0.333333 9:1 10:0.333333 11:1 12:-0.333333 13:0.333333 14:-1 15:1 16:0.333333 17:0.333333 18:0.333333 19:-1 20:1 21:1 22:1 23:-0.333333 24:1 25:-0.333333 26:-0.333333 27:1 28:0.333333 29:-1 30:1 31:1 32:0.333333 33:0.333333 34:1 35:-0.333333 36:0.333333 37:1 38:-1 39:0.333333 40:-1 41:-0.333333 42:1 43:0.333333 44:1 45:0.333333 46:0.333333 47:-1 48:-1 49:0.333333 50:-1 51:-1 52:1 53:-0.333333 54:1 55:0.333333 56:0.333333 57:0.333333 58:1 59:-0.333333 60:-0.333333 
8.149657266173909 1:1 2:-1 3:-1 4:1 5:-0.333333 6:0.333333 7:0.333333 8:-1 9:0.333333 10:0.333333 11:1 12:1 13:1 14:-0.333333 15:0.333333 16:-1 17:0.333333 18:1 19:-1 20:0.333333 21:0.333333 22:1 23:0.333333 24:0.333333 25:0.333333 26:1 27:0.333333 28:1 29:-1 30:-0.333333 31:-0.333333 32:-1 33:-0.333333 34:-1 35:-1 36:-0.333333 37:-1 38:0.333333 39:1 40:0.333333 41:1 42:1 43:0.333333 44:0.333333 45:-1 46:0.333333 47:0.333333 48:1 49:0.333333 50:1 51:1 52:1 53:1 54:1 55:-0.333333 56:0.333333 57:0.333333 58:1 59:-0.333333 60:-1 
1.016708273497132 1:-1 2:-0.333333 3:0.333333 4:1 5:0.333333 6:0.333333 7:-1 8:-0.333333 9:-0.333333 10:0.333333 11:1 12:-1 13:1 14:1 15:1 16:1 17:1 18:-0.333333 19:1 20:-0.333333 21:0.333333 22:1 23:1 24:-1 25:-0.333333 26:1 27:1 28:-1 29:0.333333 30:1 31:-0.333333 32:-0.333333 33:1 34:1 35:1 36:1 37:0.333333 38:1 39:0.333333 40:0.333333 41:-1 42:1 43:1 44:-0.333333 45:0.333333 46:-1 47:1 48:1 49:-0.333333 50:1 51:1 52:-1 53:-0.333333 54:-0.333333 55:0.333333 56:-1 57:1 58:-0.333333 59:-0.333333 60:1 
0.9534679603295585 1:1 2:-0.333333 3:-0.333333 4:-0.333333 5:1 6:1 7:-0.333333 8:-1 9:1 10:-1 11:1 12:1 13:-0.333333 14:0.333333 15:1 16:0.333333 17:1 18:1 19:-0.333333 20:-1 21:-1 22:1 23:-0.333333 24:1 25:-0.333333 26:-1 27:-0.333333 28:0.333333 29:-0.333333 30:-1 31:1 32:-1 33:1 34:1 35:1 36:-1 37:-0.333333 38:0.333333 39:1 40:0.333333 41:0.333333 42:-0.333333 43:-1 44:-1 45:-0.333333 46:-0.333333 47:-0.333333 48:-1 49:1 50:1 51:1 52:-0.333333 53:-0.333333 54:-1 55:-0.333333 56:-0.333333 57:-0.333333 58:-0.333333 59:1 60:1 
15.9929745759128 1:1 2:0.333333 3:-0.333333 4:-0.333333 5:-0.333333 6:0.333333 7:1 8:1 9:0.333333 10:0.333333 11:-0.333333 12:-0.333333 13:-1 14:-0.333333 15:0.333333 16:1 17:1 18:1 19:-0.333333 20:-0.333333 21:0.333333 22:-0.333333 23:-0.333333 24:0.333333 25:-1 26:-0.333333 27:0.333333 28:1 29:-1 30:-0.333333 31:-0.333333 32:-0.333333 33:-0.333333 34:-1 35:-0.333333 36:-0.333333 37:-1 38:1 39:-0.333333 40:-0.333333 41:0.333333 42:-0.333333 43:-0.333333 44:-1 45:-0.333333 46:1 47:0.333333 48:1 49:1 50:0.333333 51:-0.333333 52:-0.333333 53:-1 54:1 55:-1 56:-1 57:-0.333333 58:0.333333 59:1 60:0.333333 
25.17990956928737 1:0.333333 2:0.333333 3:-1 4:1 5:0.333333 6:-0.333333 7:-1 8:-0.333333 9:-1 10:-1 11:-0.333333 12:0.333333 13:1 14:0.333333 15:-0.333333 16:0.333333 17:-0.333333 18:-0.333333 19:1 20:-0.333333 21:-0.333333 22:-1 23:-1 24:-0.333333 25:0.333333 26:0.333333 27:0.333333 28:1 29:-0.333333 30:1 31:0.333333 32:0.333333 33:-1 34:-0.333333 35:0.333333 36:0.333333 37:1 38:-0.333333 39:-0.333333 40:-1 41:0.333333 42:-0.333333 43:-0.333333 44:0.333333 45:-0.333333 46:-1 47:0.333333 48:0.333333 49:1 50:-0.333333 51:-0.333333 52:0.333333 53:-0.333333 54:-0.333333 55:-0.333333 56:0.333333 57:0.333333 58:-0.333333 59:-1 60:1 
9.754012253310702 1:-1 2:-0.333333 3:0.333333 4:0.333333 5:0.333333 6:0.333333 7:-1 8:0.333333 9:-0.333333 10:-0.333333 11:-0.333333 12:0.333333 13:-0.333333 14:0.333333 15:0.333333 16:-1 17:0.333333 18:-0.333333 19:-0.333333 20:-1 21:-1 22:0.333333 23:0.333333 24:0.333333 25:-0.333333 26:0.333333 27:1 28:0.333333 29:-0.333333 30:-1 31:1 32:0.333333 33:1 34:0.333333 35:-0.333333 36:0.333333 37:0.333333 38:-0.333333 39:0.333333 40:0.333333 41:-1 42:-1 43:0.333333 44:1 45:-0.333333 46:-0.333333 47:1 48:-1 49:-0.333333 50:-1 51:0.333333 52:-1 53:1 54:-0.333333 55:-0.333333 56:-1 57:-0.333333 58:-1 59:0.333333 60:0.333333 
4.918475025074256 1:0.333333 2:-1 3:0.333333 4:1 5:-1 6:-0.333333 7:-1 8:-1 9:-1 10:-0.333333 11:-1 12:1 13:-1 14:-0.333333 15:-0.333333 16:-1 17:0.333333 18:-1 19:0.333333 20:1 21:-0.333333 22:-0.333333 23:-1 24:-0.333333 25:-0.333333 26:-0.333333 27:1 28:-0.333333 29:-0.333333 30:-0.333333 31:-1 32:-1 33:-0.333333 34:0.333333 35:0.333333 36:0.333333 37:1 38:-1 39:-0.333333 40:0.333333 41:-1 42:-0.333333 43:1 44:1 45:1 46:0.333333 47:1 48:1 49:0.333333 50:0.333333 51:-1 52:-0.333333 53:-0.333333 54:-0.333333 55:1 56:-0.333333 57:-0.333333 58:-0.333333 59:0.333333 60:1 
3.019616990480039 1:-1 2:1 3:-1 4:-0.333333 5:-1 6:-0.333333 7:0.333333 8:-1 9:-0.333333 10:-0.333333 11:-1 12:-0.333333 13:-0.333333 14:-0.333333 15:1 16:0.333333 17:0.333333 18:-0.333333 19:-0.333333 20:-1 21:-0.333333 22:1 23:-1 24:1 25:1 26:-0.333333 27:-0.333333 28:-0.333333 29:-1 30:0.333333 31:-0.333333 32:-0.333333 33:-0.333333 34:-0.333333 35:-1 36:-0.333333 37:-1 38:0.333333 39:-1 40:0.333333 41:-0.333333 42:-0.333333 43:-1 44:-1 45:-1 46:-0.333333 47:1 48:-0.333333 49:-1 50:-1 51:-0.333333 52:-0.333333 53:0.333333 54:0.333333 55:0.333333 56:-1 57:0.333333 58:1 59:0.333333 60:-1 
12.10106225148456 1:-0.333333 2:0.333333 3:-1 4:-0.333333 5:-0.333333 6:1 7:-1 8:-0.333333 9:-0.333333 10:1 11:0.333333 12:0.333333 13:-1 14:-1 15:-0.333333 16:0.333333 17:1 18:-0.333333 19:0.333333 20:0.333333 21:0.333333 22:0.333333 23:-0.333333 24:1 25:0.333333 26:0.333333 27:-1 28:-1 29:-1 30:0.333333 31:-1 32:1 33:0.333333 34:0.333333 35:1 36:0.333333 37:1 38:1 39:0.333333 40:0.333333 41:1 42:1 43:-0.333333 44:1 45:0.333333 46:1 47:-0.333333 48:-0.333333 49:-1 50:-0.333333 51:0.333333 52:0.333333 53:1 54:-0.333333 55:-0.333333 56:-1 57:-0.333333 58:-0.333333 59:-1 60:-0.333333 
7.132292093615945 1:-0.333333 2:-1 3:1 4:-0.333333 5:-0.333333 6:1 7:-0.333333 8:-0.333333 9:-0.333333 10:-1 11:0.333333 12:-1 13:1 14:0.333333 15:-1 16:-1 17:-1 18:0.333333 19:1 20:-0.333333 21:0.333333 22:-0.333333 23:0.333333 24:1 25:-0.333333 26:0.333333 27:0.333333 28:1 29:0.333333 30:0.333333 31:-0.333333 32:1 33:-0.333333 34:-1 35:-1 36:-1 37:-0.333333 38:-0.333333 39:0.333333 40:-1 41:-0.333333 42:-1 43:1 44:1 45:0.333333 46:-1 47:0.333333 48:0.333333 49:-1 50:1 51:0.333333 52:1 53:0.333333 54:-1 55:-1 56:-0.333333 57:-1 58:-0.333333 59:-1 60:1 
8.75090864408001 1:-0.333333 2:-1 3:-1 4:-0.333333 5:-0.333333 6:0.333333 7:1 8:1 9:-1 10:1 11:-0.333333 12:1 13:-0.333333 14:-0.333333 15:-1 16:1 17:-0.333333 18:-1 19:1 20:-1 21:0.333333 22:1 23:0.333333 24:0.333333 25:1 26:-0.333333 27:0.333333 28:1 29:-0.333333 30:-1 31:-1 32:0.333333 33:-1 34:-0.333333 35:-1 36:1 37:-0.333333 38:-1 39:-1 40:-1 41:-0.333333 42:0.333333 43:-1 44:-0.333333 45:-1 46:-1 47:0.333333 48:-0.333333 49:1 50:-0.333333 51:-1 52:-0.333333 53:0.333333 54:-1 55:-0.333333 56:-1 57:-0.333333 58:-0.333333 59:-1 60:1 
1.935633550604164 1:0.333333 2:1 3:-1 4:0.333333 5:-1 6:1 7:1 8:0.333333 9:0.333333 10:1 11:1 12:1 13:1 14:0.333333 15:0.333333 16:1 17:-0.333333 18:1 19:-0.333333 20:-1 21:-1 22:-1 23:1 24:-1 25:1 26:-0.333333 27:1 28:-0.333333 29:-1 30:-0.333333 31:1 32:-0.333333 33:-1 34:1 35:-1 36:-1 37:1 38:1 39:-1 40:-1 41:-1 42:0.333333 43:-1 44:0.333333 45:1 46:1 47:1 48:-1 49:-0.333333 50:-1 51:0.333333 52:0.333333 53:1 54:-0.333333 55:-1 56:1 57:1 58:0.333333 59:1 60:-0.333333 
6.146613945202845 1:1 2:1 3:1 4:-1 5:0.333333 6:0.333333 7:-1 8:-0.333333 9:-1 10:-0.333333 11:-0.333333 12:-0.333333 13:-1 14:-0.333333 15:0.333333 16:0.333333 17:-1 18:-0.333333 19:-0.333333 20:-0.333333 21:0.333333 22:1 23:-0.333333 24:0.333333 25:-1 26:-0.333333 27:0.333333 28:1 29:0.333333 30:-1 31:1 32:0.333333 33:1 34:-0.333333 35:1 36:1 37:1 38:-0.333333 39:0.333333 40:-0.333333 41:-0.333333 42:-1 43:1 44:0.333333 45:-1 46:-1 47:-0.333333 48:-1 49:-1 50:0.333333 51:0.333333 52:0.333333 53:-0.333333 54:-1 55:-0.333333 56:0.333333 57:1 58:-0.333333 59:1 60:-0.333333 
13.53113786052264 1:-0.333333 2:0.333333 3:0.333333 4:-0.333333 5:1 6:-0.333333 7:-0.333333 8:1 9:1 10:1 11:1 12:1 13:1 14:1 15:-0.333333 16:0.333333 17:1 18:1 19:0.333333 20:-1 21:0.333333 22:0.333333 23:-1 24:0.333333 25:0.333333 26:0.333333 27:1 28:-0.333333 29:-1 30:-0.333333 31:-0.333333 32:1 33:-0.333333 34:0.333333 35:-0.333333 36:1 37:0.333333 38:0.333333 39:1 40:-0.333333 41:-0.333333 42:-0.333333 43:-0.333333 44:-1 45:0.333333 46:-1 47:-1 48:-0.333333 49:0.333333 50:-1 51:-1 52:-1 53:-1 54:-0.333333 55:-0.333333 56:0.333333 57:1 58:0.333333 59:0.333333 60:1 
5.034854439867154 1:-0.333333 2:0.333333 3:1 4:-0.333333 5:-0.333333 6:0.333333 7:0.333333 8:1 9:-0.333333 10:-0.333333 11:1 12:1 13:0.333333 14:1 15:-1 16:0.333333 17:1 18:1 19:-0.333333 20:1 21:-1 22:-0.333333 23:0.333333 24:1 25:-0.333333 26:1 27:-0.333333 28:-0.333333 29:1 30:0.333333 31:-1 32:0.333333 33:1 34:-0.333333 35:-0.333333 36:-1 37:-0.333333 38:0.333333 39:1 40:-0.333333 41:1 42:-0.333333 43:-0.333333 44:1 45:0.333333 46:-0.333333 47:0.333333 48:1 49:-0.333333 50:0.333333 51:1 52:-0.333333 53:1 54:-1 55:-1 56:1 57:-0.333333 58:1 59:-0.333333 60:-0.333333 
3.401903201883081 1:-0.333333 2:-1 3:-1 4:1 5:-0.333333 6:0.333333 7:0.333333 8:-0.333333 9:0.333333 10:0.333333 11:0.333333 12:1 13:-0.333333 14:-0.333333 15:1 16:1 17:-1 18:1 19:1 20:0.333333 21:0.333333 22:-0.333333 23:-0.333333 24:-1 25:-1 26:-0.333333 27:-1 28:0.333333 29:0.333333 30:-0.333333 31:1 32:1 33:1 34:1 35:0.333333 36:1 37:-1 38:1 39:0.333333 40:-1 41:1 42:0.333333 43:1 44:-0.333333 45:0.333333 46:0.333333 47:1 48:-1 49:-1 50:-1 51:-1 52:-1 53:-1 54:0.333333 55:1 56:0.333333 57:-1 58:-0.333333 59:1 60:0.333333 
7.490792873691264 1:-1 2:-0.333333 3:-1 4:-0.333333 5:1 6:-0.333333 7:-1 8:-1 9:-1 10:0.333333 11:0.333333 12:1 13:0.333333 14:0.333333 15:1 16:1 17:0.333333 18:0.333333 19:-1 20:0.333333 21:0.333333 22:1 23:-0.333333 24:-1 25:0.333333 26:-0.333333 27:-0.333333 28:-1 29:-1 30:0.333333 31:0.333333 32:0.333333 33:1 34:0.333333 35:-1 36:-0.333333 37:0.333333 38:0.333333 39:0.333333 40:-1 41:1 42:-1 43:1 44:-0.333333 45:-1 46:-0.333333 47:0.333333 48:-0.333333 49:-1 50:0.333333 51:-0.333333 52:0.333333 53:-0.333333 54:-0.333333 55:0.333333 56:1 57:-0.333333 58:-1 59:-0.333333 60:1 
0.03730530405881473 1:-0.333333 2:0.333333 3:1 4:-1 5:-0.333333 6:1 7:-1 8:1 9:1 10:1 11:1 12:1 13:1 14:1 15:1 16:1 17:1 18:1 19:1 20:1 21:1 22:1 23:-0.333333 24:1 25:-1 26:1 27:1 28:1 29:1 30:1 31:1 32:-1 33:1 34:-1 35:-0.333333 36:-1 37:-0.333333 38:-1 39:0.333333 40:-1 41:-0.333333 42:-0.333333 43:-0.333333 44:1 45:0.333333 46:1 47:1 48:-0.333333 49:0.333333 50:0.333333 51:-1 52:1 53:-0.333333 54:1 55:1 56:-0.333333 57:0.333333 58:0.333333 59:0.333333 60:-1 
6.916983027902329 1:-0.333333 2:-0.333333 3:1 4:1 5:0.333333 6:1 7:0.333333 8:1 9:1 10:-0.333333 11:-0.333333 12:-0.333333 13:0.333333 14:1 15:0.333333 16:1 17:-1 18:-0.333333 19:-0.333333 20:1 21:0.333333 22:0.333333 23:1 24:-0.333333 25:-0.333333 26:-1 27:-0.333333 28:-1 29:-1 30:1 31:-0.333333 32:1 33:1 34:-0.333333 35:1 36:-0.333333 37:-1 38:-0.333333 39:-0.333333 40:-0.333333 41:-0.333333 42:1 43:1 44:1 45:-1 46:1 47:1 48:1 49:1 50:1 51:1 52:1 53:1 54:1 55:-1 56:-1 57:1 58:-1 59:-0.333333 60:1 
0.8895848977466089 1:-1 2:0.333333 3:-1 4:0.333333 5:-1 6:1 7:1 8:0.333333 9:1 10:-1 11:-1 12:-1 13:1 14:-1 15:1 16:-0.333333 17:1 18:-0.333333 19:-0.333333 20:0.333333 21:0.333333 22:1 23:-1 24:-0.333333 25:-1 26:-1 27:-0.333333 28:-1 29:1 30:1 31:1 32:1 33:-0.333333 34:-0.333333 35:1 36:0.333333 37:1 38:-1 39:0.333333 40:1 41:1 42:1 43:1 44:0.333333 45:1 46:-0.333333 47:1 48:-0.333333 49:-1 50:-1 51:0.333333 52:-1 53:-1 54:-1 55:-1 56:1 57:1 58:1 59:-1 60:-1 
3.403290858898415 1:-0.333333 2:0.333333 3:-1 4:0.333333 5:0.333333 6:1 7:1 8:1 9:-1 10:-1 11:-0.333333 12:-1 13:-1 14:-1 15:-0.333333 16:-1 17:-1 18:1 19:-0.333333 20:1 21:-0.333333 22:1 23:-0.333333 24:-0.333333 25:-1 26:-0.333333 27:1 28:-0.333333 29:1 30:-1 31:-1 32:-0.333333 33:-1 34:-1 35:-0.333333 36:1 37:1 38:1 39:-0.333333 40:-1 41:0.333333 42:0.333333 43:-0.333333 44:-0.333333 45:-0.333333 46:-1 47:-0.333333 48:0.333333 49:0.333333 50:0.333333 51:1 52:-1 53:0.333333 54:-1 55:1 56:-0.333333 57:-1 58:0.333333 59:0.333333 60:-0.333333 
3.281771795205585 1:1 2:-1 3:0.333333 4:0.333333 5:1 6:-1 7:0.333333 8:-1 9:-0.333333 10:0.333333 11:-1 12:-1 13:0.333333 14:-1 15:-1 16:0.333333 17:-1 18:-1 19:0.333333 20:1 21:-1 22:-0.333333 23:0.333333 24:-1 25:-1 26:0.333333 27:-1 28:-1 29:-0.333333 30:1 31:-1 32:-1 33:0.333333 34:-1 35:-1 36:0.333333 37:1 38:-0.333333 39:-0.333333 40:0.333333 41:1 42:-1 43:0.333333 44:-0.333333 45:-1 46:1 47:0.333333 48:0.333333 49:1 50:-1 51:-1 52:0.333333 53:-1 54:-1 55:0.333333 56:1 57:-1 58:-1 59:1 60:-0.333333 
6.971992764337338 1:0.333333 2:-1 3:1 4:0.333333 5:-0.333333 6:-1 7:0.333333 8:0.333333 9:-1 10:1 11:0.333333 12:1 13:0.333333 14:0.333333 15:-1 16:-0.333333 17:0.333333 18:0.333333 19:-1 20:1 21:0.333333 22:1 23:-0.333333 24:-0.333333 25:0.333333 26:1 27:-1 28:0.333333 29:0.333333 30:-1 31:-1 32:-0.333333 33:0.333333 34:-1 35:1 36:0.333333 37:1 38:0.333333 39:-1 40:-1 41:-0.333333 42:-0.333333 43:-1 44:-1 45:-0.333333 46:-0.333333 47:-1 48:-0.333333 49:-0.333333 50:0.333333 51:0.333333 52:1 53:0.333333 54:0.333333 55:1 56:-0.333333 57:-1 58:0.333333 59:0.333333 60:1 
5.286133638474076 1:0.333333 2:-1 3:1 4:-0.333333 5:-0.333333 6:0.333333 7:1 8:-0.333333 9:-1 10:-1 11:-0.333333 12:-0.333333 13:-0.333333 14:-0.333333 15:-1 16:-1 17:-1 18:1 19:0.333333 20:-1 21:0.333333 22:0.333333 23:-1 24:0.333333 25:0.333333 26:1 27:1 28:0.333333 29:-1 30:0.333333 31:-1 32:-0.333333 33:0.333333 34:0.333333 35:0.333333 36:1 37:-0.333333 38:-1 39:0.333333 40:0.333333 41:-0.333333 42:-1 43:-0.333333 44:-1 45:-1 46:-0.333333 47:1 48:1 49:1 50:-1 51:-1 52:1 53:0.333333 54:1 55:-0.333333 56:0.333333 57:0.333333 58:1 59:0.333333 60:0.333333 
2.339658756636833 1:-0.333333 2:-0.333333 3:0.333333 4:-1 5:0.333333 6:-1 7:0.333333 8:-1 9:0.333333 10:-1 11:1 12:-0.333333 13:-0.333333 14:-1 15:1 16:-1 17:1 18:-0.333333 19:1 20:-0.333333 21:0.333333 22:-1 23:0.333333 24:-1 25:0.333333 26:-1 27:1 28:-0.333333 29:-0.333333 30:-1 31:0.333333 32:-1 33:0.333333 34:-1 35:1 36:-1 37:0.333333 38:-1 39:1 40:-0.333333 41:1 42:-0.333333 43:0.333333 44:-1 45:-0.333333 46:-0.333333 47:-1 48:0.333333 49:-1 50:1 51:-0.333333 52:0.333333 53:-1 54:0.333333 55:-1 56:0.333333 57:-1 58:0.333333 59:-1 60:0.333333 
5.996908971462068 1:1 2:1 3:0.333333 4:0.333333 5:1 6:0.333333 7:0.333333 8:-0.333333 9:-1 10:-0.333333 11:-0.333333 12:0.333333 13:0.333333 14:-1 15:-0.333333 16:1 17:-1 18:0.333333 19:0.333333 20:1 21:1 22:1 23:0.333333 24:0.333333 25:-1 26:1 27:1 28:1 29:-1 30:1 31:1 32:0.333333 33:1 34:1 35:1 36:-0.333333 37:-1 38:1 39:0.333333 40:1 41:1 42:0.333333 43:-1 44:-0.333333 45:-0.333333 46:-0.333333 47:-1 48:-1 49:0.333333 50:1 51:-0.333333 52:0.333333 53:-1 54:1 55:-1 56:-0.333333 57:-1 58:1 59:1 60:-0.333333 
27.83216594792061 1:0.333333 2:1 3:1 4:0.333333 5:-0.333333 6:0.333333 7:-0.333333 8:-0.333333 9:-1 10:-0.333333 11:-0.333333 12:0.333333 13:-0.333333 14:1 15:-0.333333 16:-0.333333 17:-1 18:-1 19:-0.333333 20:-0.333333 21:0.333333 22:-0.333333 23:0.333333 24:-1 25:-0.333333 26:1 27:1 28:0.333333 29:0.333333 30:0.333333 31:-0.333333 32:-0.333333 33:-1 34:0.333333 35:1 36:0.333333 37:-1 38:-0.333333 39:-1 40:-0.333333 41:0.333333 42:0.333333 43:0.333333 44:0.333333 45:0.333333 46:-0.333333 47:0.333333 48:-0.333333 49:0.333333 50:-1 51:1 52:-0.333333 53:-0.333333 54:-1 55:-0.333333 56:0.333333 57:1 58:-0.333333 59:0.333333 60:-0.333333 
1.097361513611399 1:-0.333333 2:-0.333333 3:0.333333 4:1 5:0.333333 6:-1 7:0.333333 8:-0.333333 9:1 10:1 11:-0.333333 12:0.333333 13:-1 14:1 15:1 16:0.333333 17:0.333333 18:1 19:-0.333333 20:1 21:1 22:-0.333333 23:-0.333333 24:-1 25:0.333333 26:-1 27:-0.333333 28:1 29:-0.333333 30:0.333333 31:1 32:-0.333333 33:1 34:0.333333 35:0.333333 36:1 37:-0.333333 38:-0.333333 39:-1 40:-0.333333 41:-1 42:-0.333333 43:1 44:1 45:-0.333333 46:1 47:1 48:0.333333 49:1 50:1 51:-1 52:1 53:-1 54:0.333333 55:-1 56:1 57:0.333333 58:-1 59:0.333333 60:-1 
3.716556063214746 1:-1 2:1 3:-0.333333 4:0.333333 5:0.333333 6:0.333333 7:0.333333 8:0.333333 9:-1 10:1 11:-0.333333 12:-0.333333 13:-1 14:-0.333333 15:-0.333333 16:-1 17:0.333333 18:1 19:-0.333333 20:1 21:-0.333333 22:1 23:-0.333333 24:-1 25:1 26:0.333333 27:1 28:0.333333 29:0.333333 30:-1 31:1 32:0.333333 33:0.333333 34:1 35:-0.333333 36:-0.333333 37:-0.333333 38:-1 39:-1 40:-0.333333 41:-0.333333 42:-0.333333 43:-0.333333 44:-0.333333 45:0.333333 46:1 47:0.333333 48:-1 49:1 50:1 51:0.333333 52:-1 53:0.333333 54:-1 55:-0.333333 56:-1 57:-0.333333 58:-1 59:-0.333333 60:-1 
0.8876794770079708 1:-0.333333 2:-1 3:0.333333 4:-1 5:-0.333333 6:-1 7:-0.333333 8:0.333333 9:0.333333 10:-0.333333 11:-1 12:-0.333333 13:-1 14:0.333333 15:1 16:0.333333 17:0.333333 18:-1 19:1 20:0.333333 21:1 22:0.333333 23:-1 24:-1 25:-1 26:-1 27:-1 28:-1 29:1 30:-1 31:0.333333 32:-0.333333 33:-1 34:-1 35:-1 36:-1 37:0.333333 38:-1 39:-1 40:-1 41:-1 42:-1 43:1 44:0.333333 45:-1 46:-0.333333 47:0.333333 48:0.333333 49:-0.333333 50:-0.333333 51:-0.333333 52:1 53:-0.333333 54:-0.333333 55:1 56:-0.333333 57:-0.333333 58:0.333333 59:-0.333333 60:-0.333333 
25.07024508353339 1:0.333333 2:1 3:-1 4:-0.333333 5:-0.333333 6:-1 7:-0.333333 8:-0.333333 9:-0.333333 10:0.333333 11:1 12:0.333333 13:-0.333333 14:0.333333 15:0.333333 16:-0.333333 17:-0.333333 18:-0.333333 19:1 20:-0.333333 21:0.333333 22:-0.333333 23:-0.333333 24:0.333333 25:-0.333333 26:-0.333333 27:-0.333333 28:-0.333333 29:-1 30:-1 31:-0.333333 32:1 33:-0.333333 34:-1 35:0.333333 36:0.333333 37:-0.333333 38:1 39:-0.333333 40:0.333333 41:-0.333333 42:1 43:-0.333333 44:1 45:-1 46:-1 47:-1 48:-0.333333 49:-0.333333 50:-0.333333 51:1 52:-0.333333 53:-1 54:-0.333333 55:-0.333333 56:0.333333 57:-0.333333 58:1 59:-1 60:0.333333 
1.281490454064839 1:-1 2:-1 3:-1 4:1 5:0.333333 6:0.333333 7:-1 8:-1 9:0.333333 10:-1 11:0.333333 12:0.333333 13:1 14:0.333333 15:-1 16:-0.333333 17:0.333333 18:-0.333333 19:-1 20:1 21:-0.333333 22:1 23:-0.333333 24:-0.333333 25:-0.333333 26:0.333333 27:-1 28:0.333333 29:0.333333 30:-1 31:0.333333 32:-1 33:1 34:1 35:0.333333 36:-1 37:-1 38:0.333333 39:0.333333 40:1 41:0.333333 42:-1 43:1 44:1 45:0.333333 46:1 47:-0.333333 48:-1 49:1 50:-0.333333 51:0.333333 52:0.333333 53:1 54:-0.333333 55:-1 56:-1 57:-1 58:-1 59:-0.333333 60:0.333333 
3.327943247059898 1:-0.333333 2:0.333333 3:-1 4:-1 5:0.333333 6:1 7:0.333333 8:-1 9:1 10:-0.333333 11:-1 12:-1 13:0.333333 14:1 15:1 16:-0.333333 17:-0.333333 18:0.333333 19:0.333333 20:-1 21:1 22:1 23:0.333333 24:1 25:1 26:1 27:-0.333333 28:-0.333333 29:-0.333333 30:1 31:-1 32:1 33:-0.333333 34:-0.333333 35:-0.333333 36:-1 37:0.333333 38:-1 39:1 40:1 41:0.333333 42:0.333333 43:1 44:0.333333 45:1 46:-0.333333 47:-1 48:1 49:0.333333 50:0.333333 51:1 52:-1 53:-1 54:1 55:-0.333333 56:0.333333 57:-1 58:-0.333333 59:1 60:-0.333333 
15.62529057386718 1:-0.333333 2:0.333333 3:1 4:-0.333333 5:0.333333 6:-1 7:0.333333 8:1 9:-0.333333 10:-0.333333 11:-1 12:1 13:-0.333333 14:-0.333333 15:-0.333333 16:-1 17:0.333333 18:0.333333 19:1 20:1 21:0.333333 22:0.333333 23:-1 24:-0.333333 25:-1 26:-0.333333 27:-0.333333 28:-1 29:-1 30:-0.333333 31:-0.333333 32:1 33:-1 34:-1 35:-0.333333 36:-0.333333 37:0.333333 38:-0.333333 39:1 40:0.333333 41:1 42:-0.333333 43:-1 44:1 45:0.333333 46:0.333333 47:-1 48:-0.333333 49:-0.333333 50:1 51:0.333333 52:1 53:-0.333333 54:-0.333333 55:-1 56:-0.333333 57:0.333333 58:1 59:-0.333333 60:-0.333333 
4.615262200012679 1:-0.333333 2:-0.333333 3:0.333333 4:1 5:-0.333333 6:-0.333333 7:-1 8:0.333333 9:-1 10:-0.333333 11:1 12:-0.333333 13:-1 14:-1 15:-1 16:1 17:-1 18:1 19:1 20:-1 21:1 22:-0.333333 23:-1 24:-1 25:0.333333 26:1 27:1 28:-0.333333 29:-1 30:-1 31:-0.333333 32:-1 33:-1 34:-1 35:-1 36:-0.333333 37:-1 38:1 39:-1 40:-0.333333 41:1 42:0.333333 43:-1 44:-0.333333 45:1 46:0.333333 47:1 48:-0.333333 49:-1 50:1 51:0.333333 52:-1 53:-1 54:-0.333333 55:-1 56:-1 57:0.333333 58:0.333333 59:1 60:-0.333333 
1.203079494530473 1:1 2:-1 3:-0.333333 4:0.333333 5:1 6:0.333333 7:-1 8:-1 9:1 10:-0.333333 11:0.333333 12:0.333333 13:-1 14:-1 15:0.333333 16:-1 17:0.333333 18:1 19:1 20:1 21:1 22:1 23:1 24:1 25:1 26:1 27:0.333333 28:1 29:1 30:1 31:1 32:1 33:0.333333 34:1 35:1 36:1 37:-0.333333 38:0.333333 39:-1 40:1 41:1 42:1 43:-1 44:-1 45:0.333333 46:-1 47:1 48:1 49:-0.333333 50:1 51:0.333333 52:1 53:1 54:-0.333333 55:-0.333333 56:-1 57:-0.333333 58:0.333333 59:1 60:-0.333333 
5.586469459354942 1:0.333333 2:-1 3:-1 4:0.333333 5:0.333333 6:0.333333 7:-1 8:-0.333333 9:0.333333 10:1 11:-1 12:1 13:-0.333333 14:-0.333333 15:1 16:1 17:0.333333 18:1 19:0.333333 20:1 21:0.333333 22:-0.333333 23:0.333333 24:-1 25:-1 26:-0.333333 27:-0.333333 28:-0.333333 29:-1 30:-1 31:-0.333333 32:1 33:0.333333 34:0.333333 35:1 36:1 37:-0.333333 38:0.333333 39:-1 40:-1 41:-0.333333 42:0.333333 43:1 44:-1 45:-1 46:1 47:1 48:0.333333 49:1 50:1 51:1 52:-0.333333 53:-1 54:0.333333 55:0.333333 56:1 57:-0.333333 58:1 59:1 60:-0.333333 
625 1:1 2:-0.333333 3:-1 4:0.333333 5:0.333333 6:1 7:-0.333333 8:-1 9:1 10:0.333333 11:1 12:1 13:1 14:-0.333333 15:0.333333 16:1 17:0.333333 18:1 19:0.333333 20:0.333333 21:0.333333 22:0.333333 23:0.333333 24:1 25:-0.333333 26:-0.333333 27:0.333333 28:0.333333 29:-1 30:-0.333333 31:1 32:1 33:-0.333333 34:-1 35:-0.333333 36:-0.333333 37:-1 38:-0.333333 39:-0.333333 40:-1 41:-0.333333 42:-1 43:-1 44:0.333333 45:0.333333 46:0.333333 47:-0.333333 48:-0.333333 49:-1 50:0.333333 51:1 52:1 53:0.333333 54:1 55:-0.333333 56:-0.333333 57:-1 58:-1 59:0.333333 60:0.333333 
4.359464319189857 1:0.333333 2:1 3:1 4:0.333333 5:1 6:-1 7:1 8:-1 9:-1 10:1 11:-1 12:1 13:1 14:-1 15:1 16:-0.333333 17:-0.333333 18:-0.333333 19:-0.333333 20:1 21:-0.333333 22:-0.333333 23:-1 24:-1 25:-0.333333 26:-0.333333 27:1 28:-0.333333 29:-0.333333 30:1 31:-0.333333 32:-0.333333 33:1 34:-1 35:1 36:-0.333333 37:-0.333333 38:-1 39:-0.333333 40:0.333333 41:-1 42:-1 43:-0.333333 44:-0.333333 45:-0.333333 46:-0.333333 47:1 48:-1 49:-0.333333 50:-0.333333 51:1 52:-0.333333 53:-0.333333 54:-0.333333 55:-1 56:-1 57:-0.333333 58:-1 59:0.333333 60:-0.333333 
625 1:-0.333333 2:-1 3:1 4:0.333333 5:0.333333 6:-0.333333 7:0.333333 8:0.333333 9:-0.333333 10:0.333333 11:0.333333 12:0.333333 13:-0.333333 14:1 15:0.333333 16:0.333333 17:-1 18:0.333333 19:-1 20:0.333333 21:0.333333 22:0.333333 23:-0.333333 24:0.333333 25:0.333333 26:-0.333333 27:0.333333 28:0.333333 29:-1 30:-0.333333 31:-0.333333 32:1 33:-1 34:-1 35:-0.333333 36:0.333333 37:0.333333 38:0.333333 39:-0.333333 40:-0.333333 41:0.333333 42:0.333333 43:-1 44:-0.333333 45:0.333333 46:0.333333 47:-0.333333 48:-1 49:0.333333 50:0.333333 51:-0.333333 52:-0.333333 53:-0.333333 54:-0.333333 55:0.333333 56:-1 57:1 58:-0.333333 59:0.333333 60:-0.333333 
8.22702910145286 1:-1 2:0.333333 3:-1 4:0.333333 5:-1 6:-0.333333 7:0.333333 8:-0.333333 9:-1 10:-0.333333 11:-0.333333 12:0.333333 13:0.333333 14:1 15:0.333333 16:-1 17:-1 18:-0.333333 19:-1 20:0.333333 21:-1 22:-0.333333 23:1 24:-0.333333 25:1 26:1 27:1 28:-0.333333 29:-1 30:0.333333 31:-0.333333 32:-1 33:-1 34:-0.333333 35:0.333333 36:-0.333333 37:-1 38:1 39:0.333333 40:0.333333 41:-0.333333 42:-1 43:-0.333333 44:0.333333 45:-1 46:-0.333333 47:1 48:0.333333 49:0.333333 50:1 51:0.333333 52:1 53:-0.333333 54:0.333333 55:0.333333 56:0.333333 57:-0.333333 58:0.333333 59:0.333333 60:1 
6.226972582319977 1:1 2:0.333333 3:-1 4:-1 5:0.333333 6:0.333333 7:-1 8:-0.333333 9:-1 10:-0.333333 11:-0.333333 12:1 13:1 14:0.333333 15:0.333333 16:1 17:-0.333333 18:1 19:-0.333333 20:-0.333333 21:1 22:1 23:0.333333 24:0.333333 25:1 26:-0.333333 27:0.333333 28:-1 29:-0.333333 30:-1 31:-1 32:-1 33:-1 34:0.333333 35:-1 36:-0.333333 37:1 38:0.333333 39:0.333333 40:-1 41:-0.333333 42:-0.333333 43:-1 44:-0.333333 45:0.333333 46:-1 47:0.333333 48:1 49:-1 50:1 51:0.333333 52:-1 53:-0.333333 54:-0.333333 55:-1 56:0.333333 57:1 58:1 59:1 60:-0.333333 
1.010090471923264 1:-0.333333 2:-1 3:-1 4:1 5:1 6:0.333333 7:-1 8:1 9:-0.333333 10:1 11:0.333333 12:1 13:1 14:-1 15:0.333333 16:-0.333333 17:-0.333333 18:1 19:0.333333 20:-1 21:-1 22:-0.333333 23:-0.333333 24:-0.333333 25:0.333333 26:1 27:-1 28:-0.333333 29:-1 30:-0.333333 31:-1 32:-1 33:-1 34:-0.333333 35:-0.333333 36:-1 37:1 38:1 39:1 40:0.333333 41:1 42:-0.333333 43:0.333333 44:-1 45:1 46:0.333333 47:-1 48:0.333333 49:1 50:1 51:1 52:0.333333 53:1 54:1 55:0.333333 56:0.333333 57:1 58:-0.333333 59:1 60:-1 
625 1:0.333333 2:1 3:0.333333 4:1 5:-1 6:-1 7:1 8:0.333333 9:-1 10:-0.333333 11:0.333333 12:0.333333 13:0.333333 14:1 15:0.333333 16:1 17:-0.333333 18:-0.333333 19:0.333333 20:0.333333 21:0.333333 22:-1 23:-0.333333 24:-0.333333 25:0.333333 26:-1 27:-0.333333 28:1 29:0.333333 30:-1 31:-0.333333 32:1 33:-1 34:-1 35:-0.333333 36:1 37:-0.333333 38:1 39:0.333333 40:1 41:0.333333 42:0.333333 43:-1 44:-1 45:-1 46:0.333333 47:0.333333 48:1 49:0.333333 50:1 51:1 52:1 53:0.333333 54:0.333333 55:1 56:-1 57:-1 58:1 59:1 60:0.333333 
9.537318334836593 1:-1 2:0.333333 3:0.333333 4:0.333333 5:0.333333 6:0.333333 7:-0.333333 8:-0.333333 9:1 10:0.333333 11:0.333333 12:-1 13:-1 14:-0.333333 15:0.333333 16:0.333333 17:1 18:0.333333 19:0.333333 20:0.333333 21:0.333333 22:1 23:0.333333 24:0.333333 25:-1 26:0.333333 27:0.333333 28:-1 29:0.333333 30:1 31:-0.333333 32:0.333333 33:-0.333333 34:0.333333 35:0.333333 36:0.333333 37:1 38:1 39:0.333333 40:1 41:0.333333 42:0.333333 43:0.333333 44:1 45:-0.333333 46:-1 47:-0.333333 48:-0.333333 49:-1 50:0.333333 51:0.333333 52:1 53:0.333333 54:-1 55:-0.333333 56:0.333333 57:1 58:1 59:1 60:0.333333 
8.310383776321297 1:1 2:0.333333 3:0.333333 4:0.333333 5:0.333333 6:1 7:0.333333 8:0.333333 9:0.333333 10:-1 11:0.333333 12:0.333333 13:0.333333 14:1 15:0.333333 16:-1 17:-0.333333 18:-0.333333 19:-0.333333 20:-1 21:-0.333333 22:0.333333 23:0.333333 24:-1 25:-0.333333 26:-0.333333 27:0.333333 28:1 29:0.333333 30:-0.333333 31:-0.333333 32:0.333333 33:-1 34:1 35:1 36:1 37:0.333333 38:1 39:-0.333333 40:-0.333333 41:0.333333 42:-1 43:-0.333333 44:0.333333 45:-1 46:-1 47:-0.333333 48:-1 49:1 50:-0.333333 51:-1 52:-1 53:0.333333 54:0.333333 55:0.333333 56:0.333333 57:0.333333 58:0.333333 59:0.333333 60:-1 
4.386343923366385 1:-0.333333 2:1 3:-0.333333 4:-0.333333 5:0.333333 6:0.333333 7:-1 8:0.333333 9:-1 10:0.333333 11:-1 12:-0.333333 13:0.333333 14:0.333333 15:1 16:-0.333333 17:-1 18:-0.333333 19:1 20:1 21:-0.333333 22:0.333333 23:-1 24:-1 25:-0.333333 26:1 27:1 28:0.333333 29:0.333333 30:-1 31:-0.333333 32:-0.333333 33:-0.333333 34:0.333333 35:0.333333 36:-1 37:-0.333333 38:1 39:-1 40:-0.333333 41:-1 42:-1 43:-1 44:-1 45:0.333333 46:0.333333 47:1 48:-0.333333 49:0.333333 50:-1 51:-1 52:-0.333333 53:0.333333 54:1 55:-0.333333 56:1 57:-1 58:1 59:0.333333 60:1 
8.509216705914268 1:-0.333333 2:-0.333333 3:0.333333 4:1 5:-0.333333 6:1 7:1 8:1 9:0.333333 10:0.333333 11:1 12:1 13:1 14:-0.333333 15:-0.333333 16:-0.333333 17:0.333333 18:1 19:-1 20:1 21:0.333333 22:0.333333 23:-1 24:1 25:-0.333333 26:1 27:0.333333 28:0.333333 29:-1 30:0.333333 31:0.333333 32:1 33:-1 34:0.333333 35:-1 36:0.333333 37:1 38:-0.333333 39:0.333333 40:0.333333 41:0.333333 42:1 43:1 44:1 45:1 46:1 47:-1 48:-1 49:1 50:0.333333 51:0.333333 52:1 53:1 54:-1 55:0.333333 56:-1 57:-1 58:1 59:1 60:1 
6.033942182107133 1:1 2:-0.333333 3:0.333333 4:1 5:-0.333333 6:1 7:0.333333 8:-1 9:-1 10:1 11:0.333333 12:-1 13:-1 14:0.333333 15:0.333333 16:-1 17:-1 18:-1 19:0.333333 20:1 21:1 22:-1 23:0.333333 24:1 25:-0.333333 26:-1 27:-0.333333 28:-1 29:-1 30:-0.333333 31:-0.333333 32:-0.333333 33:-1 34:-0.333333 35:-0.333333 36:0.333333 37:0.333333 38:0.333333 39:0.333333 40:-0.333333 41:-1 42:1 43:0.333333 44:1 45:-0.333333 46:0.333333 47:1 48:-0.333333 49:1 50:0.333333 51:-1 52:-1 53:1 54:0.333333 55:-1 56:1 57:0.333333 58:-1 59:-1 60:-1 
7.675940419244377 1:-0.333333 2:0.333333 3:1 4:-0.333333 5:-0.333333 6:-0.333333 7:0.333333 8:1 9:0.333333 10:-0.333333 11:-0.333333 12:-0.333333 13:0.333333 14:-1 15:1 16:-0.333333 17:-0.333333 18:0.333333 19:-0.333333 20:-0.333333 21:1 22:0.333333 23:-0.333333 24:-1 25:0.333333 26:1 27:-0.333333 28:0.333333 29:1 30:0.333333 31:0.333333 32:-1 33:0.333333 34:-0.333333 35:0.333333 36:1 37:-0.333333 38:-1 39:0.333333 40:0.333333 41:1 42:0.333333 43:0.333333 44:-1 45:-1 46:-0.333333 47:1 48:-0.333333 49:1 50:0.333333 51:1 52:-0.333333 53:0.333333 54:1 55:-0.333333 56:0.333333 57:1 58:0.333333 59:-1 60:-1 
5.112876482787027 1:1 2:-1 3:0.333333 4:0.333333 5:-1 6:-1 7:0.333333 8:1 9:-0.333333 10:0.333333 11:-1 12:-0.333333 13:-1 14:-0.333333 15:0.333333 16:0.333333 17:-1 18:-0.333333 19:-0.333333 20:-1 21:-1 22:-1 23:-1 24:0.333333 25:1 26:1 27:1 28:-0.333333 29:-1 30:-1 31:-0.333333 32:0.333333 33:0.333333 34:1 35:1 36:0.333333 37:-1 38:1 39:-0.333333 40:-1 41:-1 42:-0.333333 43:-0.333333 44:0.333333 45:-1 46:-1 47:1 48:0.333333 49:-0.333333 50:-0.333333 51:1 52:0.333333 53:1 54:-0.333333 55:0.333333 56:0.333333 57:-0.333333 58:-0.333333 59:-1 60:-1 
7.293088794685969 1:1 2:1 3:-0.333333 4:0.333333 5:0.333333 6:0.333333 7:1 8:1 9:-0.333333 10:-1 11:-0.333333 12:-1 13:1 14:0.333333 15:1 16:-1 17:1 18:1 19:1 20:1 21:0.333333 22:0.333333 23:1 24:1 25:0.333333 26:1 27:0.333333 28:-1 29:-1 30:1 31:-1 32:1 33:-0.333333 34:1 35:1 36:-0.333333 37:-1 38:1 39:0.333333 40:-1 41:-1 42:-0.333333 43:0.333333 44:-1 45:-0.333333 46:-1 47:-0.333333 48:1 49:1 50:-0.333333 51:-0.333333 52:-1 53:-1 54:-1 55:-1 56:-1 57:1 58:-1 59:1 60:-0.333333 
1.414285215142485 1:1 2:1 3:-1 4:-1 5:-0.333333 6:-0.333333 7:-1 8:-0.333333 9:-0.333333 10:-1 11:-1 12:-0.333333 13:-0.333333 14:-1 15:-1 16:1 17:-0.333333 18:-1 19:-1 20:-1 21:0.333333 22:0.333333 23:1 24:-0.333333 25:1 26:1 27:1 28:0.333333 29:-1 30:-1 31:0.333333 32:-1 33:1 34:-0.333333 35:-0.333333 36:-1 37:-1 38:-1 39:1 40:-0.333333 41:-1 42:1 43:0.333333 44:1 45:-0.333333 46:1 47:-1 48:1 49:1 50:-0.333333 51:-1 52:0.333333 53:1 54:-1 55:-1 56:1 57:-1 58:0.333333 59:-1 60:0.333333 
6.34859808667676 1:0.333333 2:-1 3:-1 4:-1 5:-0.333333 6:1 7:1 8:-0.333333 9:1 10:0.333333 11:0.333333 12:1 13:0.333333 14:1 15:1 16:0.333333 17:1 18:1 19:0.333333 20:-1 21:-0.333333 22:-1 23:1 24:1 25:0.333333 26:-1 27:-0.333333 28:0.333333 29:-1 30:1 31:1 32:1 33:-0.333333 34:1 35:1 36:0.333333 37:1 38:1 39:1 40:-0.333333 41:0.333333 42:0.333333 43:-1 44:-0.333333 45:1 46:0.333333 47:1 48:0.333333 49:-1 50:1 51:1 52:1 53:1 54:0.333333 55:-1 56:1 57:0.333333 58:1 59:1 60:0.333333 
1.617593374420136 1:1 2:-1 3:-1 4:-1 5:-1 6:-1 7:-1 8:-0.333333 9:-1 10:0.333333 11:1 12:0.333333 13:1 14:0.333333 15:1 16:-0.333333 17:0.333333 18:1 19:-0.333333 20:1 21:-0.333333 22:-0.333333 23:-0.333333 24:-1 25:-0.333333 26:-1 27:1 28:0.333333 29:0.333333 30:0.333333 31:1 32:1 33:0.333333 34:-1 35:-0.333333 36:-1 37:-0.333333 38:-1 39:-0.333333 40:-1 41:-0.333333 42:-1 43:-0.333333 44:-1 45:-0.333333 46:-1 47:0.333333 48:0.333333 49:-1 50:-0.333333 51:-1 52:-1 53:-1 54:1 55:-1 56:-1 57:1 58:0.333333 59:1 60:1 
2.963508708078647 1:1 2:0.333333 3:1 4:-1 5:-1 6:1 7:1 8:1 9:-1 10:-1 11:-0.333333 12:-1 13:-1 14:0.333333 15:-1 16:-1 17:0.333333 18:1 19:-1 20:-1 21:0.333333 22:0.333333 23:0.333333 24:1 25:1 26:1 27:1 28:1 29:-1 30:-1 31:1 32:-0.333333 33:-1 34:-1 35:1 36:-1 37:-1 38:-1 39:1 40:0.333333 41:-1 42:-1 43:0.333333 44:0.333333 45:1 46:1 47:-0.333333 48:1 49:-1 50:1 51:1 52:-0.333333 53:-1 54:-0.333333 55:1 56:1 57:-0.333333 58:0.333333 59:1 60:-1 
4.839487805942211 1:-0.333333 2:-0.333333 3:-0.333333 4:-1 5:-0.333333 6:-0.333333 7:-1 8:-0.333333 9:-0.333333 10:-1 11:-0.333333 12:-0.333333 13:1 14:1 15:-0.333333 16:0.333333 17:-1 18:-0.333333 19:1 20:-0.333333 21:-1 22:-0.333333 23:0.333333 24:0.333333 25:-0.333333 26:-1 27:-0.333333 28:-1 29:1 30:-0.333333 31:-0.333333 32:1 33:-0.333333 34:0.333333 35:0.333333 36:-1 37:0.333333 38:1 39:-0.333333 40:0.333333 41:-1 42:0.333333 43:1 44:0.333333 45:0.333333 46:-1 47:-0.333333 48:0.333333 49:0.333333 50:1 51:-0.333333 52:-0.333333 53:0.333333 54:-1 55:-1 56:0.333333 57:-1 58:-0.333333 59:-1 60:-0.333333 
625 1:-0.333333 2:-1 3:1 4:-0.333333 5:1 6:1 7:-1 8:-1 9:0.333333 10:0.333333 11:-1 12:1 13:1 14:0.333333 15:1 16:0.333333 17:0.333333 18:1 19:1 20:0.333333 21:1 22:0.333333 23:0.333333 24:0.333333 25:0.333333 26:-1 27:-1 28:0.333333 29:-1 30:-0.333333 31:1 32:1 33:0.333333 34:0.333333 35:0.333333 36:0.333333 37:-1 38:-0.333333 39:-0.333333 40:-0.333333 41:-1 42:0.333333 43:0.333333 44:1 45:0.333333 46:1 47:0.333333 48:1 49:0.333333 50:1 51:-1 52:-1 53:1 54:0.333333 55:-1 56:-0.333333 57:0.333333 58:0.333333 59:0.333333 60:1 
13.6000491395528 1:-1 2:-0.333333 3:-0.333333 4:-0.333333 5:-0.333333 6:0.333333 7:1 8:-0.333333 9:0.333333 10:0.333333 11:-0.333333 12:0.333333 13:-1 14:-0.333333 15:0.333333 16:0.333333 17:-0.333333 18:0.333333 19:0.333333 20:-0.333333 21:0.333333 22:-0.333333 23:-1 24:-0.333333 25:0.333333 26:0.333333 27:1 28:0.333333 29:0.333333 30:-0.333333 31:-0.333333 32:-1 33:0.333333 34:-1 35:-0.333333 36:-1 37:0.333333 38:-0.333333 39:0.333333 40:0.333333 41:-1 42:-0.333333 43:-1 44:-0.333333 45:0.333333 46:-0.333333 47:-1 48:-0.333333 49:-0.333333 50:-1 51:-0.333333 52:-0.333333 53:0.333333 54:-0.333333 55:0.333333 56:1 57:-1 58:0.333333 59:-0.333333 60:0.333333 
3.851807198831176 1:-0.333333 2:1 3:0.333333 4:-1 5:-1 6:-0.333333 7:-1 8:1 9:1 10:-0.333333 11:-1 12:0.333333 13:0.333333 14:-1 15:-0.333333 16:-1 17:0.333333 18:0.333333 19:-0.333333 20:1 21:-0.333333 22:-0.333333 23:-1 24:-0.333333 25:-0.333333 26:-1 27:-0.333333 28:0.333333 29:1 30:-0.333333 31:0.333333 32:-0.333333 33:0.333333 34:0.333333 35:-0.333333 36:0.333333 37:-1 38:-0.333333 39:0.333333 40:0.333333 41:1 42:-0.333333 43:-0.333333 44:0.333333 45:1 46:0.333333 47:0.333333 48:0.333333 49:1 50:-1 51:1 52:-0.333333 53:0.333333 54:1 55:0.333333 56:-1 57:-0.333333 58:-0.333333 59:-1 60:0.333333 
13.07935704541921 1:0.333333 2:-1 3:-0.333333 4:-0.333333 5:0.333333 6:1 7:-0.333333 8:-0.333333 9:-1 10:-0.333333 11:1 12:-0.333333 13:0.333333 14:-1 15:-0.333333 16:1 17:-0.333333 18:-0.333333 19:0.333333 20:-1 21:0.333333 22:-0.333333 23:-1 24:1 25:0.333333 26:1 27:0.333333 28:1 29:-0.333333 30:0.333333 31:1 32:0.333333 33:-1 34:1 35:1 36:-0.333333 37:0.333333 38:-1 39:-1 40:-0.333333 41:0.333333 42:1 43:0.333333 44:0.333333 45:-0.333333 46:0.333333 47:0.333333 48:1 49:0.333333 50:0.333333 51:1 52:-0.333333 53:-0.333333 54:-0.333333 55:1 56:1 57:0.333333 58:-1 59:0.333333 60:-0.333333 
2.620775532714993 1:-1 2:1 3:0.333333 4:-1 5:-1 6:-1 7:1 8:-1 9:-1 10:-1 11:-1 12:0.333333 13:-1 14:-0.333333 15:-0.333333 16:-0.333333 17:-1 18:1 19:1 20:0.333333 21:1 22:-1 23:-1 24:-1 25:-1 26:1 27:-0.333333 28:0.333333 29:1 30:-1 31:1 32:1 33:-1 34:-0.333333 35:-1 36:-1 37:1 38:1 39:-0.333333 40:1 41:-0.333333 42:-1 43:-0.333333 44:-0.333333 45:0.333333 46:1 47:0.333333 48:-1 49:-0.333333 50:-0.333333 51:-0.333333 52:1 53:-0.333333 54:-0.333333 55:-0.333333 56:0.333333 57:-1 58:0.333333 59:-0.333333 60:-0.333333 
9.992707345235884 1:-0.333333 2:0.333333 3:0.333333 4:0.333333 5:-1 6:-0.333333 7:0.333333 8:1 9:0.333333 10:-1 11:-0.333333 12:0.333333 13:1 14:0.333333 15:-1 16:-0.333333 17:1 18:1 19:0.333333 20:-1 21:-0.333333 22:1 23:1 24:0.333333 25:-1 26:-0.333333 27:0.333333 28:0.333333 29:0.333333 30:1 31:-0.333333 32:1 33:1 34:0.333333 35:-1 36:-0.333333 37:0.333333 38:-1 39:0.333333 40:-1 41:-0.333333 42:0.333333 43:-1 44:0.333333 45:-1 46:1 47:0.333333 48:-1 49:-0.333333 50:-1 51:-0.333333 52:0.333333 53:0.333333 54:0.333333 55:1 56:-0.333333 57:0.333333 58:-0.333333 59:-1 60:1 
3.156972343204152 1:1 2:-1 3:1 4:1 5:0.333333 6:1 7:1 8:-0.333333 9:-1 10:0.333333 11:-1 12:1 13:-0.333333 14:-1 15:-0.333333 16:-1 17:-1 18:-1 19:-1 20:1 21:0.333333 22:-1 23:-0.333333 24:1 25:-1 26:-1 27:1 28:1 29:-0.333333 30:-0.333333 31:-1 32:0.333333 33:0.333333 34:-1 35:-0.333333 36:-0.333333 37:0.333333 38:-0.333333 39:0.333333 40:-0.333333 41:-0.333333 42:1 43:-0.333333 44:-0.333333 45:0.333333 46:1 47:0.333333 48:1 49:1 50:-0.333333 51:0.333333 52:0.333333 53:1 54:-0.333333 55:1 56:-1 57:-1 58:1 59:0.333333 60:0.333333 
0.7832408262788146 1:0.333333 2:1 3:-1 4:1 5:-0.333333 6:-1 7:0.333333 8:-1 9:-1 10:-0.333333 11:-1 12:-1 13:0.333333 14:-1 15:1 16:0.333333 17:-1 18:1 19:-0.333333 20:-1 21:0.333333 22:0.333333 23:-1 24:-1 25:-0.333333 26:-0.333333 27:1 28:0.333333 29:0.333333 30:-1 31:1 32:-0.333333 33:-0.333333 34:-0.333333 35:-1 36:-1 37:-0.333333 38:0.333333 39:-0.333333 40:0.333333 41:1 42:-1 43:0.333333 44:-0.333333 45:0.333333 46:0.333333 47:1 48:-1 49:0.333333 50:-1 51:-1 52:-0.333333 53:1 54:1 55:0.333333 56:-0.333333 57:-1 58:0.333333 59:1 60:1 
11.39979347722883 1:1 2:0.333333 3:-1 4:0.333333 5:1 6:1 7:1 8:1 9:1 10:0.333333 11:0.333333 12:0.333333 13:1 14:1 15:0.333333 16:1 17:1 18:1 19:1 20:1 21:0.333333 22:0.333333 23:1 24:1 25:-1 26:1 27:0.333333 28:0.333333 29:-1 30:-0.333333 31:-0.333333 32:-0.333333 33:-1 34:-1 35:0.333333 36:0.333333 37:-0.333333 38:-1 39:-1 40:-0.333333 41:-1 42:0.333333 43:-0.333333 44:1 45:-0.333333 46:1 47:1 48:1 49:-0.333333 50:0.333333 51:-1 52:-1 53:-1 54:1 55:-0.333333 56:1 57:0.333333 58:0.333333 59:0.333333 60:0.333333 
4.963299661478682 1:0.333333 2:1 3:-1 4:-0.333333 5:0.333333 6:0.333333 7:1 8:-1 9:-0.333333 10:-1 11:-1 12:0.333333 13:-1 14:1 15:0.333333 16:0.333333 17:0.333333 18:-1 19:0.333333 20:0.333333 21:-1 22:-1 23:1 24:-1 25:1 26:0.333333 27:1 28:0.333333 29:0.333333 30:-1 31:0.333333 32:0.333333 33:0.333333 34:-1 35:0.333333 36:1 37:1 38:-1 39:-1 40:-0.333333 41:-0.333333 42:-1 43:-0.333333 44:-1 45:-1 46:-1 47:-1 48:-0.333333 49:-0.333333 50:0.333333 51:1 52:-1 53:1 54:0.333333 55:-1 56:-1 57:-0.333333 58:-0.333333 59:-0.333333 60:1 
4.030828399234189 1:-0.333333 2:-0.333333 3:1 4:-0.333333 5:-0.333333 6:-1 7:-0.333333 8:-0.333333 9:-1 10:-0.333333 11:-0.333333 12:0.333333 13:1 14:1 15:1 16:0.333333 17:-1 18:1 19:-1 20:1 21:1 22:0.333333 23:-0.333333 24:1 25:-0.333333 26:0.333333 27:0.333333 28:-1 29:1 30:-0.333333 31:-1 32:0.333333 33:0.333333 34:0.333333 35:0.333333 36:1 37:0.333333 38:-1 39:-1 40:-0.333333 41:-0.333333 42:0.333333 43:-0.333333 44:-0.333333 45:-0.333333 46:0.333333 47:0.333333 48:-1 49:1 50:1 51:0.333333 52:-0.333333 53:1 54:-0.333333 55:1 56:-0.333333 57:0.333333 58:-1 59:0.333333 60:0.333333 
0.1829282180042196 1:1 2:-1 3:1 4:1 5:1 6:1 7:-1 8:1 9:1 10:1 11:-1 12:-1 13:1 14:1 15:-0.333333 16:1 17:1 18:0.333333 19:1 20:-1 21:1 22:1 23:1 24:1 25:-1 26:1 27:0.333333 28:-1 29:1 30:1 31:-1 32:-0.333333 33:1 34:1 35:-1 36:1 37:1 38:-0.333333 39:1 40:1 41:1 42:-0.333333 43:1 44:1 45:-1 46:-1 47:1 48:0.333333 49:1 50:0.333333 51:1 52:1 53:-0.333333 54:0.333333 55:1 56:-0.333333 57:1 58:-1 59:0.333333 60:0.333333 
7.876761936078474 1:1 2:0.333333 3:1 4:-0.333333 5:-0.333333 6:-0.333333 7:0.333333 8:-1 9:1 10:-1 11:-0.333333 12:-0.333333 13:-1 14:-0.333333 15:1 16:-0.333333 17:1 18:-1 19:1 20:0.333333 21:0.333333 22:1 23:-0.333333 24:-0.333333 25:1 26:-1 27:0.333333 28:0.333333 29:-1 30:-1 31:0.333333 32:-1 33:-0.333333 34:-1 35:0.333333 36:0.333333 37:0.333333 38:0.333333 39:-1 40:-0.333333 41:-0.333333 42:-1 43:0.333333 44:-1 45:-0.333333 46:-0.333333 47:-0.333333 48:0.333333 49:0.333333 50:1 51:1 52:0.333333 53:-1 54:-0.333333 55:1 56:1 57:0.333333 58:0.333333 59:1 60:0.333333 
5.010690229636346 1:0.333333 2:0.333333 3:-1 4:-0.333333 5:-1 6:0.333333 7:0.333333 8:-1 9:1 10:1 11:-0.333333 12:-0.333333 13:0.333333 14:1 15:1 16:-0.333333 17:-1 18:-0.333333 19:1 20:-0.333333 21:0.333333 22:-1 23:-0.333333 24:0.333333 25:0.333333 26:-0.333333 27:0.333333 28:0.333333 29:0.333333 30:-0.333333 31:0.333333 32:1 33:1 34:1 35:-1 36:-1 37:0.333333 38:0.333333 39:-1 40:-0.333333 41:1 42:-0.333333 43:0.333333 44:-1 45:-1 46:0.333333 47:-1 48:0.333333 49:-0.333333 50:-1 51:0.333333 52:-1 53:0.333333 54:-0.333333 55:0.333333 56:-0.333333 57:-0.333333 58:0.333333 59:-1 60:-1 
24.35417054058686 1:-0.333333 2:-0.333333 3:-0.333333 4:1 5:0.333333 6:0.333333 7:0.333333 8:-1 9:0.333333 10:0.333333 11:-1 12:-1 13:1 14:0.333333 15:1 16:1 17:-0.333333 18:1 19:1 20:1 21:-0.333333 22:0.333333 23:1 24:1 25:0.333333 26:1 27:-0.333333 28:0.333333 29:-1 30:-0.333333 31:-1 32:-0.333333 33:0.333333 34:0.333333 35:1 36:0.333333 37:-1 38:-0.333333 39:0.333333 40:0.333333 41:1 42:-0.333333 43:0.333333 44:0.333333 45:1 46:-0.333333 47:-0.333333 48:-1 49:-1 50:-0.333333 51:-1 52:1 53:-0.333333 54:0.333333 55:0.333333 56:-0.333333 57:-1 58:-0.333333 59:-1 60:1 
3.349885245098146 1:1 2:-0.333333 3:-0.333333 4:-0.333333 5:1 6:1 7:0.333333 8:0.333333 9:-1 10:-1 11:-1 12:1 13:1 14:-1 15:-1 16:1 17:-1 18:-0.333333 19:1 20:1 21:-0.333333 22:1 23:-1 24:-1 25:-0.333333 26:1 27:-1 28:1 29:-0.333333 30:-1 31:-0.333333 32:1 33:0.333333 34:1 35:-0.333333 36:0.333333 37:0.333333 38:-1 39:-0.333333 40:1 41:0.333333 42:-1 43:-1 44:1 45:-1 46:-1 47:-1 48:1 49:-1 50:0.333333 51:-1 52:1 53:-0.333333 54:-0.333333 55:-1 56:1 57:-1 58:1 59:-1 60:-1 
7.685164426102809 1:-0.333333 2:-1 3:-1 4:1 5:0.333333 6:0.333333 7:0.333333 8:-1 9:-0.333333 10:0.333333 11:-1 12:-0.333333 13:1 14:1 15:1 16:0.333333 17:1 18:1 19:1 20:0.333333 21:1 22:-0.333333 23:1 24:1 25:1 26:1 27:1 28:-0.333333 29:0.333333 30:-0.333333 31:-1 32:-0.333333 33:-0.333333 34:-1 35:0.333333 36:-1 37:0.333333 38:-1 39:-0.333333 40:-1 41:1 42:1 43:-1 44:1 45:0.333333 46:0.333333 47:1 48:1 49:-1 50:1 51:1 52:1 53:-0.333333 54:-0.333333 55:-0.333333 56:1 57:-1 58:0.333333 59:0.333333 60:-1 
1.986834065760642 1:1 2:1 3:1 4:0.333333 5:-1 6:-0.333333 7:-1 8:0.333333 9:-1 10:1 11:-0.333333 12:0.333333 13:-1 14:-0.333333 15:1 16:0.333333 17:-1 18:-0.333333 19:-1 20:-1 21:-1 22:-1 23:1 24:-1 25:-0.333333 26:-1 27:1 28:1 29:1 30:-1 31:0.333333 32:1 33:-1 34:0.333333 35:-1 36:1 37:0.333333 38:0.333333 39:1 40:1 41:-1 42:1 43:1 44:-1 45:-1 46:1 47:-0.333333 48:-1 49:1 50:-1 51:0.333333 52:0.333333 53:-1 54:1 55:1 56:-1 57:1 58:1 59:-0.333333 60:-0.333333 
7.383432513593591 1:1 2:-0.333333 3:-0.333333 4:-1 5:0.333333 6:0.333333 7:-1 8:1 9:0.333333 10:-0.333333 11:0.333333 12:-0.333333 13:-0.333333 14:-1 15:1 16:-1 17:-0.333333 18:-1 19:0.333333 20:-1 21:-1 22:-0.333333 23:-1 24:-1 25:0.333333 26:0.333333 27:-0.333333 28:-1 29:-0.333333 30:-0.333333 31:-0.333333 32:-0.333333 33:0.333333 34:0.333333 35:1 36:0.333333 37:1 38:-0.333333 39:0.333333 40:-0.333333 41:0.333333 42:0.333333 43:0.333333 44:1 45:-0.333333 46:-0.333333 47:-0.333333 48:0.333333 49:0.333333 50:0.333333 51:-1 52:-0.333333 53:0.333333 54:1 55:0.333333 56:1 57:-0.333333 58:1 59:0.333333 60:0.333333 
11.27371244819231 1:-1 2:0.333333 3:-0.333333 4:1 5:-0.333333 6:0.333333 7:1 8:-0.333333 9:0.333333 10:-1 11:-0.333333 12:-1 13:1 14:0.333333 15:0.333333 16:-0.333333 17:-1 18:-1 19:1 20:1 21:-0.333333 22:-0.333333 23:0.333333 24:1 25:0.333333 26:0.333333 27:-1 28:0.333333 29:-1 30:0.333333 31:0.333333 32:0.333333 33:-0.333333 34:1 35:-0.333333 36:-0.333333 37:1 38:-0.333333 39:-0.333333 40:1 41:-0.333333 42:0.333333 43:1 44:-0.333333 45:-1 46:-0.333333 47:0.333333 48:-0.333333 49:-0.333333 50:0.333333 51:0.333333 52:1 53:-0.333333 54:-0.333333 55:-1 56:0.333333 57:-1 58:0.333333 59:0.333333 60:-1 
9.037202617321855 1:-1 2:0.333333 3:0.333333 4:-1 5:-0.333333 6:0.333333 7:-0.333333 8:0.333333 9:0.333333 10:-1 11:-1 12:-1 13:1 14:-0.333333 15:1 16:1 17:0.333333 18:-1 19:1 20:0.333333 21:0.333333 22:1 23:0.333333 24:-1 25:1 26:1 27:-0.333333 28:0.333333 29:0.333333 30:1 31:0.333333 32:0.333333 33:1 34:-0.333333 35:1 36:1 37:0.333333 38:1 39:-0.333333 40:0.333333 41:0.333333 42:0.333333 43:-1 44:0.333333 45:-0.333333 46:-1 47:1 48:0.333333 49:0.333333 50:0.333333 51:0.333333 52:1 53:0.333333 54:0.333333 55:0.333333 56:0.333333 57:0.333333 58:-1 59:-1 60:-0.333333 
6.946671149287329 1:-1 2:1 3:0.333333 4:0.333333 5:0.333333 6:0.333333 7:-1 8:-0.333333 9:-1 10:1 11:0.333333 12:0.333333 13:1 14:-1 15:-1 16:-0.333333 17:-1 18:-0.333333 19:-0.333333 20:0.333333 21:0.333333 22:-0.333333 23:-1 24:-1 25:1 26:-0.333333 27:-0.333333 28:1 29:-1 30:1 31:0.333333 32:1 33:-0.333333 34:-0.333333 35:-0.333333 36:0.333333 37:-1 38:-0.333333 39:-1 40:-1 41:-1 42:-0.333333 43:-1 44:1 45:0.333333 46:-0.333333 47:-1 48:1 49:-1 50:1 51:-1 52:0.333333 53:0.333333 54:1 55:-1 56:1 57:-1 58:-1 59:0.333333 60:-0.333333 
1.373233502111638 1:1 2:-1 3:1 4:-0.333333 5:-1 6:-0.333333 7:-0.333333 8:0.333333 9:0.333333 10:-1 11:0.333333 12:0.333333 13:0.333333 14:1 15:-0.333333 16:-1 17:-0.333333 18:-0.333333 19:1 20:-0.333333 21:0.333333 22:1 23:-0.333333 24:-0.333333 25:-0.333333 26:0.333333 27:0.333333 28:0.333333 29:1 30:-0.333333 31:-0.333333 32:-0.333333 33:0.333333 34:1 35:1 36:0.333333 37:1 38:-1 39:0.333333 40:0.333333 41:0.333333 42:1 43:-0.333333 44:0.333333 45:-0.333333 46:-0.333333 47:-1 48:-0.333333 49:-1 50:1 51:0.333333 52:-1 53:1 54:-1 55:0.333333 56:1 57:-0.333333 58:-1 59:0.333333 60:0.333333 
9.085953385212187 1:1 2:1 3:1 4:-0.333333 5:0.333333 6:1 7:1 8:0.333333 9:-1 10:-0.333333 11:1 12:0.333333 13:0.333333 14:1 15:1 16:-0.333333 17:-1 18:-1 19:1 20:0.333333 21:-1 22:0.333333 23:0.333333 24:1 25:-0.333333 26:1 27:-0.333333 28:-0.333333 29:-0.333333 30:-1 31:0.333333 32:1 33:1 34:-0.333333 35:-1 36:-0.333333 37:-0.333333 38:-1 39:0.333333 40:1 41:0.333333 42:-0.333333 43:-0.333333 44:-0.333333 45:-1 46:1 47:0.333333 48:1 49:1 50:0.333333 51:-1 52:-0.333333 53:-0.333333 54:-1 55:0.333333 56:-0.333333 57:0.333333 58:0.333333 59:1 60:-0.333333 
5.381910668349462 1:-0.333333 2:1 3:1 4:0.333333 5:1 6:-1 7:-0.333333 8:-1 9:-1 10:-0.333333 11:0.333333 12:0.333333 13:1 14:-0.333333 15:-0.333333 16:-0.333333 17:0.333333 18:-0.333333 19:-1 20:-1 21:-0.333333 22:1 23:0.333333 24:0.333333 25:-0.333333 26:-0.333333 27:0.333333 28:1 29:-1 30:-1 31:1 32:1 33:-0.333333 34:1 35:-0.333333 36:-0.333333 37:-1 38:0.333333 39:1 40:1 41:-0.333333 42:-0.333333 43:-0.333333 44:-0.333333 45:-1 46:-1 47:-1 48:-1 49:1 50:-1 51:-1 52:-0.333333 53:-0.333333 54:0.333333 55:0.333333 56:0.333333 57:-1 58:-1 59:0.333333 60:0.333333 
1.547242579714857 1:-0.333333 2:-1 3:-1 4:-1 5:-1 6:-0.333333 7:-1 8:-1 9:-1 10:0.333333 11:1 12:1 13:-1 14:1 15:1 16:1 17:0.333333 18:1 19:-0.333333 20:1 21:1 22:-0.333333 23:-1 24:0.333333 25:-1 26:0.333333 27:-0.333333 28:-0.333333 29:-1 30:-1 31:0.333333 32:-1 33:1 34:1 35:0.333333 36:0.333333 37:-1 38:-1 39:1 40:-1 41:1 42:0.333333 43:1 44:-1 45:1 46:0.333333 47:1 48:1 49:0.333333 50:-1 51:-1 52:-1 53:-1 54:1 55:-0.333333 56:-0.333333 57:0.333333 58:0.333333 59:0.333333 60:-1 
11.52272722212052 1:0.333333 2:1 3:-1 4:0.333333 5:-1 6:-1 7:-0.333333 8:0.333333 9:-1 10:0.333333 11:1 12:-0.333333 13:-1 14:-1 15:-0.333333 16:0.333333 17:1 18:-0.333333 19:1 20:-0.333333 21:0.333333 22:0.333333 23:-0.333333 24:0.333333 25:0.333333 26:-1 27:-0.333333 28:0.333333 29:1 30:0.333333 31:1 32:0.333333 33:-1 34:-0.333333 35:1 36:0.333333 37:0.333333 38:0.333333 39:-1 40:0.333333 41:-1 42:-0.333333 43:0.333333 44:1 45:0.333333 46:1 47:0.333333 48:-1 49:-0.333333 50:-0.333333 51:0.333333 52:0.333333 53:0.333333 54:0.333333 55:1 56:0.333333 57:1 58:0.333333 59:1 60:-0.333333 
4.305887042915233 1:0.333333 2:1 3:-1 4:1 5:0.333333 6:0.333333 7:0.333333 8:-1 9:-1 10:-0.333333 11:1 12:0.333333 13:1 14:-1 15:1 16:-0.333333 17:1 18:0.333333 19:0.333333 20:-1 21:-1 22:-0.333333 23:-0.333333 24:-1 25:-1 26:-0.333333 27:0.333333 28:1 29:-0.333333 30:1 31:-0.333333 32:-0.333333 33:0.333333 34:0.333333 35:-1 36:1 37:0.333333 38:1 39:-0.333333 40:0.333333 41:-1 42:-1 43:-1 44:-0.333333 45:-0.333333 46:-0.333333 47:0.333333 48:1 49:-0.333333 50:-1 51:1 52:-0.333333 53:-1 54:0.333333 55:0.333333 56:-1 57:-1 58:-1 59:0.333333 60:-1 
17.94691149501752 1:0.333333 2:1 3:-0.333333 4:-0.333333 5:1 6:-0.333333 7:1 8:-0.333333 9:-1 10:-1 11:1 12:-0.333333 13:-0.333333 14:0.333333 15:-1 16:1 17:1 18:0.333333 19:1 20:0.333333 21:1 22:1 23:1 24:1 25:1 26:1 27:-0.333333 28:0.333333 29:-1 30:-0.333333 31:-1 32:0.333333 33:-1 34:-0.333333 35:-1 36:-0.333333 37:-0.333333 38:-1 39:-0.333333 40:0.333333 41:1 42:-0.333333 43:-1 44:-1 45:0.333333 46:0.333333 47:-0.333333 48:0.333333 49:-0.333333 50:-1 51:-0.333333 52:-0.333333 53:1 54:-0.333333 55:-0.333333 56:0.333333 57:0.333333 58:-1 59:0.333333 60:0.333333 
5.848609890037264 1:1 2:1 3:-0.333333 4:0.333333 5:-1 6:-0.333333 7:0.333333 8:-1 9:-1 10:-1 11:-0.333333 12:-1 13:1 14:0.333333 15:1 16:1 17:-0.333333 18:-0.333333 19:-1 20:-1 21:-1 22:1 23:-0.333333 24:0.333333 25:1 26:1 27:-0.333333 28:-1 29:-1 30:-0.333333 31:-1 32:0.333333 33:0.333333 34:-1 35:0.333333 36:-1 37:-1 38:-0.333333 39:-0.333333 40:0.333333 41:1 42:-0.333333 43:-1 44:-1 45:-1 46:-1 47:-0.333333 48:1 49:-0.333333 50:0.333333 51:1 52:1 53:1 54:-0.333333 55:0.333333 56:1 57:-0.333333 58:-0.333333 59:-1 60:-0.333333 
3.791151432033787 1:0.333333 2:-1 3:-0.333333 4:-1 5:0.333333 6:-1 7:1 8:-0.333333 9:-1 10:1 11:1 12:1 13:0.333333 14:-0.333333 15:-0.333333 16:-1 17:1 18:1 19:0.333333 20:0.333333 21:0.333333 22:0.333333 23:-0.333333 24:-1 25:-0.333333 26:-0.333333 27:-1 28:-0.333333 29:-0.333333 30:-1 31:-0.333333 32:1 33:1 34:1 35:-0.333333 36:-1 37:1 38:-0.333333 39:-0.333333 40:0.333333 41:0.333333 42:-1 43:0.333333 44:0.333333 45:-1 46:-0.333333 47:1 48:1 49:0.333333 50:0.333333 51:-1 52:-0.333333 53:-1 54:-1 55:-0.333333 56:-1 57:0.333333 58:1 59:0.333333 60:-1 
10.32571684323 1:1 2:-1 3:0.333333 4:0.333333 5:-1 6:1 7:-0.333333 8:1 9:-1 10:0.333333 11:1 12:0.333333 13:1 14:-0.333333 15:0.333333 16:0.333333 17:1 18:1 19:-1 20:1 21:0.333333 22:1 23:0.333333 24:0.333333 25:0.333333 26:0.333333 27:0.333333 28:0.333333 29:-1 30:-0.333333 31:-1 32:-0.333333 33:1 34:1 35:1 36:-0.333333 37:-1 38:1 39:-0.333333 40:0.333333 41:1 42:0.333333 43:0.333333 44:-1 45:-1 46:-0.333333 47:0.333333 48:0.333333 49:0.333333 50:1 51:0.333333 52:1 53:0.333333 54:0.333333 55:0.333333 56:-1 57:-0.333333 58:-1 59:-0.333333 60:-1 
10.76457686229513 1:0.333333 2:0.333333 3:-1 4:-0.333333 5:1 6:0.333333 7:0.333333 8:-0.333333 9:0.333333 10:1 11:0.333333 12:-1 13:-0.333333 14:0.333333 15:0.333333 16:0.333333 17:-1 18:-0.333333 19:0.333333 20:0.333333 21:0.333333 22:-1 23:-1 24:-0.333333 25:0.333333 26:0.333333 27:0.333333 28:-1 29:-0.333333 30:0.333333 31:0.333333 32:0.333333 33:-1 34:-0.333333 35:0.333333 36:-0.333333 37:0.333333 38:0.333333 39:-1 40:-1 41:0.333333 42:0.333333 43:0.333333 44:-1 45:-0.333333 46:0.333333 47:1 48:0.333333 49:-0.333333 50:-0.333333 51:0.333333 52:1 53:1 54:-1 55:-1 56:0.333333 57:0.333333 58:0.333333 59:-1 60:-0.333333 
6.472925704954884 1:1 2:-1 3:0.333333 4:-1 5:0.333333 6:0.333333 7:1 8:-0.333333 9:0.333333 10:0.333333 11:-1 12:1 13:-0.333333 14:1 15:-0.333333 16:0.333333 17:-1 18:-0.333333 19:0.333333 20:-1 21:1 22:-0.333333 23:-1 24:-0.333333 25:-0.333333 26:-0.333333 27:1 28:0.333333 29:1 30:-0.333333 31:0.333333 32:0.333333 33:0.333333 34:-1 35:-1 36:-0.333333 37:0.333333 38:0.333333 39:0.333333 40:0.333333 41:1 42:0.333333 43:-1 44:0.333333 45:0.333333 46:0.333333 47:1 48:-0.333333 49:-1 50:-0.333333 51:-1 52:1 53:-0.333333 54:-0.333333 55:-0.333333 56:-1 57:-0.333333 58:0.333333 59:0.333333 60:-0.333333 
10.51958609567492 1:-0.333333 2:-1 3:-0.333333 4:0.333333 5:-1 6:-0.333333 7:1 8:1 9:0.333333 10:-1 11:0.333333 12:-0.333333 13:-0.333333 14:0.333333 15:0.333333 16:-1 17:1 18:-0.333333 19:1 20:1 21:0.333333 22:0.333333 23:-0.333333 24:-0.333333 25:0.333333 26:-0.333333 27:0.333333 28:-1 29:-1 30:-0.333333 31:-0.333333 32:0.333333 33:0.333333 34:1 35:1 36:0.333333 37:1 38:1 39:-0.333333 40:0.333333 41:-1 42:0.333333 43:1 44:-0.333333 45:-0.333333 46:1 47:-1 48:0.333333 49:-1 50:0.333333 51:-0.333333 52:-0.333333 53:-0.333333 54:0.333333 55:-0.333333 56:-1 57:-0.333333 58:-0.333333 59:-0.333333 60:0.333333 
5.231406421296246 1:1 2:1 3:-1 4:-1 5:0.333333 6:1 7:-0.333333 8:1 9:-0.333333 10:1 11:0.333333 12:1 13:0.333333 14:-0.333333 15:1 16:-0.333333 17:0.333333 18:-1 19:0.333333 20:-0.333333 21:-0.333333 22:-1 23:-1 24:-1 25:-1 26:1 27:0.333333 28:0.333333 29:-1 30:-0.333333 31:0.333333 32:-0.333333 33:1 34:1 35:1 36:0.333333 37:1 38:1 39:-0.333333 40:1 41:0.333333 42:1 43:0.333333 44:-1 45:-0.333333 46:0.333333 47:0.333333 48:-1 49:1 50:1 51:0.333333 52:0.333333 53:-1 54:-0.333333 55:-0.333333 56:1 57:-0.333333 58:-0.333333 59:0.333333 60:1 
3.131084616739585 1:-1 2:0.333333 3:0.333333 4:1 5:1 6:1 7:-0.333333 8:-0.333333 9:0.333333 10:1 11:0.333333 12:-0.333333 13:-0.333333 14:-0.333333 15:-1 16:-0.333333 17:-1 18:-0.333333 19:-0.333333 20:0.333333 21:-1 22:-0.333333 23:-1 24:0.333333 25:1 26:-0.333333 27:1 28:-0.333333 29:-0.333333 30:-0.333333 31:0.333333 32:1 33:-0.333333 34:0.333333 35:-0.333333 36:-1 37:0.333333 38:0.333333 39:1 40:0.333333 41:1 42:-0.333333 43:1 44:1 45:0.333333 46:-0.333333 47:-1 48:-0.333333 49:-1 50:-1 51:-0.333333 52:-1 53:-1 54:-0.333333 55:1 56:0.333333 57:-0.333333 58:0.333333 59:1 60:-0.333333 
7.247695213631049 1:0.333333 2:-1 3:1 4:-0.333333 5:-1 6:-0.333333 7:0.333333 8:1 9:1 10:1 11:0.333333 12:-1 13:0.333333 14:-0.333333 15:-1 16:-0.333333 17:-1 18:1 19:-1 20:-1 21:-0.333333 22:-1 23:-1 24:-0.333333 25:-1 26:-1 27:-1 28:-0.333333 29:-1 30:0.333333 31:-1 32:0.333333 33:-1 34:-0.333333 35:1 36:-0.333333 37:0.333333 38:0.333333 39:0.333333 40:1 41:-0.333333 42:-0.333333 43:1 44:1 45:0.333333 46:0.333333 47:0.333333 48:-1 49:-1 50:-0.333333 51:-1 52:-1 53:0.333333 54:0.333333 55:-1 56:1 57:1 58:0.333333 59:-1 60:-1 
4.534077513368576 1:1 2:-1 3:-1 4:1 5:-1 6:0.333333 7:-1 8:-1 9:-1 10:0.333333 11:-1 12:-0.333333 13:-1 14:-1 15:-1 16:1 17:0.333333 18:-1 19:-0.333333 20:-1 21:0.333333 22:0.333333 23:1 24:1 25:1 26:-1 27:-1 28:-0.333333 29:-1 30:-0.333333 31:1 32:1 33:-0.333333 34:-1 35:-0.333333 36:-1 37:-0.333333 38:1 39:-1 40:-1 41:-0.333333 42:1 43:-1 44:-0.333333 45:-0.333333 46:-1 47:-0.333333 48:-1 49:-0.333333 50:1 51:1 52:-1 53:-0.333333 54:-0.333333 55:-1 56:0.333333 57:1 58:1 59:-0.333333 60:1 
2.419715855627021 1:1 2:-0.333333 3:-0.333333 4:-0.333333 5:-1 6:0.333333 7:-1 8:0.333333 9:1 10:1 11:-1 12:-1 13:0.333333 14:-1 15:-0.333333 16:-1 17:1 18:-0.333333 19:0.333333 20:-1 21:-1 22:1 23:-0.333333 24:1 25:-0.333333 26:0.333333 27:1 28:-1 29:0.333333 30:1 31:-0.333333 32:-1 33:1 34:1 35:-0.333333 36:1 37:1 38:1 39:0.333333 40:-1 41:1 42:1 43:-0.333333 44:0.333333 45:-0.333333 46:-1 47:-1 48:1 49:0.333333 50:1 51:1 52:1 53:1 54:1 55:1 56:-1 57:-0.333333 58:0.333333 59:-1 60:1 
6.481961570312126 1:0.333333 2:-1 3:0.333333 4:0.333333 5:-0.333333 6:-0.333333 7:-0.333333 8:-0.333333 9:0.333333 10:1 11:1 12:-0.333333 13:0.333333 14:1 15:-0.333333 16:1 17:1 18:-0.333333 19:-0.333333 20:-1 21:1 22:-1 23:0.333333 24:-1 25:1 26:0.333333 27:1 28:0.333333 29:-0.333333 30:0.333333 31:0.333333 32:-1 33:1 34:1 35:-1 36:0.333333 37:0.333333 38:1 39:-0.333333 40:0.333333 41:0.333333 42:-1 43:0.333333 44:1 45:0.333333 46:1 47:0.333333 48:1 49:-1 50:-0.333333 51:0.333333 52:-1 53:1 54:0.333333 55:0.333333 56:1 57:-0.333333 58:-0.333333 59:-1 60:0.333333 
3.78577642520154 1:1 2:-0.333333 3:-1 4:0.333333 5:-1 6:1 7:0.333333 8:0.333333 9:-1 10:0.333333 11:0.333333 12:0.333333 13:-1 14:-0.333333 15:-1 16:-0.333333 17:0.333333 18:1 19:-1 20:-1 21:1 22:0.333333 23:-1 24:0.333333 25:0.333333 26:-1 27:0.333333 28:0.333333 29:-1 30:1 31:-0.333333 32:0.333333 33:1 34:-0.333333 35:-0.333333 36:-1 37:-1 38:-1 39:-1 40:-1 41:-0.333333 42:-1 43:0.333333 44:-1 45:0.333333 46:-1 47:-0.333333 48:-0.333333 49:1 50:-0.333333 51:-1 52:-1 53:-0.333333 54:0.333333 55:1 56:-0.333333 57:-1 58:-0.333333 59:-1 60:-1 
1.444431809697577 1:0.333333 2:0.333333 3:-0.333333 4:-1 5:0.333333 6:1 7:-0.333333 8:-1 9:-0.333333 10:0.333333 11:-1 12:-1 13:-1 14:-0.333333 15:-0.333333 16:0.333333 17:0.333333 18:1 19:-0.333333 20:-0.333333 21:-0.333333 22:-0.333333 23:1 24:-0.333333 25:0.333333 26:-1 27:-0.333333 28:-0.333333 29:-1 30:-0.333333 31:1 32:-0.333333 33:0.333333 34:1 35:-1 36:0.333333 37:0.333333 38:-1 39:1 40:-0.333333 41:-0.333333 42:1 43:-1 44:-1 45:1 46:-0.333333 47:-0.333333 48:-1 49:0.333333 50:-1 51:-0.333333 52:-1 53:-0.333333 54:1 55:1 56:-1 57:1 58:0.333333 59:-0.333333 60:-1 
10.69167323257306 1:0.333333 2:-1 3:-0.333333 4:-1 5:-0.333333 6:-0.333333 7:-0.333333 8:-0.333333 9:0.333333 10:0.333333 11:1 12:0.333333 13:0.333333 14:0.333333 15:-0.333333 16:-0.333333 17:-1 18:0.333333 19:0.333333 20:1 21:0.333333 22:0.333333 23:-0.333333 24:-0.333333 25:-0.333333 26:-0.333333 27:0.333333 28:1 29:0.333333 30:0.333333 31:-1 32:-1 33:-0.333333 34:-0.333333 35:1 36:-0.333333 37:1 38:1 39:0.333333 40:0.333333 41:1 42:-0.333333 43:-0.333333 44:-1 45:0.333333 46:0.333333 47:-1 48:-1 49:-1 50:-0.333333 51:-0.333333 52:-0.333333 53:-0.333333 54:-0.333333 55:-1 56:-1 57:-0.333333 58:0.333333 59:-1 60:-0.333333 
36.3942251597912 1:-1 2:-1 3:-0.333333 4:-0.333333 5:-0.333333 6:0.333333 7:0.333333 8:1 9:-0.333333 10:-1 11:-0.333333 12:-0.333333 13:-0.333333 14:-0.333333 15:-0.333333 16:-0.333333 17:0.333333 18:1 19:1 20:0.333333 21:1 22:1 23:0.333333 24:0.333333 25:1 26:1 27:0.333333 28:0.333333 29:-1 30:-0.333333 31:-0.333333 32:0.333333 33:-0.333333 34:-1 35:-0.333333 36:0.333333 37:-1 38:0.333333 39:-0.333333 40:-1 41:0.333333 42:0.333333 43:1 44:0.333333 45:-1 46:-0.333333 47:0.333333 48:-0.333333 49:-1 50:-0.333333 51:0.333333 52:-1 53:0.333333 54:-0.333333 55:-1 56:0.333333 57:-0.333333 58:-0.333333 59:-0.333333 60:-0.333333 
2.333851576512636 1:0.333333 2:0.333333 3:0.333333 4:0.333333 5:0.333333 6:0.333333 7:-1 8:1 9:0.333333 10:0.333333 11:0.333333 12:0.333333 13:-1 14:-0.333333 15:0.333333 16:1 17:-1 18:0.333333 19:0.333333 20:1 21:-0.333333 22:-1 23:-1 24:0.333333 25:-0.333333 26:-1 27:0.333333 28:0.333333 29:1 30:-0.333333 31:-0.333333 32:-1 33:-0.333333 34:0.333333 35:-0.333333 36:1 37:-1 38:1 39:1 40:-0.333333 41:0.333333 42:-1 43:0.333333 44:-1 45:-0.333333 46:-1 47:-0.333333 48:1 49:-0.333333 50:-1 51:0.333333 52:1 53:-1 54:0.333333 55:-1 56:1 57:0.333333 58:0.333333 59:0.333333 60:0.333333 
8.324636572070983 1:-1 2:0.333333 3:-1 4:0.333333 5:-1 6:0.333333 7:-1 8:0.333333 9:-1 10:0.333333 11:0.333333 12:0.333333 13:1 14:-0.333333 15:1 16:0.333333 17:0.333333 18:-1 19:0.333333 20:-1 21:-1 22:-1 23:-0.333333 24:-0.333333 25:-0.333333 26:0.333333 27:0.333333 28:1 29:-1 30:-0.333333 31:-0.333333 32:-1 33:-1 34:-1 35:0.333333 36:1 37:-1 38:0.333333 39:-0.333333 40:1 41:-0.333333 42:0.333333 43:0.333333 44:0.333333 45:1 46:1 47:0.333333 48:-1 49:-0.333333 50:0.333333 51:0.333333 52:-1 53:1 54:-0.333333 55:0.333333 56:-1 57:0.333333 58:0.333333 59:0.333333 60:-0.333333 
10.34975413220545 1:-1 2:-0.333333 3:-0.333333 4:-1 5:-1 6:-1 7:-1 8:-1 9:-0.333333 10:-1 11:-0.333333 12:-0.333333 13:-1 14:-1 15:-0.333333 16:-0.333333 17:-0.333333 18:-1 19:-0.333333 20:-0.333333 21:-0.333333 22:-1 23:-0.333333 24:-0.333333 25:-0.333333 26:-1 27:-0.333333 28:-0.333333 29:-1 30:-1 31:-0.333333 32:-0.333333 33:-1 34:-1 35:-0.333333 36:-0.333333 37:-1 38:-1 39:-1 40:-0.333333 41:-1 42:-1 43:-0.333333 44:-0.333333 45:-1 46:-1 47:-0.333333 48:-0.333333 49:-1 50:-1 51:-0.333333 52:-0.333333 53:-0.333333 54:-1 55:-0.333333 56:-1 57:-0.333333 58:-1 59:-0.333333 60:-1 
2.105283624799682 1:-1 2:-1 3:0.333333 4:1 5:1 6:-0.333333 7:-0.333333 8:0.333333 9:1 10:1 11:-0.333333 12:-0.333333 13:-0.333333 14:-1 15:-0.333333 16:1 17:0.333333 18:1 19:-0.333333 20:0.333333 21:-1 22:1 23:0.333333 24:0.333333 25:-1 26:-1 27:0.333333 28:-1 29:0.333333 30:1 31:1 32:1 33:0.333333 34:1 35:-0.333333 36:-0.333333 37:0.333333 38:1 39:-0.333333 40:1 41:-0.333333 42:1 43:-0.333333 44:-1 45:0.333333 46:0.333333 47:1 48:1 49:-0.333333 50:-0.333333 51:-0.333333 52:0.333333 53:-1 54:-1 55:-0.333333 56:1 57:1 58:-1 59:0.333333 60:1 
8.571097341351065 1:-0.333333 2:0.333333 3:-0.333333 4:-0.333333 5:-0.333333 6:-1 7:-0.333333 8:-0.333333 9:0.333333 10:0.333333 11:1 12:0.333333 13:1 14:0.333333 15:1 16:-1 17:-0.333333 18:-0.333333 19:-1 20:-1 21:-1 22:1 23:0.333333 24:1 25:-0.333333 26:1 27:-0.333333 28:-0.333333 29:-1 30:0.333333 31:1 32:0.333333 33:-1 34:0.333333 35:-1 36:0.333333 37:-0.333333 38:1 39:1 40:1 41:-1 42:0.333333 43:1 44:-1 45:-1 46:1 47:-0.333333 48:1 49:1 50:-0.333333 51:0.333333 52:1 53:-0.333333 54:0.333333 55:-1 56:-0.333333 57:0.333333 58:0.333333 59:0.333333 60:0.333333 
15.60273105414764 1:0.333333 2:1 3:-0.333333 4:-0.333333 5:0.333333 6:0.333333 7:1 8:-0.333333 9:-1 10:-0.333333 11:-0.333333 12:-1 13:0.333333 14:0.333333 15:0.333333 16:-0.333333 17:-0.333333 18:0.333333 19:-0.333333 20:0.333333 21:1 22:-0.333333 23:-1 24:-0.333333 25:1 26:-0.333333 27:-0.333333 28:0.333333 29:-0.333333 30:-0.333333 31:-0.333333 32:-0.333333 33:0.333333 34:0.333333 35:0.333333 36:0.333333 37:1 38:-0.333333 39:0.333333 40:1 41:0.333333 42:0.333333 43:-0.333333 44:-1 45:-0.333333 46:-0.333333 47:-0.333333 48:-0.333333 49:0.333333 50:1 51:0.333333 52:-1 53:1 54:-0.333333 55:1 56:1 57:0.333333 58:-1 59:-0.333333 60:-0.333333 
6.698163997405707 1:-1 2:0.333333 3:-1 4:-0.333333 5:-1 6:-1 7:-0.333333 8:-1 9:-1 10:-0.333333 11:0.333333 12:-0.333333 13:-1 14:-0.333333 15:0.333333 16:0.333333 17:-1 18:0.333333 19:-0.333333 20:0.333333 21:0.333333 22:0.333333 23:0.333333 24:0.333333 25:-1 26:-0.333333 27:0.333333 28:-0.333333 29:0.333333 30:-1 31:0.333333 32:-0.333333 33:0.333333 34:0.333333 35:0.333333 36:1 37:-0.333333 38:0.333333 39:-0.333333 40:-1 41:-0.333333 42:-0.333333 43:-0.333333 44:-0.333333 45:-1 46:-1 47:0.333333 48:-1 49:-1 50:-0.333333 51:-0.333333 52:-0.333333 53:-1 54:-1 55:0.333333 56:0.333333 57:1 58:1 59:1 60:0.333333 
625 1:-0.333333 2:-1 3:-0.333333 4:0.333333 5:0.333333 6:0.333333 7:1 8:-0.333333 9:-0.333333 10:0.333333 11:0.333333 12:0.333333 13:1 14:-0.333333 15:-1 16:0.333333 17:0.333333 18:-0.333333 19:-1 20:-0.333333 21:-1 22:0.333333 23:0.333333 24:1 25:-0.333333 26:-0.333333 27:-0.333333 28:0.333333 29:0.333333 30:1 31:-0.333333 32:1 33:-0.333333 34:-1 35:-0.333333 36:1 37:-0.333333 38:0.333333 39:-0.333333 40:-0.333333 41:-0.333333 42:-0.333333 43:1 44:1 45:-0.333333 46:-0.333333 47:-0.333333 48:-1 49:-0.333333 50:-0.333333 51:-0.333333 52:-1 53:-1 54:-1 55:0.333333 56:-0.333333 57:-0.333333 58:0.333333 59:0.333333 60:1 
6.240339699441256 1:-0.333333 2:-0.333333 3:0.333333 4:-0.333333 5:0.333333 6:1 7:1 8:1 9:-0.333333 10:1 11:0.333333 12:1 13:-0.333333 14:-0.333333 15:-0.333333 16:-1 17:-0.333333 18:-0.333333 19:0.333333 20:-0.333333 21:-0.333333 22:1 23:1 24:-1 25:0.333333 26:1 27:-0.333333 28:-1 29:-1 30:-0.333333 31:0.333333 32:-1 33:-0.333333 34:-0.333333 35:0.333333 36:-1 37:1 38:-0.333333 39:-1 40:-1 41:-0.333333 42:-0.333333 43:-1 44:-0.333333 45:-0.333333 46:-0.333333 47:-1 48:-0.333333 49:0.333333 50:-1 51:-0.333333 52:-0.333333 53:-0.333333 54:-1 55:-0.333333 56:-1 57:-0.333333 58:1 59:-0.333333 60:-0.333333 
0.4546627656995356 1:-0.333333 2:0.333333 3:1 4:-1 5:-1 6:1 7:-1 8:-1 9:-1 10:-1 11:-1 12:0.333333 13:-1 14:-1 15:-0.333333 16:0.333333 17:-1 18:0.333333 19:1 20:-1 21:1 22:1 23:-0.333333 24:1 25:1 26:0.333333 27:-1 28:-1 29:0.333333 30:1 31:1 32:1 33:1 34:-1 35:-0.333333 36:-0.333333 37:1 38:-0.333333 39:1 40:-0.333333 41:1 42:-0.333333 43:1 44:-1 45:0.333333 46:1 47:1 48:1 49:-0.333333 50:-0.333333 51:-1 52:-0.333333 53:0.333333 54:0.333333 55:-1 56:0.333333 57:0.333333 58:-1 59:1 60:1 
14.14844063230724 1:0.333333 2:0.333333 3:1 4:-0.333333 5:-0.333333 6:-1 7:0.333333 8:1 9:1 10:1 11:0.333333 12:1 13:1 14:-0.333333 15:0.333333 16:0.333333 17:1 18:0.333333 19:1 20:1 21:0.333333 22:0.333333 23:0.333333 24:0.333333 25:0.333333 26:-1 27:0.333333 28:0.333333 29:-1 30:-0.333333 31:0.333333 32:1 33:-0.333333 34:-0.333333 35:-1 36:-0.333333 37:-1 38:-0.333333 39:-1 40:-1 41:-1 42:-0.333333 43:-0.333333 44:0.333333 45:0.333333 46:-1 47:-1 48:-0.333333 49:0.333333 50:-0.333333 51:-0.333333 52:-1 53:0.333333 54:0.333333 55:-1 56:-0.333333 57:-1 58:-0.333333 59:0.333333 60:1 
6.326599057980824 1:-0.333333 2:-0.333333 3:1 4:-1 5:1 6:-0.333333 7:-1 8:-0.333333 9:-1 10:-1 11:1 12:0.333333 13:1 14:-1 15:-0.333333 16:-0.333333 17:0.333333 18:-1 19:-0.333333 20:-0.333333 21:-0.333333 22:-0.333333 23:0.333333 24:-1 25:-0.333333 26:-0.333333 27:-0.333333 28:-0.333333 29:-1 30:-0.333333 31:1 32:1 33:-1 34:0.333333 35:-1 36:-0.333333 37:1 38:0.333333 39:0.333333 40:0.333333 41:1 42:1 43:1 44:1 45:-1 46:0.333333 47:-1 48:-0.333333 49:-1 50:1 51:-1 52:-0.333333 53:-1 54:-1 55:-1 56:-1 57:-1 58:0.333333 59:-1 60:-0.333333 
3.721205099203753 1:-1 2:-0.333333 3:-0.333333 4:-0.333333 5:0.333333 6:-1 7:1 8:-0.333333 9:-0.333333 10:1 11:-0.333333 12:-1 13:-1 14:-1 15:-1 16:-1 17:-0.333333 18:-0.333333 19:-1 20:-1 21:-1 22:1 23:-1 24:1 25:0.333333 26:1 27:1 28:0.333333 29:0.333333 30:-0.333333 31:1 32:1 33:0.333333 34:-1 35:-1 36:-1 37:-1 38:0.333333 39:1 40:-0.333333 41:-0.333333 42:-1 43:-1 44:-1 45:1 46:-1 47:-1 48:-0.333333 49:0.333333 50:1 51:1 52:1 53:0.333333 54:1 55:-0.333333 56:-1 57:-0.333333 58:-1 59:-1 60:-1 
3.273821461155474 1:0.333333 2:1 3:1 4:-1 5:0.333333 6:1 7:0.333333 8:1 9:1 10:1 11:1 12:1 13:1 14:1 15:0.333333 16:0.333333 17:0.333333 18:0.333333 19:0.333333 20:0.333333 21:1 22:1 23:0.333333 24:1 25:1 26:-1 27:-1 28:-1 29:0.333333 30:0.333333 31:-1 32:0.333333 33:0.333333 34:-1 35:-0.333333 36:1 37:-0.333333 38:-0.333333 39:1 40:1 41:0.333333 42:-1 43:1 44:1 45:1 46:1 47:1 48:-1 49:-1 50:-0.333333 51:-0.333333 52:1 53:1 54:1 55:1 56:1 57:1 58:0.333333 59:-1 60:1 
5.676437580334418 1:0.333333 2:1 3:-0.333333 4:-0.333333 5:-0.333333 6:-1 7:-1 8:-0.333333 9:1 10:-0.333333 11:-1 12:-0.333333 13:0.333333 14:1 15:0.333333 16:-0.333333 17:0.333333 18:-1 19:-0.333333 20:1 21:-0.333333 22:1 23:-0.333333 24:0.333333 25:1 26:-0.333333 27:-1 28:0.333333 29:-1 30:0.333333 31:0.333333 32:-1 33:-0.333333 34:-1 35:-1 36:-1 37:-1 38:-0.333333 39:1 40:-0.333333 41:0.333333 42:0.333333 43:1 44:0.333333 45:1 46:-0.333333 47:-0.333333 48:-1 49:0.333333 50:1 51:0.333333 52:-1 53:1 54:0.333333 55:0.333333 56:0.333333 57:0.333333 58:1 59:-0.333333 60:0.333333 
1.179912563258428 1:-1 2:-1 3:-0.333333 4:0.333333 5:0.333333 6:1 7:1 8:0.333333 9:-0.333333 10:1 11:1 12:-0.333333 13:-0.333333 14:-1 15:-1 16:-1 17:0.333333 18:-0.333333 19:-0.333333 20:-0.333333 21:-1 22:-1 23:1 24:-1 25:1 26:0.333333 27:1 28:1 29:0.333333 30:0.333333 31:0.333333 32:0.333333 33:1 34:1 35:-0.333333 36:-1 37:-1 38:-1 39:0.333333 40:1 41:-1 42:-0.333333 43:-1 44:0.333333 45:-1 46:-0.333333 47:-1 48:-1 49:-0.333333 50:0.333333 51:-1 52:1 53:1 54:0.333333 55:1 56:0.333333 57:-1 58:-0.333333 59:-1 60:-1 
11.7209552225547 1:-0.333333 2:0.333333 3:0.333333 4:1 5:-0.333333 6:0.333333 7:-0.333333 8:-0.333333 9:-0.333333 10:-0.333333 11:-1 12:-0.333333 13:0.333333 14:-1 15:0.333333 16:0.333333 17:1 18:-0.333333 19:-0.333333 20:-1 21:-0.333333 22:-0.333333 23:0.333333 24:0.333333 25:1 26:1 27:1 28:-0.333333 29:0.333333 30:1 31:1 32:1 33:-0.333333 34:0.333333 35:1 36:-0.333333 37:-0.333333 38:-1 39:-0.333333 40:0.333333 41:-0.333333 42:0.333333 43:1 44:1 45:0.333333 46:-1 47:-0.333333 48:0.333333 49:-0.333333 50:-0.333333 51:0.333333 52:1 53:-1 54:0.333333 55:0.333333 56:-0.333333 57:-0.333333 58:-0.333333 59:-1 60:-1 
2.27707970927223 1:-1 2:-0.333333 3:1 4:-1 5:-0.333333 6:0.333333 7:0.333333 8:-1 9:-1 10:-1 11:-0.333333 12:-1 13:0.333333 14:0.333333 15:-1 16:1 17:0.333333 18:-1 19:-0.333333 20:0.333333 21:-0.333333 22:1 23:1 24:1 25:0.333333 26:0.333333 27:1 28:1 29:1 30:-1 31:1 32:-0.333333 33:1 34:-0.333333 35:1 36:-0.333333 37:-1 38:-0.333333 39:-1 40:-1 41:1 42:1 43:-0.333333 44:-1 45:-1 46:-1 47:1 48:-0.333333 49:-1 50:0.333333 51:1 52:-1 53:-0.333333 54:0.333333 55:-1 56:1 57:1 58:-1 59:1 60:1 
2.546766781555853 1:-1 2:1 3:-0.333333 4:0.333333 5:-1 6:-0.333333 7:0.333333 8:-1 9:0.333333 10:0.333333 11:1 12:1 13:0.333333 14:-1 15:-0.333333 16:-0.333333 17:1 18:0.333333 19:1 20:1 21:-0.333333 22:-1 23:-0.333333 24:0.333333 25:1 26:0.333333 27:1 28:-1 29:1 30:-0.333333 31:0.333333 32:-1 33:-0.333333 34:-0.333333 35:-0.333333 36:-1 37:-0.333333 38:-0.333333 39:1 40:-1 41:-1 42:-0.333333 43:0.333333 44:0.333333 45:-1 46:0.333333 47:-0.333333 48:-0.333333 49:-1 50:-1 51:-0.333333 52:1 53:0.333333 54:-1 55:0.333333 56:-1 57:-1 58:-0.333333 59:0.333333 60:-1 
7.042789164506781 1:1 2:0.333333 3:1 4:0.333333 5:-1 6:-1 7:1 8:0.333333 9:0.333333 10:1 11:1 12:1 13:0.333333 14:0.333333 15:0.333333 16:1 17:-0.333333 18:1 19:-1 20:-1 21:0.333333 22:1 23:0.333333 24:0.333333 25:1 26:-0.333333 27:0.333333 28:0.333333 29:-1 30:-0.333333 31:-1 32:-0.333333 33:1 34:1 35:0.333333 36:0.333333 37:1 38:-0.333333 39:-0.333333 40:-1 41:1 42:-0.333333 43:-1 44:1 45:-0.333333 46:-1 47:0.333333 48:-1 49:1 50:1 51:-1 52:0.333333 53:1 54:-0.333333 55:-1 56:1 57:-0.333333 58:-1 59:0.333333 60:-1 
2.186765225492789 1:-1 2:0.333333 3:-1 4:-1 5:-0.333333 6:-1 7:-1 8:-0.333333 9:-0.333333 10:-1 11:1 12:-0.333333 13:-0.333333 14:-1 15:-0.333333 16:0.333333 17:1 18:-0.333333 19:-1 20:0.333333 21:1 22:1 23:0.333333 24:-1 25:0.333333 26:0.333333 27:-1 28:-1 29:-0.333333 30:1 31:-0.333333 32:-0.333333 33:0.333333 34:-1 35:1 36:1 37:-0.333333 38:1 39:-0.333333 40:1 41:1 42:0.333333 43:1 44:-0.333333 45:-1 46:-1 47:-0.333333 48:-1 49:1 50:1 51:-0.333333 52:-0.333333 53:-0.333333 54:-0.333333 55:-1 56:-1 57:0.333333 58:-1 59:0.333333 60:-1 
1.559469224347585 1:-1 2:1 3:1 4:0.333333 5:1 6:-1 7:0.333333 8:1 9:1 10:-1 11:-0.333333 12:1 13:-1 14:-1 15:-1 16:0.333333 17:-1 18:1 19:-1 20:-1 21:1 22:1 23:1 24:0.333333 25:1 26:1 27:-0.333333 28:1 29:-0.333333 30:0.333333 31:1 32:-1 33:-0.333333 34:-1 35:1 36:-1 37:-1 38:0.333333 39:0.333333 40:-1 41:-1 42:-1 43:1 44:1 45:-1 46:-1 47:-0.333333 48:-1 49:-1 50:-1 51:-1 52:0.333333 53:0.333333 54:-1 55:-1 56:-1 57:-1 58:0.333333 59:-1 60:-1 
11.05450583031889 1:1 2:0.333333 3:-1 4:-1 5:0.333333 6:0.333333 7:-1 8:1 9:1 10:-1 11:-1 12:1 13:-0.333333 14:1 15:0.333333 16:1 17:0.333333 18:1 19:1 20:0.333333 21:0.333333 22:1 23:1 24:0.333333 25:0.333333 26:1 27:-0.333333 28:0.333333 29:-1 30:-0.333333 31:0.333333 32:-0.333333 33:1 34:1 35:1 36:-0.333333 37:1 38:-0.333333 39:-1 40:-0.333333 41:-0.333333 42:0.333333 43:-1 44:1 45:-1 46:1 47:0.333333 48:0.333333 49:1 50:-0.333333 51:1 52:0.333333 53:-0.333333 54:-0.333333 55:-0.333333 56:-0.333333 57:1 58:-0.333333 59:-1 60:0.333333 
12.8222164117616 1:0.333333 2:1 3:0.333333 4:-0.333333 5:-0.333333 6:-0.333333 7:0.333333 8:-1 9:-0.333333 10:0.333333 11:-1 12:-0.333333 13:1 14:0.333333 15:-1 16:1 17:1 18:-0.333333 19:0.333333 20:1 21:-0.333333 22:1 23:0.333333 24:-1 25:0.333333 26:0.333333 27:0.333333 28:-0.333333 29:0.333333 30:1 31:0.333333 32:1 33:-0.333333 34:0.333333 35:0.333333 36:0.333333 37:-1 38:-0.333333 39:-0.333333 40:0.333333 41:1 42:-0.333333 43:0.333333 44:0.333333 45:0.333333 46:-0.333333 47:0.333333 48:0.333333 49:-1 50:-0.333333 51:-0.333333 52:1 53:0.333333 54:0.333333 55:-1 56:0.333333 57:1 58:1 59:-1 60:1 
8.99806110991697 1:-1 2:-0.333333 3:-0.333333 4:-0.333333 5:-0.333333 6:1 7:-0.333333 8:0.333333 9:1 10:0.333333 11:0.333333 12:1 13:-0.333333 14:-0.333333 15:0.333333 16:-1 17:-1 18:1 19:0.333333 20:-0.333333 21:1 22:-0.333333 23:-0.333333 24:1 25:1 26:1 27:1 28:0.333333 29:0.333333 30:-1 31:-0.333333 32:-0.333333 33:0.333333 34:1 35:0.333333 36:1 37:-0.333333 38:-1 39:1 40:-0.333333 41:-0.333333 42:1 43:1 44:1 45:-1 46:0.333333 47:0.333333 48:1 49:-0.333333 50:-0.333333 51:-0.333333 52:0.333333 53:0.333333 54:-1 55:-1 56:-1 57:-0.333333 58:-0.333333 59:-0.333333 60:1 
11.92092485886058 1:-1 2:0.333333 3:0.333333 4:1 5:0.333333 6:-0.333333 7:-0.333333 8:-0.333333 9:0.333333 10:0.333333 11:1 12:-0.333333 13:0.333333 14:-0.333333 15:-0.333333 16:0.333333 17:-1 18:1 19:-0.333333 20:1 21:-0.333333 22:0.333333 23:-1 24:-0.333333 25:0.333333 26:1 27:-0.333333 28:-0.333333 29:0.333333 30:0.333333 31:1 32:1 33:0.333333 34:1 35:1 36:0.333333 37:0.333333 38:0.333333 39:1 40:0.333333 41:0.333333 42:0.333333 43:-0.333333 44:-0.333333 45:0.333333 46:-1 47:0.333333 48:0.333333 49:-0.333333 50:1 51:-0.333333 52:0.333333 53:-1 54:1 55:0.333333 56:0.333333 57:-0.333333 58:0.333333 59:1 60:-0.333333 
2.780280503526873 1:-1 2:0.333333 3:0.333333 4:1 5:0.333333 6:-1 7:-1 8:-1 9:1 10:1 11:-0.333333 12:-1 13:-1 14:0.333333 15:-0.333333 16:-1 17:1 18:1 19:-1 20:-1 21:-1 22:-1 23:-1 24:1 25:1 26:0.333333 27:-1 28:-1 29:-1 30:-0.333333 31:0.333333 32:-1 33:1 34:-1 35:-0.333333 36:0.333333 37:0.333333 38:0.333333 39:1 40:-0.333333 41:-1 42:-1 43:-1 44:-0.333333 45:-1 46:-0.333333 47:-1 48:-1 49:-1 50:-0.333333 51:-0.333333 52:-1 53:0.333333 54:-1 55:-1 56:-0.333333 57:-0.333333 58:-1 59:0.333333 60:0.333333 
1.155339719294021 1:-1 2:-0.333333 3:-0.333333 4:-1 5:-0.333333 6:-1 7:-0.333333 8:-0.333333 9:-1 10:-1 11:1 12:-1 13:-0.333333 14:-0.333333 15:1 16:1 17:1 18:-0.333333 19:-0.333333 20:-0.333333 21:-1 22:-1 23:-1 24:1 25:-1 26:-1 27:-1 28:1 29:0.333333 30:0.333333 31:1 32:-0.333333 33:0.333333 34:1 35:-0.333333 36:-1 37:0.333333 38:-1 39:1 40:1 41:-0.333333 42:-0.333333 43:-1 44:-1 45:-1 46:0.333333 47:0.333333 48:0.333333 49:0.333333 50:-1 51:-1 52:-0.333333 53:-0.333333 54:-1 55:-1 56:-0.333333 57:0.333333 58:0.333333 59:1 60:0.333333 
4.996173373058713 1:-1 2:-0.333333 3:1 4:0.333333 5:1 6:1 7:-0.333333 8:0.333333 9:1 10:-0.333333 11:1 12:0.333333 13:0.333333 14:1 15:-0.333333 16:-0.333333 17:0.333333 18:-1 19:0.333333 20:1 21:-0.333333 22:0.333333 23:1 24:0.333333 25:1 26:-1 27:-1 28:-0.333333 29:-0.333333 30:-0.333333 31:0.333333 32:1 33:1 34:1 35:-1 36:1 37:-1 38:0.333333 39:1 40:1 41:-1 42:1 43:1 44:1 45:-0.333333 46:0.333333 47:1 48:0.333333 49:-1 50:0.333333 51:1 52:1 53:-1 54:-0.333333 55:1 56:0.333333 57:0.333333 58:1 59:0.333333 60:-1 
4.786977348156038 1:0.333333 2:-1 3:-0.333333 4:-0.333333 5:1 6:-0.333333 7:1 8:1 9:-0.333333 10:-1 11:0.333333 12:-1 13:-1 14:-0.333333 15:-1 16:-1 17:0.333333 18:0.333333 19:0.333333 20:1 21:-0.333333 22:-0.333333 23:-1 24:-0.333333 25:-0.333333 26:-0.333333 27:-1 28:-0.333333 29:-0.333333 30:-1 31:-0.333333 32:-1 33:-0.333333 34:0.333333 35:-1 36:-0.333333 37:-0.333333 38:-0.333333 39:-1 40:-1 41:-1 42:-0.333333 43:-0.333333 44:1 45:0.333333 46:-1 47:-0.333333 48:-1 49:-1 50:-1 51:-0.333333 52:-0.333333 53:-0.333333 54:-1 55:-1 56:-0.333333 57:-1 58:0.333333 59:0.333333 60:0.333333 
13.68627715311108 1:1 2:-0.333333 3:1 4:1 5:0.333333 6:0.333333 7:-1 8:1 9:-0.333333 10:-1 11:0.333333 12:0.333333 13:0.333333 14:0.333333 15:0.333333 16:0.333333 17:0.333333 18:-1 19:0.333333 20:0.333333 21:-0.333333 22:0.333333 23:0.333333 24:1 25:1 26:1 27:-1 28:0.333333 29:-1 30:-0.333333 31:1 32:-0.333333 33:1 34:1 35:0.333333 36:0.333333 37:1 38:-0.333333 39:-0.333333 40:0.333333 41:1 42:0.333333 43:0.333333 44:1 45:0.333333 46:-1 47:-0.333333 48:0.333333 49:-1 50:-1 51:-0.333333 52:0.333333 53:-1 54:0.333333 55:-0.333333 56:-0.333333 57:1 58:0.333333 59:-0.333333 60:0.333333 
4.470529827154794 1:-1 2:-1 3:1 4:-1 5:-1 6:0.333333 7:0.333333 8:1 9:1 10:0.333333 11:1 12:-0.333333 13:0.333333 14:1 15:-0.333333 16:-0.333333 17:0.333333 18:0.333333 19:0.333333 20:0.333333 21:1 22:0.333333 23:1 24:-0.333333 25:0.333333 26:0.333333 27:1 28:1 29:-1 30:-0.333333 31:-0.333333 32:-1 33:-1 34:1 35:0.333333 36:-1 37:1 38:1 39:1 40:1 41:1 42:-1 43:-1 44:1 45:-1 46:-1 47:1 48:-0.333333 49:-0.333333 50:-1 51:0.333333 52:0.333333 53:1 54:-1 55:0.333333 56:0.333333 57:1 58:-0.333333 59:-0.333333 60:-1 
4.969884409690949 1:-0.333333 2:-0.333333 3:-1 4:0.333333 5:-1 6:-0.333333 7:-0.333333 8:-1 9:1 10:-0.333333 11:1 12:-1 13:-0.333333 14:0.333333 15:1 16:0.333333 17:1 18:0.333333 19:-1 20:-0.333333 21:-0.333333 22:1 23:-0.333333 24:1 25:-0.333333 26:-1 27:1 28:0.333333 29:0.333333 30:-1 31:-1 32:1 33:1 34:1 35:0.333333 36:-0.333333 37:-0.333333 38:-0.333333 39:1 40:0.333333 41:-1 42:1 43:-0.333333 44:1 45:-1 46:1 47:0.333333 48:0.333333 49:0.333333 50:1 51:1 52:1 53:-1 54:1 55:1 56:-0.333333 57:-0.333333 58:1 59:-1 60:0.333333 
17.42028728285957 1:0.333333 2:-1 3:1 4:0.333333 5:1 6:-0.333333 7:1 8:-0.333333 9:0.333333 10:0.333333 11:-0.333333 12:-0.333333 13:0.333333 14:1 15:-1 16:0.333333 17:1 18:-0.333333 19:0.333333 20:0.333333 21:0.333333 22:0.333333 23:-1 24:0.333333 25:0.333333 26:-1 27:1 28:-0.333333 29:-1 30:0.333333 31:0.333333 32:0.333333 33:-0.333333 34:0.333333 35:-0.333333 36:1 37:-0.333333 38:0.333333 39:1 40:-0.333333 41:0.333333 42:-1 43:-0.333333 44:-0.333333 45:-0.333333 46:-0.333333 47:-0.333333 48:1 49:0.333333 50:0.333333 51:1 52:-0.333333 53:0.333333 54:0.333333 55:-0.333333 56:-0.333333 57:0.333333 58:0.333333 59:0.333333 60:1 
5.180013051981386 1:0.333333 2:-1 3:0.333333 4:-1 5:-0.333333 6:-0.333333 7:-1 8:0.333333 9:-1 10:0.333333 11:0.333333 12:1 13:0.333333 14:-1 15:0.333333 16:-1 17:-0.333333 18:-1 19:-0.333333 20:-0.333333 21:1 22:0.333333 23:-1 24:0.333333 25:0.333333 26:1 27:0.333333 28:-1 29:0.333333 30:-1 31:0.333333 32:-0.333333 33:-0.333333 34:-0.333333 35:-0.333333 36:0.333333 37:-1 38:0.333333 39:-1 40:0.333333 41:1 42:1 43:0.333333 44:-1 45:0.333333 46:-1 47:0.333333 48:1 49:0.333333 50:-1 51:-0.333333 52:-0.333333 53:1 54:0.333333 55:-1 56:0.333333 57:0.333333 58:1 59:0.333333 60:-1 
2.726350633163715 1:1 2:-1 3:1 4:1 5:0.333333 6:1 7:-0.333333 8:0.333333 9:0.333333 10:-1 11:-1 12:1 13:0.333333 14:-1 15:0.333333 16:-1 17:1 18:1 19:1 20:0.333333 21:1 22:0.333333 23:1 24:1 25:0.333333 26:-1 27:-1 28:0.333333 29:1 30:-1 31:1 32:-0.333333 33:0.333333 34:0.333333 35:1 36:1 37:-0.333333 38:1 39:-0.333333 40:-1 41:1 42:-1 43:1 44:-1 45:-0.333333 46:1 47:1 48:1 49:-0.333333 50:-0.333333 51:0.333333 52:1 53:0.333333 54:1 55:-0.333333 56:1 57:0.333333 58:0.333333 59:0.333333 60:0.333333 
37.64235457063691 1:-0.333333 2:-0.333333 3:-0.333333 4:0.333333 5:1 6:-0.333333 7:0.333333 8:-0.333333 9:1 10:1 11:-0.333333 12:0.333333 13:1 14:-0.333333 15:-0.333333 16:1 17:0.333333 18:-1 19:0.333333 20:-1 21:1 22:1 23:0.333333 24:0.333333 25:1 26:-0.333333 27:-0.333333 28:0.333333 29:-1 30:-0.333333 31:-0.333333 32:1 33:-1 34:1 35:-0.333333 36:-0.333333 37:-0.333333 38:-0.333333 39:0.333333 40:-0.333333 41:-0.333333 42:-0.333333 43:-0.333333 44:0.333333 45:1 46:1 47:-0.333333 48:0.333333 49:1 50:0.333333 51:-0.333333 52:-0.333333 53:1 54:1 55:1 56:1 57:0.333333 58:0.333333 59:0.333333 60:0.333333 
2.858808279087077 1:1 2:-1 3:-1 4:-1 5:-1 6:-1 7:1 8:1 9:-1 10:-1 11:-1 12:-1 13:1 14:-0.333333 15:1 16:-0.333333 17:-1 18:-1 19:1 20:-0.333333 21:1 22:0.333333 23:-1 24:-1 25:0.333333 26:-1 27:-1 28:1 29:-1 30:-1 31:-1 32:-1 33:-1 34:-0.333333 35:0.333333 36:-1 37:-1 38:-0.333333 39:-1 40:0.333333 41:1 42:-1 43:1 44:-0.333333 45:-1 46:-1 47:-1 48:-0.333333 49:-0.333333 50:0.333333 51:1 52:0.333333 53:-1 54:-0.333333 55:-1 56:1 57:1 58:1 59:0.333333 60:1 
2.807544886275914 1:1 2:1 3:-0.333333 4:1 5:-0.333333 6:1 7:-1 8:1 9:-0.333333 10:-0.333333 11:1 12:-0.333333 13:1 14:-0.333333 15:-1 16:-0.333333 17:-0.333333 18:1 19:-1 20:-0.333333 21:-0.333333 22:-0.333333 23:0.333333 24:1 25:1 26:-0.333333 27:-1 28:-0.333333 29:-0.333333 30:1 31:1 32:1 33:-1 34:1 35:-0.333333 36:1 37:1 38:1 39:1 40:-0.333333 41:1 42:1 43:1 44:-1 45:1 46:-0.333333 47:-0.333333 48:-0.333333 49:1 50:-0.333333 51:1 52:-1 53:0.333333 54:-1 55:-0.333333 56:1 57:1 58:-0.333333 59:1 60:1 
9.779029909343784 1:-1 2:-0.333333 3:-0.333333 4:1 5:1 6:0.333333 7:-1 8:-1 9:0.333333 10:-1 11:1 12:0.333333 13:-0.333333 14:-0.333333 15:1 16:-0.333333 17:-0.333333 18:0.333333 19:0.333333 20:0.333333 21:0.333333 22:-1 23:0.333333 24:-1 25:1 26:0.333333 27:0.333333 28:1 29:0.333333 30:0.333333 31:-1 32:1 33:1 34:0.333333 35:0.333333 36:0.333333 37:-1 38:1 39:0.333333 40:1 41:1 42:-0.333333 43:1 44:-0.333333 45:0.333333 46:1 47:0.333333 48:0.333333 49:1 50:-1 51:0.333333 52:1 53:1 54:0.333333 55:1 56:1 57:1 58:-0.333333 59:-1 60:1 
4.080112959029757 1:-0.333333 2:-0.333333 3:0.333333 4:-1 5:0.333333 6:-1 7:0.333333 8:0.333333 9:0.333333 10:1 11:-1 12:1 13:-1 14:-1 15:0.333333 16:-1 17:-1 18:1 19:-0.333333 20:-1 21:-1 22:-1 23:-0.333333 24:-1 25:0.333333 26:-1 27:0.333333 28:-1 29:0.333333 30:-1 31:0.333333 32:0.333333 33:-0.333333 34:-1 35:-0.333333 36:-1 37:-0.333333 38:0.333333 39:1 40:-1 41:0.333333 42:-0.333333 43:0.333333 44:1 45:0.333333 46:-1 47:1 48:0.333333 49:-1 50:0.333333 51:0.333333 52:1 53:1 54:1 55:0.333333 56:1 57:0.333333 58:1 59:-0.333333 60:1 
10.11127034021415 1:-0.333333 2:-0.333333 3:-1 4:0.333333 5:1 6:0.333333 7:-1 8:0.333333 9:-1 10:-0.333333 11:0.333333 12:1 13:-0.333333 14:0.333333 15:0.333333 16:0.333333 17:0.333333 18:0.333333 19:-1 20:-0.333333 21:-1 22:-0.333333 23:0.333333 24:0.333333 25:0.333333 26:-1 27:-0.333333 28:-0.333333 29:0.333333 30:-1 31:-1 32:1 33:-0.333333 34:-0.333333 35:0.333333 36:-1 37:0.333333 38:1 39:-0.333333 40:-1 41:0.333333 42:-0.333333 43:0.333333 44:1 45:1 46:0.333333 47:0.333333 48:0.333333 49:-1 50:1 51:1 52:-1 53:-1 54:-1 55:-0.333333 56:0.333333 57:1 58:0.333333 59:0.333333 60:-1 
1.230668694298275 1:0.333333 2:1 3:-1 4:0.333333 5:-1 6:1 7:-0.333333 8:0.333333 9:1 10:0.333333 11:1 12:1 13:-1 14:-1 15:-1 16:0.333333 17:1 18:0.333333 19:-1 20:-0.333333 21:-0.333333 22:-0.333333 23:1 24:-0.333333 25:-0.333333 26:-0.333333 27:-1 28:-0.333333 29:-1 30:-1 31:-0.333333 32:-1 33:1 34:1 35:1 36:0.333333 37:-1 38:0.333333 39:0.333333 40:-1 41:0.333333 42:1 43:-1 44:0.333333 45:-1 46:-0.333333 47:-1 48:-0.333333 49:-0.333333 50:-0.333333 51:1 52:-0.333333 53:1 54:1 55:0.333333 56:1 57:1 58:1 59:0.333333 60:0.333333 
3.99607525868339 1:-1 2:1 3:-0.333333 4:0.333333 5:1 6:1 7:0.333333 8:-1 9:-1 10:-1 11:-0.333333 12:-0.333333 13:0.333333 14:1 15:1 16:0.333333 17:1 18:-1 19:-0.333333 20:-0.333333 21:0.333333 22:0.333333 23:0.333333 24:-1 25:1 26:0.333333 27:0.333333 28:0.333333 29:-0.333333 30:-0.333333 31:-0.333333 32:-1 33:-1 34:-0.333333 35:1 36:-0.333333 37:1 38:1 39:-1 40:-1 41:1 42:-0.333333 43:-1 44:-0.333333 45:0.333333 46:1 47:-0.333333 48:1 49:-0.333333 50:-0.333333 51:-1 52:0.333333 53:1 54:-0.333333 55:-0.333333 56:1 57:1 58:0.333333 59:-1 60:0.333333 
18.43150513907045 1:0.333333 2:1 3:1 4:0.333333 5:0.333333 6:-0.333333 7:0.333333 8:-1 9:0.333333 10:0.333333 11:0.333333 12:-1 13:-0.333333 14:0.333333 15:-0.333333 16:0.333333 17:-0.333333 18:1 19:0.333333 20:-0.333333 21:-1 22:0.333333 23:0.333333 24:1 25:1 26:1 27:-1 28:0.333333 29:0.333333 30:-1 31:-0.333333 32:0.333333 33:-1 34:-0.333333 35:-0.333333 36:0.333333 37:0.333333 38:1 39:0.333333 40:0.333333 41:0.333333 42:0.333333 43:-1 44:0.333333 45:0.333333 46:-1 47:-0.333333 48:-1 49:1 50:-0.333333 51:0.333333 52:0.333333 53:0.333333 54:1 55:-0.333333 56:0.333333 57:-0.333333 58:0.333333 59:1 60:-0.333333 
8.263742556014652 1:-0.333333 2:-0.333333 3:-1 4:0.333333 5:0.333333 6:-1 7:0.333333 8:0.333333 9:0.333333 10:0.333333 11:0.333333 12:-1 13:0.333333 14:-1 15:-1 16:-0.333333 17:-0.333333 18:-1 19:-0.333333 20:-0.333333 21:0.333333 22:-1 23:-1 24:0.333333 25:0.333333 26:-1 27:-0.333333 28:0.333333 29:0.333333 30:1 31:0.333333 32:-1 33:-1 34:-0.333333 35:-0.333333 36:1 37:0.333333 38:0.333333 39:0.333333 40:0.333333 41:0.333333 42:-1 43:0.333333 44:0.333333 45:1 46:0.333333 47:0.333333 48:1 49:0.333333 50:0.333333 51:-1 52:-0.333333 53:-0.333333 54:-1 55:-1 56:-1 57:-0.333333 58:0.333333 59:0.333333 60:-1 
2.183023416551207 1:-0.333333 2:0.333333 3:-0.333333 4:-1 5:-0.333333 6:0.333333 7:0.333333 8:0.333333 9:-0.333333 10:1 11:-0.333333 12:-0.333333 13:1 14:-0.333333 15:-1 16:0.333333 17:0.333333 18:1 19:-0.333333 20:-0.333333 21:-0.333333 22:1 23:-0.333333 24:1 25:0.333333 26:1 27:0.333333 28:-1 29:-0.333333 30:0.333333 31:1 32:-0.333333 33:1 34:1 35:0.333333 36:0.333333 37:1 38:-0.333333 39:-0.333333 40:-1 41:0.333333 42:-1 43:1 44:-0.333333 45:-1 46:0.333333 47:1 48:-0.333333 49:-1 50:-1 51:-0.333333 52:1 53:0.333333 54:0.333333 55:1 56:-0.333333 57:0.333333 58:0.333333 59:0.333333 60:1 
4.488758595019925 1:1 2:0.333333 3:0.333333 4:0.333333 5:-1 6:0.333333 7:-1 8:0.333333 9:-0.333333 10:-0.333333 11:1 12:1 13:0.333333 14:-1 15:-0.333333 16:-1 17:1 18:-1 19:-1 20:1 21:0.333333 22:0.333333 23:0.333333 24:1 25:-0.333333 26:0.333333 27:1 28:-0.333333 29:0.333333 30:-1 31:1 32:1 33:1 34:1 35:-1 36:0.333333 37:0.333333 38:0.333333 39:1 40:0.333333 41:-1 42:1 43:0.333333 44:-1 45:1 46:-0.333333 47:0.333333 48:-1 49:0.333333 50:0.333333 51:-1 52:0.333333 53:1 54:1 55:1 56:-1 57:-0.333333 58:0.333333 59:0.333333 60:-1 
2.514426179381569 1:-1 2:-1 3:1 4:1 5:1 6:-0.333333 7:0.333333 8:1 9:0.333333 10:0.333333 11:1 12:-1 13:-1 14:1 15:1 16:0.333333 17:-1 18:-0.333333 19:1 20:-0.333333 21:1 22:0.333333 23:0.333333 24:-1 25:1 26:-0.333333 27:1 28:1 29:1 30:0.333333 31:1 32:-0.333333 33:-1 34:-0.333333 35:0.333333 36:0.333333 37:1 38:0.333333 39:0.333333 40:-1 41:-0.333333 42:-1 43:0.333333 44:0.333333 45:-1 46:1 47:0.333333 48:-0.333333 49:0.333333 50:1 51:-1 52:1 53:-0.333333 54:-1 55:-0.333333 56:0.333333 57:1 58:1 59:0.333333 60:0.333333 
7.878789454261645 1:-1 2:1 3:1 4:-0.333333 5:-1 6:-1 7:-1 8:0.333333 9:-1 10:0.333333 11:-1 12:-0.333333 13:-1 14:-0.333333 15:0.333333 16:-1 17:0.333333 18:0.333333 19:-1 20:-0.333333 21:0.333333 22:1 23:0.333333 24:1 25:-0.333333 26:-1 27:-0.333333 28:-0.333333 29:-1 30:-1 31:0.333333 32:1 33:0.333333 34:-0.333333 35:1 36:0.333333 37:0.333333 38:0.333333 39:-1 40:-1 41:-0.333333 42:0.333333 43:0.333333 44:0.333333 45:0.333333 46:0.333333 47:0.333333 48:-1 49:1 50:0.333333 51:1 52:0.333333 53:0.333333 54:-1 55:0.333333 56:1 57:1 58:0.333333 59:0.333333 60:1 
106.7654033758218 1:-1 2:-0.333333 3:-0.333333 4:-0.333333 5:0.333333 6:0.333333 7:0.333333 8:0.333333 9:1 10:1 11:-1 12:0.333333 13:-0.333333 14:1 15:1 16:0.333333 17:0.333333 18:0.333333 19:0.333333 20:1 21:0.333333 22:1 23:1 24:1 25:1 26:0.333333 27:0.333333 28:0.333333 29:-1 30:-0.333333 31:-1 32:-0.333333 33:0.333333 34:0.333333 35:-0.333333 36:-0.333333 37:0.333333 38:1 39:1 40:0.333333 41:0.333333 42:0.333333 43:-1 44:-0.333333 45:0.333333 46:0.333333 47:0.333333 48:-1 49:0.333333 50:0.333333 51:-1 52:1 53:0.333333 54:0.333333 55:0.333333 56:0.333333 57:-1 58:1 59:0.333333 60:-0.333333 
6.010018120989753 1:-1 2:0.333333 3:1 4:-0.333333 5:-0.333333 6:0.333333 7:0.333333 8:-0.333333 9:1 10:-0.333333 11:1 12:-0.333333 13:-0.333333 14:1 15:1 16:1 17:1 18:-1 19:-0.333333 20:-0.333333 21:1 22:-0.333333 23:-0.333333 24:-1 25:0.333333 26:0.333333 27:-1 28:-0.333333 29:-0.333333 30:-1 31:-1 32:-0.333333 33:0.333333 34:1 35:-1 36:1 37:1 38:1 39:0.333333 40:1 41:-0.333333 42:-0.333333 43:0.333333 44:-1 45:-1 46:-0.333333 47:-0.333333 48:0.333333 49:0.333333 50:-1 51:-0.333333 52:-1 53:1 54:0.333333 55:0.333333 56:1 57:-0.333333 58:1 59:0.333333 60:1 
6.999908262900196 1:-1 2:-1 3:0.333333 4:1 5:0.333333 6:1 7:0.333333 8:1 9:1 10:1 11:0.333333 12:1 13:0.333333 14:0.333333 15:-1 16:1 17:1 18:1 19:0.333333 20:1 21:1 22:-0.333333 23:0.333333 24:0.333333 25:1 26:1 27:1 28:0.333333 29:-1 30:-0.333333 31:-1 32:-1 33:-0.333333 34:-1 35:-1 36:0.333333 37:-1 38:1 39:-0.333333 40:1 41:-0.333333 42:-1 43:1 44:0.333333 45:-1 46:1 47:0.333333 48:0.333333 49:-1 50:-0.333333 51:-0.333333 52:0.333333 53:0.333333 54:-0.333333 55:-1 56:-0.333333 57:1 58:1 59:0.333333 60:1 
6.528920911572534 1:-1 2:-1 3:-1 4:-0.333333 5:-1 6:-0.333333 7:1 8:0.333333 9:0.333333 10:-1 11:-0.333333 12:-0.333333 13:-1 14:0.333333 15:0.333333 16:-1 17:-0.333333 18:-1 19:1 20:-0.333333 21:-0.333333 22:-1 23:1 24:1 25:0.333333 26:-1 27:0.333333 28:-1 29:-0.333333 30:0.333333 31:0.333333 32:-1 33:-1 34:-1 35:1 36:1 37:0.333333 38:1 39:-1 40:0.333333 41:0.333333 42:-1 43:-0.333333 44:-1 45:-0.333333 46:-0.333333 47:1 48:-1 49:0.333333 50:-1 51:-1 52:-0.333333 53:-0.333333 54:1 55:-0.333333 56:-0.333333 57:-1 58:-1 59:0.333333 60:1 
4.013935144361372 1:-1 2:-1 3:0.333333 4:-1 5:-0.333333 6:-1 7:-0.333333 8:-1 9:-0.333333 10:-1 11:-0.333333 12:-1 13:-1 14:0.333333 15:-1 16:-0.333333 17:0.333333 18:-0.333333 19:-0.333333 20:0.333333 21:-1 22:-1 23:-0.333333 24:0.333333 25:0.333333 26:0.333333 27:-1 28:-1 29:-0.333333 30:-1 31:-1 32:-0.333333 33:0.333333 34:0.333333 35:0.333333 36:-0.333333 37:-0.333333 38:-0.333333 39:-1 40:0.333333 41:1 42:0.333333 43:0.333333 44:1 45:-0.333333 46:-1 47:-0.333333 48:-1 49:-1 50:0.333333 51:-1 52:-1 53:1 54:-1 55:-1 56:-0.333333 57:-0.333333 58:-1 59:-0.333333 60:1 
3.819429439857956 1:-0.333333 2:0.333333 3:0.333333 4:-1 5:0.333333 6:1 7:1 8:0.333333 9:-1 10:-0.333333 11:0.333333 12:-1 13:-1 14:-0.333333 15:1 16:1 17:0.333333 18:-1 19:1 20:1 21:0.333333 22:0.333333 23:1 24:-0.333333 25:-1 26:-0.333333 27:-0.333333 28:-0.333333 29:0.333333 30:1 31:0.333333 32:0.333333 33:0.333333 34:-1 35:-0.333333 36:-1 37:-0.333333 38:-1 39:-0.333333 40:1 41:-0.333333 42:-0.333333 43:-0.333333 44:-0.333333 45:0.333333 46:1 47:-0.333333 48:-0.333333 49:1 50:1 51:-0.333333 52:0.333333 53:0.333333 54:-1 55:-0.333333 56:1 57:0.333333 58:-1 59:-0.333333 60:-1 
2.488442826805976 1:-1 2:-1 3:-1 4:0.333333 5:1 6:-1 7:0.333333 8:0.333333 9:0.333333 10:0.333333 11:1 12:-1 13:-1 14:-1 15:-1 16:-0.333333 17:0.333333 18:0.333333 19:-1 20:-1 21:-1 22:-1 23:1 24:-0.333333 25:-0.333333 26:-0.333333 27:-1 28:-1 29:-1 30:-0.333333 31:-0.333333 32:-1 33:-1 34:-1 35:-1 36:-0.333333 37:-1 38:0.333333 39:1 40:0.333333 41:-1 42:1 43:-1 44:1 45:0.333333 46:-1 47:-1 48:0.333333 49:-1 50:1 51:1 52:-0.333333 53:1 54:0.333333 55:-0.333333 56:1 57:0.333333 58:-1 59:1 60:1 
4.472498700312961 1:-0.333333 2:0.333333 3:0.333333 4:-1 5:1 6:-0.333333 7:-0.333333 8:-1 9:-1 10:-1 11:-1 12:-0.333333 13:0.333333 14:-1 15:0.333333 16:0.333333 17:-1 18:-0.333333 19:-1 20:-1 21:-0.333333 22:0.333333 23:-0.333333 24:-0.333333 25:-0.333333 26:0.333333 27:0.333333 28:-1 29:-1 30:-1 31:-0.333333 32:-1 33:1 34:-0.333333 35:-1 36:-1 37:-1 38:-1 39:1 40:-0.333333 41:-0.333333 42:-1 43:-0.333333 44:0.333333 45:1 46:-0.333333 47:1 48:1 49:1 50:-0.333333 51:1 52:-0.333333 53:0.333333 54:-1 55:-1 56:0.333333 57:-1 58:-0.333333 59:-1 60:0.333333 
5.637386511326302 1:1 2:-0.333333 3:0.333333 4:1 5:0.333333 6:0.333333 7:-1 8:-0.333333 9:-0.333333 10:-0.333333 11:-1 12:-0.333333 13:0.333333 14:1 15:-0.333333 16:-1 17:-0.333333 18:-0.333333 19:0.333333 20:0.333333 21:0.333333 22:1 23:1 24:0.333333 25:-1 26:-1 27:-1 28:-0.333333 29:0.333333 30:0.333333 31:0.333333 32:-1 33:-0.333333 34:1 35:-1 36:0.333333 37:-1 38:1 39:-0.333333 40:0.333333 41:1 42:-0.333333 43:-0.333333 44:1 45:-0.333333 46:-0.333333 47:1 48:1 49:0.333333 50:-1 51:0.333333 52:-1 53:1 54:-0.333333 55:0.333333 56:-0.333333 57:0.333333 58:-1 59:-0.333333 60:-1 
1.620261314607488 1:-0.333333 2:-1 3:-0.333333 4:-1 5:-1 6:-0.333333 7:-1 8:-1 9:1 10:1 11:-1 12:-1 13:0.333333 14:0.333333 15:1 16:1 17:1 18:1 19:-0.333333 20:0.333333 21:1 22:1 23:0.333333 24:1 25:0.333333 26:0.333333 27:-1 28:-0.333333 29:1 30:1 31:-0.333333 32:-1 33:-1 34:0.333333 35:-1 36:1 37:1 38:1 39:-0.333333 40:1 41:-1 42:-0.333333 43:0.333333 44:-1 45:-1 46:1 47:-1 48:-1 49:-0.333333 50:1 51:0.333333 52:-1 53:1 54:-0.333333 55:0.333333 56:-1 57:-1 58:-1 59:1 60:-1 
3.788748030136695 1:-0.333333 2:-0.333333 3:-1 4:-0.333333 5:-1 6:1 7:-1 8:-1 9:-0.333333 10:-0.333333 11:-0.333333 12:-0.333333 13:-1 14:0.333333 15:1 16:0.333333 17:-1 18:-0.333333 19:0.333333 20:1 21:0.333333 22:1 23:0.333333 24:-1 25:-0.333333 26:-0.333333 27:-1 28:-0.333333 29:-0.333333 30:1 31:0.333333 32:-1 33:-1 34:-1 35:-1 36:-1 37:0.333333 38:-1 39:-0.333333 40:-1 41:-0.333333 42:-0.333333 43:-1 44:1 45:1 46:-0.333333 47:0.333333 48:1 49:-1 50:1 51:1 52:-0.333333 53:0.333333 54:0.333333 55:0.333333 56:-0.333333 57:-1 58:-0.333333 59:0.333333 60:0.333333 
2.750268529504824 1:1 2:1 3:0.333333 4:0.333333 5:0.333333 6:0.333333 7:-1 8:-1 9:-0.333333 10:-0.333333 11:0.333333 12:-1 13:-1 14:-1 15:-0.333333 16:0.333333 17:0.333333 18:1 19:1 20:-1 21:1 22:-0.333333 23:-1 24:-1 25:-0.333333 26:-0.333333 27:-1 28:-1 29:-0.333333 30:0.333333 31:-1 32:1 33:0.333333 34:1 35:1 36:-0.333333 37:-0.333333 38:-1 39:-0.333333 40:-0.333333 41:0.333333 42:0.333333 43:-0.333333 44:-1 45:0.333333 46:1 47:-0.333333 48:1 49:-0.333333 50:-1 51:0.333333 52:-1 53:1 54:-1 55:0.333333 56:1 57:-0.333333 58:-1 59:1 60:0.333333 
14.08949380609228 1:1 2:-0.333333 3:1 4:1 5:1 6:1 7:0.333333 8:1 9:0.333333 10:1 11:1 12:0.333333 13:1 14:-1 15:1 16:1 17:0.333333 18:0.333333 19:0.333333 20:1 21:1 22:-0.333333 23:-0.333333 24:0.333333 25:1 26:0.333333 27:-1 28:0.333333 29:-1 30:-0.333333 31:-0.333333 32:-0.333333 33:-1 34:0.333333 35:0.333333 36:0.333333 37:-0.333333 38:-1 39:-0.333333 40:1 41:-0.333333 42:1 43:-1 44:1 45:-1 46:-0.333333 47:0.333333 48:0.333333 49:0.333333 50:1 51:0.333333 52:0.333333 53:-1 54:-0.333333 55:-1 56:-0.333333 57:1 58:-0.333333 59:-0.333333 60:-1 
2.934478499073915 1:-1 2:1 3:0.333333 4:0.333333 5:-1 6:-0.333333 7:1 8:0.333333 9:1 10:-1 11:-1 12:1 13:-1 14:-1 15:-0.333333 16:-1 17:-1 18:-1 19:-1 20:-1 21:-0.333333 22:-1 23:1 24:0.333333 25:-1 26:-1 27:0.333333 28:1 29:0.333333 30:-0.333333 31:1 32:-1 33:-0.333333 34:-0.333333 35:-1 36:-0.333333 37:1 38:-0.333333 39:1 40:0.333333 41:0.333333 42:-0.333333 43:1 44:-0.333333 45:-0.333333 46:-1 47:1 48:0.333333 49:-1 50:0.333333 51:-1 52:-1 53:-0.333333 54:0.333333 55:0.333333 56:0.333333 57:-1 58:-1 59:-0.333333 60:-1 
0.6499640757964013 1:-1 2:1 3:1 4:-0.333333 5:1 6:1 7:-0.333333 8:-1 9:-1 10:1 11:-1 12:1 13:-0.333333 14:-1 15:-1 16:-0.333333 17:0.333333 18:-1 19:1 20:1 21:0.333333 22:0.333333 23:0.333333 24:0.333333 25:-1 26:-1 27:-1 28:0.333333 29:0.333333 30:1 31:-0.333333 32:-1 33:-1 34:0.333333 35:-1 36:0.333333 37:0.333333 38:-1 39:-0.333333 40:0.333333 41:-1 42:-0.333333 43:1 44:-0.333333 45:-0.333333 46:-1 47:1 48:0.333333 49:1 50:-1 51:1 52:-1 53:1 54:-0.333333 55:-1 56:-1 57:0.333333 58:-1 59:-0.333333 60:-1 
1.701203384465506 1:0.333333 2:0.333333 3:1 4:-0.333333 5:-0.333333 6:1 7:-0.333333 8:0.333333 9:-0.333333 10:-1 11:-0.333333 12:-1 13:-1 14:-0.333333 15:-1 16:0.333333 17:1 18:1 19:1 20:-0.333333 21:1 22:-0.333333 23:0.333333 24:1 25:-0.333333 26:-1 27:0.333333 28:-1 29:-0.333333 30:0.333333 31:-1 32:-0.333333 33:0.333333 34:1 35:0.333333 36:-1 37:1 38:1 39:-0.333333 40:0.333333 41:1 42:-0.333333 43:-0.333333 44:-0.333333 45:-0.333333 46:-1 47:-1 48:-0.333333 49:-0.333333 50:1 51:-0.333333 52:-1 53:-0.333333 54:-0.333333 55:-1 56:-0.333333 57:0.333333 58:1 59:-1 60:-1 
16.37646412546291 1:1 2:1 3:0.333333 4:-1 5:-1 6:-0.333333 7:-1 8:1 9:0.333333 10:-1 11:1 12:0.333333 13:-0.333333 14:-1 15:-0.333333 16:-0.333333 17:-1 18:0.333333 19:0.333333 20:1 21:-0.333333 22:-1 23:-0.333333 24:-0.333333 25:-0.333333 26:0.333333 27:1 28:0.333333 29:-1 30:-0.333333 31:-0.333333 32:1 33:-1 34:-1 35:-0.333333 36:-0.333333 37:-0.333333 38:-0.333333 39:1 40:-1 41:-0.333333 42:-0.333333 43:-1 44:-0.333333 45:-0.333333 46:-0.333333 47:-1 48:0.333333 49:0.333333 50:1 51:0.333333 52:-1 53:-1 54:0.333333 55:1 56:0.333333 57:0.333333 58:0.333333 59:-1 60:-0.333333 
0.1893867224084127 1:-0.333333 2:0.333333 3:-1 4:-1 5:-1 6:-1 7:1 8:1 9:1 10:0.333333 11:0.333333 12:-1 13:-1 14:1 15:0.333333 16:-1 17:-1 18:-1 19:1 20:-0.333333 21:-0.333333 22:-1 23:0.333333 24:-1 25:-0.333333 26:0.333333 27:1 28:0.333333 29:0.333333 30:1 31:-0.333333 32:-1 33:-1 34:-0.333333 35:0.333333 36:1 37:-0.333333 38:0.333333 39:-1 40:0.333333 41:1 42:-0.333333 43:1 44:-1 45:1 46:-0.333333 47:-0.333333 48:1 49:0.333333 50:-0.333333 51:-0.333333 52:1 53:1 54:1 55:-1 56:0.333333 57:-1 58:-1 59:1 60:-1 
16.47743463945391 1:0.333333 2:1 3:-0.333333 4:0.333333 5:1 6:-0.333333 7:1 8:-0.333333 9:-1 10:1 11:-1 12:1 13:-0.333333 14:-0.333333 15:-1 16:-0.333333 17:-0.333333 18:-1 19:-1 20:-0.333333 21:-1 22:-1 23:-0.333333 24:-1 25:-0.333333 26:0.333333 27:1 28:0.333333 29:-1 30:-0.333333 31:-0.333333 32:1 33:-0.333333 34:-0.333333 35:-0.333333 36:-0.333333 37:-1 38:-1 39:-0.333333 40:-0.333333 41:-0.333333 42:-1 43:-0.333333 44:-1 45:-1 46:-0.333333 47:-0.333333 48:-0.333333 49:1 50:-0.333333 51:-0.333333 52:-0.333333 53:-0.333333 54:1 55:0.333333 56:1 57:-0.333333 58:-1 59:-0.333333 60:1 
12.10274189588798 1:1 2:0.333333 3:0.333333 4:1 5:-0.333333 6:-0.333333 7:-0.333333 8:1 9:1 10:0.333333 11:-1 12:1 13:-0.333333 14:0.333333 15:0.333333 16:-1 17:1 18:1 19:0.333333 20:1 21:0.333333 22:0.333333 23:1 24:-0.333333 25:0.333333 26:0.333333 27:1 28:0.333333 29:-1 30:-0.333333 31:0.333333 32:0.333333 33:1 34:0.333333 35:0.333333 36:0.333333 37:-0.333333 38:-1 39:-0.333333 40:1 41:-1 42:-1 43:-0.333333 44:0.333333 45:1 46:-0.333333 47:-0.333333 48:-0.333333 49:-1 50:-1 51:1 52:-1 53:0.333333 54:-1 55:-0.333333 56:-0.333333 57:0.333333 58:-1 59:0.333333 60:0.333333 
0.01158353962078045 1:1 2:0.333333 3:1 4:-1 5:-0.333333 6:-1 7:-1 8:1 9:0.333333 10:0.333333 11:1 12:-0.333333 13:0.333333 14:1 15:1 16:1 17:1 18:-1 19:1 20:0.333333 21:0.333333 22:0.333333 23:-1 24:-0.333333 25:0.333333 26:-1 27:1 28:0.333333 29:1 30:1 31:1 32:-0.333333 33:0.333333 34:1 35:1 36:1 37:0.333333 38:1 39:-1 40:1 41:-0.333333 42:1 43:1 44:-0.333333 45:0.333333 46:1 47:0.333333 48:-1 49:-0.333333 50:1 51:0.333333 52:-0.333333 53:0.333333 54:0.333333 55:0.333333 56:1 57:-1 58:1 59:-0.333333 60:1 
3.918312294131548 1:1 2:-0.333333 3:1 4:-0.333333 5:1 6:-0.333333 7:0.333333 8:0.333333 9:-1 10:-1 11:0.333333 12:0.333333 13:0.333333 14:-1 15:-0.333333 16:-1 17:-0.333333 18:-1 19:-1 20:-0.333333 21:-1 22:-1 23:-1 24:1 25:-0.333333 26:-0.333333 27:-0.333333 28:1 29:1 30:0.333333 31:-0.333333 32:-0.333333 33:-0.333333 34:-1 35:-0.333333 36:1 37:-1 38:0.333333 39:-1 40:1 41:0.333333 42:-1 43:-1 44:0.333333 45:1 46:0.333333 47:1 48:1 49:1 50:-0.333333 51:-0.333333 52:-1 53:-0.333333 54:-1 55:1 56:-0.333333 57:-1 58:-0.333333 59:0.333333 60:1 
