svm_type c_svc
kernel_type polynomial
degree 5
gamma 0.0166667
coef0 0
nr_class 2
total_sv 2052
rho -0.225596
label 1 -1
nr_sv 1086 966
SV
39.57333419059749 1:-1 2:-1 3:1 4:-0.333333 5:0.333333 6:0.333333 7:1 8:-0.333333 9:0.333333 10:-0.333333 11:-0.333333 12:-1 13:-0.333333 14:1 15:1 16:-0.333333 17:1 18:-0.333333 19:0.333333 20:-1 21:0.333333 22:-0.333333 23:1 24:-1 25:-0.333333 26:1 27:-1 28:-0.333333 29:-0.333333 30:-0.333333 31:1 32:0.333333 33:-1 34:-0.333333 35:-0.333333 36:0.333333 37:0.333333 38:-1 39:0.333333 40:-0.333333 41:-0.333333 42:0.333333 43:-1 44:-0.333333 45:0.333333 46:0.333333 47:1 48:-1 49:0.333333 50:0.333333 51:-0.333333 52:-0.333333 53:0.333333 54:-1 55:-1 56:1 57:1 58:1 59:0.333333 60:0.333333 
54.486287078073 1:-0.333333 2:0.333333 3:-1 4:-1 5:-1 6:0.333333 7:0.333333 8:1 9:0.333333 10:1 11:0.333333 12:0.333333 13:0.333333 14:1 15:-0.333333 16:-0.333333 17:0.333333 18:0.333333 19:0.333333 20:0.333333 21:1 22:1 23:-0.333333 24:-0.333333 25:-1 26:-0.333333 27:1 28:0.333333 29:-1 30:-0.333333 31:-0.333333 32:0.333333 33:-1 34:0.333333 35:-1 36:-0.333333 37:-0.333333 38:-0.333333 39:0.333333 40:-0.333333 41:-0.333333 42:-0.333333 43:-0.333333 44:1 45:-0.333333 46:1 47:1 48:-0.333333 49:-0.333333 50:1 51:-0.333333 52:-0.333333 53:-0.333333 54:-0.333333 55:-1 56:-1 57:-1 58:1 59:-0.333333 60:1 
34.23925743066714 1:-0.333333 2:0.333333 3:0.333333 4:0.333333 5:-1 6:1 7:1 8:0.333333 9:0.333333 10:1 11:-0.333333 12:0.333333 13:1 14:0.333333 15:-1 16:0.333333 17:0.333333 18:1 19:-0.333333 20:0.333333 21:1 22:-0.333333 23:-0.333333 24:-0.333333 25:-0.333333 26:-1 27:-1 28:0.333333 29:-1 30:1 31:-0.333333 32:1 33:-0.333333 34:-0.333333 35:-0.333333 36:0.333333 37:-0.333333 38:0.333333 39:-1 40:-0.333333 41:-1 42:0.333333 43:0.333333 44:1 45:-0.333333 46:-0.333333 47:1 48:0.333333 49:0.333333 50:-1 51:-1 52:0.333333 53:-1 54:1 55:0.333333 56:1 57:-1 58:1 59:-0.333333 60:-1 
171.4972840698003 1:1 2:0.333333 3:-1 4:-0.333333 5:-0.333333 6:0.333333 7:-1 8:1 9:0.333333 10:0.333333 11:-0.333333 12:0.333333 13:-0.333333 14:1 15:0.333333 16:1 17:0.333333 18:0.333333 19:-0.333333 20:-1 21:0.333333 22:-1 23:-1 24:0.333333 25:1 26:1 27:-0.333333 28:0.333333 29:0.333333 30:-0.333333 31:-0.333333 32:1 33:-0.333333 34:-1 35:-0.333333 36:1 37:-0.333333 38:-0.333333 39:-0.333333 40:0.333333 41:-0.333333 42:0.333333 43:0.333333 44:0.333333 45:0.333333 46:-0.333333 47:0.333333 48:-0.333333 49:-0.333333 50:1 51:-0.333333 52:-0.333333 53:-0.333333 54:-0.333333 55:-1 56:-0.333333 57:-0.333333 58:-0.333333 59:0.333333 60:-0.333333 
17.1376189836942 1:-0.333333 2:1 3:0.333333 4:-0.333333 5:1 6:0.333333 7:0.333333 8:1 9:0.333333 10:-1 11:0.333333 12:-0.333333 13:-0.333333 14:1 15:1 16:-1 17:0.333333 18:1 19:0.333333 20:1 21:1 22:1 23:-0.333333 24:-1 25:-0.333333 26:-0.333333 27:1 28:-0.333333 29:-0.333333 30:-0.333333 31:-1 32:1 33:0.333333 34:1 35:1 36:1 37:-0.333333 38:0.333333 39:0.333333 40:1 41:-0.333333 42:-1 43:1 44:0.333333 45:1 46:1 47:1 48:-0.333333 49:0.333333 50:-1 51:-1 52:-1 53:-1 54:1 55:0.333333 56:-1 57:-0.333333 58:-0.333333 59:-1 60:-0.333333 
583.0258467629502 1:-0.333333 2:-0.333333 3:-1 4:-1 5:-0.333333 6:-1 7:1 8:-0.333333 9:0.333333 10:1 11:-0.333333 12:-0.333333 13:-1 14:-0.333333 15:-0.333333 16:-1 17:-0.333333 18:-1 19:-1 20:-1 21:0.333333 22:1 23:0.333333 24:1 25:-0.333333 26:-0.333333 27:-0.333333 28:-1 29:-1 30:-0.333333 31:-0.333333 32:1 33:-1 34:-0.333333 35:-0.333333 36:0.333333 37:1 38:0.333333 39:1 40:-0.333333 41:-0.333333 42:1 43:-0.333333 44:-1 45:0.333333 46:0.333333 47:-1 48:-0.333333 49:-0.333333 50:-1 51:0.333333 52:-1 53:-1 54:-0.333333 55:-0.333333 56:-0.333333 57:-1 58:-0.333333 59:-0.333333 60:-0.333333 
7.642761226617083 1:-0.333333 2:-1 3:-1 4:-1 5:-1 6:1 7:-0.333333 8:0.333333 9:-1 10:-0.333333 11:1 12:1 13:-0.333333 14:-1 15:-1 16:1 17:-0.333333 18:0.333333 19:1 20:1 21:0.333333 22:0.333333 23:-1 24:-1 25:-1 26:0.333333 27:-1 28:-1 29:-1 30:-0.333333 31:-0.333333 32:1 33:-1 34:1 35:0.333333 36:-1 37:1 38:-1 39:1 40:1 41:1 42:-0.333333 43:0.333333 44:-0.333333 45:1 46:-0.333333 47:-0.333333 48:-1 49:1 50:-1 51:1 52:0.333333 53:1 54:-0.333333 55:-1 56:-1 57:0.333333 58:0.333333 59:-1 60:-0.333333 
9.842138486581771 1:1 2:0.333333 3:1 4:0.333333 5:-1 6:-0.333333 7:0.333333 8:1 9:-1 10:-1 11:1 12:1 13:1 14:1 15:1 16:-1 17:-1 18:1 19:1 20:1 21:-1 22:1 23:1 24:1 25:1 26:1 27:1 28:1 29:-1 30:-0.333333 31:-1 32:-0.333333 33:-1 34:1 35:-1 36:0.333333 37:-0.333333 38:-0.333333 39:1 40:0.333333 41:0.333333 42:0.333333 43:-1 44:0.333333 45:1 46:0.333333 47:1 48:-0.333333 49:1 50:1 51:1 52:0.333333 53:0.333333 54:0.333333 55:-1 56:-0.333333 57:-0.333333 58:0.333333 59:1 60:-0.333333 
5.563091787745162 1:-1 2:1 3:1 4:-0.333333 5:1 6:1 7:1 8:-1 9:-1 10:1 11:-1 12:-0.333333 13:-1 14:-1 15:-0.333333 16:0.333333 17:-1 18:-0.333333 19:1 20:1 21:0.333333 22:1 23:1 24:0.333333 25:-1 26:-0.333333 27:1 28:1 29:-0.333333 30:0.333333 31:-1 32:-1 33:-1 34:-0.333333 35:-0.333333 36:1 37:1 38:0.333333 39:1 40:1 41:1 42:-0.333333 43:0.333333 44:-1 45:-0.333333 46:1 47:-1 48:-0.333333 49:-1 50:-1 51:1 52:1 53:1 54:1 55:0.333333 56:1 57:0.333333 58:-1 59:-0.333333 60:0.333333 
8.717687450725299 1:-0.333333 2:-0.333333 3:1 4:-0.333333 5:-0.333333 6:-1 7:1 8:1 9:1 10:-1 11:-1 12:0.333333 13:-1 14:1 15:1 16:1 17:0.333333 18:1 19:1 20:1 21:1 22:1 23:-1 24:1 25:1 26:1 27:0.333333 28:0.333333 29:-1 30:-0.333333 31:-1 32:1 33:1 34:1 35:1 36:0.333333 37:0.333333 38:0.333333 39:0.333333 40:-1 41:-1 42:0.333333 43:-1 44:-1 45:-1 46:-1 47:0.333333 48:0.333333 49:0.333333 50:1 51:-0.333333 52:-0.333333 53:-1 54:-1 55:-1 56:-1 57:-1 58:1 59:1 60:-1 
12.50889017865375 1:1 2:1 3:0.333333 4:1 5:0.333333 6:-1 7:-0.333333 8:-0.333333 9:-1 10:1 11:1 12:1 13:-0.333333 14:1 15:-0.333333 16:-0.333333 17:0.333333 18:-1 19:0.333333 20:0.333333 21:1 22:1 23:0.333333 24:1 25:-0.333333 26:-1 27:0.333333 28:1 29:-0.333333 30:1 31:0.333333 32:-1 33:-1 34:-1 35:0.333333 36:1 37:-0.333333 38:1 39:1 40:0.333333 41:1 42:1 43:-0.333333 44:1 45:0.333333 46:-1 47:-1 48:1 49:0.333333 50:1 51:0.333333 52:-1 53:0.333333 54:-1 55:-0.333333 56:-0.333333 57:0.333333 58:1 59:0.333333 60:0.333333 
6.844884862057805 1:-0.333333 2:1 3:1 4:1 5:1 6:1 7:-0.333333 8:-1 9:1 10:0.333333 11:-1 12:0.333333 13:-0.333333 14:0.333333 15:1 16:1 17:0.333333 18:1 19:-1 20:1 21:-0.333333 22:-0.333333 23:-1 24:-0.333333 25:1 26:0.333333 27:0.333333 28:-1 29:-1 30:-0.333333 31:-1 32:-1 33:1 34:1 35:-1 36:0.333333 37:0.333333 38:-1 39:1 40:-1 41:-1 42:-0.333333 43:-0.333333 44:0.333333 45:-1 46:-1 47:1 48:-0.333333 49:1 50:1 51:1 52:0.333333 53:1 54:-0.333333 55:-1 56:-1 57:-0.333333 58:-1 59:1 60:1 
13.56070820712403 1:-0.333333 2:-1 3:1 4:1 5:-0.333333 6:-1 7:-1 8:-0.333333 9:1 10:-0.333333 11:-0.333333 12:0.333333 13:1 14:-0.333333 15:-0.333333 16:-1 17:-1 18:-1 19:-0.333333 20:-1 21:-0.333333 22:1 23:-0.333333 24:-1 25:1 26:-0.333333 27:0.333333 28:0.333333 29:1 30:-0.333333 31:-0.333333 32:-0.333333 33:-0.333333 34:-1 35:-1 36:-0.333333 37:-0.333333 38:-1 39:-0.333333 40:-1 41:1 42:-0.333333 43:-0.333333 44:-1 45:-0.333333 46:1 47:1 48:-1 49:1 50:-0.333333 51:-1 52:-0.333333 53:-0.333333 54:-0.333333 55:1 56:-1 57:0.333333 58:1 59:-0.333333 60:1 
17.3335632021122 1:-0.333333 2:-1 3:-0.333333 4:-1 5:-0.333333 6:-1 7:-1 8:-1 9:-0.333333 10:-0.333333 11:1 12:-0.333333 13:0.333333 14:1 15:0.333333 16:0.333333 17:1 18:-0.333333 19:-0.333333 20:-1 21:-0.333333 22:-1 23:-1 24:-1 25:-1 26:-1 27:-0.333333 28:-0.333333 29:1 30:0.333333 31:0.333333 32:0.333333 33:0.333333 34:-1 35:-1 36:-0.333333 37:-0.333333 38:-0.333333 39:0.333333 40:0.333333 41:1 42:-0.333333 43:0.333333 44:-1 45:-0.333333 46:-0.333333 47:-0.333333 48:-1 49:-0.333333 50:-1 51:-0.333333 52:-1 53:1 54:-0.333333 55:-0.333333 56:-1 57:-0.333333 58:1 59:1 60:0.333333 
7.641489802065402 1:-1 2:1 3:-0.333333 4:-0.333333 5:-0.333333 6:0.333333 7:1 8:-1 9:1 10:1 11:-1 12:-1 13:-0.333333 14:1 15:-0.333333 16:0.333333 17:-1 18:-0.333333 19:-1 20:-0.333333 21:-0.333333 22:0.333333 23:-1 24:-1 25:-1 26:-1 27:-1 28:-1 29:-0.333333 30:1 31:0.333333 32:0.333333 33:0.333333 34:0.333333 35:-1 36:-1 37:0.333333 38:-1 39:-0.333333 40:-0.333333 41:1 42:-0.333333 43:-1 44:-0.333333 45:-0.333333 46:-1 47:-1 48:-1 49:0.333333 50:-1 51:-1 52:1 53:-0.333333 54:-0.333333 55:0.333333 56:-1 57:1 58:-1 59:-0.333333 60:-1 
62.17888969124293 1:-0.333333 2:1 3:1 4:0.333333 5:1 6:-0.333333 7:-1 8:-1 9:-0.333333 10:-0.333333 11:-0.333333 12:1 13:-1 14:-0.333333 15:-0.333333 16:-0.333333 17:0.333333 18:-1 19:-0.333333 20:-0.333333 21:-0.333333 22:-0.333333 23:0.333333 24:-1 25:-0.333333 26:0.333333 27:-1 28:0.333333 29:-1 30:-0.333333 31:0.333333 32:1 33:0.333333 34:0.333333 35:1 36:-1 37:-1 38:-0.333333 39:0.333333 40:0.333333 41:-1 42:0.333333 43:1 44:-0.333333 45:0.333333 46:0.333333 47:1 48:-0.333333 49:0.333333 50:1 51:-0.333333 52:-0.333333 53:1 54:-0.333333 55:-1 56:0.333333 57:0.333333 58:0.333333 59:1 60:-0.333333 
4.711575391887364 1:0.333333 2:1 3:1 4:0.333333 5:-0.333333 6:-1 7:1 8:1 9:1 10:-0.333333 11:1 12:-1 13:0.333333 14:0.333333 15:-1 16:1 17:1 18:0.333333 19:0.333333 20:1 21:1 22:0.333333 23:-1 24:-1 25:-1 26:1 27:-1 28:-1 29:-1 30:-0.333333 31:-1 32:-1 33:-1 34:1 35:1 36:1 37:-0.333333 38:-0.333333 39:1 40:-1 41:0.333333 42:0.333333 43:-1 44:-1 45:-1 46:-1 47:-1 48:-1 49:-1 50:-1 51:-1 52:-1 53:-1 54:-0.333333 55:-1 56:-1 57:-1 58:-0.333333 59:-1 60:-1 
7.952976276138162 1:-1 2:-0.333333 3:1 4:-0.333333 5:1 6:0.333333 7:-1 8:0.333333 9:-1 10:-1 11:-0.333333 12:-1 13:-1 14:-1 15:1 16:-0.333333 17:-1 18:-1 19:-1 20:0.333333 21:-1 22:-0.333333 23:-0.333333 24:-1 25:0.333333 26:0.333333 27:0.333333 28:1 29:-1 30:1 31:0.333333 32:-1 33:-1 34:1 35:-0.333333 36:1 37:-0.333333 38:-1 39:-1 40:-1 41:1 42:-1 43:0.333333 44:-0.333333 45:-0.333333 46:-0.333333 47:-1 48:0.333333 49:0.333333 50:-0.333333 51:-1 52:1 53:-1 54:1 55:-0.333333 56:-0.333333 57:1 58:-0.333333 59:-0.333333 60:0.333333 
126.9265274851369 1:-0.333333 2:-0.333333 3:-0.333333 4:0.333333 5:-0.333333 6:-0.333333 7:-0.333333 8:-0.333333 9:0.333333 10:1 11:-0.333333 12:-1 13:0.333333 14:0.333333 15:-0.333333 16:-1 17:-0.333333 18:-0.333333 19:-0.333333 20:-0.333333 21:-0.333333 22:1 23:-0.333333 24:-0.333333 25:-0.333333 26:-0.333333 27:0.333333 28:0.333333 29:-1 30:-0.333333 31:-0.333333 32:1 33:1 34:0.333333 35:1 36:0.333333 37:-1 38:0.333333 39:-1 40:0.333333 41:0.333333 42:0.333333 43:1 44:0.333333 45:0.333333 46:-1 47:-0.333333 48:1 49:-0.333333 50:-0.333333 51:-1 52:1 53:-0.333333 54:-1 55:1 56:1 57:-0.333333 58:-0.333333 59:0.333333 60:1 
34.05237747948262 1:0.333333 2:0.333333 3:0.333333 4:1 5:-0.333333 6:0.333333 7:1 8:0.333333 9:0.333333 10:0.333333 11:-1 12:-1 13:1 14:0.333333 15:0.333333 16:0.333333 17:1 18:-1 19:1 20:0.333333 21:1 22:0.333333 23:0.333333 24:1 25:0.333333 26:1 27:0.333333 28:1 29:-1 30:-0.333333 31:-0.333333 32:-1 33:1 34:-1 35:-0.333333 36:0.333333 37:0.333333 38:-0.333333 39:0.333333 40:1 41:1 42:0.333333 43:0.333333 44:0.333333 45:-1 46:-1 47:-1 48:-0.333333 49:-1 50:1 51:0.333333 52:0.333333 53:1 54:-0.333333 55:-0.333333 56:-1 57:-0.333333 58:-1 59:-1 60:0.333333 
4.541594486884563 1:-0.333333 2:0.333333 3:1 4:-0.333333 5:1 6:-1 7:-1 8:1 9:1 10:-1 11:1 12:-1 13:1 14:1 15:-0.333333 16:-1 17:-0.333333 18:-0.333333 19:1 20:-0.333333 21:-1 22:1 23:-0.333333 24:-0.333333 25:-1 26:1 27:-1 28:-1 29:-1 30:-0.333333 31:-1 32:-1 33:0.333333 34:1 35:-0.333333 36:-1 37:-1 38:-0.333333 39:1 40:1 41:-0.333333 42:-1 43:1 44:-0.333333 45:-0.333333 46:-1 47:-1 48:-1 49:0.333333 50:-1 51:-1 52:1 53:-0.333333 54:-1 55:-1 56:-0.333333 57:1 58:1 59:-1 60:-1 
16.32971437196106 1:-0.333333 2:0.333333 3:0.333333 4:0.333333 5:-1 6:-0.333333 7:-1 8:-1 9:-0.333333 10:-1 11:1 12:-1 13:-1 14:0.333333 15:1 16:0.333333 17:-1 18:-1 19:-1 20:0.333333 21:0.333333 22:0.333333 23:-1 24:-1 25:0.333333 26:0.333333 27:-1 28:-0.333333 29:-0.333333 30:-1 31:-1 32:1 33:-0.333333 34:1 35:1 36:0.333333 37:-0.333333 38:1 39:-0.333333 40:0.333333 41:-1 42:-0.333333 43:-0.333333 44:-1 45:-1 46:-1 47:-1 48:-0.333333 49:-0.333333 50:-1 51:-0.333333 52:-0.333333 53:0.333333 54:1 55:-0.333333 56:1 57:-0.333333 58:-1 59:0.333333 60:1 
1.907272502870636 1:-1 2:-1 3:-1 4:-0.333333 5:-1 6:-0.333333 7:-0.333333 8:1 9:0.333333 10:-1 11:1 12:-1 13:1 14:1 15:-1 16:-1 17:1 18:-0.333333 19:-0.333333 20:-0.333333 21:-1 22:1 23:-0.333333 24:-1 25:-1 26:-1 27:-1 28:0.333333 29:0.333333 30:0.333333 31:-1 32:-1 33:-0.333333 34:1 35:-0.333333 36:-1 37:-0.333333 38:1 39:1 40:-1 41:1 42:1 43:-1 44:1 45:-1 46:1 47:-0.333333 48:-1 49:0.333333 50:0.333333 51:-0.333333 52:-1 53:-0.333333 54:-1 55:-1 56:-1 57:-0.333333 58:1 59:0.333333 60:1 
66.86558587117517 1:0.333333 2:-0.333333 3:0.333333 4:-1 5:0.333333 6:0.333333 7:-1 8:1 9:0.333333 10:-1 11:0.333333 12:0.333333 13:-0.333333 14:-0.333333 15:-0.333333 16:-1 17:1 18:-0.333333 19:1 20:-0.333333 21:0.333333 22:-1 23:-1 24:0.333333 25:-1 26:-1 27:0.333333 28:-1 29:-0.333333 30:-0.333333 31:1 32:-0.333333 33:0.333333 34:-0.333333 35:-0.333333 36:0.333333 37:1 38:-0.333333 39:-0.333333 40:0.333333 41:1 42:-0.333333 43:-0.333333 44:-0.333333 45:-0.333333 46:-0.333333 47:1 48:-0.333333 49:-0.333333 50:0.333333 51:1 52:-0.333333 53:0.333333 54:-1 55:-0.333333 56:-0.333333 57:-1 58:-1 59:0.333333 60:0.333333 
19.87704200669758 1:1 2:-1 3:1 4:-0.333333 5:1 6:0.333333 7:1 8:0.333333 9:0.333333 10:-1 11:-0.333333 12:-1 13:1 14:-0.333333 15:-1 16:1 17:1 18:-0.333333 19:-1 20:-0.333333 21:0.333333 22:-1 23:-1 24:-1 25:1 26:-0.333333 27:-0.333333 28:-0.333333 29:0.333333 30:1 31:0.333333 32:0.333333 33:0.333333 34:-1 35:-0.333333 36:0.333333 37:1 38:0.333333 39:-1 40:-1 41:-0.333333 42:-0.333333 43:-0.333333 44:1 45:0.333333 46:0.333333 47:0.333333 48:-0.333333 49:-0.333333 50:-0.333333 51:1 52:1 53:1 54:-0.333333 55:-1 56:-0.333333 57:1 58:0.333333 59:0.333333 60:-1 
19.96980803262289 1:0.333333 2:1 3:-0.333333 4:-0.333333 5:0.333333 6:0.333333 7:1 8:1 9:1 10:-0.333333 11:0.333333 12:1 13:1 14:-0.333333 15:-0.333333 16:-0.333333 17:0.333333 18:1 19:1 20:0.333333 21:1 22:-1 23:-0.333333 24:-1 25:0.333333 26:-1 27:0.333333 28:0.333333 29:1 30:1 31:1 32:0.333333 33:-1 34:0.333333 35:1 36:-0.333333 37:0.333333 38:-1 39:0.333333 40:1 41:0.333333 42:-1 43:0.333333 44:1 45:-0.333333 46:1 47:0.333333 48:1 49:1 50:0.333333 51:1 52:0.333333 53:0.333333 54:0.333333 55:0.333333 56:0.333333 57:1 58:0.333333 59:0.333333 60:1 
26.1892134862319 1:0.333333 2:0.333333 3:1 4:-0.333333 5:-0.333333 6:-1 7:-0.333333 8:-0.333333 9:-0.333333 10:-0.333333 11:-1 12:-1 13:1 14:0.333333 15:1 16:-0.333333 17:-0.333333 18:1 19:0.333333 20:-1 21:0.333333 22:0.333333 23:0.333333 24:1 25:-0.333333 26:-1 27:-0.333333 28:0.333333 29:1 30:-0.333333 31:1 32:-0.333333 33:-1 34:-1 35:-1 36:0.333333 37:-1 38:-1 39:-1 40:-0.333333 41:1 42:1 43:-0.333333 44:0.333333 45:1 46:0.333333 47:1 48:1 49:-0.333333 50:0.333333 51:-1 52:-0.333333 53:-1 54:-0.333333 55:-0.333333 56:0.333333 57:0.333333 58:1 59:-0.333333 60:-0.333333 
27.99525483477911 1:0.333333 2:0.333333 3:1 4:1 5:-1 6:-1 7:-0.333333 8:0.333333 9:1 10:-1 11:-0.333333 12:1 13:0.333333 14:0.333333 15:0.333333 16:1 17:1 18:0.333333 19:1 20:0.333333 21:0.333333 22:0.333333 23:0.333333 24:1 25:1 26:1 27:-0.333333 28:0.333333 29:-1 30:-0.333333 31:-1 32:0.333333 33:-0.333333 34:-1 35:-0.333333 36:-1 37:1 38:-0.333333 39:0.333333 40:-1 41:-0.333333 42:0.333333 43:-0.333333 44:-1 45:0.333333 46:1 47:-1 48:1 49:-0.333333 50:1 51:-0.333333 52:1 53:-0.333333 54:1 55:-1 56:1 57:-0.333333 58:1 59:-0.333333 60:0.333333 
12.85650375159127 1:-1 2:-1 3:1 4:1 5:0.333333 6:-1 7:-0.333333 8:-0.333333 9:0.333333 10:0.333333 11:1 12:-0.333333 13:1 14:0.333333 15:0.333333 16:1 17:1 18:-1 19:-0.333333 20:-1 21:-1 22:1 23:-0.333333 24:0.333333 25:1 26:-1 27:0.333333 28:-1 29:-0.333333 30:-0.333333 31:-0.333333 32:1 33:-1 34:0.333333 35:-1 36:-0.333333 37:0.333333 38:0.333333 39:0.333333 40:-1 41:1 42:1 43:1 44:-0.333333 45:-1 46:-0.333333 47:0.333333 48:1 49:0.333333 50:0.333333 51:1 52:-0.333333 53:1 54:-1 55:1 56:-1 57:-0.333333 58:-1 59:1 60:-1 
1.987215505227561 1:-1 2:1 3:1 4:0.333333 5:-0.333333 6:0.333333 7:-1 8:-1 9:-0.333333 10:1 11:-0.333333 12:-0.333333 13:-1 14:0.333333 15:1 16:-0.333333 17:-0.333333 18:-1 19:-0.333333 20:-1 21:-0.333333 22:-1 23:-1 24:-0.333333 25:-1 26:1 27:-0.333333 28:1 29:0.333333 30:1 31:1 32:-1 33:0.333333 34:1 35:1 36:-1 37:-1 38:-1 39:-0.333333 40:1 41:-1 42:-1 43:-1 44:1 45:-1 46:-1 47:-1 48:1 49:-1 50:0.333333 51:-1 52:-1 53:0.333333 54:1 55:1 56:1 57:1 58:0.333333 59:0.333333 60:0.333333 
26.64776685834021 1:-1 2:-0.333333 3:-0.333333 4:-0.333333 5:-0.333333 6:-0.333333 7:0.333333 8:1 9:-0.333333 10:-1 11:-1 12:1 13:0.333333 14:0.333333 15:1 16:0.333333 17:-1 18:-0.333333 19:1 20:1 21:1 22:-1 23:-1 24:-0.333333 25:-0.333333 26:-0.333333 27:0.333333 28:0.333333 29:1 30:-0.333333 31:-0.333333 32:-1 33:0.333333 34:0.333333 35:1 36:-0.333333 37:-0.333333 38:-0.333333 39:-1 40:-0.333333 41:0.333333 42:1 43:1 44:-1 45:1 46:-0.333333 47:-0.333333 48:-1 49:-1 50:-0.333333 51:-1 52:-0.333333 53:0.333333 54:-1 55:-1 56:-0.333333 57:-0.333333 58:-0.333333 59:-0.333333 60:0.333333 
21.48154316518207 1:-1 2:-1 3:1 4:0.333333 5:-1 6:-1 7:1 8:-0.333333 9:-1 10:-0.333333 11:-1 12:-1 13:-0.333333 14:-0.333333 15:-0.333333 16:-0.333333 17:0.333333 18:1 19:-0.333333 20:0.333333 21:0.333333 22:1 23:-0.333333 24:0.333333 25:0.333333 26:1 27:-0.333333 28:-1 29:0.333333 30:0.333333 31:-1 32:0.333333 33:1 34:-0.333333 35:-0.333333 36:1 37:1 38:-0.333333 39:1 40:-0.333333 41:1 42:-0.333333 43:-0.333333 44:-1 45:1 46:0.333333 47:0.333333 48:1 49:1 50:0.333333 51:-0.333333 52:-0.333333 53:-0.333333 54:-1 55:-1 56:-0.333333 57:-0.333333 58:-1 59:-1 60:-1 
39.44690369949952 1:0.333333 2:-1 3:0.333333 4:0.333333 5:-0.333333 6:0.333333 7:0.333333 8:1 9:-1 10:0.333333 11:0.333333 12:1 13:-0.333333 14:0.333333 15:-1 16:-0.333333 17:1 18:-0.333333 19:-0.333333 20:-1 21:-0.333333 22:0.333333 23:-1 24:-0.333333 25:0.333333 26:0.333333 27:1 28:-0.333333 29:-1 30:-1 31:-0.333333 32:-0.333333 33:0.333333 34:0.333333 35:1 36:0.333333 37:-0.333333 38:-0.333333 39:-1 40:0.333333 41:-1 42:0.333333 43:0.333333 44:-0.333333 45:0.333333 46:0.333333 47:-1 48:1 49:-0.333333 50:1 51:-1 52:1 53:1 54:-1 55:0.333333 56:1 57:-0.333333 58:1 59:-0.333333 60:0.333333 
83.41860609890321 1:-0.333333 2:0.333333 3:0.333333 4:0.333333 5:-0.333333 6:-0.333333 7:0.333333 8:1 9:0.333333 10:-0.333333 11:0.333333 12:1 13:-0.333333 14:-0.333333 15:0.333333 16:-0.333333 17:1 18:-0.333333 19:-0.333333 20:-1 21:-0.333333 22:0.333333 23:0.333333 24:-0.333333 25:-0.333333 26:-0.333333 27:-0.333333 28:1 29:-0.333333 30:-0.333333 31:-1 32:-1 33:1 34:-0.333333 35:0.333333 36:-0.333333 37:-1 38:-0.333333 39:1 40:-0.333333 41:0.333333 42:0.333333 43:1 44:-1 45:-0.333333 46:1 47:-0.333333 48:-0.333333 49:-0.333333 50:0.333333 51:0.333333 52:-1 53:0.333333 54:1 55:1 56:1 57:1 58:-0.333333 59:-0.333333 60:1 
47.30241646457741 1:0.333333 2:0.333333 3:-0.333333 4:1 5:0.333333 6:0.333333 7:0.333333 8:1 9:-1 10:1 11:1 12:0.333333 13:1 14:-0.333333 15:-0.333333 16:0.333333 17:0.333333 18:-1 19:0.333333 20:1 21:1 22:-0.333333 23:-1 24:1 25:1 26:0.333333 27:-0.333333 28:-0.333333 29:-0.333333 30:-0.333333 31:-0.333333 32:-1 33:0.333333 34:-1 35:0.333333 36:0.333333 37:1 38:-0.333333 39:-0.333333 40:1 41:-1 42:-0.333333 43:-0.333333 44:-0.333333 45:-0.333333 46:-1 47:1 48:-0.333333 49:-0.333333 50:-0.333333 51:-0.333333 52:-1 53:-1 54:-1 55:-0.333333 56:-0.333333 57:1 58:-0.333333 59:-0.333333 60:-0.333333 
22.25000988590859 1:-0.333333 2:-0.333333 3:1 4:0.333333 5:1 6:0.333333 7:1 8:-0.333333 9:0.333333 10:1 11:-0.333333 12:-0.333333 13:1 14:1 15:0.333333 16:1 17:-1 18:-0.333333 19:0.333333 20:1 21:1 22:0.333333 23:0.333333 24:1 25:0.333333 26:1 27:1 28:0.333333 29:0.333333 30:0.333333 31:-1 32:1 33:1 34:1 35:0.333333 36:1 37:-0.333333 38:-1 39:0.333333 40:1 41:0.333333 42:0.333333 43:1 44:-0.333333 45:-0.333333 46:0.333333 47:1 48:1 49:1 50:-1 51:-0.333333 52:0.333333 53:1 54:0.333333 55:1 56:0.333333 57:1 58:-0.333333 59:-0.333333 60:-1 
333.1064722886873 1:-0.333333 2:0.333333 3:1 4:-0.333333 5:-0.333333 6:-1 7:0.333333 8:-1 9:0.333333 10:0.333333 11:-0.333333 12:1 13:-0.333333 14:0.333333 15:0.333333 16:0.333333 17:1 18:1 19:0.333333 20:0.333333 21:0.333333 22:-0.333333 23:0.333333 24:0.333333 25:-0.333333 26:0.333333 27:0.333333 28:0.333333 29:-1 30:-0.333333 31:-0.333333 32:1 33:-0.333333 34:0.333333 35:-0.333333 36:0.333333 37:-0.333333 38:0.333333 39:-1 40:-0.333333 41:-0.333333 42:0.333333 43:-1 44:0.333333 45:0.333333 46:-0.333333 47:-0.333333 48:-0.333333 49:-1 50:0.333333 51:-1 52:0.333333 53:-0.333333 54:-0.333333 55:-0.333333 56:-0.333333 57:0.333333 58:-1 59:-0.333333 60:-0.333333 
20.16989673724413 1:-0.333333 2:-0.333333 3:-1 4:-1 5:-0.333333 6:-1 7:-0.333333 8:-0.333333 9:-0.333333 10:-1 11:-1 12:1 13:0.333333 14:0.333333 15:0.333333 16:-1 17:1 18:0.333333 19:-1 20:-1 21:-1 22:-0.333333 23:1 24:0.333333 25:-1 26:-0.333333 27:0.333333 28:0.333333 29:-0.333333 30:1 31:-0.333333 32:1 33:-0.333333 34:-0.333333 35:-0.333333 36:-0.333333 37:1 38:0.333333 39:1 40:-0.333333 41:0.333333 42:-1 43:-1 44:1 45:-0.333333 46:-0.333333 47:1 48:-0.333333 49:-1 50:-1 51:1 52:-0.333333 53:0.333333 54:0.333333 55:-1 56:-1 57:-1 58:-0.333333 59:-1 60:1 
12.29771006562343 1:-0.333333 2:0.333333 3:-1 4:-1 5:1 6:-0.333333 7:-0.333333 8:0.333333 9:-1 10:1 11:-1 12:-0.333333 13:-1 14:-1 15:-1 16:-0.333333 17:1 18:-0.333333 19:1 20:-0.333333 21:-1 22:-1 23:0.333333 24:-1 25:-1 26:-1 27:-0.333333 28:-1 29:-1 30:-1 31:-1 32:1 33:-0.333333 34:-1 35:1 36:-1 37:1 38:1 39:-1 40:-1 41:-0.333333 42:-0.333333 43:-1 44:-0.333333 45:-0.333333 46:-0.333333 47:-0.333333 48:-0.333333 49:-0.333333 50:0.333333 51:1 52:-0.333333 53:1 54:-1 55:-0.333333 56:-1 57:-1 58:-0.333333 59:-0.333333 60:-0.333333 
15.9386001448867 1:0.333333 2:-1 3:1 4:1 5:-0.333333 6:0.333333 7:0.333333 8:1 9:-0.333333 10:1 11:-1 12:1 13:1 14:0.333333 15:-1 16:-0.333333 17:1 18:-0.333333 19:-0.333333 20:-1 21:-0.333333 22:0.333333 23:0.333333 24:1 25:-0.333333 26:-0.333333 27:-1 28:-0.333333 29:0.333333 30:-1 31:-1 32:1 33:-0.333333 34:-1 35:-0.333333 36:-0.333333 37:-1 38:-1 39:-0.333333 40:-1 41:-0.333333 42:-0.333333 43:-0.333333 44:-1 45:-0.333333 46:1 47:0.333333 48:0.333333 49:-1 50:-1 51:0.333333 52:-1 53:1 54:-0.333333 55:1 56:0.333333 57:-1 58:-1 59:1 60:-1 
10.54884808962028 1:1 2:0.333333 3:1 4:0.333333 5:1 6:1 7:0.333333 8:0.333333 9:0.333333 10:1 11:1 12:0.333333 13:0.333333 14:0.333333 15:0.333333 16:1 17:0.333333 18:1 19:0.333333 20:1 21:0.333333 22:1 23:1 24:1 25:0.333333 26:1 27:1 28:1 29:0.333333 30:1 31:1 32:1 33:1 34:0.333333 35:1 36:0.333333 37:1 38:0.333333 39:0.333333 40:1 41:0.333333 42:1 43:1 44:0.333333 45:1 46:0.333333 47:1 48:1 49:0.333333 50:1 51:1 52:1 53:0.333333 54:0.333333 55:1 56:0.333333 57:1 58:0.333333 59:1 60:1 
98.56844175188365 1:1 2:-0.333333 3:-0.333333 4:-0.333333 5:0.333333 6:-0.333333 7:-0.333333 8:-0.333333 9:-1 10:0.333333 11:1 12:-0.333333 13:-1 14:0.333333 15:1 16:-1 17:-1 18:-0.333333 19:-0.333333 20:-0.333333 21:-0.333333 22:0.333333 23:-0.333333 24:-0.333333 25:-0.333333 26:-0.333333 27:0.333333 28:0.333333 29:-1 30:-0.333333 31:-0.333333 32:-0.333333 33:1 34:0.333333 35:1 36:0.333333 37:-1 38:0.333333 39:-1 40:0.333333 41:0.333333 42:0.333333 43:1 44:-0.333333 45:0.333333 46:-1 47:-0.333333 48:1 49:-0.333333 50:-0.333333 51:-1 52:1 53:-0.333333 54:0.333333 55:-1 56:1 57:-0.333333 58:-0.333333 59:0.333333 60:1 
25.79355147702154 1:-0.333333 2:-1 3:-0.333333 4:1 5:1 6:-1 7:-0.333333 8:-1 9:-0.333333 10:-0.333333 11:0.333333 12:1 13:-0.333333 14:1 15:-0.333333 16:-0.333333 17:1 18:0.333333 19:0.333333 20:0.333333 21:1 22:0.333333 23:0.333333 24:1 25:0.333333 26:1 27:1 28:0.333333 29:1 30:1 31:-0.333333 32:0.333333 33:0.333333 34:0.333333 35:1 36:0.333333 37:1 38:0.333333 39:1 40:0.333333 41:1 42:-0.333333 43:0.333333 44:0.333333 45:1 46:0.333333 47:1 48:-0.333333 49:1 50:-0.333333 51:0.333333 52:1 53:0.333333 54:-1 55:-0.333333 56:1 57:-0.333333 58:1 59:-0.333333 60:-1 
14.57517004794542 1:0.333333 2:1 3:1 4:-1 5:0.333333 6:-1 7:0.333333 8:-1 9:-1 10:-1 11:1 12:1 13:-0.333333 14:-0.333333 15:0.333333 16:-1 17:1 18:-0.333333 19:0.333333 20:1 21:1 22:-0.333333 23:1 24:-0.333333 25:1 26:1 27:1 28:0.333333 29:-1 30:-0.333333 31:-1 32:1 33:-0.333333 34:0.333333 35:0.333333 36:1 37:1 38:-0.333333 39:-0.333333 40:1 41:1 42:0.333333 43:-1 44:-1 45:-0.333333 46:-0.333333 47:-0.333333 48:-1 49:1 50:-0.333333 51:-0.333333 52:-1 53:-1 54:-1 55:-0.333333 56:1 57:0.333333 58:-1 59:0.333333 60:0.333333 
17.81370269310352 1:-0.333333 2:1 3:-0.333333 4:-1 5:-0.333333 6:1 7:1 8:-0.333333 9:-0.333333 10:0.333333 11:-1 12:1 13:-1 14:-0.333333 15:0.333333 16:-1 17:-1 18:-0.333333 19:1 20:-1 21:-1 22:-0.333333 23:-1 24:-0.333333 25:-1 26:-1 27:-0.333333 28:-0.333333 29:-1 30:1 31:-1 32:-0.333333 33:-0.333333 34:-1 35:0.333333 36:-1 37:0.333333 38:-1 39:-1 40:1 41:-0.333333 42:-0.333333 43:-0.333333 44:-1 45:-0.333333 46:-0.333333 47:1 48:-0.333333 49:0.333333 50:-1 51:-0.333333 52:-0.333333 53:-0.333333 54:0.333333 55:1 56:-0.333333 57:0.333333 58:0.333333 59:-1 60:-0.333333 
102.4986542193361 1:-1 2:1 3:-0.333333 4:-0.333333 5:0.333333 6:0.333333 7:-0.333333 8:1 9:0.333333 10:-1 11:1 12:-0.333333 13:-0.333333 14:0.333333 15:-0.333333 16:0.333333 17:0.333333 18:0.333333 19:0.333333 20:-0.333333 21:-1 22:-1 23:0.333333 24:0.333333 25:0.333333 26:1 27:0.333333 28:-0.333333 29:1 30:0.333333 31:0.333333 32:1 33:-0.333333 34:0.333333 35:1 36:-1 37:0.333333 38:1 39:0.333333 40:1 41:0.333333 42:-0.333333 43:-0.333333 44:-0.333333 45:-0.333333 46:-0.333333 47:0.333333 48:1 49:0.333333 50:1 51:-0.333333 52:-0.333333 53:0.333333 54:0.333333 55:0.333333 56:1 57:-0.333333 58:-1 59:0.333333 60:0.333333 
40.44560305127967 1:-0.333333 2:-1 3:-1 4:0.333333 5:-0.333333 6:-1 7:0.333333 8:-1 9:-1 10:1 11:-1 12:-0.333333 13:0.333333 14:1 15:1 16:1 17:-1 18:0.333333 19:0.333333 20:0.333333 21:1 22:0.333333 23:-1 24:-0.333333 25:-0.333333 26:0.333333 27:-1 28:1 29:-1 30:-0.333333 31:-0.333333 32:0.333333 33:0.333333 34:1 35:-0.333333 36:-0.333333 37:-0.333333 38:1 39:-0.333333 40:0.333333 41:1 42:-0.333333 43:-0.333333 44:0.333333 45:1 46:-0.333333 47:0.333333 48:0.333333 49:0.333333 50:-1 51:-0.333333 52:-1 53:0.333333 54:0.333333 55:0.333333 56:0.333333 57:1 58:0.333333 59:1 60:-0.333333 
42.22509801347021 1:1 2:0.333333 3:1 4:1 5:0.333333 6:0.333333 7:0.333333 8:-1 9:-0.333333 10:1 11:0.333333 12:0.333333 13:-1 14:0.333333 15:0.333333 16:-0.333333 17:1 18:0.333333 19:0.333333 20:0.333333 21:0.333333 22:-1 23:1 24:0.333333 25:-0.333333 26:1 27:-0.333333 28:-0.333333 29:-0.333333 30:0.333333 31:-1 32:1 33:1 34:-0.333333 35:1 36:1 37:-0.333333 38:0.333333 39:1 40:-0.333333 41:-0.333333 42:0.333333 43:0.333333 44:1 45:-0.333333 46:-0.333333 47:0.333333 48:1 49:-0.333333 50:1 51:0.333333 52:0.333333 53:1 54:-1 55:-0.333333 56:0.333333 57:-1 58:-0.333333 59:1 60:1 
12.68760980025383 1:1 2:0.333333 3:0.333333 4:1 5:-0.333333 6:0.333333 7:1 8:1 9:1 10:-1 11:1 12:1 13:-0.333333 14:1 15:1 16:-0.333333 17:-0.333333 18:1 19:1 20:-1 21:-1 22:1 23:1 24:1 25:-0.333333 26:0.333333 27:1 28:0.333333 29:1 30:0.333333 31:1 32:-0.333333 33:-0.333333 34:-0.333333 35:1 36:1 37:1 38:1 39:-0.333333 40:-0.333333 41:-0.333333 42:-0.333333 43:-0.333333 44:-0.333333 45:0.333333 46:1 47:-0.333333 48:-0.333333 49:-0.333333 50:-0.333333 51:-0.333333 52:1 53:1 54:-0.333333 55:0.333333 56:1 57:1 58:1 59:-0.333333 60:0.333333 
10.8479127443283 1:-0.333333 2:-0.333333 3:1 4:-0.333333 5:-1 6:-1 7:-0.333333 8:-1 9:0.333333 10:-1 11:1 12:1 13:-0.333333 14:1 15:-0.333333 16:-0.333333 17:0.333333 18:1 19:-0.333333 20:-1 21:0.333333 22:0.333333 23:-1 24:0.333333 25:-0.333333 26:1 27:1 28:-0.333333 29:0.333333 30:0.333333 31:1 32:0.333333 33:1 34:1 35:-0.333333 36:1 37:-0.333333 38:-0.333333 39:1 40:-0.333333 41:1 42:-1 43:-1 44:-1 45:0.333333 46:1 47:1 48:-0.333333 49:1 50:-1 51:0.333333 52:0.333333 53:-1 54:-0.333333 55:1 56:1 57:1 58:1 59:-1 60:0.333333 
3125 1:-0.333333 2:0.333333 3:0.333333 4:1 5:-0.333333 6:0.333333 7:1 8:-0.333333 9:-1 10:-1 11:0.333333 12:1 13:0.333333 14:-1 15:0.333333 16:-1 17:0.333333 18:1 19:-0.333333 20:1 21:1 22:1 23:0.333333 24:1 25:0.333333 26:0.333333 27:-1 28:0.333333 29:-1 30:-0.333333 31:0.333333 32:-0.333333 33:0.333333 34:-1 35:1 36:-0.333333 37:-1 38:-0.333333 39:-1 40:-0.333333 41:0.333333 42:0.333333 43:0.333333 44:-1 45:-0.333333 46:0.333333 47:0.333333 48:0.333333 49:-0.333333 50:-0.333333 51:0.333333 52:-1 53:0.333333 54:0.333333 55:0.333333 56:0.333333 57:1 58:-0.333333 59:1 60:-0.333333 
7.750358263417491 1:1 2:1 3:0.333333 4:0.333333 5:1 6:-1 7:-1 8:-0.333333 9:-1 10:0.333333 11:0.333333 12:0.333333 13:0.333333 14:1 15:1 16:1 17:0.333333 18:-1 19:0.333333 20:1 21:-1 22:1 23:1 24:-1 25:-1 26:-0.333333 27:-1 28:-0.333333 29:-1 30:-1 31:1 32:1 33:-1 34:-1 35:-1 36:-1 37:-1 38:1 39:1 40:-1 41:1 42:-1 43:-0.333333 44:0.333333 45:1 46:-0.333333 47:1 48:1 49:0.333333 50:0.333333 51:1 52:0.333333 53:0.333333 54:1 55:1 56:0.333333 57:-1 58:-0.333333 59:-0.333333 60:-1 
3.551755738047375 1:1 2:-0.333333 3:-1 4:-1 5:-1 6:1 7:-1 8:1 9:1 10:-1 11:1 12:-1 13:1 14:-1 15:1 16:-1 17:-1 18:1 19:-1 20:1 21:-1 22:-0.333333 23:-1 24:-1 25:1 26:0.333333 27:-1 28:-1 29:-0.333333 30:-1 31:-0.333333 32:-0.333333 33:0.333333 34:0.333333 35:1 36:-0.333333 37:1 38:0.333333 39:0.333333 40:-1 41:-1 42:-1 43:-1 44:-0.333333 45:1 46:0.333333 47:0.333333 48:1 49:0.333333 50:0.333333 51:0.333333 52:-1 53:-1 54:-1 55:-0.333333 56:1 57:-1 58:1 59:1 60:-1 
12.13946185214888 1:0.333333 2:0.333333 3:0.333333 4:0.333333 5:1 6:-1 7:-0.333333 8:-1 9:1 10:-0.333333 11:-1 12:-1 13:-0.333333 14:1 15:0.333333 16:1 17:0.333333 18:0.333333 19:-1 20:1 21:-0.333333 22:-1 23:-0.333333 24:0.333333 25:1 26:-1 27:0.333333 28:-1 29:-1 30:-0.333333 31:-0.333333 32:-0.333333 33:0.333333 34:0.333333 35:1 36:-0.333333 37:-0.333333 38:1 39:-0.333333 40:1 41:-1 42:1 43:0.333333 44:0.333333 45:-1 46:-0.333333 47:-0.333333 48:1 49:-0.333333 50:-1 51:1 52:0.333333 53:1 54:-1 55:-0.333333 56:1 57:-1 58:-1 59:1 60:1 
1.755101897110278 1:-1 2:-0.333333 3:-0.333333 4:-1 5:-0.333333 6:-1 7:-0.333333 8:-1 9:-1 10:-1 11:1 12:1 13:-1 14:-1 15:-1 16:-1 17:1 18:1 19:1 20:-1 21:1 22:1 23:-1 24:1 25:1 26:1 27:1 28:-1 29:-1 30:-0.333333 31:-0.333333 32:1 33:1 34:0.333333 35:1 36:1 37:-1 38:-1 39:1 40:-1 41:1 42:-1 43:0.333333 44:-1 45:-1 46:-1 47:0.333333 48:1 49:-1 50:-0.333333 51:1 52:-1 53:1 54:-1 55:1 56:1 57:-1 58:1 59:0.333333 60:-1 
20.98367035717 1:0.333333 2:-1 3:0.333333 4:-0.333333 5:1 6:1 7:-0.333333 8:-0.333333 9:-0.333333 10:-1 11:-0.333333 12:-0.333333 13:1 14:0.333333 15:-0.333333 16:-1 17:-0.333333 18:-0.333333 19:0.333333 20:-1 21:-0.333333 22:-0.333333 23:0.333333 24:-1 25:-0.333333 26:-1 27:1 28:0.333333 29:-1 30:0.333333 31:1 32:1 33:-0.333333 34:-1 35:-0.333333 36:0.333333 37:0.333333 38:0.333333 39:-1 40:-0.333333 41:0.333333 42:-1 43:-0.333333 44:1 45:-0.333333 46:1 47:-1 48:-1 49:-0.333333 50:-0.333333 51:1 52:1 53:0.333333 54:1 55:1 56:-0.333333 57:1 58:-1 59:1 60:0.333333 
13.11719143685756 1:0.333333 2:-0.333333 3:-0.333333 4:1 5:1 6:-0.333333 7:-0.333333 8:-1 9:-0.333333 10:-1 11:-1 12:-1 13:-0.333333 14:-0.333333 15:-0.333333 16:1 17:1 18:0.333333 19:0.333333 20:-1 21:-1 22:-0.333333 23:1 24:-0.333333 25:-0.333333 26:1 27:-0.333333 28:-0.333333 29:1 30:-0.333333 31:-1 32:0.333333 33:0.333333 34:1 35:1 36:-0.333333 37:0.333333 38:-0.333333 39:-0.333333 40:-1 41:-0.333333 42:-1 43:-0.333333 44:-1 45:-1 46:-0.333333 47:-1 48:1 49:1 50:1 51:1 52:-0.333333 53:-1 54:1 55:-0.333333 56:1 57:-0.333333 58:-0.333333 59:-1 60:-1 
17.7412450596426 1:-0.333333 2:-1 3:0.333333 4:-1 5:0.333333 6:1 7:-0.333333 8:-1 9:-0.333333 10:1 11:-1 12:-0.333333 13:-0.333333 14:-1 15:0.333333 16:0.333333 17:1 18:0.333333 19:0.333333 20:-1 21:-1 22:0.333333 23:1 24:0.333333 25:1 26:1 27:-1 28:0.333333 29:-1 30:-0.333333 31:-1 32:1 33:0.333333 34:0.333333 35:0.333333 36:1 37:1 38:0.333333 39:0.333333 40:0.333333 41:0.333333 42:1 43:-0.333333 44:-1 45:-1 46:-0.333333 47:1 48:-1 49:1 50:1 51:1 52:-0.333333 53:-1 54:-1 55:-0.333333 56:-1 57:-0.333333 58:0.333333 59:1 60:-0.333333 
141.1328418775755 1:0.333333 2:-0.333333 3:-0.333333 4:-1 5:0.333333 6:0.333333 7:-1 8:-0.333333 9:0.333333 10:1 11:0.333333 12:-1 13:1 14:-0.333333 15:-0.333333 16:0.333333 17:0.333333 18:1 19:1 20:0.333333 21:-0.333333 22:-0.333333 23:0.333333 24:-0.333333 25:-0.333333 26:0.333333 27:1 28:0.333333 29:0.333333 30:-1 31:-0.333333 32:0.333333 33:-0.333333 34:-1 35:-0.333333 36:0.333333 37:0.333333 38:-0.333333 39:1 40:-0.333333 41:0.333333 42:-0.333333 43:0.333333 44:-0.333333 45:0.333333 46:1 47:0.333333 48:1 49:-0.333333 50:0.333333 51:-1 52:-0.333333 53:0.333333 54:0.333333 55:1 56:-0.333333 57:0.333333 58:-1 59:0.333333 60:-1 
148.8381418896434 1:1 2:0.333333 3:-0.333333 4:-0.333333 5:-1 6:-0.333333 7:0.333333 8:-0.333333 9:-0.333333 10:0.333333 11:-0.333333 12:-0.333333 13:-0.333333 14:0.333333 15:0.333333 16:0.333333 17:0.333333 18:-1 19:-0.333333 20:-0.333333 21:0.333333 22:-1 23:-1 24:-1 25:0.333333 26:1 27:1 28:-0.333333 29:0.333333 30:-1 31:0.333333 32:-0.333333 33:-1 34:0.333333 35:-0.333333 36:0.333333 37:0.333333 38:1 39:-0.333333 40:0.333333 41:0.333333 42:-1 43:-0.333333 44:-0.333333 45:-0.333333 46:0.333333 47:-0.333333 48:-1 49:1 50:1 51:0.333333 52:-0.333333 53:-0.333333 54:-0.333333 55:-1 56:-0.333333 57:-0.333333 58:0.333333 59:0.333333 60:0.333333 
28.92774847232141 1:0.333333 2:0.333333 3:1 4:0.333333 5:0.333333 6:-1 7:-0.333333 8:-1 9:-0.333333 10:-0.333333 11:1 12:-1 13:-1 14:0.333333 15:1 16:-0.333333 17:1 18:-0.333333 19:0.333333 20:1 21:0.333333 22:-1 23:0.333333 24:-0.333333 25:-1 26:-1 27:0.333333 28:-1 29:-0.333333 30:0.333333 31:0.333333 32:0.333333 33:1 34:-0.333333 35:1 36:-0.333333 37:-0.333333 38:-1 39:-1 40:0.333333 41:1 42:-0.333333 43:-1 44:-0.333333 45:-1 46:-0.333333 47:-1 48:-0.333333 49:0.333333 50:0.333333 51:0.333333 52:-1 53:-1 54:0.333333 55:-0.333333 56:1 57:0.333333 58:0.333333 59:1 60:0.333333 
47.36672536979617 1:-1 2:-1 3:-0.333333 4:-0.333333 5:-1 6:0.333333 7:-1 8:-1 9:-0.333333 10:0.333333 11:-1 12:-0.333333 13:-0.333333 14:1 15:0.333333 16:1 17:-1 18:0.333333 19:0.333333 20:-0.333333 21:-0.333333 22:-0.333333 23:0.333333 24:0.333333 25:-1 26:0.333333 27:-0.333333 28:0.333333 29:-1 30:0.333333 31:0.333333 32:-0.333333 33:0.333333 34:0.333333 35:1 36:-0.333333 37:0.333333 38:1 39:-0.333333 40:0.333333 41:1 42:-0.333333 43:0.333333 44:1 45:-0.333333 46:-0.333333 47:-0.333333 48:1 49:-0.333333 50:0.333333 51:1 52:-0.333333 53:-0.333333 54:-1 55:-0.333333 56:-1 57:-1 58:1 59:0.333333 60:1 
9.730424442569962 1:0.333333 2:-1 3:-1 4:0.333333 5:-1 6:-1 7:-1 8:-0.333333 9:0.333333 10:-1 11:-1 12:-1 13:-1 14:-0.333333 15:0.333333 16:0.333333 17:0.333333 18:-1 19:-0.333333 20:-0.333333 21:-1 22:1 23:-0.333333 24:-0.333333 25:1 26:-0.333333 27:0.333333 28:-1 29:-0.333333 30:0.333333 31:0.333333 32:-1 33:1 34:-0.333333 35:-0.333333 36:-1 37:-1 38:-1 39:1 40:-0.333333 41:0.333333 42:-1 43:-0.333333 44:0.333333 45:0.333333 46:-1 47:1 48:1 49:-0.333333 50:-1 51:-1 52:-0.333333 53:-1 54:-0.333333 55:1 56:-0.333333 57:-1 58:-1 59:-0.333333 60:-1 
16.28116335109217 1:0.333333 2:1 3:0.333333 4:-1 5:-0.333333 6:1 7:-0.333333 8:-1 9:0.333333 10:-1 11:0.333333 12:0.333333 13:1 14:-0.333333 15:0.333333 16:0.333333 17:0.333333 18:-1 19:0.333333 20:-0.333333 21:1 22:1 23:1 24:0.333333 25:-1 26:1 27:0.333333 28:1 29:1 30:-0.333333 31:-0.333333 32:-0.333333 33:1 34:0.333333 35:1 36:1 37:0.333333 38:1 39:1 40:-0.333333 41:-1 42:1 43:-0.333333 44:0.333333 45:-1 46:-0.333333 47:-0.333333 48:-1 49:-1 50:-1 51:-0.333333 52:-0.333333 53:0.333333 54:-1 55:0.333333 56:-1 57:1 58:0.333333 59:1 60:0.333333 
30.85065179058037 1:0.333333 2:0.333333 3:1 4:0.333333 5:-1 6:0.333333 7:0.333333 8:-1 9:0.333333 10:0.333333 11:-1 12:0.333333 13:0.333333 14:-1 15:0.333333 16:-0.333333 17:1 18:-0.333333 19:1 20:0.333333 21:1 22:0.333333 23:0.333333 24:0.333333 25:-1 26:0.333333 27:0.333333 28:-1 29:-0.333333 30:0.333333 31:0.333333 32:1 33:0.333333 34:1 35:-0.333333 36:-1 37:-0.333333 38:0.333333 39:1 40:1 41:0.333333 42:1 43:0.333333 44:-1 45:1 46:1 47:0.333333 48:-1 49:0.333333 50:-1 51:-0.333333 52:-1 53:-0.333333 54:-1 55:0.333333 56:-1 57:0.333333 58:0.333333 59:0.333333 60:1 
11.72941764252867 1:-1 2:-0.333333 3:-1 4:-1 5:0.333333 6:0.333333 7:-1 8:0.333333 9:0.333333 10:1 11:-1 12:0.333333 13:1 14:1 15:0.333333 16:1 17:1 18:-0.333333 19:-0.333333 20:-0.333333 21:-0.333333 22:-1 23:-0.333333 24:-0.333333 25:1 26:-1 27:-0.333333 28:-0.333333 29:1 30:0.333333 31:1 32:-0.333333 33:0.333333 34:1 35:1 36:0.333333 37:0.333333 38:0.333333 39:1 40:1 41:0.333333 42:-1 43:-1 44:0.333333 45:1 46:0.333333 47:-1 48:-0.333333 49:-0.333333 50:-1 51:1 52:-1 53:0.333333 54:-1 55:-1 56:0.333333 57:1 58:-0.333333 59:0.333333 60:1 
24.77986798469106 1:-0.333333 2:-0.333333 3:-1 4:-0.333333 5:-1 6:-1 7:-0.333333 8:-1 9:-0.333333 10:-1 11:-0.333333 12:-1 13:-1 14:-0.333333 15:-1 16:-0.333333 17:-0.333333 18:-1 19:-1 20:-0.333333 21:-1 22:-0.333333 23:-0.333333 24:-1 25:-1 26:-0.333333 27:-1 28:-0.333333 29:-0.333333 30:-1 31:-1 32:-0.333333 33:-1 34:-0.333333 35:-1 36:-0.333333 37:-0.333333 38:-1 39:-1 40:-0.333333 41:0.333333 42:-0.333333 43:-0.333333 44:-1 45:-0.333333 46:-0.333333 47:-0.333333 48:-1 49:-1 50:0.333333 51:1 52:-0.333333 53:0.333333 54:-0.333333 55:-0.333333 56:0.333333 57:0.333333 58:-1 59:-0.333333 60:-0.333333 
6.777013670293242 1:1 2:0.333333 3:1 4:-0.333333 5:0.333333 6:-1 7:-1 8:-0.333333 9:1 10:-0.333333 11:-0.333333 12:-1 13:0.333333 14:-1 15:1 16:1 17:1 18:-0.333333 19:-1 20:-1 21:-0.333333 22:0.333333 23:-1 24:0.333333 25:1 26:1 27:1 28:-0.333333 29:-1 30:-0.333333 31:-0.333333 32:0.333333 33:0.333333 34:1 35:-1 36:1 37:1 38:-0.333333 39:1 40:1 41:-0.333333 42:-1 43:-1 44:-1 45:-1 46:-0.333333 47:-0.333333 48:-1 49:-1 50:-1 51:0.333333 52:-1 53:1 54:0.333333 55:1 56:1 57:0.333333 58:-1 59:1 60:-1 
501.875544158527 1:-0.333333 2:0.333333 3:-1 4:0.333333 5:-1 6:-0.333333 7:0.333333 8:0.333333 9:-1 10:0.333333 11:1 12:-0.333333 13:0.333333 14:0.333333 15:-0.333333 16:-0.333333 17:1 18:0.333333 19:0.333333 20:1 21:1 22:0.333333 23:0.333333 24:0.333333 25:0.333333 26:1 27:-0.333333 28:0.333333 29:-1 30:-0.333333 31:-1 32:-1 33:0.333333 34:1 35:1 36:-1 37:-0.333333 38:-1 39:-0.333333 40:0.333333 41:1 42:-0.333333 43:0.333333 44:1 45:0.333333 46:0.333333 47:-1 48:0.333333 49:-1 50:1 51:0.333333 52:1 53:0.333333 54:0.333333 55:0.333333 56:1 57:-0.333333 58:0.333333 59:1 60:-0.333333 
26.42752087579443 1:-0.333333 2:1 3:0.333333 4:1 5:1 6:0.333333 7:1 8:-0.333333 9:0.333333 10:1 11:0.333333 12:0.333333 13:1 14:0.333333 15:1 16:1 17:0.333333 18:-0.333333 19:1 20:0.333333 21:1 22:-0.333333 23:-0.333333 24:1 25:0.333333 26:0.333333 27:0.333333 28:1 29:1 30:-1 31:0.333333 32:1 33:1 34:0.333333 35:0.333333 36:-1 37:-1 38:-0.333333 39:-1 40:0.333333 41:0.333333 42:0.333333 43:0.333333 44:-1 45:-0.333333 46:-1 47:-0.333333 48:-1 49:-0.333333 50:-0.333333 51:-1 52:-1 53:-0.333333 54:-0.333333 55:0.333333 56:-1 57:1 58:-0.333333 59:0.333333 60:1 
7.922375785316749 1:-1 2:1 3:0.333333 4:1 5:0.333333 6:-1 7:0.333333 8:0.333333 9:-0.333333 10:-1 11:1 12:0.333333 13:0.333333 14:-0.333333 15:0.333333 16:0.333333 17:1 18:1 19:1 20:1 21:0.333333 22:-0.333333 23:1 24:1 25:0.333333 26:1 27:1 28:1 29:0.333333 30:1 31:1 32:1 33:1 34:1 35:-1 36:1 37:1 38:0.333333 39:1 40:0.333333 41:1 42:1 43:1 44:-1 45:-0.333333 46:-1 47:0.333333 48:-0.333333 49:-0.333333 50:-1 51:-0.333333 52:1 53:1 54:1 55:0.333333 56:-1 57:0.333333 58:1 59:0.333333 60:1 
6.948740152897275 1:-0.333333 2:-1 3:-1 4:1 5:-0.333333 6:-0.333333 7:1 8:-0.333333 9:1 10:1 11:-0.333333 12:1 13:-1 14:1 15:-0.333333 16:0.333333 17:0.333333 18:1 19:1 20:1 21:-1 22:-1 23:-1 24:1 25:0.333333 26:1 27:-0.333333 28:1 29:-0.333333 30:-1 31:1 32:-0.333333 33:-1 34:1 35:0.333333 36:0.333333 37:1 38:0.333333 39:-1 40:1 41:-1 42:1 43:-0.333333 44:-0.333333 45:0.333333 46:0.333333 47:0.333333 48:-1 49:-0.333333 50:1 51:-0.333333 52:1 53:0.333333 54:-1 55:-1 56:-0.333333 57:1 58:1 59:-0.333333 60:1 
8.376391861737817 1:-0.333333 2:-0.333333 3:-1 4:-1 5:-1 6:-1 7:0.333333 8:-1 9:-1 10:-1 11:-0.333333 12:0.333333 13:-1 14:-1 15:1 16:0.333333 17:1 18:-0.333333 19:-0.333333 20:-1 21:0.333333 22:-0.333333 23:-0.333333 24:1 25:1 26:0.333333 27:-1 28:-1 29:-0.333333 30:-1 31:0.333333 32:1 33:-0.333333 34:-1 35:-0.333333 36:0.333333 37:-1 38:-1 39:0.333333 40:1 41:0.333333 42:0.333333 43:0.333333 44:1 45:-0.333333 46:-1 47:-1 48:1 49:1 50:1 51:1 52:1 53:-1 54:1 55:-1 56:0.333333 57:-1 58:1 59:0.333333 60:1 
10.45270273115303 1:1 2:-0.333333 3:1 4:-0.333333 5:0.333333 6:-1 7:0.333333 8:-1 9:-0.333333 10:-1 11:0.333333 12:-1 13:-0.333333 14:-0.333333 15:-1 16:-1 17:-0.333333 18:-0.333333 19:1 20:-0.333333 21:1 22:-0.333333 23:1 24:-1 25:-1 26:-1 27:0.333333 28:0.333333 29:-0.333333 30:0.333333 31:-1 32:-0.333333 33:-1 34:0.333333 35:1 36:1 37:0.333333 38:1 39:1 40:1 41:-0.333333 42:0.333333 43:-1 44:-1 45:1 46:-0.333333 47:-0.333333 48:-0.333333 49:-0.333333 50:-1 51:0.333333 52:-1 53:-1 54:1 55:-0.333333 56:-1 57:0.333333 58:1 59:-0.333333 60:1 
22.93758904168278 1:-1 2:0.333333 3:0.333333 4:1 5:1 6:1 7:-0.333333 8:-0.333333 9:0.333333 10:1 11:1 12:0.333333 13:1 14:0.333333 15:-1 16:-0.333333 17:0.333333 18:-1 19:-0.333333 20:-0.333333 21:0.333333 22:-1 23:-0.333333 24:0.333333 25:1 26:-0.333333 27:-1 28:0.333333 29:1 30:-0.333333 31:-1 32:-0.333333 33:-0.333333 34:-1 35:-0.333333 36:-1 37:0.333333 38:1 39:1 40:-0.333333 41:-0.333333 42:-0.333333 43:-0.333333 44:1 45:0.333333 46:1 47:1 48:0.333333 49:0.333333 50:1 51:-0.333333 52:-0.333333 53:0.333333 54:1 55:0.333333 56:-1 57:0.333333 58:1 59:-1 60:1 
24.6550470425379 1:1 2:1 3:-0.333333 4:0.333333 5:-1 6:1 7:1 8:-0.333333 9:1 10:-0.333333 11:-0.333333 12:1 13:0.333333 14:1 15:0.333333 16:0.333333 17:0.333333 18:-1 19:1 20:0.333333 21:-1 22:-1 23:-0.333333 24:-1 25:0.333333 26:1 27:0.333333 28:-1 29:-0.333333 30:0.333333 31:-0.333333 32:-0.333333 33:0.333333 34:-1 35:0.333333 36:1 37:0.333333 38:-0.333333 39:-1 40:1 41:0.333333 42:1 43:-0.333333 44:-0.333333 45:-0.333333 46:-1 47:0.333333 48:-1 49:-0.333333 50:-1 51:0.333333 52:0.333333 53:1 54:0.333333 55:-1 56:0.333333 57:1 58:0.333333 59:1 60:0.333333 
32.64899690181765 1:-0.333333 2:1 3:-0.333333 4:0.333333 5:-1 6:-0.333333 7:0.333333 8:-1 9:-1 10:-0.333333 11:-0.333333 12:-1 13:-0.333333 14:-1 15:-1 16:-0.333333 17:-1 18:-0.333333 19:1 20:1 21:1 22:-0.333333 23:-1 24:-0.333333 25:0.333333 26:-0.333333 27:-1 28:0.333333 29:-0.333333 30:-0.333333 31:-0.333333 32:1 33:-1 34:-1 35:-0.333333 36:-0.333333 37:0.333333 38:-1 39:0.333333 40:1 41:-0.333333 42:-1 43:0.333333 44:0.333333 45:0.333333 46:-1 47:-1 48:-0.333333 49:1 50:-0.333333 51:-0.333333 52:-0.333333 53:-0.333333 54:-1 55:1 56:0.333333 57:0.333333 58:1 59:-0.333333 60:-0.333333 
18.0131625286535 1:0.333333 2:-1 3:-0.333333 4:1 5:1 6:0.333333 7:-1 8:1 9:1 10:0.333333 11:-0.333333 12:1 13:0.333333 14:1 15:1 16:1 17:1 18:1 19:0.333333 20:0.333333 21:1 22:1 23:0.333333 24:-1 25:-0.333333 26:-0.333333 27:-1 28:-1 29:-0.333333 30:1 31:0.333333 32:1 33:-0.333333 34:-0.333333 35:-0.333333 36:1 37:-0.333333 38:1 39:-1 40:-1 41:-1 42:-0.333333 43:-0.333333 44:-0.333333 45:-1 46:1 47:-0.333333 48:-0.333333 49:-1 50:-0.333333 51:-1 52:-0.333333 53:-1 54:-0.333333 55:-0.333333 56:1 57:-0.333333 58:-1 59:-0.333333 60:-0.333333 
75.93033813754531 1:1 2:-0.333333 3:-0.333333 4:0.333333 5:0.333333 6:1 7:0.333333 8:0.333333 9:1 10:0.333333 11:1 12:0.333333 13:1 14:1 15:0.333333 16:0.333333 17:1 18:1 19:-0.333333 20:-0.333333 21:-1 22:0.333333 23:0.333333 24:-1 25:0.333333 26:-1 27:0.333333 28:0.333333 29:-1 30:-0.333333 31:-0.333333 32:1 33:-0.333333 34:1 35:-0.333333 36:0.333333 37:-1 38:-0.333333 39:0.333333 40:1 41:-0.333333 42:-0.333333 43:0.333333 44:1 45:-0.333333 46:-0.333333 47:0.333333 48:1 49:-0.333333 50:-0.333333 51:0.333333 52:1 53:-0.333333 54:-0.333333 55:0.333333 56:-1 57:-0.333333 58:0.333333 59:-0.333333 60:-0.333333 
30.99403069733529 1:0.333333 2:0.333333 3:1 4:-0.333333 5:1 6:-0.333333 7:-1 8:-0.333333 9:-0.333333 10:-1 11:-1 12:-0.333333 13:-0.333333 14:0.333333 15:1 16:1 17:0.333333 18:-1 19:1 20:-0.333333 21:1 22:1 23:-0.333333 24:0.333333 25:-1 26:-0.333333 27:-0.333333 28:-0.333333 29:-1 30:0.333333 31:0.333333 32:-1 33:-0.333333 34:0.333333 35:0.333333 36:0.333333 37:-1 38:-0.333333 39:-0.333333 40:1 41:1 42:-0.333333 43:-1 44:-1 45:1 46:-0.333333 47:0.333333 48:-1 49:0.333333 50:0.333333 51:-1 52:0.333333 53:1 54:0.333333 55:-1 56:-1 57:-0.333333 58:-0.333333 59:-0.333333 60:0.333333 
7.97485545193488 1:-1 2:1 3:-0.333333 4:-0.333333 5:-1 6:0.333333 7:1 8:0.333333 9:1 10:-0.333333 11:1 12:1 13:0.333333 14:-0.333333 15:0.333333 16:1 17:0.333333 18:-1 19:-0.333333 20:-0.333333 21:1 22:0.333333 23:0.333333 24:1 25:1 26:1 27:1 28:-0.333333 29:-0.333333 30:0.333333 31:0.333333 32:-1 33:-0.333333 34:-1 35:1 36:0.333333 37:1 38:1 39:1 40:-1 41:0.333333 42:-1 43:0.333333 44:0.333333 45:-1 46:-0.333333 47:-1 48:0.333333 49:-1 50:-1 51:0.333333 52:1 53:1 54:1 55:-0.333333 56:1 57:-1 58:1 59:1 60:1 
19.1075702161886 1:0.333333 2:-1 3:-1 4:-0.333333 5:-1 6:-0.333333 7:-0.333333 8:1 9:1 10:1 11:0.333333 12:1 13:-0.333333 14:-1 15:-0.333333 16:1 17:-0.333333 18:1 19:-0.333333 20:-1 21:-0.333333 22:-0.333333 23:-1 24:1 25:1 26:-0.333333 27:0.333333 28:1 29:0.333333 30:1 31:-0.333333 32:-0.333333 33:-1 34:-0.333333 35:1 36:-0.333333 37:-0.333333 38:-1 39:-1 40:1 41:-0.333333 42:-0.333333 43:0.333333 44:0.333333 45:0.333333 46:1 47:0.333333 48:-1 49:0.333333 50:-1 51:-0.333333 52:-0.333333 53:1 54:-1 55:-0.333333 56:-0.333333 57:-1 58:-0.333333 59:1 60:-0.333333 
13.31084498631849 1:-1 2:-0.333333 3:-0.333333 4:-0.333333 5:1 6:-0.333333 7:-0.333333 8:1 9:1 10:1 11:1 12:1 13:0.333333 14:1 15:1 16:1 17:1 18:-1 19:-1 20:0.333333 21:0.333333 22:-1 23:-0.333333 24:1 25:1 26:-0.333333 27:-1 28:-0.333333 29:-1 30:0.333333 31:-0.333333 32:-0.333333 33:-0.333333 34:0.333333 35:-1 36:-1 37:-1 38:-1 39:-0.333333 40:0.333333 41:1 42:1 43:-0.333333 44:-1 45:1 46:1 47:-0.333333 48:0.333333 49:0.333333 50:0.333333 51:1 52:1 53:1 54:-1 55:-1 56:0.333333 57:0.333333 58:-0.333333 59:0.333333 60:0.333333 
28.45300684673295 1:-0.333333 2:0.333333 3:0.333333 4:0.333333 5:0.333333 6:-0.333333 7:0.333333 8:-0.333333 9:0.333333 10:0.333333 11:1 12:-1 13:0.333333 14:1 15:-0.333333 16:-1 17:-0.333333 18:1 19:-0.333333 20:0.333333 21:1 22:0.333333 23:-1 24:-0.333333 25:1 26:-0.333333 27:-1 28:-1 29:1 30:-0.333333 31:-0.333333 32:-1 33:-1 34:-0.333333 35:0.333333 36:-1 37:-0.333333 38:0.333333 39:1 40:1 41:1 42:-0.333333 43:1 44:-1 45:0.333333 46:-0.333333 47:0.333333 48:0.333333 49:-1 50:-0.333333 51:0.333333 52:-0.333333 53:1 54:1 55:-1 56:1 57:-0.333333 58:-0.333333 59:1 60:-0.333333 
29.29184297446099 1:0.333333 2:0.333333 3:-0.333333 4:-0.333333 5:-1 6:-0.333333 7:1 8:-1 9:1 10:1 11:-0.333333 12:-0.333333 13:-0.333333 14:-1 15:0.333333 16:0.333333 17:-0.333333 18:-0.333333 19:-1 20:-1 21:0.333333 22:-1 23:0.333333 24:-1 25:0.333333 26:-1 27:-0.333333 28:-1 29:1 30:0.333333 31:1 32:-0.333333 33:0.333333 34:-1 35:-1 36:-0.333333 37:-0.333333 38:0.333333 39:0.333333 40:0.333333 41:-1 42:-1 43:-0.333333 44:0.333333 45:-1 46:0.333333 47:-0.333333 48:-0.333333 49:-1 50:0.333333 51:1 52:-0.333333 53:-1 54:-1 55:0.333333 56:-0.333333 57:-1 58:-0.333333 59:-1 60:-0.333333 
4.388981825217175 1:-1 2:-1 3:-1 4:-1 5:-0.333333 6:-0.333333 7:-1 8:-1 9:-1 10:1 11:-1 12:1 13:0.333333 14:0.333333 15:1 16:0.333333 17:-1 18:-0.333333 19:-1 20:1 21:-0.333333 22:-1 23:-1 24:-1 25:1 26:0.333333 27:1 28:-0.333333 29:-0.333333 30:-1 31:-1 32:-1 33:-0.333333 34:-1 35:-1 36:-0.333333 37:0.333333 38:1 39:1 40:1 41:0.333333 42:1 43:-0.333333 44:-1 45:-0.333333 46:-1 47:-1 48:-1 49:0.333333 50:1 51:-0.333333 52:0.333333 53:1 54:1 55:-1 56:-0.333333 57:1 58:-0.333333 59:1 60:1 
40.85586995880357 1:1 2:-0.333333 3:-0.333333 4:-0.333333 5:0.333333 6:-1 7:1 8:-0.333333 9:-0.333333 10:1 11:-0.333333 12:-0.333333 13:0.333333 14:1 15:-0.333333 16:-0.333333 17:-1 18:-0.333333 19:-1 20:1 21:-0.333333 22:-1 23:-0.333333 24:-0.333333 25:-1 26:-0.333333 27:-1 28:0.333333 29:0.333333 30:1 31:-1 32:1 33:-0.333333 34:-1 35:-0.333333 36:-0.333333 37:1 38:-1 39:-0.333333 40:-0.333333 41:-0.333333 42:-0.333333 43:-0.333333 44:1 45:0.333333 46:0.333333 47:0.333333 48:0.333333 49:-1 50:-0.333333 51:-1 52:-0.333333 53:1 54:0.333333 55:1 56:0.333333 57:0.333333 58:0.333333 59:1 60:-0.333333 
25.68665281355753 1:-1 2:-1 3:1 4:0.333333 5:-1 6:1 7:-0.333333 8:0.333333 9:0.333333 10:-0.333333 11:1 12:-0.333333 13:-0.333333 14:1 15:-0.333333 16:1 17:0.333333 18:1 19:0.333333 20:-0.333333 21:-0.333333 22:-1 23:1 24:-0.333333 25:-0.333333 26:-1 27:1 28:-1 29:-1 30:-0.333333 31:-0.333333 32:1 33:-0.333333 34:-0.333333 35:-1 36:-1 37:0.333333 38:-0.333333 39:0.333333 40:0.333333 41:1 42:-0.333333 43:-1 44:-1 45:-1 46:0.333333 47:-1 48:-0.333333 49:-0.333333 50:1 51:-0.333333 52:0.333333 53:1 54:-0.333333 55:0.333333 56:1 57:0.333333 58:0.333333 59:-1 60:0.333333 
11.08412042011779 1:-1 2:-1 3:0.333333 4:1 5:0.333333 6:-1 7:-1 8:-1 9:0.333333 10:-1 11:-0.333333 12:-1 13:-1 14:-0.333333 15:-0.333333 16:1 17:-0.333333 18:1 19:0.333333 20:1 21:-0.333333 22:1 23:1 24:-1 25:-1 26:1 27:-0.333333 28:-1 29:-0.333333 30:-1 31:-0.333333 32:-1 33:-0.333333 34:1 35:-0.333333 36:-1 37:1 38:-0.333333 39:0.333333 40:0.333333 41:0.333333 42:-1 43:1 44:0.333333 45:1 46:-0.333333 47:0.333333 48:0.333333 49:1 50:-1 51:0.333333 52:0.333333 53:-1 54:1 55:0.333333 56:0.333333 57:-1 58:-1 59:-0.333333 60:-0.333333 
14.90954457959425 1:0.333333 2:0.333333 3:1 4:-1 5:-1 6:-0.333333 7:1 8:-1 9:-0.333333 10:0.333333 11:1 12:-0.333333 13:-0.333333 14:-0.333333 15:-0.333333 16:0.333333 17:1 18:-1 19:0.333333 20:-1 21:-0.333333 22:-0.333333 23:0.333333 24:-0.333333 25:0.333333 26:-0.333333 27:0.333333 28:-1 29:0.333333 30:0.333333 31:-1 32:0.333333 33:0.333333 34:-1 35:1 36:-0.333333 37:0.333333 38:0.333333 39:1 40:-0.333333 41:-1 42:0.333333 43:1 44:-1 45:-1 46:1 47:1 48:1 49:1 50:1 51:1 52:0.333333 53:-1 54:0.333333 55:1 56:1 57:1 58:1 59:1 60:1 
47.43686570874608 1:-0.333333 2:-1 3:1 4:0.333333 5:0.333333 6:0.333333 7:0.333333 8:-0.333333 9:-0.333333 10:0.333333 11:0.333333 12:1 13:-0.333333 14:0.333333 15:0.333333 16:1 17:-0.333333 18:-0.333333 19:-0.333333 20:0.333333 21:0.333333 22:1 23:-0.333333 24:-0.333333 25:-0.333333 26:0.333333 27:0.333333 28:1 29:1 30:-0.333333 31:-0.333333 32:1 33:-0.333333 34:-0.333333 35:-0.333333 36:1 37:1 38:1 39:-0.333333 40:-0.333333 41:1 42:1 43:1 44:1 45:-0.333333 46:-0.333333 47:1 48:1 49:1 50:0.333333 51:0.333333 52:1 53:1 54:0.333333 55:1 56:0.333333 57:1 58:-0.333333 59:1 60:0.333333 
4.911176928672882 1:-0.333333 2:0.333333 3:1 4:-0.333333 5:-1 6:0.333333 7:1 8:0.333333 9:0.333333 10:-1 11:0.333333 12:-1 13:-1 14:0.333333 15:0.333333 16:-1 17:-0.333333 18:-0.333333 19:-1 20:-0.333333 21:1 22:0.333333 23:1 24:1 25:1 26:1 27:0.333333 28:-1 29:0.333333 30:1 31:-1 32:1 33:-1 34:1 35:-1 36:-1 37:1 38:1 39:1 40:0.333333 41:-1 42:-1 43:-0.333333 44:-1 45:-1 46:1 47:1 48:0.333333 49:1 50:-1 51:1 52:-1 53:-0.333333 54:-1 55:-1 56:-0.333333 57:1 58:-1 59:-0.333333 60:-1 
37.67151328948374 1:0.333333 2:-1 3:0.333333 4:-1 5:-0.333333 6:0.333333 7:0.333333 8:1 9:1 10:1 11:-0.333333 12:1 13:-0.333333 14:1 15:0.333333 16:0.333333 17:-1 18:-1 19:-0.333333 20:0.333333 21:-1 22:-0.333333 23:-0.333333 24:-1 25:-0.333333 26:-0.333333 27:-0.333333 28:0.333333 29:-1 30:-0.333333 31:0.333333 32:-0.333333 33:-1 34:-0.333333 35:-0.333333 36:1 37:-1 38:-0.333333 39:1 40:-0.333333 41:-1 42:-1 43:-0.333333 44:-1 45:-0.333333 46:-1 47:0.333333 48:0.333333 49:0.333333 50:-1 51:-0.333333 52:-0.333333 53:0.333333 54:-0.333333 55:0.333333 56:1 57:-1 58:0.333333 59:0.333333 60:1 
10.13938237501777 1:-0.333333 2:-1 3:-1 4:-1 5:-0.333333 6:-1 7:-1 8:-1 9:0.333333 10:-0.333333 11:-1 12:-0.333333 13:-0.333333 14:-1 15:-1 16:-0.333333 17:-1 18:0.333333 19:-0.333333 20:-0.333333 21:-0.333333 22:1 23:1 24:1 25:1 26:0.333333 27:-0.333333 28:1 29:0.333333 30:1 31:-1 32:1 33:-1 34:-0.333333 35:1 36:1 37:-0.333333 38:-1 39:-1 40:-0.333333 41:0.333333 42:1 43:1 44:1 45:1 46:-1 47:0.333333 48:1 49:-1 50:-0.333333 51:-0.333333 52:-1 53:1 54:0.333333 55:1 56:1 57:-0.333333 58:0.333333 59:0.333333 60:1 
103.5277701563777 1:0.333333 2:-0.333333 3:-1 4:-0.333333 5:-1 6:-1 7:-0.333333 8:1 9:-0.333333 10:0.333333 11:-0.333333 12:-1 13:-0.333333 14:-0.333333 15:1 16:-0.333333 17:-1 18:-1 19:0.333333 20:-0.333333 21:-0.333333 22:1 23:-0.333333 24:0.333333 25:-0.333333 26:-0.333333 27:-0.333333 28:-0.333333 29:-0.333333 30:0.333333 31:-0.333333 32:0.333333 33:-1 34:0.333333 35:0.333333 36:0.333333 37:1 38:0.333333 39:1 40:0.333333 41:1 42:1 43:0.333333 44:-0.333333 45:0.333333 46:0.333333 47:1 48:1 49:0.333333 50:0.333333 51:1 52:-0.333333 53:0.333333 54:-0.333333 55:-0.333333 56:-0.333333 57:-1 58:-0.333333 59:-0.333333 60:0.333333 
370.1742062823117 1:-0.333333 2:-0.333333 3:0.333333 4:1 5:-0.333333 6:0.333333 7:0.333333 8:-0.333333 9:-0.333333 10:-1 11:-0.333333 12:0.333333 13:0.333333 14:0.333333 15:0.333333 16:1 17:0.333333 18:-1 19:0.333333 20:0.333333 21:0.333333 22:1 23:-0.333333 24:-1 25:-0.333333 26:-1 27:1 28:-0.333333 29:-0.333333 30:-0.333333 31:-0.333333 32:1 33:-1 34:-1 35:-0.333333 36:-0.333333 37:-1 38:-0.333333 39:-0.333333 40:-0.333333 41:-0.333333 42:-0.333333 43:-1 44:1 45:-0.333333 46:-1 47:-0.333333 48:-0.333333 49:-0.333333 50:-0.333333 51:1 52:-1 53:0.333333 54:1 55:-0.333333 56:1 57:-0.333333 58:1 59:0.333333 60:1 
42.52763794769621 1:-0.333333 2:-0.333333 3:-0.333333 4:-0.333333 5:0.333333 6:0.333333 7:-1 8:1 9:0.333333 10:-0.333333 11:1 12:-0.333333 13:-0.333333 14:-0.333333 15:0.333333 16:-1 17:1 18:0.333333 19:0.333333 20:1 21:0.333333 22:-1 23:1 24:0.333333 25:1 26:1 27:0.333333 28:-0.333333 29:1 30:0.333333 31:0.333333 32:1 33:-0.333333 34:0.333333 35:1 36:0.333333 37:0.333333 38:1 39:-0.333333 40:-0.333333 41:1 42:-0.333333 43:-0.333333 44:1 45:1 46:-0.333333 47:1 48:-0.333333 49:-0.333333 50:-1 51:0.333333 52:-1 53:1 54:0.333333 55:-1 56:0.333333 57:0.333333 58:1 59:-0.333333 60:0.333333 
6.01321130638487 1:1 2:-1 3:1 4:0.333333 5:1 6:0.333333 7:-1 8:-1 9:-1 10:-1 11:0.333333 12:1 13:-1 14:1 15:1 16:0.333333 17:1 18:-0.333333 19:0.333333 20:-1 21:1 22:-0.333333 23:-0.333333 24:1 25:-0.333333 26:0.333333 27:1 28:-0.333333 29:1 30:-1 31:-1 32:1 33:-0.333333 34:-0.333333 35:1 36:-0.333333 37:-0.333333 38:-1 39:1 40:-1 41:0.333333 42:-1 43:1 44:-0.333333 45:-1 46:0.333333 47:-1 48:1 49:-0.333333 50:1 51:1 52:-1 53:1 54:-0.333333 55:1 56:1 57:1 58:-0.333333 59:0.333333 60:0.333333 
35.73509158929122 1:1 2:0.333333 3:-1 4:0.333333 5:-1 6:-0.333333 7:0.333333 8:0.333333 9:-1 10:0.333333 11:1 12:0.333333 13:-1 14:-0.333333 15:-1 16:1 17:-0.333333 18:0.333333 19:1 20:1 21:0.333333 22:0.333333 23:1 24:-0.333333 25:0.333333 26:0.333333 27:0.333333 28:0.333333 29:0.333333 30:0.333333 31:-1 32:-0.333333 33:1 34:-0.333333 35:0.333333 36:0.333333 37:0.333333 38:-1 39:1 40:1 41:0.333333 42:0.333333 43:-1 44:-0.333333 45:-0.333333 46:1 47:0.333333 48:-1 49:0.333333 50:0.333333 51:-1 52:-0.333333 53:-1 54:1 55:0.333333 56:0.333333 57:-1 58:-1 59:-0.333333 60:-0.333333 
2.85155283376402 1:-1 2:0.333333 3:0.333333 4:-1 5:-1 6:-1 7:-0.333333 8:0.333333 9:1 10:1 11:1 12:1 13:0.333333 14:-1 15:1 16:-0.333333 17:-0.333333 18:-1 19:1 20:1 21:-1 22:-0.333333 23:-0.333333 24:-1 25:-1 26:-1 27:-1 28:-1 29:-1 30:1 31:0.333333 32:-1 33:1 34:1 35:1 36:1 37:-0.333333 38:1 39:0.333333 40:1 41:0.333333 42:1 43:-1 44:1 45:-0.333333 46:1 47:0.333333 48:-1 49:-1 50:-1 51:0.333333 52:-1 53:1 54:0.333333 55:1 56:1 57:-0.333333 58:-0.333333 59:-1 60:-0.333333 
23.18266696433217 1:-0.333333 2:-1 3:-1 4:-1 5:1 6:-0.333333 7:0.333333 8:-1 9:-1 10:-0.333333 11:-1 12:-1 13:-1 14:0.333333 15:-0.333333 16:-0.333333 17:-0.333333 18:1 19:0.333333 20:-1 21:0.333333 22:0.333333 23:-1 24:1 25:0.333333 26:0.333333 27:1 28:-0.333333 29:-0.333333 30:1 31:-0.333333 32:-0.333333 33:-1 34:-0.333333 35:-0.333333 36:-0.333333 37:-1 38:-0.333333 39:-0.333333 40:-1 41:-0.333333 42:-1 43:-0.333333 44:-1 45:1 46:1 47:-0.333333 48:-1 49:-0.333333 50:0.333333 51:1 52:-0.333333 53:1 54:1 55:1 56:-0.333333 57:-1 58:0.333333 59:-0.333333 60:-0.333333 
184.8945769146555 1:0.333333 2:0.333333 3:-1 4:1 5:-0.333333 6:-0.333333 7:-0.333333 8:-1 9:-0.333333 10:-1 11:-0.333333 12:1 13:-0.333333 14:-0.333333 15:0.333333 16:0.333333 17:-1 18:1 19:0.333333 20:-0.333333 21:1 22:-0.333333 23:-0.333333 24:1 25:-0.333333 26:-0.333333 27:-0.333333 28:0.333333 29:-0.333333 30:0.333333 31:0.333333 32:0.333333 33:0.333333 34:-0.333333 35:0.333333 36:-0.333333 37:-0.333333 38:-1 39:0.333333 40:0.333333 41:0.333333 42:1 43:-0.333333 44:-0.333333 45:-0.333333 46:0.333333 47:0.333333 48:0.333333 49:0.333333 50:-1 51:-0.333333 52:0.333333 53:0.333333 54:-1 55:-0.333333 56:-0.333333 57:-1 58:-0.333333 59:-0.333333 60:-1 
7.519209675726631 1:1 2:0.333333 3:1 4:1 5:1 6:-1 7:0.333333 8:1 9:-1 10:-1 11:-1 12:-1 13:0.333333 14:1 15:-1 16:0.333333 17:-1 18:-1 19:-1 20:-1 21:1 22:1 23:-1 24:-0.333333 25:0.333333 26:1 27:-0.333333 28:-0.333333 29:-0.333333 30:1 31:-0.333333 32:1 33:-0.333333 34:-0.333333 35:1 36:-0.333333 37:-0.333333 38:0.333333 39:-1 40:0.333333 41:-1 42:1 43:-0.333333 44:0.333333 45:0.333333 46:1 47:-0.333333 48:1 49:-1 50:-1 51:1 52:0.333333 53:0.333333 54:0.333333 55:-1 56:-0.333333 57:-1 58:1 59:-1 60:1 
37.81598308100773 1:-0.333333 2:1 3:-0.333333 4:1 5:1 6:-0.333333 7:0.333333 8:1 9:0.333333 10:0.333333 11:-1 12:-0.333333 13:1 14:-1 15:0.333333 16:-0.333333 17:1 18:1 19:-0.333333 20:-1 21:1 22:-0.333333 23:-1 24:0.333333 25:0.333333 26:1 27:1 28:1 29:1 30:-0.333333 31:0.333333 32:1 33:-0.333333 34:-0.333333 35:-0.333333 36:-1 37:0.333333 38:-1 39:0.333333 40:0.333333 41:0.333333 42:0.333333 43:-1 44:0.333333 45:-0.333333 46:-0.333333 47:0.333333 48:-1 49:-0.333333 50:1 51:0.333333 52:-0.333333 53:-0.333333 54:-0.333333 55:1 56:-0.333333 57:-0.333333 58:0.333333 59:0.333333 60:-1 
532.154295152814 1:1 2:-0.333333 3:0.333333 4:-0.333333 5:0.333333 6:1 7:0.333333 8:1 9:0.333333 10:0.333333 11:-0.333333 12:0.333333 13:1 14:-0.333333 15:0.333333 16:-0.333333 17:-0.333333 18:-0.333333 19:0.333333 20:-0.333333 21:0.333333 22:0.333333 23:0.333333 24:-0.333333 25:-0.333333 26:-0.333333 27:-0.333333 28:0.333333 29:-0.333333 30:0.333333 31:-0.333333 32:0.333333 33:-1 34:-1 35:0.333333 36:0.333333 37:0.333333 38:0.333333 39:-1 40:0.333333 41:0.333333 42:0.333333 43:0.333333 44:-0.333333 45:0.333333 46:1 47:-0.333333 48:-0.333333 49:0.333333 50:1 51:0.333333 52:0.333333 53:-0.333333 54:1 55:-0.333333 56:0.333333 57:0.333333 58:-0.333333 59:1 60:-0.333333 
104.1176865863844 1:1 2:0.333333 3:-1 4:-0.333333 5:0.333333 6:1 7:0.333333 8:0.333333 9:1 10:0.333333 11:0.333333 12:-1 13:-0.333333 14:1 15:-0.333333 16:-0.333333 17:0.333333 18:0.333333 19:1 20:-0.333333 21:-0.333333 22:-0.333333 23:0.333333 24:1 25:-0.333333 26:0.333333 27:-1 28:-1 29:-1 30:-0.333333 31:-0.333333 32:1 33:-1 34:-1 35:-0.333333 36:0.333333 37:-1 38:0.333333 39:0.333333 40:0.333333 41:0.333333 42:0.333333 43:1 44:-0.333333 45:0.333333 46:0.333333 47:-1 48:0.333333 49:0.333333 50:0.333333 51:0.333333 52:-0.333333 53:-0.333333 54:0.333333 55:0.333333 56:-0.333333 57:0.333333 58:0.333333 59:1 60:1 
64.25611480167751 1:-0.333333 2:0.333333 3:1 4:-0.333333 5:-0.333333 6:-0.333333 7:-0.333333 8:-1 9:-0.333333 10:-1 11:-1 12:-1 13:0.333333 14:0.333333 15:0.333333 16:-1 17:-1 18:-0.333333 19:-0.333333 20:1 21:-1 22:0.333333 23:0.333333 24:1 25:-1 26:1 27:-0.333333 28:-0.333333 29:-0.333333 30:-0.333333 31:0.333333 32:1 33:-0.333333 34:-0.333333 35:0.333333 36:0.333333 37:1 38:1 39:0.333333 40:1 41:0.333333 42:-1 43:-1 44:-0.333333 45:-0.333333 46:-1 47:-1 48:-0.333333 49:0.333333 50:0.333333 51:0.333333 52:-0.333333 53:-0.333333 54:0.333333 55:1 56:0.333333 57:0.333333 58:0.333333 59:0.333333 60:-0.333333 
23.2504276676714 1:0.333333 2:-1 3:-0.333333 4:0.333333 5:1 6:1 7:1 8:0.333333 9:0.333333 10:1 11:-1 12:-1 13:0.333333 14:0.333333 15:0.333333 16:1 17:1 18:1 19:0.333333 20:0.333333 21:0.333333 22:1 23:0.333333 24:0.333333 25:0.333333 26:1 27:0.333333 28:0.333333 29:-1 30:-0.333333 31:0.333333 32:-1 33:1 34:0.333333 35:0.333333 36:-0.333333 37:-0.333333 38:-1 39:-0.333333 40:-0.333333 41:-0.333333 42:-0.333333 43:1 44:1 45:1 46:0.333333 47:0.333333 48:-1 49:-0.333333 50:-0.333333 51:1 52:-1 53:1 54:-1 55:1 56:-1 57:-1 58:-0.333333 59:0.333333 60:-1 
11.2244822885069 1:0.333333 2:0.333333 3:0.333333 4:-1 5:0.333333 6:0.333333 7:-1 8:1 9:-0.333333 10:-1 11:-0.333333 12:-0.333333 13:-1 14:0.333333 15:-1 16:1 17:-1 18:0.333333 19:-1 20:-1 21:0.333333 22:1 23:-0.333333 24:-0.333333 25:-0.333333 26:-1 27:-1 28:-1 29:1 30:-1 31:0.333333 32:1 33:-0.333333 34:-1 35:-1 36:-1 37:0.333333 38:1 39:1 40:-0.333333 41:0.333333 42:1 43:-0.333333 44:0.333333 45:0.333333 46:1 47:-1 48:1 49:1 50:-0.333333 51:-0.333333 52:-0.333333 53:1 54:-1 55:1 56:-0.333333 57:0.333333 58:1 59:-0.333333 60:-1 
7.413879511969673 1:-1 2:1 3:0.333333 4:1 5:0.333333 6:-1 7:0.333333 8:-1 9:-0.333333 10:-1 11:1 12:0.333333 13:0.333333 14:0.333333 15:0.333333 16:1 17:-1 18:1 19:0.333333 20:1 21:1 22:-1 23:-1 24:-1 25:-0.333333 26:-1 27:-0.333333 28:-1 29:0.333333 30:0.333333 31:0.333333 32:1 33:-1 34:-1 35:1 36:1 37:1 38:-0.333333 39:-0.333333 40:-0.333333 41:1 42:1 43:0.333333 44:-1 45:0.333333 46:0.333333 47:1 48:0.333333 49:-1 50:-0.333333 51:1 52:0.333333 53:1 54:0.333333 55:1 56:-1 57:1 58:-1 59:-1 60:1 
21.39727375423584 1:1 2:0.333333 3:1 4:-1 5:0.333333 6:0.333333 7:-0.333333 8:0.333333 9:-1 10:1 11:0.333333 12:-0.333333 13:-1 14:0.333333 15:0.333333 16:-1 17:0.333333 18:1 19:-1 20:0.333333 21:0.333333 22:1 23:-0.333333 24:-0.333333 25:-0.333333 26:0.333333 27:-1 28:-1 29:-0.333333 30:-0.333333 31:-1 32:-0.333333 33:-1 34:1 35:-0.333333 36:-0.333333 37:1 38:-0.333333 39:0.333333 40:-1 41:-0.333333 42:-1 43:-1 44:0.333333 45:0.333333 46:1 47:0.333333 48:-1 49:1 50:-0.333333 51:-0.333333 52:1 53:-0.333333 54:0.333333 55:1 56:-0.333333 57:-1 58:-0.333333 59:-1 60:1 
4.762002133788655 1:-1 2:-1 3:1 4:0.333333 5:0.333333 6:1 7:-1 8:-1 9:1 10:-0.333333 11:1 12:-0.333333 13:-1 14:1 15:1 16:1 17:-1 18:-0.333333 19:1 20:-1 21:-1 22:-1 23:0.333333 24:-1 25:1 26:1 27:-1 28:-0.333333 29:0.333333 30:1 31:-1 32:-1 33:-1 34:-0.333333 35:1 36:1 37:1 38:0.333333 39:1 40:0.333333 41:-1 42:1 43:1 44:0.333333 45:0.333333 46:1 47:0.333333 48:0.333333 49:-1 50:1 51:-0.333333 52:1 53:-0.333333 54:-1 55:-0.333333 56:-0.333333 57:-0.333333 58:0.333333 59:-1 60:1 
0.05071830950538925 1:-0.333333 2:-0.333333 3:-0.333333 4:1 5:-1 6:0.333333 7:0.333333 8:0.333333 9:-1 10:-0.333333 11:0.333333 12:-1 13:1 14:0.333333 15:1 16:-1 17:1 18:1 19:1 20:1 21:1 22:-1 23:-1 24:1 25:-1 26:1 27:-1 28:-1 29:1 30:1 31:-1 32:-1 33:1 34:1 35:0.333333 36:-1 37:-1 38:-1 39:0.333333 40:1 41:1 42:0.333333 43:-1 44:-1 45:-1 46:-1 47:-1 48:-0.333333 49:-1 50:-1 51:1 52:-0.333333 53:-1 54:-1 55:-0.333333 56:1 57:1 58:0.333333 59:0.333333 60:-1 
10.77856065488517 1:-1 2:-1 3:1 4:-1 5:-1 6:1 7:-0.333333 8:-1 9:0.333333 10:-1 11:-0.333333 12:-1 13:-1 14:0.333333 15:0.333333 16:1 17:-1 18:0.333333 19:1 20:-0.333333 21:-0.333333 22:-0.333333 23:-1 24:-1 25:0.333333 26:1 27:1 28:0.333333 29:1 30:-0.333333 31:-1 32:-0.333333 33:1 34:-0.333333 35:-0.333333 36:-1 37:-0.333333 38:-0.333333 39:0.333333 40:-0.333333 41:-1 42:-1 43:0.333333 44:0.333333 45:-1 46:0.333333 47:1 48:-0.333333 49:-1 50:-0.333333 51:0.333333 52:0.333333 53:-1 54:-1 55:-0.333333 56:-0.333333 57:-1 58:-0.333333 59:0.333333 60:1 
376.8100643087078 1:0.333333 2:-0.333333 3:0.333333 4:0.333333 5:-0.333333 6:-1 7:-0.333333 8:0.333333 9:-0.333333 10:-0.333333 11:0.333333 12:0.333333 13:1 14:0.333333 15:0.333333 16:-1 17:-0.333333 18:-0.333333 19:-0.333333 20:0.333333 21:0.333333 22:0.333333 23:0.333333 24:-0.333333 25:0.333333 26:-1 27:-0.333333 28:-1 29:0.333333 30:0.333333 31:0.333333 32:-0.333333 33:-1 34:-0.333333 35:0.333333 36:-0.333333 37:0.333333 38:-0.333333 39:-0.333333 40:1 41:0.333333 42:0.333333 43:0.333333 44:0.333333 45:-0.333333 46:-0.333333 47:-0.333333 48:-0.333333 49:0.333333 50:-1 51:-1 52:-1 53:-0.333333 54:-0.333333 55:0.333333 56:-1 57:-1 58:-0.333333 59:-0.333333 60:0.333333 
8.489177726535024 1:-1 2:-1 3:1 4:-0.333333 5:-0.333333 6:-1 7:0.333333 8:-1 9:-1 10:-0.333333 11:0.333333 12:0.333333 13:1 14:0.333333 15:-1 16:1 17:0.333333 18:0.333333 19:0.333333 20:-1 21:-1 22:-1 23:0.333333 24:1 25:0.333333 26:0.333333 27:-1 28:1 29:0.333333 30:-1 31:0.333333 32:0.333333 33:1 34:1 35:1 36:0.333333 37:-1 38:1 39:-1 40:1 41:1 42:-1 43:-1 44:0.333333 45:-1 46:0.333333 47:-1 48:-1 49:-1 50:-1 51:0.333333 52:1 53:-0.333333 54:-0.333333 55:-0.333333 56:-1 57:-0.333333 58:1 59:-0.333333 60:-1 
37.12712866897989 1:1 2:-0.333333 3:-0.333333 4:-0.333333 5:0.333333 6:-0.333333 7:0.333333 8:1 9:1 10:0.333333 11:-1 12:0.333333 13:-0.333333 14:-0.333333 15:-1 16:-1 17:0.333333 18:1 19:0.333333 20:-0.333333 21:0.333333 22:-1 23:1 24:1 25:1 26:0.333333 27:0.333333 28:0.333333 29:-1 30:-0.333333 31:1 32:0.333333 33:1 34:1 35:0.333333 36:-0.333333 37:1 38:-1 39:-1 40:0.333333 41:0.333333 42:0.333333 43:-1 44:-0.333333 45:-0.333333 46:-1 47:-0.333333 48:-0.333333 49:-1 50:-1 51:-0.333333 52:0.333333 53:0.333333 54:0.333333 55:-1 56:0.333333 57:-0.333333 58:-0.333333 59:0.333333 60:-0.333333 
4.549359053520728 1:-1 2:-1 3:-0.333333 4:0.333333 5:-1 6:1 7:1 8:0.333333 9:1 10:0.333333 11:-1 12:-0.333333 13:-1 14:-1 15:-1 16:0.333333 17:1 18:1 19:-1 20:1 21:1 22:1 23:-0.333333 24:-1 25:-0.333333 26:-1 27:1 28:-0.333333 29:1 30:-0.333333 31:1 32:-0.333333 33:1 34:-1 35:0.333333 36:1 37:0.333333 38:-1 39:-1 40:0.333333 41:1 42:-1 43:-1 44:-0.333333 45:-1 46:-0.333333 47:-1 48:-1 49:1 50:1 51:-0.333333 52:-1 53:-1 54:0.333333 55:0.333333 56:-1 57:0.333333 58:0.333333 59:-0.333333 60:1 
3125 1:-1 2:-1 3:0.333333 4:1 5:-0.333333 6:-1 7:-1 8:-1 9:-0.333333 10:1 11:-1 12:0.333333 13:1 14:0.333333 15:0.333333 16:0.333333 17:1 18:0.333333 19:0.333333 20:1 21:1 22:1 23:1 24:0.333333 25:1 26:-0.333333 27:-0.333333 28:0.333333 29:-1 30:-0.333333 31:-0.333333 32:-1 33:0.333333 34:-0.333333 35:-1 36:0.333333 37:-1 38:-1 39:0.333333 40:1 41:1 42:-1 43:-1 44:1 45:-0.333333 46:0.333333 47:0.333333 48:1 49:-0.333333 50:0.333333 51:0.333333 52:1 53:-1 54:1 55:1 56:-1 57:0.333333 58:-1 59:-1 60:-1 
26.96237715174762 1:0.333333 2:1 3:-0.333333 4:-0.333333 5:-0.333333 6:-1 7:-1 8:-0.333333 9:1 10:-0.333333 11:0.333333 12:1 13:-0.333333 14:1 15:-0.333333 16:-1 17:-1 18:-1 19:1 20:-1 21:-0.333333 22:-1 23:1 24:-1 25:0.333333 26:0.333333 27:-1 28:-0.333333 29:-0.333333 30:-0.333333 31:0.333333 32:0.333333 33:-1 34:0.333333 35:-0.333333 36:1 37:-0.333333 38:0.333333 39:1 40:-1 41:0.333333 42:-0.333333 43:-1 44:-0.333333 45:-0.333333 46:-1 47:0.333333 48:0.333333 49:-1 50:-0.333333 51:-0.333333 52:-0.333333 53:0.333333 54:-1 55:1 56:0.333333 57:-1 58:-0.333333 59:0.333333 60:1 
294.2868274350918 1:-0.333333 2:-0.333333 3:0.333333 4:-0.333333 5:0.333333 6:-0.333333 7:0.333333 8:1 9:-0.333333 10:0.333333 11:-0.333333 12:-0.333333 13:-1 14:-0.333333 15:0.333333 16:-0.333333 17:-0.333333 18:-1 19:-0.333333 20:0.333333 21:0.333333 22:-0.333333 23:0.333333 24:-0.333333 25:-0.333333 26:0.333333 27:1 28:0.333333 29:-0.333333 30:-1 31:0.333333 32:-0.333333 33:-0.333333 34:0.333333 35:-0.333333 36:-0.333333 37:1 38:-0.333333 39:0.333333 40:-0.333333 41:0.333333 42:1 43:-0.333333 44:-0.333333 45:0.333333 46:-0.333333 47:-0.333333 48:0.333333 49:-0.333333 50:-1 51:-0.333333 52:1 53:-0.333333 54:1 55:-1 56:1 57:-0.333333 58:0.333333 59:-1 60:-0.333333 
119.5159431715746 1:-0.333333 2:0.333333 3:0.333333 4:0.333333 5:1 6:-0.333333 7:0.333333 8:0.333333 9:-1 10:0.333333 11:0.333333 12:0.333333 13:0.333333 14:-1 15:-1 16:-0.333333 17:-0.333333 18:1 19:-0.333333 20:0.333333 21:0.333333 22:1 23:-0.333333 24:-1 25:-0.333333 26:0.333333 27:0.333333 28:0.333333 29:1 30:-0.333333 31:0.333333 32:0.333333 33:-1 34:0.333333 35:0.333333 36:0.333333 37:0.333333 38:-1 39:-1 40:-1 41:-0.333333 42:1 43:-0.333333 44:0.333333 45:0.333333 46:1 47:-0.333333 48:-1 49:-0.333333 50:0.333333 51:0.333333 52:0.333333 53:1 54:-0.333333 55:0.333333 56:0.333333 57:-1 58:-0.333333 59:0.333333 60:0.333333 
9.046315433676224 1:1 2:-0.333333 3:0.333333 4:-1 5:1 6:0.333333 7:0.333333 8:-1 9:-1 10:1 11:1 12:1 13:-1 14:-1 15:0.333333 16:1 17:1 18:-1 19:-1 20:0.333333 21:1 22:0.333333 23:1 24:1 25:-1 26:0.333333 27:0.333333 28:1 29:-1 30:1 31:1 32:1 33:1 34:0.333333 35:1 36:-0.333333 37:0.333333 38:-1 39:-0.333333 40:0.333333 41:1 42:-0.333333 43:0.333333 44:1 45:0.333333 46:0.333333 47:0.333333 48:-1 49:-0.333333 50:-1 51:1 52:1 53:-1 54:0.333333 55:1 56:0.333333 57:0.333333 58:1 59:1 60:0.333333 
289.6340612814039 1:1 2:-0.333333 3:-0.333333 4:0.333333 5:0.333333 6:0.333333 7:-0.333333 8:-0.333333 9:-0.333333 10:0.333333 11:0.333333 12:1 13:0.333333 14:-0.333333 15:-0.333333 16:0.333333 17:1 18:0.333333 19:0.333333 20:-0.333333 21:-1 22:-0.333333 23:-1 24:-0.333333 25:-0.333333 26:-1 27:-1 28:-0.333333 29:-1 30:-0.333333 31:-0.333333 32:-1 33:-0.333333 34:0.333333 35:0.333333 36:0.333333 37:-0.333333 38:0.333333 39:0.333333 40:1 41:-0.333333 42:-0.333333 43:-0.333333 44:0.333333 45:-0.333333 46:0.333333 47:0.333333 48:-0.333333 49:-1 50:-0.333333 51:-0.333333 52:-1 53:-0.333333 54:-1 55:-0.333333 56:0.333333 57:-0.333333 58:-0.333333 59:-0.333333 60:0.333333 
12.00733004706682 1:-0.333333 2:-0.333333 3:-1 4:0.333333 5:0.333333 6:-1 7:-0.333333 8:-1 9:-1 10:1 11:1 12:-0.333333 13:-1 14:-0.333333 15:-1 16:-0.333333 17:-1 18:-0.333333 19:-0.333333 20:-1 21:-1 22:1 23:1 24:1 25:1 26:0.333333 27:1 28:-1 29:-1 30:-1 31:0.333333 32:1 33:0.333333 34:0.333333 35:-1 36:-0.333333 37:-1 38:-1 39:0.333333 40:-1 41:-1 42:-0.333333 43:-1 44:0.333333 45:0.333333 46:-1 47:-1 48:-0.333333 49:0.333333 50:1 51:-0.333333 52:-1 53:0.333333 54:-1 55:-0.333333 56:1 57:-0.333333 58:0.333333 59:1 60:-0.333333 
44.84949030833585 1:-1 2:-0.333333 3:0.333333 4:0.333333 5:1 6:-0.333333 7:-0.333333 8:1 9:-0.333333 10:-0.333333 11:-1 12:0.333333 13:0.333333 14:1 15:-1 16:-0.333333 17:1 18:0.333333 19:0.333333 20:0.333333 21:0.333333 22:1 23:-0.333333 24:-0.333333 25:1 26:1 27:-0.333333 28:-1 29:-1 30:-0.333333 31:-0.333333 32:1 33:-0.333333 34:-1 35:-0.333333 36:-1 37:1 38:-0.333333 39:0.333333 40:1 41:-0.333333 42:0.333333 43:0.333333 44:-1 45:-0.333333 46:0.333333 47:0.333333 48:0.333333 49:1 50:-0.333333 51:0.333333 52:0.333333 53:1 54:1 55:0.333333 56:-1 57:-0.333333 58:-0.333333 59:1 60:1 
39.35714027378942 1:0.333333 2:0.333333 3:1 4:-0.333333 5:-0.333333 6:-0.333333 7:1 8:-0.333333 9:0.333333 10:1 11:1 12:-1 13:-0.333333 14:0.333333 15:0.333333 16:0.333333 17:-0.333333 18:1 19:-1 20:-1 21:0.333333 22:0.333333 23:0.333333 24:-1 25:-1 26:0.333333 27:1 28:0.333333 29:0.333333 30:-1 31:1 32:0.333333 33:0.333333 34:1 35:-1 36:-0.333333 37:-1 38:0.333333 39:0.333333 40:0.333333 41:0.333333 42:1 43:-0.333333 44:1 45:0.333333 46:0.333333 47:1 48:0.333333 49:1 50:-0.333333 51:1 52:-0.333333 53:-1 54:-0.333333 55:-0.333333 56:0.333333 57:0.333333 58:1 59:0.333333 60:0.333333 
24.1153833830674 1:-0.333333 2:1 3:0.333333 4:0.333333 5:1 6:-0.333333 7:-0.333333 8:0.333333 9:1 10:0.333333 11:0.333333 12:-1 13:-0.333333 14:0.333333 15:0.333333 16:-1 17:0.333333 18:-1 19:1 20:1 21:0.333333 22:1 23:-1 24:1 25:-0.333333 26:0.333333 27:0.333333 28:-1 29:1 30:0.333333 31:1 32:-0.333333 33:0.333333 34:0.333333 35:-1 36:-0.333333 37:0.333333 38:-1 39:-0.333333 40:-0.333333 41:-1 42:0.333333 43:-1 44:-0.333333 45:1 46:1 47:-0.333333 48:0.333333 49:0.333333 50:-1 51:0.333333 52:0.333333 53:-1 54:-0.333333 55:-0.333333 56:-1 57:-0.333333 58:0.333333 59:-1 60:-1 
21.36893940001892 1:-1 2:1 3:1 4:0.333333 5:0.333333 6:0.333333 7:1 8:-1 9:0.333333 10:-0.333333 11:-0.333333 12:-1 13:-1 14:-1 15:0.333333 16:1 17:-1 18:-0.333333 19:0.333333 20:-1 21:-1 22:1 23:-0.333333 24:-0.333333 25:-0.333333 26:1 27:0.333333 28:1 29:0.333333 30:0.333333 31:1 32:-0.333333 33:-0.333333 34:0.333333 35:0.333333 36:-1 37:1 38:0.333333 39:1 40:-0.333333 41:-0.333333 42:-1 43:1 44:0.333333 45:1 46:0.333333 47:-0.333333 48:1 49:-0.333333 50:-0.333333 51:-1 52:-1 53:-0.333333 54:-0.333333 55:-0.333333 56:-1 57:-0.333333 58:0.333333 59:0.333333 60:1 
8.565481060195619 1:-1 2:1 3:-0.333333 4:-1 5:-1 6:-0.333333 7:-1 8:1 9:0.333333 10:-1 11:-0.333333 12:-0.333333 13:0.333333 14:0.333333 15:0.333333 16:1 17:1 18:0.333333 19:1 20:1 21:0.333333 22:0.333333 23:0.333333 24:-1 25:0.333333 26:-1 27:-0.333333 28:0.333333 29:-1 30:-1 31:1 32:-1 33:-0.333333 34:1 35:0.333333 36:0.333333 37:0.333333 38:0.333333 39:-1 40:-1 41:1 42:-1 43:0.333333 44:-0.333333 45:1 46:-1 47:-0.333333 48:-1 49:1 50:1 51:1 52:1 53:1 54:-0.333333 55:0.333333 56:1 57:0.333333 58:1 59:1 60:0.333333 
17.67831577724915 1:0.333333 2:1 3:-0.333333 4:-1 5:-1 6:0.333333 7:1 8:1 9:0.333333 10:-1 11:1 12:0.333333 13:1 14:-0.333333 15:0.333333 16:-1 17:-0.333333 18:0.333333 19:1 20:-0.333333 21:-0.333333 22:-1 23:-1 24:1 25:-0.333333 26:0.333333 27:0.333333 28:1 29:-0.333333 30:-0.333333 31:-1 32:-0.333333 33:1 34:0.333333 35:1 36:1 37:-0.333333 38:0.333333 39:1 40:1 41:-1 42:-0.333333 43:-0.333333 44:-0.333333 45:0.333333 46:-1 47:-0.333333 48:-1 49:0.333333 50:-1 51:-1 52:-1 53:-1 54:-1 55:-0.333333 56:-1 57:-0.333333 58:-1 59:-0.333333 60:-0.333333 
386.2171752740887 1:-0.333333 2:0.333333 3:1 4:-0.333333 5:0.333333 6:-0.333333 7:0.333333 8:0.333333 9:1 10:1 11:-0.333333 12:-0.333333 13:-0.333333 14:0.333333 15:0.333333 16:1 17:0.333333 18:1 19:-0.333333 20:0.333333 21:1 22:-0.333333 23:0.333333 24:-1 25:-0.333333 26:0.333333 27:0.333333 28:0.333333 29:-0.333333 30:-0.333333 31:-0.333333 32:1 33:-0.333333 34:-1 35:-0.333333 36:0.333333 37:-0.333333 38:-0.333333 39:-0.333333 40:-0.333333 41:0.333333 42:-1 43:-1 44:-0.333333 45:-0.333333 46:0.333333 47:-0.333333 48:0.333333 49:1 50:0.333333 51:0.333333 52:-0.333333 53:-0.333333 54:-0.333333 55:-0.333333 56:0.333333 57:0.333333 58:-1 59:-0.333333 60:-0.333333 
7.05747429747266 1:-1 2:-1 3:-1 4:-0.333333 5:-1 6:-1 7:-0.333333 8:-1 9:-0.333333 10:-1 11:-0.333333 12:-1 13:1 14:-1 15:-1 16:-0.333333 17:1 18:0.333333 19:0.333333 20:-1 21:-0.333333 22:0.333333 23:1 24:-0.333333 25:-1 26:-0.333333 27:-0.333333 28:-1 29:-0.333333 30:1 31:0.333333 32:1 33:-0.333333 34:1 35:-0.333333 36:1 37:1 38:-1 39:1 40:-0.333333 41:-0.333333 42:-0.333333 43:-1 44:1 45:-1 46:-1 47:1 48:0.333333 49:-0.333333 50:-0.333333 51:-1 52:-1 53:1 54:1 55:1 56:-0.333333 57:1 58:-1 59:0.333333 60:-1 
91.10917568426866 1:-0.333333 2:1 3:1 4:0.333333 5:-0.333333 6:1 7:-0.333333 8:-0.333333 9:-0.333333 10:-0.333333 11:-0.333333 12:0.333333 13:0.333333 14:-1 15:0.333333 16:1 17:1 18:1 19:-0.333333 20:0.333333 21:-0.333333 22:-0.333333 23:0.333333 24:0.333333 25:1 26:1 27:1 28:-0.333333 29:-1 30:-0.333333 31:-0.333333 32:-1 33:-0.333333 34:0.333333 35:0.333333 36:-0.333333 37:-0.333333 38:-1 39:-0.333333 40:0.333333 41:1 42:-0.333333 43:0.333333 44:1 45:0.333333 46:-0.333333 47:0.333333 48:0.333333 49:0.333333 50:-1 51:-0.333333 52:-0.333333 53:-1 54:0.333333 55:-1 56:1 57:0.333333 58:0.333333 59:-0.333333 60:0.333333 
17.79981974422694 1:-1 2:-1 3:0.333333 4:-1 5:-1 6:0.333333 7:-1 8:-1 9:-0.333333 10:-1 11:-1 12:-1 13:0.333333 14:0.333333 15:1 16:0.333333 17:0.333333 18:1 19:-1 20:1 21:-0.333333 22:0.333333 23:-1 24:-0.333333 25:-1 26:1 27:-0.333333 28:-0.333333 29:-0.333333 30:0.333333 31:0.333333 32:1 33:1 34:-1 35:-1 36:-1 37:1 38:-1 39:0.333333 40:-0.333333 41:-0.333333 42:0.333333 43:1 44:-0.333333 45:-0.333333 46:1 47:-0.333333 48:-0.333333 49:-1 50:-0.333333 51:1 52:-0.333333 53:-0.333333 54:-0.333333 55:-1 56:-1 57:0.333333 58:-1 59:0.333333 60:-0.333333 
34.01586096752711 1:-1 2:-0.333333 3:-0.333333 4:-1 5:-1 6:-0.333333 7:1 8:0.333333 9:-0.333333 10:-0.333333 11:-0.333333 12:-1 13:-0.333333 14:-0.333333 15:0.333333 16:-0.333333 17:1 18:-0.333333 19:-0.333333 20:-1 21:-0.333333 22:-0.333333 23:-0.333333 24:1 25:-0.333333 26:-1 27:0.333333 28:0.333333 29:-1 30:0.333333 31:-1 32:0.333333 33:0.333333 34:1 35:1 36:-0.333333 37:-0.333333 38:0.333333 39:0.333333 40:1 41:1 42:0.333333 43:1 44:-0.333333 45:-0.333333 46:-0.333333 47:-1 48:-1 49:0.333333 50:1 51:0.333333 52:1 53:0.333333 54:0.333333 55:1 56:1 57:1 58:-0.333333 59:1 60:-0.333333 
5.481812086391341 1:-0.333333 2:-0.333333 3:0.333333 4:-1 5:-0.333333 6:-1 7:1 8:-1 9:-1 10:1 11:-0.333333 12:0.333333 13:1 14:-1 15:1 16:-0.333333 17:-1 18:1 19:-1 20:0.333333 21:-1 22:1 23:1 24:1 25:1 26:1 27:1 28:-0.333333 29:1 30:-1 31:-0.333333 32:-0.333333 33:1 34:-0.333333 35:-0.333333 36:1 37:-0.333333 38:0.333333 39:0.333333 40:-1 41:1 42:1 43:1 44:-0.333333 45:-1 46:0.333333 47:1 48:-0.333333 49:0.333333 50:-1 51:1 52:1 53:1 54:-1 55:-0.333333 56:0.333333 57:0.333333 58:-1 59:-1 60:0.333333 
1.750748555338682 1:0.333333 2:1 3:0.333333 4:-1 5:-1 6:1 7:1 8:1 9:1 10:-0.333333 11:1 12:-1 13:-0.333333 14:-1 15:-1 16:-1 17:-1 18:-1 19:1 20:1 21:1 22:-0.333333 23:1 24:-1 25:1 26:1 27:1 28:0.333333 29:1 30:1 31:1 32:-0.333333 33:1 34:-0.333333 35:-1 36:1 37:-1 38:-1 39:1 40:-0.333333 41:-1 42:0.333333 43:1 44:1 45:1 46:-1 47:-0.333333 48:1 49:-0.333333 50:1 51:1 52:-0.333333 53:1 54:-1 55:1 56:1 57:1 58:1 59:1 60:1 
35.69220743200168 1:0.333333 2:0.333333 3:1 4:-0.333333 5:-0.333333 6:-1 7:-0.333333 8:-0.333333 9:-1 10:-0.333333 11:-1 12:0.333333 13:0.333333 14:-1 15:-1 16:-1 17:-0.333333 18:-0.333333 19:1 20:0.333333 21:-0.333333 22:0.333333 23:1 24:-1 25:0.333333 26:1 27:-0.333333 28:0.333333 29:-1 30:1 31:-0.333333 32:0.333333 33:-1 34:-0.333333 35:0.333333 36:1 37:-0.333333 38:-0.333333 39:0.333333 40:0.333333 41:0.333333 42:-1 43:-0.333333 44:-1 45:1 46:0.333333 47:0.333333 48:-1 49:-0.333333 50:-0.333333 51:-1 52:-0.333333 53:-1 54:1 55:-0.333333 56:-1 57:1 58:1 59:-0.333333 60:-0.333333 
42.44280412836551 1:1 2:1 3:-0.333333 4:1 5:0.333333 6:0.333333 7:-1 8:0.333333 9:0.333333 10:-0.333333 11:0.333333 12:0.333333 13:1 14:0.333333 15:1 16:-1 17:0.333333 18:0.333333 19:-1 20:0.333333 21:-0.333333 22:0.333333 23:-1 24:-0.333333 25:-0.333333 26:-1 27:-0.333333 28:-0.333333 29:-0.333333 30:1 31:-0.333333 32:-1 33:-0.333333 34:0.333333 35:1 36:-0.333333 37:-0.333333 38:0.333333 39:0.333333 40:1 41:0.333333 42:0.333333 43:-1 44:0.333333 45:-1 46:0.333333 47:-1 48:-1 49:-1 50:-0.333333 51:0.333333 52:-0.333333 53:-1 54:-0.333333 55:0.333333 56:1 57:0.333333 58:-1 59:0.333333 60:0.333333 
3125 1:-0.333333 2:-0.333333 3:-0.333333 4:-0.333333 5:-0.333333 6:-1 7:0.333333 8:0.333333 9:0.333333 10:-0.333333 11:-0.333333 12:0.333333 13:-0.333333 14:0.333333 15:-0.333333 16:-0.333333 17:0.333333 18:0.333333 19:-0.333333 20:0.333333 21:-0.333333 22:0.333333 23:-0.333333 24:0.333333 25:1 26:-0.333333 27:0.333333 28:0.333333 29:-0.333333 30:-0.333333 31:-0.333333 32:0.333333 33:-0.333333 34:-0.333333 35:-0.333333 36:-1 37:-0.333333 38:-0.333333 39:0.333333 40:1 41:-0.333333 42:-0.333333 43:-0.333333 44:-0.333333 45:-0.333333 46:-0.333333 47:0.333333 48:0.333333 49:-0.333333 50:-0.333333 51:-0.333333 52:-0.333333 53:0.333333 54:-0.333333 55:-0.333333 56:-0.333333 57:-0.333333 58:0.333333 59:0.333333 60:-0.333333 
12.88266230438505 1:0.333333 2:-1 3:1 4:-0.333333 5:-1 6:-1 7:-0.333333 8:0.333333 9:1 10:1 11:1 12:-0.333333 13:-1 14:-0.333333 15:1 16:-0.333333 17:-1 18:-1 19:-0.333333 20:0.333333 21:1 22:0.333333 23:1 24:1 25:0.333333 26:0.333333 27:1 28:-0.333333 29:-0.333333 30:-0.333333 31:-0.333333 32:-1 33:0.333333 34:-1 35:-1 36:1 37:-0.333333 38:1 39:-0.333333 40:-0.333333 41:-0.333333 42:0.333333 43:1 44:1 45:0.333333 46:-1 47:-1 48:1 49:-0.333333 50:1 51:0.333333 52:-1 53:-1 54:-0.333333 55:-1 56:-1 57:1 58:-0.333333 59:1 60:-0.333333 
4.119831382339536 1:-1 2:-1 3:-1 4:-0.333333 5:0.333333 6:-1 7:-0.333333 8:-1 9:1 10:0.333333 11:-1 12:-0.333333 13:0.333333 14:1 15:-0.333333 16:1 17:-1 18:1 19:-1 20:-1 21:-1 22:0.333333 23:-1 24:-0.333333 25:-1 26:-1 27:-1 28:-1 29:1 30:1 31:-1 32:1 33:1 34:0.333333 35:-0.333333 36:1 37:-0.333333 38:-0.333333 39:1 40:1 41:1 42:0.333333 43:1 44:-0.333333 45:1 46:0.333333 47:-1 48:0.333333 49:1 50:1 51:-0.333333 52:1 53:-0.333333 54:1 55:-0.333333 56:-1 57:1 58:-0.333333 59:-0.333333 60:1 
37.34281912161737 1:-1 2:-1 3:-0.333333 4:-0.333333 5:0.333333 6:1 7:0.333333 8:-1 9:-0.333333 10:-0.333333 11:-1 12:-0.333333 13:-0.333333 14:-1 15:-0.333333 16:-0.333333 17:-0.333333 18:-1 19:-0.333333 20:-1 21:1 22:0.333333 23:-1 24:-1 25:0.333333 26:-1 27:1 28:0.333333 29:-1 30:-1 31:0.333333 32:0.333333 33:1 34:-0.333333 35:0.333333 36:0.333333 37:0.333333 38:0.333333 39:-0.333333 40:0.333333 41:0.333333 42:0.333333 43:0.333333 44:0.333333 45:1 46:0.333333 47:0.333333 48:0.333333 49:0.333333 50:-1 51:-0.333333 52:0.333333 53:0.333333 54:1 55:-0.333333 56:-1 57:1 58:-1 59:-1 60:-1 
33.91696085342083 1:1 2:-1 3:-1 4:-0.333333 5:-0.333333 6:-0.333333 7:-1 8:-1 9:0.333333 10:1 11:0.333333 12:-1 13:-0.333333 14:-1 15:-0.333333 16:-0.333333 17:0.333333 18:1 19:-0.333333 20:-0.333333 21:0.333333 22:-0.333333 23:-0.333333 24:-0.333333 25:-1 26:1 27:0.333333 28:0.333333 29:1 30:0.333333 31:0.333333 32:-1 33:1 34:-1 35:1 36:-0.333333 37:0.333333 38:1 39:-0.333333 40:-1 41:-1 42:0.333333 43:-0.333333 44:0.333333 45:1 46:-0.333333 47:-0.333333 48:1 49:1 50:0.333333 51:0.333333 52:0.333333 53:0.333333 54:-0.333333 55:-0.333333 56:-0.333333 57:1 58:0.333333 59:0.333333 60:0.333333 
9.352654547688966 1:-0.333333 2:-1 3:-1 4:1 5:1 6:0.333333 7:1 8:-1 9:-0.333333 10:-1 11:-0.333333 12:0.333333 13:1 14:1 15:-0.333333 16:-1 17:0.333333 18:0.333333 19:-1 20:-0.333333 21:1 22:1 23:1 24:-1 25:-1 26:-0.333333 27:-0.333333 28:-0.333333 29:-0.333333 30:0.333333 31:-1 32:-0.333333 33:0.333333 34:-1 35:-0.333333 36:-0.333333 37:-0.333333 38:-1 39:0.333333 40:-1 41:-1 42:-1 43:-1 44:-1 45:0.333333 46:-0.333333 47:1 48:1 49:1 50:0.333333 51:0.333333 52:-1 53:-1 54:-0.333333 55:-1 56:0.333333 57:-1 58:1 59:-0.333333 60:-1 
22.54939670996349 1:-0.333333 2:-1 3:0.333333 4:-1 5:-1 6:0.333333 7:-0.333333 8:-1 9:1 10:-1 11:0.333333 12:0.333333 13:1 14:1 15:0.333333 16:1 17:-1 18:0.333333 19:-0.333333 20:-1 21:0.333333 22:0.333333 23:1 24:-0.333333 25:-0.333333 26:-0.333333 27:0.333333 28:1 29:1 30:-0.333333 31:-1 32:1 33:-0.333333 34:-0.333333 35:-0.333333 36:0.333333 37:1 38:-1 39:1 40:-0.333333 41:1 42:0.333333 43:-1 44:-0.333333 45:1 46:-0.333333 47:-0.333333 48:0.333333 49:1 50:1 51:0.333333 52:-0.333333 53:-0.333333 54:-0.333333 55:-0.333333 56:1 57:0.333333 58:-1 59:1 60:-0.333333 
6.648364997452577 1:1 2:-0.333333 3:0.333333 4:1 5:-0.333333 6:-0.333333 7:0.333333 8:1 9:-1 10:-0.333333 11:0.333333 12:-1 13:1 14:-0.333333 15:1 16:-0.333333 17:-0.333333 18:-1 19:-0.333333 20:-0.333333 21:-1 22:-0.333333 23:0.333333 24:0.333333 25:-1 26:-1 27:-1 28:-0.333333 29:0.333333 30:1 31:0.333333 32:-1 33:-1 34:1 35:-1 36:-1 37:-0.333333 38:-1 39:-1 40:-0.333333 41:-0.333333 42:-0.333333 43:-0.333333 44:0.333333 45:0.333333 46:1 47:-1 48:-0.333333 49:-1 50:-1 51:1 52:-0.333333 53:-1 54:-1 55:-1 56:0.333333 57:0.333333 58:0.333333 59:1 60:1 
18.56425431478623 1:0.333333 2:0.333333 3:1 4:-0.333333 5:-1 6:1 7:1 8:-1 9:-1 10:1 11:-0.333333 12:-1 13:0.333333 14:-1 15:-0.333333 16:1 17:0.333333 18:-0.333333 19:1 20:-0.333333 21:-0.333333 22:-1 23:-1 24:1 25:0.333333 26:-0.333333 27:1 28:-0.333333 29:-0.333333 30:-0.333333 31:-1 32:-0.333333 33:1 34:0.333333 35:-1 36:-1 37:1 38:-0.333333 39:0.333333 40:-1 41:0.333333 42:1 43:1 44:0.333333 45:1 46:-0.333333 47:1 48:0.333333 49:0.333333 50:0.333333 51:-1 52:0.333333 53:0.333333 54:0.333333 55:0.333333 56:-1 57:0.333333 58:1 59:0.333333 60:0.333333 
18.07106799962915 1:0.333333 2:-1 3:-0.333333 4:-0.333333 5:0.333333 6:-1 7:-0.333333 8:1 9:-0.333333 10:0.333333 11:-1 12:-0.333333 13:-0.333333 14:-1 15:-0.333333 16:1 17:-1 18:1 19:-0.333333 20:-0.333333 21:1 22:1 23:-0.333333 24:-1 25:-0.333333 26:-1 27:1 28:-0.333333 29:0.333333 30:1 31:-1 32:0.333333 33:0.333333 34:-1 35:-1 36:0.333333 37:1 38:-0.333333 39:0.333333 40:0.333333 41:-1 42:1 43:1 44:0.333333 45:1 46:-0.333333 47:0.333333 48:1 49:-0.333333 50:-0.333333 51:1 52:0.333333 53:1 54:1 55:-0.333333 56:-0.333333 57:0.333333 58:-1 59:-0.333333 60:1 
19.36917391380067 1:1 2:-0.333333 3:-1 4:-0.333333 5:-1 6:-0.333333 7:0.333333 8:0.333333 9:1 10:0.333333 11:1 12:-0.333333 13:-1 14:-0.333333 15:0.333333 16:-0.333333 17:0.333333 18:1 19:1 20:0.333333 21:1 22:1 23:-0.333333 24:0.333333 25:-1 26:0.333333 27:1 28:1 29:0.333333 30:-1 31:1 32:-0.333333 33:0.333333 34:1 35:-0.333333 36:-0.333333 37:-0.333333 38:0.333333 39:1 40:-0.333333 41:-0.333333 42:1 43:1 44:1 45:-0.333333 46:0.333333 47:-1 48:0.333333 49:-1 50:0.333333 51:0.333333 52:0.333333 53:0.333333 54:-0.333333 55:1 56:0.333333 57:1 58:1 59:1 60:-0.333333 
33.74242305765056 1:-0.333333 2:1 3:-0.333333 4:1 5:1 6:-1 7:0.333333 8:0.333333 9:-0.333333 10:-1 11:-0.333333 12:-0.333333 13:-0.333333 14:0.333333 15:-1 16:1 17:1 18:1 19:0.333333 20:1 21:-1 22:-1 23:0.333333 24:-1 25:-0.333333 26:1 27:0.333333 28:1 29:1 30:0.333333 31:1 32:1 33:-1 34:0.333333 35:1 36:-1 37:0.333333 38:-0.333333 39:-0.333333 40:0.333333 41:0.333333 42:1 43:0.333333 44:0.333333 45:-0.333333 46:0.333333 47:0.333333 48:-0.333333 49:-1 50:0.333333 51:0.333333 52:-0.333333 53:0.333333 54:-0.333333 55:0.333333 56:-0.333333 57:0.333333 58:1 59:0.333333 60:-0.333333 
3.688876210970242 1:1 2:1 3:-1 4:1 5:-1 6:1 7:-1 8:-1 9:-1 10:1 11:1 12:-1 13:-0.333333 14:-0.333333 15:0.333333 16:-1 17:1 18:-1 19:-1 20:1 21:-0.333333 22:-1 23:0.333333 24:-1 25:-1 26:1 27:1 28:-1 29:-1 30:-0.333333 31:1 32:-1 33:-1 34:-0.333333 35:-1 36:-1 37:0.333333 38:1 39:1 40:0.333333 41:-1 42:-1 43:-0.333333 44:0.333333 45:0.333333 46:0.333333 47:1 48:-1 49:1 50:1 51:0.333333 52:-1 53:1 54:0.333333 55:0.333333 56:0.333333 57:-1 58:1 59:-0.333333 60:-0.333333 
8.173044593768923 1:-0.333333 2:-1 3:-1 4:-0.333333 5:0.333333 6:-1 7:-0.333333 8:1 9:1 10:-0.333333 11:0.333333 12:1 13:-1 14:-1 15:1 16:-0.333333 17:-1 18:-1 19:-0.333333 20:1 21:-1 22:1 23:1 24:-0.333333 25:-1 26:-1 27:-1 28:-1 29:1 30:-0.333333 31:-0.333333 32:-1 33:-0.333333 34:-1 35:1 36:-0.333333 37:0.333333 38:0.333333 39:1 40:-1 41:-0.333333 42:0.333333 43:-1 44:0.333333 45:0.333333 46:0.333333 47:0.333333 48:-1 49:0.333333 50:-1 51:-0.333333 52:0.333333 53:-1 54:-0.333333 55:1 56:1 57:-1 58:0.333333 59:-1 60:-0.333333 
62.63348740977983 1:1 2:0.333333 3:0.333333 4:0.333333 5:0.333333 6:-1 7:-0.333333 8:-0.333333 9:-0.333333 10:0.333333 11:-1 12:-0.333333 13:-0.333333 14:-0.333333 15:-1 16:-1 17:-0.333333 18:-0.333333 19:0.333333 20:0.333333 21:1 22:-1 23:-1 24:1 25:1 26:-0.333333 27:-0.333333 28:1 29:0.333333 30:0.333333 31:-1 32:1 33:-0.333333 34:-0.333333 35:0.333333 36:0.333333 37:-0.333333 38:1 39:-0.333333 40:1 41:0.333333 42:0.333333 43:1 44:0.333333 45:-0.333333 46:-0.333333 47:-0.333333 48:-1 49:0.333333 50:0.333333 51:0.333333 52:-1 53:-0.333333 54:-0.333333 55:-1 56:0.333333 57:-1 58:-0.333333 59:0.333333 60:-1 
88.6669164696296 1:1 2:-0.333333 3:-1 4:0.333333 5:-0.333333 6:0.333333 7:0.333333 8:0.333333 9:1 10:0.333333 11:-1 12:-1 13:-0.333333 14:-0.333333 15:-0.333333 16:0.333333 17:-1 18:0.333333 19:1 20:-0.333333 21:1 22:-0.333333 23:-1 24:-0.333333 25:1 26:0.333333 27:0.333333 28:0.333333 29:1 30:-0.333333 31:0.333333 32:0.333333 33:0.333333 34:-1 35:0.333333 36:0.333333 37:1 38:-0.333333 39:-0.333333 40:-0.333333 41:0.333333 42:0.333333 43:-1 44:-0.333333 45:-0.333333 46:0.333333 47:0.333333 48:0.333333 49:1 50:-0.333333 51:0.333333 52:0.333333 53:0.333333 54:0.333333 55:1 56:1 57:0.333333 58:1 59:0.333333 60:1 
147.7350652884313 1:0.333333 2:0.333333 3:-0.333333 4:0.333333 5:0.333333 6:0.333333 7:1 8:0.333333 9:-1 10:-0.333333 11:-1 12:-0.333333 13:-1 14:-0.333333 15:0.333333 16:-1 17:-0.333333 18:0.333333 19:0.333333 20:1 21:0.333333 22:0.333333 23:0.333333 24:-0.333333 25:-1 26:-0.333333 27:-1 28:0.333333 29:-1 30:-0.333333 31:-0.333333 32:1 33:-1 34:-1 35:-0.333333 36:-0.333333 37:-0.333333 38:0.333333 39:-0.333333 40:0.333333 41:-1 42:-0.333333 43:0.333333 44:-0.333333 45:1 46:-0.333333 47:-0.333333 48:-0.333333 49:-0.333333 50:-0.333333 51:-1 52:0.333333 53:0.333333 54:0.333333 55:-0.333333 56:1 57:-0.333333 58:0.333333 59:1 60:0.333333 
18.98834186211828 1:0.333333 2:-1 3:-1 4:0.333333 5:0.333333 6:1 7:-0.333333 8:0.333333 9:1 10:1 11:-0.333333 12:-1 13:0.333333 14:-1 15:-1 16:-0.333333 17:1 18:1 19:1 20:-0.333333 21:-1 22:-1 23:0.333333 24:1 25:0.333333 26:-1 27:0.333333 28:-1 29:-0.333333 30:-0.333333 31:0.333333 32:-1 33:1 34:-1 35:0.333333 36:0.333333 37:1 38:0.333333 39:0.333333 40:1 41:-0.333333 42:0.333333 43:-1 44:0.333333 45:0.333333 46:0.333333 47:0.333333 48:-0.333333 49:-1 50:-0.333333 51:-0.333333 52:1 53:-0.333333 54:1 55:1 56:0.333333 57:0.333333 58:1 59:0.333333 60:-1 
4.045892423476918 1:-1 2:1 3:-1 4:0.333333 5:1 6:-0.333333 7:-1 8:-1 9:-1 10:-1 11:-0.333333 12:-1 13:-0.333333 14:1 15:-0.333333 16:-1 17:-1 18:-0.333333 19:-0.333333 20:-1 21:1 22:-1 23:1 24:-1 25:-0.333333 26:-0.333333 27:-1 28:1 29:-1 30:0.333333 31:-1 32:1 33:0.333333 34:1 35:1 36:1 37:-1 38:-1 39:-1 40:-0.333333 41:-1 42:-0.333333 43:-1 44:-1 45:-1 46:1 47:1 48:1 49:-0.333333 50:0.333333 51:1 52:-1 53:-1 54:-1 55:-0.333333 56:0.333333 57:1 58:-0.333333 59:1 60:-0.333333 
4.297823557199828 1:1 2:-0.333333 3:1 4:1 5:-1 6:-1 7:1 8:0.333333 9:0.333333 10:1 11:-1 12:1 13:1 14:1 15:1 16:-1 17:1 18:1 19:-0.333333 20:-1 21:-1 22:-1 23:-1 24:1 25:-0.333333 26:-1 27:-1 28:0.333333 29:1 30:-1 31:-1 32:-0.333333 33:-1 34:0.333333 35:1 36:0.333333 37:-1 38:-0.333333 39:-1 40:-0.333333 41:-1 42:-0.333333 43:-1 44:1 45:-1 46:-1 47:-1 48:-0.333333 49:0.333333 50:1 51:-0.333333 52:1 53:1 54:-0.333333 55:0.333333 56:0.333333 57:0.333333 58:-1 59:-1 60:1 
1.954112920282717 1:-1 2:0.333333 3:1 4:-1 5:1 6:-1 7:-1 8:1 9:-0.333333 10:-1 11:-1 12:1 13:-1 14:0.333333 15:1 16:1 17:0.333333 18:-1 19:-0.333333 20:-0.333333 21:-0.333333 22:-1 23:1 24:1 25:1 26:-0.333333 27:-1 28:-1 29:1 30:-0.333333 31:1 32:-1 33:-1 34:-0.333333 35:1 36:-1 37:-1 38:1 39:1 40:-0.333333 41:0.333333 42:1 43:1 44:0.333333 45:1 46:1 47:1 48:1 49:1 50:0.333333 51:1 52:0.333333 53:-1 54:0.333333 55:1 56:0.333333 57:-1 58:1 59:1 60:1 
3125 1:0.333333 2:0.333333 3:1 4:1 5:1 6:-0.333333 7:-1 8:-0.333333 9:-0.333333 10:-1 11:0.333333 12:-1 13:-0.333333 14:0.333333 15:-1 16:0.333333 17:0.333333 18:-1 19:-1 20:-0.333333 21:-1 22:-1 23:-0.333333 24:1 25:-0.333333 26:1 27:-0.333333 28:0.333333 29:-1 30:-0.333333 31:-0.333333 32:1 33:-1 34:0.333333 35:-0.333333 36:1 37:1 38:0.333333 39:0.333333 40:0.333333 41:-1 42:0.333333 43:0.333333 44:1 45:-0.333333 46:0.333333 47:0.333333 48:0.333333 49:1 50:-0.333333 51:-0.333333 52:1 53:-0.333333 54:-0.333333 55:0.333333 56:0.333333 57:-0.333333 58:0.333333 59:0.333333 60:-1 
61.06961874603066 1:0.333333 2:0.333333 3:-1 4:-1 5:0.333333 6:-0.333333 7:0.333333 8:0.333333 9:-1 10:0.333333 11:0.333333 12:-1 13:-0.333333 14:0.333333 15:0.333333 16:-1 17:1 18:-0.333333 19:-0.333333 20:-0.333333 21:-1 22:-0.333333 23:1 24:-0.333333 25:1 26:-0.333333 27:0.333333 28:1 29:0.333333 30:-1 31:-0.333333 32:-0.333333 33:-1 34:-0.333333 35:1 36:0.333333 37:-0.333333 38:0.333333 39:-0.333333 40:-0.333333 41:-0.333333 42:-0.333333 43:0.333333 44:-1 45:-0.333333 46:-1 47:0.333333 48:-0.333333 49:1 50:-0.333333 51:-1 52:0.333333 53:-1 54:1 55:0.333333 56:1 57:-0.333333 58:1 59:0.333333 60:0.333333 
6.801627346552984 1:-1 2:1 3:1 4:-0.333333 5:0.333333 6:1 7:0.333333 8:1 9:-0.333333 10:-1 11:-1 12:-0.333333 13:0.333333 14:-1 15:-1 16:0.333333 17:-1 18:-0.333333 19:0.333333 20:-0.333333 21:1 22:-1 23:0.333333 24:0.333333 25:-1 26:-1 27:-0.333333 28:-1 29:-1 30:-1 31:-1 32:-1 33:1 34:-1 35:-1 36:-1 37:-0.333333 38:-1 39:-1 40:-0.333333 41:-1 42:-0.333333 43:-0.333333 44:0.333333 45:1 46:-0.333333 47:0.333333 48:-1 49:-0.333333 50:-1 51:-1 52:1 53:-1 54:1 55:-0.333333 56:0.333333 57:1 58:-1 59:-1 60:-1 
7.76181904424439 1:-1 2:-1 3:-1 4:-0.333333 5:0.333333 6:1 7:0.333333 8:-1 9:0.333333 10:-1 11:1 12:1 13:1 14:0.333333 15:0.333333 16:-1 17:-0.333333 18:-1 19:-1 20:-1 21:0.333333 22:-1 23:1 24:1 25:0.333333 26:0.333333 27:-1 28:1 29:1 30:1 31:0.333333 32:1 33:-0.333333 34:0.333333 35:0.333333 36:-1 37:-0.333333 38:0.333333 39:-1 40:0.333333 41:0.333333 42:1 43:-1 44:-0.333333 45:-1 46:-1 47:-0.333333 48:0.333333 49:0.333333 50:-1 51:-1 52:1 53:-1 54:1 55:1 56:1 57:1 58:-0.333333 59:0.333333 60:0.333333 
82.19922039235965 1:0.333333 2:1 3:0.333333 4:0.333333 5:-1 6:0.333333 7:0.333333 8:1 9:0.333333 10:0.333333 11:-0.333333 12:-0.333333 13:0.333333 14:-0.333333 15:-0.333333 16:0.333333 17:1 18:0.333333 19:0.333333 20:1 21:0.333333 22:0.333333 23:1 24:-1 25:-0.333333 26:-0.333333 27:-1 28:-1 29:-1 30:0.333333 31:0.333333 32:-1 33:-0.333333 34:0.333333 35:1 36:0.333333 37:-0.333333 38:1 39:-0.333333 40:-0.333333 41:-0.333333 42:0.333333 43:0.333333 44:-0.333333 45:-0.333333 46:-0.333333 47:-1 48:-1 49:0.333333 50:-0.333333 51:-0.333333 52:-0.333333 53:-0.333333 54:-0.333333 55:-1 56:-0.333333 57:-1 58:-0.333333 59:-1 60:-1 
2.978105714587892 1:-1 2:-0.333333 3:-1 4:-1 5:-1 6:0.333333 7:1 8:-1 9:1 10:-1 11:-1 12:-1 13:-1 14:1 15:0.333333 16:1 17:0.333333 18:1 19:-0.333333 20:1 21:-1 22:-0.333333 23:-1 24:1 25:-1 26:1 27:1 28:1 29:1 30:0.333333 31:1 32:0.333333 33:-1 34:1 35:-1 36:-1 37:-1 38:1 39:-1 40:-1 41:1 42:0.333333 43:1 44:1 45:-1 46:1 47:-0.333333 48:-1 49:-1 50:0.333333 51:0.333333 52:-1 53:1 54:1 55:-1 56:1 57:-0.333333 58:-0.333333 59:1 60:-0.333333 
8.006209982734829 1:-1 2:-0.333333 3:1 4:0.333333 5:0.333333 6:0.333333 7:-0.333333 8:1 9:-1 10:-0.333333 11:1 12:1 13:0.333333 14:0.333333 15:1 16:1 17:0.333333 18:1 19:0.333333 20:-1 21:0.333333 22:1 23:0.333333 24:1 25:-0.333333 26:-1 27:1 28:-0.333333 29:0.333333 30:-1 31:1 32:1 33:1 34:-1 35:1 36:0.333333 37:-1 38:1 39:1 40:0.333333 41:1 42:-1 43:-1 44:-1 45:0.333333 46:0.333333 47:0.333333 48:-1 49:-0.333333 50:-1 51:0.333333 52:1 53:1 54:1 55:0.333333 56:-1 57:0.333333 58:-1 59:1 60:-1 
68.21095302473388 1:1 2:-0.333333 3:-0.333333 4:0.333333 5:-1 6:-0.333333 7:0.333333 8:-0.333333 9:-0.333333 10:-0.333333 11:-1 12:1 13:-0.333333 14:-0.333333 15:-0.333333 16:-0.333333 17:-1 18:-0.333333 19:-0.333333 20:-1 21:0.333333 22:0.333333 23:-1 24:-0.333333 25:-1 26:0.333333 27:0.333333 28:0.333333 29:-1 30:-0.333333 31:-0.333333 32:-1 33:0.333333 34:-1 35:0.333333 36:-0.333333 37:-0.333333 38:-1 39:-0.333333 40:0.333333 41:1 42:1 43:-0.333333 44:1 45:-0.333333 46:-0.333333 47:-1 48:-0.333333 49:-1 50:0.333333 51:0.333333 52:-1 53:-0.333333 54:-0.333333 55:0.333333 56:0.333333 57:1 58:-0.333333 59:0.333333 60:-1 
33.37805829720746 1:-0.333333 2:-1 3:-0.333333 4:-0.333333 5:-0.333333 6:0.333333 7:0.333333 8:-1 9:-0.333333 10:1 11:1 12:-0.333333 13:-0.333333 14:-0.333333 15:-0.333333 16:0.333333 17:0.333333 18:1 19:-0.333333 20:0.333333 21:0.333333 22:-0.333333 23:-1 24:-0.333333 25:0.333333 26:-0.333333 27:-0.333333 28:-0.333333 29:0.333333 30:0.333333 31:-1 32:-1 33:-0.333333 34:-1 35:-1 36:-1 37:-0.333333 38:1 39:-1 40:-0.333333 41:-1 42:-0.333333 43:-0.333333 44:-1 45:0.333333 46:-1 47:1 48:-0.333333 49:-1 50:1 51:-0.333333 52:-1 53:-1 54:-0.333333 55:-1 56:-1 57:-0.333333 58:0.333333 59:1 60:-0.333333 
51.20680775118887 1:-0.333333 2:0.333333 3:0.333333 4:1 5:-0.333333 6:0.333333 7:0.333333 8:1 9:0.333333 10:1 11:-0.333333 12:0.333333 13:0.333333 14:-0.333333 15:-0.333333 16:-0.333333 17:-1 18:-1 19:0.333333 20:-1 21:0.333333 22:0.333333 23:0.333333 24:1 25:-0.333333 26:-1 27:0.333333 28:1 29:1 30:0.333333 31:0.333333 32:0.333333 33:1 34:-0.333333 35:0.333333 36:0.333333 37:1 38:-0.333333 39:0.333333 40:0.333333 41:0.333333 42:-1 43:0.333333 44:1 45:0.333333 46:0.333333 47:1 48:-0.333333 49:-0.333333 50:1 51:1 52:-1 53:1 54:0.333333 55:1 56:-1 57:-1 58:-0.333333 59:-0.333333 60:0.333333 
8.29758235439523 1:0.333333 2:-1 3:-0.333333 4:0.333333 5:1 6:1 7:1 8:0.333333 9:1 10:0.333333 11:1 12:-1 13:-1 14:1 15:-1 16:-1 17:-0.333333 18:-1 19:-1 20:-1 21:-0.333333 22:0.333333 23:1 24:0.333333 25:1 26:1 27:1 28:0.333333 29:0.333333 30:1 31:-0.333333 32:0.333333 33:0.333333 34:-1 35:0.333333 36:0.333333 37:-0.333333 38:1 39:-1 40:1 41:-1 42:-0.333333 43:-0.333333 44:1 45:0.333333 46:-1 47:0.333333 48:0.333333 49:1 50:1 51:0.333333 52:1 53:1 54:-1 55:1 56:1 57:-0.333333 58:-0.333333 59:1 60:-1 
71.0377011415509 1:-0.333333 2:-0.333333 3:0.333333 4:0.333333 5:0.333333 6:0.333333 7:1 8:0.333333 9:-1 10:0.333333 11:-1 12:-0.333333 13:-0.333333 14:-1 15:0.333333 16:-1 17:1 18:1 19:1 20:1 21:0.333333 22:1 23:1 24:0.333333 25:0.333333 26:-1 27:-1 28:0.333333 29:-1 30:-0.333333 31:-0.333333 32:1 33:-0.333333 34:-0.333333 35:-1 36:-1 37:-1 38:-1 39:-0.333333 40:-0.333333 41:-1 42:-0.333333 43:-0.333333 44:-0.333333 45:-1 46:-0.333333 47:0.333333 48:1 49:-1 50:0.333333 51:1 52:0.333333 53:1 54:-1 55:-1 56:-0.333333 57:-0.333333 58:0.333333 59:1 60:-0.333333 
12.25327084779783 1:-0.333333 2:1 3:0.333333 4:1 5:1 6:1 7:-0.333333 8:0.333333 9:1 10:1 11:1 12:1 13:0.333333 14:1 15:0.333333 16:1 17:-0.333333 18:1 19:-1 20:1 21:1 22:-1 23:1 24:-1 25:1 26:0.333333 27:-1 28:-1 29:-1 30:0.333333 31:-1 32:1 33:1 34:-0.333333 35:-0.333333 36:-0.333333 37:-1 38:-1 39:-1 40:1 41:1 42:0.333333 43:-1 44:-0.333333 45:0.333333 46:0.333333 47:1 48:0.333333 49:1 50:0.333333 51:0.333333 52:-1 53:-0.333333 54:-0.333333 55:0.333333 56:-0.333333 57:-1 58:1 59:-0.333333 60:-0.333333 
15.38739401497351 1:-0.333333 2:-0.333333 3:0.333333 4:0.333333 5:-1 6:-0.333333 7:-1 8:1 9:0.333333 10:-0.333333 11:1 12:-0.333333 13:0.333333 14:0.333333 15:-1 16:1 17:-1 18:-0.333333 19:0.333333 20:-1 21:0.333333 22:1 23:0.333333 24:0.333333 25:-1 26:0.333333 27:1 28:1 29:1 30:-0.333333 31:-0.333333 32:-0.333333 33:1 34:-0.333333 35:-1 36:1 37:-1 38:-0.333333 39:-1 40:-0.333333 41:-0.333333 42:-0.333333 43:-1 44:-0.333333 45:-1 46:0.333333 47:1 48:0.333333 49:1 50:-0.333333 51:1 52:0.333333 53:1 54:0.333333 55:-1 56:-1 57:-1 58:-1 59:-1 60:-1 
51.94789867394342 1:-0.333333 2:0.333333 3:1 4:0.333333 5:0.333333 6:1 7:-1 8:-1 9:1 10:-0.333333 11:0.333333 12:1 13:1 14:0.333333 15:0.333333 16:1 17:-0.333333 18:0.333333 19:1 20:-0.333333 21:0.333333 22:0.333333 23:0.333333 24:0.333333 25:1 26:0.333333 27:0.333333 28:0.333333 29:-1 30:-0.333333 31:-0.333333 32:0.333333 33:-1 34:-0.333333 35:-0.333333 36:1 37:-0.333333 38:-1 39:1 40:-0.333333 41:0.333333 42:1 43:1 44:1 45:1 46:0.333333 47:0.333333 48:-0.333333 49:-0.333333 50:-1 51:-1 52:-0.333333 53:-1 54:-0.333333 55:1 56:0.333333 57:0.333333 58:0.333333 59:0.333333 60:-1 
25.87102212170321 1:-0.333333 2:0.333333 3:-1 4:-0.333333 5:-1 6:-0.333333 7:-0.333333 8:-1 9:-0.333333 10:0.333333 11:1 12:-0.333333 13:-1 14:-1 15:-0.333333 16:-1 17:-1 18:-0.333333 19:-0.333333 20:-1 21:-0.333333 22:0.333333 23:-1 24:-0.333333 25:-0.333333 26:-1 27:0.333333 28:-1 29:0.333333 30:0.333333 31:-1 32:-0.333333 33:0.333333 34:-0.333333 35:0.333333 36:0.333333 37:0.333333 38:-1 39:0.333333 40:0.333333 41:1 42:-0.333333 43:-0.333333 44:-1 45:-0.333333 46:0.333333 47:-0.333333 48:0.333333 49:-1 50:1 51:-0.333333 52:-1 53:-1 54:-0.333333 55:-1 56:-1 57:-0.333333 58:-1 59:-1 60:0.333333 
8.170014888061459 1:-1 2:-1 3:-1 4:-1 5:-0.333333 6:1 7:-0.333333 8:0.333333 9:1 10:-1 11:1 12:0.333333 13:1 14:1 15:-1 16:-0.333333 17:1 18:-0.333333 19:1 20:-0.333333 21:1 22:-1 23:-1 24:-1 25:-1 26:-0.333333 27:-0.333333 28:1 29:0.333333 30:-1 31:1 32:1 33:0.333333 34:-1 35:-0.333333 36:1 37:-0.333333 38:-0.333333 39:0.333333 40:-1 41:1 42:-0.333333 43:-1 44:0.333333 45:1 46:1 47:-1 48:-0.333333 49:-1 50:-0.333333 51:-0.333333 52:-0.333333 53:-1 54:1 55:1 56:-1 57:-0.333333 58:-1 59:-0.333333 60:1 
